#pragma once
#define W_DENSE_KERNEL {{0.055402845,-0.041633744,0.04584626,-0.08619647,0.12919931,0.12317148,0.2377067,-0.049993478,0.21919218,0.11070453,0.2544545,0.0363523,0.071615376,0.09170377,0.19923463,-0.12746993,-0.20749453,0.038802113,-0.1597248,0.018928641,0.090916924,0.017194606,-0.20378372,0.026868312,0.08305472,0.22776,0.22780186,0.08955818,0.16225767,0.09106274,-0.06259276,0.17484248,-0.10140584,-0.14694494,-0.113478005,-0.17123227,0.2484744,0.15130466,0.1170655,0.08439868,-0.16109703,0.04563077,-0.15753445,-0.10177869,0.21937005,0.084350035,0.1284717,0.059076604,-0.0465807,-0.114499435,-0.16868332,0.09899321,0.019811276,-0.06267009,0.06562968,-0.052753538,-0.12676239,0.024689069,-0.18653794,-0.17714807,-0.0015623504,0.023494484,-0.056089424,0.16848135,-0.23672026,0.13871998,-0.05081073,0.0071461312,-0.13635993,-0.26916227,0.15966251,0.10983728,-0.03000992,0.11416354,0.0066716243,0.281658,0.1652854,0.44307873,-0.007495366,-0.2585565,0.0751964,0.28068182,0.051114377,0.01604417,0.27463362,-0.18277252,-0.13616882,0.019526796,-0.20791957,-0.3304559,-0.00037828984,-0.07489272,-0.035452187,-0.23358399,0.04359108,-0.061326783,0.041914944,-0.20376332,-0.052510202,0.07562316,-0.15413727,-0.01698606,-0.22272658,0.16603415,-0.12951458,0.20933025,0.20708367,0.18529151,0.07449811,0.33706668,-0.28732035,-0.04358237,0.13671194,-0.06742388,-0.098552056,0.07275559,0.05926778,0.20737118,-0.0921498,0.054295335,0.13203223,-0.011149211,0.054240674,0.11065466,-0.166961,0.141824,0.10035689,0.10174083,-0.24537973,-0.09970972,0.09180667,0.0951173,-0.18421245,-0.113169335,-0.06599042,-0.047997683,0.17430253,-0.047245536,0.0060763187,-0.14367528,-0.1756223,0.100073755,0.18750118,-0.04981317,0.27765712,0.14838068,0.12854156,-0.035275456,0.027092533,0.22442958,0.024792349,-0.006392386,-0.050293386,0.17699099,-0.06520777,0.0558828,0.1673405,0.10176361,0.05065126,0.23442215,0.11108262,-0.22250107,0.18968454,0.017222231,-0.24027346,0.18236305,0.032684237,0.04310521,0.00096257654,0.10250545,0.018327508,-0.06651509,0.052243173,0.055317126,0.03958266,-0.11304714,0.115779996,0.12023568,0.09687127,0.06114859,-0.06643241,0.12826718,0.04856999,0.060393352,0.13097462,-0.3098558,-0.057819635,-0.03184619,-0.01517516,-0.01669809,0.00027085052,0.029581062,-0.117282435,0.28116548,0.21861164,-0.17386296,0.008629755,-0.067783445,0.1521137,0.074604385,0.23670422,-0.03520776,-0.10299043,-0.08979919,0.12420941,-0.15594843,-0.088822715,0.031558763,0.13975006,0.04438962,-0.12502752,0.12428215,0.0030594708,-0.31832558,0.2707734,-0.088175975,-0.1994677,0.18969542,0.10392518,0.11110821,-0.092226654,-0.18550727,0.11656473,0.09229024,-0.050626736,-0.20406301,-0.109249435,-0.026176432,-0.0889227,0.08166607,0.14537077,-0.18657573,0.0012488919,0.15695873,0.23664759,-0.015104541,0.11162423,-0.019519767,0.18045633,0.024987653,0.16896398,-0.029754506,0.33859995,-0.06515553,-0.052983075,-0.10698434,0.11935615,0.16017787,-0.006652309,-0.16038178,0.010592254,0.052785847,-0.28003347,-0.056602437,0.024661206,0.15447836}, {0.054977767,0.10417918,-0.4622086,0.12560025,-0.20813312,-0.140671,-0.14503099,-0.027417405,0.03981629,-0.21676417,0.17577747,-0.4557104,-0.44742194,0.018681765,0.15532483,0.059613638,0.14684029,-0.36434403,-0.39763048,0.044000696,-0.32291687,-0.26780412,0.16201882,-0.1155626,0.25609094,-0.14974518,0.1886768,0.38882867,0.24952593,-0.044545315,-0.19664124,-0.117269255,-0.118273765,0.016992202,0.14588265,-0.13849439,-0.030848246,0.07407772,-0.07026244,-0.07824203,-0.044453047,0.18772446,0.1238878,-0.07638196,-0.27851287,0.028186468,-0.41835558,0.2688203,-0.19267151,0.27486926,-0.22992428,0.12159733,-0.1798343,-0.15593785,0.1084531,0.1777807,-0.38110563,0.02037502,0.41617706,0.13113415,-0.24024557,-0.0025664896,0.1531914,-0.24775758,0.020897718,-0.03339651,-0.21065775,-0.20240833,0.10984252,-0.09640916,0.012160185,0.32175744,0.011571148,-0.10083981,0.36162132,0.38799924,-0.5100016,0.20376611,-0.04052258,0.13674906,0.31672266,-0.20832218,0.056740373,-0.27350292,0.35898817,0.17219527,-0.035018884,-0.31517386,0.027920812,-0.09849641,-0.19929452,-0.3583879,-0.053202268,0.06694858,-0.18035255,-0.32020617,0.18127827,-0.18678823,0.15280612,-0.29816115,-0.21664701,-0.2858235,-0.45031258,0.15126058,-0.03337995,-0.04295285,-0.07525168,0.23100245,-0.39100716,-0.09396517,-0.25373626,-0.34468818,-0.085469216,-0.40495986,0.21692242,-0.2301882,-0.20042123,0.194311,-0.31269023,-0.10558254,-0.27330667,0.016711617,0.25046328,0.18251337,0.04946042,-0.109616645,0.2389463,0.31702065,-0.03621353,0.068521716,-0.028118882,-0.0821923,0.2421969,0.20133139,-0.2608591,0.1352544,0.10595329,-0.2917927,0.15210454,-0.14710177,0.07414224,0.30294406,0.24945402,0.04078237,-0.018803034,-0.023318695,0.22938481,0.3629827,0.37367693,-0.048864793,0.26992017,0.030518953,0.07727331,-0.13159998,-0.3222287,-0.0109466165,-0.048361283,-0.047381274,0.3251257,-0.19150327,0.20626289,-0.010963421,0.037404,-0.08825218,0.031088203,-0.2038701,0.10254618,-0.32412574,0.08329854,0.019497262,-0.48758692,-0.3358655,-0.07658998,-0.023492968,-0.041032158,0.06643811,0.04905128,0.1712571,0.017776767,-0.019503662,-0.05594745,0.11358618,-0.21870154,-0.03295297,-0.06457592,0.0359847,0.16888505,-0.020397969,-0.0171453,-0.22604543,-0.11011486,0.26029924,0.11988657,-0.12959512,0.25042588,-0.22060363,-0.048318278,-0.23845509,-0.1583512,-0.2226782,-0.027055673,-0.37437534,0.0033492963,0.18077886,-0.41162714,-0.27717897,-0.39778805,0.14203449,0.03258468,-0.22291714,-0.093054995,0.29381368,0.12296964,-0.1735052,0.014146553,-0.08708552,-0.21490246,-0.18642408,0.106619254,-0.3083152,-0.13203342,0.28549334,-0.34510437,0.18905938,-0.08954527,0.18041612,-0.06561077,-0.280949,-0.06305275,0.070086494,0.23272634,-0.22471468,0.23080844,0.21089706,0.011634113,-0.008955619,0.0020155993,-0.21177451,0.28931963,-0.045375448,-0.26466733,0.17264368,-0.06983235,-0.04485592,-0.12915963,0.29587522,0.12329446,0.14402257,-0.111755416,-0.08073399,-0.10083546,0.08822636,-0.19144411,-0.24884346,-0.010123106,0.083911836}, {-0.036915727,-0.232758,-0.017609134,-0.12894931,0.042384718,0.020387698,-0.23316152,0.07646664,-0.07397142,-0.1471105,-0.07756954,0.04449885,0.050160807,0.1217915,-0.07070505,0.09759067,-0.110019326,0.11407758,0.13844645,0.0043885354,0.12007032,0.060895205,0.010718748,-0.12967926,-0.08341468,-0.20403181,-0.059988838,-0.11438099,-0.022643235,0.042277627,-0.05615661,-0.048628796,-0.015473113,-0.07683656,0.15594122,-0.028217442,-0.01973471,-0.15040845,0.13924062,0.072113685,-0.0012767222,-0.044288494,-0.1906305,-0.08993701,0.0697289,-0.02204023,-0.19578063,0.009446228,-0.14146324,-0.094308,0.20963372,-0.026837107,-0.12350712,-0.07314333,-0.075965755,-0.25803915,0.27092692,0.05889149,-0.17996702,0.049338974,0.102933004,0.19579704,0.08664982,-0.10640334,-0.0019214917,0.051220827,-0.04724274,-0.1231166,0.26406795,-0.013764678,0.01813052,0.026261335,-0.08772652,0.2573281,0.1509473,-0.100112684,0.0028815991,0.045825318,-0.014592434,0.07731874,-0.014745218,-0.063990034,0.06749063,-0.015199188,-0.20565149,-0.0930481,0.0014163272,0.15533006,0.060858354,-0.038625203,0.031729966,-0.052419506,-0.22345607,-0.113628924,0.18463525,0.17095266,-0.11516163,-0.022108935,-0.13550566,0.31531677,-0.022427307,-0.08935101,0.13411808,0.1575816,0.17012885,0.009917297,-0.15003441,-0.22168611,-0.040897623,0.12737922,0.084322006,0.08748146,0.23152074,-0.055756193,-0.16690603,0.12137732,0.046508744,0.08206845,0.1851532,0.025654096,-0.05425084,-0.18125997,0.16951461,-0.17169458,-0.061400943,0.20670797,0.051180594,-0.018791456,-0.0519539,-0.108544186,0.13004728,0.14708525,-0.052896667,0.0042991815,-0.16819799,0.16619596,-0.06153824,-0.001573274,0.021435078,0.21986987,0.08188431,-0.03941643,-0.008464391,0.016906776,-0.018764136,0.12963845,-0.0040079188,-0.030318491,-0.026309768,-0.039114058,0.22049907,0.10623291,-0.16463062,-0.27418402,0.011000157,0.032420583,-0.044536076,-0.19871719,0.15401487,-0.019881975,-0.03946714,0.033692937,-0.06437634,0.12392706,0.014724805,-0.09759478,0.104431644,0.27861702,-0.10681951,0.03692806,-0.16303733,-0.16950712,0.008855071,-0.2146217,0.08982298,0.2374646,-0.0020618865,-0.19205025,0.07677443,-0.10342557,0.027323153,-0.11364343,0.0033778194,-0.21736178,-0.110934064,0.13492242,0.007098549,-0.08819371,-0.066540174,0.024574408,-0.12914373,0.02686396,-0.13148522,-0.10531819,0.023018315,-0.12576085,0.053332172,-0.0033983632,0.24800746,0.15552594,0.11078701,-0.040220134,0.1247926,0.008625612,-0.10866927,-0.03013733,-0.042851645,0.055963255,0.011319686,-0.04858372,-0.101270095,-0.0014016975,0.24496236,0.11747249,-0.039176457,0.07635686,0.25608638,0.012123275,-0.10630321,-0.17837904,0.10583267,-0.019572338,0.034431316,0.15648034,0.13328025,-0.241315,0.24443544,-0.039297104,0.16586715,0.13743733,0.20913574,-0.11471833,0.04291466,-0.049525905,-0.2879131,0.102561004,-0.20232634,0.085718386,0.13969842,-0.04662109,-0.24291055,-0.0028701779,-0.054057017,0.0685876,-0.16798374,0.011320009,0.018797891,0.028271684,-0.21300656,0.017542725,0.02625818,-0.15558152,-0.090605244,0.122345984,-0.16592602,-0.19279596}, {0.1284801,0.11180987,0.13903566,0.107816316,-0.0225032,0.007159687,0.08669153,0.028843569,-0.17538324,0.01785081,-0.0064130425,-0.040489007,0.1858366,-0.14762059,-0.05634502,0.08497787,-0.0641216,-0.034677424,-0.08212432,0.12423751,-0.2154667,-0.016724968,0.110268846,0.07824073,0.07026211,-0.24992803,0.1146587,0.069135055,0.20317562,-0.36122665,-0.061835002,-0.060071275,-0.012704397,-0.12388997,0.24067172,-0.030071514,0.10000037,0.05451407,0.17555386,-0.19627777,-0.0785124,0.10673192,0.23561002,0.10487074,0.043422513,0.04817895,-0.14179741,-0.4238201,-0.07609749,-0.17704947,-0.028724639,0.16299461,0.060356054,0.1139962,0.025166165,-0.17706719,-0.045368172,0.21111459,0.10276705,0.041793946,0.05965875,-0.04348922,0.20646109,-0.11292667,-0.019866083,0.09932587,0.16932097,0.022612954,0.21329242,-0.061991677,0.002637811,0.08815848,0.052810922,0.036768984,0.21592051,0.28450638,-0.035158683,0.22316445,0.07092895,0.09722169,-0.017106004,-0.017628007,0.097465865,-0.09543158,0.13576186,0.2010373,0.12756166,-0.13832997,0.11693251,0.024133101,0.093830764,-0.07167066,-0.25638843,0.11655461,0.07069035,0.029715482,0.08943878,0.02194345,0.14308377,0.040268335,0.18580605,0.07947699,0.15008536,-0.22975798,0.07707564,0.20429818,0.10211875,-0.18572068,-0.075873576,-0.14640808,0.026110884,-0.03935063,-0.16907935,-0.04473166,-0.19597739,0.06359894,0.1449439,0.17043486,0.18662256,0.12926626,-0.008572701,-0.04560415,0.2310264,-0.048851572,-0.032800373,0.16905016,0.22512197,0.12913671,-0.02726183,-0.067721866,-0.010682471,-0.012003838,0.08541818,-0.06353445,0.01333601,0.08512359,0.14883181,0.13894857,0.15991358,-0.03366969,0.048416547,0.17942357,0.08337235,0.033505138,0.1371333,-0.087111235,0.13373907,0.3218298,-0.07309044,0.05919477,0.07137977,-0.032347396,-0.06774306,-0.05079514,-0.06627518,0.25444272,-0.081868514,0.032725286,-0.10114321,-0.045110986,-0.25942072,0.100015484,0.1184642,0.19283336,0.045931436,-0.07873856,-0.07628954,0.09459397,0.17888384,0.20196742,0.03989332,0.096755,-0.18224345,0.089720875,0.13175002,0.034287207,0.109872974,0.18234816,-0.07263421,-0.01999934,0.14711876,-0.2160519,-0.055842437,0.037176847,0.20072903,0.049384627,-0.018539349,0.13383712,0.14580218,0.028409125,0.02023467,0.04161343,0.16673857,-0.13783659,0.04633301,0.07441432,0.16257858,-0.09563818,0.29131505,0.07166044,0.06350662,0.010872325,0.08355035,0.04217561,0.015860634,0.033338655,-0.030351209,0.048086606,0.2891884,0.0092132855,0.05451429,0.16101485,0.22053723,0.2637489,-0.058167472,-0.030611025,-0.13831677,0.16253747,-0.2381628,-0.027620634,0.2465994,0.031083496,-0.1418701,0.066761255,-0.06935418,0.1782565,-0.13595292,0.0018342277,0.16215758,-0.01639428,0.21611756,0.029931363,0.09901148,0.15388647,0.014067128,0.15910722,0.0724796,-0.06878725,-0.036446583,0.19486323,-0.06026104,0.17946981,-0.20301163,0.021676214,-0.090718955,0.14106448,0.08845878,0.025695676,0.0054642274,0.10837282,0.22271127,-0.0741527,-0.015562254,0.07560869,0.02226029,0.14955327}, {0.03902267,0.09773929,-0.028100956,-0.05359329,0.021756435,0.07241245,0.14424242,-0.03547555,0.09535064,-0.055624057,-0.06678505,0.077455804,0.08968021,-0.07049462,0.011804788,-0.08598645,-0.0022386706,0.009633947,0.0029093048,-0.085754395,0.10455697,-0.08563726,-0.13135447,0.107770495,0.05401296,0.043510478,-0.038489673,0.0925107,0.07652439,-0.12898278,0.007122141,-0.0029985458,-0.0561626,0.18244796,0.12982047,-0.08034161,-0.17147827,0.091141626,-0.026359217,0.06606325,0.0042528347,-0.028180797,-0.10579539,-0.17418724,0.22260123,-0.07102873,0.046453007,0.08503845,0.096518844,0.069955885,-0.06559418,-0.13124852,0.25805536,0.012818705,-0.027984245,0.052098222,0.032161284,-0.0007132182,0.05906714,0.019986214,-0.009367065,0.030396763,0.07046174,0.09119703,-0.05602039,0.034860518,-0.105048776,0.030662762,-0.06696414,0.004410018,0.28456834,-0.09681005,-0.025213555,0.14876007,0.11944991,-0.23735999,0.12482483,-0.023093317,-0.017607605,0.032258548,-0.02908626,0.17489651,0.08949537,0.086143576,-0.09740703,-0.058105797,-0.009011487,-0.051400498,-0.041141782,-0.056579825,-0.062520236,0.090754546,0.040018905,0.00022105925,0.057812873,-0.101959676,-0.21962988,0.026918769,0.13902043,0.16170639,-0.06309184,0.029470937,0.0088959085,0.12619558,-0.0025322763,0.011049369,-0.063592784,0.20076348,0.22465026,0.14047793,0.042020053,-0.07622491,0.04648409,0.004644213,0.035195477,0.08121217,-0.0864458,-0.029632963,-0.08600536,0.25228283,0.062017377,0.08389689,0.0757439,-0.21340281,0.038345635,-0.04232161,-0.0039363885,-0.06862732,0.040669546,0.14159922,0.04967805,-0.07259189,0.01598836,0.030690785,-0.09313042,-0.039610248,-0.15087907,0.13490826,-0.14403641,-0.006426757,0.08706645,-0.13268925,-0.15388292,0.0017051349,0.09562762,0.039073955,0.030089723,-0.09825992,0.029036708,-0.13440907,0.032756362,4.842246e-05,-0.056317676,-0.030393012,-0.06701804,0.048121214,0.020981556,-0.06368045,-0.088029824,0.0071591106,0.021896135,-0.0059534144,0.12402967,0.07985154,0.033086304,0.11410101,0.06499635,-0.07287351,0.054923315,-0.20656474,-0.023997694,-0.17691655,0.039725486,-0.072747156,-0.0146917,-0.054347966,-0.0046511814,0.07320265,0.014804852,-0.22410552,0.041165534,0.14625354,0.10831695,0.050476868,-0.15214626,0.017545009,-0.04414745,-0.03293846,-0.0015857889,0.06703133,-0.096455395,-0.07928046,-0.14714038,0.012599572,-0.032302618,-0.14464712,0.01590392,0.27357146,0.00818518,0.03473125,-0.05972777,0.05798031,-0.013824343,0.031678475,0.05742813,0.0013879188,-0.0568022,0.0056936387,-0.17601068,-0.15768223,-0.12717552,0.096198544,0.041559976,-0.055986803,0.11903974,0.017024007,0.09855744,-0.14885035,0.095852174,0.10370351,0.0029743155,-0.036910526,0.0944596,-0.052498095,0.15761077,0.045785733,-0.078531586,-0.005343999,0.031273652,0.0063274377,0.17502926,0.13761626,0.1418566,0.14446297,0.1913344,0.24680305,-0.03495992,-0.13911939,0.2665278,-0.05706817,0.16196525,0.1293389,0.17359915,0.23645788,-0.26976466,0.07471057,-0.16832463,-0.04961935,-0.026202783,0.073432535,-0.13371374,0.049686145,-0.1318775,-0.027943708,-0.022700762,-0.120938234}, {0.13017121,0.062434584,0.06299444,0.07233841,0.14280063,0.07811718,-0.012385343,-0.0018237641,-0.27474174,-0.10042977,0.11180245,0.04017635,0.095507,-0.03930731,-0.09252169,0.058670446,0.08471453,0.015597394,-0.011553938,0.07217561,-0.095615804,-0.027934264,0.06943236,0.15328284,-0.07893939,-0.118998066,-0.043245587,-0.02931339,-0.014801015,-0.11149582,-0.06455456,0.037134983,0.0758169,-0.17803562,0.20042531,-0.01887658,0.19842757,-0.120078616,0.13327636,-0.19036163,-0.12719704,0.14785804,-0.017106052,0.023221297,0.14076445,0.08596112,-0.2119998,-0.12543596,0.04696727,-0.09771418,0.025890531,0.10609944,-0.030678714,0.0077843736,0.10011272,-0.09787522,-0.037015878,0.27925536,-0.03591777,0.13731176,-0.08902967,0.038822085,-0.028595367,-0.02442219,0.2199257,0.006323091,0.22993548,-0.29945135,-0.039537765,-0.020871727,-0.011902791,-0.044243854,0.16892165,-0.15565498,-0.08553865,0.22573952,0.102103315,0.10345911,0.14610846,0.16947614,0.043907747,0.13162267,-0.086421415,-0.24300188,0.059555363,0.020596804,0.09186465,0.08493965,-0.13491985,-0.052661873,0.21846448,-0.09397359,-0.3685168,0.09252508,0.14284484,-0.11138643,0.14534464,-0.095264584,0.03186533,-0.10421357,-0.08942282,-0.09322757,-0.13707027,-0.21563695,0.031843357,-0.06170431,-0.074393995,0.077655695,-0.07199104,-0.0036931655,-0.18008803,-0.09069977,-0.025843926,-0.1489724,-0.042211384,0.05863083,0.27647638,0.06729072,0.032520726,0.1010971,-0.17529051,-0.2911976,-0.023510464,-0.19124278,-0.08168843,-0.001242676,0.2826851,-0.25071168,-0.05783948,-0.05000027,-0.06395203,0.16018033,0.12968673,0.07418451,-0.08126198,0.09909036,0.096578136,0.033384625,0.10247364,-0.120297,0.068164475,-0.056724675,0.27407852,-0.15969793,-0.16067947,-0.25253415,0.15102214,0.045002177,0.038403224,0.086593226,0.053010587,0.041733775,0.07847493,0.22159936,-0.17431985,0.0036866236,0.024628304,-0.06857183,-0.35736766,-0.042757615,-0.09664649,-0.07526198,0.0744598,0.03180646,0.17028722,-0.13923898,-0.034600917,-0.015278187,0.14147434,0.06132334,0.090867236,0.04510436,-0.31563666,0.019789143,0.073507585,-0.24463731,0.115498,0.10781082,-0.03095123,-0.42797163,0.21589974,-0.17454815,0.19649406,-0.084686704,0.15918477,0.116714366,0.05639481,0.039652012,0.1116606,0.1330255,-0.05236938,0.022719577,0.032971136,0.041602287,-0.12921697,-0.1533378,0.012093838,-0.0008144721,0.054311607,0.14058478,0.0615893,-0.17939052,-0.04176954,-0.18230703,-0.14547469,-0.17008361,-0.016507383,0.2211486,0.031141263,-0.039282255,-0.006775921,0.054308273,0.032926813,0.036042262,-0.03730125,-0.006680798,0.09761159,0.071405314,-0.09598424,0.018626414,0.18579128,0.039660834,-0.24791864,0.016228652,-0.09886711,-0.0024902613,-0.12832296,0.103114046,0.049354684,-0.08435137,0.05279679,-0.2217672,-0.22519013,0.22063713,-0.08162665,0.13485633,0.1293746,-0.08141391,-0.104999214,0.03834889,-0.13042264,0.047011994,0.055638034,0.025925692,-0.1871171,0.057084054,0.12337701,0.023085993,-0.12110831,-0.14895938,0.29336727,-0.10506932,-0.33670416,-0.038098574,0.15730707,-0.10322473}, {-0.042798236,-0.04924767,-0.1452645,0.12738863,-0.023105636,0.060195528,-0.113656975,-0.10624435,-0.032250192,-0.024586398,0.048221067,-0.16871764,0.07903264,-0.08015175,-0.05806635,-0.044362586,-0.13056453,0.115012586,0.03322313,0.09266535,-0.08317489,-0.1493129,0.012242137,-0.08663945,-0.16033535,0.0071841194,-0.09103325,-0.1859163,0.06524047,0.001386306,0.029156618,-0.09078969,-0.18144812,-0.08114436,-0.065643914,-0.034191158,-0.0622645,-0.007291296,0.09146505,-0.021622442,-0.029666482,-0.20151715,0.09717199,-0.028618352,-0.1170266,0.103636555,-0.035536338,-0.12819737,-0.040751047,0.020624759,0.0014684495,0.17775972,0.020109996,0.0003610205,0.108473964,-0.08566612,-0.0112129655,0.0029805917,-0.029723955,-0.018119002,-0.066825785,0.12818348,0.023397956,0.06392964,-0.04169947,-0.06689381,0.051096033,0.06549722,0.084488876,-0.0055424063,-0.02966722,0.023370748,-0.017660946,0.16244031,0.11281687,0.008256836,-0.068644635,-0.097810514,0.06925809,-0.10237938,-0.1487842,0.003981775,0.079737745,-0.07949739,-0.07343144,-0.1261464,-0.019339645,-0.029107722,0.04840457,0.08298847,0.04019989,0.027300756,0.06804012,-0.06917278,-0.055936005,0.06833743,0.02995488,0.023952106,0.013946764,-0.03713258,-0.056827098,-0.06347475,0.13764107,0.16225699,0.039086744,0.14395115,-0.01092623,-0.05207573,-0.032601275,0.11531068,-0.059231702,-0.14101654,-0.064675584,-0.08263653,-0.088862225,0.014015865,0.019251974,0.10938593,-0.089918815,-0.02775317,0.007871639,0.120762564,0.093521744,-0.034830984,0.020991635,0.07338562,-0.014554611,0.012012073,-0.0011491135,-0.13056538,-0.013698808,0.078330465,-0.08799081,4.526069e-05,0.06559816,0.095791295,0.05140274,-0.021743694,0.09273125,-0.061391912,-0.0021187214,-0.057994142,0.19468738,0.03876836,0.002855731,0.04257124,-0.036839057,0.02545037,-0.21253213,0.011108746,0.074014634,0.16758655,-0.06140888,0.0087598525,0.070109375,-0.08923183,0.048294358,0.09585485,0.12305407,-0.06830998,0.09102964,0.008042245,0.16576278,0.02810198,0.02709602,-0.029803568,0.056534275,0.015130379,-0.01946589,-0.013958621,-0.018061725,0.029068235,0.0052858614,0.012496198,0.116619915,0.19362627,-0.079371296,0.039186027,-0.0408537,-0.034521464,0.09556832,-0.01919585,-0.18813904,-0.008659641,-0.09072003,0.20401047,0.031198984,-0.033393327,-0.10535189,0.00945296,0.116656505,0.011379316,0.02914427,-0.0904614,0.1109312,-0.06559143,-0.10989905,0.067004636,0.067466244,0.062611595,-0.055136953,0.056845624,0.059836607,-0.22368687,-0.052221626,0.02099248,0.0676657,0.074179366,-0.025935639,-0.055880856,0.12034253,0.054651283,-0.03813892,0.09426064,0.06069874,0.100281574,0.08165256,0.03472786,-0.0029667167,-0.10240834,0.04756864,-0.07957482,-0.05985611,-0.06699248,-0.006008383,-0.10875097,-0.018465577,-0.03635621,0.113739006,-0.064946115,0.045759745,0.10939628,-0.060269207,0.009341636,0.0032654847,-0.06742886,0.04697591,0.005187826,-0.00052204065,-0.18223289,-0.05409425,-0.1548118,-0.009898276,0.070122615,0.07405496,0.0688036,-0.014037689,0.022811716,-0.012241736,0.03881141,-0.07905433,-0.101865865,0.002040032,-0.07664376,0.12791252,-0.17493711}, {0.06287689,0.123053856,0.0039485767,0.1301608,-0.12037601,-0.14573221,0.17864552,0.03157253,0.029664757,0.11195786,0.08536638,0.0007816346,-0.020267768,0.028928794,-0.040863786,0.035705682,-0.11357518,-0.10371933,-0.15034582,0.026289418,-0.17520088,-0.17482089,-0.065645255,-0.08236001,-0.022876438,0.08851382,0.11293883,-0.07156387,0.08502653,0.2500883,-0.032433372,0.1461189,-0.31844378,-0.21044311,0.05184314,-0.016296212,0.20433378,0.113036305,-0.10747306,-0.13723302,-0.18224189,0.042909615,0.009913292,-0.027252913,-0.11323804,-0.0825304,-0.16026291,0.079638,0.066113815,0.020650707,-0.18799083,0.18431398,-0.099727996,0.064506985,0.0151232,-0.0886346,-0.30710545,0.11157827,-0.0005376283,-0.23832226,0.050027493,-0.027231663,0.18328351,0.04978729,0.038656212,-0.006167404,-0.18158841,0.07008014,-0.16276522,0.009604699,0.067613326,0.16861206,0.0060235276,-0.20730612,0.124699704,0.08866237,-0.13160715,0.08613505,0.011211238,-0.04549538,-0.063260734,-0.033485107,0.21020296,-0.057638783,0.029312557,0.028216792,0.04466516,-0.34601977,0.0037762579,-0.053678147,0.027218163,0.047972504,-0.0036976961,-0.04745281,-0.019687455,-0.18846805,-0.007919623,0.034850482,0.030142536,-0.055051487,0.016563449,0.07086837,-0.1963026,0.12350634,0.15938403,0.015820406,0.097155005,0.035616722,-0.053711034,-0.07219962,-0.14521411,0.07040623,0.06893808,-0.028239908,0.020434912,-0.17921682,0.010165478,-0.0035631584,-0.10212993,-0.25758106,0.101871684,0.091319054,0.122771025,0.1668097,-0.09171845,-0.14691351,-0.010193788,0.14688496,-0.061754335,-0.120281495,0.22543696,-0.063159525,0.05710521,-0.003686259,0.17619482,-0.046709366,0.04729521,-0.15984087,-0.091768764,-0.036135055,0.039811548,0.0041386657,-0.16099833,0.046106476,0.1475614,-0.06691628,0.15566067,0.14131112,0.18941477,0.039277095,0.05437379,-0.036094695,0.0863722,0.20729731,-0.059165053,0.28576264,-0.025654279,0.26329353,0.07391166,-0.061996195,0.112535276,-0.112760566,0.0049337028,-0.1523835,-0.08433424,0.017770268,-0.114001244,-0.14723498,0.072748415,0.048213575,-0.26059145,0.19672519,0.1866588,0.11848457,-0.19224575,0.052501366,0.15058093,0.014152551,0.04827134,0.119925395,0.13783312,0.11615237,-0.10685422,0.135858,-0.0030092888,0.1677684,0.08159891,-0.25127423,-0.009062269,0.034845963,0.17046355,-0.10518422,0.22444823,0.020555494,0.14293154,-0.011704141,0.08756885,0.026922783,-0.072247595,-0.23722425,0.107796215,-0.034867764,0.117368914,0.22143376,0.057444576,-0.058456667,-0.06108365,0.16705216,-0.016697688,0.12755527,-0.13009393,0.06706664,-0.10311827,-0.23865363,0.03644157,-0.105291,-0.34886995,0.051407047,-0.0232817,0.15152472,0.12929545,-0.014901043,-0.023015603,-0.00124028,0.016385011,-0.12233666,-0.12991734,0.0028286825,0.042069234,0.12615673,0.26794505,-0.01716841,0.085429356,-0.05434675,-0.05164857,-0.010160721,-0.09867544,0.056896165,0.022231352,0.16187063,0.024309495,-0.06684409,0.20104297,0.012030638,0.08270672,0.06652274,0.09716956,0.099107504,-0.08128722,0.009795506,-0.10805348,-0.064150274,0.03985918,-0.18857627,0.12212547,0.08559737}, {-0.12865148,-0.24999002,0.013898437,-0.15472695,0.17778045,0.03329044,-0.23814823,-0.0087682735,2.184558e-05,-0.07648094,0.040123235,-0.09441092,0.0547644,-0.066424385,-0.21433939,0.044921152,0.053691,0.076025054,0.31183812,0.05062892,0.18275116,0.24721906,-0.14361015,-0.23602231,0.021282109,0.035381157,-0.23039232,-0.26399648,-0.3894375,-0.07526543,-0.027199537,-0.27598193,-0.09343254,-0.028215323,-0.08798861,-0.066915855,-0.21724036,-0.22951727,-0.03980493,-0.07771739,-0.028145636,-0.014077225,-0.10687047,-0.16119961,0.22682752,0.041944165,0.2650956,-0.014081911,-0.17172535,-0.021971466,0.22405428,-0.19636738,0.10088166,-0.085381836,-0.115091935,-0.09205147,0.1402866,-0.073780894,-0.23186554,0.32687986,0.03002804,0.063662276,0.15711336,-0.10764919,0.037185255,0.0012013455,0.10195226,-0.08168823,0.3204306,0.10796616,0.16422941,-0.19446401,0.08760031,0.16252312,-0.14231372,-0.2976113,0.02819308,-0.31263724,0.13024269,0.13079499,-0.14918032,-0.02352129,-0.18956786,0.26109222,-0.2836813,0.07456827,-0.16353503,0.341729,0.32128343,0.20533577,0.11672421,-0.05267184,0.12576075,0.011333555,0.11421215,0.38548893,-0.22051176,-0.10465767,-0.12979741,0.25607437,0.03783148,-0.033300675,0.34383294,-0.14749476,0.0015713384,-0.25457922,-0.19470905,-0.044456635,0.2111498,0.08722763,0.24912912,0.2593681,0.25268912,-0.12795985,0.0055418517,-0.027501674,-0.044344645,-0.050040983,0.21095213,0.15637739,0.06744864,0.065508045,0.019150682,-0.15142149,0.041766934,-0.00071195234,-0.0926694,-0.39798102,0.060282297,-0.04853538,-0.16668892,0.10338519,0.11556161,-0.16276646,-0.027566817,-0.13953438,-0.18328907,0.12557596,0.0090583945,0.020087566,-0.06375813,-0.24683343,-0.049561895,-0.145058,-0.083866365,0.020648567,-0.3429597,-0.18267667,-0.104770094,-0.0055893054,-0.09518299,-0.07078439,-0.033495832,0.07706574,-0.112380244,0.057108536,-0.121161394,-0.15992837,-0.025678722,0.11619641,-0.09128441,0.22062123,-0.23255597,-0.03265269,0.13714188,0.07376565,-0.083038114,0.05108147,0.0015480379,-0.13132763,0.1570149,0.0710251,0.105355345,-0.14973609,0.097735055,0.29711375,-0.22617204,-0.24167846,-0.12797366,-0.13116387,0.06082194,-0.0814871,0.07479821,-0.026385512,-0.2998275,0.09848423,-0.1550579,0.15184365,0.07222259,0.027539058,-0.15596747,-0.15706797,0.13530405,-0.3205286,-0.2084643,-0.121967316,-0.12524016,-0.32227352,-0.064148016,0.039363682,-0.17006074,0.061926816,-0.1634621,-0.23523985,0.109735034,0.1015553,-0.013344932,-0.18434243,-0.112349,-0.023742765,0.06705756,-0.21240906,0.16660434,0.28230727,0.17005679,-0.073414095,0.270689,-0.10171908,-0.16983017,-0.19478963,-0.08838995,0.094925806,0.12142553,0.11769779,0.104964174,-0.15335096,0.2898854,0.056769934,0.15928085,-0.10743176,-0.1615747,0.1913112,-0.11007607,-0.21709783,-0.113844626,0.16636036,-0.06866878,0.27708593,-0.1362968,-0.04485184,-0.05899853,0.060381934,-0.10587184,-0.19402976,-0.21239595,-0.005947044,-0.12897396,-0.07917574,-0.18926367,0.15701652,-0.10551612,-0.04026717,0.14463183,0.2621483,0.1115677,-0.19956176}, {0.0025498625,0.15520976,-0.062045928,0.08946967,0.03186717,-0.05317826,0.1490729,0.1278856,-0.059651133,0.11045806,0.08544183,-0.16098638,0.05499342,0.0142267365,-0.1560861,0.14988782,0.263385,0.07087786,-0.05503427,0.0215281,0.09764728,0.04105422,0.09070634,-0.00396832,0.2637592,0.07803595,0.24901183,0.11422931,0.36316502,-0.06967854,0.15381671,-0.06497693,-0.021454085,-0.06285983,0.119500965,0.045338675,0.11959719,-0.06715155,0.044723686,0.05532826,-0.10901856,0.14688799,0.15156259,0.021708071,0.021469088,0.19956289,0.032940805,0.050626803,-0.057774644,-0.07562495,0.03452492,0.16462691,-0.08843685,-0.051617067,0.19507922,-0.0044727353,-0.1013568,0.19768918,0.16253795,0.3325962,-0.030599266,-0.08750192,0.16742301,0.007729266,0.14071521,0.17726791,0.098868944,-0.07027399,0.33212095,0.10440789,0.1340172,0.14629008,0.19672273,0.1397723,0.07234173,0.3622567,-0.073596396,0.1822782,0.041218806,0.07110818,-0.048293274,-0.08056372,0.13576436,-0.09160687,0.37480992,0.1744799,0.036016952,-0.1049863,0.046796177,0.020479508,-0.028292878,0.016942445,-0.05592994,-0.13369659,0.14603864,0.14478321,0.17092358,0.031752773,0.14304802,0.045827888,-0.02770077,0.073262766,-0.051529042,0.15246017,0.045739394,0.22469978,-0.03246997,-0.02239451,-0.15059745,-0.10626636,0.08688222,0.045517128,-0.020732047,0.078604065,-0.05864849,0.025104955,0.04329917,0.20065129,0.0065386915,0.09952587,0.0784262,-0.061827008,0.3140053,0.07281902,0.0154208755,0.08595384,0.21963161,0.09496185,-0.086949736,0.031139245,0.058946513,0.05798087,0.23784089,0.10870544,-0.066106394,0.13583326,0.18728334,0.004401893,0.26909018,-0.15652546,0.012612596,0.3657392,0.3303904,0.14311405,0.32357448,0.119863406,0.020857008,0.25311074,0.18794127,0.18325849,0.19422576,0.048336457,-0.042761866,-0.07321317,0.055568647,0.22419868,0.19109572,0.17036751,0.16127124,-0.15255325,0.03347766,0.055681553,0.07197969,0.149818,0.14370234,0.11442673,0.072218455,0.09413191,0.012781302,0.06759262,0.052614275,0.11339657,0.014192783,0.11636495,0.251359,0.11589691,-0.02460974,0.2866011,0.13067006,-0.060252685,0.19222432,-0.10379697,0.010736025,-0.068073496,0.16754939,0.18626529,0.1862999,0.22939934,0.18700926,0.10999295,0.10114385,0.38131154,0.3554622,0.08348464,0.31366676,-0.020156737,0.02190562,-0.048389357,0.20440742,0.06282528,-0.07663742,-0.0845304,-0.070080735,0.09824423,0.13348596,0.031639412,-0.041848753,0.2155617,0.26808116,0.058450904,-0.010244879,0.13977563,0.26500624,-0.030465126,0.21021175,-0.1485535,-0.004273523,0.00579915,-0.16577311,-0.04122986,0.012606766,0.20668015,-0.16581196,0.3753192,0.16421917,0.031346418,-0.037547294,-0.059023667,0.016018143,0.32076243,0.30363357,0.047183618,0.18834291,0.20092158,0.010732064,0.19640566,0.026190758,-0.065912805,0.118782684,0.09554582,-0.053316902,0.16689937,0.10782423,0.061992954,0.037065577,0.31648356,0.12754159,0.2578257,0.056149084,0.15604602,0.21774545,-0.017488766,-0.09853065,-0.04139154,-0.00070132583,0.24521123}, {0.04525806,0.025470959,-0.1018486,0.18714482,0.014997474,-0.064387314,-0.2640287,0.16506408,0.112099625,-0.079635456,0.12137414,0.07436823,0.07227477,-0.18140514,-0.028588274,-0.13863085,-0.09319773,-0.097895116,-0.03779368,-0.09461057,-0.18825199,-0.08469902,0.1075908,0.09330389,0.14706779,0.07490806,-0.18153185,0.16668575,-0.25276327,0.02981985,0.16617806,-0.14022271,-0.31488532,-0.025718817,0.2793719,-0.0026297055,0.18810737,-0.15335962,0.047832455,0.010737817,0.18078497,-0.008278822,0.115279466,-0.23911685,-0.051003713,0.07315778,-0.064907126,0.04925251,-0.10556074,0.07023118,0.21896818,0.060402475,0.019979253,0.009127787,0.14036301,-0.08201359,-0.1701001,0.05842889,-0.15591675,-0.07788301,-0.15372232,0.05335513,-0.014876065,0.08351941,0.30326626,-0.08029104,-0.10928212,-0.041190613,0.1582706,0.078892946,-0.24325688,-0.0049987305,0.0867018,0.18592303,0.18909243,-0.028424377,-0.30278563,0.06278313,0.10412809,0.25705987,-0.0101919975,-0.30915126,0.017735101,-0.12812866,-0.1617808,-0.002924104,0.1233426,-0.24163689,0.0025867638,-0.0023269162,0.05587225,0.034079205,-0.025324361,0.17337498,-0.08906838,0.14605142,0.13308115,0.08240777,-0.0074726143,-0.29984647,-0.20556806,-0.04643915,0.005436106,0.07491541,-0.054438956,-0.0671441,-0.18459702,-0.1021898,0.049427286,-0.2388004,-0.038069364,0.13701695,0.016829692,-0.0018749856,0.13167495,0.0047786036,0.10254357,0.16699414,0.027074661,-0.24371722,-0.060659397,-0.12945573,0.16474299,0.07705667,-0.1623206,0.217834,0.1455578,-0.10189711,0.045751352,0.21228899,-0.06679047,-0.20707051,0.20756221,0.04120045,0.15660074,0.2353877,0.036380757,-0.11905193,0.0037446907,0.06411827,0.3377267,-0.10253857,0.06302226,-0.06110538,-0.24830939,0.022808079,0.10553994,-0.108195335,0.108982086,0.049097996,-0.10204935,-0.23902251,0.102838986,-0.034062687,-0.24807566,0.16738276,-0.2940461,0.022987222,0.004487609,-0.088711694,0.24462038,-0.13538377,-0.12987189,0.24665292,0.03006535,-0.040017698,-0.0959879,0.023208091,-0.2942137,0.12106017,-0.0053192466,-0.099056065,-0.024953485,0.09584768,0.1093237,0.0895441,0.19551386,-0.026671218,0.007856472,-0.051923297,0.20882612,-0.002773819,0.20420448,-0.19208537,-0.16237617,0.022809839,0.102406465,-0.069537714,0.056314427,-0.008020839,-0.08386894,0.30192512,0.1856584,0.07300932,0.21414986,0.14848776,0.16733761,-0.008287704,0.00058664085,0.14143392,0.036196195,-0.13697316,0.042831283,-0.06776453,0.03712083,-0.20626003,-0.14822024,0.108366266,-0.06343357,-0.20070292,0.04226545,0.049179316,0.24596426,0.28219476,-0.14183894,0.06118882,0.1352269,0.116696306,0.07231518,-0.05091053,-0.06511663,-0.1467592,-0.16647302,0.036372434,-0.0740665,-0.44933656,-0.13459958,-0.31096974,0.050596815,-0.013085797,0.084649436,-0.117204055,-0.0887187,-0.17047106,-0.1210784,-0.02877158,-0.20750804,0.023191333,0.013822927,-0.07582321,-0.0975702,0.00047071805,-0.010396595,-0.011762273,-0.15946203,-0.098809965,0.015484449,0.15194431,0.13393922,0.153764,0.17028104,0.06957061,0.06661147,0.23060574,0.2478404,0.07483669}, {0.052162107,-0.028620962,0.10776995,-0.24222669,0.04435845,0.14723845,-0.21731274,0.24702778,0.018482042,-0.041611474,0.028468665,0.25814155,0.25833583,-0.0066346084,0.16951567,-0.15048978,-0.4087675,0.18179384,-0.12811953,-0.01985094,-0.19280641,0.019227307,-0.22153741,0.098533556,-0.14650385,0.11793037,-0.12184519,0.118387446,-0.16804431,0.059883438,-0.015638452,0.033244118,-0.010683321,-0.31560913,0.048848305,-0.4167424,0.27275658,0.15351126,0.035629384,-0.43601626,-0.39706558,0.3001244,-0.18398385,-0.1599596,0.24348813,0.066889405,0.02442454,0.11220106,-0.20942609,0.045710877,-0.27062336,0.2303671,0.04753995,-0.07775204,0.06331861,-0.0053957896,0.17431955,-0.07633497,-0.031654608,-0.3913984,-0.30189213,0.11185559,0.1359049,0.043965925,-0.15238395,-0.015260208,-0.09433288,-0.17672484,-0.26444635,-0.24140862,0.08515238,0.15085699,0.04950917,-0.29490492,0.1597062,-0.05888111,0.11546737,0.14650038,0.20380099,0.07024671,-0.06641352,-0.24897556,0.24557921,0.078147575,-0.052499898,-0.05089077,-0.04507134,0.02198266,-0.047139544,-0.4907846,0.3618716,0.013406532,-0.22915418,0.099753365,0.18209165,-0.0016581349,-0.21866928,-0.19241135,-0.24988602,-0.034235034,-0.3643687,-0.11682763,-0.16842248,-0.08096958,0.06861152,-0.34902072,4.773043e-05,0.23144558,-0.16546053,0.29137418,-0.08931058,-0.23347472,0.29225197,-0.0653164,-0.064684406,0.2994112,0.1574034,0.17413116,-0.0117557505,0.079673536,0.054592308,-0.10329293,0.099149704,-0.21973057,-0.1954536,-0.2132318,-0.021045389,-0.07108931,-0.30956686,-0.084626384,0.098045774,0.20835881,-0.15599354,0.060951456,0.022824615,-0.0054471144,0.20827277,-0.058111135,-0.031710558,-0.36937273,0.2578705,-0.14478515,-0.1217189,-0.2836558,0.11903225,-0.10532778,0.18062705,-0.3073994,-0.015218708,0.38905677,-0.19237661,-0.029867671,0.109794065,0.25257412,-0.38951355,-0.003951369,-0.17757776,-0.0059748855,-0.25265765,0.15732004,0.2215398,0.020038314,0.12989195,-0.05220169,-0.33579016,0.17102045,0.009528883,0.26569647,-0.15621886,0.037807617,-0.10928953,0.12963198,-0.065553896,0.009486001,0.060790543,-0.1075015,0.024528729,0.26838195,0.04446108,-0.17779388,-0.21862942,0.17755593,0.14941388,-0.015197013,-0.12991102,-0.16997916,-0.019051846,-0.24261755,-0.23472841,0.26420328,-0.02790951,-0.17583382,-0.0020019207,0.18614784,0.29550987,-0.13652834,0.1198181,0.068187036,0.24126124,-0.1705887,0.01662469,-0.069762245,-0.035244588,-0.010834411,-0.10896229,-0.071353786,-0.13510224,0.06579495,0.19969183,-0.15002106,-0.11394815,0.29832223,-0.12627897,-0.1435939,0.042688686,-0.18225893,-0.21991189,0.21027556,0.18300773,0.16241802,-0.014883464,-0.14301077,0.030669443,0.13080925,-0.23896073,-0.09698133,0.099402875,-0.21483764,-0.007439881,0.21838339,0.036394417,-0.3892983,-0.26952326,-0.12053635,0.16934437,0.105260246,0.03918402,-0.022216512,-0.00038260437,0.19423054,-0.18038732,0.21682242,0.17017269,-0.17113537,-0.38945967,-0.08221963,0.20411862,-0.042674318,0.09357732,-0.29307947,0.18040992,0.30560336,-0.3273472,-0.095798016,0.21272096,-0.044203516}, {0.15616049,0.32650954,0.30829084,0.004496266,0.14469421,0.34443355,0.0798884,-0.12059479,0.15053882,0.063773684,-0.10039115,0.2850954,0.08928285,0.34521326,0.19834244,-0.12164595,0.18630147,-0.037506334,0.17871444,-0.19810992,0.32697952,-0.26484707,0.12845837,0.09070841,0.16810021,0.009193551,-0.20703506,0.07329555,-0.14418453,0.17844883,0.24154516,0.1846511,0.22987403,0.02382047,-0.030992972,-0.016825102,-0.14557603,0.029158724,0.088764966,0.26967737,0.14275084,-0.21079415,-0.23685695,-0.07835293,-0.08920865,-0.07527457,0.342189,0.07930427,0.17984085,-0.0039241835,-0.051789317,-0.20900586,0.07297236,0.3330262,-0.13724697,0.31361732,-0.07096417,0.025436431,-0.011305095,0.036922675,0.16649976,0.33630535,-0.0045736195,0.5056212,0.03918075,0.11648649,0.018246075,0.055309907,0.12326999,-0.013584642,0.15784006,-0.054123122,-0.03128584,0.21005541,-0.022969559,0.046898168,0.020986227,0.2505508,-0.13570338,-0.14025412,-0.015546393,0.26103202,0.015738953,0.1430814,0.087457106,-0.08836248,0.14313872,0.1486411,-0.23323971,-0.102925,-0.31343064,0.25115833,0.28457335,-0.27444887,0.0036927748,0.18192083,-0.10635594,0.03687259,0.19654246,0.42570767,0.18757315,0.10498181,0.180342,0.30859807,0.2725403,0.20617054,0.09480919,0.03038133,0.18982099,0.19115609,0.027611686,0.17960311,0.09159879,0.32747164,0.0049566585,-0.21054474,-0.20169012,-0.04644697,0.03755045,-0.2161919,0.28944543,0.37066528,0.061512344,-0.08533959,-0.0006036459,0.115255274,-0.043588076,0.0039054847,-0.0476691,-0.024890823,0.35893327,-0.13266504,0.057606142,0.00611418,0.07181271,0.11457421,0.0051479354,0.3848663,-0.16068068,0.024228796,-0.15304762,-0.038867917,0.10923719,0.31669503,0.013192689,0.3528389,0.096301846,0.032726187,0.22538112,0.24547648,0.18551576,0.2169251,-0.23895288,0.1734913,0.035101023,0.019559773,0.24950509,0.26671883,-0.11955284,0.17723346,0.06472117,-0.21464983,0.1462564,-0.11128453,-0.19241534,0.39116043,-0.15407254,-0.13031875,-0.16260184,-0.19362843,0.39087716,0.20810333,-0.04703164,-0.06400957,-0.034786195,-0.049368344,0.3725369,0.17308629,0.29438865,0.103081666,0.04405868,0.09128499,-0.06229449,0.05942494,-0.19577707,0.026471326,-0.17450336,0.21917208,0.10649574,-0.12805067,0.10811834,0.17141971,0.20183502,0.20548594,0.12925085,-0.018145798,0.25750256,0.5166472,-0.101656415,-0.10196643,0.37905726,0.2159542,-0.18803096,-0.009953266,0.22278298,-0.010834177,0.19411288,-0.013649334,0.06903217,-0.03650259,0.08355363,0.040347423,0.061853915,-0.02158761,-0.071347326,0.19947043,0.019461224,0.08966556,0.17594956,0.123763986,-0.1375399,0.06521282,0.27354112,-0.24417268,0.29344642,0.20475784,-0.037118748,0.006806798,-0.062147927,0.16503887,0.13368656,0.28451073,0.17696334,0.0614087,0.26889148,-0.20411427,0.22178833,-0.02501259,0.38206717,0.085882075,0.25131792,-0.088741094,0.16982721,0.37845707,0.28310177,-0.26238257,-0.25955892,-0.18796054,0.35871914,-0.14929205,0.0518433,0.26177886,0.103009686,0.116208084,-0.37998745,0.26287818}, {0.42542654,-0.21075828,0.09553373,0.06216382,0.078089386,-0.13730125,-0.07480188,0.35737318,0.12993623,0.026338486,-0.021928314,0.10336424,0.10711644,-0.12899223,-0.013913875,-0.015157714,-0.30865598,-0.14838956,-0.24623829,0.060711112,-0.3628929,-0.011108386,-0.16231744,0.27336243,-0.004493881,0.05114943,-0.12824553,-0.04472084,-0.040127646,-0.09148223,0.05034791,-0.034819245,-0.25756136,0.012625746,0.18625511,-0.19842003,0.20136912,0.14311247,0.09115288,-0.19297108,-0.16341445,0.12493372,0.01824609,0.020432746,0.16263933,0.08966756,-0.2389097,0.39430803,-0.026090093,0.17703539,0.038460482,0.24609306,0.05195332,-0.14275175,0.22811353,0.109765045,-0.12331592,-0.14431064,0.009759832,-0.33833295,-0.00861901,0.06503355,-0.045311607,-0.04443897,0.2730799,-0.014574693,-0.09121569,0.22744574,-0.04387469,-0.027418597,-0.33337215,0.1562441,0.024879552,-0.061053436,-0.23409778,0.19562392,0.16818833,-0.06687864,0.11487406,0.030158538,0.04193122,-0.28254378,0.08492639,-0.24846385,-0.06920994,-0.06362391,0.06878276,-0.20691057,0.2301068,-0.08319572,0.12833327,-0.062112086,0.16115974,0.30896485,0.089026295,0.0069899433,0.3482347,-0.055661365,-0.034924127,-0.09149367,-0.1358737,0.13041225,-0.3849528,-0.15367982,0.03994194,-0.08669235,-0.074317925,-0.100563474,-0.010482986,-0.05303393,-0.29012206,0.011602989,-0.055121653,-0.15967426,0.14156315,0.031771258,-0.054574665,-0.0043942886,-0.16412258,0.04061168,0.0046262494,-0.29229203,0.06376386,0.062091272,0.20301554,-0.15283613,0.2893119,0.049467415,-0.0042338716,0.23392293,0.07950504,0.062238194,0.06324666,0.14327452,0.32131815,-0.016381303,-0.04953558,0.034889527,-0.016469728,-0.123075195,0.16895202,-0.015742892,0.07306495,-0.14589147,-0.17373036,-0.318601,0.1692412,-0.07321662,0.2176137,-0.082692586,0.039967872,-0.023307933,0.22009982,0.27138415,-0.16166689,0.10562,-0.04858921,-0.00033703056,-0.07742707,-0.14279285,0.27429345,0.13912906,0.052028906,0.0671809,0.0301531,-0.24586533,0.05299976,-0.19268323,0.072406076,0.04836796,-0.10421825,0.047982186,0.27560225,0.102685474,-0.19284894,-0.06730485,0.14565761,0.009273087,-0.057758495,0.056211572,0.031058678,-0.11559163,0.023242775,-0.0280416,0.06124056,-0.14047079,0.15744029,-0.13554433,-0.015259481,0.03247228,0.17489587,0.035029132,0.20548415,0.15441605,0.20350277,0.10906975,0.15615918,-0.15880264,0.16619883,0.038878337,0.27857628,-0.23565166,0.1003481,0.0051726834,0.026318908,0.07859712,-0.18178186,0.13954684,-0.102363355,0.09651508,-0.39887193,-0.019447023,0.043545775,0.15319829,-0.08981995,-0.20033343,-0.06665467,0.059937257,-0.12070814,-0.0049202368,-0.022595625,-0.24016613,-0.06028292,0.1069325,-0.48111093,-0.24688825,-0.26547155,-0.026392711,0.21271463,-0.13062173,-0.11481875,-0.17435612,-0.028766084,-0.052862782,0.105310984,0.07205946,-0.13353376,0.13614911,0.05000689,0.12184401,0.13280357,0.26707554,0.14910746,-0.19684123,-0.10139438,-0.0348175,0.2912935,0.1281472,-0.12820432,0.13965261,0.090400726,-0.009471678,0.23321523,0.06706571,0.23514998,-0.11121116}, {-0.075360455,-0.0019644757,0.057229083,-0.27425918,0.20414041,0.08071803,0.034711793,0.06242906,-0.13840057,-0.02347207,-0.055516925,0.2151345,0.13265276,-0.120254874,-0.20545387,0.08353616,0.14945444,0.16585207,0.100675896,0.038200468,0.18729281,0.2007128,-0.03243753,-0.06517419,0.26341513,0.040461067,0.026293816,0.023720725,-0.025137754,-0.0010404869,0.07531439,-0.22880769,-0.053439137,-0.15482265,-0.075900614,-0.18648751,-0.12023618,-0.13965754,-0.15951115,-0.17238222,-0.101821885,0.28105006,-0.11300789,-0.073174514,0.08200217,0.37017122,0.2569399,-0.21804436,-0.11681097,-0.033941913,0.07322316,0.09436606,-0.24161416,0.025691671,-0.19475785,-0.022977108,0.06105097,-0.015328929,0.12681204,0.27609178,-0.0758181,-0.07441297,0.21690552,0.12962385,-0.25956914,0.24273492,0.1521962,0.121753804,0.18994221,0.03704867,0.0507965,0.023499727,-0.2300684,-0.03578279,-0.1903879,0.07753151,0.29826605,-0.025331361,0.15143783,-0.08810037,-0.19009301,0.07408687,0.023387529,0.12370028,0.028628005,0.18744111,-0.16678861,0.13629267,0.039730333,-0.20417121,-0.07359637,0.20104277,0.06507058,0.02340017,0.21145472,0.1895468,0.015000345,-0.035738476,-0.16341804,0.15147698,-0.21196675,0.06569245,0.03160255,-0.09226312,-0.24138325,-0.15463053,-0.32547927,-0.2106243,0.002935673,-0.04584312,0.02730686,0.041888308,0.11451513,-0.067230806,-0.10071552,0.19634782,0.18391345,-0.07048394,0.050090995,0.07406764,0.24927323,0.09406687,0.124414206,0.066471614,0.10908798,-0.051322494,0.022270182,-0.09417377,-0.15424427,-0.11252412,-0.08395286,0.2705388,0.14579065,-0.035820354,-0.102497704,-0.22690864,0.02028099,-0.039107792,0.05588505,-0.0030651067,-0.021179207,0.09265303,-0.07243469,0.031989664,0.042496048,0.12302742,-0.16672526,-0.06418973,0.2530592,0.014989218,-0.17330284,-0.10358065,-0.06861883,0.043410316,-0.12339733,0.0011977366,0.043898568,0.11607299,-0.037809514,0.23421022,-0.033704586,-0.041088108,0.033334326,-0.07968049,-0.41149187,0.14146504,0.044473607,0.09848089,0.007857643,0.0014777888,0.22410436,-0.063772775,0.16431311,-0.28709114,0.122627154,-0.003817591,0.10061148,-0.05976692,0.21483603,0.056888036,-0.19278006,-0.09119032,0.15080452,-0.11073222,-0.18362448,-0.048211604,0.017782517,0.4462386,0.027766388,0.09513345,-0.0026349665,-0.10272711,0.17619003,-0.11920828,0.19095099,0.10325744,-0.08454557,-0.12603916,0.020817576,0.13994855,-0.027988331,0.30612567,-0.037521835,-0.09138566,-0.089914665,0.1813957,0.118649416,-0.07489231,0.19494691,-0.045524202,0.061153036,-0.08379811,0.14305195,0.11916731,0.1932561,-0.20555493,0.06755884,-0.0069853514,-0.2549649,0.08697121,-0.07472654,0.18072599,0.1502173,0.077977195,0.15882015,-0.032284155,0.16643745,-0.068971306,-0.116736785,0.09054166,0.017478632,-0.25310063,0.06400238,-0.10751227,-0.17235292,0.26090413,0.18555681,-0.07339329,-0.035803534,0.11119168,0.056757294,0.20678724,0.052076437,0.025497966,-0.08700129,0.15498006,-0.21784984,0.2264477,0.059869554,-0.12364831,-0.0029469007,-0.102721624,-0.12901811,-0.065037556,-0.0018863408,0.25712794}, {0.05086022,-0.28630126,-0.066630065,0.15384991,-0.0020404183,-0.05348649,-0.14819354,0.16783865,0.16469763,-0.01547707,-0.13576683,0.009980093,-0.11508286,-0.17926398,-0.05616009,0.015529369,-0.011350015,-0.16892648,0.11557834,-0.03748405,0.019458942,-0.16038081,0.16810152,0.19400743,0.05272712,-0.119577296,-0.10210248,0.19697893,-0.0752754,-0.1523218,-0.12342516,-0.21660985,-0.10165807,0.25515416,-0.096824236,0.06670059,0.11539782,-0.09524997,-0.06500129,0.03839296,0.18003875,0.22272788,-0.023164,0.055203028,0.017174833,0.0012006164,-0.011388419,-0.10247719,0.16607372,0.103217095,0.09048948,0.0034281735,-0.015361408,-0.03344332,0.042397417,0.063070364,0.11665924,0.006394123,0.030167876,0.056031726,0.03374699,-0.07511397,-0.2874495,-0.119131304,0.19360173,-0.15621415,0.13583808,-0.07499285,-0.1574828,-0.03648724,-0.10352725,-0.08925877,-0.12778369,-0.16324249,0.006094175,0.078251526,0.024453914,-0.25496072,0.12983122,0.23980194,0.07243731,-0.2133546,-0.0055762464,-0.015794452,-0.0069362773,-0.02983843,0.19091186,-0.015742758,0.027369227,-0.1793994,0.034701135,0.09277887,0.0915184,-0.037744723,0.17187129,0.030006826,-0.047189195,0.10725179,-0.035750166,-0.06571785,-0.0019244947,-0.27254763,-0.11336291,-0.12956087,0.09070152,0.06260719,0.012629869,-0.17019033,0.033413336,-0.23359632,-0.09853584,-0.042281527,0.0070068594,0.10753313,0.17330706,-0.019211255,-0.040907998,0.002723602,0.012617155,0.131347,-0.13324647,-0.004891623,-0.14589138,-0.1630068,0.012725522,-0.1700014,-0.15958856,0.09013843,0.19203335,0.1381656,-0.11810543,0.13933684,-0.16613339,-0.09640216,-0.0036343113,0.03705612,0.09572537,-0.14576152,0.07190934,0.1673751,0.10296316,0.029881231,-0.2156499,0.011566473,0.116890244,-0.12536158,0.09661637,0.13821442,0.015730867,-0.0834219,-0.02213126,-0.3501053,0.057429004,-0.015624619,0.09666802,-0.18642266,-0.079791315,-0.14854768,0.0040526935,0.033649165,-0.008795598,0.111183055,0.08106095,-0.10457062,0.1551364,-0.06658733,0.14581943,-0.16434085,0.026905369,-0.11956704,0.089176446,-0.05207373,0.11119751,0.08717459,0.071354315,-0.016899653,0.27080652,-0.13798007,-0.1631281,0.06952332,-0.020491052,-0.021399435,0.0002638552,-0.07835919,0.10531612,0.034759488,0.04722173,-0.2145421,-0.12733185,-0.029474257,0.0020263602,0.0114587145,-0.04303305,-0.0025812385,-0.07976568,-0.10839073,-0.12186578,-0.25056264,0.0688396,0.10199605,0.0065122265,0.036486235,-0.039765734,0.031712446,0.1118447,0.10385502,-0.07308649,-0.022376074,0.040956777,-0.21021232,0.11727907,-0.21465814,-0.07789683,-0.08215128,-0.31033126,-0.070438914,-0.0065027755,-0.13182701,0.076428875,-0.12127599,0.09716237,0.07212162,-0.1272402,-0.10944214,-0.071039855,-0.054706376,-0.026447311,-0.07420945,-0.031923175,-0.21773061,-0.093833864,0.20198113,-0.029541116,-0.19377525,0.043754783,-0.08242201,-0.22749527,-0.36872384,0.101005815,-0.090030536,0.070064224,0.054529652,-0.0011328947,-0.2730092,-0.0133112,-0.22505623,0.15083438,-0.14656357,0.2037153,0.028570833,0.1575633,-0.07145203,0.1348393,-0.11347586,0.018206097,-0.16716109}, {0.19816296,0.14794193,-0.120501816,0.24346043,-0.15840445,-0.026596555,0.29093215,0.10701278,0.025598414,0.22668338,-0.15057355,-0.15456744,-0.14171703,0.14166185,-0.16594233,0.108890496,0.1745023,-0.19551732,0.026627332,-0.020497916,0.024884703,-0.08452597,0.1512101,0.23205465,0.13477334,0.12989856,-0.06705508,0.23151873,-0.16291566,0.29183105,0.17438021,0.30634072,0.026482318,0.04849697,0.15514177,0.16819507,-0.3086256,0.08932798,-0.14473185,0.048097946,0.07363919,0.0038148127,0.1066391,-0.16091904,-0.3145414,-0.40331122,-0.15899412,0.12844834,0.1601467,0.24060255,0.15192695,-0.003136441,0.10141781,0.14151464,0.014198022,0.030886192,-0.23950319,-0.16191943,0.25558984,0.15789245,-0.0005824205,0.023017712,0.049258523,-0.030018797,0.11868512,-0.020083481,-0.20321909,0.26639685,0.05178136,0.12020262,-0.06340816,-0.35051414,-0.14280634,0.1365795,0.18730518,-0.29668584,0.0052550845,-0.1077987,-0.044672705,0.19939885,0.244388,0.039117455,-0.07472918,-0.078073524,-0.039935827,0.26039094,0.3088327,-0.123530604,-0.0040756976,0.27129093,-0.27061605,0.17320535,0.07296636,0.09135675,-0.32733622,-0.035874173,0.0421629,0.13338344,0.029566085,-0.0650705,0.15417573,0.27658296,-0.09733565,0.22420006,-0.04108639,0.10699529,0.024297232,0.42016828,-0.08488514,-0.09962148,-0.2503759,0.04683184,-0.31857872,0.09034967,0.12137683,-0.16279532,-0.42686364,-0.29316452,-0.13415734,-0.2973507,0.106790915,0.047135573,-0.105537206,0.2915617,0.07680919,0.0972205,-0.12100744,-0.036667146,0.0022115498,0.23160769,0.19435568,-0.3562303,0.20846838,0.15003906,0.12463758,0.09071355,-0.37784925,-0.018493619,0.15961808,0.024492862,0.059715856,-0.18481643,0.1649896,0.17430814,-0.17897946,0.21856247,-0.20952216,0.063247405,0.14617747,0.0013878327,0.28099427,0.18346706,0.1749848,0.031562317,0.08103499,0.17466559,0.024813583,0.14433748,0.1776916,0.03389634,0.18437968,0.15238307,-0.035239674,-0.052523494,0.20324497,0.0011325874,-0.06753852,-0.0898964,0.13021863,0.13739744,-0.0058220476,0.14052269,0.08397556,-0.11341344,-0.18023635,0.120840184,-0.04954981,-0.2663134,-0.072530724,-0.017934034,0.1816346,0.20472933,-0.27530697,0.027263684,-0.028774189,0.2009839,-0.0007249757,0.34317282,0.16440761,-0.16175966,-0.089565925,0.022733105,0.20957702,0.12603578,0.09758883,0.17585905,0.17610587,0.08177856,-0.17966454,-0.07681151,-5.9700774e-06,0.0077202492,0.04495865,0.12525995,-0.25882033,0.10175643,0.1315617,-0.024192711,-0.40472126,0.3370092,-0.19172771,-0.07230092,0.012237897,0.13718419,-0.10826357,0.107045904,0.0808088,-0.2657597,-0.023267167,0.15185462,-0.13941686,-0.06184386,0.09843248,0.23511739,0.046177868,0.13938433,-0.106604055,0.100221545,0.014667647,0.27107936,0.019032974,0.17236719,0.39269492,0.26220968,-0.056666657,-0.06821399,0.03541922,-0.025530277,0.027592972,0.1472511,0.21078427,0.16356415,0.13703649,0.25265786,0.08827355,0.28293952,-0.08277853,0.20346273,-0.087698594,0.0803577,-0.2692182,-0.14375184,0.16229631,0.1372429,0.04025105,0.09646446}, {0.0051648337,-0.099052735,0.015272521,-0.14996539,-0.04947079,0.17994484,-0.095914304,-0.0016226468,-0.024645975,0.14787138,0.119302444,-0.050915305,-0.0044777924,0.07533035,-0.13876209,0.114857756,-0.05626579,-0.022444032,-0.04901189,0.0086150495,0.08343389,0.08177183,0.04400593,-0.08103798,-0.20836143,0.03171596,-0.045955017,-0.044056598,-0.16772045,-0.023207914,-0.11355022,-0.02483036,0.081098706,-0.10818562,-0.19627161,-0.11334175,0.029176483,0.034791518,-0.049462944,-0.014032439,-0.11460902,-0.048401374,-0.006300584,0.18752404,-0.07658607,-0.057939474,0.069479965,-0.1830542,0.07678716,0.0017244471,0.011179261,0.06498038,-0.06940136,-0.049746066,-0.07644631,-0.03146024,0.00610211,0.1303924,-0.11028589,-0.061167054,0.28881598,-0.058315337,-0.12308281,0.011157173,-0.014085227,-0.092849344,0.05355742,-0.0158979,0.0051700003,0.06370836,0.035016906,0.06846939,-0.01933136,-0.049923927,-0.1431157,0.028572159,0.043871082,-0.20418611,-0.089880824,-0.18100277,-0.13949917,-0.06665258,-0.0850091,0.11678764,-0.007250917,0.049987257,-0.14002721,0.12521118,0.06828316,0.088415645,-0.060574915,0.04656129,0.037677698,-0.08773138,-0.03564956,-0.0338426,0.1606813,0.0037694399,-0.0972609,0.16587894,0.2975692,0.11840664,0.041592706,0.052086733,0.10768409,0.18405455,-0.05352932,-0.006122417,-0.18270098,-0.10996342,0.059198122,0.0020070316,-0.0013104478,0.12813087,-0.012420863,-0.11958204,0.11180495,-0.087458484,0.19183232,0.07971645,0.06508034,0.056661483,-0.19137783,0.06307666,-0.101125136,-0.03868258,0.0038792111,0.13467811,-0.008547765,-0.02506415,0.010043222,0.047386374,0.080128156,-0.17168996,0.059887037,-0.037888452,-0.0086048385,0.220211,-0.07115729,-0.042321123,-0.08773696,0.1854034,0.06817013,-0.11573167,0.087272964,-0.108588666,-0.034249153,-0.049310345,-0.17896797,-0.10119277,-0.05421356,0.012884812,-0.05172713,-0.08234091,0.17121606,-0.072718404,0.07636963,-0.11158781,0.0062515438,0.011618826,-0.008438389,0.00051309355,0.15907235,-0.1357392,-0.03403551,0.029333677,-0.07475557,0.12973656,0.14313948,0.10070052,-0.042781644,0.18495305,-0.17096952,0.020513296,-0.23468377,0.052894063,0.048261426,-0.1154633,0.09786153,-0.052455638,0.12833965,-0.077001736,0.063614406,0.07308528,0.1526827,0.08925885,-0.010052723,0.0879112,-0.1248454,-0.040394884,0.0076537775,0.027333954,0.11056259,-0.022438096,-0.17058313,-0.024667563,-0.07203578,0.1256472,0.12989336,-0.0037728816,0.02119089,0.050351147,0.088253535,-0.1838059,0.005801687,-0.12940277,0.031492796,-0.009607438,0.015416423,0.21715331,0.00010207605,0.021724982,-0.04585488,0.058762934,-0.13261612,-0.097207986,-0.03969809,-0.17489162,-0.16920999,-0.015089938,0.12189121,-0.015587342,0.015642827,-0.034893025,0.036984522,0.14513142,0.13437647,0.16982824,0.14156824,0.0004641311,0.07161712,-0.15572275,-0.0041045137,-0.075370125,-0.0038775634,-0.042464707,-0.15717924,0.06242686,-0.13995183,0.16048835,-0.023966143,-0.18829608,-0.035297107,0.03542411,-0.07924627,-0.0031189215,0.024379775,-0.16865824,0.0626363,-0.11887251,0.057791244,-0.15721624,-0.027234027,-0.12041246,-0.08901621,-0.16979346}, {0.090376616,0.37762308,0.0220146,0.15056726,-0.017745344,0.21001904,0.12196796,0.021683488,-0.026419798,-0.071655236,0.09505498,0.13452765,-0.1432032,0.06158827,0.13964637,-0.13281617,0.0690565,-0.043492947,-0.07340031,-0.12795341,0.17138469,0.06541878,-0.04654646,-0.010500005,0.25413978,0.06901431,0.036096394,0.13785213,0.13059284,0.04117149,-0.026285358,0.2643371,0.02759486,0.08659861,0.013057816,0.055196468,-0.056894865,0.09036135,-0.27369824,-0.044961426,-0.046696607,0.05925531,-0.13299748,-0.03371712,-0.021414416,-0.12190457,0.081705466,0.11666757,0.17516722,0.15199205,0.13566439,-0.30090377,0.083029255,0.023086714,-0.15364684,0.15599595,0.10638666,-0.13719828,0.066149846,0.08636139,-0.10527812,-0.24122488,0.05707823,0.18617177,-0.057147197,0.085238285,-0.0077432217,-0.013076164,0.050897643,-0.03861373,0.1009541,-0.13108216,-0.19472122,0.11953253,0.15948397,-0.1990498,0.12234591,0.00981919,-0.013807059,0.08351801,0.20677345,-0.00033474446,-0.16310008,-0.10383344,-0.014155948,-0.11533326,0.008844675,0.066717386,0.034132868,0.12680265,0.061865166,0.03982182,0.09818128,-0.09791926,-0.0078527415,-0.017920027,0.066750914,0.19949783,-0.068438016,0.0021042363,0.11523723,-0.08764824,0.17192613,0.043938752,-0.16410674,0.08738292,0.10648986,0.09391848,0.10575822,-0.020902457,-0.109956704,0.1613606,0.051921126,0.13088784,0.1911352,-0.22237714,-0.18441269,0.009865938,0.08415252,-0.08146778,0.061701726,0.2651405,-0.09448761,0.026544942,-0.009733437,-0.006832163,-0.029873213,0.06346641,0.044241402,0.23034965,0.034771796,-0.11671844,-0.06499137,0.18905145,0.16851792,0.039005745,-0.14539075,0.015839908,-0.0699762,0.08064753,0.008357403,-0.07204379,0.008140672,0.0077716373,0.03205298,0.32531068,-0.0069779437,-0.063590474,0.111050986,0.17621118,0.011247854,0.015641525,-0.09299598,-0.07848302,-0.028877867,-0.009980008,0.121794134,0.026292803,0.15468134,0.20390534,0.033882212,-0.0023883951,0.060577367,0.15995966,-0.00605716,0.14335415,0.10416335,-0.097912826,-0.0892816,-0.1636509,0.06319742,-0.05843337,0.15432256,-0.21364929,0.04805277,0.16325237,0.018706532,0.092436336,0.083097994,0.106437884,-0.03087667,0.07207146,0.006226039,-0.032942824,-0.17468883,-0.03980841,-0.1642257,0.29128075,0.09406411,-0.118341744,0.2425443,-0.033824306,-0.045904204,-0.059991952,0.027865337,0.17490302,-0.09925146,0.082658686,-0.28547075,0.20900342,-0.2571229,0.06820622,0.0809926,0.075409636,-0.035788957,0.2204678,0.11253688,-0.260882,-0.08837869,0.07285663,-0.051989056,-0.047252316,0.15372999,0.0240246,0.25607923,0.057857364,-0.016570473,-0.11301309,0.016890045,0.07030935,-0.07488929,0.03156641,0.07906562,-0.03299051,0.17614715,0.26951203,0.10458323,-0.10634038,-0.24131536,0.018786771,0.10913562,-0.076189026,0.20191732,0.005853322,0.18258768,0.1261164,0.05480853,-0.076008715,0.02104883,0.15158778,0.13648607,0.00766586,0.095563985,0.08957922,0.26249748,-0.10693568,-0.06315078,-0.016438177,0.041346412,-0.08411914,-0.080097444,0.16855747,0.25418827,0.1244101,-0.07451304,0.025466189}, {-0.30940297,0.22619171,-0.2911689,0.08559464,-0.011532023,-0.23386797,0.051744092,-0.2094646,0.051435646,-0.34124532,-0.0032985178,-0.46327358,-0.4314872,0.050590567,-0.021609716,4.44953e-05,0.29573795,-0.25705338,-0.09503255,-0.07878925,-0.22833557,-0.06556162,-0.014000407,-0.29146338,0.01143429,-0.2142842,0.2375933,0.23652023,0.2569785,0.18103155,-0.0945608,0.052068654,0.32628337,0.03921971,-0.26961407,0.21815117,-0.36486465,-0.1042684,-0.09876545,-0.062180832,0.1918808,-0.163069,-0.06941267,0.045001455,-0.20263542,0.058359858,-0.34882364,0.18528695,0.045575563,0.005721089,-0.05803602,-0.36935365,0.23027399,-0.13666986,-0.078821905,0.045471843,0.13994735,-0.15768579,0.21712041,-0.036604736,-0.111524105,-0.13381897,0.08929296,-0.17274338,-0.20942067,0.06284271,-0.22554436,-0.08587394,0.00503858,0.17175767,0.05929478,0.1323951,0.12427822,0.04981799,0.25603703,-0.12728696,-0.21304244,-0.15041286,0.07106746,0.07583456,0.0015507713,-0.114321776,0.061504554,-0.17409447,0.12788746,-0.0592891,-0.12713858,0.073588036,0.07900222,-0.016367232,-0.13293098,-0.28434822,0.031992886,-0.026297182,-0.111274116,-0.06835711,-0.053213496,-0.0747291,0.21794482,-0.2506026,-0.22903813,-0.20184425,-0.1020593,0.19513528,-0.31313294,-0.15299945,-0.06510851,0.2607897,-0.14600486,-0.09154555,-0.014481251,-0.079957366,-0.075318225,-0.17025094,0.0052563143,-0.35648566,-0.33035406,0.033054437,-0.046479,0.04272405,-0.18695898,0.16853453,0.031674545,0.22155482,0.032194424,0.0073622623,-0.124612086,0.027909236,0.090243995,0.039283287,-0.19843234,-0.032204747,0.10760263,0.1034148,-0.3643,-0.22637776,-0.2633041,-0.22606365,-0.18996558,-0.02915676,-0.20408204,-0.15119989,-0.09505738,-0.108976424,-0.17622834,0.0600467,-0.11358398,-0.13610512,0.08504444,-0.06449705,0.025042577,0.0355131,-0.20733991,-0.5563746,-0.23879986,0.0924439,-0.12530272,-0.13924421,0.2729717,-0.2927746,0.07705909,0.029291805,-0.34028053,-0.11256753,-0.026400771,-0.2310886,0.14689158,-0.19581878,0.0019490789,-0.116727896,-0.29565844,-0.37966886,0.08093707,-0.2852678,-0.06198068,0.29702097,-0.11536051,0.029645978,-0.13189961,0.1438582,-0.13292946,0.24995205,-0.23468722,-0.120225474,-0.12900965,-0.100984044,-0.24076661,0.007675999,0.122305825,0.030573893,-0.07790153,-0.06435184,-0.23171099,-0.097531594,0.1724335,-0.2146566,-0.15439591,-0.20960422,-0.42599136,-0.08807282,-0.29546255,-0.3448606,0.038855273,0.3846528,-0.2781236,-0.072258115,-0.15858294,-0.10519857,-0.31764236,-0.13530052,0.031803466,0.101291284,-0.12734301,-0.03509766,0.12307837,-0.20185849,0.12292231,0.04845027,0.18091469,-0.3273442,-0.1647046,0.035447914,-0.23613094,-0.0118525615,-0.047432244,0.33557805,-0.06756509,-0.23816137,-0.1138335,0.09701586,-0.08789649,0.102921344,0.14548922,0.2367863,-0.099519104,0.093796566,-0.0005638059,-0.0006825831,-0.11488435,0.020771932,-0.32824275,0.021525519,-0.3586789,-0.20531921,0.17197119,0.1012856,-0.27896804,0.081714235,-0.19984624,-0.14803301,-0.46284628,0.1152859,0.19678035,0.0035005892,-0.12865336,-0.16600983}, {0.074862935,-0.24449934,0.11922627,-0.06229269,0.069635496,0.2526143,-0.15070711,-0.14764737,0.19036518,-0.05994694,0.03227845,0.10836041,0.14612862,-0.006918039,0.26612732,-0.26805577,-0.16879244,0.29653946,0.19930089,-0.021724872,-0.21067648,-0.04751996,0.009073108,-0.15583864,-0.27932453,0.05814648,-0.06379133,0.058699995,0.15079592,0.062405348,-0.13524923,0.10840826,0.04835083,-0.15488869,0.19101997,-0.20084652,0.22133328,0.11607188,0.31373492,-0.036897656,-0.11557588,-0.18351321,-0.090003625,-0.069419704,0.2787351,0.19196692,0.05024652,0.25696427,0.088753656,-0.016882196,-0.028966257,0.10663796,0.05491503,0.23186266,0.15756972,0.28819636,0.15258005,0.068374515,-0.07762238,-0.3206298,-0.28418934,0.23701377,0.032024592,0.32080558,-0.049421586,-0.3076173,0.07427823,-0.11601157,-0.16615327,-0.10876032,0.00997682,0.033493653,0.2235432,-0.16473734,0.097474456,-0.089045264,-0.13927066,0.07728364,0.006531902,-0.093420744,0.103809476,-0.0353978,0.3894329,-0.06321783,0.040713523,-0.21442474,0.13157314,0.034451753,-0.08303273,-0.18118729,0.093440324,-0.107313335,0.015505742,-0.11599143,-0.057970125,0.03286865,-0.08046089,-0.26511133,0.21395566,0.15091608,-0.29618952,-0.0780292,0.08568463,0.037145104,0.22399007,-0.17148367,0.0082050655,-0.004239204,0.009952301,0.026750697,0.06609747,-0.12597589,-0.03689418,0.1268808,-0.037849195,0.16255122,0.19214629,0.35200354,-0.019088194,-0.20301661,0.059934035,0.039489545,-0.07606035,-0.14451593,-0.14172834,0.08784185,0.100256614,0.23723629,0.032272633,0.014887278,0.19993116,0.102324225,-0.083034545,-0.14850602,-0.11151666,-0.015320421,0.18741609,0.12595335,-0.1451715,-0.17624374,-0.0015766495,-0.062322084,-0.0028759926,-0.2713715,0.14234024,-0.005135901,0.31692433,-0.17608054,0.0109989215,0.09963758,-0.2117094,-0.047875408,-0.05644754,-0.0970766,-0.15606692,-0.14930288,-0.17601621,-0.1758742,-0.17013793,0.19577289,0.14827003,-0.13254374,0.055370413,-0.013294902,-0.22733673,-0.07461859,-0.0095803905,0.1956909,-0.083587326,-0.13579018,0.15903065,-0.0012113164,-0.17393868,0.05496277,-0.05259956,-0.1444548,0.16910234,0.072126895,0.04161189,0.0023465327,-0.0369129,0.09641447,0.034670148,-0.0033668429,-0.099615216,0.051802587,0.1523437,-0.26800776,-0.06098985,0.0990118,-0.14889023,-0.058103986,-0.1614102,0.05946303,0.16343944,-0.21253386,0.11671701,0.23422551,0.25778767,-0.10121225,0.30041245,0.15757233,-0.07052613,-0.11592987,0.33786812,-0.084739774,-0.10548288,0.07809084,0.1477047,-0.19945353,0.18997698,0.12594734,-0.17943828,-0.100848615,-0.08705417,0.06718808,-0.19621913,0.44302016,0.05790525,0.028241206,-0.05456654,-0.13078727,-0.11170667,-0.24178419,-0.14962187,0.10286412,0.065484695,0.09971179,-0.017313002,0.07444918,0.12433344,-0.019077197,-0.15348598,-0.012108963,0.50030094,-0.15916665,-0.10298025,-0.1267339,0.01140008,-0.054636,-0.08471,-0.042014543,0.009234403,0.2124304,-0.1320735,-0.23336707,0.13330792,-0.025518084,0.15112425,-0.0017002254,-0.010455542,0.20859058,-0.18448506,-0.019757153,0.11147769,-0.08691124}, {-0.082289845,-0.3972622,0.18323165,-0.14751215,0.018551227,-0.10761332,-0.19140543,0.006776951,-0.19312447,0.037421342,-0.20921613,0.04241057,0.080148764,-0.054538462,-0.10333871,-0.052132092,-0.29400295,-0.03408136,0.080268115,0.060670786,-0.121290885,-0.045350734,-0.04171686,0.09003407,-0.19058777,-0.09366581,-0.13898036,-0.25642982,-0.1709203,-0.13944003,0.118448526,-0.025489494,-0.0359029,-0.15500621,-0.0023695107,-0.25234285,0.03990401,-0.08525226,0.025872719,0.082768925,0.02595949,-0.22410804,-0.06216955,-0.0025587995,0.16149734,-0.21980892,0.11406298,-0.18996318,-0.059728187,-0.18382406,-0.030752826,-0.0057975813,-0.1599182,-0.028296709,0.054323494,-0.06709329,0.056553267,-0.19019799,-0.18367898,-0.2925177,0.01676445,0.16546573,-0.21146335,-0.12759939,-0.115399525,-0.15882494,-0.0900264,-0.010710103,-0.36419028,0.007062049,-0.26613376,-0.26116234,-0.03028279,0.03796651,-0.16042599,-0.17797446,0.20274004,-0.10102797,0.066499,-0.22393256,-0.091973215,0.012846914,-0.07234293,0.18197979,-0.20436934,-0.20363474,-0.11913412,0.0240527,0.013930558,0.12429446,0.18473458,-0.032106843,-0.30283687,0.29155624,-0.10531255,0.05664388,-0.24786767,0.04200587,-0.11184067,0.011593729,0.14142959,0.22837882,0.19858432,-0.062482726,-0.02488497,-0.024908338,-0.09088253,-0.009766285,0.07985627,-0.02404523,0.0036232746,0.039764345,0.0082364725,0.20407535,-0.15819083,-0.03068138,0.15265551,-0.16054884,0.08217777,0.043748632,0.057029516,-0.3156901,-0.11118865,-0.18999563,-0.11289466,-0.118724994,-0.11634804,-0.118853375,-0.11184349,-0.09698253,-0.064897686,-0.26518947,-0.25475392,-0.20302022,0.15283127,0.09126252,0.06697785,0.19049473,-0.29389372,-0.0076769055,0.1132996,-0.10788015,-0.26779866,-0.10959532,-0.320109,-0.11580972,-0.08952937,-0.2331067,-0.1618875,-0.29711244,-0.05004437,0.13491216,0.08697557,0.17752802,0.048798054,-0.17611818,-0.23622493,-0.15742037,-0.24521731,-0.017472517,-0.10295361,0.13559489,-0.21025677,-0.11434403,-0.07778665,0.02326456,-0.09425534,0.061174773,-0.13253829,-0.10477971,0.023452729,-0.027339306,-0.15066081,-0.007824526,-0.2255022,-0.08009063,-0.030044243,-0.24427101,-0.1562072,0.013684416,0.07445103,-0.11749116,0.087699994,-0.15133044,-0.099769264,-0.0903028,-0.037527304,-0.17586026,-0.27641404,0.14541408,-0.22539335,-0.18306838,-0.15960532,0.014290066,-0.17150299,-0.036118057,0.07314761,-0.028768264,-0.046871636,-0.19510275,0.22733611,0.07121457,-0.102567986,-0.1998668,-0.0015178554,-0.00025558565,0.12619792,-0.17725338,-0.2839499,0.067129605,-0.15207331,-0.0022010687,-0.29240584,0.070661105,-0.10645478,0.1829464,0.08396289,-0.1765117,-0.039261222,0.09828627,-0.054758903,-0.073677555,-0.15100855,-0.2525573,-0.12824203,-0.24419194,-0.043515038,-0.01882372,0.1963743,-0.18593727,-0.21610488,-0.19193019,-0.17859112,-0.015417753,-0.14753494,-0.27169803,-0.23593238,0.21870518,-0.19482139,-0.2743845,0.15531223,-0.25786498,-0.03176492,0.09409887,-0.1197764,-0.17832895,0.07386999,-0.2490344,-0.2906144,0.19927362,0.19315308,-0.1727234,-0.104903735,0.032517023,-0.06748716,-0.22484371}, {0.028720083,-0.18868685,-0.030900724,0.07816904,0.029796524,-0.10553153,-0.07840822,0.008171191,-0.21256989,0.09885256,0.111728825,0.044414047,0.058523525,-0.0884875,0.0074635865,0.086917706,-0.03642134,-0.095812626,-0.04640854,0.011379005,0.042686675,0.118674226,-0.046445955,-0.057428088,-0.052167095,-0.006416964,-0.056776594,-0.08167058,-0.13425972,-0.021874413,-0.048409607,-0.14246184,0.04885636,-0.041869484,-0.08481181,0.103049316,-0.046602618,0.015380335,-0.063678265,-0.1260923,-0.043041702,-0.006837629,-0.034335174,-0.064664595,0.068392,0.089108184,0.021811694,0.05833636,-0.06725164,0.07089648,0.19422595,0.06933023,-0.10012572,-0.05841786,0.04547036,-0.04194858,0.10465565,-0.044540577,-0.07724387,-0.05507009,-0.08400103,-0.07473739,-0.10063729,-0.12442747,0.032142513,-0.02494683,-0.08309367,-0.08286128,0.020692931,-0.112133086,0.02552941,-0.041762188,-0.024193946,0.07975946,-0.041211706,0.0254433,0.029669682,-0.22659987,0.10435281,0.010659831,0.09004301,0.12975834,0.00039153587,-0.032850508,-0.08122642,-0.17712098,0.027122809,0.15720981,0.091182314,0.014040897,0.104980774,-0.05655934,-0.0496629,0.17381695,0.058213487,0.12900722,-0.11465029,0.04774557,-0.04899714,-0.034323093,-0.09144585,0.14820276,0.089561574,-0.10811592,-0.099761076,-0.103534065,-0.06623205,-0.071826324,-0.10973129,0.0007756169,-0.014131289,0.15650304,-0.053072684,-0.11752652,0.088408746,-0.034883607,0.10810666,0.059893563,0.14212649,0.012310567,0.0408884,-0.1748247,-0.019352784,-0.093721054,-0.020813365,-0.04220412,-0.045029704,-0.08822175,-0.055451494,-0.045705315,-0.1725842,0.018554276,-0.11787514,-0.040721655,-0.091721326,-0.11421979,0.027353467,0.031729113,-0.05774946,-0.10811173,0.036198813,-0.19799085,-0.0008338915,-0.16682895,-0.18828043,-0.01855305,0.05551807,-0.012091759,-0.07301672,0.06785114,-0.021159552,0.07499352,0.008524734,-0.059932012,-0.1262277,0.057852715,-0.13771196,-0.054565948,0.042080212,0.013816819,0.016784528,0.1579067,-0.05853078,0.18168044,0.04526442,-0.20049632,-0.037344854,0.055943478,0.12449913,-0.036846735,0.029302076,0.049673777,-0.026545422,-0.026990946,-0.10156327,-0.00568782,-0.061964124,-0.100078344,-0.11976978,-0.06450519,-0.04181809,0.09525991,0.008763588,-0.0642025,-0.048603788,-0.12272486,-0.072757974,-0.12083637,-0.01664931,0.043115474,-0.024569364,-0.021625739,-0.05293933,0.03384814,0.0006831165,0.13469605,0.0051533035,-0.12626567,-0.0018121076,-0.0016998999,-0.039885715,-0.06793075,-0.098110445,-0.10753444,0.019389233,0.04900699,-0.052885905,0.045924433,-0.071278036,0.051305987,-0.124662265,-0.09217677,-0.012936626,-0.04210616,-0.051962025,0.044876188,0.09961122,-0.02500521,-0.13097624,0.029163027,-0.017029595,-0.052921418,-0.07513998,-0.052741487,0.0043038805,-0.01978241,-0.01406448,-0.072503105,0.042580586,-0.060639434,0.047687452,0.03301023,0.014149387,-0.01847727,-0.17195447,0.1812387,-0.054695178,0.083431326,0.034914795,0.016595066,-0.007504221,-0.015664805,0.05703361,-0.09521465,0.06989123,0.06832482,0.0055966335,0.0574811,-0.14583157,0.10767873,0.009284077,-0.065034606,0.033150062,-0.007260332,0.122173876,-0.046945877}, {0.0789011,0.049069483,-0.13455325,0.087400205,0.07739388,0.04208422,-0.19792081,-0.008392538,0.01630082,-0.06897591,-0.25860918,-0.1867101,-0.050925612,0.11617341,-0.0050220513,-0.2866277,-0.22118443,0.011891458,-0.036932085,-0.061282743,-0.15103823,-0.06224243,0.018272335,0.05039426,-0.23162068,-0.12153959,-0.14775352,0.0471243,-0.30354372,-0.0042485483,0.10091124,-0.045727845,-0.030171348,0.09906786,0.2758507,0.10447253,0.2818563,0.11168969,0.15081239,0.08396587,0.089080535,-0.07315208,0.16052344,-0.008335521,-0.032068804,0.05869082,-0.100595534,0.062305953,-0.024633903,-0.16549045,0.06268301,0.1846294,0.15830421,-0.14289173,0.20231214,-0.02021675,0.055013537,0.07254943,-0.19969495,-0.32637727,-0.022899032,-0.16726972,-0.09800682,0.03004974,0.2175339,-0.1924725,-0.04204058,-0.005988773,-0.16800237,0.059516884,-0.23599829,-0.06809814,0.19910426,0.014439245,-0.01359757,0.050168626,-0.04536887,0.17967436,-0.05667687,0.025988875,0.15189059,-0.13810338,0.1376261,-0.07918601,-0.04246684,-0.26818007,0.17070687,-0.09042717,0.008152898,0.0020387506,0.14166048,0.0015506599,-0.020915171,0.059478104,-0.13053575,-0.14248969,-0.023322534,0.025165182,-0.048460778,0.03866533,-0.1010404,-0.10137521,-0.003049464,-0.07616208,0.06496028,-0.22575632,0.061476704,0.04108128,0.03327713,-0.087770075,0.14165655,-0.014177753,-0.1077094,0.086371124,0.12795402,0.30014467,0.113674425,-0.12563394,-0.0056714728,-0.02810358,-0.036025655,-0.12985219,-0.041855324,-0.13150416,-0.08664425,-0.01952353,0.1432961,-0.14275673,-0.061445028,-0.03583191,-0.08331887,-0.1446788,-0.19131893,-0.009801203,-0.1512578,0.009978005,0.070167035,-0.06802042,-0.2724951,-0.002206584,0.20694752,-0.095526055,-0.012600377,-0.10201392,-0.23291628,-0.07889705,0.21932054,-0.10609244,-0.018835876,-0.13933766,-0.044263814,-0.07093625,0.16901149,0.04389353,-0.17634177,-0.09985361,-0.12054281,0.037573498,-0.012154206,-0.21353775,-0.054990143,-0.026006455,-0.021523612,-0.029170794,0.04212769,-0.019041311,-0.13763478,0.08474167,0.04590892,-0.14899111,-0.08097669,-0.13105787,-0.21004352,0.12677042,-0.010803261,-0.18594866,0.021238435,-0.12637416,-0.14625175,-0.10725956,0.25200295,0.12279576,-0.004975032,-0.11844182,-0.041947894,-0.03474341,0.11779177,-0.39141437,-0.2288271,0.06315427,0.013830764,-0.014319918,-0.17420313,0.04635557,0.007353505,-0.119789146,0.016267229,-0.058174387,0.16033886,0.041953534,-0.23650722,-0.05008181,-0.031774156,-0.25474498,-0.18024993,0.04475717,-0.12032991,0.20718348,-0.1345694,-0.111910954,-0.015850155,0.20346147,-0.085584596,0.020600652,0.011063173,-0.006155603,-0.10054396,0.1707164,-0.018016458,-0.086553365,-0.026000617,-0.30274236,-0.12499663,-0.061489344,-0.07559622,-0.06853983,0.032407243,-0.08884714,0.15974687,0.07238529,0.047184713,-0.0053789513,-0.043617055,-0.027586555,-0.08907977,-0.08303016,-0.040418543,-0.039493438,-0.071311004,0.083672136,-0.087164,-0.07653825,-0.0252312,-0.07223565,-0.09282387,0.023388786,0.066239476,-0.22118093,-0.2728832,-0.015350093,-0.049806397,0.123521835,0.09838073,-0.09406888,0.048491944,-0.2262918}, {0.12799853,-0.13894546,0.14370443,0.02886028,0.106915474,0.37680975,-0.16298437,0.22104847,0.2039216,-0.108189836,0.045698237,0.22810556,0.18163683,0.15162998,0.2569685,-0.34324008,-0.09676511,0.16076306,-0.028418671,-0.27658418,-0.18698917,-0.28993556,-0.0328276,0.031632107,-0.40800843,-0.07774112,-0.25126588,0.10388963,-0.29457232,0.29119098,0.24430464,0.23800895,0.2166216,0.058579344,0.16339774,-0.12420541,0.1389451,-0.11823775,0.17773297,0.052025907,-0.11527418,-0.15650421,-0.1737559,-0.17270832,0.10372806,-0.10256597,0.10794769,0.13967098,0.39284116,0.1821134,0.083889276,0.057022106,0.1948264,0.2735832,0.05158529,0.25809708,0.16035129,0.1361894,-0.08363345,-0.09817094,-0.07064071,0.20013669,-0.010623951,0.3089781,0.04410613,-0.326181,-0.22501035,-0.12519582,-0.04660169,-0.062505975,-0.11049568,0.0011840528,0.13631703,-0.12957872,0.16540642,-0.06428481,-0.00018551835,-0.046596315,-0.025050525,-0.1385771,0.008756513,-0.022348145,0.36855057,-0.14634985,0.14042073,-0.23198955,0.07786922,-0.077063054,-0.27585337,-0.09283741,0.01793675,0.060023077,0.3429995,0.1304844,-0.20773047,0.10467898,-0.22634503,0.10263512,0.1952831,0.06598208,-0.18211323,-0.15197913,0.21438994,0.088994764,0.33333427,-0.15126951,-0.008958306,0.1179167,0.21694435,-0.115557715,0.12284712,0.15299651,0.09560928,0.054366063,0.06591124,0.15844707,-0.0011433525,0.016195143,0.1486594,-0.10611431,0.021002168,0.19757256,0.08960331,-0.18213268,-0.44230583,0.06273507,-0.015288387,-0.03270545,-0.17573152,0.07076081,0.19547069,-0.1581702,-0.16068177,-0.008725824,0.07878193,0.22014385,0.17308687,0.1742706,-0.30175167,-0.056462687,0.070725724,-0.17723835,-0.13555999,-0.060203783,0.0015799499,-0.07662835,0.32198453,-0.14630875,-0.029829444,-0.059501633,-0.080996476,0.027458668,0.15171143,-0.10058442,-0.0605319,-0.15350008,-0.19978426,-0.19276361,-0.11198546,-0.07282841,0.08770489,-0.3037611,-0.08606261,0.11026383,-0.015389249,0.16132319,-0.08810304,0.1106851,-0.24753532,-0.26707625,0.01429241,0.0017562545,0.103078105,0.069701664,-0.2080096,0.07434507,0.13154018,0.04790231,0.004492057,0.04554547,-0.10109569,0.108080305,0.15720917,-0.10341671,-0.21149987,-0.0096880505,0.113022335,-0.21420254,0.017813943,0.20677748,0.04542772,-0.08292475,-0.1569211,0.1611631,0.035800066,-0.0792253,0.14001727,0.21755172,0.17715073,0.08523666,0.34976518,0.20510024,-0.111466885,-0.25723305,0.30730945,-0.18083398,0.0038093287,0.10877325,0.05239861,-0.074372545,0.28698152,-0.06982879,-0.13279133,0.10468533,-0.18399216,0.17680053,-0.014209355,0.14567441,0.28418761,0.019169446,-0.07912737,-0.19183402,-0.12483748,-0.14150089,0.0012847299,-0.083436,0.11062114,-0.15417312,0.04387667,0.110916935,0.07934882,0.20815153,-0.28615785,-0.27611297,0.35319015,-0.48171276,-0.2176273,-0.019324908,0.09947398,-0.007331323,0.16060916,-0.05877883,-0.10627651,0.09200859,0.07265145,-0.4237426,0.24541532,-0.15493853,0.20196258,0.053499047,0.14587574,0.23890993,0.21982963,-0.054031927,-0.020940967,-0.0896874}, {0.15316056,0.21700221,-0.22040081,0.17606783,-0.100496694,-0.046326034,0.049629238,-0.019014603,0.0573987,-0.07882844,-0.099258915,-0.09922311,-0.2427567,0.06625896,0.14845106,0.08347226,0.03882984,-0.21930417,-0.08896109,0.023278214,-0.24190687,-0.24411415,0.29776803,0.25508222,0.17725861,-0.017057965,0.11859715,0.10683915,0.20143788,0.103776015,0.043088753,0.0616785,-0.080699444,0.017817097,0.14079925,0.074099004,0.02274167,0.08898668,0.05284246,-0.018612036,-0.066409945,-0.11181336,0.23073964,0.13642383,0.014005159,-0.12520248,-0.050588727,0.14258307,0.10778475,0.032487888,-0.10105241,0.23281224,-0.022654273,-0.00014547347,0.26752546,0.08894947,-0.21080436,0.10715597,0.15207984,0.0029194155,-0.0232708,0.011389865,-0.08672982,0.076223776,0.030335521,-0.04887723,0.05158125,-0.039875686,-0.0069597582,0.10718166,-0.06975825,-0.024218256,0.082873724,-0.0049236235,-0.09622763,0.283581,-0.15841444,0.24144389,-0.18339889,0.028746597,-0.026039355,-0.065997854,0.070792265,-0.3069976,0.066151984,-0.016985904,-0.08821284,-0.13272353,-0.020610161,0.020384496,-0.12604834,-0.15786241,-0.15497129,-0.10754375,-0.11579718,-0.31804702,0.10501768,0.28978318,0.13231608,-0.20743097,-0.20744944,-0.042616755,-0.15266337,0.16446842,-0.16073836,0.18638428,0.06516257,0.16102988,-0.15847392,-0.24672827,-0.14269805,-0.09181743,-0.1897291,-0.06981409,-0.045525543,-0.104664735,-0.017993975,0.14511158,-0.15486793,-0.034664933,-0.09547964,-0.08474627,0.050852284,0.06900561,0.17129283,0.014947157,0.1372075,0.0147819,0.082233675,0.12407886,0.057229426,-0.09866305,0.06167114,0.038186714,-0.06794269,0.09558099,0.05057093,-0.039378375,0.23711516,0.2218529,0.02750274,0.050777562,0.15286635,-0.014171328,-0.18311116,-0.10918432,0.2002676,0.3050801,0.1809934,0.024459718,0.05192007,-0.004972064,-0.14421298,-0.06287458,0.16992262,-0.07736548,-0.13043128,-0.05635911,0.14632612,-0.27479365,0.06775053,-0.04962434,0.017255627,0.05499712,0.072752975,0.0641236,-0.012927447,-0.21438123,0.16137713,0.13496588,-0.19979979,-0.17239884,0.0029975905,0.23388353,-0.09991261,0.0719669,0.02893459,0.029282765,-0.06689253,-0.031366993,-0.03318326,0.07706732,-0.14806822,-0.07861723,0.16756904,-0.025756052,0.24642031,-0.14297111,-0.024384478,-0.10144686,0.018701175,0.28255045,-0.03843576,-0.16230379,-0.008008611,0.0940963,-0.09383893,0.20750888,-0.068545535,-0.08080398,-0.077459656,-0.27898344,0.09649027,0.118752405,6.870301e-05,-0.21899928,-0.096854895,-0.018687801,0.044694368,0.196851,0.03324673,0.07856945,0.02060563,-0.17791985,-0.05619992,0.17030852,-0.23273273,-0.14335813,0.20109081,0.075304665,-0.06109231,0.15276565,-0.27493373,0.105498195,-0.13871655,-0.110181704,-0.18311834,-0.16422468,0.021744013,0.057809513,0.19107172,-0.061093908,0.047499098,0.01292023,0.08399245,-0.0025456946,0.0539959,0.011388329,-0.031378523,-0.017419396,-0.06848704,0.01130106,0.18926352,-0.023759335,-0.012428795,0.029279709,0.22323065,-0.13588639,-0.06417465,-0.026961738,0.09620915,0.124650784,-0.060160264,-0.12389107,0.036507897,-0.067557745}, {-0.2853046,0.06835552,-0.26379275,-0.19575207,-0.25080752,-0.07171465,-0.028500957,-0.24649088,0.019865777,0.039657615,0.06308542,-0.115576744,-0.14039415,0.022603715,0.06587832,-0.1415449,-0.11793868,-0.02687891,-0.19903274,-0.06654354,-0.1064712,0.038123176,0.22949716,-0.305344,-0.034499828,0.15300944,0.25305116,0.02702691,0.29672801,-0.06521178,0.1603969,0.055036608,-0.10295091,-0.16702521,0.055550694,-0.15656286,0.041128956,0.11149452,0.079900175,0.033068128,0.10039659,-0.16239037,-0.06033215,0.036245216,-0.28925377,0.2492667,-0.1433167,-0.06921045,0.101009786,-0.2715701,-0.24634369,-0.057384875,-0.01131271,0.10466745,-0.22638525,0.03918825,-0.027615989,0.21401916,-0.017480688,-0.09616718,-0.0039512897,0.023327768,0.052156597,0.14048444,-0.020914732,0.1633059,-0.11541482,0.1151501,0.06055222,-0.07170326,-0.1303408,0.021381328,0.17135982,0.19092742,0.12960668,0.38035518,-0.2586739,0.1847453,-0.13419388,-0.33818495,-0.19523785,0.025048146,-0.02167189,-0.10961182,0.14913398,0.097091764,-0.07537252,-0.24216077,-0.38083276,0.1357096,-0.22468784,0.19580235,-0.15335369,-0.33171052,-0.1469988,-0.3183046,0.28278306,-0.114870474,0.13152021,0.035469495,0.24032317,0.030918473,0.1017658,0.11508868,0.110060535,0.2103586,-0.044480074,-0.04157818,-0.12584479,-0.24428913,0.0153971715,-0.030625572,-0.40471885,0.16961242,-0.35705057,-0.059242565,-0.09138707,0.25460207,-0.16214225,-0.22113727,-0.033900857,0.087440394,-0.042547558,0.25203153,0.12716563,0.25905356,0.25506774,0.34824988,-0.050545372,-0.17323808,0.048164275,0.11810453,0.11489869,-0.060716625,-0.072272755,-0.12929177,0.1917137,-0.08450805,0.07346633,0.0737787,-0.1501226,0.40157443,0.23516387,0.15938187,0.18585162,0.008819324,-0.0050603645,0.13486886,-0.06817526,0.15178187,0.31492338,0.082038134,-0.27481833,-0.25388175,-0.07084829,-0.20687896,0.11859961,-0.06618639,0.22324353,-0.033576343,-0.21122961,-0.38560483,-0.01713156,0.049728654,0.06568696,0.050651573,-0.115365826,-0.0063315504,0.08002653,0.30093068,-0.09225528,0.18797173,-0.025827765,0.1651947,0.056567915,0.28907502,0.06276067,0.026831612,-0.03856345,0.19472742,0.21337983,-0.042951353,-0.2113053,0.106458284,0.04292929,0.2079042,-0.048947603,0.12984465,-0.10709711,-0.31878445,-0.18426645,0.22563688,-0.0063500796,-0.13040397,0.07948789,-0.2653731,0.072924,0.014493266,-0.11000484,-0.26182652,-0.014818262,-0.15603879,0.21377017,0.16697016,0.045253072,-0.35419905,0.021128679,0.21985511,0.010576292,0.10764756,0.1742001,-0.04236467,0.22865984,-0.2652845,-0.111962214,0.08807093,-0.14226337,-0.062528715,0.034425456,-0.21214639,0.10142343,0.078445144,0.097242676,0.0015111363,0.004503347,0.032799352,-0.00057361485,0.11889668,-0.100729,0.08396659,0.07816924,0.044485744,0.19918464,0.034584776,0.07440999,-0.16430981,-0.04526023,0.04376268,0.24851806,-0.093664005,-0.35780257,-0.046804395,0.13674562,0.13275892,0.14902952,0.055347286,0.034997694,0.081053965,0.03977222,0.038747992,-0.104251206,-0.1196553,-0.14646637,-0.019309912,-0.0757144,0.11176546}, {0.04035269,0.02469646,-0.13762397,0.22735825,-0.052276608,0.08397391,0.14781152,-0.031027235,-0.24127741,-0.14986612,-0.09235791,-0.050170958,0.001008101,0.059245422,-0.041434035,0.07011374,0.22155832,0.034278866,0.058527835,0.12182235,-0.03201724,-0.035712168,0.14626466,-0.08651782,-0.11672097,0.06086343,0.052657474,-0.0045208265,-0.0038493122,-0.014250753,-0.017295796,-0.051886085,0.14917679,0.11848772,0.0629983,0.20541397,-0.044417582,0.1710223,-0.089948736,0.02449056,0.11785108,-0.07441339,0.071982004,0.1365656,0.095660575,-0.17485614,-0.06895217,-0.1422516,0.20907576,-0.13553041,0.055029493,-0.12585244,0.004411654,0.055883504,-0.003532445,-0.16976327,0.1301702,0.012691214,0.044792194,0.12435909,0.17136371,-0.103029765,-0.12799679,-0.06319177,0.0024229959,-0.1426788,0.28397852,0.033923633,-0.15455407,0.063411586,-0.009442414,-0.19088295,-0.01653831,-0.18854082,0.11493178,-0.025571425,-0.10893389,-0.15099145,0.030977244,-0.22220132,-0.10485281,0.26453137,-0.034710575,0.08166858,0.04153269,-0.06448161,-0.09414739,0.09271628,-0.11217197,-0.01806375,0.030919937,-0.019480605,-0.22146046,-0.15571548,-0.20770656,-0.00732648,-0.07736218,0.18777291,-0.018312007,-0.11508947,0.14868426,0.10530174,-0.07695623,0.08480509,-0.0033332193,-0.025611652,0.1552775,0.06079071,-0.21791573,-0.08937156,-0.0006505186,-0.034357756,-0.24491969,0.028265797,-0.19886416,-0.09004938,0.1069438,0.19342695,-0.05713689,0.017162615,0.065499,-0.030988613,-0.119426064,-0.028631032,0.13265197,-0.24265197,-0.1459094,-0.012094363,0.10884931,0.0060658976,0.07995661,-0.02292945,-0.17520261,-0.11495124,-0.10724828,0.029687839,0.05871174,-0.09448311,-0.0006515406,0.14352131,-0.16609111,-0.14841229,-0.096129246,-0.103015445,0.0073498315,-0.0067496984,-0.08925748,0.009408096,-0.19141804,-0.037648268,0.02317499,0.036726728,-0.11819742,-0.04934438,0.04493856,-0.21980396,0.016687728,-0.00012679202,-0.01333364,0.008479067,-0.15639731,-0.039911833,-0.09247331,-0.38517395,-0.008786012,-0.077290915,0.17726237,-0.09332,0.22386548,0.07603498,-0.08276531,-0.053917453,-0.015983976,0.053325426,0.06836853,0.05262724,-0.011251737,-0.111823775,-0.008525643,0.13587454,0.10993135,-0.0036648358,0.04293579,-0.03822839,0.18972662,0.04791849,-0.030275045,-0.0443748,-0.036351454,-0.102389514,0.07427097,-0.064565934,0.014588813,0.04734186,-0.03165805,-0.1665419,0.034328323,0.063591294,-0.026416214,-0.0968676,-0.15892826,0.01052843,0.29711553,-0.021997588,0.08032644,-0.19310425,0.14270663,-0.019047258,-0.16575108,0.046821985,0.05652002,0.09945838,-0.018445382,-0.20382662,0.05873932,-0.029203795,0.048641402,-0.1397326,0.052657563,-0.085376464,0.18426482,0.029812044,-0.015611544,-0.13274677,-0.042752486,0.26679823,-0.08928626,0.1106578,0.001467889,0.03365263,0.23565051,0.0873963,0.0062340694,0.047204357,0.008458047,-0.06386928,0.10865145,-0.035183676,-0.17944808,-0.026222015,0.10408496,-0.028690385,0.00540533,0.17229256,0.029620038,0.07055207,-0.003299384,-0.13796869,-0.07725446,-0.22166027,-0.020628778,0.013501571,-0.14707142,0.06459844,0.10679904,0.002647828}, {-0.057811484,-0.33796647,-0.0074463706,0.11797916,0.023351487,0.03914167,0.15397441,0.05273959,-0.19779854,0.021346109,-0.22660796,-0.026386539,0.26331234,0.06987379,-0.20055558,0.11322269,0.03927979,0.17366885,0.16018671,0.02300213,-0.17041245,0.038054463,0.1512052,0.023534693,-0.08688795,-0.11574849,-0.16766511,-0.20259827,-0.17656109,0.004469271,0.061008926,-0.26073015,0.06556668,0.12802362,0.041073248,0.117863074,-0.19728033,-0.25631803,0.068726204,0.14587286,0.22706035,-0.13408008,0.12841794,-0.092265464,-0.081183806,-0.10634673,0.09489875,-0.12587194,0.012731058,-0.04631681,0.2697005,0.120757796,0.11672339,-0.14224227,-0.0769882,-0.2416838,0.10155711,-0.013112189,-0.21912713,0.060792793,0.14794768,0.09932412,-0.08218411,-0.059856985,0.0111387605,-0.053411078,0.22974908,-0.12017347,0.09863778,0.030883208,-0.31205073,-0.2585938,-0.12548538,0.053587407,-0.103611924,-0.09687311,0.026748171,-0.21069264,0.060704734,0.0055479934,-0.183642,0.16381374,-0.043556996,0.08281906,-0.10818614,-0.32323822,0.022119451,0.14396796,0.17604262,0.26980802,0.01777971,-0.05974985,-0.058605283,-0.009644432,0.051484674,0.07434797,-0.049978707,0.17908584,0.17634712,0.13282096,0.18959114,-0.12938529,0.21284927,-0.11526636,-0.022993661,-0.047358405,-0.32540005,-0.15140207,0.16683522,-0.04751507,-0.000748505,0.22201456,-0.055693284,0.03577097,0.13595267,-0.0061461176,0.22182693,-0.23336336,0.11862008,0.15458441,-0.15910465,-0.25116405,0.09613441,-0.16024481,0.038989015,0.067964725,-0.18400128,-0.44381672,0.089331545,0.16034743,-0.08902318,-0.07804271,-0.16195671,-0.21271552,-0.026515884,-0.0065473095,-0.1690504,0.07547288,-0.037660208,0.14256445,-0.009523892,-0.16375287,0.041154128,0.02422337,-0.16991876,0.034023017,-0.14764231,-0.11354387,-0.29586595,-0.16011278,0.11997417,0.09779344,0.013850498,-0.14689764,-0.0034550105,-0.23294383,-0.14404765,-0.3756562,-0.0853146,0.043832384,-0.21555166,0.31008315,-0.23418127,0.27285933,0.15194887,0.06010012,-0.08390014,0.12638015,0.18491063,0.21432352,0.007835303,0.024630891,-0.08979505,0.052778676,0.01327659,0.01883637,-0.21137255,-0.40624133,-0.46403408,-0.17120183,0.13837971,-0.2043773,0.14579117,-0.3005949,0.014933596,0.12627883,-0.13020107,0.118603624,0.018507551,0.08271038,-0.11594904,-0.07704075,-0.15793477,-0.19638887,-0.18439193,0.23236407,0.019081693,-0.16319336,0.08812122,0.09559167,0.015649196,0.047451783,-0.08248647,-0.24693432,-0.10187426,0.1950018,-0.026235025,0.01615282,0.036183715,-0.013762439,0.058566637,-0.14059617,0.16857709,0.22244948,-0.23857866,0.2675338,0.26271868,-0.076334074,-0.29613012,-0.03997236,0.124394834,-0.2237282,-0.019459205,0.07464908,0.1105271,0.15146746,-0.0038632618,0.08189053,0.17622699,0.099822864,0.029490972,0.022547966,-0.003545721,-0.18691914,-0.2625665,0.054311477,-0.21590973,0.12075176,-0.15217716,-0.038610872,-0.10927825,-0.22528726,-0.16707951,0.044764966,-0.053912364,-0.011296017,-0.08663088,0.0883569,-0.2733996,0.2608203,-0.09580231,-0.29860115,0.15916285,0.28270295,-0.038157705,-0.3108759}, {-0.05668426,-0.02042104,0.08538559,-0.03908484,0.07863761,0.07186472,0.10367145,0.08283114,0.25190172,-0.12982526,-0.21022002,-0.052470222,-0.15501232,0.012988766,0.09649786,0.019240944,0.1522011,-0.012407749,0.015338368,-0.06239516,0.12575592,-0.11207073,-0.06236511,0.032259766,-0.08677914,-0.16560532,-0.06945063,0.1899109,-0.07095221,-0.041718498,0.0092373025,0.15831459,0.034660056,0.09731396,-0.2466448,0.039220225,0.037291225,0.0091112,-0.15217276,-0.026599959,0.06646409,0.08766248,-0.3327238,0.05166206,-0.010159349,-0.23362508,-0.00738337,0.26903793,0.110541575,0.3179866,0.045488376,-0.27554527,0.36280495,-0.012465718,-0.041184507,0.26658326,-0.0063825254,-0.17314501,0.08529657,-0.025249422,-0.024141822,-0.053917352,-0.13144512,0.10695841,-0.030178044,-0.3139201,-0.16888347,0.14187956,-0.28792354,-0.015789285,0.05852829,-0.14452854,0.049288474,-0.21383134,-0.065748535,-0.17114292,0.19684145,-0.43378928,0.07905369,0.35305914,0.27624542,-0.08275428,-0.26716235,0.026057346,-0.099024795,0.0152297085,0.061597202,0.10230344,0.164036,0.082073756,0.16254765,0.11029036,0.21112907,0.11689976,-0.017186701,0.23577555,-0.20749801,0.08090067,-0.010710884,-0.21981989,-0.117062844,-0.21745862,-0.18453036,-0.056224383,-0.1436125,-0.19520211,-0.019576801,0.09393338,-0.006138861,0.009593428,-0.023673294,0.020034796,0.047827996,0.23907566,0.36010984,0.018407399,-0.047934517,-0.1378012,-0.011237735,0.014321176,0.21163224,0.09032341,-0.13744514,-0.032588996,0.3140855,-0.15002531,-0.23001064,-0.09441383,0.0975051,0.18549863,-0.35734618,-0.10724987,-0.12942272,0.12069213,-0.0031035603,0.042474132,-0.15400712,-0.1451155,-0.08605772,-0.12878436,0.09663258,-0.29140118,-0.28729978,0.060421783,-0.051916108,-0.19973168,-0.15354314,0.0013127156,0.07154736,-0.11265455,-0.2595052,-0.14518481,0.21269907,-0.039585877,0.067016125,0.055581868,0.04475285,-0.12116253,-0.095027134,0.14316861,0.118296735,0.18217973,-0.044550836,-0.13317166,0.21720852,-0.28829914,0.24108846,-0.16516218,-0.07156679,-0.25236395,0.20112695,-0.09531123,0.30907914,-0.07530564,-0.21865061,-0.11879958,0.08348958,-0.04897412,-0.02078962,0.3289364,-0.049601234,0.17630899,0.024675123,-0.08581784,-0.18190303,-0.1526419,-0.0997238,0.025069686,-0.10697613,0.09332981,0.4875752,-0.02295833,0.094291225,0.31308487,-0.14105563,0.27717736,-0.09249641,0.024095796,-0.18420134,0.1557159,-0.1318204,0.13706578,-0.07252858,0.19362238,0.089707516,0.3254058,0.14775373,-0.327475,-0.2216454,-0.15402317,-0.09344857,-0.24588193,-0.1209491,-0.059963055,-0.16041677,-0.029643964,0.25076258,-0.038217653,0.042710602,0.24245805,-0.23299357,-0.022819316,-0.018979205,-0.09646248,-0.18385497,0.21994534,-0.18242377,-0.20506755,-0.23611821,-0.18539563,-0.3706244,0.2224199,-0.16102372,-0.10343136,0.127185,0.02833283,0.006274551,0.022836149,-0.13566503,-0.19833069,0.17112628,0.09061664,-0.1584433,-0.002676312,0.31540024,-0.09559809,-0.03550329,-0.121677786,-0.056818783,0.19492252,-0.12864333,0.17820328,0.4952951,0.23418549,0.062100843,-0.07629333}, {-0.079349235,0.019162215,-0.009665559,-0.061123993,-0.14518459,0.076976635,0.26066417,-0.103305034,-0.008656674,0.15777226,-0.18600327,-0.043450486,-0.17652477,0.25061136,-0.08793783,-0.14320746,0.17194258,-0.06533039,0.0885581,-0.31756076,-0.030689158,-0.113444544,0.06443592,0.1520928,0.043567527,-0.016905671,-0.1455211,-0.16617912,-0.06573184,0.16755067,0.060348976,0.004064292,-0.08522032,-0.07828873,-0.04733961,0.05570629,0.03729059,-0.027591191,0.1095492,0.2564588,0.081827246,-0.13281797,-0.053583376,-0.13952328,-0.30451837,-0.043373995,-0.002466477,-0.24140565,0.03453036,-0.12946078,-0.07852523,-0.060219932,0.078332365,0.21699332,-0.15192594,-0.10031367,-0.0893697,0.18830562,-0.061771143,-0.025074452,0.13596196,0.096641384,0.06867557,0.24593177,-0.0728304,0.1254597,-0.07797833,0.05194045,-0.11957573,0.3146029,0.08942196,0.022506231,-0.17041932,0.12736005,0.05944364,-0.0147443265,-0.080175474,0.3338396,-0.36175948,-0.27897805,-0.12009497,0.02552328,0.13125454,-0.015836552,0.09787817,-0.111125775,0.1448603,-0.14275122,-0.23021542,-0.044289116,-0.19999923,0.12614891,0.030568913,-0.102490254,-0.22903724,-0.11812049,-0.09551709,0.29534823,-0.0024471239,0.1959273,0.2645758,-0.1727576,0.05721435,0.1963547,0.16384092,0.2818334,-0.053814255,-0.045525745,0.21619764,0.031806376,0.2319997,0.025539463,-0.2563117,0.17650211,-0.112467386,-0.036549304,-0.15804906,-0.22033928,-0.06819209,-0.22795075,0.042530987,0.09183391,0.08431782,0.102108605,-0.11620601,0.12784898,-0.16403122,-0.06422931,0.14416984,0.0028663327,0.25776282,-0.2448522,-0.09740205,-0.24678797,-0.10253161,0.30986005,0.07545717,0.2612555,0.08864737,0.326591,0.09218693,-0.050895456,0.010972558,0.2503727,-0.050049894,0.23857845,-0.17705989,0.17848478,-0.22270465,0.035156835,0.2027704,0.3027113,-0.022183755,-0.01263569,0.09492855,-0.107960485,0.25821048,0.12906623,0.091154076,0.028669838,-0.21096864,-0.12658538,0.23825611,0.029033711,-0.055756606,0.30004305,-0.23308198,-0.019912472,-0.04866119,0.013358059,0.008174215,-0.056411248,-0.10563259,0.102565505,-0.012245323,0.17434111,-0.11451831,-0.015511528,0.00247673,-0.079380214,0.08673957,0.0005985873,-0.11988988,-0.0378959,0.12775925,0.2791372,-0.016319873,-0.10283767,-0.08612852,-0.12152534,-0.1488643,0.099394485,-0.07053027,-0.08598847,0.012759977,-0.15365046,0.13148196,0.38063115,0.10982576,-0.065637045,0.11250122,0.41657463,0.13151011,-0.034505468,0.05127344,0.009631351,0.2031276,-0.13438131,-0.020074787,0.08291793,0.2352112,0.08988047,-0.036062915,-0.066846035,-0.007930591,0.33255914,0.028542297,-0.34280986,-0.30245113,-0.05278551,-0.10493115,0.025135301,0.073797666,0.026169557,0.21245864,0.020691058,0.029224765,0.10660861,0.1592053,0.098594844,0.28553945,0.19642644,0.24609093,-0.03786069,0.24618565,-0.1062169,0.0068851854,-0.13407253,0.13534684,0.017834313,-0.043988526,-0.3478875,0.17573154,0.41286176,0.1762327,-0.024347747,-0.113330096,0.06649233,-0.041414365,0.06393277,-0.010878462,-0.359754,-0.01970032,-0.13097003,-0.2636314,0.055741675}, {0.07754659,0.06011849,0.12532842,-0.0040297704,-0.1746494,-0.06050523,-0.022293951,0.047391437,0.058718473,0.039174736,0.19877072,0.03553191,0.124337494,-0.08129072,-0.00963322,0.115054406,-0.122170344,0.02073957,-0.08470852,0.121386945,-0.12110241,0.08047007,0.07239654,0.22828558,-0.035734765,0.13973385,0.14625996,-0.104584165,0.1668921,0.084763065,0.16347708,0.040239297,-0.1648664,0.026553644,0.14720806,0.0016400404,0.11835305,0.006411816,0.19631773,0.13486494,-0.022454364,0.036161046,0.03613208,0.14926945,-0.067407474,0.097335905,-0.14257897,0.036944978,-0.048888937,0.08637506,0.17016557,0.075250916,0.024421586,0.07626864,0.0809277,-0.011155467,-0.013113132,0.045300163,0.028415838,0.15011433,0.0058422307,-0.15722014,0.039053142,0.0128974905,0.16116259,-0.06241337,0.120059706,-0.029509315,0.18004414,-0.069236934,0.034927685,0.13752012,0.029400507,0.0521868,-0.04990991,0.16116793,-0.02224778,0.07125838,0.090605974,0.027001873,-0.011057338,-0.0071616517,-0.02698155,0.050445653,-0.05055458,-0.10212175,0.024811642,-0.14544699,0.17965932,0.18122222,0.08220425,-0.024052154,0.13277638,0.16428517,0.096678555,0.10020516,0.12426652,0.023181446,0.10722555,-0.12045358,0.080103315,0.0747404,0.07720767,0.05698144,-0.13690281,-0.03410061,0.018128213,-0.011787199,0.06384318,0.010837606,0.043712936,0.19056988,-0.017060474,0.092840955,0.028568486,-0.068836,-0.029669886,0.08681726,-0.09893134,-0.010725495,-0.02903656,-0.047378104,-0.08244099,0.13684268,-0.06334592,0.12605114,0.19805995,0.11844151,0.046238057,-0.08715131,0.0128846,0.08374632,-0.041974876,-0.16915663,0.1658447,0.112808906,0.09718714,0.122037955,0.19858916,-0.014561779,0.0127810165,0.11747071,0.19179131,0.10049471,-0.025639541,-0.019344512,-0.007262456,0.15266453,-0.03164719,0.030297909,0.07473885,0.005913551,-0.01188134,0.10918135,-0.0028530553,0.23822992,0.094021484,0.12517148,0.16408843,-0.048345007,0.045713555,0.1201203,-0.040181182,0.14070663,0.2269825,-0.0025699611,-0.045964547,0.053058766,0.1658343,0.03647929,0.15980703,0.054194566,0.019515308,0.08721188,0.07074123,0.17701097,0.1406095,-0.024102133,-0.068119444,0.17960882,-0.013091385,-0.016906433,-0.07402999,0.035611026,-0.071442254,0.1380387,0.17784183,0.22490202,0.030831207,-0.0927181,0.08046806,-0.035120223,0.17718315,0.069701634,0.2084549,0.09396631,-0.01317894,0.10183095,0.17990857,-0.15659155,0.09701818,0.0017807968,-0.059163254,-0.0017255738,0.0139343925,-0.02578025,-0.0049834354,0.2460464,0.25532144,0.04795213,-0.068305865,-0.05971177,0.17600964,-0.038010933,0.15988016,-0.018049242,0.105964124,0.1952122,-0.079285026,0.10777392,0.11896166,-0.010078568,0.1360803,0.01774774,-0.044096883,-0.13807695,0.0631634,0.00735284,-0.037401304,-0.037264906,-0.0602501,0.10654641,0.010098599,-0.1369481,0.13650097,0.003813251,0.071527414,0.19120897,0.12704976,0.13798629,0.14543216,0.13003242,0.10679308,0.03665312,0.05075139,0.09047027,0.23477149,0.19318716,0.08907203,0.22646563,0.1512358,0.04286435,0.29472446,-0.02998243,0.19069348,0.10375711}, {-0.032568023,0.11230091,-0.2629198,-0.0956933,0.068323456,0.014344348,0.07020263,-0.020744277,-0.079895005,-0.1607278,0.08978349,-0.30689847,-0.0045653116,0.096954785,-0.13988954,-0.07194745,-0.045267526,-0.13211682,-0.09378478,-0.023134116,0.008536146,-0.18075274,0.026711069,-0.06483831,-0.12928727,-0.08662553,-0.11252999,-0.14255755,-0.2478735,0.08310714,-0.12275696,0.03364524,-0.07247732,0.18279177,0.03776136,0.11034146,-0.042813186,-0.015517668,0.044457514,0.1720903,0.06863265,-0.02946809,-0.107808195,0.047068276,-0.13663417,-0.063039474,-0.088531874,0.096363515,-0.023123791,-0.02501951,-0.14032318,-0.036321707,0.051081583,0.0348396,0.026775243,-0.031214455,-0.15296233,-0.0761512,-0.057513848,-0.13774535,0.003492233,0.046070125,-0.11670854,-0.17647646,0.063153416,-0.0037526228,-0.16640614,-0.091029584,-0.13358645,0.031544417,0.074548446,-0.058187123,-0.08785375,0.05618857,-0.0091959955,-0.2008949,-0.08439077,-0.20977852,-0.13065518,0.04512411,-0.074775875,0.032689407,0.02536113,0.002787683,-0.079336636,0.076568834,-0.042319905,-0.11854257,0.03220048,-0.027643701,-0.08574733,-0.033354536,-0.06626071,0.01215579,-0.04197732,-0.069228105,-0.13835134,0.16461392,0.00262892,-0.036308106,0.12609568,-0.08178974,-0.123401664,0.059298653,-0.1081958,-0.040374506,-0.13926509,0.11152571,-0.13084461,-0.16459799,0.009797455,-0.0262089,-0.047554765,-0.223234,0.026917452,-0.10637999,-0.06629675,-0.12313478,-0.023844585,-0.1357032,0.036019593,0.021400483,-0.24596226,0.009872348,-0.001989905,-0.18345605,-0.11434775,-0.109348126,0.035139974,-0.045657642,-0.031679027,-0.15931273,-0.048927132,0.03172569,-0.1282543,-0.15680702,0.004492061,0.0067056785,-0.102306575,0.12121002,0.12534429,0.00483961,-0.015709924,0.09700347,-0.17117941,0.057445638,-0.07544724,-0.0432435,-0.061844833,-0.00025026806,0.01318795,0.018935371,0.12097967,-0.05486496,-0.03975324,0.08437097,-0.02539025,-0.12004152,0.0018365281,-0.12757073,0.076546066,-0.026788462,-0.22295763,-0.19369312,-0.07509331,-0.11048091,-0.14208609,-0.0026507454,0.18542832,-0.15434372,-0.11987663,-0.12160791,0.053227622,-0.0064578005,-0.086169034,0.04126637,-0.1600905,-0.22705619,0.053470973,0.0691931,-0.13541457,0.24739586,-0.10561283,-0.09107194,0.03096147,-0.110967055,0.04924555,-0.094641045,-0.006539389,-0.02758389,-0.054805223,-0.07701053,-0.05923706,0.035169765,-0.22001272,-0.06561878,-0.060396887,0.13726507,-0.045890376,-0.12792203,-0.042950362,-0.030336758,-0.027361007,-0.14493212,-0.106369115,-0.19654775,0.031509437,-0.19707559,-0.049784824,0.014680328,-0.12063463,0.013040114,-0.022333035,-0.15697707,-0.0041265627,-0.07195326,-0.021867143,-0.18049794,0.12055125,-0.18516454,-0.056524668,-0.04460871,-0.12128065,-0.043873187,-0.06679074,0.04145107,-0.06290778,-0.018248457,0.16899614,0.08125096,0.0067402353,0.13310497,0.06570959,0.020967502,-0.19493681,-0.0017806408,-0.05607756,0.119634345,-0.14324705,0.026311373,0.11564243,0.070124075,-0.06031124,0.117026545,-0.046730183,0.01101155,-0.030714795,0.025862306,-0.10333384,-0.10125667,-0.22388907,-0.066496,-0.11757427,-0.12199467,-0.03350465,0.021919137}, {0.2656122,-0.19034813,0.13494411,0.10923945,0.13982679,-0.15622799,-0.20962185,0.43116114,0.047523394,-0.079707146,-0.025843551,-0.12577517,-0.03548248,0.03459258,-0.054856636,0.036849875,-0.08294603,0.026812408,0.085298985,-0.12626149,-0.17556167,-0.041970965,-0.143481,0.24121471,0.05411423,-0.06935721,-0.087283574,0.043732,-0.19371209,-0.11583053,0.023371303,-0.03521774,-0.1230925,0.09034574,0.09207466,0.055050798,0.10941265,