#define LSTM_BIAS_C {0.02721856,0.007340207,-0.14752689,-0.008747423,-0.015407,0.041085567,-0.0035884914,-0.03274216,-0.03498287,0.01759289,-0.08669135,-0.106224954,0.052941035,-0.05024693,0.05434378,-0.008264946,0.053736206,0.042569753,-0.06285137,-0.03914674,0.0071332166,-0.052457582,-0.23891498,-0.029142745,-0.06387624,0.0996899,0.08433864,-0.037873328,0.05994011,-0.046818417,-0.0006914948,-0.056525752,0.06209957,-0.039553083,-0.043989006,-0.09622781,0.008494066,0.012511285,0.059737947,-0.07697525,0.0031970576,-0.07566097,0.041896306,-0.014051133,-0.0026998133,-0.011612501,0.11685099,-0.015662963,-0.047025993,-0.017521527,0.035683703,0.046693556,-0.03203081,0.08101541,0.118447505,0.00057507155,-0.0014148487,-0.07552439,0.0053988355,0.06398737,0.03161608,-0.0089887995,0.016028166,-0.0084776385,0.022956925,0.053865105,-0.04592997,-0.033861835,-0.032762453,-0.017902112,0.060320787,-0.031752553,0.00786539,0.070715696,-0.032195285,0.05026551,0.062645055,-0.007873211,-0.06266524,0.10668659,-0.019290198,0.037103314,-0.0014878897,0.049923867,-0.016429646,0.045991253,0.043850906,-0.09163162,-0.03768548,-0.06606865,-0.029145071,-0.021162627,0.09518983,0.023243057,-0.0064276117,0.0348507,0.04697643,0.0754396,-0.010930382,-0.020019256,-0.0648964,-0.016276529,-0.036646843,0.097151995,-0.0062267655,0.059575405,0.023822932,-0.028973369,0.051411983,-0.000692486,0.10796417,-0.041486014,-0.0683022,-0.03103188,-0.06407515,-0.08102109,0.009926582,-0.03636404,0.014314165,-0.17465405,0.04473207,-0.046546105,0.056227736,-0.04813198,0.031665433,0.0030148416,-0.058629926,-0.006588302,-0.031136308,-0.029388994,0.038387477,-0.008327027,0.024605867,-0.0022783265,-0.033275984,0.06411051,0.00035968373,0.05490164,0.058292117,-0.11795745,-0.098704554,0.0022281744,0.021909311,0.02998026,0.013616894,0.044707,0.028870743,0.042571545,-0.040230557,0.016647318,0.1295956,-0.037772954,0.045427445,-0.042375263,0.050131787,0.011345696,0.124930255,-0.00560658,0.0013427343,-0.048771426,-0.03599176,0.044503428,-0.010518635,0.034922484,0.034339618,0.020870516,-0.069269985,0.078379095,0.011761016,0.002116876,0.0039735073,0.013986045,-0.017975431,-0.055801447,-0.029797977,0.0070419745,-0.024407204,0.015881496,0.07681137,-0.07784663,-0.05469732,0.043092392,0.0070285737,0.025254475,0.04173437,-0.015007015,-0.046049215,0.011445029,0.033926282,-0.11334828,0.09810713,0.012427025,-0.005647221,0.0677694,-0.032455947,0.01842872,-0.1281617,-0.03659352,0.08441774,-0.023261089,-0.012284867,0.025798818,-0.012562642,0.02866178,0.10431288,-0.052904844,0.02135626,0.09016333,-0.01548917,-0.040144276,0.01866729,-0.06683032,0.09553665,-0.07289419,0.012088786,0.0049115745,0.04916607,-0.006009336,0.05009971,-0.034908183,0.09674971,0.008993311,-0.0795534,0.04686138,-0.059279475,0.010859867,-0.017187143,0.018436603,0.012275154,0.010001795,0.0869131,0.00048689186,0.07316686,-0.0010682672,-0.047833983,-0.04510905,-0.07643694,0.04296631,-0.109921075,0.026641183,-0.09719033,-0.0075909863,-0.045480046,-0.09108204,-0.03541552,-0.04556962,-0.09916469,-0.059732504,0.009445002,0.04802964,-0.0069506615,-0.008464672,-0.033672016,-0.017348202,-0.096311875,-0.048591312}