#pragma once
#define W_LSTM_RECURRENT_KERNEL_O {{0.0140302945,-0.06601315,-0.06096058,-0.10193435,-0.047796484,-0.111438274,0.10076033,-0.04568247,0.17947808,0.17049035,-0.041821994,-0.10642652,-0.17264152,0.024114283,0.17730644,-0.08587885,-0.04096853,0.099700816,-0.11758703,-0.049168184,0.05374745,0.04586779,0.0057376255,0.13745834,0.006980272,0.013930816,0.040612083,0.030568235,-0.109307446,-0.24837703,-0.16342628,0.074834876,0.16250002,0.07243879,0.17101526,-0.20868267,0.21190652,-0.17220408,0.041186668,-0.09390615,-0.085364565,0.06624105,0.066807665,0.20554425,-0.07633145,-0.17016025,-0.06359511,0.043725815,0.00473419,-0.12873566,-0.066239126,-0.24950492,-0.025688885,-0.14665689,0.13185856,0.042505037,-0.1588028,0.018383682,0.00041722396,-0.07670935,-0.12220527,-0.10852292,0.039688937,-0.03919656,-0.23417555,-0.16692159,0.032049347,-0.23180968,0.075282454,0.04253101,0.035130583,-0.1541893,-0.22982615,0.0011791436,-0.054500576,0.14295998,0.10232526,-0.14358465,0.00904624,0.09159683,-0.07793745,-0.01717483,-0.015648548,0.094973885,-0.12249919,-0.023618056,-0.14111097,-0.1182782,-0.18388005,0.035975643,-0.03389125,-0.007225562,-0.09235679,0.29315314,-0.09117012,-0.14217113,-0.18754813,-0.14995173,-0.12346151,-0.033802837,-0.012962719,-0.0074741147,-0.030314924,-0.15288778,-0.023589874,0.11060996,-0.060202956,-0.01570625,0.22048862,0.19008738,0.066742316,-0.099726714,0.09421834,-0.057661913,-0.09033676,-0.18980864,0.14309964,-0.07958683,0.117056996,0.05729336,0.014728924,0.04931078,0.02206635,0.1316233,-0.15445048,0.08921424,-0.060315248,0.15983984,0.018468967,-0.1202067,0.0019075626,-0.1233115,-0.045469068,0.18263623,0.15469824,0.0019008485,0.08174539,0.14262493,0.0142439315,-0.15175818,-0.09808755,-0.06143087,0.042384353,-0.1335429,-0.053989008,-0.060299583,0.04670182,0.11484069,0.17933851,-0.1522112,-0.038192365,0.13742612,0.10043234,-0.0015104432,0.156444,-0.13001886,-0.07878525,-0.08568005,-0.026798815,0.043855414,0.10948651,-0.021204475,-0.020303221,-0.03912085,-0.07408995,-0.12546594,-0.13302538,0.008154486,0.036508612,-0.012377537,0.17060927,-0.053952772,-0.05356861,0.15197472,-0.11899607,0.0107978955,-0.01402129,0.037673555,-0.18181886,-0.06626608,0.058236387,0.061145794,0.08630545,0.03009989,0.037075114,-0.114284456,0.24642693,0.077028304,0.05942068,0.14278415,-0.11782028,-0.027059425,-0.07326679,0.13410857,0.09656443,0.04749839,-0.118386455,0.012039564,-0.06700356,-0.20620336,0.0037397486,0.12108321,-0.020910144,-0.18971479,-0.052310184,0.005392859,-0.04986156,0.1743223,-0.047278207,0.09094834,0.17792383,-0.042014685,-0.061754726,-0.05047547,0.11724286,-0.028230734,0.1119301,0.18243182,0.17108034,-0.17693546,-0.022573981,-0.17978641,0.026631806,0.069022045,-0.17079338,-0.08487229,-0.2278198,0.17896827,-0.09181026,-0.025782024,-0.027313739,0.016156726,0.016561227,-0.011450909,-0.23281428,-0.018215211,-0.15086214,-0.025026955,0.101288386,-0.02392789,0.16284417,-0.14950112,0.02489277,0.058978137,0.20036863,-0.07227886,-0.04703842,-0.020977408,0.12127162,0.05418284,0.04683028,0.040769376,0.14726636,-0.21503362,0.11102951,0.018199686}, {0.041247133,-0.018580368,-0.08486869,0.16670391,0.071888015,0.11507172,0.27199033,0.07557543,0.08478623,0.18685348,0.010157015,0.12493811,-0.06097792,0.10585401,0.07226945,0.051252168,-0.08156815,-0.13601014,0.17221093,0.014909874,0.13310593,-0.07079206,0.10402959,0.12198063,0.014567156,0.024151666,-0.017372368,0.054520223,-0.18567926,0.088220656,-0.05948903,0.06649147,-0.061030593,-0.08748882,-0.012226645,-0.14104049,0.20237468,0.180644,0.047164943,0.05468754,-0.003300455,-0.13138312,0.006684811,0.12789175,-0.10823516,0.09068642,0.1946551,-0.08916999,-0.12390483,0.08002066,-0.18940797,-0.06063202,-0.01838897,-0.020976761,-0.014049068,-0.2098018,-0.09936211,0.0738793,0.07983792,0.015509306,-0.049306992,0.09567582,0.12175165,0.19522698,0.020666644,0.05078567,0.013424235,-0.04567773,0.061506677,0.07298825,0.055576596,0.15356164,0.044822495,-0.14115466,-0.1039538,0.014666674,-0.02358669,-0.13017075,0.049202684,0.07487433,0.21194291,-0.0207454,0.10920474,0.21986844,-0.039068595,-0.009174684,0.13001536,0.08556099,0.034569032,-0.049678594,-0.024333993,-0.15828697,0.20355237,-0.027545542,-0.07880434,0.051021785,-0.04390821,-0.024020782,-0.03505229,-0.07745227,0.14390187,0.105551064,-0.03335225,0.1460935,0.09067694,-0.097822584,-0.07459595,-0.1664123,-0.12266408,0.05426278,0.049065582,-0.0087249745,-0.0063588577,-0.2188941,-0.05120344,0.050606564,-0.065661,-0.07709542,-0.06100046,-0.06831992,-0.05932968,0.035321217,-0.03230573,0.11294126,0.2601882,0.17285056,0.08711433,-0.021488557,-0.010090261,-0.05892629,0.07366738,-0.030368047,0.045639582,0.07000157,0.07528293,0.029388677,0.16140676,0.081596,0.06013149,0.0028249437,-0.11475042,-0.07130149,0.11592551,0.14461672,-0.055238698,0.10140877,0.08358982,0.2132414,-0.0011663506,0.023651948,0.01124951,0.12685865,-0.15604405,0.09620401,-0.08280139,0.057167307,0.08619314,-0.1328234,0.019945934,-0.07674087,0.019363927,-0.046664804,-0.049405046,0.37734842,0.04390587,-0.13304657,0.25669807,-0.012014159,0.15341362,-0.16615687,-0.1332246,-0.14349012,0.08659497,0.019909818,0.12079257,-0.08326553,-0.0009506827,0.10665123,0.053760566,-0.017073302,0.1157935,-0.04174617,0.15537564,0.01457185,0.051765233,-0.011824472,0.007217982,0.16990215,0.2336998,0.012051737,-0.039977133,-0.07408629,0.059440475,-0.09857065,-0.22371477,-0.008860826,0.21878332,-0.13591039,0.13304116,-0.090185404,0.070778266,0.13402012,-0.152017,0.1627266,-0.1686644,0.10741627,-0.19572435,-0.04396696,0.21908152,-0.15605,0.07328992,0.000531423,0.045504484,-0.061402094,0.027364584,0.12380087,0.018943768,0.11954836,0.02067768,0.018128963,-0.030509489,0.22202525,-0.051189743,0.06560749,-0.069450915,-0.069991104,0.14096008,0.086506724,0.06501173,0.15591037,0.1571835,0.024075545,-0.13489315,-0.17348576,0.11305317,-0.05559969,0.16093318,0.0101297265,-0.2677623,0.060606617,-0.10125994,-0.15073688,-0.047251977,-0.090730615,-0.0057337945,0.0087207025,0.13836859,0.09669275,-0.008809491,0.033177417,-0.029320765,0.06509137,-0.056199804,-0.028809598,-0.08034646,0.0057043545}, {0.066470504,0.25729033,-0.12269183,0.18921171,0.3034253,0.05919757,0.1571995,0.028385717,-0.15208632,-0.008978147,-0.088335045,0.11993074,-0.085635915,-0.025887905,-0.026512036,-0.01839307,-0.05375631,-0.12237269,-0.057183925,-0.008881923,-0.0005861775,-0.04018001,0.043806795,0.1530422,-0.11546608,-0.15560636,0.07890549,0.18235496,-0.0807584,0.12607442,-0.08699256,0.028458081,0.037176915,0.025634468,-0.053807415,0.012083487,0.058138754,0.036061995,-0.098430425,-0.06903619,-0.06909391,-0.011414184,0.12737407,-0.36480543,0.10171823,-0.08700858,0.039791536,0.23719287,0.10677899,0.02299447,-0.012377779,-0.026098609,-0.03805397,0.048784725,-0.10694907,-0.10326287,0.07556213,0.11064097,0.07805921,0.16492078,0.093909934,-0.106008604,-0.08509329,0.022396347,0.1588212,0.1369185,-0.044959784,0.030570572,0.050104074,0.09192672,0.031394918,-0.03299103,0.14652288,-0.18478616,-0.07948457,0.12083365,0.29352283,0.11305006,0.16528648,-0.24994701,0.052422002,0.078657284,-0.055539463,-0.14119205,0.10101719,0.12566483,-0.028740311,0.12073808,0.12442285,-0.23872694,0.059592914,0.047647007,0.16711695,-0.09615733,-0.035647504,0.10084593,-0.097691,0.011588161,-0.18077047,0.053756636,0.20135713,-0.17656192,-0.1198981,0.19874556,-0.019354573,-0.15308072,0.111362815,-0.21454632,0.09007983,-0.0023447266,-0.0964614,-0.049264994,0.0029131824,-0.04871486,0.039311808,0.14445838,-0.120259516,-0.02492756,-0.090067595,0.003176524,0.1108503,-0.025814021,-0.036483705,-0.0973793,-0.018114394,-0.04114599,0.00598881,-0.02233809,-0.007810772,0.029163467,0.012753204,0.13436519,-0.008792842,0.29714748,-0.012039719,0.13931525,-0.07046562,-0.21380639,-0.040213283,-0.044072226,-0.05113061,-0.0719726,0.038272664,0.19029255,-0.011500363,-0.037777163,-0.10572648,0.03423355,-0.061847646,0.015108082,-0.22233783,-0.02860289,-0.1578357,0.08670636,-0.13460544,-0.024109531,0.21292539,0.04430981,0.1413361,0.0157188,-0.20306373,-0.000118140306,0.010451727,0.01703867,0.108400725,0.01542061,-0.09045176,0.08015674,0.22253479,-0.21483701,0.12878849,0.11601506,0.04229842,-0.03339044,0.08457255,-0.023798874,-0.11032442,0.09944167,0.014081336,0.15736316,0.012373114,0.09039848,-0.17192574,-0.20664814,-0.24184322,0.12150416,0.07002059,0.19702873,0.22550468,0.026046686,-0.06177874,0.122921616,0.10463414,-0.1704452,0.08538082,0.10657658,-0.05611401,-0.0058587994,0.080523096,-0.058119863,0.07972239,-0.14847237,0.10630761,-0.052182704,0.017485663,0.10929799,-0.10295031,0.029095687,0.006038994,-0.102029204,0.0786242,-0.0032069404,0.15291001,0.061408974,0.17094202,-0.05902222,0.102120206,0.030093094,-0.16484714,0.1030929,-0.0143744275,0.03178209,0.09059729,0.0018248393,0.0042307503,-0.02081845,-0.079080075,0.001836795,0.10339226,-0.011882388,-0.11296246,0.105960526,0.0079380805,0.008127215,0.11161527,0.033923116,0.07513109,0.035154942,0.043292496,0.059321478,0.08347827,-0.017120637,0.1032308,-0.0483834,0.073663525,0.02678587,-0.066945285,0.068620816,0.047467574,-0.054646425,0.030024037,0.0016042573,-0.2389876,0.07260085,0.096603215,-0.0803467}, {0.051759608,-0.0061967266,-0.025991028,0.0062072,-0.07279167,-0.058459725,0.018902706,0.007673009,-0.112125896,0.011756267,-0.02268581,0.1446453,-0.0022890733,0.027235264,-0.083422214,-0.053385936,-0.014397156,-0.13195784,0.084501736,0.06940405,0.12548597,0.039698545,0.044899262,-0.08527359,-0.15336655,0.057892468,0.016338212,-0.05752033,0.18331403,-0.04129043,-0.030455641,-0.00421299,-0.25552318,-0.068914615,-0.12163539,-0.0031923014,0.12121507,-0.09193158,0.19435914,-0.03236049,0.08961867,0.037157353,0.0044376487,0.088908665,-0.14583108,-0.078038186,-0.062395357,-0.081494756,0.149374,0.10458223,0.1254477,0.15211762,0.11666971,0.00925534,-0.22443794,-0.08796552,0.14029267,0.05990309,0.14926122,-0.020616025,-0.03180769,0.04785377,0.01251761,0.19957967,0.0657928,-0.06363831,0.057004202,0.030557439,0.06244919,-0.012506915,-0.00062966446,0.0013027482,0.033643335,0.027517056,0.08238368,-0.048607707,-0.21920952,0.09518549,0.024856612,-0.003271198,0.13081983,-0.052299526,0.029944438,-0.014675108,-0.003795092,-0.103442505,0.12342836,0.06161917,-0.0138442665,0.2131201,0.04424007,-0.009705374,-0.019672194,-0.039255023,-0.10915765,0.056837242,0.08828545,0.10157367,-0.056855924,0.062307812,-0.060929026,0.14454119,0.019514995,-0.007596735,-0.10196533,-0.02056013,-0.023055486,0.23076431,-0.011770913,-0.14064343,-0.13517246,0.07303177,-0.21801709,0.056932185,0.06686938,0.060717512,0.22118695,0.20886308,0.16288888,0.075916134,-0.036973674,0.062865466,0.011811433,-0.053707503,0.09569568,-0.0053824526,0.26075488,-0.0690146,-0.16040061,0.15659338,-0.01432309,0.11049153,0.101725124,-0.20176664,0.035386387,-0.22742324,0.06398269,-0.073970266,-0.019826293,0.09348901,-0.0363679,0.021350943,0.044752963,-0.18701954,-0.06700195,-0.123107806,-0.004811063,-0.07126257,0.06434453,-0.11422249,-0.06294629,-0.028517317,0.04216789,-0.012249684,0.1049881,0.06066234,0.020170307,0.062457908,-0.019745782,0.018706467,-0.08781335,0.05042905,-0.042793497,0.041523017,0.053443324,0.22530483,0.20771122,0.17757323,-0.08712741,0.13714993,-0.06130052,-0.03654282,-0.075673915,0.083636545,0.0017633823,-0.14489737,-0.1405687,-0.022190437,0.05199041,-0.21080437,0.010568225,0.11845987,-0.12532459,-0.101029225,-0.0026631567,0.09636299,-0.24142984,-0.097068034,-0.08579125,0.02044728,0.22212236,0.08045499,-0.029202517,0.025520531,-0.033456486,-0.11099947,0.057690773,0.0790661,-0.1764823,0.10914505,0.1267155,-0.07225637,-0.094585404,0.00884086,-0.05415284,-0.093977906,0.23159368,-0.04771061,0.028398346,0.24760167,0.03874398,0.24182114,0.09402045,-0.082487784,-0.02787969,0.24000446,-0.061614294,-0.013682624,-0.013016962,-0.07940363,-0.065140046,0.15309216,-0.034094352,0.117582545,-0.007065035,0.054702368,0.25467896,-0.0944963,0.032658845,0.0436494,0.018266292,-0.024696736,0.03556885,-0.06180712,0.15752843,0.03377809,0.327995,-0.020585967,-0.043394204,0.007954663,-0.12890886,0.006733077,0.10718331,-0.09849451,-0.106456526,0.015897166,-0.09128004,0.13824819,-0.1677677,-0.049382586,0.07453797,-0.05591929,0.02951332,0.040984366,-0.025451018,0.08627315}, {0.047355525,-0.022096103,0.16726895,-0.04136758,-0.19295105,-0.05655287,-0.032697294,-0.15413824,0.022923028,-0.038993828,-0.104452915,-0.029173257,-0.1903272,-0.1416923,0.30765268,-0.014563839,0.18204528,0.14817275,-0.032698292,0.004183554,-0.0753414,-0.2191036,-0.0060531334,0.15075067,-0.008851542,0.20816325,-0.24013135,0.02099865,-0.19311507,-0.07549493,0.018708203,-0.022208665,0.06992068,0.15306774,-0.03092658,-0.040401317,0.05432725,0.01707684,-0.063248806,0.11400126,0.023639362,-0.11648232,0.0897191,-0.048381373,0.04029408,-0.112285495,-0.13727356,-0.036622845,-0.13666391,-0.17244202,-0.13940337,0.04834978,-0.16114427,0.010155828,-0.04631958,-0.036374923,-0.11809474,0.028561516,-0.0763758,-0.059140567,-0.10603435,-0.17068984,-0.09857418,-0.05028995,0.03715905,-0.15117648,-0.033609454,-0.12517613,0.09158788,0.026199639,0.036017414,0.009950877,-0.06490576,0.1510608,0.0022395384,0.040909905,-0.06275393,0.06172233,-0.09887182,0.09190734,0.051339097,0.088441126,-0.009376123,0.15043022,-0.31993902,0.023974573,0.073247164,-0.07734666,-0.10280133,-0.04071112,-0.04342251,0.0885379,-0.01912104,-0.018639075,-0.045889135,-0.009368636,-0.056681983,0.050373144,-0.16398981,0.020003552,-0.009108174,-0.17284818,-0.05262654,-0.082711,0.13788229,0.11336791,-0.1425031,0.11031395,-0.008204937,0.03924377,-0.060976505,-0.24843688,0.19896805,-0.022786114,-0.058318935,0.1303602,-0.040585626,-0.059912026,0.21257432,-0.041844226,-0.032341123,-0.09115422,-0.061292063,-0.128909,-0.20648767,-0.043871194,0.019302152,-0.10431619,0.055631213,-0.17405199,0.11612083,-0.046430543,-0.1679578,-0.19106315,0.03129713,0.1970021,0.02857427,0.18488798,-0.25919864,-0.08223592,0.21351928,-0.0693526,0.33796018,-0.3116971,-0.013415757,0.1536548,0.16359103,-0.10142638,0.004348428,0.11696542,-0.118889086,-0.066056184,0.057945136,0.0040398794,0.09755102,0.11540973,-0.26155666,0.030274158,-0.026476849,-0.22883713,0.04895176,-0.32297316,0.003199614,-0.082832396,0.0534322,-0.24569415,-0.042600937,0.011655127,-0.00086711266,-0.00999287,-0.035673633,-0.11122555,-0.12997246,-0.05577186,-0.12318005,-0.17099427,0.058807068,-0.06644706,0.039146505,0.00121064,-0.0533987,-0.10196105,0.09842658,-0.07277205,-0.23126936,-0.14523506,0.072468735,0.067713596,0.14330122,-0.038092826,0.03392001,-0.19148579,-0.18864127,-0.18005256,0.23246624,-0.07200347,-0.043514293,0.042555705,-0.13386889,-0.121196724,-0.092800625,-0.045265473,-0.11167715,-0.048453845,-0.07118994,-0.1012042,-0.04892073,0.06729487,-0.09356479,0.019365836,-0.14866596,-0.022017324,0.027610155,0.11949095,-0.17248796,-0.21544652,-0.074165046,0.00052095944,-0.14321736,0.25247896,-0.027774101,-0.049250968,-0.0687282,-0.085984364,-0.111066766,0.101839066,-0.14564876,0.2120226,0.129937,0.06587735,-0.108207904,0.008384608,-0.043548763,-0.089291945,-0.19521864,0.11477586,-0.08594352,-0.11362121,-0.019512147,-0.035768718,-0.053729795,-0.05842049,-0.06742474,0.08549815,0.1511083,-0.08595038,-0.046873998,0.024209801,-0.23890068,-0.0038358213,-0.08487293,0.0404945,-0.048280086,0.15284058,0.027552377,-0.18289356}, {0.008583766,-0.026284168,-0.010282781,0.11182753,-0.035656378,-0.0022986094,0.11995224,0.06998335,-0.11574611,0.16690265,0.0014697412,0.09253339,0.030406857,0.085424945,-0.117613405,-0.12091029,-0.07549248,-0.16497731,-0.013892902,-0.23018256,0.025477886,-0.009254079,0.21668155,0.17171632,-0.06842244,-0.24514024,0.107597694,0.13906562,0.1640446,-0.12939674,-0.18719123,0.13262296,-0.03305813,-0.029062696,0.12913369,0.10346582,0.17674688,0.08004812,0.14226131,-0.012079155,0.22058411,-0.032392778,0.103518136,0.13976015,-0.06416312,-0.08526133,0.11980728,0.1574237,0.070850715,-0.038757164,-0.056733057,-0.18731461,0.06156595,0.09902989,0.10220015,-0.0073512187,0.11336483,-0.015058559,0.10718199,0.14469214,-0.08958815,0.05767151,-0.092923075,0.12477826,0.013202753,-0.17942719,0.00064664544,0.0027558208,-0.05556255,0.14322506,0.20342527,-0.083820425,-0.037531935,0.07206205,-0.11123496,-0.033264678,0.073218785,-0.049400944,-0.0030766604,0.07814367,0.23058099,0.057927698,0.012284525,-0.12254796,-0.08375054,-0.123857036,-0.1844037,0.04927463,0.14276841,0.08867224,-0.021195747,0.12475113,0.09828346,-0.04872513,0.108953424,0.06808084,-0.10605532,0.047063902,-0.007895522,-0.016267316,0.027894398,-0.17392465,-0.13507128,0.07797618,-0.0011666515,-0.07767437,0.05429909,-0.046901666,0.042625464,-0.0024549565,-0.014256607,-0.002462211,-0.14612493,-0.018130362,0.017411495,-0.014026264,0.0138417175,-0.008003098,-0.008713803,0.03355472,0.15213951,0.096537344,-0.010877362,-0.016903419,0.1594085,-0.10732032,-0.10468559,0.1280242,0.018020023,-0.076881476,-0.023798095,0.022992853,0.028500944,0.33485314,-0.008217734,0.15357564,0.027021755,-0.019517144,-0.14004304,0.057250243,-0.0956784,-0.088136084,0.08074041,0.08999288,-0.20720714,0.08737435,-0.02396297,0.09115148,0.07737041,-0.08618604,0.07922328,-0.12582545,-0.18699855,-0.13130793,0.008055118,-0.12908015,-0.04045677,-0.046146974,0.14579365,0.10274679,0.11603776,0.057410367,-0.023927018,0.0007181334,0.103420466,-0.16000369,0.051460892,0.03813347,-0.020463813,-0.08200261,0.061607517,-0.14438829,-0.054877467,-0.06786726,0.049074203,0.004290142,-0.13279474,-0.1722234,0.07532191,0.096493624,0.13553378,0.016159315,-0.08489128,-0.07654243,-0.03870344,0.05252262,0.015051234,0.018181244,0.105859526,-0.007307806,-0.052624315,-0.015291503,-0.10025627,0.14439863,-0.021752093,0.060682088,0.021308143,-0.18343826,0.13134536,0.21199328,-0.061912946,0.00034087914,-0.10737777,-0.20087935,-0.08620679,-0.05494583,0.038757313,-0.032207023,-0.023779357,0.07459643,0.07200146,0.09893678,0.08494272,0.064063795,0.046219926,-0.07491538,-0.09904688,-0.15085384,-0.026898406,-0.18037555,-0.0027163236,0.09482229,-0.006767275,-0.0066773654,0.08454743,-0.10926698,-0.03587887,0.061934117,-0.10216845,0.08123661,0.12727778,-0.012583675,0.029206136,0.08628824,-0.0028624658,0.20601708,0.079794966,0.13301396,0.037096173,0.054802474,0.051567297,-0.10359177,0.24192582,0.122996286,-0.17183286,0.13226053,-0.20934275,-0.073407516,0.01851613,0.05620723,-0.0034148488,-0.035693254,-0.13618687,-0.0095741935,-0.001620936,-0.06005517}, {-0.22614942,0.042721283,-0.28078994,0.034832593,-0.034432564,0.010430729,0.11170237,-0.05806017,0.07294816,0.12165056,-0.19951226,-0.103703044,-0.0077702487,0.048203353,-0.10184019,-0.013642403,-0.19569333,-0.0609447,0.18177326,-0.22369729,-0.10411736,-0.16369481,0.0989838,-0.03285974,-0.13281794,0.05761609,-0.2899562,-0.10260839,-0.10590999,-0.04252928,-0.0049777976,0.07703746,-0.11296834,-0.031491898,-0.14411947,-0.17795184,0.0680708,-0.2222593,-0.058426026,-0.04938091,-0.005050042,-0.0029277424,-0.03895149,-0.15711188,-0.19036381,-0.17028329,0.009910279,-0.039853945,-0.12108578,-0.044787765,-0.08765547,-0.27508402,-0.2269931,-0.19025677,0.005612099,0.032587424,-0.20933574,-0.01782072,0.040764026,0.047110192,0.0067934007,-0.075687684,0.05322825,0.044370092,0.06833048,-0.24072772,-0.112840086,-0.13895403,0.12967475,-0.018585935,-0.13888818,-0.12061877,-0.0134161925,-0.13912393,-0.22921799,0.06956816,-0.0014510691,-0.114775926,0.047578577,-0.22883031,-0.10677814,-0.03799229,-0.08953883,0.15258783,-0.10213589,0.07916036,0.05268693,-0.033769332,-0.09832035,0.13979822,-0.089966856,-0.12350832,-0.029475508,0.0020463564,-0.103108354,0.05577014,-0.058691904,-0.25037068,0.017753279,-0.011123623,0.10407479,0.008027963,-0.16177686,-0.050570928,-0.029251864,0.02365074,-0.09872597,-0.103663094,0.09934392,0.11375794,-0.17045993,-0.18880111,-0.08430551,0.23769392,-0.24121998,-0.12111274,-0.082833216,-0.018544171,0.020857953,0.22738706,-0.0012865752,0.047828823,0.1260136,-0.071816795,-0.23562516,-0.015057663,0.015040291,-0.2608661,-0.17391512,-0.06739663,-0.13651666,-0.08499498,-0.08764668,0.13947657,0.09303812,0.018513363,0.12900215,0.078164384,0.019356387,-0.10993083,-0.077788875,-0.067287445,-0.06224492,0.011640588,0.01185881,0.009437433,0.10049886,0.060390107,0.08872566,-0.09079783,-0.012849663,-0.048923373,-0.04457568,0.0038747992,-0.051238973,-0.010499842,0.0016192832,-0.2522181,-0.024159888,-0.007908567,-0.0043616835,-0.07176037,-0.16933338,0.0047552576,-0.022098415,-0.030501792,0.09968496,0.04762682,0.13250373,0.08522256,-0.083693475,-0.18506192,0.012875305,-0.07892427,-0.013683462,-0.022598393,0.1593761,-0.025877655,-0.1474203,-0.0755332,0.013790354,-0.049884193,-0.13960283,-0.08354945,0.035045266,-0.20066476,-0.041624017,-0.0020984535,0.044085983,0.13206646,-0.032645658,-0.12498623,-0.058114324,-0.13328806,-0.013205424,-0.10046445,-0.15241432,-0.22465616,-0.22390677,0.013679818,0.025955547,-0.06467909,-0.13001637,-0.011068214,-0.096684135,-0.22040638,0.060075235,0.005330302,-0.085470945,-0.14784093,-0.0014313997,-0.035426434,-0.2003042,-0.045516156,0.06775949,-0.05611318,-0.09006349,-0.17945725,0.08902534,0.06436935,-0.13633423,-0.068009436,-0.06682645,0.06890689,-0.16909765,-0.03714823,-0.13258712,0.053496614,-0.021434698,0.1008935,0.14643155,-0.04406389,-0.22643046,-0.09397832,-0.13276556,-0.073902205,-0.05769459,0.106437564,-0.081326805,-0.1931329,-0.07825016,-0.056420077,-0.12768885,-0.15986192,0.12415197,-0.116203874,-0.10356821,-0.067136325,-0.04286685,-0.06686343,-0.034238752,-0.1769465,-0.059247117,-0.036271695,0.03848176,-0.033856425}, {0.023311902,-0.21007681,-0.022178572,0.011318847,-0.023201419,-0.038467567,0.16369808,0.03479961,-0.14439578,-0.051428627,-0.051575292,-0.030385884,0.11277629,0.05125088,-0.06936567,0.08928294,-0.14055239,0.03299346,-0.03750635,0.028470704,-0.029027425,-0.056378018,0.021104662,-0.21263167,0.08973317,-0.17400146,0.020344255,-0.26096252,-0.13551614,0.004889353,-0.005539739,-0.016206969,-0.17588472,-0.04501634,-0.08549377,0.1735023,0.002462151,0.046029065,0.15962508,-0.07707979,0.049999777,0.04960774,0.09229871,-0.121858604,-0.070464395,-0.040198594,0.06114578,0.01826886,-0.10675878,0.04347584,-0.11262546,-0.089202955,-0.18679701,-0.27997187,-0.06011156,-0.041764215,-0.26143038,-0.00814114,-0.075509176,-0.034835916,-0.07906126,-0.06177796,0.10828702,-0.0033078627,-0.059423897,-0.03555785,0.06995968,0.11979002,0.006299373,-0.12693048,-0.1866633,-0.06418037,0.0032839663,0.082548656,-0.0074191242,0.05473302,-0.0837816,-0.09030001,-0.0090086395,-0.24295004,-0.120183736,0.11048143,-0.07046127,0.09880812,-0.006384344,0.0320268,0.1538799,0.040666938,-0.10853517,0.09135036,0.12896456,-0.11156543,-0.09409502,0.014260769,0.07993301,0.09664155,0.07202317,0.097172536,-0.047247507,-0.18049137,0.16076006,0.06871609,0.097767495,-0.05529453,0.06133559,-0.00926319,-0.08923517,0.14151616,-0.010498562,-0.13157804,-0.0010691946,-0.04024509,-0.04730451,0.09465996,0.19092932,0.18050952,0.053197607,-0.19558997,-0.16169639,0.13958173,0.004692479,0.020324878,0.04828384,-0.03870744,0.035152975,0.046512626,-0.083650306,-0.033478554,0.054780588,0.044301443,0.04499773,-0.2370186,-0.0018932739,-0.071133845,0.06346584,-0.052314185,0.10718852,-0.12628797,0.16058111,0.05118384,-0.055178855,0.20405038,-0.25560483,-0.06450606,0.080397375,0.018076086,0.05720349,0.14625545,0.106526956,0.04591054,0.19194478,0.08643616,0.07359125,-0.020177294,-0.08192389,-0.009355245,0.112459294,-0.029061219,-0.113277905,-0.06954257,0.23308706,0.15561442,0.13479489,0.06569065,0.04504952,0.14306356,-0.024824278,0.016793052,-0.090680145,0.033665765,0.031207522,-0.12526254,-0.0050400575,-0.24307825,-0.08753016,-0.1398655,-0.00971311,0.062292136,-0.1033918,-0.18332997,-0.045365643,-0.022621876,-0.077326566,0.31593663,-0.09110457,0.01870133,-0.18970758,-0.029276203,-0.07371737,-0.09042822,0.028135218,-0.019642033,-0.121637195,-0.013818857,-0.07981708,-0.02355444,0.012983359,-0.14579329,-0.0681817,-0.16200842,-0.08107922,-0.13766451,-0.13407624,0.060771555,0.12857568,-0.12081854,-0.07785195,0.13422278,-0.09163912,0.0321506,0.05751726,0.06976403,0.026990512,0.0040582335,0.09360848,0.13983163,0.0001546027,0.17731757,0.013302864,-0.030089762,-0.01841317,-0.057584446,0.0067171757,0.04574155,0.060714167,0.007099134,0.09908552,0.09467774,-0.0044212304,0.08947582,-0.013739173,-0.09784986,0.08102923,-0.11457253,0.091066286,0.114423394,0.13323312,0.3296643,-0.051870167,-0.14755738,-0.16768456,-0.054827474,0.02900205,-0.11216089,0.06440262,0.025381181,-0.07748885,0.047862332,-0.0026017118,0.03453634,-0.09688354,0.03456569,-0.16419461,-0.18689008,0.19201216,-0.2613099}, {-0.11939239,0.010327847,-0.12471131,0.04303407,-0.07460041,0.16360658,-0.07539202,0.1650592,0.09142503,-0.043517645,0.019847224,0.039314337,-0.0011280021,0.21007843,-0.16222182,0.052406408,-0.027141508,-0.077887274,0.02606213,-0.11440735,-0.16683586,-0.045612473,-0.147307,0.05080194,-0.17507926,0.049160864,-0.032909296,-0.06277344,0.09671199,0.14879659,-0.1109955,-0.11767385,-0.2360984,0.112264305,-0.21714593,0.11747068,-0.2324719,-0.26224762,-0.15623248,0.15019527,0.008859456,-0.12973043,0.14842153,-0.28556418,0.06437579,0.18817239,-0.13215922,0.030594356,-0.12064537,-0.089301795,0.057417035,0.060978096,-0.065642476,-0.022036739,-0.07386532,-0.02877087,-0.030236952,0.08040748,0.020540588,0.032958094,0.06692913,-0.08408424,-0.03532329,-0.048674405,-0.008410198,-0.036991965,0.094656266,-0.08668165,0.14454621,-0.07558002,-0.11527291,0.18918057,-0.07824582,0.056786478,0.010410643,0.06375996,0.034526255,0.09093863,0.0025769945,-0.16687468,0.008693947,-0.026583705,0.08735301,0.22827423,-0.011386901,0.042645995,0.033779435,0.062395435,0.052560434,-0.02202637,-0.07123062,0.18436787,-0.22154017,-0.15972295,0.061848097,0.14554681,-0.11840501,-0.20675577,0.011336762,-0.1054865,0.06424741,-0.22790803,-0.068144426,-0.018342072,-0.22308263,-0.05660681,-0.08351349,0.1479708,0.011194687,-0.09209317,-0.19409381,-0.09313879,0.0038571688,-0.0038411207,-0.12014638,-0.12369164,-0.025395257,-0.028159717,0.03447248,-0.20418096,-0.18045382,-0.1267871,0.03514952,-0.28745255,-0.062762246,-0.25700095,0.020401005,-0.036761303,-0.0768603,0.02197903,-0.09556507,0.1656573,-0.047799334,-0.11785257,-0.047593653,0.060484186,0.041199695,0.08088726,-0.21195,-0.06733993,-0.001732773,-0.117995605,0.29784545,0.096134044,0.1705294,-0.054973405,-0.12631172,0.031959154,-0.079293236,0.046374295,0.06277441,-0.030631969,0.12207763,-0.10231828,0.021582123,0.040254213,0.1464604,0.014325949,0.010381167,0.0029399714,-0.06066053,-0.12519832,0.11039649,-0.14013523,0.04193043,-0.12918214,-0.0070872414,-0.05422776,0.20375876,-0.0066831196,-0.021454223,-0.008876468,0.15411612,0.071796484,0.00062007405,-0.2048322,-0.067552395,0.059979193,0.06082415,-0.020666966,0.0629556,0.0103017865,-0.12984884,-0.07678333,-0.20857905,0.2570102,-0.20877352,0.29190207,-0.056975853,0.026488457,-0.05148784,0.08875878,0.115016386,-0.086746365,0.109341286,0.05335547,-0.034837086,-0.07798056,-0.0063992515,-0.08790044,-0.19656117,-0.21383287,-0.17879213,-0.0030649428,-0.10484,-0.15046605,-0.035963595,0.023379574,-0.08447732,-0.10129803,0.061426207,-0.17427385,0.007080169,0.14981379,-0.11580963,0.0045320527,-0.026895544,-0.0601117,-0.17234227,0.048534855,-0.0051096813,-0.009283192,0.035909496,-0.042473633,0.0105285235,-0.08955924,-0.104486674,0.06219967,0.04924135,-0.10463435,-0.065391585,0.1344711,0.0007849166,0.06498995,-0.054404862,0.10736655,0.062954634,-0.20496714,-0.23018189,0.03279895,0.09998792,0.040092073,-0.08647659,-0.024771988,0.015070307,0.0759127,0.030369785,0.0864079,-0.12410529,-0.04522239,-0.15776627,-0.014310586,-0.1740779,0.083286785,-0.12769356,-0.121889204}, {-0.15749055,0.18406667,0.13457324,-0.009275887,-0.014963035,0.09070031,0.061533447,0.08761451,-0.03748293,-0.21348386,0.04155823,0.13021176,0.22924562,-0.0021333587,-0.019491337,-0.034023765,0.060040373,0.022155426,0.12555784,-0.11597669,-0.011618322,-0.09198257,-0.03509482,0.08653855,-0.07387043,0.042012464,-0.009962418,-0.12643245,0.059139304,-0.0038056849,-0.028381616,-0.03480498,0.11592814,-0.11597333,-0.10201936,0.23951127,0.21305981,0.04375586,-0.065588795,0.16162182,-0.087063156,-0.00855245,0.08722007,-0.13661104,-0.051105946,0.068593495,-0.04192038,0.012819609,0.024081564,-0.009255736,0.047042117,-0.13829088,0.013587208,0.0024865554,0.13733779,-0.26725385,0.15641367,-0.14697807,0.0025853503,-0.023840578,-0.0068600574,-0.009756684,-0.023158235,0.041251875,0.08183689,-0.12892067,-0.017261218,-0.037869103,0.071222454,0.03464736,0.011554647,0.21847874,0.04557275,0.14759809,-0.09757424,-0.032280955,-0.2499772,0.14626825,-0.05399017,-0.114318796,-0.04020133,-0.061804432,0.017805316,0.007218345,0.015313387,-0.053322475,0.05632027,0.14350937,-0.05791336,0.030555151,-0.02243096,0.036801282,0.010996375,-0.13412729,-0.061899424,-0.17428501,-0.043665834,-0.018918443,-0.06748946,-0.110733956,-0.06272976,0.03958266,-0.040840607,0.035734598,0.08679806,0.08799147,-0.09243676,0.2338988,0.027020859,0.054636993,0.1487091,-0.06910797,-0.1312958,-0.14789501,0.049650528,0.050815083,0.030363603,0.1425334,-0.08169534,0.047271922,-0.061098512,-0.081347,0.016337784,-0.028662039,-0.038312595,0.004909481,0.103499465,-0.050531514,-0.010057693,0.14202723,0.05731245,0.099822745,0.05919462,0.1722532,-0.09780042,0.07051723,0.15001903,-0.07160008,-0.03177244,0.019567471,-0.12597257,-0.10314067,-0.105135165,-0.1573068,-0.09033945,0.11399721,0.03994316,0.10051635,0.020451598,0.069859624,0.06338017,0.08287585,-0.0029791566,0.089889355,0.09682333,-0.018423442,0.1143859,-0.0066028526,0.05015365,0.06301016,0.028960455,-0.0460873,0.1756187,0.10471206,-0.048592906,-0.028129697,-0.045109253,0.09254115,-0.061662678,-0.02458469,-0.008758202,-0.018419746,0.08340758,-0.019732337,-0.13873358,0.059456885,0.12683527,0.03347794,-0.14287847,0.02236697,-0.03505999,0.012022541,-0.16468677,0.0170651,-0.11304295,-0.013160298,-0.23862676,0.15702407,0.035566892,0.09550799,-0.10135873,-0.07200346,-0.06639975,-0.044544205,-0.16738552,0.057201847,-0.19929533,-0.21452737,0.032527044,-0.05594954,0.13555562,-0.028768377,-0.1662626,-0.11563765,-0.111425154,-0.21679944,-0.041409902,0.06779899,0.08377401,0.019581111,0.05742869,-0.111213006,-0.057361636,-0.09055718,-0.0120084435,-0.012806812,0.07361888,-0.031599868,0.13791105,0.023963086,0.10617831,-0.028681155,-0.19080266,0.10217445,0.040369183,0.0111855855,0.15872687,-0.16826633,-0.12518884,-0.19355646,0.18315709,0.12692791,-0.061561834,0.33991817,0.08304308,-0.024501018,0.05026891,-0.14538689,-0.20791997,-0.040001716,-0.011381722,0.13478586,0.0049413643,0.046985082,-0.1088324,0.1495776,-0.015444525,0.03412305,-0.03692168,-0.052568957,0.2423507,0.017914558,-0.0893071,-0.20707515,0.08789359,-0.02447611}, {0.051686082,-0.06547443,0.0673524,-0.10346762,0.049795926,-0.03830669,-0.020639552,0.23575795,-0.08507915,0.030499162,-0.09958388,0.06338972,0.105319686,0.07258827,-0.10536382,0.17697349,-0.17721528,-0.053228665,0.050973162,-0.056675684,-0.058758967,-0.20173404,-0.051337067,0.022935664,-0.04362556,-0.015374355,0.08340967,-0.0013820688,-0.038453493,0.11931822,-0.04760045,0.027231196,0.025935397,-0.015905542,-0.08826238,-0.015892921,-0.040478047,0.005926654,0.11896583,-0.20747542,0.022989506,0.039664116,0.084469445,-0.19937201,0.16070445,-0.023260253,0.059715528,0.13058005,-0.112994365,-0.038832165,-0.044410173,0.124814235,0.006057937,-0.034445364,-0.2379202,0.0007691673,-0.06438263,0.027967442,0.09250572,-0.11156152,0.037531078,0.09421241,0.1080762,-0.08188235,0.044114098,-0.04637622,0.013818482,0.22992422,0.03773035,-0.18398418,-0.17975903,0.13168155,-0.056247428,0.056721278,-0.027965376,-0.092189476,0.14345136,-0.03363595,0.09682937,-0.012794383,-0.054455798,0.2190312,-0.03208961,-0.046889573,-0.04261616,0.021795245,-0.07783459,-0.101049066,0.06819177,0.076119155,-0.09916918,-0.06422437,0.061649032,-0.11478954,-0.047242813,-0.008254037,0.04691403,0.05839907,-0.06400859,0.06843597,-0.02450807,-0.010493823,0.17071983,0.08166709,0.033659782,0.020511953,0.21798854,0.17402403,-0.14759839,0.0057407934,-0.10359376,0.040877484,0.07915643,0.10675514,0.06347577,-0.047759395,-0.024260521,-0.10044039,0.050971974,0.017330335,0.03585391,0.035498634,-0.01072608,0.12203076,0.112357356,-0.15285183,-0.08217247,-0.08517172,0.099658445,0.11948661,-0.0022715088,-0.07741206,0.09130467,0.12481803,-0.06996166,-0.038474735,-0.100640155,-0.121277176,0.24402931,0.09609264,0.060035285,-0.15279894,-0.19427498,0.1081403,0.09841309,-0.16071172,-0.040711965,0.07185615,0.014010335,-0.047830082,0.055994995,-0.00091050006,0.17661509,0.07455964,-0.21674293,0.16312002,0.09173108,-0.010896879,-0.07195794,-0.12098123,0.060903125,0.25278273,-0.047336563,-0.018436631,-0.0058924626,0.025159638,-0.046266437,0.07852968,-0.2091509,-0.039798357,0.1560725,0.058177922,0.042814605,-0.0175421,0.10719902,0.07637794,0.12871273,0.037047055,0.051814217,-0.07658279,-0.0048018596,-0.09071351,-0.11034015,-0.036178324,0.014938793,0.172075,-0.079686515,0.045664877,-0.039274942,-0.04495811,-0.08529913,-0.014548832,0.19130382,-0.101231456,-0.03571537,0.13507752,0.0017519456,-0.24522299,0.06072478,0.044212606,0.2241403,-0.17577025,0.010326439,0.09172781,0.20814492,0.13551842,0.009026885,0.059175864,-0.077399425,0.049411274,-0.11134141,0.0070368154,-0.087127484,0.042746518,0.083271496,-0.08469511,0.04355674,-0.052678436,-0.056444686,-0.042479888,-0.111068286,-0.043891933,0.012477526,0.044918396,-0.018304205,-0.019460034,-0.057982188,-0.07835437,0.061131842,0.19796246,-0.11487402,-0.061699502,0.09636719,-0.22883697,-0.013744624,0.028320553,-0.06488861,0.19875658,0.05332029,-0.2533034,-0.06561279,0.038235527,-0.11606309,-0.081497245,0.032727476,0.105723485,-0.019715127,0.28080487,-0.10686743,0.04339959,0.002374716,0.05759354,0.007830573,-0.001615088,0.04617115,-0.0718382}, {-0.065585695,-0.070877224,0.042117335,-0.025429511,0.05563061,-0.014108227,0.012542283,0.15583444,0.021383662,0.051786102,0.16696784,-0.01317779,-0.12987553,0.12800288,0.009095796,0.12628037,0.09285489,-0.10850456,-0.14401425,0.008597268,-0.12700444,-0.07304878,-0.11820244,0.062260617,0.03239332,0.029630383,-0.02324024,0.16204913,-0.1079359,0.07780551,-0.10379581,0.092686795,0.0127686085,0.16649309,0.06440317,0.03271833,-0.05064957,0.22631866,-0.015282078,0.036500826,0.24332838,-0.086396955,0.024742208,-0.18202785,0.15533233,0.08769921,0.02611315,0.02632856,-0.06284072,-0.18534599,-0.09970258,0.029036608,-0.16826433,0.15489762,-0.07422729,0.057109717,0.05281939,0.16385846,0.016541619,-0.1157231,0.020172995,-0.094492875,-0.08619457,-0.17474392,0.03196047,0.018564463,0.06002939,0.02787299,-0.059986986,0.11002649,0.13452232,0.114614256,-0.20386061,0.11699474,-0.11597629,-0.15412936,-0.041125383,-0.02573922,-0.0749952,-0.054407816,0.15295808,0.0959164,-0.19379488,-0.1865764,0.07265749,-0.11510979,-0.006416439,0.022222262,-0.068331875,-0.09190721,-0.057577398,0.1320569,0.038033627,-0.23208572,0.13485934,0.06656892,-0.06968648,0.018792268,-0.076059654,-0.12376736,0.122369826,0.039994653,0.026542366,-0.012258382,-0.009336534,0.043034315,0.07502231,0.22104381,-0.08186571,-0.1317906,-0.11280416,0.030426137,-0.1881572,-0.18557794,0.10274367,-0.093852155,0.14902562,-0.16442071,0.046832833,0.0037429307,0.14708789,0.025755895,-0.14017393,-0.03860679,-0.10851667,-0.12948059,0.09662568,0.011560271,-0.04230401,-0.1264869,-0.0019375252,0.06368847,-0.005247685,0.083560854,0.053749733,0.04548533,-0.05091044,-0.07042157,0.030076133,-0.14957042,0.11986416,0.034799326,0.12522325,0.16769955,0.016258353,0.051052112,-0.12807526,0.040252626,-0.016831618,0.020937596,-0.14033689,0.089727834,0.16885683,0.12894125,-0.027790725,-0.02375527,0.0053042057,0.032793134,-0.0069535407,-0.18583953,0.17055318,-0.05124002,-0.02090357,-0.041728597,0.10798202,-0.13878638,0.109269336,0.01798717,-0.024432657,-0.015495544,0.21493036,0.086676605,-0.011429884,0.061493944,-0.021579651,-0.2332677,-0.021997446,0.0011131109,0.097494625,0.033366784,0.021852834,-0.12484715,0.024966069,-0.05763987,-0.058951627,0.10589571,-0.08311405,-0.027433407,0.04447925,-0.115035325,-0.07385202,-0.02251294,0.21940894,-0.033195157,0.04670127,0.059674304,0.109301716,-0.100052536,0.100762606,-0.028262325,-0.0033045004,-0.022195492,0.007329818,-0.047291763,0.2260775,0.06342384,-0.10159036,-0.037123658,0.03414287,0.21030754,0.10705523,0.05506103,-0.07018401,0.093313985,0.05543677,-0.24350417,-0.05434042,0.024494335,0.021803392,-0.09632269,-0.026311252,-0.07439694,0.014273256,-0.110237055,0.11054595,0.06282947,-0.028221997,-0.029903801,0.0726659,0.0022443251,-0.07294242,0.10072095,-0.078095384,-0.13694246,-0.13956074,0.029041067,0.008100858,0.038768787,-0.0603536,0.043145806,-0.077498265,-0.20865297,0.08082425,0.12583399,0.038036477,0.08523058,-0.07729028,0.05411254,-0.19665907,-0.2745628,0.18430693,0.25243923,0.13065743,-0.09340832,-0.03913695,0.06211544}, {0.06182711,0.066567846,0.08052455,-0.057276286,0.0756236,-0.08333812,0.025334662,0.03433687,-0.05738606,0.035463106,-0.00556961,0.06630752,-0.015179627,0.05448205,0.021898711,-0.06737503,0.02029947,0.16393696,-0.054906305,0.21871611,0.18791288,0.07955052,0.084048994,0.09528843,-0.07441814,0.069416896,0.05755983,0.059642933,0.030530164,-0.15970188,-0.03840067,0.043632265,0.13742769,0.023524733,0.21827374,0.12104601,0.2702087,-0.05468765,0.02185049,0.102366306,0.04691652,0.14197588,0.11964047,0.12594481,-0.14309022,0.15284559,0.16700958,-0.12724176,0.21350092,0.15469651,-0.15510765,0.08901716,0.043443043,0.072251104,0.12566122,0.0913499,0.05891821,0.033360127,-0.055587444,-0.043272838,-0.015515563,0.058504652,-0.062343203,0.13970113,0.106372505,-0.050139084,-0.002392427,-0.112539336,-0.04290107,0.037310164,-0.0017970293,0.045384254,0.036688913,-0.0031652753,0.013099675,0.04490485,-0.15302391,0.11258518,-0.13832213,0.20996453,-0.029015161,-0.14106852,-0.047515955,0.17041798,-0.024096178,-0.13919462,0.018576788,0.26267585,-0.16271123,0.068613335,0.037013818,-0.19701332,0.080136605,0.27385625,0.097488135,-0.066077575,0.0061170906,0.23314688,-0.13704404,-0.031925667,0.09881344,-0.1379094,0.040357534,0.16422425,0.059043165,-0.027916212,0.02293423,0.041532043,0.08606678,-0.0009634622,-0.07473867,-0.063559555,0.020694533,0.043093458,-0.1708823,0.11229334,0.12048274,0.122048825,-0.11502737,0.17894101,-0.07940263,0.018562082,0.12747279,0.014262072,-0.05090062,0.053358078,0.27401847,-0.02131103,-0.10181797,0.06877686,-0.084576465,-0.043540407,0.07889256,-0.10675359,0.020313429,0.063403845,0.02949921,0.20934302,-0.20697866,0.020528672,-0.09415639,-0.13592885,0.18344624,-0.032518942,-0.2849325,0.033580825,0.10617508,0.041946635,0.059285548,0.07180166,0.04201918,0.04878954,-0.27554733,-0.037212748,0.11298151,-0.0836763,-0.042106017,-0.061664566,-0.052430987,0.07660555,0.08301152,-0.04086028,-0.06207281,0.00390369,-0.046072032,-0.03014364,0.15685801,0.006623833,0.064661704,0.065688,0.074663214,-0.050868172,-0.01855028,-0.008934102,0.05695499,0.12101748,0.097026095,-0.07806505,0.16730739,0.16052574,0.011943284,0.07665976,-0.13865614,-0.116024785,-0.06088417,-0.1086241,0.031246396,0.09159058,-0.0049347207,0.13930693,0.12207805,0.040085163,-0.11640445,0.02496788,-0.0018780902,0.023524415,0.06915622,-0.05982196,0.0017296143,0.07989107,0.07170194,0.08400119,0.054149956,0.024298277,-0.045961823,-0.1798946,-0.08686415,-0.27670294,-0.03140476,0.18178889,-0.02474329,0.053232346,0.17732595,-0.09943398,0.06784168,0.06070757,-0.10822707,0.15502758,0.060747612,0.09076693,-0.06782064,0.09050111,0.20921458,-0.051342748,-0.09572191,-0.015210063,-0.01830074,0.08784073,0.13856836,-0.059420012,0.17909683,0.017299807,-0.13887365,0.1350854,0.018853942,-0.07393056,0.099922605,-0.16508478,-0.00579319,0.22910987,-0.014060249,0.044363882,0.07180973,0.105422676,-0.032993462,-0.06751042,-0.04631256,0.035377216,0.13735445,0.15749213,0.16487093,-0.015519944,-0.12883185,0.16486892,0.13754696,0.1775187}, {-0.04275618,-0.034296505,-0.10845237,-0.13081342,-0.019269496,0.046378996,-0.26434967,-0.02111471,-0.09462289,0.10535933,0.034172114,-0.085129246,-0.011348994,0.091297075,-0.08451386,0.11457688,0.03962285,-0.08621575,-0.20433427,-0.21152657,-0.11550946,-0.21689044,-0.017630337,-0.060318716,0.05823461,0.0061167977,-0.059321783,-0.15559843,-0.092069514,0.10684303,0.012738172,0.03826525,0.0030250666,0.0964884,-0.087494284,-0.04371574,0.045429435,-0.024393762,-0.16561648,0.074266694,0.16090462,-0.106472954,-0.04155654,0.019572454,0.116640665,0.054579116,-0.2206123,0.17454234,-0.13516839,-0.21130598,-0.012628387,-0.17311986,-0.05022043,-0.10907241,-0.03966504,0.10332632,-0.22698331,0.07456842,0.067991965,0.15822981,0.13508101,-0.13878089,0.06603879,-0.010576775,0.011090614,0.012395075,-0.14259969,-0.14771898,-0.057618715,0.007880015,0.20105131,0.04523531,-0.39527988,0.061741162,-0.075435035,0.17634803,0.03615447,-0.082773395,-0.32409286,-0.17665674,0.10179346,0.29295668,0.031404793,-0.03708346,-0.04287808,0.1089316,-0.10620407,-0.09101931,-0.0638891,-0.06995733,-0.20778382,0.050009765,-0.04168843,0.074933805,-0.04370368,0.09190157,-0.1504098,-0.15415047,-0.074523665,-0.063371725,-0.20006518,0.06804389,0.15249872,0.08094284,-0.07845169,0.18953007,-0.11150967,-0.07655582,-0.13262218,-0.11011304,0.09801967,-0.061255902,-0.03275891,0.08249898,-0.07375518,-0.16850728,-0.17235225,-0.2546358,-0.03679197,0.016294455,-0.044956688,-0.11520981,0.09294588,-0.1184648,0.011966387,-0.17070271,-0.20554249,-0.00020384343,0.05494592,-0.17830373,0.06526714,0.15420592,0.077605166,-0.083821766,0.018501198,-0.10659104,-0.08913939,-0.05084002,0.12451323,0.014394175,0.13341695,-0.0027371228,-0.11354185,0.16447537,0.124744646,-0.108018085,-0.08747594,0.15815422,0.03340657,0.12084656,0.02217552,0.08901064,0.02896452,-0.022571245,-0.05524465,0.08307585,-0.10301631,0.10333001,-0.045639582,-0.16912207,-0.018003533,-0.016729843,0.049399447,-0.0021362358,0.12726636,-0.19733217,-0.088520996,-0.02971344,-0.008586849,-0.05914025,0.091494195,-0.027430795,0.26677686,0.030479396,0.09597501,-0.120183855,0.054317888,-0.019884609,-0.07817312,-0.063368686,0.0064566084,-0.052247778,-0.026860343,-0.033344083,-0.09535131,-0.10261214,0.25709313,-0.06945822,0.123490185,-0.06114103,-0.06585814,-0.12533818,0.09508409,-0.18545194,0.02548231,0.07250195,-0.1433608,-0.22631145,0.07946939,-0.013393178,0.16092044,-0.04997526,0.023774719,-0.012123531,0.043622322,-0.03399081,-0.0822075,0.06376702,0.24704093,0.06510664,0.037689384,-0.063075334,0.017581513,0.08253158,-0.14471528,-0.15112728,0.13205926,-0.12375905,-0.045346737,0.016579613,0.011645548,0.02380874,-0.26638976,-0.09180793,0.08664574,-0.033328272,-0.08885165,-0.10026003,-0.13927145,0.07745221,0.08179087,-0.02250758,0.099408485,-0.18410602,-0.18059391,0.027309515,-0.11662143,0.028629659,-0.051641386,-0.02916714,-0.039953187,0.04413876,-0.027077666,0.18038201,0.027752513,-0.13284834,-0.028633444,0.103566974,-0.028284553,-0.100778006,-0.03940312,0.14230248,0.112486415,-0.0009688069,0.060054224,-0.053573385}, {-0.07121838,0.1276946,0.100993894,-0.050793625,0.10108396,-0.038322017,-0.021043774,0.025796792,-0.067087926,0.086792395,0.18177417,-0.099360764,-0.14972632,-0.06341515,-0.013688908,-0.1921093,0.004400356,-0.1678637,-0.05583403,-0.026111567,0.056506418,-0.091554694,-0.0194634,0.007984512,0.18113248,0.12289871,-0.20027526,-0.10846962,0.08172753,-0.17395696,0.14675839,0.020175645,0.16347852,-0.101487,0.079196714,0.039925717,0.090206936,-0.07271252,-0.039484985,-0.2720136,-0.17695756,0.16750485,-0.03845731,-0.013866997,0.080629185,-0.052418143,-0.09662932,0.13343656,0.10258525,-0.015304421,0.021039225,0.12642938,-0.13559832,-0.078714915,-0.005170357,0.18038918,-0.07106196,0.048076116,-0.051422104,0.055709485,-0.032440085,-0.117307074,0.016773816,0.16180997,-0.014134328,-0.020607386,-0.15808126,0.052922647,0.23086506,0.20171387,-0.04445159,-0.115187734,-0.063467115,0.04260239,0.039214082,0.06319044,-0.117729485,-0.08275234,-0.12627083,0.081956655,-0.25926816,-0.016786199,-0.029474245,0.07297428,0.059318226,-0.001785246,0.09210039,0.04355961,-0.037756916,-0.0987869,-0.0994167,0.0999637,0.22689155,0.12876807,-0.06599273,0.08350266,-0.1519888,-0.018073693,-0.056965582,0.029729934,0.066926666,0.11415936,0.23036548,0.039925426,-0.104105584,0.07027131,0.02731922,0.10658482,0.0994768,0.109110855,-0.040156525,0.020608963,0.0150243305,0.15858383,-0.19346905,-0.019082528,0.027844708,-0.0066393777,0.013680865,0.02522925,-0.20308168,-0.1257406,0.17573428,0.2091714,-0.24307801,-0.032795396,0.17725544,-0.093257524,-0.14175238,0.0033101402,0.09645611,0.23867695,-0.019968588,-0.04282845,-0.085577354,0.113549516,-0.05774673,0.075527735,0.13850799,-0.07949454,0.029353915,0.07672129,-0.1320944,-0.1817452,0.019259872,0.12747188,0.1259286,-0.16362493,-0.046990264,0.21374866,0.047764234,0.09468393,0.18205336,-0.17846362,-0.10042487,-0.30850604,0.0039474186,0.26327094,-0.030698055,-0.05432899,0.19685668,0.010892808,0.016016027,0.009127773,-0.0076988917,-0.13426515,0.0047385837,-0.027317503,-0.09168978,0.08035579,0.13463174,-0.069630794,-0.06478488,0.052959297,-0.021957193,0.10134766,0.10995328,0.03356384,0.10578343,0.018613994,-0.07565578,0.2160934,0.06310649,0.22894627,-0.028650943,-0.24552904,-0.042648252,-0.08017155,0.22981358,0.109902814,0.06661738,-0.044469804,-0.07394029,0.010969809,0.11002534,-0.020900652,0.020385265,-0.05148126,-0.11239009,-0.041403238,0.118166454,-0.003266941,0.14497384,-0.039629526,0.06975645,0.050249346,0.040394805,-0.1319149,0.15366748,-0.015641088,-0.09335353,-0.08003327,0.094993725,0.00066171825,-0.02217477,0.24852563,-0.13102777,0.26803327,-0.123510085,0.05969017,0.06747418,-0.20478065,0.13160229,-0.019020775,-0.00614693,-0.019992657,0.05540049,0.13901664,-0.035180174,-0.12638822,0.19605532,-0.14016677,-0.0053315614,-0.01563262,-0.16037443,-0.005450391,-0.23088945,-0.13401856,0.016822556,0.01264451,-0.11870804,-0.05696884,0.0041295206,0.023005482,-0.057324603,-0.20052716,-0.13379814,0.091675684,-0.10456745,0.049418427,0.2342379,0.124847256,0.043091256,0.024269214,0.12326913,0.050942168}, {-0.07658668,0.13419786,-0.05820368,-0.1528989,0.06795829,0.09347062,-0.07593087,-0.0486016,0.031625506,-0.035914123,0.012221154,0.07908364,0.036718924,0.06062775,0.13204698,0.030078031,0.1050696,-0.08267608,0.13655664,0.1636898,-0.216577,-0.13625333,-0.040199876,0.23859833,0.061864533,0.22619358,0.068287715,0.040092494,0.074511945,0.11710041,-0.05786279,-0.10945703,-0.027596345,0.13392322,-0.10603626,-0.20485428,0.10116817,-0.078135625,0.23213677,0.10196085,-0.09918723,0.029440202,-0.15983209,0.05681245,-0.08011636,0.048284356,-0.07685387,-0.22307934,-0.050889473,0.15154313,0.18558858,0.05704913,0.056111515,-0.019499298,0.09573352,-0.029945403,-0.030867612,0.11510843,-0.18588626,-0.10452971,-0.095657796,-0.1262488,-0.26728016,0.21698657,-0.01888474,0.0994417,0.11257584,0.24360593,0.030290758,0.027874103,0.20511152,-0.03346097,0.004106441,-0.05367826,0.011299716,0.014017186,-0.12307996,0.09955499,-0.09143025,0.015835037,0.07047685,-0.029319476,0.21607251,0.119879596,-0.04075402,0.012681414,0.14798295,0.065643415,-0.08768012,0.09548495,-0.20017815,-0.023282317,-0.02583372,-0.23158829,-0.17175478,0.07764066,0.241315,-0.032203745,-0.020603595,0.07919255,-0.16637139,0.0719049,0.07368993,0.06971436,0.08750711,-0.031046,-0.0341226,0.19007368,0.09944858,-0.2132514,-0.02829775,-0.1880385,-0.18714696,0.058741335,-0.0452422,0.061577484,0.058055002,-0.053864256,-0.036235023,-0.072708845,-0.17412068,-0.080018416,-0.11541431,0.013875981,-0.050175082,-0.051641885,0.12822579,0.17504667,-0.13820605,0.03687599,0.07360693,0.04437625,0.036316294,-0.20829663,-0.032178394,-0.021082258,0.08701423,0.015795285,0.050246764,0.13883084,-0.14602815,0.24774031,0.33682206,0.053047437,0.035165112,-0.33203325,-0.018854309,-0.06660328,0.028424181,-0.119605094,-0.0436094,0.09148663,0.057623688,0.022881934,0.006236482,-0.016069185,0.014014842,0.040027067,-0.08948122,0.013738931,-0.012021878,-0.01868887,0.05700902,-0.20639542,0.12327013,0.12677969,0.11769943,0.036192734,0.09751304,0.14206211,-0.010828783,0.19649021,0.07298807,-0.1638199,0.046884544,0.18241566,-0.16229928,-0.09283723,0.020603977,-0.07972263,-0.03947245,0.1019543,0.04755343,0.12757193,-0.077623196,-0.018070439,-0.13567242,-0.024877528,0.14179188,0.13695933,0.13093755,-0.026950028,-0.10301169,0.013282483,0.12803087,-0.12493746,0.15039802,0.22106011,-0.03202471,0.051303454,0.052829657,0.02965409,0.035859622,0.2228667,-0.052447736,-0.104129106,-0.05730246,-0.03091853,0.0010672035,0.085726544,0.067102365,0.023226228,0.14508067,-0.19314305,-0.2267484,0.20341012,0.021541815,0.19251879,-0.11215487,0.15564743,0.11723459,0.10491312,-0.010262106,0.03793036,-0.09811833,0.11092414,0.1622085,-0.1463311,-0.18284285,0.07072186,0.28290668,-0.015697505,-0.0085344585,-0.0015814407,0.15292639,-0.07483441,-0.0014521449,-0.02056081,0.006190207,-0.04137948,-0.16226284,-0.065559246,-0.20161468,0.07104776,-0.09504828,-0.06079333,-0.06962139,0.09609089,-0.049503617,0.061854925,0.15654889,-0.21952529,-0.054382324,0.028757017,0.044279188,0.1013473}, {-0.027189683,-0.013154356,0.2701287,0.07643444,-0.13066885,-0.01907552,-0.15015623,-0.0296036,-0.103003524,-0.036548845,-0.007902953,-0.0843376,-0.07309427,0.0022709721,-0.026906356,-0.1128449,0.073544174,0.025960121,0.01916713,-0.0034654243,-0.16629371,0.15425898,0.068759255,-0.1418902,0.098121874,0.087145194,0.15304367,-0.00490283,-0.0038350995,0.09340874,0.060375076,-0.07951067,-0.052940827,-0.10978656,0.018414967,0.13628027,-0.09298926,0.0127160475,-0.02942675,0.23057969,0.10602657,0.060589664,-0.044146746,-0.019177267,0.074632674,0.10392173,-0.14798723,-0.0767278,-0.0019423999,0.08922386,0.09791306,0.016247202,-0.030920122,0.23149121,0.03753604,0.0027643675,0.013243535,-0.35176498,-0.0790656,0.09609653,0.005303127,0.096424095,0.12212743,-0.05284843,0.053950794,-0.13009569,0.05606432,-0.09890753,-0.06813298,-0.21792008,0.18057007,0.021423195,0.10625434,0.26696092,0.0842152,-0.08794836,-0.29466933,0.10249124,0.022350457,0.074949384,-0.08638795,0.06827973,0.10317007,0.15790413,0.0714856,0.07371963,-0.041656125,0.012328571,0.0772682,0.16745111,-0.0049804216,-0.040514216,0.0584212,0.009714048,-0.06751174,-0.071664296,0.022889124,-0.06414949,0.08256843,0.057660453,-0.11231095,0.023080964,0.039822254,-0.1412822,-0.007733404,0.084744446,0.07042388,0.14791779,-0.03073782,0.12592229,-0.055973466,-0.068407536,0.0849125,0.19834974,-0.03174435,0.06142855,0.007082051,0.028125277,0.11748207,0.07174648,-0.06880994,0.11881932,0.094409436,0.040347863,0.057367086,0.12452972,-0.18692812,0.06594352,-0.08444157,0.28636032,-0.07606626,-0.027175339,0.14756127,0.006313944,0.15734236,0.010415684,0.07397268,0.039405055,0.03319164,0.17477317,0.1975341,0.10965085,-0.077908926,0.09814323,-0.0044209855,0.07443643,0.006787298,0.07907612,-0.14333703,-0.039148986,-0.0073891543,-0.18028656,0.0368583,0.034253832,0.124877736,0.07018773,-0.07956191,0.054551832,-0.1346494,-7.937508e-05,0.18039924,-0.033960227,0.078528136,-0.0732894,0.013161353,0.13059683,-0.3660213,-0.08583741,-0.07076776,0.06659134,-0.0058248807,-0.08072451,-0.036110017,0.06312774,-0.049635373,0.18690939,0.0878813,-0.10530373,-0.06592607,0.08298454,-0.010111892,0.042892225,-0.12090237,0.1049109,0.024069028,0.049946643,0.1264763,0.06892572,-0.25019783,0.051979784,0.14238416,-0.007348032,0.034390822,0.18025237,0.039198436,-0.086877115,-0.04359074,-0.03805209,-0.029536203,0.20495573,-0.072013296,-0.16690217,0.06843989,0.0874013,0.012485722,0.044332035,0.16843434,0.19422165,0.05716042,0.055196088,-0.018788856,-0.26209405,-0.0135376975,0.1851421,0.039081544,0.09474245,-0.09782065,-0.11118884,0.1259638,0.120790154,0.0679839,0.07955494,-0.047559343,0.17180678,0.11696121,0.009369338,0.018795637,0.011230093,-0.022257518,-0.003726284,0.10658609,-0.09094664,0.1228799,0.13592088,-0.15875188,-0.042742006,0.17966293,-0.065957114,-0.0071366574,-0.088560544,-0.017366063,0.2654801,-0.18815385,-0.05544202,-0.09417137,-0.21605258,0.060058717,0.09008831,-0.07778284,0.02486376,-0.12391311,0.004780352,-0.12487178,0.026056977,-0.08581941,-0.14553834}, {-0.11252802,-0.022712097,-0.216817,0.06908479,0.121869035,0.008305461,0.031147867,-0.0025038265,-0.08657791,-0.22454388,-0.0068447753,-0.012582284,0.14098905,0.05171928,0.07490152,-0.21684478,0.1328736,-0.069049686,0.066219114,0.13770248,-0.13825886,-0.015569047,0.029282892,0.072391465,-0.17612027,0.014747413,-0.07421545,0.020552557,0.17177202,-0.07896903,0.058666654,-0.017647171,-0.04894179,-0.2069659,-0.036937747,0.031353742,-0.15390126,-0.023800774,0.054453824,-0.037616435,0.03294645,-0.0917396,-0.13786276,0.1277247,-0.13045213,-0.13178478,-0.031248763,0.095511235,0.03329808,-0.065799706,0.06906712,0.0011427365,-0.0013136421,-0.056113567,-0.024817316,-0.04654954,-0.011490598,-0.04893535,-0.04219863,0.1585806,-0.17307113,-0.17941229,-0.27391216,0.0820805,-0.033006106,-0.0843654,-0.060098927,-0.078721344,-0.0925342,0.16232938,0.09510932,0.07006026,0.051714875,-0.010023794,-0.055593878,0.0026137289,-0.10928242,0.111802846,-0.15485685,-0.15377343,-0.0020808564,-0.088645205,-0.004528586,-0.013583402,-0.0657715,0.036151662,0.10315199,0.1674351,-0.13819206,0.090583235,0.07594943,0.1251072,-0.03139944,-0.12687157,0.08536093,-0.08873868,-0.003190697,0.24405298,0.0077772746,-0.01751056,-0.14364241,0.027871836,0.004521399,-0.029391909,-0.0024850743,-0.26501614,-0.15766633,-0.015579838,-0.022880286,-0.21291658,-0.20304899,0.09688925,-0.28861812,-0.0050682477,-0.20708974,-0.048358377,0.009408017,-0.016272536,0.043590467,0.06490163,-0.0108053265,0.20977363,0.09167379,0.047422085,0.005623372,0.000109743094,0.15162945,-0.11788553,-0.18066415,0.107845806,-0.11585599,0.042237468,-0.11696648,-0.2378305,-0.014364932,0.11329838,-0.10100494,-0.020001484,0.040442776,-0.16074692,0.011534074,0.06379995,0.20132886,-0.014062672,-0.06802628,-0.18061511,-0.034757476,-0.030098788,-0.010271646,0.1403649,-0.10004248,0.017196782,-0.16969272,-0.07480118,0.09949504,-0.031366862,-0.09485694,0.037312683,-0.090544954,0.19002037,0.031230759,-0.010641293,-0.085167475,-0.17819777,-0.15677726,0.029822864,0.09232585,-0.024167448,0.16693158,0.12048674,-0.047774285,-0.02024452,-0.019409198,-0.20872846,0.14832039,0.017574677,-0.10568787,0.08059527,0.07548694,-0.07671463,-0.07846199,0.027886953,-0.0039686346,-0.11479878,0.08148277,-0.23286243,-0.16928177,-0.08589002,0.056321137,-0.07377185,0.16671404,-0.031995997,-0.24364106,0.013841314,0.07944017,-0.07887745,0.025038432,0.20168374,-0.09212243,0.16091315,-0.2433109,0.05161962,-0.12837708,-0.04920095,0.07138332,-0.18444304,0.03738095,-0.009396719,-0.07630023,-0.0717135,0.018356167,0.07100974,0.18121396,-0.0007228925,-0.10213544,0.03873771,-0.05965108,-0.082753964,0.12030008,0.06775905,-0.0022075153,0.17235109,-0.0073286695,-0.020683458,-0.006986358,0.0075470195,0.19716464,0.046910994,0.0027925316,-0.009847918,0.048367053,-0.048595052,-0.16979751,-0.10389385,0.24844593,0.03925625,-0.01985796,-0.0064905044,-0.12789285,0.08880627,-0.1564484,0.02411904,-0.043051362,-0.054402623,-0.14935595,-0.050687347,-0.11591408,-0.14152221,-0.058113456,-0.042144384,-0.046339076,0.07163227,-0.0014768072,0.07521244,0.18721771,0.041375462}, {-0.05373796,-0.07592303,0.10768914,-0.014505748,-0.2017201,-0.098772295,0.045216043,0.012790087,-0.11022537,0.13746373,-0.20115408,-0.21590751,-0.12403492,-0.15211646,0.061068855,0.010875422,0.10061533,0.13009249,-0.13910514,0.030504152,-0.07636274,-0.08011489,0.07452797,0.029951956,-0.0044054473,0.016895842,-0.015651843,-0.05486595,-0.295862,-0.08214129,0.07747519,0.09805714,0.14793669,0.029520571,0.07021402,-0.2220061,0.04074928,-0.003487056,-0.04718175,-0.13129432,0.20863023,-0.051724225,-0.25255874,-0.13697094,0.0015267461,-0.032972645,0.20130536,-0.089258604,-0.13618267,-0.1776826,-0.0040265466,-0.13994668,-0.11415374,0.0359901,-0.1157694,-0.06179943,0.017756646,0.13886304,-0.0702085,-0.095639214,-0.031894423,-0.011663188,-0.08681932,-0.038524978,0.14133161,0.12594853,0.041780896,0.11095541,0.0028740226,-0.05966253,-0.13111982,-0.07307179,-0.24495049,-0.017164957,-0.13127613,-0.03527201,0.12927243,0.14080803,-0.02154145,-0.12824076,-0.12871566,0.0776728,0.14941888,-0.0753508,0.013775963,-0.20537674,0.18066838,-0.1679788,0.09710718,0.09116206,0.122742824,0.09002695,-0.14832538,0.10343412,0.050628643,-0.034305237,-0.0555404,-0.07311238,-0.04202852,-0.17423855,-0.039650217,0.0028864432,0.025753189,-0.17214595,0.010170741,-0.022624595,0.026348853,0.14680736,0.016315935,-0.09735412,-0.06978237,-0.06738435,-0.021467965,0.16574357,-0.025857124,0.016988268,0.08506057,-0.22808178,0.10054066,0.0046388046,0.07915279,-0.15930398,-0.09103458,-0.104941845,-0.19302322,-0.25063518,-0.016161289,-0.037855405,-0.046387456,-0.09604154,-0.082332544,-0.08979404,0.042756222,-0.11327744,0.1551075,0.10717958,0.07479836,-0.1416693,0.11640676,-0.0071486672,0.06684283,-0.026891852,-0.13519602,0.10854404,0.09858136,0.08908245,-0.027806884,0.0568827,-0.11940096,0.019062752,-0.00928159,0.0585065,-0.04708296,0.024544725,-0.08577567,-0.109048374,-0.11476669,0.011654729,-0.06573837,-0.076900415,0.032490443,-0.007928117,-0.008574097,-0.0033493277,-0.049424894,-0.10894115,0.021967467,-0.01935348,-0.053821463,-0.018494993,0.060568374,0.033299245,0.11237784,-0.0012970254,0.040442232,-0.012185653,0.024682682,-0.10751859,0.08230432,0.10741114,-0.06788554,0.052952692,-0.14111967,0.17598902,-0.12709972,-0.13644329,-0.10175347,0.0448281,-0.13439298,-0.18068802,-0.008270769,-0.08066407,-0.18267968,0.07883717,-0.043313805,0.05866117,-0.08392262,-0.059556674,-0.05925698,-0.03221272,-0.0348578,0.093030885,-0.0811195,-0.050072223,-0.091039635,-0.096719734,0.070155405,-0.02427647,-0.11982526,0.016262805,-0.15739867,-0.029651958,-0.07494301,-0.030999169,-0.083138965,-0.2458156,-0.0035430104,0.036287606,-0.09305569,0.039704703,-0.15784957,-0.18699479,-0.061540037,0.1498962,0.08205988,0.070096284,-0.14115076,0.25656867,-0.021962788,0.02626915,-0.055625606,-0.057333115,-0.17050849,-0.08667516,-0.05246558,-0.13215022,0.004790271,-0.10800425,0.15976296,-0.045394976,-0.07639564,-0.03740953,-0.006652152,-0.034573816,0.07597766,-0.013858207,-0.06728167,0.065003954,-0.12873924,-0.0756747,-0.10735872,-0.061053347,-0.04013545,-0.066030465,0.011879933,-0.058334652}, {0.0789641,0.07069412,-0.0027513392,0.16304916,0.06755327,-0.11626117,-0.1413155,-0.027525147,0.12400965,-0.16606212,0.007988323,0.043856803,-0.12908512,-0.08204082,-0.04924535,0.20482592,-0.1919853,0.063360944,0.24495062,-0.08322145,0.19707684,0.35023734,-0.137094,0.069903694,0.04676639,-0.13355972,-0.05165703,0.09830298,0.1367566,0.044108503,-0.20571442,-0.21409759,0.03300669,0.25309208,0.11799844,-0.122721106,0.00946949,-0.08746674,0.13682625,-0.084447294,-0.13348773,0.00029509162,-0.1512055,0.124623366,0.028974336,-0.015495038,0.16268055,-0.0028556446,0.1793628,0.12629847,0.2008706,0.1799193,0.22893463,0.029761825,0.1624439,-0.18991068,0.09924022,0.03629107,0.21202445,-0.014337816,0.1406615,0.22154029,-0.033623144,-0.12873691,0.04038342,-0.025815459,-0.07657846,0.20261575,-0.22489275,-0.13790406,0.014385347,0.027854046,0.189845,-0.124079034,-0.03349977,0.16394114,-0.021372054,0.08429416,0.23829418,0.10081547,0.024887012,0.1831382,0.1236,-0.08151306,0.048281454,-0.01634528,0.14912556,-0.010789704,-0.12979874,-0.007197703,0.12947612,0.15083803,-0.041321304,-0.034620658,-0.054994047,0.0023632362,-0.19491589,-0.14837417,-0.049883712,-0.27667162,-0.008826458,0.011750499,0.034938775,-0.030426638,-0.092551745,0.055332474,-0.051897105,-0.011209464,-0.02315178,0.10138107,0.11940987,0.043404233,0.09743527,-0.2716058,-0.09692931,0.089136206,0.078286834,0.10772893,-0.11187471,0.08722016,0.054967895,0.1044003,-0.0923704,0.035711627,-0.015379379,0.11033004,0.22438893,0.10017646,0.101995975,0.2232389,-0.056791365,0.047046524,-0.073828794,-0.026157897,-0.058053806,0.009664882,0.0027028562,0.047237527,-0.009053042,0.012176838,-0.045456,-0.00432325,-0.11145592,0.054734882,0.100252196,0.093465365,-0.026288405,-0.09344982,-0.048407767,0.034167245,-0.12637964,0.13695887,0.13243264,-0.10693574,-0.027545977,-0.016244961,0.041138776,0.086114824,0.031374898,-0.009468174,-0.13285534,-0.18426931,0.19291368,-0.03087553,-0.2753446,0.16377096,0.21786967,-0.051024374,-0.0075788605,0.13285103,-0.022496132,0.18885718,0.09406409,0.011431336,0.042181477,-0.031007975,0.1605241,0.27956572,-0.06507016,0.07777815,-0.030229468,0.1379052,0.02061837,-0.0022670976,0.10469586,-0.09561723,0.011019334,0.15331802,-0.04628065,0.2089617,-0.039312236,0.060647897,0.19332467,-0.034237694,0.03240026,0.094332576,0.18774977,0.10596675,-0.021704748,0.07353614,-0.19204913,-0.11417668,0.03727479,0.006636089,-0.112594485,-0.19808233,0.09784385,-0.061209366,-0.07734168,0.14069617,0.048099,0.0024066726,0.16300349,-0.023248928,-0.07608673,0.20209552,0.24154253,0.22441481,0.14888419,0.15285695,0.15530816,-0.16725409,0.10654968,0.046744514,0.0032881272,0.31023404,0.11140557,-0.1060415,-0.019467663,-0.07534763,-0.024427945,0.14855015,0.024082243,-0.119083874,0.091596335,-0.08479367,-0.047095224,-0.1668619,-0.07554934,0.13656113,0.010858007,-0.00065711513,0.010107549,-0.014826938,0.10002697,0.016579906,0.16276942,-0.1473485,0.038585603,-0.032438647,-0.013290921,0.07490981,0.03690065,-0.12235015,0.10907938,0.26731336}, {-0.06510033,-0.12649024,0.16281967,-0.1827394,-0.19208567,0.017287424,-0.022002907,-0.03624361,0.06498067,0.086270384,-0.0020744377,-0.1881435,-0.10367184,-0.12574562,0.0558807,-0.032919474,-0.085888505,0.034358136,-0.10650799,-0.05023467,-0.01148325,-0.18268855,-0.19920051,0.109127976,0.03904786,0.03345823,-0.1941392,0.16294453,-0.1864799,-0.043769993,0.16217996,-0.018295111,0.2842936,-0.110622294,0.017556598,-0.23218937,0.043883566,-0.031066388,0.08577518,-0.12180938,0.099684864,0.0014377214,-0.01656751,0.002490171,0.058535844,0.04412377,-0.18896241,-0.07945568,0.08883743,-0.091030166,-0.16139312,0.101656534,0.020414669,-0.0051009725,0.045762002,0.120823555,-0.10682743,-0.060047224,-0.05111294,0.042638987,-0.090172574,-0.10841579,0.025228644,-0.26277107,-0.088017195,0.07298266,-0.13338245,-0.10239957,0.019589897,0.027509067,0.121263385,-0.06454705,-0.18983138,-0.04141927,-0.0006326738,0.091425166,-0.030817978,-0.0018851237,-0.096488036,0.0022378755,-0.09551962,-0.04177589,-0.08122353,-0.04255086,-0.02061663,-0.15320703,-0.10651933,-0.10256002,-0.1572297,-0.037281472,0.05388052,-0.088656425,-0.043286532,0.061072398,-0.17853941,-0.001054202,-0.19787356,0.06998706,-0.08342233,0.19003941,-0.11794931,-0.12170593,-0.14185916,0.017875416,-0.11676184,0.0950675,0.0020270296,-0.07790661,-0.03794185,0.21205829,0.11267304,-0.11466638,-0.036350746,-0.12537903,-0.12001506,-0.18411328,-0.08248449,-0.110901766,-0.0022438061,-0.23824236,0.078644745,-0.13782224,-0.06553526,0.17470315,-0.08360041,-0.00064321037,0.116547875,-0.057934117,-0.04180362,-0.086638,0.0071913395,-0.046539783,-0.16057962,0.047290973,-0.022524124,0.05240484,-0.06521627,-0.14057603,-0.0852116,-0.11610307,0.04647244,-0.09435024,0.10696203,0.078145176,-0.008235065,-0.07302055,-0.042170577,-0.026695829,-0.022783313,-0.023558993,-0.17767866,-0.20131025,-0.22319706,-0.06712487,-0.06721815,-0.06468998,-0.059339557,0.17647637,-0.050272044,-0.23288557,0.09385088,-0.15137883,-0.14560547,-0.0109678,-0.082835495,-0.20684148,-0.029376557,-0.18631284,0.09984751,-0.10889685,0.00955842,0.00725563,0.1810681,0.13950461,-0.04610515,-0.118801296,0.08336569,-0.08018756,-0.123409234,-0.095969245,-0.11168894,-0.067711554,0.066860504,-0.10479815,-0.0679512,-0.23044913,0.12112586,-0.087473944,0.021667635,-0.16880207,-0.18959631,-0.19235945,-0.02580545,-0.21032196,-0.09185095,0.08234593,-0.12386681,0.10395287,-0.06954138,0.062077906,0.005341852,0.08840173,0.10528218,0.01774059,-0.15418355,-0.04656774,0.026170626,-0.086193256,0.098318815,0.016575059,-0.029651685,0.02591904,-0.044216085,0.053170413,-0.038136985,-0.08117396,0.05209097,-0.08748862,-0.14725344,-0.17604241,-0.11279268,-0.024551082,-0.007367888,-0.24292983,-0.1725811,0.072504014,-0.23574094,0.13280286,0.18787733,-0.046061244,-0.16530246,-0.10101274,-0.09680852,0.08092272,-0.008179253,-0.15402149,-0.14092146,0.007777349,0.19471744,0.1714724,-0.08732688,0.05717279,-0.017179007,0.04252253,0.13076174,-0.06286167,0.011811963,-0.026784753,-0.103915095,0.08951635,0.081530616,0.013077044,0.09473085,-0.0046398533,0.05292638,0.08542836}, {-0.11605729,0.05976241,0.019237837,-0.08049216,0.03753055,0.20863353,0.14681958,0.024919529,-0.05461919,-0.07923435,0.11802266,-0.07145197,0.0069480767,-0.10039586,-0.06264654,-0.027413536,0.1044153,-0.08498328,0.003665488,-0.078042276,-0.07541923,-0.13341716,-0.053259417,-0.065245815,-0.0050300625,-0.27972296,-0.13919683,-0.05522688,-0.020332562,-0.12741809,-0.1167161,-0.074648775,-0.105250835,-0.08546876,-0.08029989,0.03774273,-0.012918741,-0.12618917,0.120081015,0.28169847,-0.06813311,-0.002658736,0.17316684,-0.15103815,-0.018272026,0.10500046,-0.13096397,-0.02305348,0.11870026,0.04077355,0.037691303,-0.05695937,0.07143854,0.15604524,0.068825714,0.09150022,0.064148255,0.10052124,-0.15587541,-0.03771449,-0.05039276,-0.010730829,-0.1874385,-0.11594391,0.055368256,-0.2104204,0.19004335,-0.0067979977,0.022952689,0.044611476,0.13517869,0.10523639,-0.026115462,-0.031832222,-0.01721082,-0.030460551,0.013989008,0.2120837,0.02849687,-0.19102266,0.12288877,0.015211222,0.09086029,-0.10191509,-0.066262975,-0.056327675,-0.22042586,-0.046413075,0.08870817,-0.076633535,-0.15397479,0.10179009,0.07156095,0.03676808,-0.0060174335,-0.009585827,0.036055215,0.055739712,-0.26783454,0.035116676,0.03604452,-0.17505941,-0.100195855,0.12085196,-0.010584122,-0.0154526625,0.07613645,-0.18653877,-0.026793642,0.0748034,-0.09473818,-0.11924604,-0.10902976,0.060276687,-0.005924202,0.17345731,-0.015892744,-0.045110952,0.030149722,-0.28343284,-0.019841418,0.046839554,-0.00038492095,-0.04887938,-0.15882868,-0.18598256,0.09744751,0.04160569,-0.23308575,0.16146694,-0.12207055,0.09437625,-0.07314764,0.039065998,-0.13909772,-0.06707296,-0.103681885,0.0012318796,-0.23846564,-0.1927612,-0.10875722,0.06330914,-0.011747152,0.06719773,-0.051137656,-0.06556511,-0.14182343,0.0972508,0.022884432,0.089619525,-0.03534067,-0.15853289,-0.07612714,0.065608695,0.16527438,-0.07832345,0.06507147,0.018211871,-0.09344008,-0.06470813,-0.010892421,-0.03077039,-0.122972295,0.030210052,0.040695816,-0.14615588,0.03037041,0.2526966,0.31463683,0.046075616,-0.02610886,-0.06629462,0.02448159,0.06600804,-0.08415368,-0.023659514,0.06204604,-0.018865252,-0.116957,-0.11671315,-0.047661237,0.056428336,-0.111020274,-0.15307604,-0.113901764,0.0989568,0.1457918,0.3472801,0.17512266,0.23337069,-0.0797192,-0.042774357,0.03424747,0.28351438,0.015900558,0.02817098,-0.020646658,0.012715478,0.10559652,-0.06503047,0.052460194,-0.2968414,-0.19854867,0.06755687,-0.08867803,-0.21944709,-0.22262716,0.029670892,0.12124103,0.053645503,0.12899014,-0.14903377,-0.076495126,-0.017974988,-0.12133046,0.014488788,0.0515652,0.07147122,-0.02416915,0.14034998,0.14205976,-0.02960762,-0.1375812,0.054491032,0.04992602,-0.27833566,0.04025576,-0.18727444,0.0052126315,0.014091262,0.040800348,0.10172082,0.06884424,0.19895211,0.07547382,0.29843846,-0.035752986,-0.05840311,-0.17332213,-0.036586184,0.06490792,0.108161025,-0.049590837,0.09412399,0.027519118,0.07865831,-0.167071,-0.044549335,0.12064896,0.011117275,0.07477944,-0.12821786,-0.11553746,0.0097508645,0.06775533,-0.045240913}, {0.018651936,0.22757518,-0.11190775,0.056570623,0.030384937,0.11102696,-0.029712914,0.008790345,-0.07376055,-0.027315015,0.11276656,-0.0026335968,-0.16749583,-0.12388132,0.042454593,0.07680701,0.11727789,0.07841868,0.08228509,-0.30616143,-0.10214039,-0.19623782,-0.21403517,-0.1629366,0.08683016,-0.12198991,-0.3185563,-0.13987161,-0.11501423,-0.002398039,-0.093438536,0.07882068,0.025166705,-0.036527857,-0.09152469,0.03200066,-0.0684654,-0.1724626,-0.07729765,0.16491534,-0.055869587,-0.0044147656,-0.06136566,-0.15920098,0.11799098,0.033311244,-0.1551992,-0.04322711,-0.119821966,-0.2699584,0.091969445,-0.05493389,-0.050622243,-0.03359969,-0.087578505,-0.16322714,-0.12807943,0.00721775,-0.04136776,-0.053290285,-0.022053052,-0.24111463,-0.16457339,-0.0941096,0.19795552,-0.099442944,-0.1571632,-0.12233549,0.049862247,-0.06858006,0.14545923,-0.002355762,-0.17136024,0.010385493,-0.011849242,-0.25285208,0.048922297,0.031270687,0.019361852,-0.18265639,-0.05049591,-0.024990397,-0.053805545,-0.21037683,-0.22541599,0.12173797,0.08139261,-0.10645618,-0.030771255,-0.0058715246,-0.08413466,-0.007363091,0.052577194,-0.038060278,0.036704667,-0.039373767,0.05123534,-0.06868236,-0.1599791,0.0008795473,0.0023778854,-0.04187717,-0.10807746,0.08262716,0.012077245,0.119241625,0.05004679,-0.059812743,-0.0215083,-0.018694086,0.15954125,-0.19398059,-0.11686308,-0.12385984,0.021727826,-0.060482983,0.06705953,0.06445669,0.07146238,-0.24445409,0.07645121,-0.045303907,0.075923964,-0.17118374,-0.074408315,-0.18483426,0.030030254,-0.1288605,-0.08112417,-0.12924103,-0.08743824,0.17178543,-0.14674613,0.16794854,-0.09390994,-0.048834678,-0.024408069,-0.09657684,-0.0051180758,-0.30116257,-0.18227641,-0.12356679,-0.07070318,0.066009514,0.03891223,0.036118712,0.10225994,0.028112462,-0.07022144,0.028563919,0.06905506,0.21034929,-0.07026944,-0.00039020588,-0.07616602,0.06502646,-0.005745229,-0.021596396,-0.03703556,-0.08228149,-0.06328678,-0.030943459,0.025751967,-0.053366285,-0.014692424,-0.092824325,0.0010404241,0.0020842715,0.11069087,-0.07135406,-0.0038515914,-0.08506966,0.103421286,-0.10351234,-0.15986943,-0.10149433,0.10742245,-0.037792735,-0.035605803,-0.032020543,0.09686614,-0.049274668,-0.0726133,-0.042165965,-0.24772522,-0.048102446,0.033537444,-0.044952657,0.03181331,0.092687435,-0.11380609,-0.17959289,-0.08278876,-0.056603346,-0.017749911,-0.01161528,-0.09796361,-0.21933806,-0.14577146,-0.2904541,-0.083137944,-0.09116835,0.049450234,-0.12901627,-0.23887657,-0.051405523,-0.07419655,-0.1126375,-0.17428133,0.16644752,0.035088465,-0.15614277,-0.27120516,0.047738455,-0.036175597,-0.09284268,0.044881247,0.048630986,0.020048205,0.11700642,-0.0730687,0.03702818,-0.060557775,-0.18442696,0.15072663,-0.031939752,-0.15534185,-0.12243323,-0.017119404,-0.092947885,-0.003020927,-0.08963685,-0.05388524,0.15164326,-0.19662325,0.0014632315,-0.097174436,-0.12213985,-0.18987873,-0.12708658,-0.076658264,0.03150624,-0.010900695,0.03148708,0.20722096,0.14598423,-0.09253267,-0.20738882,-0.07883407,-0.09211044,-0.009076181,0.01266625,0.08736813,-0.109368466,-0.109101534,-0.056487955}, {0.12716623,-0.17048949,0.056835465,-0.005078409,-0.18242456,0.09801533,-0.0025900765,0.035232212,-0.06347519,-0.032031734,-0.10375625,0.12201584,-0.15805362,-0.04522303,0.074775085,0.056123722,0.026829466,0.018502606,-0.20291291,-0.08311373,-0.12874416,0.068240896,-0.06779182,-0.008493814,0.11765944,-0.08117785,0.23706286,-0.010966047,-0.21259496,0.08024633,-0.1177583,0.07003598,-0.007268001,-0.10146224,-0.1582972,-0.053253777,0.10280544,0.08878326,-0.010519245,-0.07408984,0.038138613,-0.03499093,-0.049642313,-0.15730527,0.05516503,0.025536587,-0.014011258,-0.022907242,-0.057320144,-0.23745108,0.030139714,-0.031360578,0.11102762,0.112162225,0.0023339477,-0.18214999,-0.013707461,-0.16023903,0.07014209,0.044572506,-0.079476476,0.11940401,0.030480873,-0.078104556,0.066188686,0.39928722,-0.026230235,-0.029634155,-0.13510719,-0.022195304,0.11253223,0.04370206,0.14820734,-0.025589077,-0.09761683,0.112837024,0.023681551,0.05988015,0.1109532,-0.054159813,0.11597339,0.22193247,0.069171794,-0.114323474,0.03406386,0.1581141,-0.06731522,-0.08628441,0.16747856,0.012573023,0.06748034,0.057783045,-0.15103109,0.011586612,-0.018463628,0.024012145,-0.09524163,0.055560865,0.08590213,0.08573343,0.044036478,0.007273292,-0.055840876,0.041038275,-0.052720938,0.066140704,-0.041487653,0.061593655,-0.116235785,-0.061240386,0.2430733,0.22920816,0.014867085,-0.279531,0.12462134,-0.1397269,-0.07385783,-0.021584097,0.057644695,-0.021968657,0.048697058,-0.0012169551,-0.13400257,-0.054926082,0.23056337,-0.18084379,-0.03943663,0.12664504,0.116808,-0.06858305,0.1833928,-0.047244444,0.16680229,-0.01928996,0.13318323,-0.25503787,0.024737323,-0.29099128,0.06685998,-0.08281202,0.2252652,-0.12557773,-0.0476343,0.16898076,0.036956776,-0.1644304,0.006314565,-0.030883133,0.0534649,-0.01927346,-0.08855728,0.030157188,0.13947871,0.0907546,-0.05881555,0.008330047,-0.11229255,0.0036001916,-0.020227274,-0.022770477,-0.005569043,-0.062806286,0.22158095,0.046183467,-0.067825064,0.016104074,0.030167956,0.001290364,-0.032890093,-0.021500932,-0.090687245,-0.06201805,-0.04285364,0.085649095,0.09511244,-0.19985718,-0.14709651,0.09103943,0.076881565,0.10864596,0.1499491,0.09672623,0.0736229,0.056813147,-0.11181306,0.002625737,-0.11918999,0.1459815,0.104180254,-0.19027694,-0.19902295,-0.015631251,0.07083105,-0.21735105,-0.11374729,0.073711984,-0.22534731,0.016429432,0.2760907,-0.11834824,0.012951555,-0.0043586623,0.09007641,0.0034205217,0.060967784,0.44449863,0.14346528,0.14084312,0.14427367,0.0014441842,0.192005,-0.079848416,0.0330686,0.063627854,-0.08627258,-0.17614335,-0.017516857,-0.03028175,-0.07172431,-0.101010166,0.09309317,0.12873839,-0.019869724,-0.0447339,0.111802705,-0.036648884,-0.031354044,-0.12720148,0.021920918,-0.030989086,-0.27586433,0.19217713,-0.044223852,0.14389643,0.11647943,-0.13030823,0.05179932,0.15472591,-0.06091646,0.020343877,0.1468725,0.008302514,0.0792316,-0.15491855,-0.2162219,0.24566583,-0.06142254,-0.0812445,-0.16322745,-0.15146297,-0.0317763,0.00069223915,0.0014563929,-0.05731686,-0.009835321,-0.025574131}, {0.0945227,-0.11631325,0.21886419,-0.04636912,-0.06316145,-0.050743744,0.06265173,0.045186482,0.04068046,-0.031991668,0.07542077,-0.11223945,0.015076851,0.011883528,-0.10336007,-0.06602186,0.09940029,0.06310533,0.09798371,0.06036762,0.11129697,-0.050580077,0.054326665,0.01585351,-0.178139,0.18757777,0.0020965573,0.09921047,-0.12001478,0.0781079,-0.041854277,-0.009121287,0.03804264,-0.1056264,-0.060939897,0.0044403067,-0.035527043,-0.051610835,0.12766626,-0.01578176,-0.055762246,-0.12950481,-0.073298424,-0.007876557,-0.0860299,0.12763354,0.14993191,-0.2119756,0.12027708,-0.17792588,-0.059326217,0.074188635,0.062762,0.13663642,-0.04090879,0.058674637,-0.11802456,-0.07325542,0.03640667,-0.013194922,-0.07047933,-0.02617848,0.031272538,0.017580166,0.029919613,-0.0777204,-0.011166004,-0.03035004,-0.0961537,0.12945656,-0.08581822,0.021261448,-0.055862036,-0.051424596,-0.007906762,-0.10960876,0.04202002,-0.010705918,-0.0035973527,0.013738303,0.003336886,-0.024624752,-0.05636283,0.015902054,-0.03347768,-0.11137839,-0.1917278,0.12950182,-0.039102122,0.022726977,-0.054825146,-0.11476289,0.15377805,-0.17269723,0.06540846,0.008077024,0.06458189,0.043083563,-0.0007320819,0.08623038,-0.1000783,0.046274077,0.010552629,0.03360181,-0.06529734,0.020597665,0.20855902,0.12913834,0.030733341,0.0029972193,0.059041824,0.027795793,0.08665986,0.040558316,-0.041469973,-0.08574504,-0.12219268,0.15325888,-0.043670658,0.04081497,0.046394248,-0.046475533,-0.17232458,-0.13353041,0.0966456,-0.016626334,-0.08676126,-0.10813341,0.16359279,-0.05610439,-0.009183051,-0.21124339,-0.13736682,-0.09720455,-0.078546695,-0.34154484,-0.047436196,-0.018931866,0.020549018,0.072194815,0.15736432,-0.10653402,0.057640616,0.04240599,0.07214584,0.02945663,0.111789875,-0.23031454,-0.052571397,0.09615975,0.049792573,-0.09163693,-0.010168048,0.07663011,0.0010124272,-0.0879971,-0.039101176,0.11966121,-0.021661766,-0.09140288,-0.056414384,-0.031779848,-0.15040511,0.03112995,-0.0463063,0.059227817,-0.050353356,-0.119301185,0.05177426,-0.007517543,-0.017054226,0.07925791,0.20972298,0.057913475,0.047843315,0.13338998,0.21914333,-0.073426485,0.010438708,0.09040907,-0.14555249,-0.22477509,0.10266618,0.029594604,0.035227466,0.09767454,0.06545925,-0.009039589,-0.117377505,-0.11154347,0.17851901,-0.035199918,-0.1360148,-0.16523781,-0.27705202,-0.063727506,-0.051930748,-0.012466829,0.0024355701,0.1388377,0.06235188,-0.009991154,0.12512808,0.025297914,-0.027435077,0.048359416,0.08806813,0.12554641,-0.0057339757,0.01580181,0.037751887,-0.07284353,-0.09722096,-0.10011908,0.15051287,-0.16729327,-0.09087529,-0.21487921,0.039637443,-0.062053196,-0.087344155,0.10053125,0.009435542,-0.24625285,0.027798314,0.055504084,-0.07347415,-0.12163037,0.026587782,0.022884173,-0.23310398,0.16634552,0.022897523,0.07770049,-0.06950547,-0.056467026,-0.042244025,0.13529383,-0.026339207,0.19716358,-0.10584234,0.16205107,0.016113259,-0.06709584,0.23872726,0.0071051405,0.16035603,-0.08636621,-0.22043577,0.03140931,-0.10341931,-0.0855075,0.11481277,-0.0063673076,-0.14182441,0.069841065}, {-0.1611449,-0.115174524,0.10085756,-0.07023402,-0.1130026,-0.058257636,0.16209172,-0.056622215,-0.046166994,-0.038022485,-0.1582101,-0.012729835,0.042257655,0.014703034,0.12457923,-0.21750738,0.13416514,-0.069167025,-0.10708175,0.14376754,-0.00046199784,0.053468645,0.011349549,0.07938062,-0.0013326518,0.083834976,0.07420764,0.15820828,-0.24936171,0.058001015,0.10214895,0.13569042,-0.10006983,0.024336644,0.050228287,-0.1043751,-0.035278875,0.17443018,0.06740008,-0.08734982,0.27020302,-0.0013766764,0.15170506,0.0576063,-0.17092612,-0.064577855,-0.092714645,-0.10709105,0.07206666,-0.18017887,-0.060400557,-0.1675669,-0.07229704,0.09578004,0.06031695,0.09928911,-0.010480365,-0.14387853,-0.12512837,-0.03572804,-0.03589548,0.060865887,0.1248413,0.1283415,0.1712706,0.18126605,0.062792026,-0.18598422,0.051730223,0.24031046,0.1282712,0.048792057,-0.01717675,0.021729225,-0.15388542,0.07464612,-0.20647258,0.120556965,-0.17258132,-0.026168684,0.025103157,0.023880932,-0.021069588,-0.10543678,-0.08612333,0.0048993886,-0.039392572,0.1449855,-0.084176876,-0.087751195,0.116109945,0.010212563,-0.07951709,0.12602371,0.005743359,-0.073969245,-0.3359892,0.15641733,-0.06022761,0.018204845,0.05805359,-0.1786097,-0.15967207,-0.07322991,0.16501181,-0.03282146,-0.12126053,0.047051985,-0.08248176,0.0066889343,-0.11574651,-0.02277049,-0.07863794,0.11913711,-0.116279684,-0.0069837095,0.05154333,0.29523998,-0.058834165,-0.10204675,-0.029844599,0.12402071,0.16297272,-0.02800759,-0.08682676,-0.11089696,0.07892241,-0.18792744,0.00060257764,-0.17567523,0.039057653,-0.02013114,-0.019375538,-0.29478222,0.034207385,-0.14438699,0.09458401,0.065703206,-0.08412614,-0.09727306,0.15388766,-0.12322468,0.1871523,-0.21509838,-0.098223336,-0.065742634,0.09148063,0.00066267076,-0.08728367,-0.089845814,-0.05995708,0.053051762,0.058339015,0.0035940432,0.18807934,0.009041545,-0.050363798,-0.19123207,-0.046655,0.0147102,0.014601236,0.07004716,-0.20087798,-0.081228845,-0.016065897,-0.12937757,0.12398613,-0.05093306,-0.19920847,-0.10020587,-0.10957886,-0.0060718907,-0.10646322,0.1992744,0.038115043,0.0031846457,0.12568226,-0.02823221,-0.09987763,-0.061207175,-0.04333257,-0.046206526,0.13289848,-0.05189315,0.20221816,-0.17199993,-0.14249593,-0.28611413,-0.015985865,-0.11760078,0.24058908,-0.17536591,-0.02041475,-0.19639716,-0.049243923,-0.079662085,0.0047245882,0.1544962,-0.038890354,0.13230337,0.011039487,0.22307554,0.06492891,-0.059183713,0.18506052,-0.060217902,-0.01291042,0.045525063,0.008413954,0.023099622,-0.11818588,0.023854971,0.025774885,-0.0071597984,-0.20772967,-0.20072909,-0.1897919,-0.19167262,0.14809674,-0.28428087,-0.048108477,0.059270754,-0.08219643,0.035636876,-0.043229386,0.06533393,-0.10178202,0.057931248,0.08902251,-0.07659402,0.012156048,0.026847485,-0.15464678,-0.01900139,0.0022498115,-0.05019718,0.16739634,0.108158424,-0.11952867,0.22764385,-0.029175362,-0.094217524,-0.03267873,0.11478378,0.009998399,-0.08058731,0.031704906,0.112712145,-0.24527557,0.07903259,0.009471787,-0.12152046,-0.002462837,-0.012312672,0.052914616,-0.10116632}, {-0.049306948,-0.11766068,-0.0888313,0.12881958,0.0523521,-0.0004980941,-0.26173857,-0.02721231,0.07546248,0.09385484,-0.13289258,-0.15792511,-0.14907114,0.0022001094,-0.006792649,-0.013008219,-0.052962642,0.08716292,0.075350605,0.07878078,0.0738312,0.32515743,0.21240927,-0.037049554,0.030140832,0.20098451,0.2512058,-0.118363045,0.03088312,0.10696978,0.109047,-0.19327085,0.012311158,0.01059949,0.10860822,-0.17035681,-0.14535819,0.07998264,-0.120623216,-0.13603391,-0.19029501,-0.031340495,-0.21448879,0.035498623,-0.010952099,-0.10407708,0.08132293,0.22868757,0.017436607,0.046532746,0.016218897,-0.010217319,-0.022586359,-0.012936858,-0.020589558,-0.124361016,-0.0699827,-0.015424116,-0.16609624,0.16051158,-0.057225525,0.20088503,0.22942598,-0.1281064,-0.08390547,0.2838563,-0.005670112,-0.06830297,0.093821324,-0.14833143,-0.11003934,-0.098519176,0.13877998,-0.0502508,-0.13651623,0.011019975,0.027259586,-0.03728022,0.085338145,0.04073676,0.024205448,-0.17553714,-0.021643829,0.032584053,-0.08434354,0.038667753,0.19716091,0.12826142,-0.1624943,-0.005626745,0.25605562,-0.018415168,-0.11946097,0.21336088,-0.14305985,-0.15347882,-0.006088198,-0.08916218,0.24737722,-0.10015248,-0.021447552,0.17343824,0.0058788313,-0.041684806,0.14400163,0.005307783,-0.029341571,0.014180524,0.01924868,-0.08373924,-0.072590835,0.12786382,0.07504331,-0.08832725,0.032674227,0.10503664,-0.12324646,-0.05257872,-0.12868413,0.13131323,-0.009939779,0.0020505008,-0.1054428,-0.037567817,0.18856554,0.14940163,-0.16946301,0.119437605,0.12453495,-0.054488443,0.11184126,-0.19032519,0.14757806,0.037943278,0.070539646,0.035635434,0.0992675,-0.007528364,0.03012284,0.07909781,0.104815446,0.101319626,0.08610703,0.047427334,0.114002235,-0.07755457,-0.11863414,0.037377857,-0.161364,-0.08510337,-0.2397369,-0.12564257,0.173722,-0.06617692,-0.10431729,0.08138764,-0.043749277,0.13118997,-0.13634461,-0.028223658,-0.06703487,-0.04167346,0.15987292,0.021950873,-0.08628856,0.13155316,0.16514735,-0.2201365,-0.09779951,-0.03354245,-0.16412781,-0.0068021063,-0.14044298,0.05836856,0.09408203,-0.09106833,-0.043927755,0.0014628684,-0.037152752,0.02730981,0.07644991,0.03750977,0.08703921,-0.087572135,-0.0035060209,0.2126443,0.011220695,-0.1613088,-0.12364906,-0.10405936,0.028806113,0.059776682,0.035318412,-0.24088706,0.039385624,0.023366254,-0.0426994,0.050948273,-0.12414131,0.12129938,-0.17288302,0.16869493,0.06331785,-0.09771492,0.0018217105,0.21842712,0.2007681,0.04366118,-0.026674233,-0.09984803,-0.13356078,0.08079687,-0.008863932,-0.019319477,0.050926633,-0.14710926,0.04745922,-0.005492436,0.16125469,-0.08811905,0.036259204,-0.022299647,0.06368569,0.09412324,0.008355347,0.17123,0.00071307155,0.22918846,0.16211762,0.03927872,-0.027188975,0.09958586,-0.022429692,-0.10407306,-0.007647083,-0.19914684,0.16832565,0.051437687,0.04125842,-0.059577137,0.00010624434,0.06852898,-0.08086552,-0.25715598,-0.13402389,-0.028627725,0.13622169,0.097660996,-0.0067466083,0.013574359,-0.0703218,0.06921076,0.14241686,-0.100102715,-0.1475098,-0.027145473}, {-0.0020875777,-0.07123161,0.06510169,0.043102637,0.053596176,-0.0358632,0.08226765,0.020555217,0.15203509,0.02727801,0.06214484,0.18041885,0.06610385,0.04426206,0.08082288,-0.0063781734,-0.10394848,0.07400407,0.2908496,0.06660575,0.27364302,0.09685319,0.15981875,-0.03406354,0.07743387,0.011809598,0.09733892,-0.14814751,0.11642644,-0.06895529,0.062153462,-0.09319223,-0.019915909,0.021865845,0.031074315,0.09193742,0.1586529,0.054368127,0.04004132,0.02286309,-0.0041352236,0.21747306,0.062212754,0.07076089,-0.046823964,-0.12681404,0.09070795,-0.03384941,-0.0065608514,0.3683394,0.081909165,0.08203992,0.0994686,0.15205772,0.19954093,-0.028411532,0.16835028,-0.026293073,0.18318778,-0.010275003,0.004828515,0.11538714,0.14529778,0.15335162,0.034569018,-0.021258133,0.01165824,0.19024362,0.023383183,-0.13845982,-0.047287986,-0.123242,-0.03344651,0.14230414,0.23945658,-0.034992654,0.004831503,0.19257708,0.115437135,-0.01871031,-0.0013484807,-0.045225933,0.16763785,0.16406164,0.09263407,0.05075327,0.20601942,0.15814278,0.06962523,0.2700605,0.14823727,0.028057251,-0.051609524,-0.011559631,0.027828095,-0.04805364,0.08663583,-0.00018669841,0.044301547,-0.021303134,-0.008572072,0.14863,0.170108,0.007510827,0.23161316,-0.073971145,0.0791546,0.148625,0.05061079,0.11073842,0.1310056,-0.0067765284,0.12894541,0.069159426,0.11523128,-0.06262108,0.17808056,0.28227872,-0.032445658,0.039837938,-0.20019083,0.16336483,0.110022314,0.08485682,0.020082496,0.1698167,0.12647644,-0.002372419,0.06523023,0.30827093,0.1312988,-0.11513118,0.10615491,0.20669977,0.11767902,0.055690333,0.27035794,0.0633964,0.071655355,0.10031361,-0.058019057,0.013449965,-0.081756055,-0.024870684,-0.004914668,0.29854026,0.042503387,0.051107597,0.0711618,-0.07554655,0.19679958,0.13309781,0.06251574,0.0514615,0.034472957,0.18380621,0.033118725,-0.112915404,-0.006721074,0.16310452,-0.061928928,0.14688079,0.05167942,0.14040786,-0.050042536,0.327548,0.3143196,0.017611064,-0.013744019,0.24957818,-0.1143937,-0.13286997,-0.18896297,0.16733083,-0.14237091,0.060314685,0.21767363,0.024704145,0.14811933,0.089396976,0.12860805,0.1115601,-0.07884918,0.13923319,0.12862593,0.10420609,-0.20897985,-0.10923951,-0.160129,0.07323598,0.022749519,0.10988534,0.029560952,0.18371879,-0.08496167,-0.051468562,0.204028,0.043413527,0.023715165,0.16204655,-0.0045046634,-0.0038242873,0.005598988,0.055934656,-0.019269798,-0.05725727,0.06686672,-0.021618508,-0.04164401,0.12809563,0.027393365,0.0982575,0.058429778,-0.054863703,0.07012825,0.35460714,-0.1887021,0.18954776,0.06854271,0.099040195,-0.013928751,0.039450962,0.101150796,0.18376869,0.17526138,0.07506815,0.072994605,-0.01946524,0.08282051,0.028845007,0.27099562,-0.014961075,0.0005827603,0.17459829,0.119368345,-0.007911893,0.2365119,-0.09235871,0.0002200707,0.14452386,0.043676287,0.045494065,-0.07210357,-0.060841482,-0.093510516,0.026315099,0.15386458,-0.16276465,0.039825846,-0.010973648,-0.023749515,-0.07479502,0.08641378,0.04843926,-0.04432102,0.03201729}, {0.11254812,0.019032324,-0.037422348,-0.022783449,-0.054695398,-0.106111154,0.15217121,-0.12981744,-0.071537286,-0.0023122663,0.039943628,-0.06263574,0.07457063,-0.2006286,0.04316384,-0.17849466,0.1124945,-0.14458124,-0.10127194,-0.085336775,-0.08906792,-0.10360637,-0.15244031,0.043931615,0.041036937,0.15385993,-0.18823828,-0.02065241,0.041213598,-0.013264785,-0.108834036,0.087764874,0.11844435,0.011270976,0.030933227,0.02766672,-0.11456961,-0.070283614,-0.017518537,0.10213784,0.08321653,0.09601036,-0.0064272624,0.07392375,0.08164475,-0.012809684,-0.1075092,-0.21224764,0.1837141,0.12043423,-0.02710534,0.07808996,0.10219364,-0.10751096,-0.05012261,0.049167987,-0.084153615,0.005954538,0.009680389,-0.016950777,-0.29017708,-0.12506042,-0.028241737,0.052863028,0.040155362,-0.18802908,0.0621571,-0.06637426,0.022219468,0.0249752,0.014715682,0.026391543,0.05861972,-0.03732961,-0.10961257,0.044853635,0.016839877,0.035121873,-0.008162862,0.039098386,0.06408603,-0.11930458,-0.03960437,-0.19547658,-0.0022178288,0.10040048,-0.25349787,0.105014816,-0.035145905,-0.16950244,-0.061644677,-0.26354858,-0.12330909,-0.103730984,-0.15659744,-0.011688826,0.11385102,0.022270925,-0.17833997,0.13948448,-0.087083,-0.10597504,-0.18198194,0.09281663,0.020007454,-0.094973326,0.03456554,-0.022334263,0.14547756,-0.021919562,-0.0097186,0.06654059,-0.11936794,0.05803585,-0.18586017,0.039403938,0.0451504,-0.0028329024,-0.0012063499,-0.16219752,0.09088001,-0.047697656,0.06735312,0.05328055,-0.14085594,-0.27840567,0.13083486,-0.06369821,-0.15255478,-0.082366034,-0.1143654,0.073020644,-0.13951677,-0.011385083,-0.1148954,-0.10268111,-0.07645279,-0.0152844535,-0.08194573,-0.16414906,0.026559465,-0.02265531,0.22190805,-0.09968817,-0.2052959,-0.16937315,-0.07482793,-0.20807683,-0.055635985,0.12150649,-0.15212744,-0.13706917,-0.13919398,0.04312718,-0.08659213,-0.060384344,0.0018899641,0.28654706,-0.1932393,0.016196955,-0.048607215,-0.0013304102,-0.2772566,-0.03779374,0.10497233,0.03203878,0.11327086,0.0018654856,0.14549716,0.028701574,-0.05540645,0.04342964,9.2417584e-05,-0.017809218,0.06356975,-0.047440913,-0.07766551,0.0016393352,-0.19151467,-0.101788096,-0.061046436,-0.19261803,0.018669607,-0.1088214,0.097241506,-0.23037341,-0.015634365,0.15644637,0.17853594,0.0085602505,0.003239752,0.033537254,-0.09123976,0.14195521,0.010086567,-0.19600557,0.0027278499,0.21905918,-0.05504217,0.009959192,-0.14834762,-0.06279153,-0.08567253,0.03300384,0.06297412,-0.12670577,-0.083920084,0.07889652,0.15739399,-0.004155143,0.02830513,0.020801617,-0.05027128,-0.019091092,-0.016659481,0.12855399,-0.021834062,-0.18274808,0.031772256,-0.18124166,-0.06974083,0.006512763,-0.071584776,-0.13210209,-0.25183836,-0.20663239,0.105831124,-0.05285876,-0.010179173,0.046686526,-0.0043036183,-0.09863636,0.025443275,0.065705545,0.11591406,-0.091583595,-0.11512467,0.11000456,-0.061232716,0.01779055,-0.23379081,-0.13592507,0.10223776,0.067484245,0.16355722,-0.074496694,-0.09614069,-0.007998863,-0.018368553,0.085663304,0.019436274,-0.13559386,-0.09661397,0.089424685,0.03562043,-0.22836784}, {0.047936097,-0.11695188,-0.070200674,-0.070156306,0.07359543,0.050783906,-0.23174214,-0.027657881,-0.014138515,0.001314445,0.028306654,0.06289759,0.12841165,0.11770852,-0.063016385,0.006706021,-0.0063574957,0.07466065,-0.011267334,0.12516786,-0.07584803,-0.24781281,0.0153079415,0.02070308,0.02618036,0.017909398,-0.17693368,0.1375626,-0.16282313,0.22412778,-0.103196576,0.08386233,0.10215732,-0.0008729214,-0.106144376,0.084112175,0.0728634,0.043588653,0.056128588,0.052016452,0.15276018,0.047648102,0.021601975,0.010048017,0.08336469,0.06625573,0.07738446,-0.10946276,-0.054624047,-0.087002344,0.09357417,0.01911148,-0.002729989,-0.017915545,0.06787972,0.04045536,-0.037665732,0.16990845,-0.08359239,-0.14326689,-0.07728042,-0.21249138,-0.071900174,-0.04159979,0.09455773,-0.2515728,-0.0930634,0.072791606,-0.11782205,0.11860192,0.08488831,-0.13756052,-0.14957505,-0.049555626,0.07462326,-0.0833038,0.041449916,-0.012256189,-0.017043486,-0.08305203,-0.12471577,0.07137756,0.11612655,-0.12094323,-0.056396954,-0.1524274,0.068786666,-0.121466786,-0.101281434,-0.15791939,-0.118339784,0.030250233,-0.10584652,-0.2552471,0.011154683,0.10899264,0.24157633,-0.19870289,-0.20965822,-0.14169247,0.03274154,-0.13431957,-0.015976578,0.0070907464,-0.11768348,0.017668491,-0.2644141,-0.08509925,-0.0016730111,-0.08620868,-0.061578102,-0.034186237,0.048408873,-0.00226069,-0.09907419,0.009801275,-0.0047540306,-0.034970198,0.063883804,-0.084863156,0.083348274,-0.15896998,-0.18070783,-0.116772346,-0.22142492,-0.02908165,-0.20512982,0.13085905,0.030110354,-0.12399081,-0.08333241,-0.08020743,-0.21091636,0.10036914,-0.028219456,0.21128152,-0.07937973,0.02812313,-0.08156596,0.03847488,0.11195908,0.079048745,0.24311708,-0.064663514,0.08591082,-0.033327676,-0.04337712,0.0021286637,-0.13706753,-0.03252922,0.034877922,-0.0008773131,-0.10261343,0.05410089,0.049681783,0.06726689,0.13891837,-0.10888493,0.05462888,0.11052884,-0.13832776,-0.02940759,-0.12363203,-0.23310935,0.13806067,-0.0853222,-0.023028616,-0.07379319,-0.074049205,0.03501909,0.026106717,0.12956284,0.04413159,-0.10033842,-0.002997276,0.03448303,-0.1707794,-0.18369879,0.0008627995,0.020284731,0.008531765,-0.15854442,0.22670391,-0.013720707,-0.012869316,-0.052486807,0.06619101,0.012240976,-0.017204495,0.0135010835,0.059671476,-0.16143283,0.017041534,-0.08087566,0.097420104,-0.031773746,0.18764581,0.20293993,-0.117457025,0.05659586,-0.002657385,-0.061905995,0.057975076,-0.084356286,-0.056421675,-0.28286165,-0.32111827,0.058397267,-0.06977413,-0.017123654,-0.057739098,0.0067760213,-0.058950044,0.03486943,-0.11050556,-0.04493372,0.17623784,0.11537895,-0.12029384,0.16558431,0.009000226,-0.047598436,-0.17147128,-0.11192945,-0.25449675,-0.010779274,-0.22512801,0.0942976,-0.028422082,0.057727512,-0.13876541,-0.14944203,-0.15376449,-0.0799527,-0.22702768,0.012574146,0.013817485,-0.24831061,-0.20444508,-0.116112046,-0.054563064,-0.08423568,0.041891005,0.21356203,-0.02757102,-0.17825638,-0.07661066,-0.07177329,0.13186866,0.1315634,0.032418862,-0.013657921,0.28529072,-0.04909487,-0.028854463,-0.083934166}, {0.07056529,0.054182783,-0.048455335,0.03563878,-0.046355214,0.002595423,0.006707123,0.213111,0.098067105,-0.075239636,-0.033491973,-0.14036648,0.025683168,-0.011751917,-0.089327976,0.14760356,0.046806425,0.07968243,0.04272964,-0.062031608,-0.08468522,-0.012900928,0.13579647,-0.029125495,-0.055146422,-0.14109801,0.03747832,-0.018852217,-0.014718435,0.12040943,-0.1327839,-0.094216876,0.0058899457,-0.14265332,-0.060923085,0.052135266,-0.008197801,-0.12332587,0.013311553,0.18867318,-0.017900867,0.009923477,-0.063350186,-0.002315158,-0.12066794,0.09699789,-0.1630587,0.036201026,-0.0008242839,0.08236215,-0.056574065,-0.055307448,-0.058398508,-0.09988268,-0.023690093,-0.19172265,0.19717927,0.051730566,-0.08185592,-0.08622486,0.051133633,0.034342363,-0.011645501,-0.0348209,0.033759534,-0.14527895,-0.029438645,-0.19795035,0.058265943,-0.08443371,-0.17774412,-0.02883166,0.09185378,-0.017012442,-0.030021226,-0.10023715,0.02530585,0.020826727,0.14352728,-0.096749574,-0.051611155,0.094128795,-0.004628888,0.047173783,0.013176906,0.14053689,-0.00330718,0.025090672,0.13683122,-0.008939918,0.025023807,0.14969318,-0.07802741,0.1451966,0.010985709,-0.22349156,0.07104773,0.118892215,-0.14829552,0.06831895,0.0065857815,-0.23046832,-0.03438859,0.03932487,-0.0022299606,0.043092463,0.0026091966,-0.10458395,0.003118315,0.095998555,-0.06581307,-0.0015638252,0.08504063,0.08967071,0.16365018,-0.015876194,0.11611077,-0.020381866,-0.19486426,-0.20698018,0.032770295,0.05179392,-0.18175507,-0.006272253,0.020000832,0.13302298,-0.004048307,0.06814738,-0.11412378,-0.08291672,0.024482917,0.037877295,-0.012987344,0.049427327,0.093135744,-0.074590005,0.054027047,0.055238258,-0.2673881,0.005999255,-0.13619709,-0.07790855,-0.14541672,-0.13924411,0.06977023,-0.09853067,-0.10947607,0.1569888,-0.014320836,-0.080206536,-0.062488526,0.03912337,0.03266824,0.012601308,0.024864813,0.020378739,-0.0066039227,0.012744136,-0.013486574,-0.015884226,-0.041767698,-0.0955494,0.07548351,-0.027292376,-0.14559904,-0.095052846,-0.16841742,-0.06889621,0.01747874,-0.16119178,-0.0826604,-0.05132097,-0.09283108,-0.027480703,-0.113814026,-0.097309,0.09426018,0.059444692,-0.17950222,-0.07755649,0.09012777,0.16550897,-0.057828642,-0.025947431,0.02102267,0.026086874,0.11073566,0.043378152,0.06747959,0.16093627,-0.070273325,-0.061528064,0.044364624,0.057685457,0.13232647,0.060737427,-0.12581578,-0.082186006,0.1093969,-0.11769231,-0.022947982,-0.196518,-0.14792244,-0.09662725,-0.0067121196,-0.24399778,0.04842538,0.12573978,-0.12980646,-0.009353885,0.15007453,-0.2322817,-0.23138815,-0.1395971,-0.03636107,-0.07136431,0.10053372,-0.028758423,0.13220528,0.08540739,-0.04328758,-0.048177905,0.008608404,0.021815496,-0.020015674,-0.14756922,0.05472374,-0.17723188,0.06996993,-0.08793832,-0.023162501,0.032490663,-0.026299752,0.2380434,0.025410632,0.030390598,-0.011199159,0.1457884,-0.0019622215,-0.22036551,0.03318192,-0.0014519508,0.0022815228,-0.0919235,0.079379246,0.02326852,0.0034446677,0.039910108,0.013889541,0.08515096,-0.0665298,-0.023567474,-0.14639969,-0.056033023,-0.03916585,-0.01802009}, {-0.11472313,0.049010813,-0.040090673,-0.14959714,-0.09523874,-0.08541869,-0.12622173,0.123569086,-0.005603665,-0.12369977,-0.06560902,-0.027359392,0.018928126,-0.072781205,-0.007217323,0.12037409,-0.07250141,0.0975671,0.19740288,-0.1300479,0.12761457,-0.030961327,-0.15427947,0.0070539475,-0.010715385,0.24722871,-0.14648724,-0.06558727,-0.07249956,-0.015207155,0.109130174,0.0030805652,0.086549215,-0.053556897,-0.19228087,0.022684138,-0.049985014,-0.12908415,-0.015410031,-0.0144716995,-0.07063323,0.18327634,-0.09785703,-0.051947612,0.03160372,-0.087834135,-0.011205292,-0.18389785,-0.025865043,-0.18822087,0.14530458,-0.021354094,-0.111781634,-0.15317787,-0.0014870923,-0.03277796,-0.15785988,-0.06809973,0.05049851,-0.10424087,-0.09689172,-0.07008387,-0.0767442,-0.1151475,-0.080384806,0.013296609,-0.10010822,0.016512124,0.015951099,-0.17175955,-0.15217376,-0.067520104,0.11194396,-0.10807412,-0.05291499,0.018365676,-0.016638689,-0.18059067,0.044993363,-0.107469626,-0.18196882,0.014682759,-0.06251678,-0.032054145,0.13731761,0.028571434,0.12945926,-0.044865575,-0.18759096,0.14437994,0.017734881,-0.11954994,-0.123657875,0.09428905,-0.1558492,-0.13677624,0.011207878,0.038847998,-0.15437613,-0.022257905,-0.15789905,0.15872917,0.02192789,-0.14967714,-0.061565284,0.06935757,-0.020475341,0.19714175,-0.073788956,0.03299595,0.20475417,0.05103716,0.05799445,0.06822437,-0.10364224,0.012504383,0.046620585,0.10387505,-0.12003567,-0.021623839,-0.1737784,0.0018668652,-0.029132716,0.019841691,0.04303997,0.042218484,-0.14289434,-0.16560182,-0.010805669,0.054031227,-0.17473514,-0.18594927,-0.10521326,-0.02500619,-0.15768072,-0.20928133,-0.030436078,-0.025063716,0.2084915,0.049739733,-0.19832778,0.097393826,-0.10552939,-0.19705302,0.113184735,-0.06491241,-0.017423624,-0.12824951,0.009159017,0.017392462,0.026991084,-0.02430372,0.053776085,0.010359703,-0.087917276,0.041801456,0.04497595,0.19239649,-0.030994628,-0.013427005,-0.026461674,0.1804189,-0.03907127,0.043420818,0.01542461,0.03305959,-0.060095746,-0.079388574,0.020090887,0.12833524,-0.0062789917,-0.09265311,-0.031056674,-0.13603492,-0.17134616,0.045371912,0.25395048,0.080764644,-0.1481227,-0.090867564,-0.13516214,-0.14106464,-0.15903239,0.108352035,0.015467562,0.043589253,-0.035930257,-0.07390871,-0.07928912,0.058434546,-0.05535044,0.18982795,-0.14662862,-0.11104587,-0.0045022853,-0.11122644,0.032624222,-0.13180889,-0.16574872,-0.0074594524,0.03407916,-0.15634619,-0.1378639,-0.07903899,0.01788928,-0.08929543,0.09826577,0.10983794,-0.09622199,0.03251812,-0.1252577,0.08524804,-0.16451776,-0.104014516,0.020938177,-0.013969768,0.101041645,-0.07774692,0.0876409,-0.16561936,-0.09375086,-0.12099811,-0.040153615,-0.105141595,-0.077765144,-0.04571545,-0.08016529,-0.15683524,-0.042044602,-0.1173604,-0.11709651,-0.048814807,-0.09524382,-0.07371176,-0.020131385,-0.18936212,0.012515125,0.06186805,-0.013116352,-0.17196433,-0.11431476,0.15293299,-0.09319042,-0.12242496,0.28984368,-0.024348173,-0.09495881,-0.024663312,-0.011118603,-0.06367339,-0.01144607,-0.0290404,0.10383599,-0.063887455,-0.05179353,0.07516475}, {0.052358348,-0.08996859,0.056554236,0.024331708,0.0070587546,-0.104335144,0.017973365,-0.009557519,-0.094820246,-0.032027494,-0.097729065,-0.010781452,0.016527874,-0.0049116584,0.20611097,-0.083767585,0.18564165,0.0010146283,-0.14683384,0.100290105,0.033589933,0.11088263,0.114081316,0.042725496,0.033244357,0.056695268,-0.011809783,0.053971186,0.05285429,-0.09076618,-0.03212979,0.059379928,0.0056220763,-0.06311738,0.21696052,-0.04662127,-0.06610874,-0.1169712,-0.014704374,-0.08965391,0.08583475,-0.044384837,0.095751986,0.103542484,-0.1413671,-0.05677972,0.1350172,0.16273418,0.04068275,-0.26692843,-0.048327874,-0.004955555,-0.09625345,0.055493884,0.09270111,0.07466186,0.046559487,0.061672546,0.006036349,0.024028476,-0.0074710674,-0.14738269,-0.14199968,0.019833269,0.016001746,-0.05179478,-0.0060061878,0.11306862,0.03857083,0.15468177,0.24014816,0.07001285,-0.024900125,-0.095423445,0.036568064,0.10522629,-0.0859068,-0.02368714,0.016418828,-0.009872778,0.106891826,-0.03892291,-0.054132197,-0.1571559,0.039816033,0.010212894,0.12240983,-0.041500557,0.0016653249,-0.21385305,0.10155537,0.16345075,0.018635517,0.09960082,0.124987334,-0.0013894743,-0.025566218,0.12134618,-0.048189037,-0.15808594,0.0976935,-0.05478161,-0.0582927,0.042975925,0.013152157,-0.113900416,-0.0008545071,-0.06293923,0.1523994,-0.18642291,-0.21769936,0.04726883,-0.08712019,0.16082016,-0.22237179,0.019470999,0.110422365,0.030283552,0.049252152,-0.03938635,0.10470528,0.18554428,0.01420472,0.002339557,-0.2937351,-0.11915725,0.17074005,-0.020383922,-0.052962214,-0.06023078,-0.052971985,0.05727722,-0.14316995,-0.25850147,0.04597993,0.13863866,0.0051996014,0.18914744,-0.1486103,-0.10188698,0.07251902,-0.12369177,0.07451565,0.086407214,0.026390765,-0.014528453,0.14202093,0.01072078,-0.04197769,-0.11986737,-0.19816475,0.11999448,-0.013926367,-0.051699337,-0.02434774,-0.073682316,-0.049591668,-0.22950941,0.04789026,-0.055249292,-0.12123992,-0.22359988,-0.126465,-0.05888812,-0.031336546,-0.25327787,0.23263526,-0.016213218,0.14711864,-0.17385842,0.05517333,0.11164615,-0.105132915,-0.11619755,0.11010379,-0.10790578,-0.065733396,0.0032038917,0.009829922,-0.068492554,-0.012954938,0.013578725,0.122793876,-0.12343607,0.04460056,-0.16614145,0.044027716,-0.06454929,0.01692929,-0.0817996,0.20404518,-0.27117634,-0.109357625,0.07505512,0.020620147,-0.059653413,