#pragma once
#define W_LSTM_KERNEL_I {{0.004227906,0.21088359,0.0736526,0.120486885,0.03126856,0.07311468,-0.09481032,0.092016295,0.1708819,0.11006378,0.007349771,0.039105613,0.20579554,0.074831724,0.2287794,0.09287077,0.14350562,0.031505063,0.027293792,0.006518743,0.07199389,0.09134252,0.053582568,0.0567872,0.102290414,0.03531666,0.06448901,-0.003846271,0.07141922,0.15107031,0.054838724,0.03881216,0.13543022,0.12499358,0.0040004165,0.108856045,0.16632636,0.15328807,0.2179826,0.046290737,-0.037762977,-0.047259357,0.08856142,0.038764983,0.039519902,0.038673155,-0.028494367,0.06577009,0.11932178,-0.20841849,0.09237716,0.08941939,0.0451371,0.09557625,-0.033337194,0.060732163,0.15676132,0.09340139,0.16280167,0.00841097,0.075615555,0.07971285,0.17002267,0.17665373,0.14881209,0.006361268,0.029300235,0.10976696,0.0682455,0.103989094,0.007683121,0.14378563,0.16409448,-0.059531536,0.14804325,0.07672297,0.09281312,0.0900204,0.15415657,0.12644705,0.14409216,0.16028418,0.01882669,0.06518991,0.091118895,0.011706094,0.071925364,0.030289821,0.17351006,0.102778405,0.16762412,0.058303807,0.093802094,0.083113514,0.09692668,0.1521044,0.1524334,0.060941786,0.09665438,0.03715007,0.102264896,0.021531774,0.08917012,-0.014683492,0.055052694,-0.033556145,0.0070833485,0.15117358,0.066958055,0.04188386,0.18033504,0.092875935,0.11015145,0.044055294,0.06875559,0.15561578,0.05318457,0.067177966,0.120132685,-0.032447167,0.17702305,0.024156917,0.078778535,0.095093705,0.1860395,0.10838287,0.12834418,0.034560643,0.11548237,0.009327493,0.041265395,0.08586088,0.10459798,0.2228354,0.1233587,0.041136872,0.1069642,0.0083988905,0.1385261,0.024066424,-0.09779996,0.1474005,0.061390687,0.04799144,0.089360625,0.059283573,0.045801554,0.069305934,0.1582337,0.100171186,0.06283669,0.0734417,0.06306118,0.15839955,0.047871456,0.07848055,0.0382871,0.05207845,0.11816559,0.013260286,0.030769987,0.08417329,0.12775253,0.11219735,0.20759897,0.048795886,-0.007401979,0.17767568,0.28507793,0.06593227,0.08511255,0.034054924,0.08535546,0.11463607,-0.03157879,0.15304838,-0.008996961,0.05264462,-0.01213076,0.06282624,0.23576932,0.06314074,0.07278477,0.022818787,-0.04862602,0.09952023,-0.018268175,0.12523785,0.114281796,-0.08476106,-0.0019898247,0.08302034,0.010872172,0.12902302,0.20890506,0.069745675,0.00082996674,0.061719865,0.06597047,0.06629371,0.13723731,0.11317352,0.0023940953,0.15864164,0.1443749,0.11778063,0.08069879,0.09237103,0.20860384,0.056657135,0.08835684,0.051475342,-0.004132647,0.12989858,0.110194236,-0.14175355,0.09721063,0.19884565,0.106253035,0.108480886,0.0151835345,0.032229923,-0.026745826,0.137812,0.21970408,0.08460446,0.19304152,-0.0024953124,0.0024718759,0.122128986,-0.20664719,0.19105893,-0.07628506,0.1313744,0.1408117,0.064956665,0.017698621,0.17222783,0.017562937,-0.023513027,-0.014492229,0.026016729,0.2408721,-0.009252017,0.08982639,0.0541491,0.059025757,0.18814506,-0.013914391,0.054196194,0.12174752,0.03073062,0.11627921,0.041831303,0.070671774,0.14663738}, {0.065682344,0.1375154,0.05235571,0.16545357,0.05901886,0.18818772,0.015891423,0.12485755,0.19523033,0.13799752,0.087422736,0.10027457,0.102875784,0.070866466,0.17824717,0.06016886,0.009574686,0.029490096,0.016975183,0.02345053,0.12500021,0.033156876,0.048275158,0.03974599,0.11379874,0.0026215483,0.09749781,0.0011594198,0.07905847,0.13529792,0.08964614,0.12815875,0.04075584,0.05364759,0.10741761,0.037037082,0.046297934,0.107029885,0.14431337,0.17493029,-0.030003,-0.029926991,0.028853081,0.05682937,0.11382566,0.019164184,0.055486955,0.064711794,0.019607496,-0.06441196,0.091062985,0.093195744,8.596343e-05,0.15025456,0.029871065,0.15257338,0.10039262,0.1524897,0.17423515,0.0060825534,0.12698752,0.060524326,0.076143034,0.105831176,0.07830277,-0.069667436,0.083683886,0.14280154,0.022393344,0.04710647,0.033995982,0.12304167,0.085215665,0.046929024,0.028869232,0.06548993,0.10987809,0.07814332,0.06522242,0.014222894,0.08512565,0.024334235,-0.04088048,0.03215583,0.10900146,0.015130945,0.13907196,-0.022614062,0.10497831,0.11527244,0.17728247,0.051920015,0.044513796,0.07894312,-0.028797856,0.097850844,0.19188479,0.027160222,0.0677407,0.058161113,0.077760965,0.108558506,-0.017837524,-0.010151413,0.1365783,-0.056641888,0.09870602,0.045869812,0.08431108,0.049559087,0.13866909,0.03382997,0.0728662,0.1110023,0.11285816,0.12673032,0.15199183,0.10322706,0.048256215,0.005444919,0.21071982,-0.0207067,0.21107832,0.061213855,0.15480758,0.027772384,-0.00448045,0.06297705,0.11205843,0.020120274,0.124147154,0.13197796,0.024464952,0.22650756,0.1261989,0.09456721,0.0760859,0.029791076,0.15610819,0.092490725,-0.08596446,0.094873816,0.03288176,0.0020204803,0.16377375,0.042153023,0.06223696,-0.038072407,0.118066154,0.18823537,0.06558411,0.12240627,0.10180865,0.13335334,0.07620147,0.015165217,0.067636356,0.046243183,0.016900474,0.10670821,0.047914095,0.009593507,0.1312068,0.0416182,0.1833138,0.009474729,0.08933129,0.21919969,0.2683029,0.057149496,0.0831657,0.15632713,0.07263916,0.10562752,0.063062064,0.15395942,0.086794525,0.048687328,0.12121852,0.14606078,0.12873985,0.17330158,0.033827897,0.048032496,0.042849217,0.059879124,-0.09112262,-0.009490359,0.1960786,-0.055816595,0.103650816,0.085827105,0.027012564,0.12356603,0.069104925,0.15081175,0.0029727377,0.0141729815,0.15486011,0.0555407,0.07942098,0.16325417,0.07845919,0.059571557,0.13122086,0.15496789,0.07738258,-0.027129242,0.07970881,0.15076928,0.15485989,-0.0192473,0.022503195,0.03999575,0.026093204,-0.045014303,0.044745937,0.19988601,0.050809853,-0.012105723,-0.07470008,0.100728616,-0.026051683,0.06844229,0.12907772,0.13665129,0.07749201,0.004600814,-0.046846535,0.12586413,-0.16581509,0.10975841,-0.041988607,0.17725575,0.061702862,0.17794673,0.14337026,0.20105514,-0.056337353,-0.022399072,0.015804479,0.01971125,0.14897089,0.08407383,0.11525075,0.06312735,0.007885853,0.082891256,0.10167787,-0.013469921,0.08389663,0.03488891,-0.014091544,0.0415578,0.08939612,0.16562189}, {0.09884141,0.24248737,-0.0065894737,0.14598644,0.048692573,0.08407397,-0.057533003,0.043767646,0.113960266,0.07539107,0.016589116,0.071500614,0.06061521,0.008287273,0.13112366,0.063392974,0.055890128,0.010707373,-0.0709522,0.08361712,0.042573754,0.10579239,0.1181819,0.10855999,0.11762831,0.05165081,0.115888014,0.12807387,0.03483211,0.0888322,0.12004218,0.034957897,0.078594804,0.05809209,0.13685377,0.0025790054,0.09597895,0.06234306,0.12725234,0.07838452,0.080532774,-0.00975691,0.11208423,0.06947285,0.11876582,0.12537453,0.08178365,0.07465257,0.09836277,-0.1169755,0.02027811,0.014221596,0.01165992,0.10755688,-0.013302432,0.076687776,0.071149364,0.13462697,0.13600329,0.015919786,0.06685234,-0.035990134,0.03509927,0.093566164,0.09797108,-0.06739833,0.10243114,0.027560856,-0.034069594,0.1806936,0.072269,0.07005293,0.16338547,0.015743561,0.059254475,0.040238105,0.1846612,0.13073276,0.074353084,0.008466138,0.12617955,0.15539253,0.0830645,-0.025718702,0.1097594,0.0027648285,0.112012945,0.001208057,0.07334217,0.05913319,0.1458458,0.08375533,0.0424927,0.07066418,0.06914982,0.15832992,0.22432223,0.005280796,0.04050485,0.009638588,0.056916542,0.060963284,-0.024572033,-0.0031544922,0.0672131,-0.011413828,0.044487942,0.12176677,0.16986579,0.049453877,0.17665851,-0.004143917,0.12078329,0.04646364,0.1832847,0.104710415,0.05180959,0.037813928,0.0068311226,-0.11076253,0.13030523,0.059266068,0.17676747,0.082251966,0.12796615,0.014251461,0.05581655,0.02246283,0.16894177,0.030668532,0.15814865,0.1788396,0.084054716,0.21636628,0.23248962,0.06583469,0.116940305,0.057418533,0.1241014,0.14074658,-0.0039897757,0.044882946,0.027318185,0.01764411,0.06460815,0.061385967,0.106285736,0.054512072,0.11449174,0.1546172,0.16159448,0.10426221,0.09854182,0.14467199,-0.0052271513,0.028075717,0.113991596,-0.007338792,0.034907524,0.0016497995,-0.072694965,0.076960616,0.1188827,0.07424334,0.2026261,-0.0017856334,0.1354924,0.1340725,0.26057675,0.14618614,0.16462393,0.09363745,0.081309274,0.08682247,-0.004557168,0.15276746,0.022961764,0.075902775,-0.00043667594,0.10393643,0.14399311,0.08314185,0.053177837,0.07982767,0.03722745,0.1520523,0.02998073,0.07771611,0.19436812,-0.07055867,0.12736109,0.06963275,-0.013685948,0.1255659,0.13866629,0.120803036,0.03989398,0.035747252,0.084348254,0.0066306014,0.08247121,0.06609005,0.012493062,0.06753161,0.16083741,0.10220231,0.062458184,-0.02690119,0.1861967,0.17087951,0.15956907,0.028560076,0.042864002,0.15195224,0.14671443,0.0031576941,0.029769454,0.07782153,0.08551516,0.10092003,-0.058423325,0.0626623,0.005722448,0.1592833,0.22805183,0.08854401,0.1042015,0.025611255,-0.045464218,0.11648432,-0.16309999,0.12089889,-0.096865885,0.101179555,0.046643708,0.1058133,0.1331057,0.158761,0.048850127,-0.046639286,-0.0012185923,0.12008819,0.11121873,0.009323716,-0.0076286234,0.13558328,0.10751015,0.15219288,0.060168933,0.013686395,0.108488865,0.10874111,0.015944507,0.14295097,0.078913346,0.044064693}, {0.0011839385,0.14275843,0.010757067,0.058216777,0.0012325619,0.060852215,0.020836312,0.17910957,0.1537709,0.089045376,-0.06551502,0.09560978,0.13058059,0.1032611,0.20770954,0.109179124,0.09926667,-0.09300028,0.041793417,0.13662276,0.15584385,0.14863312,0.14611955,0.18520926,0.099091224,-0.009033702,0.118042484,0.07589749,0.025487969,0.061681964,0.13218391,0.10287875,0.10735798,0.12526087,0.10686674,0.096911214,0.12153283,0.08664547,0.14984216,0.11573913,-0.010275669,0.050749775,0.013880174,0.075224444,0.005099207,-0.028130678,-0.044254556,0.13831088,0.036835417,-0.07373252,0.07743993,0.10061107,0.019822955,0.05595325,0.059726696,0.117957376,-0.0076983348,0.017642414,0.12415967,0.06860607,0.08152555,0.035575677,0.12484853,0.06622322,0.09925657,0.023204692,0.05671096,0.089337215,0.054551546,0.1419136,0.106590845,0.07419351,0.06566388,0.039249904,0.09028211,0.07221135,0.10286027,0.10889794,0.008893112,0.11951358,0.076992646,0.088291325,0.058053434,0.033032425,0.06214973,0.037712887,0.15433799,-0.047646765,0.15286571,0.11989398,0.23562105,0.07817482,0.07318328,0.11343777,0.0360954,0.15145616,0.17958154,-0.051159196,0.03348381,-0.0037071288,0.011951609,0.11932929,-0.03889986,0.061946142,0.09323388,-0.0065234727,0.0015127353,0.06438861,0.11917807,0.039606813,0.047941897,0.09545272,0.13579752,0.17448741,0.116523735,0.17624113,0.04403199,0.1808453,0.00811639,-0.096472204,0.20191555,-0.0013110101,0.14219385,0.030869342,0.1648717,0.14426224,0.09609985,0.019182956,0.061570384,-0.029037714,0.12997004,0.11066046,0.094445184,0.22744364,0.21843205,0.108678706,-0.0050604204,0.13581797,0.052429665,0.06439456,0.016479187,0.051338553,0.13849863,-0.033442818,0.08993059,0.09732753,0.11158751,-0.06984766,0.108283736,0.1940209,0.08297746,0.15725352,0.037879284,0.06782668,0.025789741,0.01875117,0.061412573,0.00808574,0.022839438,0.03404996,-0.08010482,0.11604831,0.17992179,0.08942603,0.12511371,0.020928018,0.124673285,0.19073483,0.26500115,0.06433154,0.050178744,0.06990191,0.06369987,0.09057783,0.04130092,0.13073744,-0.01010722,0.11543132,0.040419646,0.09565375,0.09822543,0.106765896,0.023612533,0.043413293,0.06265897,0.017374333,-0.09084154,0.045104332,0.11529928,-0.04393136,0.081585,0.07973225,0.025453633,0.12920706,0.20647211,0.18999395,0.030833539,0.090293035,0.14414632,0.10041841,0.14532511,0.117715925,-0.03503022,0.0687132,0.07521962,0.20368448,0.10088673,0.11261478,0.096592195,0.10115836,0.13874307,0.0010943811,0.0026106888,0.051016968,0.033696197,-0.025172062,0.027680803,0.09348445,0.10703201,0.0719064,0.03183597,0.07935847,0.034829967,0.12605616,0.183743,0.13464242,0.23168218,-0.053947404,0.043760125,0.07021942,-0.08223572,0.16529875,0.01224466,0.23855917,0.041322567,0.17491582,0.11314917,0.14868973,-0.0044821254,0.035343546,0.09537966,0.07506859,0.18850729,0.012049359,0.038775895,0.08719154,0.028748972,0.084747456,-0.029465744,0.0012768894,0.11794114,0.10150115,0.04018457,0.10383164,0.005837067,0.004206287}, {0.0780077,0.14858605,0.017004395,0.11584151,0.02357605,0.046562385,-0.09093659,0.04925651,0.10251741,0.09338352,-0.12917687,0.08173111,0.15481392,0.07680164,0.21720332,0.159326,0.15871483,-0.06885319,0.0077998913,0.029523386,0.07373138,0.17045924,0.15259741,0.04047763,0.12121977,0.06358012,0.07421874,0.0017075168,0.11024269,0.15913016,0.107894614,0.04379963,-0.031066388,0.07422369,-0.0056153554,0.06724328,0.07118394,0.010474704,0.19116333,0.08403747,0.031430326,0.09044069,0.05188282,-0.013755021,0.013726101,-0.048348058,-0.008725382,0.14693293,0.13345456,-0.14849345,-0.072769746,0.084520616,0.0038982313,0.15062243,-0.06463813,0.19617015,0.08505703,-0.04285452,0.03682999,0.0802818,0.14215983,-0.016829928,0.10525936,0.13102293,0.06003256,0.052258663,-0.009361669,0.051491767,0.051314842,0.105904445,-0.05225426,0.035843126,0.11152586,-0.1210837,0.0455867,0.08704155,0.004852202,0.004359775,0.14210376,0.0126256,0.03721877,0.17826648,0.005501693,0.030584132,0.1422918,-0.06827441,0.12206797,-0.022214588,0.030220995,0.076987095,0.12968653,-0.042378332,0.06892744,-0.016300954,-0.02900794,0.07059548,0.2496968,0.07297816,0.11138498,0.03385008,0.077092126,0.019774882,-0.057130713,0.03937732,0.16113289,-0.044301257,0.0008271335,-0.09474412,0.16022298,0.18225151,0.0625071,-0.0537483,0.077983096,0.16227305,0.14742668,0.18747228,0.13148716,0.10537196,0.020383958,0.020627134,0.089717016,0.09403414,0.21118246,0.023156682,0.07660841,0.11941914,0.047141075,0.12203379,0.09300054,0.03390096,0.1402417,0.21243386,0.09270555,0.098385185,0.13252011,0.04150532,0.06389658,-0.03480172,0.060027815,0.083321616,0.026735056,0.103928156,0.11161236,0.007133128,0.023784474,-0.0019451325,0.019796168,0.014280396,0.041289162,0.0356377,0.13227235,0.09847489,0.071303815,0.1886168,0.11360036,-0.024804175,0.039887622,-0.023960251,-0.033342604,-0.007546335,-0.038469747,0.15831031,0.116618305,0.11115791,0.14451553,0.011940486,0.098881535,0.15519565,0.16678442,-0.1826072,0.12560657,0.04862219,0.076453395,0.13701522,0.06265927,0.11333642,0.010812738,0.101765886,0.0061328043,-0.040782344,0.12782453,0.036192987,0.0027544561,0.020627405,0.026488112,0.13477726,0.014027197,0.05337583,0.18936226,-0.08139169,0.06136064,0.12828016,-0.036112294,0.051673796,0.11327407,0.07493917,-0.086406805,0.016329575,0.07687295,0.110566325,0.10783021,0.092441246,-0.14795278,0.14026234,0.09221905,0.113519564,0.114131704,0.013198401,0.062498078,0.023207666,0.048284166,0.011168195,0.09735139,0.020524431,0.08404363,0.00734014,0.13396105,0.047480784,0.12767369,0.16269417,-0.0032529323,0.118350744,-0.009256157,0.17071433,0.097458966,-0.031181917,0.24088413,-0.020838585,0.07484738,0.0737111,-0.20467028,0.19152904,0.042435106,0.1258846,0.06490017,0.10139144,0.029743988,0.1694117,0.014307305,0.061408516,0.0046019056,0.05298681,0.022535685,-0.077074654,0.10844361,0.15279965,9.093716e-05,0.16877632,0.050586622,-0.006209345,0.034456987,0.08642266,0.031629004,0.11215033,0.10597212,0.001953279}, {0.06439875,0.114863485,-0.03702992,0.20580849,-0.050884057,0.103925355,-0.028875085,0.14644393,0.13787615,0.1498696,-0.048658565,0.10643946,0.12373892,0.17671032,0.24861218,0.07271786,0.18148716,-0.075330965,-0.028093996,0.19542389,0.005323221,0.25069427,0.13439156,0.05483904,-0.022028064,0.10259199,0.09308429,0.01875992,0.15951574,0.14485078,0.18626782,0.05225502,-0.20937167,0.07170216,0.027778048,0.00044008097,0.06196036,-0.0018094203,0.11216323,0.0027267036,-0.031978432,0.1025346,0.057706024,0.041957527,-0.015644517,-0.0006390799,0.0069383583,0.1159493,0.10249887,-0.12366572,-0.00032342196,0.07518801,0.094552584,0.11003862,0.06586136,0.159542,-0.025149368,-0.044421438,0.02719456,0.13227484,0.12573753,0.077127874,0.25713745,0.027749708,-0.021070018,-0.036244676,0.04937669,-0.079509996,0.0013828086,0.1351311,-0.000769221,0.123690024,0.060259428,-0.13206603,-0.2206251,0.099079855,0.057000358,0.08437218,0.07298403,-0.002400731,0.033096932,0.112129,-0.11217648,0.07053932,0.05947537,-0.11420921,0.18613178,-0.11346994,0.024446111,0.09627281,0.22351049,0.030145966,0.052685935,-0.034233473,0.027225923,-0.03825839,0.14973952,0.070587225,0.067233734,0.059720565,0.07326726,-0.0115049295,-0.0063641076,-0.06941009,0.14574988,0.0010097807,0.01043462,-0.32455236,0.044818413,0.16675708,0.021218665,0.05160125,0.11583455,0.11702799,0.043204382,0.1608896,0.12928005,0.042691667,-0.06982613,-0.0438357,0.12829241,0.03322816,0.26846793,0.12038114,0.040651783,0.116483584,0.028161582,0.0046771783,-0.035988126,0.106416374,0.07822708,0.15133765,0.08976478,0.17768143,0.13226923,0.090702035,0.029548913,-0.035392214,-0.04995846,0.096031636,0.102513924,0.18550467,0.0032230844,-0.013071701,0.16135432,-0.0013740892,0.01251429,-0.116983555,-0.013799554,0.058291137,-0.023048587,0.17687002,0.03285362,0.10841908,0.030148054,0.033938352,0.06193461,-0.010999623,0.07760197,-0.009159626,-0.053327974,0.05740472,0.048792943,-0.016429406,0.041633468,-0.017067328,0.03139095,0.042003088,0.022265185,-0.31302738,0.13687946,0.1520826,0.017152317,0.15465282,0.15367222,0.20952496,0.04918407,0.09809159,-0.100311324,-0.050619215,0.12413429,0.098542176,-0.0069608474,0.17153044,0.114057235,0.0563381,-0.09615093,-0.090712085,0.13480599,-0.08711246,0.12680799,0.12786104,-0.019004038,-0.09671996,0.20587668,0.18760379,0.007499842,0.091902144,0.14662,0.102201246,0.099241056,0.14038125,-0.04198067,0.081245705,0.03646756,0.08891766,0.0068456894,0.07655796,0.124888346,-0.14939572,-0.028357249,0.043184545,0.14024764,0.24336481,0.1589492,-0.04327834,0.054022033,0.08117321,0.13347799,0.24757904,0.030888734,0.056224704,-0.13976327,0.0024227723,0.13392977,0.0139052,0.15770006,0.019660594,-0.040461376,0.10327998,-0.2313026,0.14099455,-0.029101377,0.008082614,0.05709274,-0.026791645,0.032901045,0.1688022,-0.07434875,-0.014013032,0.008302833,0.09121051,-0.029852608,-0.14083585,0.008568099,0.11189831,0.039162103,0.26713207,-0.13344322,0.105755575,0.0027236831,0.059477706,0.0523071,0.122994,0.18178035,-0.04466769}, {0.0905106,0.17648889,-0.021433832,0.1720182,-0.1131909,-0.006782525,-0.022717532,0.22346562,0.19308941,0.1181923,-0.11812233,0.007819511,0.051836025,0.02296969,0.17215861,0.1185235,0.30398306,-0.20142068,-0.060918674,0.17143087,-0.040438008,0.07425702,-0.09074202,0.017848639,0.001988612,0.015927827,0.010682488,0.08751844,0.12117994,0.14603,0.12821591,-0.02809797,-0.21753438,0.03427516,0.015180591,-0.051491167,-0.05066761,-0.0051960023,0.1440066,0.09286644,0.025292892,-0.0005877209,0.07053169,0.055170737,0.06365341,-0.0642546,-0.009482306,0.11369413,0.17666945,-0.0814949,0.027366739,0.1541481,0.18758555,0.1610783,0.014023724,0.007623165,0.016122624,-0.115146756,0.040963836,0.10596082,0.12201866,0.06578768,0.23893785,0.093262546,0.07504886,-0.013646799,0.12740824,-0.011549968,-0.043286078,0.19436176,0.11036836,0.0820748,0.08257755,0.009276986,-0.1591904,0.12849335,-0.06221233,0.10982576,0.027167993,0.061281133,0.004523624,0.09090158,-0.15047643,0.17405789,0.16826856,-0.071105026,0.16585432,-0.032893784,0.09318477,0.125927,0.14412847,0.002639469,0.051435072,-0.06422759,0.018526528,0.052405298,0.07817052,0.018512432,0.053930774,0.11475016,0.0377496,-0.019272203,0.019607129,-0.09604314,-0.015196473,-0.15053113,0.079041585,-0.17560786,0.09114637,0.16002509,-0.09521514,-0.026266007,-0.006500532,0.110101335,-0.0052523026,0.1007499,0.08934781,0.022274546,-0.05069692,0.02818759,0.11384894,0.040289164,0.24343921,0.06478622,0.10345921,0.046253044,0.043305747,0.13194008,-0.042737328,0.059507392,-0.028673112,0.056755852,0.0831673,0.09752259,0.08399991,0.084097736,-0.037219353,0.054324556,-0.1822845,-0.03814059,0.010709783,0.2373919,0.017125035,-0.055986732,0.15653324,0.0072574783,0.18281081,-0.11108277,0.06827538,-0.034627546,0.0044469507,-0.024656873,0.10284903,0.1533469,0.12058366,0.092792496,-0.114172734,0.11136072,0.012326957,0.08348788,0.08103963,0.07511398,0.13358848,0.09393464,-0.0034530102,-0.07044786,0.008358838,-0.00018616863,-0.04016913,-0.35091102,0.12784046,0.12904139,0.034605358,0.17332105,0.20997891,0.16752928,0.019454176,0.04977808,-0.038452107,0.020816544,0.16974533,0.05988909,0.07507004,0.10568648,0.11167015,0.13309786,-0.05997547,-0.037448604,0.18611301,-0.1483295,0.18206294,-0.005305458,-0.027549181,-0.001339872,0.11395206,0.040599108,0.0051122825,0.07135489,0.12950411,0.28686696,0.14659378,0.17817062,-0.11479757,0.14036593,0.0528486,0.12418778,0.17752306,0.049605094,0.06965634,-0.14329937,0.024165165,0.015364463,0.18220322,0.12547004,0.15148367,0.020177769,0.044131394,0.15596983,0.20537534,0.09955147,0.06026981,0.05220891,-0.035036508,0.032154106,0.03816263,0.08701627,0.110521555,0.038705256,0.05275847,0.083345786,-0.17295085,0.0690562,0.080220416,-0.028151643,0.12767398,0.025575932,0.1950596,0.16784607,0.006700584,0.08328174,-0.046560254,0.15192944,-0.17868216,-0.32811418,0.0834831,0.116667666,0.10182517,0.14348833,-0.16490579,0.03173058,-0.10662905,0.08890354,-0.014858972,0.028706161,0.16326173,0.010684218}, {0.10454501,0.10856718,0.01755315,0.102462985,-0.13306214,-0.04171998,-0.05291593,0.11203406,0.07972833,0.07555409,-0.08616692,0.11585004,-0.08309985,0.072183914,0.16729416,-0.045575757,0.3518237,-0.32585877,-0.061152387,0.09618002,-0.031763572,0.049409818,0.0015033849,0.009582438,0.02955788,-0.33325323,-0.012149138,0.057392336,0.20724867,0.06389292,0.106435746,-0.03593191,-0.33424354,0.076864325,-0.011604556,-0.054511648,-0.11404584,0.02749301,0.06461122,0.033299748,-0.0005866422,0.036889374,-0.04668226,0.053055387,0.036652245,0.04947688,0.021922944,0.10145038,0.071609326,-0.020837042,0.011990224,0.14686815,0.105877995,0.19397649,-0.032405548,2.9122464e-05,-0.064146794,-0.13732462,0.095840886,-0.014089743,0.217832,0.01749914,0.13096274,0.028187519,0.06345354,-0.14397517,0.040936932,0.1569467,0.0006879447,-0.0056752563,0.052289218,-0.041577607,0.03149979,0.03439428,-0.25797486,0.07346743,-0.30660185,-0.10689145,-0.075663075,0.0525008,-0.04884769,0.16484627,-0.22364034,0.08314363,0.09045165,-0.091073066,0.15337503,0.07153878,0.028280811,0.18623653,0.037968267,0.007788984,-0.05074692,-0.16725251,0.15447995,-0.07826152,0.07650412,-0.059549112,0.07834365,-0.057561666,0.029548425,-0.051315326,-0.048740856,-0.018711332,0.047860686,-0.15578203,0.007942326,-0.17421676,0.06517634,0.16589187,0.022188691,0.098909155,-0.071225084,0.20381647,-0.026433969,0.128485,0.08797549,0.010124635,0.008733789,-0.06489413,0.08121466,0.21206091,0.2296808,0.03266338,0.14336441,0.03151641,0.112859346,0.075778596,0.040650655,0.080264926,0.005338541,0.06484358,0.064516194,0.010517349,0.0744912,-0.023967149,-0.08793799,0.07005472,-0.015251662,-0.012743017,0.055621937,0.1819627,0.046678968,0.034663256,0.03197198,0.0032214168,0.18462788,-0.16984573,0.1039453,-0.035272267,0.05551137,0.042868696,0.08395975,0.09677391,-0.016159227,0.050375056,0.016871229,-0.056280512,0.05963239,0.114282236,0.07005993,-0.0054703825,0.052065622,0.057684842,0.02565303,-0.111575656,0.13064338,0.00993067,-0.15916659,-0.36195287,0.0834245,0.15142402,-0.058803715,0.3031423,0.17023045,-0.08408006,0.04856567,-0.07833583,-0.01128927,0.05895198,0.08253346,-0.018532928,0.039244633,0.1914882,0.1847667,0.07888645,-0.03885327,-0.11636167,-0.027274963,-0.04034246,0.09186838,0.037361767,-0.024759537,-0.022306375,0.03156497,0.023771554,0.036938183,0.10341029,-0.02814562,0.17793758,0.0416703,0.15405838,-0.00627918,0.15065451,0.15416169,0.12132882,0.080331296,0.19319415,0.044266026,-0.024596207,0.017248778,0.12377971,0.18635038,0.17576505,0.0009340959,0.12337298,0.08106294,0.18674041,0.15307507,0.013405341,0.045676474,0.0023017442,-0.01454121,0.084449165,-0.01855011,0.05476338,0.0863375,-0.089213,0.033575453,0.01682791,-0.00058327155,0.10189181,0.02852193,-0.0140199615,0.14243741,0.04783229,0.24015717,-0.04116431,0.043021403,0.2260308,-0.06266001,0.02756918,-0.27897653,-0.3693687,0.034209285,0.0645374,0.0020652625,0.123411015,-0.20698269,0.02574891,-0.2526554,0.04678804,-0.13758837,0.15696712,0.122077376,-0.0148782665}, {0.14799652,0.0791992,-0.0125956535,0.09266346,-0.11141654,-0.07588058,-0.008481903,0.12351209,-0.07321511,0.15032025,-0.21571098,0.1051281,-0.06895891,0.058393274,0.15292469,-0.003556583,0.21699743,-0.27790987,-0.017064866,-0.0012467944,-0.106658064,0.050911702,-0.22477058,0.041565955,0.02550366,-0.4080688,0.06570681,0.08444438,0.21272154,0.0670638,0.16284584,-0.17476316,-0.43049216,0.1265137,-0.019371577,-0.008762542,-0.07474088,-0.014449293,0.056730185,-0.0012878448,0.073467985,0.017499944,0.030794507,0.060487427,0.050949622,-0.014831825,-0.036845017,0.011768245,0.07751474,-0.010045207,-0.033353057,0.14975041,0.10748192,0.14465289,-0.08451749,0.12721398,0.059822623,-0.12280412,0.18567942,0.09139394,0.014577743,-0.07290413,0.07773843,0.08594849,-0.043161955,-0.018580956,0.06048668,0.14387147,-0.15561093,0.06506441,0.09545251,-0.05566708,0.121519424,0.005405192,-0.12425184,0.10313951,-0.37294883,-0.048382223,-0.053433534,0.01731801,0.0045991223,0.1539632,-0.20769393,0.08825651,0.06439964,-0.17440611,0.06707331,0.14913294,0.13279764,0.01212335,0.0019310388,-0.0012426233,-0.06329936,-0.11005827,0.24034171,-0.026644634,0.12566,-0.052044265,0.14154169,0.064468354,-0.038641933,0.0032558434,-0.1100264,0.0021676528,-0.022214105,-0.22817172,-0.008281754,-0.1768562,0.0620222,-0.048224095,-0.032323916,0.2415804,0.045231402,0.21539181,0.05978607,0.039540242,0.16083317,0.09330025,0.0034676131,0.099655665,-0.11192902,0.077028565,0.06499649,-0.059852436,0.09479495,0.022651024,0.06684178,-0.007153008,0.097894356,0.20645128,-0.0072801705,-0.0050090826,0.13128571,-0.18299738,0.039315153,-0.057052646,0.014876949,0.19267789,-0.056864277,-0.12210204,0.030559596,0.29755273,0.012835383,0.11648523,0.0062728934,-0.048607785,0.11417491,-0.09512814,0.13278547,-0.08886989,0.0142927095,0.08114563,0.09364761,0.04444338,0.1300227,0.07821955,-0.01765631,-0.037987974,0.022450145,-0.03604791,-0.08296001,0.11479705,0.1417806,-0.01798057,0.048678555,0.01568969,0.11674444,-0.06890601,-0.07434211,-0.103155196,-0.014482025,-0.012647282,-0.09401165,0.2250389,0.0469159,-0.05784628,0.11906306,-0.10232155,-0.13440071,0.14403109,0.059995268,8.6403204e-05,0.07491574,0.13263535,0.15708715,-0.009722154,0.02086946,-0.017633328,-0.1849846,0.034280494,0.10741681,-0.07372379,-0.22124161,0.036179584,-0.045989685,0.093562625,0.04864252,0.08761069,-0.011738639,0.24259943,0.1075554,0.14941745,-0.031521015,0.09255805,0.011559305,0.009156331,0.13855527,0.22218412,0.13704938,-0.09429018,-0.17576522,0.19709009,0.14766249,0.1359687,-0.076804906,0.2032099,-0.040223803,0.16812335,0.094595544,0.072304465,-0.031408936,-0.051917017,-0.01359396,0.1463046,-0.010760174,0.10590053,0.12028583,-0.19067769,-0.04320496,-0.014171037,-0.1200301,0.031392734,-0.062164083,-0.03837279,0.1636718,0.13604221,0.12119226,-0.07965888,0.05655506,0.2878113,-0.07008104,0.0380072,-0.40816236,-0.2981848,-0.12981261,0.15270486,-0.047427885,0.1260069,-0.27702844,0.024600275,-0.25859877,0.07855779,-0.1728709,0.21616006,0.26586518,-0.11576158}, {0.092749044,-0.106131434,-0.017708972,0.08203496,-0.05140664,0.07804833,0.0155249275,0.14645873,-0.06791012,0.19586076,-0.14210953,0.16532597,0.0790774,0.14649734,0.14548495,-0.05711923,0.18696567,-0.2678438,0.07194236,0.033868656,-0.10669965,0.043288447,-0.24922748,-0.0602545,0.113235116,-0.20718329,0.10895114,0.09863123,0.09950643,0.06455474,0.069327384,0.02620824,-0.27523282,0.08796391,-0.061941978,-0.020698708,-0.084229454,-0.114013016,-0.10524524,0.012880269,-0.064458,-0.13302958,0.1217884,0.1282887,-0.0066827405,0.083846375,-0.050352655,-0.006041523,0.09495858,-0.07791335,0.1361576,0.14148776,-0.08678002,0.23374352,-0.11679463,0.063566506,-0.043717947,-0.36201048,0.10141267,0.18674703,0.011591267,0.021981806,0.07269164,0.01755381,0.0050916965,0.159112,0.13973919,0.25108945,-0.12630376,-0.0024979012,0.13076226,0.031826176,0.06765504,-0.021190718,-0.031286627,0.041076012,-0.41257668,0.055644862,-0.02438888,-0.016561193,0.1653562,0.1758972,-0.12871698,0.06996606,0.06234934,-0.102392174,0.15482597,0.3547125,0.06290642,0.07467648,-0.019818986,0.016501043,-0.057256877,-0.041336507,0.11556318,0.03089698,-0.108903676,-0.039042752,0.077278554,0.04151927,-0.075580895,0.02672908,-0.006191554,-0.059669144,-0.038301665,-0.14710233,-0.04423596,-0.27774167,-0.03654628,-0.007809352,-0.1824878,0.23134325,-0.08218842,0.17251095,0.11164374,0.159358,0.06480782,0.08077166,-0.071663216,-0.0041948273,-0.15716437,0.06775229,0.04494062,0.0028146259,-0.05497983,-0.013072204,0.09953068,-0.08360959,0.16481611,0.13277026,0.06829663,-0.18428266,0.11235449,-0.28861335,-0.035624616,-0.27028003,0.106400095,0.18368796,-0.08125164,-0.053756412,-0.05120235,0.16854382,0.04115811,0.064003415,0.10446527,-0.09176344,0.29019547,0.00838803,0.02924172,-0.093381844,0.04493139,0.21520022,0.030653397,0.05075405,0.11474697,0.14864144,-0.17300151,0.0047076936,0.10791359,-0.01233792,-0.027458612,-0.032823715,0.07947655,-0.15118746,0.15677202,0.016898487,0.13200837,0.05565277,-0.18060234,-0.20073116,-0.025941398,-0.062259868,0.037001453,0.07671629,0.035449427,-0.06531015,0.16176482,0.041322056,-0.09947875,0.18339945,-0.14764076,-0.03752352,0.04352491,0.13403639,0.16314924,0.0028174254,-0.13114738,0.031552754,-0.20903149,0.058654673,0.2623697,0.024839208,-0.2079338,-0.065424696,0.07231201,0.029901868,-0.092730805,0.10771416,0.06599478,0.22432108,-0.016848397,0.16405374,0.041606568,0.12765844,-0.0048721666,0.11843889,0.2189734,0.2541442,-0.0069638104,-0.057581645,-0.16253135,0.16092615,0.018576887,0.13826567,-0.06577793,0.23537533,0.03178027,0.06582323,-0.04710151,0.12931488,0.07606195,0.06746047,0.08313915,-0.0511596,0.1053898,-0.10885948,0.23394965,-0.13501845,0.058934774,0.0003615413,-0.06380323,-0.025163868,-0.13946609,0.0679147,0.13919052,0.06496812,0.110761076,-0.21147458,-0.039340165,0.35793346,-0.10133293,0.10615699,-0.20234424,-0.21676679,-0.1129518,0.17071077,-0.0106783435,-0.03255458,-0.32774454,0.13281149,-0.32188112,0.08633243,-0.17818126,0.16780458,0.1354985,-0.17339431}, {0.14919956,-0.23628159,0.008764821,0.04053959,0.06643239,-0.04846984,0.09486994,0.03751457,-0.13676988,0.14587326,-0.08913905,0.107948035,0.15848948,0.13785972,0.15087292,-0.056240253,0.16798595,-0.237201,0.11879392,0.1249749,-0.10718105,0.19444776,-0.11625793,-0.10651141,0.02529934,-0.18733467,0.2222267,0.14475363,0.21101567,0.033984575,-0.03378447,0.07611214,-0.4025679,-0.044857066,-0.06548894,0.0069150464,-0.112591416,-0.2001483,-0.08415915,0.101633,-0.06554438,-0.18299116,0.1748866,0.17737855,-0.09796091,0.13094658,-0.06686458,0.055594195,-0.012964384,0.06811701,0.00221873,0.0797931,0.07388783,0.23971835,0.115423486,0.046204884,0.04081209,-0.53993744,0.017534329,0.24573323,0.034442272,-0.010934522,0.12041768,0.034764614,0.0737973,0.1855475,0.0063102683,0.22440718,-0.014698194,0.14182232,0.089545235,0.20863812,0.23538554,-0.018322872,-0.14928547,0.05820996,-0.49472713,0.039320387,-0.15989265,0.1040426,0.14153576,0.06850971,-0.12459062,-0.008109869,0.10471564,-0.16561069,0.13869132,0.31933454,-0.046322517,-0.1602046,0.04440602,-0.070827425,-0.1760697,0.042675197,0.04145371,-0.023743875,-0.0025581797,-0.045567065,0.013714184,0.037875064,-0.12000844,-0.05404167,-0.07091499,0.17839256,0.07413414,-0.18292996,-0.04353173,-0.48206577,0.020412294,-0.03424004,-0.07404282,0.23942718,-0.04163426,0.072049804,0.0007335936,0.1289382,-0.03533061,-0.08091403,-0.024034457,0.10816885,-0.11012603,0.07220139,0.010754438,-0.02235906,0.016716264,-0.08651089,0.13206819,-0.12766856,0.07333399,-0.11144475,0.046301484,-0.071437895,0.08775487,-0.3088383,0.05205575,-0.27203104,0.15583791,0.084621675,-0.06699639,-0.12990983,-0.00943345,0.13695762,0.16954602,-0.05854666,0.06452249,-0.060935788,0.13960893,0.14257161,0.089630514,-0.06244077,0.044353254,0.008709078,-0.14693372,0.073862,0.09922583,0.29288355,-0.086753406,-0.099238835,0.08556727,0.06789628,-0.10676456,-0.11751032,-0.032114543,-0.008774062,0.1797564,-0.24160627,0.2511246,0.024769312,-0.08445867,-0.3054357,0.060893822,0.10520013,-0.063934736,0.046643317,0.04874782,0.101332724,0.012733753,0.03378739,-0.124823436,0.16797662,-0.13047473,-0.028575256,-0.035807926,0.22062725,0.071306,0.047359698,-0.21265303,0.042456277,-0.18126108,0.08788731,0.2839407,0.024969945,-0.05670478,0.046814445,0.018746594,-0.00011563133,-0.026408056,0.17558224,0.06023773,0.39538813,0.020977845,0.017057007,0.047827147,0.13033606,-0.061625723,0.08689191,0.2928215,0.10276815,0.082747966,-0.022533696,-0.09948652,0.15769821,-0.0742903,0.0012118414,0.041929096,0.31283075,-0.03364369,-0.07996567,-0.016102644,-0.005017024,0.1778312,0.040514804,0.049429122,0.019138865,-0.048930947,-0.059302922,0.110138535,-0.16662902,0.03467,0.085408926,0.14686275,0.010770106,-0.048763297,-0.018670347,0.20865993,0.013818723,0.13961303,0.009171477,-0.19660038,0.25362954,-0.037262704,-0.06353286,-0.07874839,0.016928434,-0.03476088,0.19408546,-0.13608441,0.08408825,-0.35941395,0.1599205,-0.18881507,-0.06642071,-0.08286114,0.106628925,0.025701942,0.018629715}, {0.07133766,-0.016935417,-0.054383356,0.009915563,0.16084388,-0.04625025,0.3676055,0.017183173,-0.029607601,0.16688995,0.05323683,0.25927377,0.0075671086,0.14068955,0.090308584,-0.04601462,0.07795696,-0.11447755,0.13240255,0.032550275,0.021395637,0.16259941,-0.1031305,-0.13462575,0.11614424,-0.17683391,0.21645625,0.1771124,0.17006141,-0.060033295,0.058887653,-0.081069134,-0.43306506,-0.043750342,0.025886042,0.010334113,-0.15497768,-0.050598975,-0.0013096192,0.12713656,-0.08407061,-0.26608598,0.31425324,0.1633446,-0.1363421,0.13561007,-0.13331652,-0.07299152,-0.1562101,0.14124681,0.02552136,0.14822206,0.17317092,0.12857199,-0.08981593,0.016028361,0.18858859,-0.15564582,0.096724205,0.34120795,0.07078181,0.13328171,0.015718393,0.0078079873,0.09684504,0.21561073,-0.13020383,0.16211635,0.09565892,0.3103214,-0.08120098,0.34828898,0.19822036,0.047179323,0.0654092,0.094298676,-0.24634728,0.119952045,0.005250831,0.09667983,0.16876982,0.0643056,-0.05815401,0.10748378,0.124060996,-0.06073472,0.10828589,0.30611926,-0.099815145,0.025925456,0.04620782,-0.14146386,-0.09011075,-0.027298793,-0.10024081,0.017195715,0.21740381,0.008050427,0.006703824,-0.07094826,0.010384111,0.0016563912,0.11288136,0.0030290042,0.20075282,-0.024889627,0.17894961,-0.51821524,-0.042130016,0.012396441,-0.088012695,0.13535604,-0.054033894,0.122825935,0.004211733,0.10843701,-0.03650027,-0.15943308,0.013301764,0.15526833,-0.15135263,0.03677102,0.1675225,0.09676033,0.09316193,0.0555242,0.14574225,-0.0012206661,0.02050503,0.08005707,0.08079904,0.09618938,0.19615014,-0.16985244,0.06959147,-0.1558499,0.18425176,0.07467548,-0.039627068,-0.043675274,-0.13160183,-0.08002494,0.063707285,0.07631631,0.17911805,-0.12750313,-0.030355833,0.2153698,0.09357785,-0.07969381,-0.076358385,0.0031050004,-0.06151804,0.089401245,-0.026409006,0.19535637,-0.032497406,-0.14266205,0.09846612,0.06414883,-0.06621822,0.077629775,0.011593805,0.028807202,0.33458653,-0.09744675,0.18987614,-0.051249795,-0.032445997,-0.33881977,0.22372775,0.19035588,-0.06419834,-0.0057123466,-0.06484425,0.1687587,-0.028788412,0.035309803,0.064074606,0.045810014,-0.0704919,0.12380881,0.139648,0.12396146,0.0072971657,-0.012759571,-0.03594081,-0.082621954,0.02319971,0.23549153,0.23613244,-0.07510856,0.09162366,-0.099441946,-0.014940729,-0.021879017,-0.030845216,0.09522883,0.13572209,0.37160546,0.11045111,0.14827913,0.035070587,0.1418094,-0.018721951,0.10302497,0.17593497,0.04886208,0.19280632,-0.013452046,-0.031892803,0.23140633,-0.05933921,-0.020492613,0.11683502,0.3779977,-0.0876579,-0.21078931,0.006559826,0.021847265,0.17734952,0.03590268,0.1046171,0.09289725,-0.016349997,-0.0055179275,0.01562563,-0.08308333,0.36637926,9.376321e-06,0.009756277,0.010215631,0.03681831,-0.10098077,0.16647218,0.056628965,0.09446563,0.043187276,-0.132638,0.13132375,-0.03884063,-0.044875912,0.0033977686,-0.020915516,-0.08783675,0.10484963,0.055074226,0.14008985,-0.14118434,0.2358718,-0.16745651,-0.07902566,0.030163493,0.08827627,0.10583524,0.07249635}, {0.08489074,0.22660421,-0.028940719,0.037258163,0.17408912,0.052683204,0.33757755,0.013764396,0.09433067,0.067553535,0.05988172,0.23011188,-0.056405097,0.1193867,-0.011896152,-0.035255726,0.051076636,-0.13540997,0.119507514,0.009856571,0.02296356,0.22526431,-0.15756184,0.0096262,0.08677065,-0.22204906,0.1738002,0.16469468,0.33261192,-0.06893914,0.07661576,-0.10710172,-0.37116113,-0.014420749,0.07139203,0.16467367,-0.05373717,0.06189386,0.016992705,-0.014341255,-0.11930438,-0.20782919,0.28465515,0.012724253,-0.20465979,0.0527043,0.1989402,0.04874835,-0.23069726,0.12510502,0.043879334,0.17091805,0.22702497,-0.0023173816,-0.014585009,-0.023179438,0.23311564,-0.00025864577,0.17999195,0.31518954,0.26313186,0.028422061,0.00923295,0.086237356,0.22153218,0.13054968,-0.30416164,0.20137832,0.011732439,0.13803706,-0.21966961,0.27449593,0.096322335,0.08001753,0.037628427,0.1488061,-0.29840395,0.115944125,-0.09213955,0.07162181,0.24542351,0.02719501,-0.14799628,-0.017839968,0.059836574,-0.07365167,0.01734704,0.11550865,0.055036716,0.08351082,0.09452981,0.12433739,0.123718575,0.062034756,-0.16840212,-0.07788173,0.24560656,-0.030214893,0.14617375,0.04912766,-0.02466384,0.081993125,0.4104548,0.011464066,0.16408646,0.022765823,0.11050618,-0.22979479,0.011140016,0.024338115,-0.05693043,0.1436594,-0.049659897,0.07489997,0.08468332,0.018851353,-0.0072981743,-0.060808193,-0.07252289,0.029180834,-0.16754998,-0.058024112,0.055840984,0.025706599,0.06108443,0.015426578,0.304591,-0.021973718,0.07700543,0.11662738,0.12878917,0.24485686,0.22632828,-0.06466782,-0.08166151,-0.052902833,0.09865213,-0.03780596,0.015566285,-0.037535477,-0.16887945,-0.21834992,-0.09410243,0.09044138,0.35900086,-0.11015535,0.058055505,0.18885309,0.15626967,0.01120066,0.00220624,-0.1361453,-0.057891946,0.040654115,-0.05201912,0.20666711,0.018719431,-0.1784896,0.08345863,0.08505342,-0.17673941,0.23743403,0.017146979,0.13140135,0.25972185,0.024329541,0.24008967,-0.10366254,0.10855697,-0.021871045,0.30804282,0.16223261,-0.017347552,0.14473322,-0.066080816,0.22307722,-0.010504541,0.07319722,0.0791653,-0.026454112,0.0005685921,0.21772131,-0.025311807,-0.07420466,0.1356879,0.021277487,0.08012864,0.011133277,-0.012148202,0.15415418,0.08514229,-0.122024,0.11683088,-0.18187103,-0.12441649,-0.10067846,0.14950696,0.11226172,0.2683921,0.14013338,0.2569671,0.10410013,0.076536186,0.03485323,0.06920001,0.18300886,0.122812696,-0.08589014,-0.09462419,-0.10392189,-0.07335332,0.15523192,0.10465536,0.035323486,0.14787816,0.39942867,0.1559644,-0.29963392,-0.09012642,-0.063273266,0.1576016,0.09414499,0.041048437,0.32204482,0.041438285,0.02813248,-0.09213607,-0.10939379,0.30150986,0.024438377,0.002383729,0.12738532,0.35038838,-0.2362836,0.12865372,0.11008641,-0.001120587,0.15828516,-0.09617124,0.00023170814,-0.08384174,-0.03534414,-0.20433712,0.10082187,0.040792502,0.095977895,0.10435129,0.09101898,0.15134454,0.23138136,-0.1948943,0.076515675,-0.04702261,0.17968147,-0.10070833,0.09445878}, {-0.062197354,0.23303291,0.020131255,0.04657102,0.13955897,-0.18559684,0.1963814,0.11813529,0.09548299,-0.0060591595,0.09137148,0.1260771,0.10497652,0.129273,-0.13906428,0.15954,0.07312166,-0.23051493,0.08312278,-0.013722511,0.08232404,0.1385575,-0.13883601,-0.046817962,0.099649996,-0.21257061,0.12915911,0.24073727,0.57835364,0.043971177,0.12965664,-0.12744503,-0.1869582,-0.013433284,0.22494896,0.36272487,-0.027907047,-0.032484762,0.060231622,-0.08448148,-0.106296055,-0.08373982,0.3366327,0.23894377,-0.04279434,-0.07389516,0.26951778,0.17277952,-0.17795615,0.115801014,0.21501213,0.1350002,0.123386316,0.18395509,-0.116862245,0.03515836,0.47325474,0.035586953,-0.005103095,0.110827394,0.41895515,-0.052466832,-0.008325642,0.0029492294,0.20691994,-0.011494501,-0.1802814,0.25369796,-0.029738585,-0.13124076,-0.062444724,0.15368323,0.15972976,0.28358263,0.06197207,0.11508733,-0.1128793,0.13736269,-0.046329994,-0.018556034,0.17618914,0.042500537,-0.1339367,0.0051189717,0.10589199,-0.02936415,0.025775567,0.06980093,0.17743583,0.1418647,0.09568639,0.4307596,0.15613882,0.20341262,0.042536817,0.0117265815,0.20033534,0.062448382,0.20249501,0.1655553,-0.07078148,0.2544386,0.3172586,0.078813456,-0.057878137,0.18444398,0.08129413,0.0342413,0.029115768,0.114855744,0.028752604,0.16594443,0.15834723,0.09957226,0.11562211,0.13703689,-0.1706831,0.01373368,-0.002520004,0.1273773,-0.19073607,-0.00453776,0.10088048,0.10561649,0.1327079,0.14023879,0.22293335,0.011971584,-0.0054490874,0.23853947,0.29931465,0.15043359,0.07627865,-0.104641475,0.06411967,-0.19145085,0.072991736,-0.09655997,0.02495448,-0.07442198,0.008912506,-0.18631394,-0.1820309,0.09561295,0.44891742,-0.095543206,0.06391187,-0.04296196,-0.03719656,0.07404829,0.06413708,-0.07391536,0.100299954,-0.08023254,-0.027624046,0.046166502,0.10948434,-0.015980424,0.24604794,0.21310723,-0.04879049,0.25017923,0.13696037,0.15129387,0.22069062,0.11352471,0.26781553,0.09808727,-0.07068945,0.06325633,0.28453386,0.10725357,-0.10918951,0.12438807,0.037543807,0.3198541,0.06887869,0.13460426,0.13712865,-0.039752226,0.05188824,0.1656701,0.01655249,0.005703215,0.10368217,0.14033182,0.0014583077,0.035089727,-0.046707623,-0.009501285,0.15055728,-0.05840252,0.26780945,-0.12594384,-0.08797502,-0.1222924,0.13177592,0.29470235,0.27161014,0.1302465,0.1688532,0.09265101,0.16722071,0.111570016,0.19271256,0.13528691,0.13977912,-0.07002683,-0.215778,-0.15906554,-0.08750673,0.29324654,0.17556706,0.029612841,0.072088405,0.24184948,0.14391029,0.06205427,-0.07543766,0.08218173,0.39568126,-0.024451863,0.024913307,0.35085407,0.02398283,-0.05705571,-0.087655306,-0.0256921,0.345025,-0.017850641,-0.007023136,0.1200987,0.36650062,-0.10559735,0.09920534,0.07633991,0.280608,0.08109345,-0.00018121557,0.015880784,0.0008782258,-0.045919884,-0.068889916,0.1725895,0.037275758,0.13061695,0.11401988,0.13134086,0.25253284,0.13659912,-0.25474617,0.050224934,0.03839608,0.08617522,-0.13359676,0.2780494}, {0.07165472,0.14382403,0.027406888,-0.039046705,-0.04231837,-0.018314507,0.029512998,0.1968366,-0.05407649,-0.09858585,0.31487557,-0.072052024,0.06959902,0.03458484,-0.0031151,-0.003325308,0.041537967,-0.20133677,0.1694014,0.059046563,0.10397731,0.21881795,-0.0721165,-0.005144831,0.06888454,0.00793101,0.10076312,0.1628586,0.42106426,0.05861246,0.16710041,-0.14658457,-0.08591851,-0.1623755,0.18263575,0.35944295,-0.03210655,0.022404442,-0.15267216,-0.07342139,-0.0243521,-0.18659194,0.15255892,0.17503752,-0.01945031,-0.080263205,0.22902727,0.24846151,-0.13791776,0.14157332,0.32618245,0.099834055,-0.021568473,0.08048709,-0.050591495,0.17378995,0.3063053,0.14955436,-0.119042225,0.05811782,0.29598337,0.03700257,0.12797748,-0.014716586,0.09451513,0.056681357,-0.19699387,0.053378638,0.1759525,-0.21040983,-0.17759061,0.11894832,0.113280386,0.27533424,-0.07047027,-0.14093654,-0.12106805,0.07605161,0.017512165,0.012941129,-0.019678788,-0.05373268,-0.050943904,0.1440801,0.3759701,0.24156788,0.10724661,-0.01900499,0.24349886,0.02433189,0.11549364,0.41456932,0.21165249,0.09341316,0.16676533,-0.0025891971,0.06346029,0.13554701,0.26202875,0.09833881,-0.04445854,0.1529013,0.15338302,-0.05575055,-0.005158116,0.22617716,0.20531355,0.07725262,0.007726922,0.21758415,-0.02438303,0.080241986,0.23116896,0.10620683,0.24210316,0.15519218,-0.06525409,0.07298657,0.014483906,0.03669912,-0.00054714706,-0.11060616,-0.001515347,0.1262423,0.124281384,-0.009704987,0.20572834,0.31805167,-0.010025392,0.17327195,0.25181,0.120171756,0.07178723,-0.23756632,0.116277725,-0.102312565,0.17276289,-0.2287732,-0.07694615,-0.052076854,-0.10289439,-0.11799094,-0.016331123,0.0019837404,0.26801524,-0.017680932,0.22803757,-0.17652695,-0.1323012,0.25760293,0.13081752,0.005278461,0.22756952,0.0664607,0.23462024,0.083890244,0.10588108,0.16878654,0.1711699,-0.023323894,0.023321506,0.06563121,0.1924587,0.2564459,0.070429236,-0.039987776,0.1615917,0.15462759,-0.09904886,-0.06785999,0.14024755,0.21368963,-0.17479548,0.077834524,-0.0026134592,0.14853205,0.12683804,0.1802038,0.15232472,-0.044096954,0.22023112,0.07044286,0.024670223,0.17250066,0.104296535,0.09191078,-0.12326548,0.23395693,-0.12479858,-0.020781934,0.10728568,-0.06982757,0.074483775,0.02497441,0.08106311,0.22603594,0.2705299,0.08622384,0.11067173,0.041971836,0.0006635033,-0.03252325,0.2003343,0.039951164,0.073702574,0.09985928,0.24073361,-0.055146467,-0.08577601,-0.05278915,-0.060628366,0.22118768,0.08014089,-0.080166295,0.04578356,0.1491399,0.17887497,0.22582388,-0.09572937,0.15808612,0.37397483,-0.008876657,0.0054249004,0.2438892,0.04820427,-0.020684695,-0.037726536,0.010155351,0.23159775,0.025639245,0.1539194,0.123312056,0.27268484,-0.11656595,0.16684847,0.14655688,0.18838848,0.056187056,0.0808543,0.095235,0.113481425,-0.02067182,0.14710319,0.38870874,0.0041838763,0.31051043,-0.034043267,0.034080174,0.31107944,0.11036955,-0.12810639,0.12867692,0.06313375,0.077918276,-0.2647007,0.23063415}, {0.09937366,0.050696537,0.14073862,-0.027785977,-0.058544535,0.023837402,0.14402941,0.22271569,0.17297783,0.08339226,0.31685874,0.10914927,0.16075566,0.062405407,0.03472473,-0.20095448,0.17631789,-0.07810721,0.3423565,0.03823093,0.08245608,0.20694265,-0.054884907,-0.14047448,0.19857214,-0.037736986,0.06535111,0.10651607,0.24040642,0.049452532,0.14960556,-0.112893336,0.16567951,-0.27692044,0.23700681,0.2744509,-0.0048082294,-0.1095542,-0.12073687,0.0028709837,0.09587831,-0.30106983,0.03865132,0.21611947,-0.02683118,0.15798898,0.17642675,0.06123806,-0.15792854,-0.04380538,0.08805676,0.10808231,-0.023078479,0.16081268,-0.13200064,0.24320017,0.09590662,0.11952028,0.0890613,0.06892566,0.142915,-0.0021154466,0.11381765,-0.042200677,-0.041843265,-0.035378486,-0.10143446,0.08232069,0.2640093,0.092784956,-0.2517636,0.28556788,0.19563316,0.25910944,-0.075620435,-0.11431032,0.11984181,0.058541775,0.09171101,0.1164018,-0.029047366,0.05332112,0.09646811,0.27098134,0.3443421,0.3004412,0.075867556,0.06963141,0.06728988,0.08575583,-0.011993818,0.0043367576,0.2568592,0.19128609,0.22656247,0.11601525,0.08066582,0.056509,0.36121,0.0913011,0.041561607,0.16294579,-0.009095292,0.14327633,-0.09824838,0.09531175,0.17168671,-0.092839904,-0.07169832,0.1929904,-0.0254428,0.06905035,0.15674223,0.08837402,0.070128575,0.0770662,-0.040152185,0.19140764,-0.010090503,-0.011716909,0.0374149,-0.002129299,0.16230793,0.114936925,0.08407999,0.07483663,0.115180634,0.4200362,-0.096940175,0.15751413,0.012236518,0.0022527326,0.2345996,-0.20921093,0.091445826,0.067866,0.09677021,-0.07330409,-0.111375734,-0.025883675,-0.08661909,-0.02890942,0.085209206,-0.06649644,0.13852811,0.040052462,0.11195454,-0.11516178,-0.13158414,0.10387432,0.24448153,0.06530891,0.11479124,0.08019558,0.24858077,-0.009867933,0.19286536,0.20248981,0.010000409,-0.0763948,-0.035418507,0.11889688,0.17814961,0.3287746,0.061254293,0.08781251,0.24496073,0.11089906,0.122094594,-0.05277437,0.13413863,0.18368772,-0.066120885,-0.023889376,-0.011283602,0.026600221,0.20357649,0.15312871,0.30459774,-0.11278762,0.13973027,0.00024353765,-0.060784247,0.27173132,0.16259217,0.016791625,-0.16350885,0.355877,0.05744096,-0.04803537,0.094056726,0.010555797,0.024366438,0.10945826,-0.0022574146,0.3305738,0.4343809,0.1857769,-0.013806207,0.03066328,-0.09901825,-0.14890836,0.050735027,0.06320864,-0.14542176,0.017556801,0.2528212,0.04440619,-0.027739035,0.079657964,0.08615145,0.14967154,-0.13089839,-0.024966903,0.023741897,0.041436866,0.1377492,0.22123735,-0.07283767,0.22129382,0.3443226,-0.040494207,0.06967244,0.26923037,-0.09113331,0.07110575,0.030436752,0.12416186,0.1062151,-0.19109315,0.4130234,0.122010514,0.20215121,-0.12413445,0.13711013,0.07271701,0.017682457,0.09457218,0.08605176,-0.012364449,0.0019256714,0.032177158,0.07607964,0.16534539,0.082229376,-0.0020857172,0.05723389,0.03144058,0.06514783,0.18205409,-0.023776148,-0.0042984993,0.11849855,0.054488234,-0.32072484,0.10283434}, {0.22191392,0.17920394,0.1528217,-0.07921209,-0.079365626,0.17452566,0.0029264607,0.21536623,0.23064171,0.12950216,0.14690542,0.04722438,0.31284004,0.05863484,-0.13315207,-0.12633093,1.6431804e-05,-0.23019278,0.40272865,0.12968896,0.14085303,0.05367603,0.13659334,-0.097702496,0.11006685,-0.10338847,0.0708119,0.07273036,-0.064407706,0.039695516,0.0429537,0.12486898,0.093258366,-0.10876897,0.23385768,0.05809145,0.031165406,-0.18558997,-0.015213109,0.2616258,0.11380122,-0.071048304,0.06619612,0.27408487,0.059732694,0.11421741,0.20850825,-0.05596166,-0.21612558,-0.077143505,-0.039180245,0.16908254,-0.03767333,-0.014609466,-0.23429938,0.21917294,-0.008490458,0.20108698,0.07696021,0.14467855,0.095879726,0.096485764,0.16447888,-0.037876647,0.05913493,-0.2980713,0.08644627,-0.03286346,0.43347874,0.20187388,-0.2602771,0.080296636,0.040804766,0.1677409,-0.10210207,-0.012582154,0.09102225,-0.041451957,0.23361598,0.18369022,0.15464428,0.117519036,0.15819524,0.43248513,0.17575085,0.0614535,-0.092492186,0.047032703,-0.10647463,0.17941739,0.051219646,0.03308849,0.25196588,0.17599496,0.15149754,0.058425006,0.18945609,0.036489688,0.2607224,0.0073399134,0.019425355,0.08747211,0.0047882893,0.33329365,0.058798127,0.16062681,0.010811728,-0.08165002,-0.019071514,0.10514618,-0.090772346,0.034565676,0.06836759,0.07994428,0.044409838,0.19170704,0.056782458,0.21379976,-0.0021662272,-0.011614181,-0.112516664,0.010017195,0.06680107,0.16845453,0.28957003,0.113470495,0.015916405,0.24494372,-0.10477653,-0.09255157,0.30149361,-0.02006024,0.10002985,0.11271157,0.26204646,0.05543251,0.24756852,0.04462667,-0.17532864,0.061265428,-0.13711952,0.22461255,0.13419302,-0.16667195,0.08719455,-0.03426771,0.11252279,-0.032403328,0.028906887,0.013946191,0.28515032,0.102274016,0.05290959,0.106401525,0.24929224,0.06806023,0.1923373,0.0041692494,-0.02027945,0.006632503,-0.0311854,0.14127228,0.15670852,0.2984203,0.0054636137,-0.067086235,0.16008773,0.097330235,0.18238746,-0.0070893746,0.077059984,0.2387,0.051518507,-0.13743344,-0.043434117,0.11849432,0.12048693,0.22482336,0.1346795,-0.060523223,-0.05147801,0.037367247,0.03621864,0.20051962,0.28330904,0.11088873,-0.13106735,0.4294041,0.17341599,0.0025389332,0.13316439,-0.05655491,0.047136094,0.10926513,0.006095944,0.20823985,0.31035966,0.057910167,0.09043014,0.02451857,-0.09230371,-0.050250318,-0.08846582,0.02509427,-0.27248585,-0.086360596,0.094446935,0.018058823,0.07105387,0.06411344,-0.09207146,0.06139171,-0.13606063,-0.05959528,-0.030397031,0.043306787,0.069293596,0.31302544,-0.03979434,0.007961348,0.14664476,0.075843275,0.18785068,0.18638021,-0.2063578,-0.02801155,0.14595886,0.0043644067,0.28277913,-0.07436224,0.45817047,0.058183696,0.30825397,0.117416896,-0.08321694,0.15100966,-0.08310972,-0.00422338,0.08363986,0.067898825,0.072945565,0.122209825,0.06618037,0.15036193,0.23038827,-0.14433981,0.04082763,-0.011358846,-0.0067268335,0.267158,-0.028564518,0.13414666,0.15430506,0.07531385,-0.11579452,0.10022117}, {0.12193877,0.0002994961,0.15711032,-0.079988174,-0.17351374,0.09131584,-0.07592548,0.12047548,0.07638843,0.031210788,0.065821305,0.08734048,0.25773984,0.013299344,-0.167707,0.02224227,0.12191286,-0.1436542,0.24618539,0.20141909,0.035167094,-0.11096168,0.046152502,-0.16534053,0.13725033,-0.08301471,-0.17657827,0.065286115,0.15129489,0.04237631,0.026709482,-0.033270177,0.011811985,0.040955655,0.1126136,0.06711477,-0.009002296,-0.16748285,0.008370013,0.28449565,0.018857706,0.04940318,0.029800802,0.26480222,0.27348074,0.10076608,0.22179174,-0.2434467,-0.098464705,-0.10332512,-0.051968127,0.1682128,0.003477093,0.0030261574,-0.24788536,0.07085302,-0.007647703,0.14956911,0.10321928,0.085175045,0.120455354,0.03675345,0.13529676,0.06754753,0.1324971,-0.38551408,0.117182575,0.084354535,0.21927576,0.06869562,-0.12045517,0.009156638,0.08133524,-0.14462984,-0.02725482,0.0955712,0.16251728,-0.049792256,0.12529038,0.23595792,0.053927727,0.020261776,0.1270062,0.4646424,0.026234288,-0.03906776,-0.13241579,-0.15986273,-0.09845702,0.06767455,-0.07754469,-0.04349687,0.39117575,0.11269381,0.036383387,0.021585219,0.16653804,0.06317403,0.079202965,0.072434604,0.099688545,0.0713214,0.17881204,0.30075788,-0.027761025,0.10893721,-0.088137895,-0.10611718,0.123952895,0.024709255,-0.23880716,-0.07126558,0.06955564,0.08854891,-0.023074979,0.05666961,0.062467754,0.12962377,-0.030872943,-0.23036863,0.01548552,0.19116782,-0.037644096,0.19544683,0.1484279,0.04254946,-0.022667306,0.13558467,-0.07088743,-0.10895277,0.10341506,-0.120020926,0.06882329,0.14965369,0.086296976,-0.01947235,0.20246819,0.07150841,-0.20233692,0.17729808,-0.020261725,0.16245914,-0.025278911,-0.12034904,0.03786671,-0.06913101,-0.03970083,0.007642572,-0.07655344,-0.123885274,0.16191234,0.03946048,0.073827654,0.06844257,0.12287973,0.033864968,0.21320184,0.018811556,-0.051982433,-0.011913944,-0.026676754,0.050878122,2.568452e-05,0.29415163,0.13011748,-0.1106486,0.09368086,-0.0417384,0.1012161,-0.0012424305,0.16289562,0.15291415,0.18129218,-0.07524048,-0.067916654,0.099237576,0.21723042,0.07727083,0.1719275,0.004284651,0.035123195,-0.08377179,0.1312834,-0.033590853,0.3107216,0.20271195,-0.23086914,0.18949296,0.060095806,0.2034905,0.040269997,-0.035993934,0.120230526,-0.23179276,0.12781714,0.0800284,0.3355832,0.06731603,-0.009984058,0.086264044,0.11572282,0.07741094,-0.039995972,-0.015878377,-0.124525875,-0.082308,0.04822069,0.045032036,0.15769728,0.09132307,-0.1006362,0.16493116,0.12347995,0.05295329,0.009391592,-0.010240022,0.11440904,0.158333,0.0048487713,0.1230009,0.020673867,-0.013044567,0.29212382,0.11949956,-0.13470377,0.13466398,0.068458445,-0.028961947,0.28256992,-0.28854218,0.37006935,0.22516559,0.22501542,0.13761218,-0.07049524,0.13466078,0.021903867,0.13679098,0.14137131,0.046213195,0.0333557,0.17545848,0.108707584,0.13275445,-0.10304627,-0.06681741,0.07468341,-0.02003986,0.024527756,0.26309913,-0.13817218,0.10006479,0.104097396,0.028747093,-0.016344607,0.072898336}, {0.2702802,-0.17200395,0.14058286,-0.051938456,0.014487605,0.1125871,-0.21942887,0.044697467,0.088145375,0.06351877,0.040406033,-0.06083171,0.055056643,0.10027601,-0.05074329,0.18356323,0.09999911,-0.19016404,0.18589647,0.11989965,0.0940504,-0.048232894,-0.21665446,-0.32622668,0.052391395,-0.0793983,-0.092084065,0.07139875,0.120122164,-0.009190049,-0.013965981,-0.06188173,0.12962583,0.109843396,0.2028582,-0.05773294,-0.067057304,0.012798203,-0.047463447,0.26911756,-0.0511463,0.16334675,-0.1298193,0.23122355,0.17569245,0.106084995,0.06282465,-0.07625356,-0.08190529,-0.08094825,0.008831726,0.11913837,-0.11267475,0.115896255,-0.19133355,0.027543982,0.07717148,0.08610053,-0.042077627,-0.069169,0.14521964,0.03320193,0.20899825,0.0048446693,0.04268878,-0.29852986,0.11094831,0.08077681,-0.06413722,-0.18254274,-0.14074954,0.0006940032,-0.054887176,-0.08655283,0.04938738,-0.1760658,-0.006037063,-0.0140430955,0.007115324,0.40237898,0.20156051,0.025964895,0.00025414143,0.32329506,0.024418566,-0.004635333,0.015710026,-0.017654765,-0.071799345,-0.07211295,-0.1861344,-0.0711067,0.53268087,0.15065157,0.061507404,0.004157044,0.112252094,0.11185258,-0.1637323,-0.061999988,-0.043732435,0.099783435,0.120186456,0.24754794,0.032746907,0.03862901,-0.1888184,0.065586634,0.02081521,0.17766449,-0.20593834,-0.1189861,-0.08433544,0.079085216,0.047441594,-0.09690584,0.036277924,-0.083451524,0.20538466,-0.3010376,-0.017953517,0.11541363,-0.055643167,0.28937826,0.124562524,0.11132687,-0.07734391,0.04724217,-0.087681286,-0.07079285,0.041397955,0.0014531135,0.12685135,0.030777704,0.1941592,-0.0412407,0.02033515,0.18560389,-0.20072821,0.16715352,-0.0929025,0.083228506,-0.07281453,-0.18303655,-0.005748208,-0.09287418,0.041742656,-0.13776787,0.039131064,-0.045580596,0.05209192,0.09875819,0.057292234,0.047657974,-0.037666727,-0.07410429,0.13368012,-0.08541189,-0.014636983,-0.105642475,0.05316195,0.17354964,-0.009211904,0.15120724,-0.007775489,-0.08675416,0.012251998,0.0061202263,-0.10415994,0.004213565,0.0096985055,-0.0014938945,0.21170901,-0.028670864,0.0075164437,0.08970445,0.17888556,-0.072171204,0.13718088,0.0336444,0.12786058,-0.04495498,0.16836467,0.080113776,0.4496186,0.17068286,-0.16865666,0.08972622,-0.027162906,0.22574095,0.09788594,-0.08354354,0.13729839,-0.33364695,0.046616707,0.008318666,0.44570684,-0.024048483,0.035631493,0.10036498,0.15446244,0.19684978,-0.055378493,0.038809158,0.17032492,0.13936503,-0.0018540496,0.046902116,0.20734142,0.047147963,-0.11014698,0.110678084,0.1425861,0.10251206,0.06516083,-0.048817176,0.071257904,0.19080895,0.16741088,0.18453935,0.06307118,-0.0810416,0.25911912,0.09937012,0.03812611,0.046738166,0.17679474,-0.088575,0.26862484,-0.21742871,0.17035674,0.16647689,0.045903355,0.049737643,-0.024322197,-0.058190566,0.060697965,0.048122317,0.022376718,-0.01189219,0.14035645,0.13410394,0.047080636,0.10265876,-0.21413943,-0.024293818,0.03190653,0.0677867,0.10088729,0.22406246,0.045451693,0.06578076,0.1512723,0.011256282,-0.14894511,0.043139603}, {0.19272603,-0.1261898,-0.013837318,-0.04972016,0.11350124,0.045874022,-0.16536321,-0.009192539,0.13441603,0.09326209,-0.054080185,-0.0020232818,-0.08842677,0.06760057,0.21146688,0.1651684,0.14357777,-0.21557856,0.19709948,0.177118,0.12715656,-0.059928183,-0.28729692,-0.16346863,-0.02243927,0.07361555,-0.1641207,-0.0018225441,0.13557653,0.037234217,0.18548632,-0.0351758,0.09658349,0.28314734,0.2663925,-0.046347342,-0.08955781,0.059858125,0.0040839124,0.095854536,0.07416592,0.16940098,-0.04700103,0.1448007,0.007214315,0.17553888,0.11609143,0.0002901853,-0.082184374,0.020336065,0.08897424,0.004967256,-0.1360024,-0.055832665,-0.16636617,0.077456616,0.05123746,-0.012684505,-0.1915062,-0.06770357,0.14798304,-0.011845476,0.26063874,0.088527456,0.022854934,-0.126533,0.12007843,0.081038855,0.05296328,-0.12758073,-0.29430655,0.009289919,-0.10848948,-0.011591458,0.03618357,-0.07597381,-0.023198878,-0.029818162,-0.043178685,0.33087036,0.05232593,0.0845735,0.0027350096,0.0071205013,0.016048951,-0.10637286,0.012117749,-0.022579882,-0.13036582,-0.10185631,-0.006325138,0.00075527,0.29184937,-0.00867696,0.060542688,0.019583808,0.1630396,-0.056797426,-0.16531359,0.025462681,-0.16014871,-0.021798892,0.056884732,0.14473964,0.10842754,-0.22656913,-0.083677314,0.008301062,-0.11896688,0.24350673,-0.0765336,0.117285915,0.080746554,0.067382514,0.04218779,-0.09584294,0.048585482,-0.024528714,0.09973131,-0.246757,-0.08065101,0.12348024,0.04096728,0.31670144,0.15254559,0.050689816,-0.04930027,0.006381187,0.0549263,-0.036938984,0.09974747,-0.046813447,0.00014529304,-0.106212735,0.027363168,-0.0387952,0.02690762,0.34571552,-0.08994682,0.19276384,-0.036082786,0.0860325,-0.14426266,-0.32824174,0.14666386,-0.060708277,0.036972072,-0.24677168,-0.018437905,0.087623894,0.08267682,-0.043797486,-0.028812183,0.14116395,-0.05927822,0.033895615,0.06409376,-0.012412711,0.087297045,-0.026328862,-0.10750005,0.12836257,0.062655,0.119200855,-0.02896657,0.03808002,-0.12355355,0.04513243,-0.14070432,-0.07667635,0.09328028,0.027918788,0.06835358,0.099721484,0.089405954,0.14593871,0.1229199,-0.095895775,-0.036575835,0.097495034,0.052296244,-0.020982513,-0.030706605,0.207378,0.40026942,0.048932448,-0.092117086,-0.10414082,-0.05560898,0.19906451,0.039564837,-0.1131382,-0.01167258,-0.14922635,0.08949044,0.06316399,0.31290355,0.006093499,-0.09498579,-0.057415303,0.07000405,0.18848178,0.031465884,0.099072166,0.040799215,0.09748447,0.073904954,0.01189624,0.162292,-0.014621805,-0.17099686,0.19027376,0.12471113,0.010489965,0.010212405,0.057097223,0.16350941,0.018074041,0.14378127,0.13252231,0.101163775,0.00790209,0.2557106,-0.011150448,0.026129974,0.006870053,0.14003448,-0.3039663,0.16105025,-0.31190923,0.15007684,0.06056478,-0.00032697327,0.019141769,0.056956112,0.016091919,0.0007157238,0.11388288,-0.0025913867,0.034038465,0.07365269,0.24048801,0.011041371,0.14622262,-0.27014753,-0.09662136,0.0030509897,0.07231823,-0.031663146,0.22161879,0.03963562,-0.034563124,0.048474155,-0.03103316,-0.04488562,0.024411837}, {0.19738643,0.037848175,0.044059526,-0.09197546,0.0065342127,0.040869992,-0.13710845,-0.052910995,-0.028704602,0.081132516,-0.10677126,0.015113688,0.01653576,0.009365902,0.20379263,0.12988661,0.082052894,-0.26610705,0.07486498,0.13029605,0.02449275,0.20682837,-0.18088172,-0.06921931,0.11461608,0.09123159,0.06031874,-0.09596021,0.06727271,0.098179415,0.18666947,-0.15051612,0.033953864,0.2002065,0.24511324,0.054131333,-0.06919103,0.044997565,-0.117545746,0.09266926,0.048648182,0.097197965,0.04324603,0.26210368,-0.03239075,-0.016985903,0.16645376,0.121531494,-0.041956943,0.09623233,-0.0463774,0.08607382,-0.14766032,-0.10477135,-0.07585709,0.22897924,-0.02694379,-0.011397819,-0.19456092,-0.073475964,0.031019881,-0.028246546,0.26038727,-0.028391995,-0.046253905,-0.022159647,0.099929914,0.05630492,0.050746486,0.04195681,-0.37289733,-0.051282562,-0.021032615,0.05084444,0.00019113504,-0.153318,-0.008186198,0.051764704,-0.07424226,0.24661815,-0.08931583,0.09359096,0.03309601,-0.10524619,-0.067327715,-0.062008474,-0.047648557,0.03390194,0.05156065,0.061007205,-0.095786214,0.10866737,0.08223082,0.0689315,0.058063667,0.049487673,0.04902143,-0.0531608,-0.008622189,-0.053407837,0.07240583,0.14465125,-0.009865545,0.17437679,0.24970412,-0.20195779,-0.12366576,0.1303965,-0.034168463,0.11088348,-0.17018229,0.25619134,0.22262369,0.103483744,0.030172192,0.06715079,0.09503877,0.12217421,0.049703225,-0.05948322,-0.02054919,0.1622738,0.096735224,0.23687609,0.16142447,0.11136117,-0.013963051,0.061467696,0.15124917,-0.029662937,0.079285525,-0.03615073,-0.20865554,0.013494978,0.033349287,0.05026275,0.11180478,0.27105638,0.0701895,0.20694482,-0.03293256,0.019071165,-0.14141059,-0.15750512,0.18152858,-0.06566491,0.12830506,-0.28464726,-0.08746298,0.059767485,0.12270786,0.0008583742,-0.015881859,0.16859153,-0.0016933753,0.0036715528,0.19611233,-0.04045151,0.056329172,-0.032019325,-0.13461165,0.059321072,0.088507906,0.003368774,0.17418614,0.0668081,-0.23964374,0.027783887,-0.21543889,0.11196601,0.023513926,0.058141153,0.002554807,-0.03658303,0.059686698,0.18228996,0.15275419,-0.06385324,-0.057099115,-0.08380708,0.013387215,0.033421967,0.090672426,0.13795558,0.17963101,-0.094845004,-0.035396777,-0.21432772,-0.09818469,0.09737848,0.14666703,-0.021862205,-0.030329954,-0.034417078,0.008345514,0.07782816,0.19771074,0.13533926,-0.058077782,0.0048492304,0.15248396,0.08347637,-0.015382854,0.12693329,-0.03510936,0.09261734,0.06405564,-0.0012053379,-0.09742284,-0.2867562,-0.27503136,0.13362978,0.08513304,0.09027911,0.11117622,-0.0139196925,0.059982616,-0.05031319,-0.024125347,0.11407257,-0.033254832,0.026370943,0.19046204,-0.021934807,0.05944603,0.104580455,0.04492936,-0.22391127,-0.033818375,-0.36603853,-0.009363389,-0.10640733,0.014468647,-0.15490063,-0.002667348,-0.05714478,-0.041869555,0.05789793,0.09354106,0.054076735,0.00061079144,0.11511661,-0.008545463,0.05010751,-0.028726026,-0.069487534,0.12128662,-0.012534441,-0.1145512,0.23841558,-0.0392226,-0.026882559,0.19856131,-0.091734014,0.07475257,0.058619827}, {0.085497335,0.083468996,0.13938835,0.057463802,0.09050115,0.12037392,-0.11614311,-0.007713945,0.06399042,0.19342862,0.0022273895,-0.0023699552,0.056466386,0.05269512,-0.017893186,0.07118459,-0.053279787,-0.25781,0.11255486,0.12641248,0.033665806,0.28366825,0.03088901,-0.010773204,0.14687937,0.1986001,0.108097635,-0.038965523,-0.015079454,0.07798331,0.3674448,-0.012024846,0.03745651,0.2362607,0.18846409,-0.0410713,0.02234088,0.05725962,0.0462806,0.11597112,-0.01665882,-0.0076030516,0.05260152,0.21691082,-0.06832832,0.052293416,0.10584363,0.12635313,0.13152038,0.1306561,-0.050058864,0.047536984,-0.08984603,-0.018997792,-0.00092182454,0.22403856,0.15021895,-0.05661374,-0.23808087,-0.08296559,0.04276924,0.030526392,0.20643547,0.028387778,-0.038182043,-0.23101485,0.019987607,-0.022502039,-0.043965496,0.08034633,-0.33076587,0.044589445,0.10027816,0.00021867233,0.13877037,0.045390483,0.05271128,0.030103832,0.025190284,0.1248833,-0.01979725,0.06936796,-0.010977119,0.0114744585,0.008966109,-0.101902366,0.063601084,0.008977951,0.17447737,0.103522755,0.041923117,0.10815727,-0.021464469,-0.030910835,-0.010778753,0.06929774,0.11546928,-0.16049542,0.13078167,0.020947,0.060773242,0.19239874,-0.034947347,0.114600845,0.16245669,-0.07186597,-0.064624324,0.039014015,0.09956708,0.07984299,-0.117417134,0.27862298,0.23705302,0.10002941,0.09449971,0.09162861,0.12846197,0.10500633,0.12236464,-0.020729432,-0.032950662,0.11664975,0.0580374,0.13524623,0.19187155,0.16282387,0.07589326,0.047302794,0.046648674,0.0010685913,0.19975016,0.021391213,-0.011580221,0.030975355,0.12928478,0.00042757695,0.19065326,0.22353646,0.10223003,0.12336874,0.00022789865,0.0258578,-0.0090904515,-0.03573233,0.15825309,0.04975814,0.0037582472,-0.16519378,0.03144686,0.018253706,0.09996706,0.13113713,-0.03726551,0.14412795,0.024957065,0.010834646,0.17507073,0.0135203805,0.014259863,-0.064209424,-0.05061988,-0.020170547,0.24737406,-0.0032814604,0.14758953,0.109773874,-0.117672995,0.13394374,-0.022197574,0.09176983,-0.03783463,0.010538497,0.19629447,0.086412914,-0.07014927,0.061646283,0.00071112864,0.032530185,-0.07106298,-0.057540253,0.037443385,0.073509574,0.17585438,0.15653457,0.0842474,-0.028019343,-0.029626623,-0.13934547,-0.047358967,0.09705989,0.055824794,0.13676603,-0.059705596,0.12537628,0.06914896,0.16088226,0.24893749,0.10487323,-0.0175119,0.052284647,0.1031337,0.057101082,0.013780673,0.06062259,0.06538791,0.124526,0.08938706,-0.050264172,0.08583237,-0.21670707,-0.23462497,-0.065581396,0.08868073,0.056035,0.067306556,-0.006804484,0.114682026,-0.03891939,-0.0028008975,0.06287653,-0.040776797,-0.055194877,0.08412515,0.22099853,0.06049677,0.117488734,0.05173006,-0.044179987,-0.059690695,-0.39317903,-0.011487359,-0.19529685,0.015611011,-0.014133693,-0.019571826,0.011663455,0.04181263,-0.027725406,0.20027892,0.15577766,0.08259582,0.18525656,0.088295005,0.124320604,-0.079269014,-0.048447404,0.13520789,0.015520665,-0.095050566,0.089198604,-0.06714053,-0.0156093,0.16790134,0.056073487,0.06106252,-0.057832368}, {0.013894841,0.16602194,0.12262931,0.11874209,0.114452764,-0.005862095,-0.13217276,-0.06955511,0.0014126555,0.23287119,-0.02739345,0.061652955,0.13307907,0.027039072,0.014390921,0.033946503,0.020236522,-0.2552883,0.064473756,0.067854136,0.20215558,0.08761305,0.115809895,0.00061986444,0.17080952,0.26127917,0.19714946,0.13482921,-0.049963456,0.1521616,0.2914924,-0.0038324406,0.0645562,0.17701231,0.0721347,0.08853992,0.1491288,-0.08477908,0.06531313,-0.03743017,-0.03621994,0.16575417,-0.024454927,0.116899654,0.024665024,0.06865867,0.21236166,0.21822952,0.1192228,0.009542063,-0.115602694,0.12423983,-0.061252646,0.13631563,0.01909564,0.15890592,0.15036033,0.10076148,-0.10708977,-0.036403954,-0.0050666407,0.19689362,0.16687581,0.1938448,-0.010407234,-0.15317719,0.08615343,0.022028113,0.002028917,0.22913519,-0.22520773,0.068110935,0.091442995,-0.013832496,0.14457975,-0.010565267,0.018117053,0.022472614,-0.14303891,0.20637992,-0.022118196,0.033459388,-0.05709671,0.047569387,0.023416886,-0.09674626,0.07935083,0.15188149,0.18978879,0.104152754,0.14800958,-0.03946728,0.076246,0.0811402,0.096055046,0.13174509,0.11414691,0.010884003,0.25647584,0.09243687,0.1273281,0.097657315,-0.022788022,0.059372336,0.10457831,-0.004448939,0.056593753,0.036786903,0.060641717,0.09388288,-0.030837622,0.25489295,0.17310268,0.14275584,0.024588382,0.06541093,0.13505115,0.13761453,0.07490325,0.12982559,0.02618722,0.10275786,-0.0039510573,0.16298938,0.10892075,0.07324748,0.050159685,0.17705435,0.09853614,0.10139209,0.12157783,0.03712622,0.14682396,0.06591123,0.06587452,0.15936172,0.3400248,0.20227496,0.07873546,0.22682089,0.024979716,0.10879898,-0.008025786,-0.017354546,0.11697965,-0.0058879205,0.07821,-0.13497901,0.017990084,0.0017896281,0.1693232,0.03522052,0.0816333,0.14397068,0.010549113,-0.096028894,0.1611033,0.10590279,-0.038730532,-0.08773871,0.016140671,0.060224652,0.26455137,0.12081278,0.059584,-0.0264213,-0.12544401,0.116198264,-0.0029326573,0.015701039,0.07415149,0.048102945,0.12750128,0.014645555,-0.07673458,0.16396904,-0.0043324763,0.13239028,0.0010677187,-0.018185148,0.038069326,0.059618775,0.07150203,0.091401786,0.020389203,0.07561156,0.11287578,0.039190847,0.01899309,0.12129296,0.07240077,0.101941176,-0.1355633,0.1810843,0.09616314,0.14965422,0.12654448,0.110042445,0.0036043082,0.04963094,0.0100844875,0.0060805473,-0.022340823,0.1601231,0.124912545,0.042739432,0.18202707,0.09668861,0.10876509,-0.023254443,-0.1959348,-0.008424846,0.06395335,0.05877796,0.1015532,0.0062162713,0.12557776,0.022369131,-0.017649446,0.16518113,-0.016173026,0.07144321,0.11886138,0.1936688,0.1110698,0.00725904,0.15058954,0.07371438,0.040196758,-0.14290115,0.004858119,-0.065200806,0.1056685,0.043825746,-0.014108946,-0.023936737,0.14747807,0.08779835,0.16985619,0.11663578,0.07075339,0.10240284,-0.0026909357,-0.04862562,-0.12091838,-0.06448803,0.11713199,0.10304107,-0.053818535,0.06702364,-0.0652174,0.18051407,0.15821907,0.16168566,0.13810499,0.0016729272}, {0.11729316,0.10341109,0.10624207,0.099151164,0.12843844,0.02842698,-0.028641595,0.057389513,0.07830727,0.22125208,0.057546332,0.00926649,0.17862342,0.105962545,-0.029589625,0.069826886,0.16882248,-0.17130345,-0.027979929,-0.016207367,0.1389806,0.09644133,0.3235497,0.051328145,0.18304713,0.1429887,0.23509954,0.0066256835,0.060138043,0.09997532,0.14505729,0.10888649,0.023662485,0.13462433,0.08778562,0.06720348,0.13343865,-0.09369399,0.107172154,0.0075355307,0.0050861756,0.15321949,0.04374182,0.08960029,0.017577233,0.007240995,0.0942365,0.15686588,0.10802799,-0.03441898,-0.02333106,0.04908779,-0.021843493,0.047183394,-0.033777855,0.06634758,0.09620193,0.13714267,-0.08750596,0.00966528,0.094846256,0.24254888,0.07578132,0.1634509,0.13761523,-0.1375895,0.07276754,0.04996704,-0.009207543,0.07486295,-0.055650063,0.004392145,0.07818019,-0.1265646,0.05683888,-0.03867775,0.07802234,0.051855315,-0.022530496,0.17163876,-0.03428572,0.043292783,-0.030347917,0.09299157,0.055753265,-0.091417454,0.09361806,0.028050346,0.14585435,0.17152065,0.09965293,0.062143426,0.046831563,0.086469375,0.00863937,0.022454556,0.13398315,-0.07545594,0.11334374,0.14305133,0.10547359,0.1285648,-0.075470045,0.07340942,0.19176643,-0.012934221,0.007542012,0.049834117,0.103261314,0.116145976,-0.054398134,0.056368865,0.17153382,0.15202747,0.037595194,0.11072921,0.22508097,0.12856366,0.09439609,-0.013460617,0.0019376165,0.0006797629,0.107793584,0.01880152,0.06623386,0.19948268,0.06508345,0.10297541,0.02049958,-0.031759072,0.10694752,-0.0462108,0.114506796,0.108001925,0.1604378,0.16740401,0.17705406,0.18132167,0.07534499,0.15001,0.06705718,0.09116483,0.12002425,-0.020297512,0.17718534,0.029597627,0.15275602,-0.10425271,0.090782695,0.0410959,0.18356308,-0.09466462,0.023781864,0.19556141,-0.045290098,-0.02940226,0.041744478,0.082684,0.03338967,0.063671164,-0.06888084,0.105900705,0.14021386,0.09263689,0.055769112,0.0005646937,0.0029287036,0.11964022,0.12753655,-0.028906709,0.0757579,0.06561602,0.122391626,0.01261898,0.010002444,0.1457209,0.07168303,0.10868006,0.05317645,0.1339811,0.20123644,0.071944796,0.09775435,0.17185064,0.02996732,0.14619802,0.05519456,0.014065162,-0.008085189,0.07216314,0.12019851,0.0561354,-0.0862378,0.21949148,0.1221567,0.20861857,0.032568984,0.14283732,0.13918495,-0.046062823,0.16849703,0.10816729,0.05226969,0.15126805,0.15407735,0.06476963,0.12528665,0.13709846,0.21503936,-0.07715874,0.027863119,-0.027050843,0.054857027,0.13319263,0.12319653,-0.054379184,0.008432105,0.1672497,-0.0435931,0.06678224,-0.06666057,0.008493756,0.03713231,0.19952565,0.056163665,0.07190503,0.16519849,-0.00091544894,0.08021907,0.053435378,-0.073546894,-0.036771163,0.024164079,-0.026162842,0.08936454,0.09799171,0.07201771,0.08429744,0.12751587,-0.0021034232,0.067214906,0.15546113,0.0024205607,-0.012713689,-0.05908211,-0.110911846,0.04873403,0.12630168,-0.09472564,-0.029690899,0.03864413,0.10665957,0.03889174,0.14822951,0.070742115,0.09885078}, {0.041897353,0.06012692,-0.010397713,0.11073972,0.0026953153,0.16135605,-0.1011688,0.021509895,0.1454326,0.15152116,0.0579707,0.07451703,0.12775873,0.12361951,0.0042637615,0.12285781,0.031977803,-0.052834738,0.03291294,0.11500947,0.14856249,0.07078148,0.23920794,0.1258855,0.217327,0.07402981,0.17513244,0.0686444,0.10764836,0.16276933,0.121218786,0.10294603,0.050929543,0.13448927,-0.0004415632,-0.022588594,0.14198749,0.02830718,0.13421187,0.025630986,-0.03291084,0.047175765,0.0003400606,0.09799619,0.06462166,0.013270904,0.10306889,0.2497334,0.06467507,-0.0935449,-0.031623587,0.036244586,-0.07367624,-0.008178717,-0.08941442,0.15018839,0.107293315,0.14925662,-0.03781241,0.13814336,0.106215194,0.10887903,0.057701927,0.17509285,0.077282965,-0.25378326,0.09913826,0.03394356,-0.08134529,0.050225943,0.014068345,0.10860304,0.12277779,0.03679735,0.1551107,0.1126052,0.09249408,0.19462502,0.09877099,0.15306921,-0.012171658,0.114697784,-0.04404529,0.019738708,0.13776062,-0.06905769,0.1286188,0.10840283,0.12134095,0.06830572,0.24218106,0.045998722,0.15504077,0.14953098,0.07466075,0.088010326,0.13624337,-0.050309498,0.21649028,0.039432507,0.1408456,0.12753332,-0.013331814,0.09060509,0.06155963,-0.064022034,0.092241414,0.060120564,0.09478849,0.105405346,-0.054162927,0.13527535,0.17993963,0.12184572,0.17248501,0.17057918,0.12114286,0.11960803,-0.07618262,0.05518646,0.077743396,-0.012533975,0.10979687,0.028897902,0.10189976,0.12518466,0.06660114,0.08986419,-0.004192086,-0.03791185,0.14427063,0.030965373,0.019306647,0.18392912,0.15864937,0.11819919,0.097573675,0.1537026,0.02892573,0.2510827,0.03561161,0.12429422,0.16350575,0.021479849,0.11609664,0.031423386,0.10040673,-0.07149654,0.051423278,0.19680834,0.12458328,0.0854364,0.08737814,0.06798081,0.10719656,-0.021079704,0.08037062,0.08047356,0.093469776,0.050386593,0.046272986,0.18936434,0.0961979,0.013425494,0.07164471,0.14620754,-0.04603685,0.090732954,0.11770047,0.0015385387,0.036697738,0.024880499,0.12558596,-0.01297499,0.07989167,0.038830295,-0.053082757,-0.003158039,0.10384303,0.10586347,0.11112496,0.122121185,0.07866097,0.055777587,0.032059044,0.12381627,-0.030451376,0.07460531,0.09857016,-0.00690335,0.16086957,0.11054947,-0.09324656,0.12188003,0.19280045,0.14336333,-0.004450303,0.03637481,0.03814889,-0.0036471223,0.08629766,0.12435397,0.12481572,0.027474249,0.12549722,0.18918286,0.13809623,-0.011854671,0.1446788,0.009223688,-0.029410064,-0.029956402,-0.023626955,0.07086042,0.18878172,-0.024830952,0.005081628,0.16646937,0.04830399,0.068864,0.04686398,0.090933286,0.060127907,0.18898687,0.11456969,0.12760079,0.15735877,0.07126901,0.0009601059,0.079098776,-0.11858153,0.17277816,-0.051686075,0.0730808,0.1179964,0.1533705,0.17634559,0.025798831,0.124012984,0.010929557,-0.06497898,0.1272158,0.16340129,0.05820623,0.068995275,-0.03668949,0.008142454,0.08231654,0.035117917,0.04264358,0.03028531,0.04667839,0.08478019,0.092057936,0.11124367,0.011153878}, {0.037212085,0.10481239,0.043152317,0.034891132,-0.05942399,0.2014036,-0.019098734,0.1520207,0.20718297,0.13542895,0.008835885,0.05938227,0.19536953,0.14222543,0.11347269,0.072114035,0.096579835,-0.06756359,0.017073523,0.0765193,0.13505976,0.035307065,0.107875705,0.06027312,0.052397348,0.12235094,0.12098133,0.08136592,-0.02211013,0.12416631,0.10123216,0.106319666,0.075189166,0.041178927,0.088068135,0.047093656,0.14668472,-0.013082472,0.08530487,0.08611624,0.036302302,0.063491195,0.067929626,-0.067350104,0.016075106,0.10596494,0.11479796,0.09507007,0.07303974,-0.17966853,-0.012024344,-0.018342031,0.06557111,0.13495703,0.058315374,0.14270598,0.15212904,0.11097233,0.050674092,0.07505693,0.14452314,0.091564156,0.056401867,0.12032829,0.14833967,-0.105071366,0.151898,0.13228835,0.06063444,0.15306598,0.08993635,0.091527544,0.10914388,0.040712576,0.09064021,0.13501051,0.09384554,0.08910521,0.09756829,0.07604961,0.09817181,0.014636526,0.039004937,0.12663597,0.044816714,0.020247675,0.09784669,0.044687107,0.12675281,0.17540753,0.20149663,0.044878222,0.14691462,0.07962275,0.09493689,0.09709384,0.1870858,-0.013372662,0.017052015,0.07452609,0.08538987,0.11022943,0.081499174,0.123170026,0.13441826,-0.027037498,0.10049922,0.0029316996,0.12736493,-0.0015728303,0.12609792,0.033307623,0.15172113,0.070093,0.15956652,0.13612576,0.14735712,0.12379708,-0.018301265,-0.02880332,0.16215953,0.097005755,0.18730009,0.020727443,0.16671549,0.04623316,0.09337349,0.10203352,0.11825073,-0.022289287,0.0022244982,0.17322098,0.09030654,0.17831893,0.19202258,0.14509432,0.12722497,0.1537341,0.15099953,0.15085824,0.050209124,0.15135586,0.04531607,0.11832716,0.17348017,0.14507048,0.0086878585,-0.045765433,0.02700782,0.17553571,0.18145785,0.13167715,0.041934177,0.08090884,-0.0026146488,-0.009932147,0.060052786,0.06234767,0.03368601,0.032750364,0.0035891077,0.102369435,0.13795929,0.08148323,0.09511586,0.109262906,0.08178891,0.11066478,0.24744976,0.032116476,0.1535746,0.03000137,0.087255456,-0.018349431,0.024089905,0.13554688,0.059974995,-0.019597704,0.07927002,0.120783746,0.14784186,0.059884757,0.053428847,0.019000132,-0.052073363,0.16209814,0.036621228,0.06914899,0.18034051,-0.03208003,0.09456172,0.17796662,0.046732098,0.061174087,0.105560146,0.11968221,0.047657058,0.11597227,0.1746619,0.015534772,0.1423054,0.07354784,0.019537136,0.09426557,0.078245245,0.119916886,0.13927217,0.013267262,0.10689869,0.081686266,0.09650675,0.07353379,0.056752916,0.1769013,0.12139177,-0.14081702,0.012546083,0.22458027,0.14471874,-0.007545058,-0.035615608,-0.014140164,0.088196926,0.1179529,0.15637955,0.10485551,0.16324393,0.026334293,0.10808829,0.16651475,-0.14448638,0.04800324,-0.09880013,0.17959745,0.11636044,0.10801007,0.17133045,0.07136814,0.053059164,-0.034997378,-0.013956813,0.026168952,0.20666435,-0.04395478,-0.01077389,0.028808864,0.07432724,0.115346804,0.017540593,-0.0035896066,0.14485544,0.123331904,0.03685267,-0.0027154384,0.07191334,0.16553621}, {0.068993695,0.18848528,-0.030214166,0.06080308,-0.028801113,0.14278816,0.012412286,0.04401834,0.10315578,0.12986365,-0.029278869,0.11427578,0.115296036,0.053286515,0.18674646,0.15543047,0.024614517,-0.059953894,-0.059072323,0.12139665,0.07345783,0.11339995,0.066990025,0.105211735,0.1728409,0.011206302,0.06260778,0.13349773,-0.0277463,0.033427242,0.087448336,0.12985905,0.114951864,0.12930326,0.003820999,0.10197821,0.01250395,0.14420739,0.15485439,0.16825585,0.06803732,0.086857975,-0.005142684,-0.02392458,0.118791066,0.15576977,0.052699767,0.0864676,0.02005199,-0.10794012,0.015619633,0.005404342,0.032685034,0.07507981,0.035072275,0.116956584,0.1181121,0.08084174,0.1870314,0.043618742,0.04604884,-0.018659854,0.11044399,0.15558006,0.18699542,0.05851477,0.16874088,0.076968096,-0.009999529,0.12637377,0.08621796,0.054710686,0.08698831,0.038179465,0.047188617,0.09967793,0.116938785,0.14855601,0.06772962,0.018680485,0.13379344,0.12606373,-0.011697184,0.059490975,0.040903274,0.0991549,0.15897746,-0.037102945,0.05431457,0.18982464,0.12646082,0.06381775,0.036587697,-0.03427491,-0.00064691476,0.06718998,0.22178707,0.035160284,0.07545378,0.1159761,0.16777295,0.035374407,0.008698509,0.06387811,0.053111956,0.05359869,0.09165475,0.091986194,0.16002741,0.098506674,0.10194594,0.08884205,0.05468791,0.021283288,0.14245257,0.16544016,0.14111866,0.13373195,0.109623104,-0.1103712,0.24036986,0.06298758,0.107675344,0.07193869,0.040207375,0.10573158,0.027794491,0.10289556,0.1329681,-0.07955236,0.039835133,0.097600766,0.12573937,0.18183218,0.1538948,0.17228638,0.12429883,0.15264773,0.04131893,0.08497756,-0.0950835,0.043137606,0.13173805,0.039440274,0.088168405,0.04023092,0.010216489,0.050261416,0.09144999,0.16478819,0.101732016,0.17022201,0.13256913,0.0691282,0.02650649,0.028826736,0.10348592,0.06304968,0.09267708,0.05597267,-0.029281916,0.061431795,0.056304134,0.0893477,0.15644729,0.10756864,0.0068699853,0.14789484,0.24454641,0.12440291,0.04861905,0.09097693,0.055726267,0.105484076,0.10380298,0.05030683,0.025391428,0.08116304,0.0935285,0.0597809,0.17051609,0.1341411,0.10229715,0.0913405,-0.07945158,0.05233194,0.009039559,0.11946094,0.08768125,-0.04612028,0.07956406,0.13660638,0.124844484,0.059274506,0.1464909,0.14282085,-0.03494227,0.10881678,0.17043746,0.008220638,0.09749487,0.061668787,-0.0091176,0.18696055,0.074681,0.18854262,0.04058879,0.07276051,0.1692586,0.18680504,0.17065871,0.011141906,-0.048983674,0.061050225,0.06549566,-0.101221755,0.014395219,0.16736801,0.09973378,0.014199333,-0.0072007817,0.062168196,0.10528206,0.0681506,0.16019459,0.06123164,0.22368377,-0.07783376,-0.010922452,0.114749454,-0.13813297,0.060485076,-0.099112034,0.12651467,0.020658154,0.12005425,0.09735085,0.10356575,0.048390135,-0.034507062,0.00858376,0.09127059,0.195336,0.053870026,0.09306208,0.12645896,0.0620971,0.14296035,0.11461102,-0.026036367,0.111416146,0.07176603,0.09960969,0.1548497,0.007965472,0.06253731}, {0.04695512,0.14312439,0.069702305,0.07091432,-0.049917348,0.06948681,-0.07724909,0.13281158,0.10271248,0.090377524,0.085808896,0.12688774,0.17709327,0.0893111,0.18763407,0.11595369,0.041449383,-0.028900554,-0.066664025,0.1231643,0.12746906,0.02296451,0.082252875,0.13127096,0.14937842,0.08238005,0.02790855,0.024164781,-0.012056289,0.039031073,0.08557243,0.027584413,0.14878583,0.112449914,0.12953992,0.048161875,0.14028217,0.1685102,0.12623921,0.0604667,-0.0055820625,-0.004986006,0.027697941,-0.025314666,0.15702535,0.16279963,0.05071974,0.05268313,0.08668876,-0.16137922,0.0050839796,0.030987388,-0.00747694,0.13030165,0.06249906,0.08454723,0.10597624,0.15808928,0.10543986,0.08592824,0.080468014,0.007357886,0.10234809,0.16069037,0.08835781,-0.020611376,0.15241556,0.028086927,0.028995084,0.06635972,0.07027642,0.044869803,0.14219536,-0.008371353,0.022905441,0.10838146,0.20984738,0.123605244,0.089750215,0.06976512,0.14953297,0.0985966,0.08695048,0.074416354,0.11714781,0.05444551,0.16764374,-0.06099767,0.15771458,0.14040843,0.18881184,0.020580614,0.025510054,0.08158686,0.058363877,0.16302082,0.21895725,0.018025948,0.14111964,0.085296564,0.062125437,0.09943432,-0.033759728,0.09495741,0.10602224,-0.008452658,0.11187033,0.119905904,0.10100295,0.10577896,0.047497373,-0.0016014522,0.16584848,0.026553886,0.08028346,0.13485913,0.14669523,0.14185554,-0.011554419,-0.12953697,0.19181712,0.024701335,0.1843493,0.01622529,0.11414794,0.15025803,0.10568831,0.1279243,0.17217547,0.0050767222,0.03728038,0.0861929,0.043134563,0.18974511,0.15065102,0.09742542,0.08339844,0.060010727,0.14639941,0.024730856,0.017833034,0.07824296,0.043657813,0.02019137,0.10049697,0.03956255,-0.0054119923,0.07441718,0.02997521,0.12659478,0.19906576,0.15356655,0.12641898,0.05697405,0.07141572,0.04496351,-0.011507227,0.09976076,0.10017632,0.052668676,-0.038491875,0.037148096,0.07700931,0.0854408,0.11166137,0.04237406,0.03959722,0.12326582,0.2117034,0.08432365,0.056017913,0.027247833,0.040285982,0.00856044,0.0030797662,0.1669181,0.018566739,0.14160766,0.048232358,0.18115847,0.16829082,0.16662285,0.055969127,0.08392761,-0.028532326,0.13832584,-0.06709405,0.08037217,0.07391859,0.02080414,0.04310363,0.15138015,0.07303081,0.035579477,0.10355508,0.116970494,0.0064553977,-0.01411515,0.07600741,0.1187327,0.12955812,0.14887728,0.007258915,0.08264963,0.12126901,0.08188205,0.17596012,0.06833399,0.16293573,0.1598001,0.12801416,0.013697389,-0.026545374,0.16105948,0.13953091,-0.00805736,0.07768303,0.07830013,0.17136453,0.0126949875,-0.033390526,0.08101455,-0.038248315,0.10337832,0.14486559,0.015334634,0.09406467,-0.0059383684,0.07277361,0.10267644,-0.12630785,0.12379198,0.022024421,0.16676,0.13320631,0.060560293,0.04001998,0.112662196,0.052381236,0.014526936,0.011098133,0.040470693,0.16547565,0.09528827,0.05262074,0.1854875,0.049391653,0.19014658,0.0714685,-0.041841008,0.13480656,0.036862716,0.06255366,0.07498147,0.10762522,0.11097377}}
#define W_LSTM_KERNEL_I_WIDTH 28
#define W_LSTM_KERNEL_I_HEIGHT 256