#pragma once
#define W_LSTM_RECURRENT_KERNEL_I {{0.05329548,0.0030993859,-0.053581566,-0.04643512,0.030021047,-0.122033656,0.023089899,0.14238949,-0.014212688,-0.0018269694,-0.02713636,0.08511037,-0.037067037,-0.09273004,0.16998723,-0.109657496,-0.016037814,-0.14501764,-0.069536276,-0.07941798,0.11291353,0.048043884,0.03765118,0.3395105,0.022187516,0.12670182,0.11844555,0.006756923,0.06393103,-0.019273357,-0.025864698,0.1926725,0.09998691,0.14292014,-0.005103701,-0.005645705,-0.014439125,0.054780073,0.14234743,0.25553307,0.024466397,0.10224615,0.10641894,-0.055447645,0.06259282,-0.006159464,-0.095215686,0.18607917,0.053759802,-0.06803161,0.21071221,-0.17233942,-0.123793095,-0.091911845,0.11637025,-0.14030127,-0.15510076,0.05182533,0.085381284,0.0408195,0.049346082,0.033282083,0.0074601495,-0.24160902,0.014539875,-0.161252,0.01740674,-0.14176989,0.059312314,-0.21506669,-0.01712651,-0.104846746,0.00088710623,-0.044383235,0.0909173,0.17199954,0.13468231,-0.014531073,0.085529216,0.14406718,-0.22119804,-0.003596938,-0.044225805,0.035062455,0.10642583,-0.15659809,-0.09118556,-0.12785378,-0.089927435,0.050778612,-0.046552677,0.18681987,-0.13474676,0.13987096,-0.088800035,0.10448592,0.035995636,-0.1562993,-0.043043554,-0.073710285,-0.050101902,0.1940298,-0.1176675,-0.23822342,-0.057716336,0.09741657,-0.093989104,0.021498522,0.011296957,0.17035964,0.091358654,0.032442894,0.112701476,-0.0031063799,0.058344543,-0.38687095,0.19373395,0.2407339,0.06786494,0.048978444,-0.013314953,0.024583159,0.063008375,0.1570754,-0.053125154,0.10936706,-0.20720811,-0.008881653,0.1792411,0.01185644,-0.19704662,0.08380692,-0.04495665,0.041797817,-0.040344562,0.027736321,0.044316385,0.023616886,0.15134731,-0.13551049,-0.19244425,-0.15692662,-0.010098121,-0.067057185,-0.01847305,-0.13755296,0.23100151,-0.029411552,0.19241706,-0.10563003,0.08958829,-0.072528414,0.07976082,0.0052614645,0.000531341,0.022685679,0.07556334,0.08449232,-0.051100682,0.06091117,0.109055236,0.011961811,0.009474829,-0.21641989,0.04142783,-0.059593264,0.047085155,0.13317695,0.16210648,0.04805331,-0.018084299,0.10648663,-0.116430834,0.120886184,-0.021934533,0.064367324,0.10045854,-0.13612671,-0.15786675,0.094876744,0.06065783,0.06809869,-0.06073596,0.12160263,-0.026244288,-0.12820865,0.21610841,-0.112381585,0.10479192,-0.042554393,-0.030998416,0.24295719,0.17238851,-0.021302162,-0.046509083,0.25316778,-0.100147575,-0.072182775,-0.20622137,-0.2099645,-0.08696262,0.20982175,-0.05581554,0.045690462,0.0033503526,-0.069461845,0.12221276,0.16197115,-0.075952314,0.020456417,0.019944292,0.19212843,-0.083012104,-0.051078875,0.151474,0.040049195,0.15566626,-0.01723096,0.16660663,0.040195826,0.057967097,-0.10366658,-0.05291192,0.012061857,-0.27810156,-0.022647379,-0.17379235,0.18640402,-0.13860072,0.032839958,0.020769577,-0.07148036,0.018267455,0.11838742,-0.2830643,-0.16926911,-0.0659403,0.11062228,0.27080482,0.14264981,-0.043988474,0.18982427,-0.045033377,0.04246407,0.17589326,0.16572274,0.06192708,0.086567566,0.073407345,-0.118850745,0.15639906,0.01045569,0.046951097,-0.07253736,0.20084776,-0.040076293}, {-0.21017045,-0.057698306,-0.07009145,0.23054278,0.050677836,0.06632213,0.22464584,0.042809945,0.015731154,0.03414024,0.08243185,0.009836521,0.09150424,0.04812259,0.09384388,0.093439944,-0.156788,-0.09312174,0.037243966,0.13143028,0.15220137,-0.085161105,0.058953255,0.018137407,-0.12635477,-0.0028447295,0.025774177,-0.18957673,-0.14271347,0.03301661,-0.030833231,-0.015721558,-0.20144904,0.0074693547,0.049490888,-0.041769397,-0.1482171,-0.26083595,-0.030157158,0.40899733,-0.12945414,-0.1573306,0.0015374986,0.010099405,-0.096457064,0.14024024,0.1668246,-0.10944943,0.07929449,0.27755752,-0.121050455,-0.043909434,0.10466933,-0.0070114746,-0.057676826,-0.036308922,-0.0522001,0.055716015,0.13759625,-0.0050356723,-0.056262586,0.1725232,0.1103789,-0.04215227,0.255883,-0.1139035,0.005137136,-0.16842233,0.056158524,0.15045491,0.09983882,0.27661628,0.10331959,-0.12371705,0.050909404,0.012472938,-0.18201634,0.22870602,-0.17731763,-0.012291749,0.06928189,0.15806986,-0.026271328,0.06440714,0.05547489,0.025283394,-0.24686775,0.12841871,-0.0876808,-0.24710247,0.13135135,-0.18511824,-0.13674144,-0.041491795,0.04162931,0.0895473,0.036821704,0.090704694,-0.015313632,0.14143561,0.10664588,-0.02545465,-0.13623722,0.18078911,0.06995702,0.09502374,-0.14759816,-0.31249782,-0.17674145,0.010225005,-0.040722683,-0.10083115,0.155532,-0.16350459,-0.14146513,0.037442904,0.002818596,0.060398053,0.018237382,0.0114442,0.014719,0.08240755,-0.09872602,0.015209539,0.023916818,-0.23299174,0.13340786,0.069956824,-0.14417626,0.010923804,-0.040237047,-0.13228746,-0.014730176,0.004338826,0.14303306,-0.07199388,0.1383117,0.012285896,-0.042361476,0.014435308,0.049078435,0.09265425,0.036806926,0.15728521,-0.1278386,0.042263426,0.005958781,0.06201316,-0.010730741,0.11516648,-0.058092643,-0.26826683,-0.0065591102,0.08922045,-0.05816341,-0.047671933,0.23747744,-0.122068405,0.16031592,-0.009862155,-0.032812633,-0.17017414,-0.02697367,-0.04003698,0.08762819,-0.18984644,0.20767534,-0.06434343,0.28703785,-0.17757744,-0.11645154,0.07867674,0.27437887,0.034102116,0.020259947,0.083649956,0.026974583,0.13419014,0.1395247,0.15309119,0.0014573457,0.039757002,-0.013169197,-0.032990262,-0.1630393,-0.015868112,-0.11853847,0.26731074,0.23058648,0.034873843,0.055494033,0.32979745,-0.07558995,0.07956628,-0.19802399,0.05043437,-0.1164715,0.12924778,0.08781098,-0.17549536,-0.056037106,0.104881756,-0.009670063,-0.009452317,-0.09167276,0.031070469,-0.056656163,-0.038771152,0.44350132,-0.14775495,-0.055419367,0.02172652,0.011221858,-0.06884046,-0.09347308,0.34187025,0.09973497,-0.05901511,0.053860765,0.14895158,0.08272165,0.19448984,-0.14547281,0.03371864,-0.08204585,0.030826278,0.04398873,0.07679441,0.19085938,0.24728754,0.1276755,0.08133993,-0.14987177,-0.10079589,0.31446078,0.08091513,0.009767318,-0.013778361,-0.24932778,0.15649492,0.018225258,0.13058905,0.09778977,-0.13156931,-0.11914165,-0.14035676,0.25375086,0.19171783,-0.0872578,0.11560759,-0.11524735,0.15858947,-0.16292411,-0.06594109,-0.049046993,0.13092199}, {-0.1090568,0.1780003,-0.08775473,0.22776574,0.3733348,0.042023767,0.1558287,-0.110025086,-0.11469629,-0.026546698,-0.21601802,-0.023550034,-0.09028798,0.009180638,-0.06701951,0.09718142,-0.018973246,0.049309034,0.13489752,-0.1834062,-0.0035877277,-0.02194888,0.10301765,0.14615184,-0.12950668,-0.13295776,0.04178875,-0.025226854,-0.074056916,-0.009550683,-0.182423,0.10511575,0.06632775,-0.102206804,-0.017188992,-0.19042887,0.039732136,0.21597604,-0.20021005,0.12850967,-0.018851988,0.06929154,0.079777814,-0.23765777,0.040852513,0.008578412,0.10626427,0.17159706,0.15549353,0.15975639,-0.110319816,0.06778733,0.06533264,0.24109079,-0.12632385,0.0779583,-0.008749155,0.124622814,0.08701017,-0.026256166,-0.0023733913,0.122423746,-0.0462083,-0.009734836,0.059535947,0.17847338,-0.112665996,-0.017041741,-0.0069533,0.3096046,0.090927206,0.12374671,-0.14834225,0.051431853,0.036767345,0.1369731,0.2499681,-0.13334168,0.20206755,-0.21470219,0.015429331,-0.22787596,0.07298254,-0.023548411,0.078869306,-0.031897087,0.008971292,0.12510182,0.13443562,-0.12657075,0.07255471,-0.035667643,-0.10420774,0.07123682,-0.09186071,-0.0903363,-0.0035829043,0.08688786,-0.18805762,-0.067226976,0.2422609,-0.096936814,-0.072535664,0.23712537,0.043405704,0.024884613,0.15859868,-0.025694659,0.24165846,-0.056178037,0.0077219536,-0.14223103,0.05241831,-0.18750572,-0.051001657,0.11020553,0.0376842,-0.021622607,0.10956874,-0.029128266,0.23645614,0.07594608,0.13101445,-0.050148234,-0.0547468,-0.011750357,-0.11133534,0.06723787,0.20616576,-0.0734006,0.01617001,0.23104039,-0.0055924393,0.17669524,0.050485708,0.22643885,0.2723805,-0.025254594,-0.06626661,0.019690385,0.19522184,-0.06442839,-0.096524,0.3107218,-0.06866341,0.16301435,-0.055236746,0.26999795,0.10562781,0.079817355,0.015465316,-0.06986626,-0.08062771,0.08412717,0.060986124,0.085953966,0.19447285,-0.054201074,0.1493217,0.1735256,-0.015894948,-0.06039371,-0.000864006,0.102586254,0.118196175,0.14190306,0.015011249,0.008495641,0.01849018,0.11881685,0.13916974,-0.18054932,0.21115735,0.021459231,-0.23834507,-0.0025223403,-0.04403983,0.16987228,-0.015866807,0.14895873,0.16778629,-0.10436024,0.0018841673,-0.19449472,-0.048921414,0.19565983,0.05145973,0.26480708,0.24706775,0.3061321,-0.08799755,0.1992533,0.012531,0.05526282,-0.007526683,-0.099332,0.09307865,-0.2603354,0.019233493,0.064564265,-0.0627044,-0.18976931,0.09587045,-0.100124076,-0.0359835,-0.066490725,-0.15364905,-0.31548372,0.12630963,0.19923636,0.28130406,0.053243827,0.04011281,0.16352558,0.18799524,0.046312727,0.0049194465,-0.19927017,-0.045793764,-0.10929515,-0.045301393,0.09583831,0.026612857,-0.13099687,0.16759674,-0.065711826,-0.056405596,-0.052533265,0.04574768,0.023971794,0.023770366,-0.063783444,0.056780305,-0.02159788,-0.053076223,0.09396184,0.041861933,0.09332379,0.031472832,-0.22855465,0.1205487,0.0030979598,0.41097036,0.017921992,0.12962706,0.14865355,-0.11865081,-0.0103414785,0.10390846,0.06110272,0.08614353,-9.9059165e-05,-0.008338421,0.15845673,0.07883163,0.015333988}, {0.13750325,-0.120201096,0.03138814,0.08742229,-0.15096378,-0.07081988,0.20985854,-0.0010026329,-0.3472438,-0.080265306,-0.071358114,0.24332404,0.058128737,0.12402366,-0.051142476,0.0030329183,-0.050574448,-0.010884401,0.11194555,0.018841214,-0.08506099,0.055927765,-0.10083298,-0.11465218,0.054196578,-0.20446381,-0.096756384,0.10637257,0.08556903,0.014708127,-0.12685502,-0.12719943,-0.010569066,0.07076662,0.0023658935,0.042474132,-0.08047753,-0.012873761,0.027083743,-0.119179405,0.04127654,0.0356929,-0.11677827,0.18623862,-0.079438545,-0.050419107,-0.0012211828,-0.12398882,0.124021485,0.16529149,0.0874828,0.10754113,0.041209757,-0.11630488,-0.10713268,-0.13400821,0.20476061,0.012950479,-0.16292487,-0.110517815,0.09778312,0.084144615,-0.15152968,0.15042268,-0.07987989,-0.12172021,-0.046999596,0.10914196,-0.014599067,-0.036046855,-0.12334009,-0.07939648,0.02434041,-0.03409646,-0.17348583,-0.13512619,-0.20097491,0.0048786667,-0.03414703,-0.06381084,0.12480466,0.13814045,-0.051086802,-0.05550081,0.08994415,-0.024758602,0.05906339,0.10565648,0.023192193,0.049623854,-0.07442049,-0.17103638,0.021590695,-0.18296269,-0.029674457,-0.074804775,0.012611794,-0.022195272,-0.035789326,-0.058827385,0.038867764,0.09005245,-0.06453922,-0.0014863589,-0.00019041041,-0.31169373,-0.21663238,-0.16805466,0.013396192,-0.14512749,-0.09117956,0.08191907,-0.38857922,-0.021077484,-0.019338557,0.14100632,-0.29911816,0.040235363,-0.1602667,0.059741512,-0.053180847,0.078456074,-0.03866957,-0.020143328,-0.05202111,0.013282138,0.19748965,-0.013116965,-0.11641756,0.23760961,-0.11264301,0.0867526,-0.15922062,-0.052832086,0.079355,-0.14530055,-0.032331683,-0.05209569,-0.07710301,0.01778814,-0.2958595,-0.16141722,0.1196657,-0.16930255,0.023645481,-0.15206888,-0.023332402,-0.14723513,-0.11315018,-0.10200675,-0.13529333,0.012017497,-0.08663702,-0.09265368,-0.18126972,-0.20549875,-0.03657537,-0.14294438,0.16825978,0.019430878,-0.074869126,-0.12561007,0.09971435,0.024588272,-0.13342014,0.10678647,0.04042488,-0.01948147,-0.21772695,-0.082947105,-0.19651219,0.12105487,-0.13540421,-0.2439395,0.16433464,-0.16048017,-0.18669243,0.08274294,0.02699095,-0.088301145,-0.060089044,0.15222146,-0.1745356,-0.24249032,0.044245627,-0.0133703,-0.22174408,-0.1022459,-0.16796125,0.0094032865,0.05223561,-0.28066805,-0.085425295,0.100403994,0.014234052,0.07268261,-0.0067074783,0.16704798,-0.101177566,-0.0954812,0.041399773,0.06077318,-0.22821465,-0.1059559,0.08068549,-0.01356467,-0.014415245,0.042903643,0.06327091,-0.18489662,-0.16693053,0.03703498,-0.014659232,-0.045511134,0.041693434,0.2170424,-0.095463715,-0.04668227,-0.13739355,-0.2161287,-0.012540854,-0.0731044,-0.042163424,-0.11595199,-0.014450863,-0.0061264313,0.15825008,-0.31442186,0.03753044,-0.16671632,0.13180588,0.2237702,-0.15158188,-0.22716993,0.1985328,-0.10298024,0.06990305,-0.1252174,-0.004220944,-0.10778196,-0.02304541,-0.17819697,-0.073500335,-0.11280687,-0.21593274,-0.17280427,-0.15010013,-0.09662416,-0.11712592,-0.013105481,-0.057496876,-0.009488129,-0.035051182,-0.015879111,-0.09127642,0.10339372}, {-0.07314282,-0.06816318,0.10343206,0.13307592,-0.02125847,-0.03116911,0.0027156884,0.07517763,-0.19014479,0.08162308,-0.037549872,-0.17331186,0.10508674,-0.039375033,0.34806475,-0.15252635,-0.009332789,-0.018403258,-0.03203743,0.0139962,-0.043249,0.054711796,-0.10651199,0.20918237,0.21804756,0.4361206,-0.046642467,0.008586026,0.05155679,-0.041504577,0.07723609,0.14500353,0.22544791,0.02540322,0.19610946,-0.12260476,0.025038086,-0.046987824,0.34317523,0.19488075,0.152528,-0.012358568,-0.05886876,-0.056138925,-0.029573511,0.068200275,-0.04409942,-0.16860436,-0.05328091,-0.22722752,0.12383699,0.050670385,-0.11211667,-0.18256599,-0.06146077,-0.010613686,-0.07593241,0.02648572,0.0031580548,0.03162081,-0.039159406,-0.13116221,-0.04760152,-0.17495383,-0.13578776,-0.025942966,0.07434535,-0.08527084,0.16466957,0.018127577,0.0045536514,0.033762064,-0.10327911,-0.08071825,-0.053019643,0.023910454,-0.09684494,0.14733091,0.06226896,-0.07811826,-0.069688335,0.10618343,0.16297956,0.051303495,-0.017105972,0.014504993,-0.15884605,0.027546732,-0.124414235,0.15865059,-0.104684845,0.1854089,-0.0188476,-0.02046712,0.0010714005,-0.13894632,0.030514725,-0.22295983,0.041621,-0.15297936,-0.09631785,0.0047323736,0.116236635,-0.23250782,-0.1961424,0.07871282,-0.009194841,0.23668464,0.003076751,-0.060020868,0.12093896,0.017102415,-0.022391006,0.060095627,-0.009329611,-0.066522196,0.00040551403,-0.13487181,0.2204903,0.11682677,-0.040665884,0.1830376,-0.039418828,-0.078688525,0.031426296,-0.021161994,0.0031308376,-0.01185975,-0.20139098,-0.07525986,-0.08883035,0.02540524,-0.022085968,0.06499871,-0.16820183,0.090642616,0.05701434,-0.15387677,0.005857198,0.045703653,0.042110994,-0.05483127,0.6740508,-0.22159003,-0.16454521,-0.10541712,0.077726424,-0.0052856524,0.044010386,0.056569785,0.051618584,-0.07321886,0.013557862,-0.069203004,0.14130914,-0.05253332,-0.19058092,0.28186968,-0.19535124,-0.07919176,0.13132013,-0.077779345,0.014161762,-0.07869556,0.02711779,0.13680936,0.14037082,0.30099708,0.1769377,0.14149268,0.07973206,0.15533796,-0.13684256,-0.040587388,-0.106602795,-0.0803828,0.15148458,-0.058866553,0.10186999,-0.20622091,0.017990287,0.12949985,-0.05658615,0.047234,-0.14947802,-0.07396079,-0.078462094,0.016578395,0.13428885,-0.28312752,0.10069645,0.19279455,-0.14665997,-0.18768464,0.30592355,0.2719464,-0.08354562,0.0061136144,-0.15700476,0.06665353,-0.21376468,0.13443708,0.065134004,-0.14728685,-0.03758448,0.099216424,0.097508624,0.13739507,0.17800197,0.00034802253,0.09680617,0.106847994,0.054265134,0.0074883136,-0.027449263,0.022133756,0.10560128,0.21124382,-0.17875515,0.037024353,0.054072976,0.24897519,-0.04191819,0.10295692,-0.2612631,0.205996,-0.23071437,0.3875818,0.0023620017,0.09695778,-0.20737128,0.05787881,-0.02094978,0.04760881,-0.18871997,-0.11946699,-0.24079871,-0.028904544,0.114495106,0.088145554,-0.13990033,-0.07578462,-0.21024881,0.079240106,0.17946501,-0.028293822,0.26919982,0.19570164,-0.049650047,-0.07045032,0.14372614,0.08761557,-0.026049007,0.09324241,0.13532497,0.052304585}, {0.17687143,-0.026363784,0.07806779,0.16902444,-0.055208918,-0.023729615,0.07664198,0.24872938,-0.179641,0.16723566,0.07929885,0.14229506,0.036878273,0.03174314,-0.13925938,-0.055818748,0.05137969,0.003803386,-0.025856232,-0.018562144,0.06790362,-0.059473027,0.14609493,-0.044572894,-0.20689608,-0.109601095,-0.014477779,0.13833885,0.118183,-0.0043600868,-0.24493301,-0.08583804,0.095412835,0.04479129,0.034594223,0.12066519,0.026110098,0.020214563,-0.18816577,-0.033910513,-0.007096043,0.08017748,0.12166068,0.13893145,-0.12655717,0.028405478,0.14680208,0.06669363,0.030147383,-0.005340844,-0.12204229,-0.09266184,-0.07668813,0.14807399,-0.06749599,0.061884634,0.12748362,0.081695996,0.24752179,0.108141564,0.021586277,0.086623795,-0.03447466,0.14859606,0.056007873,-0.27432775,-0.0082457885,-0.045156423,-0.002382427,0.09584568,-0.03188024,0.005349568,-0.20458798,0.083223775,0.1950137,-0.07101309,0.069773175,-0.23971105,0.0037550384,0.16899356,0.17291605,-0.0044098203,0.055844974,0.0882728,-0.09145029,-0.06937111,-0.1560782,-0.018306343,-0.067229606,0.15286556,-0.03418401,0.072006516,-0.028541256,0.020082349,0.0758123,-0.08378395,0.15817577,0.14389694,-0.021333355,0.08875733,0.0066402485,-0.14828834,-0.10921893,0.059903134,-0.041605074,-0.032572333,-0.024520753,-0.0967725,-0.03373278,0.059613865,-0.14114402,0.08650413,-0.14695086,-0.067394055,-0.019071383,-0.17977731,0.05563295,0.07342649,0.05533543,-0.013463362,0.069645464,0.12955613,-0.1829819,0.075944036,0.048861507,-0.017497128,-0.028496899,0.14671406,-0.0011424434,-0.056903567,0.0042782356,0.09179341,-0.032281272,0.34728062,-0.10636117,0.16092019,-0.060277145,0.0061641303,-0.15607607,0.21676299,0.097932085,0.11289275,-0.010198996,0.041495148,-0.23285036,0.1477245,0.064873666,-0.00450649,-0.040033195,-0.039122522,0.00730728,-0.1854422,-0.12538165,-0.028309248,0.15479366,-0.1469208,0.08136361,-0.025944056,-0.009919747,0.050489273,0.016965518,-0.15655491,-0.0852008,-0.056589518,0.015451103,-0.019712744,-0.119274706,-0.0035453215,0.016848229,0.062461272,-0.20161338,-0.094101,0.023218594,-0.03622813,0.0152062485,-0.009604843,-0.17212082,-0.15817577,0.09834706,0.028349511,0.13331412,0.048862766,-0.13269275,0.018773207,0.013075019,-0.07092917,-0.018257782,0.032210696,0.16446173,0.16560706,-0.037069682,0.09830097,-0.18979011,0.19599298,-0.016354531,-0.033279058,0.08284036,-0.029793225,-0.104817405,0.016615286,0.0043235337,0.04290156,-0.020641204,-0.11225071,0.054672502,0.01506904,-0.03379612,-0.30237743,0.012681264,0.009169496,0.04118171,0.08408919,0.09631456,0.054308847,-0.005482054,-0.06742418,-0.08461703,-0.1580487,-0.13301018,-0.094560534,0.006454585,0.10606277,0.015132967,0.022519808,0.13155627,-0.20044479,0.041562036,-0.011973215,-0.10056402,0.069087945,0.20726633,0.04022993,0.027219588,0.16419935,0.14662896,0.15004104,-0.11001827,-0.13018124,0.025335323,0.0047331755,0.08745827,0.030137595,0.05155501,0.12885416,-0.17321803,-0.016706565,-0.033157196,-0.16023822,0.13413942,0.09325815,-0.0391117,0.08941995,-0.07068321,0.06171989,0.12430079,-0.061841626}, {-0.048735015,0.07937738,-0.05337024,0.09780447,-0.03478327,-0.073995106,0.1365113,0.15005672,0.04452771,0.1600322,-0.09429976,-0.07914985,-0.06761218,-0.20136833,0.06342079,-0.010735772,-0.12189412,-0.012005695,0.22185984,-0.060306292,0.02738392,-0.115776524,0.20927648,0.050596133,0.14765969,-0.0073037692,-0.13673495,0.04000401,-0.0037389144,-0.06585341,0.018458985,0.3268862,-0.005879546,-0.09391945,0.08219702,-0.12629971,-0.04825549,-0.022000518,0.088969216,0.052713044,0.03354389,0.03104343,-0.046669874,0.05274717,-0.0032779924,-0.051683273,-0.016533677,0.09562395,-0.08147871,0.0033692291,0.03692491,-0.06698642,-0.20850559,-0.046307676,0.046208765,0.23590298,-0.15528642,0.13457306,0.10263884,0.010838483,0.012433437,0.10722343,0.07632617,-0.109982096,0.053957436,-0.018545328,0.02643722,-0.14279956,0.22202842,-0.11161161,0.02396159,-0.046138093,0.054680858,-0.22329874,-0.27537003,0.059773132,0.07611305,0.09054293,0.1256456,-0.21815,-0.2623687,-0.18439999,-0.17934589,0.19842885,0.16005719,0.20545669,-0.11817857,-0.056129705,-0.19009665,-0.23861331,0.07596875,-0.0013745546,-0.25714245,0.1318184,-0.051763408,0.052648574,0.015594779,-0.0601344,0.074334286,-0.05874076,-0.033428837,-0.1846383,-0.15841684,0.027880115,-0.23433293,0.08042733,0.03366156,-0.32585135,-0.08359516,-0.018624494,0.04698697,-0.047551896,-0.05292076,0.09840834,-0.26559582,0.14515111,-0.06724902,0.0700423,-0.16356198,0.10410051,0.009187829,0.09989943,0.044677388,-0.06361299,-0.17197427,-0.21293932,0.005009984,0.024891471,-0.35988232,-0.062362816,-0.018785192,-0.07420322,-0.11975841,-0.07476149,0.032613087,0.031673905,-0.050510038,-0.07413551,-0.025769694,-0.14451984,0.03561109,-0.07855676,0.08688365,-0.08010321,-0.042992383,-0.14997888,0.059451066,0.05871496,0.106268175,-0.11713909,0.04487865,0.12856719,-0.08828582,-0.0066163773,-0.02485954,-0.08307584,-0.0014216931,0.023278756,0.01839275,-0.11884945,-0.12133964,-0.15992153,-0.19885045,-0.048914663,0.12636499,-0.17302838,0.2311805,0.06031313,0.17829345,-0.08752447,-0.03223484,0.11566606,-0.03605792,0.041374493,-0.0030226319,0.0431105,0.182575,0.055490196,0.08430336,-0.047519475,-0.077477805,-0.067187876,0.15880972,-0.1578242,0.010955387,-0.081866734,-0.09428451,0.006718136,0.1471655,-0.08479721,0.14060842,0.11409829,-0.092548855,-0.17393272,0.06496441,0.041242488,-0.09025316,0.22847551,-0.2109348,-0.0021831046,-0.23078956,-0.035833146,-0.038386982,-0.03504754,-0.046791773,-0.3911155,-0.12235066,0.10771698,0.15352283,-0.00894969,-0.016213221,0.022329949,-0.1461401,0.12182463,0.04830319,0.09468117,-0.017267331,-0.082535334,0.21712929,0.094800845,-0.14470023,0.12608735,-0.045740265,-0.062980935,-0.2530199,0.25467354,-0.20228882,0.27931044,0.015457198,0.2079656,0.13283445,-0.16026261,-0.23442249,-0.0693823,-0.07685171,0.019322488,0.018545505,0.0826526,0.18178041,0.10338191,0.20069833,-0.055997558,-0.061735164,-0.047833093,0.30701783,0.06522448,-0.011265662,-0.0029107146,0.065259814,0.04235053,0.07890506,-0.012913154,-0.14129134,0.022667212,0.13627346,0.024955196}, {0.022378705,-0.0024655564,0.011620533,-0.006598549,-0.014795133,-0.08819963,0.16883373,0.12827595,-0.01156388,0.022170981,0.013334371,0.03528739,0.1949046,0.02463583,-0.1281756,0.04278906,-0.15971085,0.22219735,0.02318526,-0.25123364,-0.021256488,-0.026667314,0.048203852,-0.15487462,-0.1651101,-0.19245617,-0.028365342,-0.13944975,-0.004860702,0.018816553,-0.18475594,0.020669542,-0.13864467,0.06844185,-0.065363206,0.12687303,0.053938515,0.118569136,0.123623766,-0.29192838,-0.20365424,0.13986185,0.022320028,0.03329112,-0.06328339,-0.019533658,0.067594625,0.029254856,-0.048280973,0.1111243,0.06650359,-0.08581913,-0.078136265,-0.18875085,-0.034699894,0.028712671,-0.0133696,0.06665105,-0.03913834,0.064215966,-0.04595649,0.071602404,-0.004915652,-0.15179765,-0.011622925,0.07149105,0.0622375,0.13711438,0.07464769,0.008961906,-0.071586855,-0.035491902,0.08460267,0.1583806,-0.23376763,-0.0066021318,0.07311829,-0.027359838,0.1455127,-0.065101005,0.09672964,-0.056865074,-0.16554795,-0.13941517,0.029557005,0.0983995,-0.03290488,0.039335508,-0.23598053,-0.047093965,0.13843611,-0.1580029,0.03486078,0.11824417,-0.21827373,0.08533719,-0.21585104,0.11502245,0.12520687,-0.22041383,0.05151031,-0.022309337,0.12535787,-0.15111566,0.03369934,0.10043897,0.096852414,0.033871133,-0.03005706,-0.09497211,0.09045039,-0.00764901,-0.017729437,-0.008045296,0.09329418,0.1724312,-0.059266828,0.07517074,-0.15585586,0.07649567,0.0981665,-0.03442151,0.016915306,-0.08341525,0.018648751,-0.19477145,-0.06763595,-0.019571725,-0.0026057956,0.09312143,-0.14128369,-0.022254318,-0.27346808,-0.06482764,0.035364553,-0.042392533,-0.057853125,0.025426757,0.08187935,0.19747904,0.048954055,0.1108363,-0.17945546,-0.1852151,0.02440749,-0.046865873,-0.093592435,0.044612627,0.11589397,0.04106215,-0.05074926,0.026198085,0.16028123,-0.012918816,-0.047561366,0.014744957,0.15013921,-0.03560848,-0.01938264,-0.12892516,0.0045262286,0.014632248,-0.06918378,0.096644655,0.112454094,0.09838555,0.07148663,0.15195811,0.08399106,-0.116609424,0.10359235,0.076907076,-0.046253137,0.044102192,-0.0037169391,-0.21024762,-0.17558207,0.0371389,0.121986106,-0.1408604,-0.10033069,-0.27456164,-0.066171214,-0.0365581,-0.0032166743,0.10902504,0.06496583,0.0781146,0.06415394,0.03078686,-0.10613034,-0.11188388,-0.0028571705,-0.057482135,0.03684625,-0.13840204,-0.0014451443,-0.060902305,-0.026480487,-0.11545259,-0.21410528,-0.2273004,0.036085434,-0.013404764,0.102955185,-0.17860694,0.05071684,0.16302225,-0.21773635,-0.014740381,-0.009412155,0.041970372,0.05976612,0.027322333,-0.015518645,-0.08533756,-0.16923198,-0.19403769,0.074764356,0.09630506,-0.08274219,-0.0045548123,-0.0097805,-0.078923844,0.097124055,-0.054327726,0.08791126,-0.027783249,0.067062624,-0.02682193,0.011194128,0.11204785,-0.09513843,-0.091868296,0.09370152,0.07877735,0.13818224,0.030026538,-0.028011221,0.07831042,-0.11382723,-0.22502048,-0.16672768,-0.05099136,-0.07484188,0.013350837,-0.06560633,-0.11174089,-0.03227931,-0.07870282,0.078267016,0.0984482,-0.19734307,-0.15760878,0.32951662,-0.09242712}, {-0.16352135,0.032258075,-0.10694116,0.15417528,0.08605368,0.14295307,-0.16584408,0.13166577,0.1458551,-0.06510854,-0.01935954,0.014512718,-0.16805023,0.08906474,-0.15433817,0.004290648,-0.028267896,0.05853995,0.06423184,-0.00275728,-0.11019347,0.011058857,-0.047536824,0.36788782,0.16293474,-0.03980935,-0.04698803,-0.05218129,-0.0031707485,-0.051152762,-0.12841767,-0.037099116,-0.13658611,-0.002242126,-0.15412214,0.14988571,0.18173487,-0.07630711,0.046329375,0.05629946,0.3068125,-0.026268514,0.024310216,-0.1958057,0.07341798,0.23637035,-0.14260878,-0.011495137,-0.08636442,-0.14357293,0.14956747,-0.068232164,-0.17459679,-0.07071385,0.094548345,-0.030864572,-0.04556894,-0.010095756,-0.07903009,-0.055006526,-0.14205286,-0.21454446,0.0073074065,-0.19930165,-0.16965649,0.037623234,0.008214733,-0.083746135,-0.009926366,-0.079218686,-0.029633272,0.022970658,-0.07735736,-0.03090992,-0.18464372,0.10670047,-0.02337486,0.14675377,-0.011551776,-0.1501576,-0.12198576,-0.19928761,0.26745382,0.10435294,0.051545393,0.08294571,0.06279883,0.030092794,-0.0005394016,-0.013885705,0.079282925,0.22488628,-0.25346714,-0.13944682,0.03586165,-0.20103818,-0.1526027,-0.1689304,-0.14703068,-0.19840997,0.17730434,-0.23688255,-0.083172455,-0.09635301,-0.17550038,-0.20576939,0.0139590725,0.19697225,0.19730875,-0.14133841,-0.009636479,-0.0034224188,-0.09383055,-0.00095156085,-0.25877443,0.0584903,0.13390511,-0.19715603,-0.15296072,-0.042818855,-0.056853425,-0.1198654,-0.04016077,-0.18584919,-0.1051193,-0.16073644,0.0334,0.005128017,-0.14078797,-0.10708729,-0.19639125,0.15274024,0.13578276,-0.24167748,0.15513504,0.10352891,0.19070838,-0.016231282,-0.14579934,-0.07830044,0.03506068,0.057075758,0.19093232,0.13015497,0.023145916,-0.046889387,-0.032851398,0.20034108,0.12542138,0.019800967,-0.20461233,0.26105785,0.008811973,-0.103800625,0.14658296,-0.065003045,0.055207327,0.08829327,-0.12918262,0.047189925,-0.0090385,-0.013832354,0.060049582,-0.030352516,0.08135628,0.10370716,0.10429854,0.101132706,-0.09860267,0.1356413,0.09270315,-0.0380755,0.096099645,-0.06830895,-0.10843546,-0.046081357,-0.12692651,-0.055800784,0.15783186,0.050689865,0.028619098,0.1347498,-0.16403289,0.06743718,-0.042537563,-0.19861658,-0.12972343,-0.029663859,0.08424881,-0.08962895,0.07322745,0.001362843,0.09778786,-0.18798102,0.099424206,-0.07995357,0.019294677,-0.12556373,-0.19678092,-0.17866452,0.0453955,-0.3492792,0.0009388448,-0.20584054,-0.17022803,-0.18775505,-0.052211784,0.05779331,-0.115685,-0.091372766,0.13126111,-0.25479144,0.08079934,0.13212875,0.06866282,-0.32604566,0.039175164,0.122078665,-0.06723925,0.024129981,-0.011132201,0.043453492,0.07310803,-0.084156044,-0.044989057,0.012934436,-0.048395272,0.16564947,-0.12312173,0.049084246,-0.06793737,-0.11955413,-0.026499407,-0.03330374,-0.05343279,0.15049882,-0.03717097,0.0391975,0.020812111,-0.08217681,0.07014914,-0.17147718,-0.085640535,-0.037564706,0.018207287,-0.26548812,0.026133854,0.019960087,-0.09144172,-0.17568757,-0.1391422,-0.082203306,-0.2510037,0.05416379,0.0064594764,-0.100130275}, {0.03778974,0.0019256,0.00029537868,-0.07484923,-0.02545973,-0.048187573,-0.049779937,0.05866524,-0.022158671,-0.072260685,0.027455023,0.06875518,-0.24744543,-0.11199551,-0.029638756,-0.07651449,-0.15119228,0.06576121,0.18966731,0.017815951,-0.036158632,-0.17046358,-0.011860636,0.035744946,-0.0439825,-0.022261549,-0.15190548,-0.10805338,0.23524246,-0.19970265,-0.07136815,0.12437548,0.029640406,-0.093636714,0.092045486,0.049545813,-0.03781813,0.066233985,-0.17271583,0.012134006,-0.09711552,-0.07655619,0.11213881,-0.1133301,-0.12435996,0.1281118,0.07393356,-0.011448593,0.10365061,0.057057507,0.12540442,-0.15190864,0.103181794,-0.03477362,0.08687117,-0.011348524,0.080680974,-0.072844304,-0.02508236,-0.13155998,0.05227286,0.03610662,-0.08475322,0.10455987,-0.017333372,-0.08376648,0.04233943,-0.020479314,-0.013236296,-0.02301501,-0.016795842,-0.07783776,-0.014499751,0.09000053,-0.053401224,-0.053768966,-0.2163325,-0.050610263,-0.1645459,-0.17625569,-0.10926921,-0.1136493,-0.027409479,-0.028051374,0.09447468,-0.0022586654,-0.02599002,0.16648594,0.02397127,-0.2815091,-0.15687437,0.07402329,-0.17684555,0.045407414,-0.23866643,-0.085718974,-0.055937804,0.043225683,-0.09790412,-0.088809654,-0.13459031,-0.08286616,-0.12213675,0.07868965,0.044261757,-0.05494939,-0.03778101,-0.087489225,-0.24657628,0.0998309,-0.00071751035,-0.21088359,-0.0002553507,-0.18331102,-0.15232135,-0.060672875,-0.08958976,0.10199795,-0.15859662,0.113906555,-0.037381668,-0.14092585,0.046722952,0.09757145,-0.19601709,-0.042824835,-0.09446197,0.010185001,0.047768205,-0.019536478,-0.071165934,-0.00518017,-0.07940965,-0.31764215,-0.14487004,-0.15506607,0.12853077,-0.0155633865,0.057645086,-0.11225363,-0.19757809,0.0020324513,-0.10419099,-0.06920123,-0.06295168,-0.025585232,0.08678755,0.089804694,-0.010265006,0.14054263,-0.27043927,0.04554517,-0.008076721,0.13291396,-0.055081695,-0.059517168,0.06121221,0.05025842,-0.020421466,-0.1361035,0.0044898875,-0.033763543,0.109718874,-0.12282129,-0.102746904,-0.06187958,-0.10209612,-0.1262087,-0.032376155,-0.053865667,-0.06315938,-0.023519335,-0.030401241,-0.08089784,-0.00458279,0.01275867,0.034747448,0.062090233,-0.1522868,0.13608763,-0.13803479,0.17323266,-0.15140982,0.027040703,0.127212,-0.14899592,-0.06788003,0.15660164,-0.10838773,0.17494196,-0.17067134,-0.24579892,0.025710551,0.062059805,-0.26493964,0.054386776,0.010746573,-0.17825805,0.018874891,-0.0969742,-0.16417731,-0.0848428,-0.18673678,-0.10704205,-0.20384218,-0.12305725,0.1312216,-0.031206014,0.00577176,-0.11774994,0.027990887,-0.12845583,-0.17532898,-0.080588944,0.11243881,0.042388465,0.051556256,-0.2540666,0.10425128,0.086510375,0.06554375,-0.15056571,-0.13967675,-0.21105832,-0.11114742,0.047642633,0.08198281,-0.21417524,-0.08578199,-0.014560622,0.30391347,0.018779108,-0.106304735,-0.092644095,-0.0033791023,0.13209964,0.0193506,-0.032243203,-0.14792542,-0.066553436,-0.01274478,-0.15768176,-0.07206862,-0.036772296,0.011130115,-0.07962367,-0.17410511,0.0072012483,0.019837458,-0.030126357,-0.09417213,-0.01805432,0.0006036217,-0.09091578,-0.061524007,0.021458274}, {0.22316825,-0.012190313,0.02157959,-0.118767135,0.037288025,-0.095232755,-0.002694318,0.15909007,-0.0069528306,-0.03777772,-0.035722088,0.016285917,0.042519275,0.02903752,-0.053435106,0.09860841,-0.23482272,-0.027561909,-0.10361514,-0.29896757,0.060424417,-0.20832923,-0.112543024,-0.11093933,-0.018572921,-0.021998739,-0.16231929,0.050183617,-0.003664678,-0.037804686,-0.024786055,-0.0060660285,-0.08032546,-0.039905913,-0.011413268,-0.05098637,0.07282088,0.1577611,-0.096148156,-0.017802058,-0.08322514,0.08595911,0.033922873,0.16230185,-0.040402386,0.034077685,0.0263603,-0.091264956,-0.025335787,0.020222507,-0.049547315,0.08733669,0.050455276,-0.08028819,-0.22267444,0.10951349,0.030209986,0.09678249,0.0010239276,-0.085110046,0.07865893,-0.07571643,0.10518919,-0.110409044,-0.035193108,-0.107287094,-0.08770615,0.20069072,0.005184378,0.1790799,-0.17164452,-0.029047614,0.0997792,0.015070206,-0.07627014,-0.12307249,0.27193183,-0.106806025,0.216576,-0.14421545,0.20037773,0.019669127,-0.049678843,-0.056274623,-0.05827348,0.05079604,-0.018052505,0.03184133,-0.24924321,-0.044331197,0.05952399,-0.2543028,0.25806227,-0.026351022,0.00917734,0.045375552,-0.12083903,0.064311765,0.087836325,-0.013449343,0.085412934,0.10643359,0.15835673,0.09933463,-0.008555882,-0.012622512,0.2905426,0.009936215,0.078445464,0.07593264,0.0011361276,0.0947032,-0.013093892,-0.073979475,-0.20847212,0.05290436,-0.043504726,0.19596799,-0.012853775,-0.019355386,0.14156666,-0.14995383,0.10995586,0.23734055,0.12622486,-0.18403749,0.14716017,0.011976094,0.06293963,0.05006762,0.024385586,-0.055124838,-0.28994158,-0.0693902,0.023194699,-0.12106403,0.06762567,-0.31718355,0.34071124,-0.00083421916,0.08743564,-0.02095887,-0.2362394,0.16584408,0.06552696,-0.14344442,0.08760132,0.053416062,-0.14937516,-0.09211852,-0.048161186,0.060560748,0.096061595,0.12648068,-0.08632791,0.066914365,0.15877648,-0.050643127,-0.030163134,-0.047724277,0.069613494,0.14079002,-0.31382418,0.34436715,0.10634904,0.018617745,0.0745351,-0.13106512,-0.043321352,-0.0426909,0.2255376,0.051696733,0.0972973,0.15594286,0.0831368,0.0744764,-0.059078626,0.022144929,0.16779424,-0.14159028,-0.060693603,-0.28535596,0.042318687,-0.09531945,0.023112025,-0.027942382,0.105890736,0.1438024,0.063296005,0.08540206,-0.10648021,-0.13831154,0.1230735,0.011669455,-0.13361554,-0.09572493,0.01866211,0.0047374675,0.0062353997,0.16456905,0.058160335,-0.12242247,0.025074802,0.19689742,0.07211683,-0.18129006,-0.14548925,-0.002045399,-0.057523083,0.0033295394,-0.09359235,-0.07700628,-0.18564764,0.09905202,0.2244494,0.20770285,-0.0140756015,-0.18631114,0.09968758,-0.09129739,-0.08771224,0.12661935,0.027101977,-0.1677789,-0.018105822,-0.119012654,-0.11675859,0.023206165,0.031026425,-0.066107124,-0.052109815,0.29528424,0.03914042,-0.17477377,-0.025888847,-0.07943465,0.023736263,0.3334527,-0.11240994,-0.025599502,-0.090619974,0.02800282,0.036959317,0.042538434,-0.0528035,-0.075222515,0.002393135,0.009690255,0.09595734,0.17210013,0.06492541,0.13045192,-0.0387354,-0.040123563,-0.12543558,0.025477266}, {-0.0032870658,-0.07604326,-0.06014144,0.062527694,0.17554927,-0.0063392594,0.08395179,0.26512656,-0.07713703,0.22889937,0.036611088,-0.010024558,0.18575633,0.2467672,0.04206215,-0.047647525,-0.013525677,-0.08308561,-0.17308569,0.11873949,0.24476647,0.008913125,-0.1327228,0.117499374,-0.11099748,0.080200635,-0.01707789,0.18338285,0.09337586,0.1097507,-0.08955196,0.090430185,0.06761315,0.104698345,0.0073844693,0.12138154,0.12616976,0.1806237,-0.023555815,0.077526055,-0.0029920377,-0.12930416,0.09539187,0.013620839,-0.0033747938,0.06701424,-0.023583826,0.014340558,-0.11148997,-0.2036103,-0.029375356,-0.03213822,-0.13505778,-0.034838554,-0.1652406,-0.046285838,0.03435278,0.13712437,-0.11939328,-0.18293318,0.17188501,-0.10064446,-0.037588943,-0.11576965,-0.005471632,-0.07309032,-0.021941543,0.044894826,-0.12538469,0.054351937,-0.08624139,-0.07673445,-0.0143253505,-0.07468564,0.069954395,-0.13466826,0.14428003,-0.09094852,0.058257084,-0.022204986,0.13223562,-0.010881674,0.040747665,-0.122860625,-0.007841756,-0.007641072,0.05484839,0.1416166,-0.08502331,0.12772758,-0.112623505,-0.005314988,0.20362584,-0.2337893,0.102379404,0.08230863,0.03165649,-0.0040876255,0.0039427993,-0.17241791,0.027524745,0.14771937,0.12077062,0.25525767,0.07076884,-0.057414263,-0.04784928,0.19894367,0.08838128,-0.0044712503,0.032979492,0.15969473,0.05413806,-0.12282702,0.13082314,-0.11640624,-0.065616645,0.0844299,0.23984031,0.016139248,0.14120898,0.00891074,-0.036430165,0.010798795,0.02223315,0.2356882,0.10344502,-0.09783897,0.09364596,0.020374488,0.062470317,-0.12197207,-0.095444255,0.21652287,-0.09533726,0.13084604,0.035976175,-0.09162139,-0.0106567135,-0.041850206,0.041909836,0.024152705,-0.031430032,0.24377444,-0.015848266,-0.02654579,-0.04403801,0.0019197984,-0.08986683,-0.009351307,-0.09918674,-0.026160534,0.050615117,0.02949629,0.08599246,-0.113081776,0.10210701,0.09038414,-0.23351093,0.11754632,0.085149884,0.04231783,0.007379003,0.11832817,0.1838183,0.20790012,0.023737665,0.0772547,0.053458393,0.20323366,0.12107313,0.07620939,-0.0028433993,0.05197301,-0.027707452,-0.08114372,-0.1329094,0.10985985,0.03552691,0.017939562,-0.02685076,-0.32521036,-0.15304345,-0.18987456,0.02781799,0.095723234,-0.075414255,0.090855144,0.04384125,-0.052261617,-0.109253645,0.117745385,0.17146519,-0.006238887,0.012275266,-0.076426014,0.12629946,-0.14593892,-0.09380477,0.051570795,0.12485872,-0.038944315,-0.030682702,-0.050853927,0.042984694,-0.0031583016,-0.058198858,0.11751246,0.2827777,-0.13551933,0.11011786,0.117687464,-0.10693752,0.12742344,0.015890997,0.031183396,-0.013267587,-0.12159202,-0.059821848,-0.2509782,-0.017036682,0.095171735,0.0508723,-0.035340022,0.09535786,0.09470745,-0.11782039,0.085799694,-0.08973797,-0.03995057,-0.085858785,0.13647307,-0.07111314,-0.0014173551,-0.17089203,-0.08940991,-0.06838956,0.03090276,-0.043601032,0.08325589,-0.099129915,0.15742382,-0.06375475,-0.023269976,0.029776424,0.0056552435,0.008861026,0.20175898,-0.099928916,-0.091588035,0.2216752,0.19481097,0.027773276,-0.0104069775,-0.048346844,-0.029888636}, {-0.052457426,-0.004824229,0.13957039,0.09873021,-0.052894544,-0.12149107,-0.0046750954,-0.031730633,-0.009990578,0.028178215,0.05418327,0.17818287,0.03530261,-0.063927904,0.08458932,-0.11014714,0.061840877,0.07028702,0.062517114,0.1340409,0.2096557,0.029669423,0.201341,-0.056085456,0.09175871,-0.1334074,0.019452559,-0.087051466,-0.09322366,-0.002888568,0.035150535,-0.03491603,0.055659395,0.006457783,0.14299315,0.056931145,-0.06868446,-0.09912089,-0.02165851,0.106650144,0.025317132,0.07382348,0.105045184,0.072792955,-0.114007644,0.043115288,0.12730286,-0.14537854,0.043078814,0.34855318,-0.17408341,-0.029707791,0.10202305,-0.06902114,0.12292161,0.074841864,0.18573806,-0.092555456,-0.0060306056,-0.059162498,-0.19977874,-0.045687154,-0.07698415,0.021762745,0.03345849,-0.062093057,0.19591296,0.14848681,0.07111226,-0.019490227,-0.051386937,0.08666017,0.022242311,0.034427084,0.09023036,-0.0005066375,-0.09448971,0.06449786,-0.24119633,0.09145919,-0.243087,0.06334067,-0.07743594,0.07479007,0.12758577,-0.22328958,-0.037854616,0.16171889,0.036999006,-0.0027942953,0.056404132,-0.12363813,0.031946085,0.17183775,0.01653602,0.046530288,0.00061936106,0.20431328,0.013639986,0.12746139,0.050908033,-0.16362377,0.027515564,0.07233607,0.029236337,-0.17898373,-0.103835866,-0.1997702,-0.2218398,0.00025583588,-0.09581887,0.067002855,0.01239725,-0.030891325,-0.090597734,0.11196812,0.08144688,-0.08778947,-0.018025143,0.09694513,0.019854685,0.12566581,-0.04503458,-0.01305313,-0.17597373,-0.010257593,0.055841178,0.25544646,-0.06687137,-0.010801651,0.121722646,-0.040682763,-0.0048119524,0.13157782,-0.03837527,0.11673629,-0.08262732,0.12516935,-0.27720112,-0.04172384,0.06972066,-0.03969603,0.21053746,-0.011032454,-0.145775,0.0013524995,-0.056960527,-0.14142773,0.029561244,0.056613687,0.011440972,-0.17131962,-0.19770318,-0.16324644,0.18527362,0.001249053,-0.06860541,-0.053534888,-0.043488313,0.02542514,-0.0382699,-0.09098418,0.007861506,-0.09464995,-0.041444127,0.076503694,0.07514472,0.007334883,0.013617838,-0.19097099,-0.023331227,0.116742715,-0.015191497,-0.052692052,0.07462836,0.060221437,0.028234811,0.014990745,0.08995353,0.07212257,0.05726279,0.026164904,0.020032486,-0.040382374,0.047516506,-0.16675119,-0.054874983,-0.028755391,-0.1292979,-0.12249325,0.12578844,0.12366608,-0.03496898,0.06473181,-0.033786587,0.12721036,0.09412337,0.15050009,0.073278576,-0.00016802711,0.13630114,0.11835145,-0.11852767,0.15127105,-0.0030853772,0.07342723,0.02575321,-0.28704762,0.060641307,0.048612915,0.05968613,0.11943458,0.1672177,0.029332614,-0.12289684,0.056157336,-0.09627407,0.013481158,-0.07790432,0.20729981,-0.08042898,-0.020042289,-0.02188214,0.2138527,-0.21025713,0.13275427,-0.010446283,0.1568647,-0.08754612,0.08299162,0.061057664,-0.05251563,5.9518323e-05,0.12212055,0.063588195,-0.13266215,0.005854393,-0.23840004,0.023014495,-0.122135006,0.045400757,-0.14377019,-0.041303813,0.020852188,-0.089476466,-0.14955935,-0.032753628,-0.048600003,0.1791656,0.022753995,-0.017697362,0.061765864,-0.030307861,0.04973491,0.140081,-0.09646583}, {-0.14690322,0.0025631755,-0.11016931,-0.041201793,0.0030355242,0.21643616,-0.17700383,-0.021829078,-0.012184581,0.08466594,0.094377644,0.011132778,-0.048667807,0.10711022,-0.01574803,-0.15005517,0.032697205,-0.078987695,-0.118289076,-0.08650519,-0.118275754,-0.17070386,-0.026793351,0.0223146,-0.15110278,0.28768522,-0.016187105,0.08456885,-0.011534793,-0.028033558,-0.12237376,0.14092205,0.101081,-0.023765076,-0.09624204,0.0077337655,0.19979562,-0.08886781,-0.04413445,0.053489998,0.051949043,0.004130151,0.008660148,-0.023009436,0.1002933,-0.026883375,-0.1812358,0.13458449,-0.13666257,-0.27407038,0.15923898,0.02022656,-0.04653869,0.105382286,-0.05096092,0.16401736,-0.19344454,0.06368376,0.12839288,0.1840714,0.0023716702,-0.0010378872,0.21759199,-0.13042274,-0.114410296,0.061200514,-0.18493348,-0.19606504,-0.025284685,-0.048875216,-0.027643627,-0.013299616,-0.10856107,-0.122029476,-0.23436818,0.05419716,0.09972523,-0.04301118,0.12640913,0.09344923,0.11463933,-0.14219138,0.14502849,0.069989905,0.12700687,0.03133068,-0.15045048,-0.009756437,-0.31800285,-0.027168985,0.035370395,0.040590286,-0.0014568161,0.012094645,-0.14742114,-0.012258368,-0.1675977,-0.1089749,-0.09015898,-0.1822092,-0.18724543,0.10562784,0.1061409,0.28042206,-0.21218294,0.20309484,0.11543615,0.06577332,0.122471154,-0.06310355,-0.062296815,-0.20586142,0.07535039,0.0038597528,-0.11408975,-0.18129745,0.031193634,0.039275844,0.052735295,-0.030065227,0.07675447,-0.06701985,0.12512003,-0.11608602,0.11135716,-0.07658481,0.020343505,-0.1112185,-0.012157047,-0.1292249,-0.08065073,0.041593574,0.012795922,-0.10466613,0.045923065,0.026032908,-0.045147948,-0.13773651,0.048498712,0.015907533,0.12334134,-0.11500436,-0.15482737,-0.039889574,0.2307146,-0.035903774,-0.04774791,0.23445375,0.029650237,-0.03495376,-0.14505638,-0.17122608,-0.07201099,0.0074745547,-0.16499782,0.021384085,-0.072141945,0.32657036,-0.13285552,-0.018098045,0.24361536,0.04099869,-0.079217836,0.007628527,0.26240405,-0.038624965,0.07835621,-0.050206997,0.19850689,0.020539684,0.23779617,-0.104610786,0.15996365,0.1976398,-0.008945115,-0.0030374003,0.08166929,-0.11681884,0.10692784,-0.14135727,-0.17949426,-0.089286365,-0.0965655,-0.21293724,0.019653976,-0.11947368,0.1335451,-0.08301617,0.0389063,-0.10884945,0.04255416,0.11643624,0.08795621,-0.20916909,0.06937513,-0.23995021,-0.19243501,-0.19334859,0.0054012206,0.0056206193,0.14857787,-0.0395978,0.11526143,0.118205406,0.015079019,-0.15230653,0.0036144343,0.19739759,0.023197036,-0.124998845,0.056244824,0.22197266,0.03301541,0.14101747,-0.052366924,0.09939399,0.24098182,-0.08700269,0.045826077,-0.012719695,0.030381382,0.04396049,0.0154598765,-0.038038276,-0.047663562,-0.119051374,-0.13931999,0.18567246,-0.0950019,-0.070591204,0.037918136,-0.022555808,0.12693691,-0.10203814,-0.17067815,0.118936196,-0.06481097,0.0984538,-0.044463314,0.26901886,-0.024821388,0.26902518,-0.020015063,0.2545676,0.13719131,0.046949282,0.032628346,0.15390232,0.072924465,-0.083984286,0.20076735,0.056084182,0.003005789,0.142593,0.006357252,-0.03964911}, {-0.09689564,0.20535137,-0.027545227,-0.04251365,0.04677582,-0.22175464,-0.16076505,-0.0212611,0.0025461777,0.03230206,0.2103534,-0.061666,-0.06925687,-0.10863725,0.05936738,-0.070865326,0.030088408,-0.05031296,-0.10069657,0.009053075,-0.01165951,-0.17858562,-0.1258234,0.07200415,-0.14542559,0.21040691,-0.200105,0.020383079,-0.030092038,-0.2610287,0.17349349,0.033795066,0.11907162,-0.03121553,-0.116337925,-0.073019914,0.019616483,-0.14135636,-0.06648858,-0.20663543,-0.12350002,0.1274017,0.07184298,-0.11009953,0.056325804,-0.14276545,-0.016701486,0.08057245,0.10154528,-0.06198655,-0.01659714,-0.044780593,-0.12374969,-0.09154378,0.17237028,0.062429044,-0.20564778,-0.009580402,-0.014722305,0.21752775,-0.09500884,0.10379667,0.091188625,-0.002099732,0.052061334,-0.118390374,-0.15136111,-0.0628646,0.17072065,-0.026433779,-0.014824027,-0.024875946,-0.005708072,-0.018178172,-0.06752625,0.1139124,-0.09964884,-0.017578552,-0.08459917,0.024872521,-0.27587846,0.1529173,-0.034638647,0.06901981,-0.029872844,0.05696206,0.070341036,0.035496112,-0.0061593037,-0.04940747,-0.07187689,-0.020497825,0.04933299,0.10653671,0.069669314,0.2848746,-0.08686883,-0.07698246,-0.08166329,-0.011013156,0.11521652,0.13631876,0.101231,0.14668718,-0.03071202,0.10099149,-0.090155944,0.14298257,-0.07065826,-0.17968841,-0.023967778,-0.059581794,-0.22595675,0.046145733,-0.043155104,-0.1043716,0.09074526,-0.12083966,-0.12605628,0.035133637,-0.16751465,-0.031174833,0.1411682,0.11481173,-0.27758837,0.08884743,-0.1644594,-0.027436668,0.037916612,-0.049090054,-0.04601428,0.13624717,-0.16577165,-0.10586154,-0.12429594,-0.007328122,-0.0770421,0.14919084,0.17475912,-0.00964595,-0.10722861,-0.055719223,-0.010812123,-0.18553406,0.063031666,0.10976205,-0.07404396,-0.061866384,-0.0029792418,0.16634227,-0.10393231,0.016297951,0.095575266,-0.12274376,-0.093705535,-0.17771533,0.048909586,-0.003862837,0.1427495,0.0972881,0.09702613,0.08874341,0.16212143,-0.1963812,0.1665653,-0.006957716,0.02477654,0.046947356,-0.19029193,0.039983172,0.2119771,0.064013,-0.14196873,-0.10334661,0.0831558,0.13945991,-0.019468496,-0.16065383,0.111499585,0.027382532,-0.066000424,0.21015532,-0.17507923,0.16795291,-0.10946341,-0.18268871,0.04673207,-0.02605927,0.022291197,0.028266799,0.098721094,0.021937985,0.019480178,-0.12346042,0.25331008,0.08319163,-0.10884303,-0.06560608,-0.18691614,-0.123742804,0.08105091,0.030430213,0.17623588,-0.040861756,-0.045628004,0.1487686,-0.02955312,-0.11438678,-0.27642667,-0.15652697,0.045057725,0.016084515,0.12214377,0.014763206,0.13806434,0.11035888,-0.04611591,0.06122351,-0.1278919,0.18948986,0.09491306,-0.18397947,0.14191061,0.098899595,-0.019368978,-0.1001605,0.15435986,0.16222094,0.07081797,-0.049760006,0.13399555,-0.0043729865,-0.0171444,-0.26735115,-0.18171877,0.29459876,0.008229608,-0.059861585,-0.18027015,-0.066002086,-0.16044751,-0.041734323,-0.07474086,0.012863611,-0.05168882,-0.15747306,-0.040210925,0.07310493,-0.15917845,0.013036928,0.02178529,0.14751665,0.03051933,-0.0070280614,-0.08339465,-0.053475693}, {-0.31410545,0.001502761,-0.018791096,-0.07007235,-0.05038289,0.11466474,0.04938872,-0.1645663,0.04621625,-0.09212824,-0.055726234,0.075972244,-0.008416213,0.061046742,0.21300192,-0.08915311,-0.019254792,-0.13042936,0.2585362,0.10083168,-0.15445633,-0.0834931,0.12137707,0.2953299,-0.066281125,-0.08327336,0.050254628,-0.1390882,-0.03836004,0.0617665,0.06635937,0.08260233,0.0070211953,-0.0027506067,-0.05130286,-0.020671085,0.007867962,-0.17126852,0.20314923,-0.050512474,0.090751246,-0.12394572,-0.15551281,-0.106798425,0.07129003,-0.015804416,-0.01288164,-0.11813851,-0.13944109,0.12467676,0.15724881,-0.03394618,0.16563006,-0.044025786,0.12142923,-0.051635135,-0.0040075816,-0.05450657,-0.2556494,-0.02662299,-0.16900198,0.010288694,-0.3188774,-0.0067118346,0.014841545,0.15075046,0.05616738,0.28936964,-0.004061543,0.09885535,-0.011656423,-0.09678969,0.056722205,-0.04370574,-0.20502812,0.0583971,-0.07625903,0.26914737,0.005110004,-0.15546289,-0.018594965,-0.107120104,0.14305025,-0.035451606,-0.006596392,-0.12956515,0.23547591,0.18126245,-0.11555324,-0.06994671,-0.16170345,-0.050611153,-0.19186787,-0.277397,0.056452073,0.030547414,-0.09079402,-0.10881652,-0.009452737,0.009236385,-0.004155201,0.2527554,0.15847102,0.17901188,0.029910872,-0.14855008,-0.042207953,0.11940961,0.16471282,-0.26365566,0.0036494825,-0.018288014,-0.1875133,0.06976902,-0.036268335,0.18233557,0.030499151,-0.11430398,-0.073375724,0.005416023,-0.08228292,-0.20973168,-0.18800138,-0.19632007,0.036507253,0.07416467,0.03183317,-0.017098492,-0.3168456,0.08591192,0.12212304,-0.17467584,0.0052295974,-0.17881751,0.09305596,-0.0860504,0.05368922,-0.03668764,0.11501551,-0.0120531535,-0.15219066,-0.056060318,0.31323835,-0.023150573,0.039774474,-0.29754204,0.032689836,0.007839604,0.02328805,-0.084658235,-0.015881246,0.20675609,0.08973533,-0.024976471,-0.2228863,-0.07590316,-0.09326816,0.035366125,-0.04085711,-0.023152066,-0.11698409,-0.145225,0.14204195,-0.19255488,0.20096655,0.09799004,0.05157636,0.0005031902,0.07783124,0.15859668,0.13068049,0.2341145,0.0051433207,-0.23712452,0.05719562,0.10764307,-0.11961772,-0.29041216,0.09949161,-0.019722262,-0.073469505,0.06809833,0.13627028,0.03688745,-0.080746986,-0.014299185,-0.2765347,-0.053870942,-0.15000692,0.0050619165,0.17041728,0.05677975,-0.10775691,0.0058314377,0.06410494,0.055414136,-0.038328595,0.21632075,0.060419165,0.028721038,-0.022078348,0.12786153,0.087032646,-0.12336037,-0.13019994,-0.08210955,-0.124492355,0.107057676,-0.035605114,0.052502055,0.18285887,0.07308736,0.14127082,-0.1831877,-0.18391852,0.20963924,-0.13336067,0.2342346,-0.06856909,-0.0785021,0.095190324,-0.009364703,-0.12916104,-0.08107296,-0.0850423,0.23717539,0.12888364,0.057178125,-0.13766198,0.07207059,0.30086485,-0.16829796,-0.06747596,-0.09427943,-0.04516211,-0.14472634,-0.04319917,-0.06516759,0.16027571,-0.00872865,-0.09018083,-0.17092508,-0.0028963538,-0.028573083,-0.019361934,-0.112541266,-0.13401926,0.09982091,0.022833334,0.02278511,0.12667915,-0.28886238,-0.00741147,0.048456192,0.04275487,-0.053440183}, {0.13185377,0.10057802,0.061379522,-0.17273706,-0.16158952,-0.17790075,-0.027551185,-0.02861553,-0.0014984531,0.037649646,0.021344274,-0.11860769,-0.07248696,0.037487727,0.1590272,-0.06732152,-0.092076935,-0.0255883,-0.057167757,0.02357164,-0.044949528,0.099081844,0.102207996,-0.11062013,0.106953956,0.18159513,0.11850638,-0.097275496,-0.17549977,-0.078199975,-0.04226275,0.014210758,-0.13839316,0.012548036,0.07989963,0.00554732,0.059716374,-0.08698783,0.21049103,-0.00834766,-0.018141367,0.06365746,0.008424938,0.10456759,-0.048547845,-0.043669168,-0.10404889,-0.06728024,0.016995436,-0.08444841,0.08717002,0.20154887,0.15504056,0.04943312,0.12729768,0.04554428,-0.021865986,-0.22312659,-0.12542102,0.14518943,-0.039911956,-0.038417052,0.10548805,0.1766964,-0.03842389,0.11921424,0.082412235,-0.05391365,-0.15633658,-0.19556053,0.0051548453,-0.19137938,0.009180862,0.006239192,0.01908468,-0.10507473,-0.17521808,0.109602496,-0.09972383,0.06335342,0.007954897,-0.030943966,0.087949105,-0.014624264,0.15850078,0.045663677,-0.04186568,-0.021472361,-0.063237034,0.15561542,-0.13475345,0.0078028813,0.09506646,0.025179554,0.048940185,-0.030958116,-0.05747214,-0.21333121,0.08893538,0.011050017,-0.1155917,-0.094046116,-0.0066423323,-0.0850911,-0.087551765,0.082486816,0.20622408,0.07666319,-0.070279405,0.09580596,-0.07626505,0.041134413,0.35918537,0.36649537,0.06145143,0.04110139,0.08344192,-0.01734099,0.009783988,0.12768081,-0.24395281,0.010769405,-0.0058567114,0.038017392,-0.12931003,0.061217986,0.1310261,0.057754513,-0.20532048,0.029631361,0.105374195,-0.03536169,0.03662336,-0.32812706,0.08579684,-0.09923674,0.040490847,-0.08490958,0.017431183,0.107739545,0.023915108,0.14794451,-0.10171468,-0.007816072,0.052258514,-0.12976395,0.0048953244,0.15345505,-0.019424023,0.05558818,0.052042264,-0.04929902,0.13970396,0.07846044,-0.0086988015,-0.03294659,-0.06912579,0.2322193,-0.036111277,-0.229208,0.11918524,0.26918563,0.08684331,0.1977018,-0.09439875,0.10935768,0.015479495,-0.11531923,-0.02247847,0.03710278,0.25312793,-0.014606865,-0.13660917,0.073133975,0.02055643,0.10048952,0.20943688,-0.17731453,-0.024001215,-0.04842503,0.10866755,0.018477906,0.012472425,0.2747787,0.26097652,-0.008057469,0.0850966,-0.22822462,0.046643548,-0.046986617,0.057765625,-0.2794825,0.03548854,-0.015883295,0.023566788,0.017341241,-0.11656455,-0.058035865,-0.10893279,0.26852566,0.24980527,-0.12015725,-0.051831346,0.14186859,-0.026918527,0.13819627,0.16365546,0.24388944,-0.17305891,0.01312474,-0.098294914,-0.10227581,0.07515739,0.13740963,0.06169017,0.03613272,-0.10239158,0.19802795,0.06722271,0.17607844,-0.03600005,-0.007011025,-0.019473162,0.06052309,0.046580434,-0.122872934,0.02498672,-0.045791015,0.06344425,0.024302304,-0.0036350896,-0.06758847,0.20037217,0.09288384,-0.14732736,0.06595105,0.0922713,0.20116167,0.11558802,0.27543882,-0.038436607,0.045932606,-0.43110827,-0.036372967,-0.12514457,-0.13514002,0.04040272,0.008365262,0.004910823,-0.012245426,-0.14709835,-0.08698091,-0.13922371,0.1075102,-0.12675488,-0.09138074}, {-0.05444164,0.031302594,-0.059966724,0.16023687,-0.064105354,0.07421708,0.19038156,0.0013955958,0.02498318,-0.012557779,-0.13676858,0.035752915,0.10279577,0.0026654112,-0.07512408,0.071865454,0.23757428,0.28278428,0.13793105,0.21012607,-0.16879264,0.051130995,0.09584493,0.092042245,-0.1854812,0.04163257,0.009235853,0.0667633,0.053848453,-0.1666335,0.19365686,0.056206476,0.050516196,0.07232892,-0.12226867,-0.058242943,-0.22400871,0.03540154,0.15941991,-0.08843271,0.024248948,-0.039677497,-0.039351754,-0.1289461,-0.063403614,-0.202007,-0.08322982,0.05191372,0.092684075,-0.03727537,0.040349938,-0.14631782,0.061454844,-0.004126347,0.044339877,-0.17658561,0.09099048,-0.14375359,-0.1237207,-0.007115597,-0.15452342,-0.19907297,-0.21059175,0.10519697,-0.023366094,0.012620587,0.21257174,0.041839194,-0.038454413,0.084026285,-0.029967893,0.09750111,-0.08284923,0.12737517,-0.13595527,0.03476774,-0.07895948,0.04423888,-0.17652433,-0.030465875,-0.02473137,0.13046484,-0.055448294,0.01129859,0.11152849,-0.22223258,0.24323966,0.250173,0.016444344,0.04185199,0.056233857,0.045888696,-0.0062565887,-0.083543144,0.037892308,-0.17709242,0.14916351,0.12751909,-0.080872156,0.023596942,-0.09095721,-0.13806081,0.070925936,-0.031024016,0.048963707,-0.22783244,-0.15056516,0.009044782,-0.08412928,-0.34056982,-0.2195551,-0.0031878343,-0.18446288,0.22038095,-0.03366863,0.13738243,-0.1380131,-0.31563374,-0.09483576,0.02302236,-0.05330363,0.07175768,-0.093471475,-0.24842751,-0.17954402,-0.053282727,0.09218749,0.014767641,-0.2883779,0.093966946,0.09907868,-0.053072676,0.1726937,-0.32521403,-0.0672801,0.08604999,-0.079607874,0.11771089,-0.14474031,-0.100630745,0.022133645,0.24297273,0.17320155,-0.095415,-0.049392123,-0.013356012,-0.13870078,-0.13520682,0.053705163,0.108047076,-0.10965748,-0.008298556,-0.04221952,-0.12913771,0.0024302185,0.0054177344,-0.26531017,-0.07350162,-0.058904838,-0.011094848,-0.117278576,0.02785885,0.023210118,-0.24436072,-0.13253324,-0.010534653,-0.01499078,0.0028906143,-0.21163757,-0.1397048,-0.13424852,0.13845778,-0.12899902,-0.16768317,0.1740303,0.050971627,-0.12861186,0.07630751,-0.22165067,-0.0741251,-0.015940445,0.03550307,0.09783679,-0.10061354,0.1053661,-0.15517482,-0.2909229,-0.1222644,-0.2856254,-0.17854477,0.029601848,-0.018712537,-0.006651656,0.022212764,0.06818155,-0.009212372,-0.14711201,0.2008088,0.03906897,0.07694098,0.048973426,-0.032089084,-0.049814634,-0.10964121,0.020726142,0.0654348,-0.04404052,-0.09361745,0.12719703,-0.21728471,-0.07116153,0.041866913,0.22194575,-0.1380006,-0.3085636,-0.05398558,-0.20071766,0.06575341,0.13732418,-0.04286134,0.030958137,-0.033155423,-0.16179512,-0.0019601376,0.13847627,0.13028428,0.22883604,0.01538458,-0.13712664,0.06705033,0.13872617,-0.022686256,0.03422298,-0.09175655,0.11495985,0.05744491,-0.041166738,-0.2254135,-0.031805806,-0.093976416,0.0626613,-0.15491068,0.0037850363,0.02342882,-0.0976655,0.021153893,-0.085782856,0.14031532,-0.07875035,-0.06095705,-0.045519076,-0.06960169,0.028849082,-0.064162955,0.045285206,-0.023812704}, {-0.0055578365,-0.042083748,0.059639882,-0.022486735,-0.18180926,-0.18019155,0.11957657,-0.00031665113,-0.0075526163,0.24169582,-0.36161315,-0.028830063,0.042454015,-0.01978839,0.0456304,-0.120777324,-0.111687824,-0.077720985,-0.08484712,0.16986144,0.16519555,0.012433894,0.012242125,0.017528716,0.18099275,0.23039928,0.08610887,0.011856194,-0.023190958,0.013154976,-0.042426165,0.1980234,-0.021009497,-0.023830656,0.22543775,-0.06889256,0.11484227,0.0722916,0.12671888,-0.07552148,-0.023925355,-0.08498228,-0.039447322,0.05630002,0.0029121586,0.015718203,0.20777276,-0.11213475,-0.07274278,-0.053779136,-0.081358224,-0.04689166,-0.09220788,-0.10541513,-0.14802203,0.08005829,0.10146039,0.0972354,0.013911873,0.027063344,0.12267262,0.20475265,-0.08556766,-0.23689838,-0.051388312,0.049028736,-0.010896066,0.12699647,-0.034529563,-0.10673801,-0.0136772515,-0.005568395,-0.024454946,-0.1474587,0.12825891,-0.023556236,0.2513176,0.04084273,0.09147442,0.031086091,-0.15209216,-0.006091082,-0.12813535,0.075667076,0.09696194,-0.039169837,-0.09046379,-0.032024927,-0.039211754,-0.06804063,0.0013809367,0.014021718,0.14378756,0.05127046,0.013782828,0.07621646,-0.10456666,-0.15683419,0.2188407,-0.08755248,-0.08935555,0.07300648,0.097777575,-0.030964568,-0.11320838,0.10006185,-0.09584718,0.20505562,0.1133889,-0.09138748,0.03419006,0.06572044,0.2836705,0.18273091,0.18034837,0.07622859,-0.23962148,0.005423575,0.059879452,0.11758515,0.09981317,0.10864195,-0.18208787,-0.08184492,0.10162098,0.11132799,-0.09658042,0.025305446,-0.13656496,0.040727165,-0.04013264,0.0671521,-0.22332591,0.09158738,0.07632369,0.21495602,0.052911215,-0.02561658,0.094317615,0.056314263,0.11356839,0.04334595,0.2104318,0.09378418,0.034601167,-0.28718218,-0.07662757,0.07902647,-0.10969261,0.059742272,0.18811,0.09190594,0.16207995,-0.037977386,-0.03259373,-0.3260666,-0.022809576,-0.008088264,-0.044285204,0.1548747,-0.11204231,0.037092745,-0.106583275,0.045329977,0.0075256145,0.049400404,-0.078851655,0.08131637,0.09555845,-0.097042575,0.18335879,0.16913164,-0.0014552198,0.040042687,0.07491389,0.07041941,0.11106164,0.09414426,0.12047121,-0.20741409,0.05092135,-0.15773626,0.11173074,-0.118217945,0.013834561,0.055868194,0.023209924,0.052973915,0.28669223,-0.16369058,-0.041579235,0.06648923,-0.01033278,0.029073954,-0.11574795,0.12952892,0.17934544,0.020422282,-0.06054413,0.18575174,0.00985436,0.051326867,-0.14743517,-0.1325157,-0.051164385,0.10387841,0.15287519,0.022844374,-0.08835972,-0.016980072,-2.6316091e-05,0.13342029,-0.03577246,0.110792734,-0.17627586,-0.09838199,-0.0031051366,0.021100024,0.011842782,-0.14011824,-0.13899463,0.085828535,-0.14618155,-0.0046193576,-0.10412003,0.18355714,-0.09986318,0.2015029,0.098973885,-0.095650464,-0.12203714,0.14044443,-0.080829546,0.10779992,-0.07928101,-0.11499051,-0.014617038,-0.09101196,0.05945058,0.10716044,0.0021527614,0.025348373,-0.0067093,0.00062412303,0.094141394,0.08234841,0.075544514,0.041781034,-0.04671112,-0.054970283,0.2008858,0.014832393,-0.20586681,0.004749185,-0.010485579,-0.11257471}, {0.16971292,0.093490854,-0.043961637,0.13971893,0.17262274,-0.12666327,-0.08329888,-0.1391688,0.30001178,-0.19505179,-0.072769076,-0.04574656,-0.21411769,0.050301958,0.1535128,0.18152054,-0.14193906,0.19925033,0.26435342,0.08504729,0.2747014,0.17144255,0.12128191,0.09993629,0.20473638,-0.22624296,-0.0010596429,0.022496963,0.17121023,0.049220067,0.05138101,-0.013685908,-0.10346152,0.23772942,0.13898097,0.021219784,-0.09592246,-0.1626435,0.012812513,0.036677387,0.044973493,-0.09504758,0.0041296734,0.15333146,0.091203876,-0.07980528,0.01570081,-0.025725124,0.25079992,0.17915171,0.007519195,-0.021618048,0.25628573,-0.15525042,0.26630574,-0.14563848,0.07306686,-0.104955316,-0.1435268,-0.10078032,0.13657025,0.0017216346,-0.00087645225,-0.09636831,0.072554246,0.05130545,0.13752644,0.025866888,-0.18511544,-0.23404056,0.14034821,-0.044042274,0.11216097,-0.09909497,-0.19832905,0.17953366,-0.22786365,0.096123524,-0.110611625,-0.09649612,-0.022473607,0.25744227,-0.01712662,-0.21473981,0.21510394,0.1926323,0.06622856,0.014922447,0.06534046,-0.13959411,0.14341027,0.25586858,0.03852827,-0.06533835,-0.15823254,0.0058239116,-0.04716636,-0.039523862,-0.09491266,-0.20333989,0.0014982488,0.011593518,-0.046379466,0.021785216,0.013548941,-0.021599479,-0.21051164,0.035882328,0.095900945,0.13371348,0.080235995,0.12551738,0.113659225,-0.09660123,-0.056851223,0.26237214,-0.11703148,0.018054102,-0.18083999,0.09448529,-0.034803554,-0.04826731,0.02752055,-0.054897886,-0.03257285,-0.1191079,0.13838637,0.003908089,0.10459617,0.083796486,0.19207455,0.009798284,-0.191658,-0.1764586,-0.017669631,-0.03233187,0.10398485,-0.1000882,-0.083132,-0.17933507,-0.100963525,0.08574867,-0.19118918,0.04826509,0.0019297968,0.015034652,0.08493838,-0.022342348,0.0754313,-0.030961461,-0.18314765,0.20265827,0.044658184,-0.1694948,-0.2514025,-0.0026055125,-0.056948848,-0.04709882,0.056223977,0.10332198,0.00020958143,0.059676718,0.20366196,-0.06429022,-0.25398332,-0.10313003,-0.08262441,-0.028411217,-0.19463617,-0.08266022,-0.027825652,0.17059618,-0.04962218,0.041205943,0.17281336,0.077904604,0.21063247,-0.037241027,-0.20695771,0.08861352,0.014616833,0.28031674,0.20358354,-0.048817787,0.009614325,-0.05206312,0.05833036,0.22650437,-0.07222672,0.17975056,-0.09307508,-0.050021164,0.14211138,-0.2266748,0.022841005,-0.0082145,0.17802334,0.3470496,0.034666736,-0.040840458,-0.22411574,-0.018620698,-0.068387195,0.052769713,-0.13219815,0.04254169,0.03706952,0.027396364,-0.10760063,-0.12401736,0.10945667,-0.13217017,0.104958676,-0.08819233,0.08242517,0.10459338,0.20017533,0.0319315,0.0033526628,0.19584547,0.04776163,-0.11151305,-0.041832086,-0.13761626,-0.059184447,0.20164065,0.08641508,-0.11208712,0.15352435,0.08812809,0.11377065,-0.18406442,0.02729119,0.024028568,0.10765717,0.074495524,0.012388791,-0.2256906,0.06808766,0.090338744,0.076391295,0.24154,-0.028212428,-0.016945418,0.11185558,-0.14208703,-0.025924478,0.012621893,-0.01876555,0.17865068,-0.07189327,0.0888929,0.020773454,-0.14187971,0.1311433,0.18061517}, {-0.16994128,-0.124555856,0.17343198,-0.099536754,-0.061375402,0.085571036,0.013011918,0.031156907,0.02814452,-0.030624911,-0.041465547,-0.19567399,0.027293783,-0.031771332,-0.0047514085,-0.13748978,-0.0067186756,0.021216009,-0.1333285,-0.00765652,-0.060868204,-0.05907243,-0.1804023,0.05086854,-0.09843649,0.24349584,-0.028769674,0.054628376,-0.14261687,0.13872793,0.25109607,-0.032659452,0.2033961,-0.15454395,-0.20196725,-0.13794117,0.023428807,0.008722453,0.117018156,0.013848685,0.010189658,-0.10089019,0.07913208,-0.032465916,0.11833483,0.16151384,-0.2694689,-0.0875831,0.028240563,-0.14547122,-0.114271335,0.094018705,-0.083348654,-0.008267896,-0.08912849,-0.046436977,-0.25903672,-0.03020603,-0.001546968,0.07703117,0.026238773,-0.0774034,0.011639996,0.017316047,-0.00011521987,0.0338163,-0.06260417,-0.07555309,0.048696656,-0.091885805,0.086792655,0.10835561,-0.24258563,-0.057472877,0.16404822,0.1555676,-0.17028815,-0.007435317,-0.059451267,0.02739767,-0.10025273,0.13011123,0.20224248,-0.06966433,-0.04349665,-0.030738186,-0.13315487,-0.049207278,0.040701166,0.08582454,0.088401645,-0.10824291,0.07728176,-0.1108947,0.011687117,0.11172015,0.031175552,-0.12689433,-0.054905746,0.097063825,-0.12948257,0.0046531353,0.058938336,-0.03448369,-0.06962441,0.01792163,0.011570518,-0.0071052825,-0.1266824,0.16257218,0.034360558,0.0024240762,0.07491084,-0.019742671,0.05174298,-0.09174886,0.21371272,-0.17656691,0.17141469,-0.21308106,0.10965425,0.03694477,-0.04312461,0.068464346,-0.03867278,-0.14531259,0.14948902,-0.28661254,-0.115732245,-0.010095496,-0.031217333,0.027733486,-0.006555963,0.0387368,-0.059312284,-0.047679484,-0.0938724,-0.15940785,-0.1733449,-0.08894135,0.042269036,-0.06258003,0.107130595,0.2099324,-0.014815436,-0.0013828023,-0.016842337,0.073969446,0.026360612,0.05626164,-0.032177977,-0.16751552,-0.078797616,-0.05472902,0.0975629,0.09087488,0.088723846,0.14854088,-0.18006407,-0.042612366,0.13903618,-0.12142579,-0.21101232,-0.18883981,0.066270955,-0.09182643,0.071960226,0.06904281,0.09419364,-0.051528025,-0.0013175916,-0.02400044,-0.09829067,0.0077546337,-0.09657223,0.03963129,0.07722157,-0.162597,0.021521349,-0.009977387,-0.031399466,-0.10202088,-0.040728476,-0.060290262,-0.18024854,0.0154046435,0.18183778,-0.22434129,0.071603656,-0.025959512,0.025527162,0.24352528,-0.14034264,-0.29161534,-0.0052539157,0.14510567,-0.18469831,0.05239531,0.03193738,0.12401897,0.051433258,0.1611675,0.11719051,0.15927675,-0.085440755,0.08612941,0.060886484,-0.12450284,0.1780172,-0.08427474,0.008381445,0.22335245,0.048293065,0.052569717,-0.05454081,0.025652962,0.049640164,-0.056739405,-0.07189596,-0.026670886,-0.012522496,0.0557351,-0.037708398,0.0879408,-0.19612074,-0.01658424,-0.23204044,0.13720426,0.050658025,0.10744036,-0.3042202,-0.1633655,-0.09814279,0.040383883,0.032011274,-0.0905136,-0.11532489,-0.04789839,0.13772444,0.17191032,-0.17332666,-0.0041032834,-0.09128928,-0.040687464,0.08877406,0.13511872,0.15431385,-0.02083112,-0.0032736913,0.10729117,0.08768327,-0.017846128,0.038160533,0.102227956,0.028728282,0.058532067}, {-0.12983833,0.010100065,0.12876192,-0.06122445,0.049919274,0.19394132,-0.033808373,0.1022215,-0.14327669,-0.14602396,0.17038949,-0.088830374,0.07634276,-0.062992625,-0.042022184,-0.026426764,0.15285686,0.023634737,0.18044415,-0.048104163,-0.068599336,-0.23863916,0.19994508,-0.045036893,-0.19458239,-0.2232331,-0.13569154,-0.09802773,-0.16654584,-0.19650798,-0.076406784,-0.1519013,0.08715298,-0.10420115,-0.017919837,-0.030551804,0.009085273,0.08535902,-0.0905099,0.23405793,-0.124023944,0.12738289,0.044379625,-0.08390374,-0.028644018,0.034029633,0.01335092,0.038357705,0.15060012,-0.0887676,0.047122806,-0.13396953,-0.19965659,-0.09015943,-0.030705845,-0.00969598,0.10048901,-0.12779218,0.070968315,-0.08913928,-0.11031036,-0.13997436,-0.16822003,0.035950497,0.10458773,-0.095321916,0.0084470315,-0.1776987,-0.014911451,0.024892585,0.14732328,0.03053291,-0.11077525,0.06607719,0.048284836,-0.005761688,-0.019657869,-0.09792006,-0.04524485,-0.048923105,-0.038289502,-0.1291699,0.19996443,0.057169754,-0.176902,0.045945294,-0.09220152,-0.14847551,0.09313029,0.07884885,-0.11491597,0.20768273,-0.13044976,-0.102002166,0.12973236,-0.1016831,0.23454888,0.11328248,-0.030098421,-0.0034272247,0.23512414,-0.21505134,-0.11181279,0.01574505,0.0073660687,-0.13915607,0.016879981,-0.060949024,0.04905559,0.05194597,-0.1883804,-0.02825973,-0.042455476,-0.0022922808,-0.039929405,-0.0107443165,0.22644666,-0.053169828,0.008240352,-0.04532305,0.11391984,0.10827205,-0.012919835,-0.025499905,-0.06183263,0.001984913,-0.083192214,-0.045564815,0.023426492,0.09300601,-0.050436504,0.40146935,0.19367266,0.06240669,-0.042931914,-0.055705015,0.08359516,0.04211451,-0.18159516,-0.052825492,0.067449845,-0.051781528,0.0034182505,0.07222842,-0.26312017,0.06741026,-0.08457573,0.19709675,0.16370665,0.00078631163,-0.0035711,-0.20487924,-0.03531426,-0.017570358,0.20677012,0.02253261,0.004097999,0.04875581,0.01897443,0.095105425,-0.06162207,0.025927873,-0.18296932,-0.056851424,-0.02470041,0.05717593,-0.13218465,0.001375735,0.006561034,0.048307754,-0.15576172,-0.17510352,0.047979873,0.032094132,-0.16441274,-0.07749371,0.055731017,0.07074661,-0.057898056,-0.08620447,0.01790664,0.07743578,-0.048574507,0.09003431,-0.15664466,-0.26355007,0.11592214,0.111410074,0.021193327,0.23415034,-0.051880978,-0.16640387,0.15019497,0.10610982,-0.000101449215,-0.233477,0.14513199,-0.17158286,-0.19418743,-0.084661596,-0.050619394,-0.04243644,0.031375203,-0.07703976,-0.027743578,-0.25416023,-0.16546057,-0.048796307,0.20368983,0.21551576,0.29527166,-0.18143025,-0.0811737,-0.13941063,-0.057850167,-0.073743165,-0.012399664,0.047127005,-0.013238873,-0.16181037,-0.07699161,-0.007845367,0.15668118,0.018335938,0.0115416655,-0.32686463,0.08954415,-0.2109013,-0.13550285,-0.036327578,0.11294206,0.13740301,0.03433393,0.08300616,0.028392013,0.0691112,0.037049778,0.063660495,-0.049857985,-0.21952344,0.13983205,0.022984484,0.08556946,0.0862641,0.0904731,-0.030919868,-0.2487573,-0.096249625,0.024599697,0.0179844,-0.03083565,-0.118832715,0.1078478,-0.01280037,0.1591893,-0.20315424}, {-0.16422153,0.054977223,-0.059109356,-0.0049824715,0.07347556,0.04886675,-0.024099497,0.07693299,0.050334897,-0.11847832,0.056664396,0.04058344,-0.1640671,0.021582957,0.03954397,-0.083641626,0.06567167,0.047026474,0.025755713,-0.055099506,0.01452262,-0.19918407,-0.05193669,0.22892554,-0.059625156,-0.06769559,-0.15319057,-0.015973477,-0.030207299,-0.18196064,0.0153247025,0.17524289,0.21795179,-0.15212856,-0.15489365,0.040714886,0.0047872816,0.046449903,-0.073859595,0.1699102,0.17415172,0.0053671175,-0.02193064,-0.18697025,0.22604823,0.060823407,-0.22810203,0.036489986,0.07623057,-0.21367534,0.23916213,-0.006011687,-0.06534055,0.18110068,-0.0043643564,-0.1328633,-0.22801325,-0.07006866,0.17683616,0.024268612,-0.0025551782,-0.08947681,-0.10798238,0.012922348,-0.038457356,0.17343524,-0.1749069,-0.030056298,0.091883145,-0.05502003,0.25022542,0.11246129,-0.06992382,-0.072595306,-0.038627777,-0.14944129,0.016988594,-0.082963966,0.047676396,-0.19593741,-0.018754132,-0.2160443,0.13917269,-0.21745925,-0.0030061482,0.23742443,0.07160321,-0.024723725,-0.18078238,-0.021119585,-0.008307322,-0.1404827,-0.05782096,0.00014545277,0.07162957,-0.057043113,-0.12235501,-0.06466677,-0.28238922,-0.20273763,0.086805716,0.044270713,-0.09912956,0.09049363,0.06857348,0.13125247,0.15121621,0.13355081,0.01163905,-0.023604173,0.13821472,-0.16576213,0.054224715,-0.09857979,0.060710397,-0.1260201,0.042288955,0.1486575,0.041183542,-0.12380108,0.20262283,-0.017074952,0.1287518,-0.11155548,-0.17333587,-0.1855238,0.011218826,-0.2363564,0.012149945,0.018026074,-0.11062783,0.15716136,-0.04908647,0.009208276,-0.20734781,-0.16070235,0.14613257,-0.19808787,0.21766506,-0.18132007,-0.011375856,-0.09804373,-0.13911574,0.14573175,0.116009705,0.1277782,0.10882931,0.28472492,0.01879001,0.09983811,-0.10862871,0.27280128,0.057984665,0.10076599,-0.10653427,0.035035808,0.051393673,0.12809953,-0.21187767,-0.0035972565,-0.072967336,-0.010590112,-0.10788768,-0.0918205,0.15919267,0.114646114,0.10843912,0.027774982,-0.039372385,0.051724765,0.10027304,0.07219235,0.049973227,-0.047155377,-0.078441106,-0.055364493,0.1032449,-0.00437865,0.03348685,0.08802806,0.03388279,0.034062687,-0.03017227,0.13178408,-0.057803452,-0.08243308,0.12860115,0.19589974,0.14970128,0.023716763,-0.060852632,-0.034776185,0.121503256,-0.11002546,0.011513863,-0.17824735,0.11180417,-0.23102385,-0.0682157,-0.1550176,-0.18560682,-0.20303872,0.06405114,-0.10028192,-0.034111258,-0.13217877,-0.11816727,0.061825637,0.04651809,0.240101,0.24397232,-0.016055716,-0.11435361,0.14257488,0.11126493,-0.096791826,0.059377506,-0.12125929,0.21542421,-0.13542145,-0.003103759,0.080867715,0.14174336,-0.23943388,0.1179006,-0.021944156,-0.094998084,0.044578057,0.0016257098,0.16642788,0.0037525147,0.05304537,-0.053309117,0.16310567,-0.2372325,0.17966722,-0.22364311,0.066802435,-0.10457242,0.07287719,0.12057211,0.1177098,0.21547325,-0.012212984,0.34319288,0.06799085,-9.88025e-05,-0.030118857,0.05610214,-0.07159594,0.08841598,-0.0484669,0.12493787,-0.056437917,0.09626166,0.15615545}, {-0.07590391,-0.070290364,-0.032883387,-0.13149327,-0.17743833,0.20298854,0.0033587946,0.07640128,-0.24767658,0.023851326,-0.065380745,0.0850099,0.13486288,-0.09536021,-0.013095912,0.16363573,-0.09169033,-0.04090354,-0.27595112,-0.119810395,0.007987135,0.061144236,-0.09896097,0.05255033,-0.084404945,-0.047511723,0.0068952874,-0.11311914,-0.09322835,0.10926887,-0.22753525,-0.2313978,-0.037391555,0.09116683,0.042822726,0.16350394,-0.0028731595,-0.051811304,-0.12290096,0.011001288,-0.026825154,0.08551311,-0.10392471,-0.07060798,0.04832407,0.20449565,0.02230543,0.049205896,-0.0033139922,-0.06996825,-0.02599401,0.111612305,0.11546536,0.2445788,-0.046723407,-0.2285511,-0.056882225,-0.0489506,0.015369227,0.08629965,0.07982902,-0.041520413,0.046311498,-0.069620535,0.06920515,0.19229536,0.20107436,-0.09867289,-0.055818453,-0.08529178,0.010498217,-0.0072037205,-0.12702218,-0.017503852,0.04063486,-0.02167911,0.2228949,-0.050143734,0.24169382,0.06005185,0.27827144,0.20864837,0.08017077,0.006295099,-0.2709253,0.06444206,-0.16313271,-0.107630596,0.112206094,0.005200205,-0.028547306,0.093042806,0.122201435,-0.09109173,-0.058055084,-0.015751613,-0.0054548667,-0.020793606,0.0034675868,0.0034130989,0.054836508,-0.05519894,0.0066410536,0.06664535,-0.14940077,-0.09065748,-0.23707764,0.21620682,-0.15286061,0.056954026,0.13515995,0.08211861,0.16721652,-0.2471286,0.13380624,-0.1519903,-0.08683792,0.122044496,0.2385032,-0.099195726,0.13341248,0.10453923,-0.24258967,-0.039674565,0.36682352,-0.03767284,0.06554771,-0.14240958,0.15842597,-0.054529488,0.14557904,0.07398847,0.05885445,0.030399872,0.045145337,-0.1134586,0.109149344,-0.08239077,-0.076944694,0.046610594,0.13863918,-0.17059255,-0.08211876,0.14670576,-0.02812658,-0.25261685,-0.0666833,-0.12391843,0.07167699,0.038148507,0.040346645,-0.21083458,0.02142583,0.023666373,-0.086204566,-0.07573585,0.02548508,-0.19224091,-0.08950406,-0.04740427,-0.04166231,-0.075366735,0.056557763,0.025357816,-0.08579193,-0.0010270864,-0.0075544664,-0.056897733,0.04318492,-0.08626571,-0.14566965,-0.14951386,-0.04021714,0.09612401,0.05280731,-0.20348294,-0.0820896,0.053161547,0.015502403,0.046977703,0.0039778827,-0.25653306,-0.07141151,-0.16157827,-0.15194225,0.2185556,0.0074613164,-0.15601315,0.18265519,-0.0003427694,-0.24097323,-0.08727093,0.015143506,-0.022356989,-0.15902315,-0.084513865,-0.1022505,-0.21112338,0.33656612,0.044054154,0.07073196,-0.024240568,-0.058546618,-0.018362625,-0.027169162,0.2989021,-0.23598506,-0.04384059,0.035808258,0.13084906,-0.11074935,-0.204677,0.039817464,-0.028904436,-0.08760791,0.012072938,-0.11561673,0.002637239,-0.15411535,-0.15653786,0.0745382,0.19288811,-0.046300173,-0.310717,0.22229305,-0.088302866,0.05937393,-0.08988443,0.12602407,-0.10680002,-0.3458283,0.07418044,-0.016863734,0.17190957,-0.03103984,-0.08849284,-0.10033989,-0.09445258,-0.15990373,0.10634007,0.035946116,0.2585006,0.19163571,0.013568625,-0.36783653,0.1487885,0.0017461019,0.027489992,0.042300697,-0.022539916,-0.009890846,-0.1474795,-0.09743885,0.002445241,0.15569423,-0.10726411}, {0.032919224,-0.08382607,0.21804318,-0.0077520306,0.049624998,0.047593564,0.011887099,-0.15645777,0.09370898,0.033999965,0.17936622,0.03353277,0.23900533,0.056155123,-0.14605121,0.040715043,0.1528588,0.10994871,-0.015853904,-0.07897373,0.22860508,-0.12538397,-0.0070175505,-0.102961935,-0.18503073,0.089223325,-0.14496677,0.051402677,-0.041990053,-0.20930329,0.028380727,0.028524846,0.03912424,3.3550343e-05,-0.08570147,0.126284,-0.1052651,-0.010158414,0.10315709,-0.15807727,0.13619566,-0.090734616,0.10099329,0.02443749,-0.05368275,0.03168465,0.063063,-0.19067737,0.10918139,-0.051178277,-0.13685307,-0.013216779,0.2655019,0.059933167,0.06075467,0.01487538,-0.083436966,-0.016652105,-0.011611711,-0.08715895,-0.121001184,-0.14560644,0.014832428,0.3182706,-0.05008949,-0.25019583,0.105512716,-0.100479655,-0.09294924,-0.08758937,-0.0032091853,0.20385763,0.079538524,-0.01881026,0.15896393,-0.0923634,-0.24022557,-0.14031334,-0.14996196,0.06030748,0.11377087,0.040967517,0.06510994,-0.10710004,-0.029594278,-0.05568092,-0.051469326,0.048849795,0.08511702,-0.043846756,-0.0024897412,-0.004895404,-0.0012046844,-0.07377954,-0.05861707,-0.16066992,0.17878884,0.13548613,-0.012948506,0.2243739,-0.10318962,0.1135229,0.06460732,0.07189587,-0.28369078,0.13803871,-0.010888077,0.027415643,-0.00027956252,0.18662049,0.11655671,0.07544044,0.31261584,0.107778676,0.0458677,-0.025207385,-0.1629925,0.25239673,-0.0051222453,0.08933274,0.04020337,-0.086687066,-0.085427955,0.09371927,0.061145484,-0.15972583,-0.03992514,0.1296858,0.13809778,-0.05533935,0.039255656,-0.24496247,-0.09099972,-0.050349027,-0.1580848,-0.28544503,-0.10089909,-0.036210377,-0.010573122,0.06250436,0.24608724,0.085937895,0.0030766292,0.03201188,0.025684493,-0.022912228,-0.010374792,-0.3263099,-0.10363693,0.051187005,-0.032163043,-0.15782416,-0.1586603,0.07134747,-0.050763972,-0.06344259,-0.055459008,0.07373054,-0.1566031,0.106041275,0.07405797,-0.06191566,-0.1574504,0.005573264,-0.2210347,-0.0697043,-0.20792954,0.06727551,-0.09156797,-0.12025376,0.02127418,-0.15237078,0.06659459,0.07969508,-0.16263425,0.031567816,0.26976502,0.008463783,-0.055899367,0.22342253,-0.08189805,-0.22265084,0.014516739,-0.20305127,-0.076630004,-0.008102899,-0.019109206,-0.1048584,0.13499682,-0.005455513,0.048481483,0.08102041,0.016102752,-0.054583196,-0.26061556,-0.019054307,-0.14773338,-0.0071122376,-0.017013501,0.14866537,0.19772857,0.17628703,0.05053097,0.26206988,-0.034960456,0.13619038,0.059437137,0.08630711,0.1512602,-0.033252534,0.042911243,9.716005e-05,-0.046487797,-0.032449,0.026484106,0.106083624,-0.04846234,-0.0008923709,0.09623473,-0.14675397,-0.19439101,0.03638624,-0.10920044,-0.029139036,-0.0027331351,0.05161644,-0.123174265,-0.096498296,-0.07970553,-0.013278381,-0.10776211,-0.033624094,0.108043194,-0.21571441,-0.08209807,0.07248053,-0.113279544,0.033206586,-0.028381748,0.20419827,-0.028806442,0.15331857,0.014138868,-0.022348855,0.22443981,-0.12540588,0.07500031,-0.03147629,-0.1471238,0.35264403,-0.062369343,-0.055830028,0.12722054,-0.012476229,-0.15752555,-0.021497546}, {-0.046923768,-0.054956306,0.27893233,0.03763953,-0.11391641,0.16578873,0.205436,-0.014322518,-0.1401879,0.103744105,-0.08624449,-0.04309871,0.19398227,-0.10451444,0.022986062,-0.15291595,0.030258749,-0.059806123,-0.10339948,0.17335662,0.0013962456,0.0071680844,-0.18134654,0.0010819598,-0.07534145,0.19325353,-0.066539995,0.062712714,-0.09095852,0.1375448,0.008467459,-0.19561888,-0.09822716,0.13361308,-0.07390749,0.082969785,-0.25687087,0.10833657,0.23590194,-0.0141495,-0.020168165,-0.059174806,0.19238168,-0.026862135,-0.152902,0.036661543,0.03217217,0.049152505,-0.0062863687,0.1792219,-0.046889435,-0.15882187,-0.028762449,-0.008479243,-0.06332185,-0.043514773,0.07493925,0.03429411,-0.045373015,0.16317487,0.035285942,0.008874243,0.03771484,-0.01939496,-0.06597267,0.05604404,0.18595132,-0.044721037,0.016289761,-0.065447584,-0.06705469,0.08670559,-0.17126767,-0.06629339,0.32697564,-0.09273176,0.03220069,-0.032118496,0.10876424,0.15971148,-0.031889476,0.14197451,0.0011070445,-0.0018867321,-0.03588047,-0.14573993,-0.10885002,0.017142015,0.015607838,-0.15246327,0.0017629717,-0.05587485,0.1181146,0.17074026,0.04475483,-0.14320652,0.31405312,0.13205832,0.034883738,0.06737807,-0.1274771,-0.29985178,-0.1501618,0.02445843,0.08708286,-0.034531545,-0.22584508,-0.27849612,-0.15197925,-0.11530284,-0.1446828,-0.10165126,0.260519,0.005328628,0.06435832,-0.041514557,-0.07465556,0.08197552,-0.061474882,-0.24160877,0.08330849,0.25453797,-0.23652975,-0.033908,-0.12201222,-0.08278782,0.16885102,-0.00925082,-0.00693379,-0.050441258,0.029269071,-0.110647716,0.017212182,0.21350048,-0.22110268,0.13793439,-0.13722181,0.035830382,-0.25052062,-0.15599598,0.2868462,0.24827114,0.38983396,-0.30384386,-0.29222175,-0.22484615,-0.2064413,-0.21815847,-0.25084096,-0.018333597,-0.0008497681,-0.12498359,-0.15543662,0.03296203,0.13242763,0.010417444,0.020078981,-0.058184523,-0.15303153,0.15510385,-0.18219553,-0.1387207,-0.19679485,-0.31689575,-0.21586967,-0.07869219,-0.030507471,0.006184156,0.05595844,-0.37772146,-0.07833477,0.2351667,-0.14520304,0.004280408,-0.10387252,0.10125401,0.044415597,0.22800347,0.009558805,-0.29262522,0.12994467,-0.08342111,-0.03772137,-0.06559625,0.12847306,0.04537606,-0.091213934,-0.19513576,-0.024915412,-0.00496968,-0.077543944,0.12070972,-0.10827038,0.094525725,-0.03332336,0.14052269,-0.0030274543,0.2770845,0.031770818,0.19813311,-0.051997747,0.23065627,-0.106480695,-0.07697658,0.31462935,0.23893861,-0.052778985,0.022574423,0.055782013,-0.23697713,-0.18366127,0.17384148,-0.09458826,-0.057859447,-0.3447734,-0.013157583,-0.1723813,-0.24453382,0.0071286513,-0.08710418,-0.06879133,-0.05022759,-0.07615438,0.15874201,-0.10072721,0.18786049,-0.014164841,0.028233025,-0.004704957,0.0031505988,0.050475985,0.19340482,-0.026028866,0.050099257,0.0855878,-0.015453278,-0.0619163,-0.1796391,-0.09779587,0.007119986,-0.1704943,0.029682564,-0.124129415,0.11986265,0.0938135,0.1542266,0.076047935,0.09779998,-0.15278023,-0.01210947,-0.12567319,-0.0341028,-0.04349178,0.059909943,-0.034808896,0.013637148}, {0.13605298,-0.09232382,-0.016683556,0.048001334,-0.035143,-0.09082107,0.109895475,-0.009245118,0.19215022,0.06629918,-0.19522996,-0.08746413,0.021877464,-0.10583737,-0.14246473,0.1474045,-0.11359605,-0.048703663,-0.023819583,0.07069064,-0.020089632,0.39179397,-0.11683334,-0.04342963,0.16545117,0.16357055,0.13243406,0.10633383,0.22760911,0.18189713,-0.0982438,-0.10910941,-0.2511851,0.049670868,-0.025730299,-0.09534273,-0.16374236,-0.031753056,0.092604294,-0.07550902,0.027328046,-0.1011807,-0.06589172,0.00073848874,0.06676577,-0.11998611,0.085327946,0.090705924,-0.058496654,0.21053089,-0.06166213,0.17389001,0.06333822,0.012771769,0.0058709756,0.05539813,-0.20207794,-0.013772589,-0.052697685,0.19373412,0.13117023,0.18567324,0.18393013,-0.25992787,-0.14149073,0.26361847,0.05394298,0.02109126,0.022528514,-0.18878739,-0.1433742,0.03736379,0.24487491,0.04478406,-0.30743957,0.03062615,-0.048214294,0.01596121,-0.022032535,0.051937755,0.34948817,0.16081078,-0.09732798,-0.0127036,0.1801436,-0.092297226,0.25895345,0.10336178,0.104675926,-0.02843666,0.30784947,-0.12842761,0.14277327,0.13425034,-0.08672143,0.13013469,-0.116270095,-0.017108507,0.19499674,-0.10682895,-0.08307313,-0.030444346,0.16675194,-0.005524797,0.095235296,-0.011265389,0.14799783,-0.14114083,-0.06423481,-0.091795065,-0.07395798,0.045831967,0.13913377,-0.13095444,-0.03289029,0.20676899,-0.13104258,-0.16410078,-0.10318361,-0.0847932,-0.016568791,0.17171545,-0.0172906,-0.08182844,0.27320394,-0.1504351,0.14462918,0.13811342,-0.011348858,-0.046658274,-0.07372166,-0.14288421,-0.08470043,-0.10403737,0.009678368,-0.09406287,-0.013338849,-0.17458823,-0.045277946,-0.10017949,0.04548305,-0.060983296,0.08456597,0.06979925,0.18816106,-0.015119776,-0.02867198,-0.14394148,0.011260655,-0.05740679,-0.030177068,0.020447647,0.046585225,0.010866604,-0.13055055,0.20209809,0.059205133,0.04424434,-0.037483703,0.0121432245,-0.14556561,-0.24505721,-0.00043781247,-0.10595183,0.00013328434,-0.0011961063,0.22656775,-0.010276683,0.15091726,-0.13677053,0.08126327,0.24079207,-0.13816476,0.021119507,0.0851658,-0.055218,0.11483178,0.037316862,-0.0030116846,0.17743151,-0.019778483,-0.052609503,0.046423227,-0.19209184,0.17073572,0.20110425,0.0013016406,-0.0029121942,-0.15432039,-0.11001544,0.088842124,0.22589059,-0.07660434,-0.1794949,-0.026375689,0.15119909,-0.257308,0.16856442,0.05889781,0.063015245,0.10159896,0.019498253,-0.17852888,0.03462669,0.08925195,0.36957377,0.05143672,0.115651496,-0.24582213,-0.33915758,-0.30588073,-0.0005826157,0.012289948,-0.031993084,-0.1620992,0.08677794,0.023211222,0.027983608,0.03994249,0.12131089,0.14287856,-0.06412393,-0.17665003,-0.068296306,0.0816596,0.19943129,-0.082138166,0.2023736,0.14145268,0.13881776,-0.11216824,0.17600328,0.019189704,-0.05578971,0.118206285,-0.03227306,0.20092748,-0.016311668,-0.03120596,0.065024726,-0.09075469,-0.0017088202,-0.11675904,-0.1736111,-0.11648725,0.39306802,0.22236189,0.089673884,-0.020768395,-0.022929175,-0.25042793,0.16209276,0.032224406,-0.10282682,-0.14161836,0.15927647}, {0.1386516,0.0730885,0.05475849,0.011555937,-0.05602028,-0.10046731,-0.07275253,0.008241103,0.09761757,0.08402403,-0.024189793,0.19210953,0.0026364182,0.17404577,0.04305636,0.042617995,-0.039225228,0.18497384,0.2175219,0.033936974,0.24023825,0.15056096,0.15753135,-0.039594118,0.19643465,-0.079139024,0.064681165,-0.018123873,0.061202344,-0.0364821,0.109178156,-0.14307635,-0.098554425,0.12564667,-0.0017427936,0.03163893,0.07402822,-0.14313303,-0.03380996,0.04725099,-0.03577039,0.114785105,0.112022765,0.21031348,-0.13105765,-0.07224247,0.08637151,-0.03826204,-0.044602983,0.32285422,-0.051186483,0.075090505,0.09718611,0.046947464,0.21483709,-0.06684148,0.20101714,-0.100781925,0.044565227,0.044447817,0.15555209,0.21693596,0.080247454,0.10814311,0.09013125,0.021062506,0.0016399913,0.19172196,-0.06753861,0.002414908,-0.14641511,0.07370106,0.07642974,0.17396097,-0.07151761,-0.014234921,-0.1523102,0.09672309,-0.034354564,0.04913189,0.07798522,-0.0059304717,0.037320767,0.069263734,-0.010541168,-0.018552963,0.20272131,0.13086817,0.15156461,-0.0058623017,0.17243728,-0.048178166,-0.0064176167,0.08582267,-0.02249514,-0.105712205,0.055247974,0.08280737,0.13042703,0.13522087,0.115157895,0.11813167,0.058860302,0.024963174,0.1039327,-0.06636874,0.07658982,-0.12592138,-0.11088357,0.0841198,0.12627992,0.15694503,0.07436567,0.19345056,0.2436738,0.09886599,-0.04307988,-0.0077306926,-0.28744492,0.15927935,-0.26232332,0.006165903,-0.10538678,0.024936488,-0.12120262,0.13810374,0.11234695,0.070895344,-0.05589315,0.3021993,0.1297219,-0.091275126,-0.06286225,-0.16563572,0.027264591,-0.053645145,-0.013060277,0.12331637,0.07316704,0.116147675,-0.09790447,0.045935337,-0.033652708,-0.07952888,0.08648815,0.20871058,0.1372759,-0.063105024,0.045652915,0.12249899,0.09957883,0.22176604,0.07987849,0.06316423,-0.055982582,0.05626828,-0.06611689,-0.27768657,0.15295386,-0.064633906,-0.20098451,0.11955626,0.13440418,0.09294192,0.01789405,0.0037351474,0.043339733,-0.05541205,-0.056324348,0.05950899,0.056488235,0.110812634,0.08183751,0.090456344,0.06285723,0.0130941495,0.18198685,0.1875047,-0.0053830026,0.06757554,0.0196634,0.060801797,0.09201964,0.018833932,0.2174541,0.12533893,-0.29602194,0.146808,-0.27233875,0.057282653,-0.048423953,-0.11218149,-0.07338757,0.23908684,-0.1529451,-0.0025794487,0.26099393,0.33039823,0.07726956,-0.070423625,-0.09025493,0.038342573,-0.023436628,-0.04517386,0.016517444,0.06362461,0.101056665,-0.043949444,0.13576962,0.047849014,-0.092790276,-0.026901186,0.05049079,-0.0070757857,0.06110553,-0.015433908,0.011589893,0.12241163,0.1571589,0.1784091,0.04242405,-0.025780078,0.037304565,-0.09314709,0.1333362,0.10337107,0.14352341,-0.17860405,0.029499369,-0.020089906,0.3008741,0.1763552,0.080628954,0.07448928,0.1766164,-0.020028858,0.13739069,0.026361907,0.090537414,-0.085781924,0.116959065,0.022210618,-0.17784634,-0.044926573,-0.08779081,0.036159102,0.07761115,0.012821399,0.11406463,0.0009635191,-0.090048015,0.05457031,-0.022526719,-0.08441734,0.008715494,0.22538012}, {0.08826837,0.022456586,0.032323968,-0.033894654,0.042859066,0.017537927,0.19285448,-0.11141551,-0.3343452,-0.25246388,0.098614566,-0.17806385,0.09668876,-0.008375663,0.06711333,-0.035180572,0.18175516,-0.10433147,-0.09058967,-0.11693423,-0.07593764,-0.12265739,-0.06334618,-0.08080681,-0.2811435,0.039521217,-0.05366593,-0.1278086,-0.19163619,-0.0161971,0.15786688,-0.02317476,0.17885457,-0.07346132,-0.0913964,-0.17073032,-0.22904332,0.13623592,0.19043405,-0.02582427,0.048121948,0.068643115,-0.04590382,-0.23878123,0.048221193,-0.002644712,-0.047199734,-0.18056068,0.2160152,-0.0009753398,-0.079964295,-0.011586241,0.12382084,-0.27511963,-0.0379475,-0.14237745,-0.079428405,-0.07962861,0.023266342,0.093535505,-0.33143097,-0.23002535,-0.06383653,0.2784471,0.093338564,-0.06500277,0.08206907,-0.07196618,0.014120672,0.08909667,0.04814259,-0.109670125,0.0091027245,0.083915934,0.006335841,0.08169532,-0.101652026,-0.02996488,-0.1254668,-0.117339,-0.14434564,0.05483315,0.13669892,-0.10295755,-0.06602279,0.00942824,-0.058258217,0.07721159,0.14977905,0.12196388,-0.039602846,0.0076095886,-0.10894652,-0.059459805,0.25164956,-0.14056021,0.015524344,0.15513405,-0.18081057,0.1145955,5.7700756e-05,-0.1432387,-0.1834546,-0.038397513,0.12823494,-0.17671023,-0.02361975,0.10387085,0.0595789,0.018089648,0.013451211,0.04205279,-0.15914612,0.05227217,-0.10095316,0.0028356293,0.30293372,-0.2011241,-0.031443045,-0.10975767,0.10409378,0.19647194,0.07725834,-0.03373114,-0.08314763,-0.09293167,0.008830448,-0.11610635,-0.025564848,0.10059257,-0.13832143,-0.004941734,0.13226257,0.26855063,-0.00405204,-0.069053635,-0.041743718,0.12600698,-0.06636091,-0.03185995,0.0021297866,-0.023831941,0.121709734,-0.11511184,-0.22824718,-0.003656928,-0.09009481,-0.21377154,0.025078462,-0.063389435,-0.05845321,0.0082028415,0.001510105,0.08371288,-0.01587354,0.08432741,-0.02825588,0.13108593,-0.016473772,0.09559505,-0.019577745,-0.017086128,-0.23259613,-0.09928883,-0.077906474,-0.0148077095,0.12195578,0.021426907,0.023411792,0.042861752,-0.07552302,0.14581485,-0.058012124,-0.11162863,-0.19818522,-0.058976423,0.051129803,0.043786146,-0.050812352,0.0043788077,0.059294228,0.08032527,-0.13078175,0.17344698,-0.12979443,-0.15814191,0.102012716,0.021488396,0.057713438,0.11968637,0.08714318,0.0908922,0.06485196,0.015629772,0.089790896,0.0039394856,0.0050189714,-0.082136236,-0.16971867,0.00917019,-0.14317258,-0.03198675,0.06624789,-0.03069332,0.0014378126,-0.1485734,-0.15815707,0.08489079,-0.058865387,-0.04996776,-0.030678062,-0.22386514,0.04767477,-0.12151438,-0.058292948,-0.0027629745,-0.0025535435,-0.08870957,-0.100314416,-0.06878916,-0.03829917,-0.19028307,0.07156202,0.0025956288,-0.07697433,-0.08648629,0.08789061,-0.12637621,-0.14640424,0.0564214,-0.028561654,-0.28778884,-0.043725125,-0.013802748,0.14628024,-0.0023333163,-0.12004535,0.17774485,0.012083758,-0.1664677,-0.15055501,-0.11743742,0.07253078,0.03810851,0.19437121,-0.032331046,0.036224365,-0.05643165,-0.14298618,-0.04005708,-0.0878844,-0.02818452,0.074997686,0.042044036,0.10332177,-0.14683285}, {-0.07869816,-0.17968741,-0.055336267,0.08456696,0.162509,0.048811186,-0.292214,-0.102466986,0.044826116,-0.06474991,0.093436524,0.082125284,0.11927492,0.030920291,-0.00041394285,-0.04203642,0.032917634,0.044037394,-0.026540266,0.12495896,-0.012196103,-0.19316821,0.110501595,0.15745454,-0.10390873,0.017001288,-0.06289062,-0.051669672,-0.20276162,0.19209674,-0.030553294,0.30216634,0.0037949248,-0.10660591,0.025488418,0.25549158,0.20936342,-0.085333124,0.2694957,0.03489987,0.3229382,-0.058661126,0.039066,-0.009826254,0.1627666,0.09827225,0.17172264,0.0028011259,0.14140826,-0.21413122,-0.018623494,0.07353259,-0.04443333,-0.10271703,0.21752915,-0.0060352124,-0.09693556,0.18081935,0.1093204,-0.097521394,-0.17755927,-0.19309454,0.006943328,-0.06899921,0.13157268,-0.19983758,-0.16219021,0.07455835,-0.07797622,0.109090745,0.106217645,-0.14973843,-0.09564756,0.04431806,0.22526222,-0.091158845,0.059228115,0.22942768,0.018365683,-0.17075649,-0.22779873,0.017823143,0.2259671,-0.07385314,-0.05100611,-0.08898009,-0.011440468,-0.064476006,0.050452575,-0.07762129,-0.08456153,0.21334448,-0.16308036,-0.26037765,0.08978919,0.007223417,-0.08498719,-0.13033102,-0.21420598,-0.037972584,0.058813255,-0.04831034,0.08236767,0.10806441,-0.16306345,-0.016643802,-0.27336803,0.12408271,0.26593396,-0.027951011,0.20662472,-0.043307245,-0.027766526,0.112158984,-0.21478793,0.054822218,0.0128009105,0.15380915,0.1631558,-0.06985204,0.13634023,-0.13790746,-0.14598785,-0.15199476,0.072525375,0.06363153,-0.10582523,0.05040244,0.0075352616,-0.06212734,-0.021747459,-0.05401508,0.011486005,0.16762958,0.07700238,0.16933599,0.046013456,-0.061820854,-0.13994929,0.18540154,0.13764933,0.008834921,0.11056918,0.030595034,-0.046265803,-0.01890832,0.094494686,0.1664891,-0.03739586,-0.03654163,-0.03632109,0.09158764,0.09166816,0.04240366,-0.023484867,0.12977701,0.17667943,0.13341124,-0.109378606,-0.021417687,0.11829569,0.05341705,0.03676749,-0.043712538,0.24282098,0.00018020163,-0.1477236,-0.02381197,0.12723413,0.07136115,0.059073787,0.07937489,0.14579496,0.011596461,-0.0014346935,-0.08017008,0.018545376,-0.16986184,-0.071871914,-0.034036692,-0.09544115,0.12965693,0.29416618,0.020534854,-0.03768244,-0.0067034606,0.07385522,0.10824378,0.029813977,-0.03618332,0.09755688,-0.07506274,0.055067148,-0.037693758,0.12113633,-0.050912242,-0.01971566,0.037826017,0.05725943,0.06451256,-0.13098978,0.011400511,0.2212146,-0.07282001,-0.1334961,-0.23043,-0.09692882,0.037555777,0.18452299,0.07611908,0.07942829,-0.062064394,-0.04344052,-0.026012328,-0.08260247,0.06978819,0.17005537,0.23106574,-0.021842621,-0.10269022,0.024586765,0.13671446,0.084412366,0.03181126,-0.21719578,0.09819341,-0.12259999,0.19324137,-0.079390734,0.12910546,-0.08016081,-0.36228544,-0.08167626,0.106589384,-0.28144643,0.0025862895,-0.027702695,0.00053180574,-0.10322199,0.1426818,0.006714765,0.092088334,0.23464975,0.20018558,0.0040504998,-0.20486401,-0.06697086,0.12557384,0.0033532963,-0.072499886,0.0888972,0.07011478,0.12662217,0.04620399,-0.04160296,-0.14107072}, {-0.086888775,0.011989056,-0.011850158,-0.20713392,-0.051332556,0.07894652,-0.08303068,0.12799673,-0.0068594893,-0.08837963,-0.068206534,-0.09499918,-0.083023205,-0.22742869,0.06965387,0.101282425,-0.07343646,0.0015864738,0.08192408,-0.031461004,-0.084056124,-0.017641162,0.109058596,-0.011377038,0.111628205,-0.05352011,0.006093245,-0.005234288,-0.17112644,-0.09645044,-0.16873895,-0.1497635,-0.029671088,-0.1369048,0.025776006,0.040132985,0.0938589,-0.036933444,0.048040126,0.013565311,-0.13107298,0.011620646,-0.10242957,-0.0784151,-0.010238624,0.04008081,-0.11723432,0.15690205,-0.1117153,-0.05193304,-0.021568524,0.024597872,-0.06710664,-0.15883495,0.019692574,-0.13787512,0.13023056,-0.06936352,0.07761295,-0.022738684,-0.11506064,-0.1333871,0.049755074,0.19649851,-0.12664117,0.030975059,-0.0817273,-0.06462582,-0.08429919,-0.16052602,-0.10286634,-0.12081403,0.008094664,-0.06250569,0.06466671,-0.04158897,0.07526482,-0.0054934295,-0.13876005,-0.19331466,-0.06691101,-0.06855994,-0.12809241,0.060088634,-0.0014887843,-0.063441455,-0.05512924,-0.10186694,0.24566497,0.06807964,-0.07501226,0.1562082,-0.19135143,0.084069505,-0.027118137,-0.1685549,-0.15432869,-0.086450405,-0.008612742,0.053444095,0.11142169,-0.14498019,-0.10834096,-0.13445435,-0.15460235,-0.09076823,-0.030927356,0.16747333,-0.12146257,0.037038222,-0.12755896,-0.05813647,0.16742645,0.087597676,0.07786776,-0.0077571906,0.118650824,-0.06780121,-0.111648664,-0.099180855,-0.062053077,-0.04541367,-0.101085514,-0.081597924,0.07172092,-0.0829338,0.052272808,0.030635046,0.015090226,-0.16128257,-0.09731612,0.10225834,0.08846322,-0.10062419,0.0826334,0.02032543,0.06035773,-0.072720416,-0.10833235,-0.07498922,-0.09374596,-0.0525344,-0.06134314,-0.21698952,-0.07612787,-0.08382453,-0.043057974,0.08176554,0.06654865,-0.18185237,-0.00761883,0.03890688,-0.01923052,-0.051223774,0.022282405,-0.0764782,-0.07385158,-0.07997366,0.047235765,-0.28439775,-0.025503252,0.003132857,0.12628913,-0.08740099,-0.053241935,0.1195005,-0.035355575,-0.080867514,-0.009935415,0.1436772,-0.047958884,-0.10648417,-0.09882417,0.06788719,-0.1848811,-0.04272094,0.09488179,-0.06592095,-0.05695431,-0.1468591,0.21582307,0.19114098,0.084210135,0.047005888,0.006687637,-0.08542861,0.054813627,-0.14175546,0.15548961,0.05856866,-0.038038917,-0.36812606,0.16793548,0.03373835,0.04539221,-0.07629961,-0.052227832,-0.1372859,-0.07881453,-0.03567175,-0.054873034,-0.22558294,-0.21586241,0.0053604594,0.011576534,-0.09202208,0.049596462,0.057395652,0.07407787,0.0069844015,0.06446644,-0.07026052,-0.26996967,-0.12547065,-0.022904145,-0.0902724,0.05809156,0.09151942,-0.045018274,0.052286148,-0.18530977,0.10524341,-0.10500138,-0.14410044,0.028773256,-0.20337267,-0.054064002,-0.2243503,0.12744853,-0.0031635228,-0.07698925,-0.0150821265,-0.019362688,-0.020626694,-0.11540694,-0.1537449,-0.10766222,0.18494216,0.021645533,-0.13642281,0.11777631,-0.12579834,-0.055762514,-0.111718625,0.023131128,0.007401908,-0.034310147,-0.11459457,0.10896986,-0.23611836,0.037669994,-0.124496415,0.036536176,-0.07301221,-0.00610395,-0.0097232815}, {-0.07166793,0.05506497,0.042724345,-0.15902963,-0.09402556,-0.013411177,-0.07212533,0.100360684,-0.07514989,-0.121952474,-0.013300753,0.04567145,-0.004982844,-0.1842213,0.025698917,-0.039469447,-0.02972431,0.15370576,0.26156792,-0.02824737,0.11115679,0.01603264,-0.09131265,-0.08352764,-0.05915977,0.123059206,-0.099795975,-0.05824512,-0.032521814,0.012569334,0.11287192,0.15940766,-0.06927325,0.002249286,0.026234645,0.01766461,-0.11704094,-0.04319703,0.07296155,-0.089855246,0.0468697,0.09123621,0.0068565174,-0.00825798,-0.021346519,-0.16318414,0.031679634,-0.07181329,0.04450238,-0.044866703,0.26676464,-0.07543479,0.0009793113,-0.13763298,0.05324814,0.115132526,-0.22075449,-0.017847344,0.10076131,0.014124292,-0.0033477454,-0.15787311,-0.0019962708,-0.12968864,-0.022004452,-0.16101123,-0.13749284,0.0137246875,-0.049025703,-0.22407553,-0.055622242,-0.03511567,0.08371657,-0.14180472,-0.17710333,0.046414204,-0.15434586,0.14429584,-0.02850087,-0.002424743,-0.08711211,-0.07330348,-0.09498278,-0.10981055,-0.096759744,0.056816205,0.067722864,-0.07669471,-0.0344651,-0.08074389,-0.03851567,-0.08011735,-0.1865901,0.06935738,-0.122870326,-0.12199829,-0.14030445,0.04339773,-0.067161396,0.034987833,-0.06173692,0.0812353,0.024179913,-0.17112146,-0.1397498,0.11852876,0.15952022,0.12153765,-0.080978364,0.065374084,0.23767303,0.017935185,-0.011381108,0.120509766,-0.021626238,-0.11141609,-0.07923077,0.11215206,-0.28928292,-0.02823236,-0.08245556,-0.16377145,-0.073644795,0.091845356,-0.017649753,-0.1619341,-0.06651724,-0.092347495,-0.119081035,0.06599926,-0.041281052,-0.15495616,-0.1811684,-0.26160014,-0.201114,-0.19065453,-0.09179763,-0.14675315,0.14966848,-0.11520829,-0.17619956,-0.12553489,0.11009931,-0.15359008,0.09846279,-0.20903935,0.0074201617,-0.08432997,0.033717286,-0.04950531,-0.05322884,0.01596488,-0.17332007,0.08374618,-0.3566001,-0.15105884,-0.051948775,0.046355773,0.046790287,-0.2842104,-0.09347924,-0.07217053,-0.2744959,-0.04569146,0.024425806,-0.097666636,0.105704725,-0.004060029,0.051637754,-0.036510073,0.017072504,-0.0135684125,-0.14012294,-0.13634461,0.032431047,0.05229271,0.1523831,-0.22778629,0.17847721,0.02830571,-0.19327408,-0.24329005,-0.027290067,-0.042193066,-0.11232944,-0.023363732,0.14293773,-0.092488185,-0.11760711,0.078360215,-0.015090077,-0.059028223,0.02567684,-0.07640113,0.0810395,-0.058659635,-0.101757556,0.045673057,-0.039781645,-0.045029134,-0.12841527,-0.11058741,-0.04433891,0.05165449,0.03450053,-0.15366392,0.092428416,0.16713431,0.049311325,-0.1715274,0.013462311,0.22250243,-0.21126401,-0.12334764,0.10695881,0.09777302,-0.06432943,0.0150115965,0.1600584,-0.111497216,-0.17039979,-0.025535874,0.059968516,-0.059786733,-0.025111038,0.016180465,-0.23189627,-0.1120003,0.08922019,0.008696185,-0.081635855,-0.14657569,-0.09844432,-0.17563304,-0.07728237,-0.15150465,-0.04186224,0.03690283,-0.028706808,0.014668969,-0.040644784,-0.15565856,-0.25066358,-0.13097426,0.13371842,0.150676,0.04106839,-0.22646822,-0.021310166,-0.035354838,0.23902246,-0.023264628,0.13431554,0.060542114,-0.02661334,0.14186506}, {-0.17567943,-0.07773996,0.14987847,0.14218533,0.06668586,0.030081293,0.11523373,0.013869664,-0.052898075,-0.05822478,-0.14946909,0.012762804,-0.06575035,-0.043197654,0.04442533,0.074438415,0.2469583,0.010222927,-0.036848918,0.18489978,-0.004544492,0.1308321,0.12145273,0.10339269,-0.0007491143,0.052740004,0.09325744,0.09162401,0.07701689,-0.16775654,-0.04816632,0.008179505,0.26149493,0.082640566,-0.04744048,-0.0143233435,-0.3532008,-0.0100131575,0.0094678365,-0.036385298,0.10803091,-0.04846557,0.2092703,-0.14285159,-0.12302015,-0.14514454,0.023853,0.19409886,-0.086550206,-0.20080015,-0.030953579,-0.15126851,-0.17139539,-0.0046634837,-0.059681498,-0.09914875,0.05330871,0.07257601,-0.141363,-0.028750792,0.02786075,0.07337513,-0.14657184,-0.051810823,0.029730525,0.027245743,0.11203247,-0.09972676,0.08142264,-0.04412708,0.16055341,-0.006271989,-0.087650165,0.10433081,0.12101443,0.04314043,0.07750694,-0.10233009,0.07348238,0.015586064,0.043434612,0.04589367,-0.13540907,-0.015117115,0.1013542,-0.11041894,0.044797253,-0.15186666,0.07466193,0.10222067,0.05680016,0.100009985,0.00040788867,0.09442806,0.07869505,0.014566023,0.16150914,-0.17192663,-0.06454675,-0.029327717,-0.050904352,-0.14320244,-0.05272006,0.02067483,0.0007897691,-0.13346589,-0.11489401,0.15862927,0.06653005,-0.25772908,-0.123893686,-0.09694169,7.1672206e-05,0.025452342,-0.06934731,0.014651256,-0.13294382,-0.22656521,0.012631888,-0.020685177,0.15687871,0.21224996,-0.055843204,-0.28171793,-0.1657211,0.012457682,0.031273052,0.15806964,-0.14787713,-0.0387016,-0.018957032,-0.008107545,0.11688385,0.066894226,-0.03726582,0.17289013,-0.017786205,0.12067986,-0.20229279,-0.014132799,0.14680076,0.13274473,0.113208875,-0.18617587,-0.08529058,-0.02960966,-0.311727,-0.10366613,-0.031449378,-0.029976174,-0.06491596,-0.034409873,0.056695316,-0.13553481,0.20315067,0.047537766,0.008857152,-0.17089963,0.16477755,0.051819406,-0.15400834,-0.048567202,0.20650186,-0.082955346,-0.14739431,-0.091926426,-0.0881707,0.13185877,-0.07260945,-0.09779666,-0.096671164,0.07049592,-0.03910689,-0.10527996,-0.022915358,-0.12143265,-0.03097591,0.06519013,-0.25882393,-0.17161015,0.16017376,0.18833621,0.1057392,-0.12275361,-0.049783114,-0.15725073,-0.1384631,-0.1556651,-0.1583227,-0.15536827,0.13160913,0.10384044,-0.0058053825,0.019516967,0.15091775,0.10925651,0.037755135,0.1304338,0.06774818,0.021517424,-0.086815596,0.1715956,-0.117001995,-0.20295729,0.15214212,0.058433115,-0.02315362,0.035572976,0.0029212045,-0.17286547,0.016612072,0.12887652,0.18197338,-0.19118188,-0.35551128,-0.14140113,-0.12020603,0.112848625,-0.067603484,-0.08208184,-0.07785665,-0.057054706,-0.15206057,0.15507089,0.036820773,0.09858631,0.20415889,0.06400646,-0.11034851,-0.016659368,0.06845204,