#pragma once
#define W_LSTM_KERNEL_F {{-0.045714926,0.06586373,0.083995804,0.0042565726,0.07533018,0.09404154,0.016979247,0.037425116,-0.008634319,-0.032567892,0.11953758,0.02755171,-0.011580607,-0.01170332,-0.018661862,0.019666338,0.102879494,0.08202968,0.042638436,-0.02634915,0.022534264,0.042521648,-0.008573185,-0.049575586,-0.1026682,0.059615176,0.020929448,-0.050385334,-0.04944311,-0.076129235,-0.05448097,-0.08339693,-0.0028621736,-0.085686505,-0.045102883,0.056319106,-0.026314845,-0.11795377,-0.00036218856,-0.08185869,-0.07382108,0.029761303,0.07818742,0.05273554,0.1028871,-0.03841058,0.16237941,0.0032491998,0.07416192,0.029628107,-0.010033713,-0.011719171,0.1110405,0.0970109,-0.016880801,0.022122495,-0.051294718,0.11843921,-0.06713046,0.047177646,0.027469967,0.01779611,0.07920347,0.033931255,-0.15397502,-0.004391326,-0.030563429,0.013518687,0.08365512,-0.06384107,0.008798539,-0.031553466,0.017045474,0.08012199,-0.09759673,0.1852712,0.06636009,-0.017993564,-0.07638486,0.13380744,-0.009174625,-0.033166494,0.039434202,-0.005559586,0.05275484,-0.050277773,0.024526117,0.13746163,0.032607913,-0.10504799,0.07265149,0.10908839,0.11024236,0.014687977,0.05010606,-0.104935765,-0.05703256,0.07614088,0.040348515,-0.07111248,0.046145998,-0.020461686,0.11854939,0.019978607,0.032051664,-0.054988172,0.1019975,-0.11171768,-0.15484926,-0.016132932,0.122300684,-0.06186745,-0.049662877,0.09006185,0.016842036,0.0611571,-0.021126514,0.021645654,0.0094638625,-0.055897154,0.14597009,-0.12688863,0.02421835,0.10328509,0.09584445,-0.0654435,-0.075235575,-0.026894983,0.0015834399,0.057521172,-0.048437677,0.082689546,-0.08567844,0.08738539,0.01729541,0.06455847,-0.050188556,-0.05621766,0.024296265,0.094645396,0.117331155,-0.17708299,0.062887296,0.02519262,0.11107974,0.071072504,-0.051149983,0.034372218,-0.03675579,0.12736417,-0.011200503,-0.05949315,0.00079488725,0.20963147,-0.029623307,0.044681463,0.17855833,-0.037555248,0.03117041,-0.08550685,-0.044106424,-0.011587078,0.111975126,-0.025482262,-0.05645046,0.0054960106,0.035980973,-0.018965898,-0.058256075,-0.15150753,-0.05951498,0.015970208,0.09216013,-0.09933644,0.04860972,0.03397146,0.045256082,-0.05729744,-0.03208971,0.10973434,0.017514657,0.09628705,-0.08285656,-0.14996652,-0.01327832,-0.08072635,0.096463025,-0.013099301,-0.06930693,0.08999661,-0.0071939956,-0.029773483,0.017327746,0.037292708,0.15869391,0.057888977,0.14613199,-0.054353423,0.082913496,-0.0058672125,0.100483984,-0.05883612,0.0967746,0.046018053,0.045011688,0.030983683,0.02016653,-0.08107236,-0.04275646,-0.06463609,0.061412416,0.11219571,0.11222924,0.07266069,0.003261227,0.114351824,0.024873447,-0.15348195,0.13090718,-0.03793909,0.1458054,-0.0032801074,-0.075447366,0.026357267,0.005711791,0.028147008,0.10647805,-0.010196935,-0.017416924,-0.044104204,0.07346657,-0.04567087,0.14997162,-0.06493635,0.036825288,0.14052069,-0.088453315,0.049356848,-0.11036917,0.06422945,-0.046278905,-0.09099764,0.10913296,0.06464135,0.115951136,-0.07922599,0.15764795,-0.00459077,0.050026063,0.063935354,-0.010321931,0.057223216,0.01180788,0.13474655,0.02458036,0.05907722}, {0.06702122,0.12927805,0.15542004,0.042407572,0.0808575,-0.012886253,0.13172695,0.009528403,-0.0233093,-0.060268648,0.106319584,-0.061809022,0.010450317,0.03333698,-1.1347787e-05,-0.039183892,0.10977734,0.03784788,0.042225294,-0.013614611,-0.05480884,0.028940868,-0.091289975,-0.08791472,-0.06645862,-0.04418245,0.1085152,0.03756656,-0.030435607,0.011687752,-0.010405687,-0.10822246,-0.024296403,-0.08858102,0.06921797,0.09846915,-0.07948198,-0.09613256,0.058069073,0.00096521236,-0.11750016,0.09131252,0.024177227,0.063732155,0.03675778,-0.008628506,0.08308428,0.10348355,0.029379398,-0.01966658,-0.047858194,-0.021763863,0.06673729,-0.034568183,0.034077276,0.05858089,-0.057734642,0.13657133,-0.17825584,0.08309915,-0.0031651224,-0.07240915,0.04883993,-0.10319103,-0.13306153,0.011806337,-0.06293154,0.09517373,0.09973924,-0.15398325,0.083552755,0.06328387,-0.054312665,0.110739596,-0.055451646,0.12443507,-0.0050856676,-0.12464591,-0.11358121,0.119820185,0.093664475,0.04647824,-0.035959877,0.010764872,-0.04855319,-0.053325027,-0.009390788,0.1609563,0.10377918,-0.14205486,-0.05701184,0.11223033,0.010559799,0.0034891008,0.02750009,-0.101176836,0.0710667,0.0018270516,-0.09251648,0.01938595,0.17854625,0.040701255,0.056038853,0.022193424,0.04455847,-0.043489225,-0.0007428919,-0.014849002,-0.13770598,0.10499322,0.11309884,0.018420191,-0.010562206,-0.020073418,0.016431294,0.07301902,-0.06281495,0.006677064,-0.07561939,-0.022961836,0.060093064,-0.09854596,0.047635145,0.057458814,0.12322002,-0.066859946,-0.03658944,0.0151005555,0.0033921301,0.075002424,-0.033225983,0.11297883,-0.017691711,0.10939676,-0.02492811,0.028168723,-0.09150001,0.022246135,0.037845638,0.07503032,0.0618498,-0.14840347,-0.0075752186,0.0068333354,0.024574364,0.07970025,-0.061146647,0.05225027,0.009777897,0.14913258,0.0006741707,-0.008348672,0.024254644,0.19898736,0.009769665,-0.03108631,0.107673675,-0.083861336,-0.044790674,-0.038740333,-0.06307483,0.10925422,0.08774834,-0.010254733,-0.0055251494,-0.10013351,0.100633055,-0.013473335,-0.098546036,-0.07761414,0.071075,0.029084621,0.0455286,-0.038501862,-0.004482482,0.070857,0.109494045,-0.028652577,0.00076251023,0.0041277255,0.11258188,0.029192062,-0.16587552,-0.059607334,0.0048110625,-0.051516283,0.09111225,-0.011790578,0.06902128,0.039839633,-0.0017332807,-0.102878585,-0.017890288,0.054893464,0.11989983,0.0546915,0.08878718,-0.02656385,0.029506654,0.054166023,0.0008215287,0.08021274,0.028454723,0.0027693007,0.14236633,0.039898533,-0.005685201,-0.07767831,-0.09488293,-0.071851045,0.025503002,0.04513563,0.17810826,0.12496648,0.0288954,-0.021431984,0.09050266,-0.08853126,0.035959836,0.04244907,0.26091856,0.0044986266,-0.1130707,-0.07236745,0.031514127,0.09119359,0.03329403,0.029114401,-0.00268992,0.06672435,0.077415004,-0.049266905,0.13582607,0.014641376,0.045885008,0.12836961,-0.061403885,0.02588123,-0.040584933,0.0626028,0.000997912,-0.10386397,0.11188675,0.13885565,0.08310856,-0.09331078,0.04696167,-0.027556168,0.12878299,0.05368736,-0.0008266145,-0.009788841,-0.008957547,0.12036459,0.05340432,0.067701936}, {0.03598517,0.13339397,0.16467233,0.06533567,0.07939133,-0.018665291,0.12349715,0.023705617,-0.040375154,0.03212082,-0.015147321,-0.0022718592,-0.036385182,0.05369238,0.0016488049,-0.09582056,0.06767739,0.0784517,0.11115054,-0.052447766,-0.06844075,0.12578441,-0.021162467,-0.05980884,-0.15759282,-0.020609498,-0.013905371,0.030078495,-0.08490665,-0.052824438,-0.070393376,-0.016934816,0.006812659,-0.024838747,0.105612606,0.103340715,0.008008647,-0.022953523,0.071352676,-0.019222457,-0.09802917,0.0324485,0.08310803,-0.007705803,0.03745855,0.070532545,0.20364907,0.14610027,0.033154868,-0.007628285,-0.07251517,0.036245715,0.10151457,-0.031156706,-0.0056368243,-0.003497935,0.0053981203,0.122760594,-0.08983847,0.10721281,-0.07063199,0.008383122,0.08579892,0.010607665,-0.07659042,-0.049281284,-0.13338861,0.117573224,0.080054514,-0.039876524,0.036765087,0.0770849,-0.051430624,-0.006348339,-0.05854738,0.11205324,0.07792973,-0.034105033,-0.027584309,0.047752514,0.048831962,0.019159539,-0.026710514,0.022833075,0.028470626,0.09211737,0.016638128,0.15582441,0.07318835,-0.051101394,-0.022209711,0.029974608,0.104078695,0.086021595,0.08660888,-0.0683195,0.0061744056,0.029455435,0.026663728,-0.013717551,0.0881362,0.04589383,0.087957054,0.051080674,0.03826962,0.008782656,0.09248206,-0.05996391,-0.03271123,0.03530617,0.0132267615,0.0026150239,0.052428413,0.07559269,0.06608092,0.070068136,-0.02605606,-0.05645884,-0.024377048,0.014848973,0.013226465,-0.09314012,0.04539317,0.097130485,0.042694792,-0.0013710804,0.048684396,0.02651522,-0.013994412,-0.01279305,-0.02384253,0.05649399,-0.08812248,0.08291642,0.019548964,-0.009023629,0.02745534,-0.026324555,0.043097284,-0.005133491,0.103715464,-0.10101433,0.033498257,0.11309846,0.0836559,0.023229301,-0.022926439,-0.054067463,0.006787103,0.093950115,-0.08017134,0.021130195,0.013886516,0.18182783,-0.09083119,-0.08423901,0.19662948,0.031153308,0.067294665,-0.0004035948,-0.05602392,0.08726245,0.06930959,0.05322238,0.015535887,-0.11852864,0.020920478,0.052492928,-0.03914798,-0.15205279,0.0620146,-0.030665563,-0.027823897,0.022043979,0.06617284,-0.008150409,0.114734605,-0.058785222,0.040883567,0.037039585,-0.014769947,0.07298737,-0.09626958,-0.14650054,0.08822578,-0.092533104,-0.030355334,-0.038567297,-0.05656652,0.13474083,0.04619776,-0.052908424,0.06582027,0.08776627,0.06971703,0.027064981,0.064854056,-0.01902183,0.033765294,0.06110455,-0.0032554378,0.02185502,0.12477817,0.02573998,0.0125251,0.12655285,-0.035402264,-0.013290105,-0.14697091,0.019957975,0.058020957,0.050889894,0.08614065,0.06383099,0.029440766,-0.0022753717,0.0045786463,-0.12987784,0.048458256,0.05970927,0.13617297,0.04056557,-0.0014547976,-0.016175589,0.1097127,0.038984682,-0.015299847,0.05038532,-0.031555627,-0.023510654,0.01605517,-0.06787379,0.087653026,-0.053782552,-0.009587167,-0.0028082535,-0.09659921,-0.011605406,-0.055656698,0.0070622233,0.016952163,-0.041568976,0.10027217,0.06271639,0.11604605,0.033215046,0.015094398,-0.04922603,0.11397802,-0.006387172,-0.042402636,-0.010464224,0.07100115,0.06282567,0.091131434,-0.0022887161}, {0.029890008,0.09468731,0.168954,0.04271883,0.17609932,-0.02896461,0.025929661,-0.016977672,-0.07727599,-0.05162657,0.0120745255,0.06526694,-0.07126847,0.066889,-0.06750578,0.014385832,0.13551633,0.00958693,0.055427603,0.0619426,-0.010896109,0.12356946,0.057973843,-0.018460697,-0.14073516,-0.049983975,0.07654833,0.027195724,-0.036038864,-0.026977245,-0.052255157,0.0029709195,-0.108069606,-0.0028900574,-0.004144672,0.05434805,-0.056017943,-0.11802337,0.019426748,-0.03191636,-0.1169211,0.1157957,0.06388778,-0.012097811,0.062122613,0.019282822,0.16224289,0.117380984,0.05666714,0.11720054,-0.097675085,0.005698634,0.14617428,-0.043765962,0.016499331,0.05165883,-0.0842304,0.14935482,-0.049894053,0.072189204,0.047104593,-0.03608161,0.054515176,-0.0016270204,-0.14452776,-0.08032392,0.0035800654,0.003887949,0.0031728041,-0.15633027,0.03349901,-0.015354698,-0.036148455,0.109180525,0.022895036,0.20678316,-0.03428778,-0.018453525,-0.01873294,0.020706976,0.00438412,-0.009893388,-0.0027535264,0.09663604,-0.011360125,0.045864787,0.011291275,0.15239808,0.019219823,-0.03828048,0.07356206,0.0788071,-0.0016078777,0.07878152,0.013154568,-0.023068884,0.031289563,0.06944389,0.0018150017,-0.009516996,0.16672261,-0.036937553,0.11180905,0.040054552,0.114911556,-0.0024640893,0.067655176,-0.09787485,-0.12138647,0.036959495,-0.011619757,-0.07094976,-0.03634271,0.0058392626,0.031569064,0.011082984,-0.010052641,-0.07133629,-0.108461194,-0.07039821,0.11201655,-0.110783026,-0.033238217,-0.017031465,0.14542493,-0.010429646,0.059448898,0.0050331354,0.048441906,-0.017177477,-0.100349076,0.088689186,0.047986172,0.0045085996,0.057814468,0.0073976703,-0.051064745,-0.022605292,-0.01569288,0.17769934,0.05548863,-0.17148454,0.026200887,0.043022685,-0.05291923,-0.03303156,0.057218723,-0.07157197,0.036638673,0.09753524,-0.0135675715,0.045266878,0.023523312,0.12298306,-0.02843403,-0.02098005,0.12581141,0.008477006,-0.01869914,-0.008398176,0.015781457,0.09041285,0.067640595,-0.030090487,0.06234021,-0.066818126,0.09329704,0.06468826,0.0028083664,-0.036718853,-0.029486831,0.039009705,-0.020878313,0.020716654,-0.019326277,0.06638912,0.0043381667,-0.030796465,0.08161746,0.14030477,0.03449918,0.025536524,-0.07674598,-0.08248153,0.07045129,-0.09011818,-0.02333471,-0.02618314,-0.03524595,0.10222315,0.012461822,-0.104795046,-0.08181918,0.07569064,0.11597345,0.06039524,0.118390925,0.002444971,0.04452749,-0.078876615,0.020552516,0.057491485,0.07066206,0.13404913,0.06503825,0.084415294,-0.1089741,0.008782525,-0.100177266,0.020743998,0.0069397883,0.09969784,0.1727201,0.099827364,0.08784721,0.07913066,0.034635376,-0.14132673,0.03980829,0.094794415,0.12649141,0.034794915,-0.016738927,0.00029211133,0.1279729,0.009416784,0.13560829,0.030925395,0.013721034,-0.0016871012,0.13633522,-0.0445313,0.03578429,-0.07762483,0.061190855,0.12202111,0.032131758,0.031608462,0.028623218,0.025902279,-0.04516258,-0.054353822,0.08673108,0.042969566,0.060729586,-0.0862066,0.04107736,-0.08404956,0.11263536,0.103523046,-0.05206343,-0.013648064,-0.00118443,0.07836825,0.023024432,-0.07164508}, {-0.04356077,0.115215145,0.17617682,0.048734594,0.15169092,0.0028163157,0.12634346,-0.019160073,0.0072480342,-0.048807256,0.06311492,0.045779813,0.005374417,0.09627581,-0.09370101,-0.035925336,0.109748945,0.13439669,0.07542605,0.047136735,0.03941156,0.1801278,-0.02006785,-0.07811762,-0.096510015,0.13177474,-0.015036688,-0.07268179,-0.0653532,-0.016056333,-0.12293561,-0.044066083,-0.07184694,0.03886421,0.052488375,0.011495308,-0.12783,-0.05534657,-0.10566762,-0.021138301,-0.10491442,0.14240289,0.079943314,0.0317284,0.097583175,0.032582562,0.10642377,0.12972078,0.13621671,0.117039345,-0.06876252,0.027996568,0.12436494,-0.044952888,0.0402329,0.087455496,-0.046128377,-0.027520536,-0.028536424,0.036293924,0.048657108,0.083177276,0.0017389862,-0.09079935,-0.12751058,0.06931398,-0.11327703,0.051348813,-0.03487179,-0.09379014,-0.04930943,-0.018830294,0.044139463,0.09511063,0.059172727,0.13785227,-0.018066783,-0.043083932,-0.032608394,0.051450144,0.033408742,-0.032524463,0.03584605,0.08619075,0.032420404,-0.031445958,0.026145644,0.10458547,0.08241948,-0.14051566,-0.06289425,0.1601685,0.049065378,0.06107905,-0.005227371,-0.05397877,-0.012492504,0.047166895,0.013623901,-0.00306161,0.16290371,0.12309445,0.20563754,-0.033404905,0.061606456,-0.069795534,-0.0008880661,0.086111166,-0.039310966,0.114932045,0.073224075,-0.06231907,-0.08262507,0.0015271674,0.07409712,0.022750588,0.0070571913,0.0035285435,-0.08226729,-0.081728615,0.1554526,-0.08478969,0.023931613,0.10397748,0.06450841,0.044446196,0.092150174,-0.041596774,0.071400754,0.08083205,-0.040552802,0.14033656,-0.075147405,0.00659441,0.05324695,-0.049823277,-0.037463985,-0.094746895,-0.009178435,0.13582699,0.07685941,-0.09111398,-0.0072731744,0.019273687,-0.014302145,0.0794029,0.09073566,0.09624624,-0.09192921,0.09249944,-0.15759851,0.022734847,0.041542508,0.18179977,0.005594268,0.08791874,0.048009068,-0.08061165,-0.033017375,-0.021663757,0.12789848,0.044042382,-0.014244727,0.085287616,0.08342532,0.074680485,0.11734595,0.0016165031,-0.109100014,0.023274044,0.05995547,0.04312434,0.012470503,0.05061773,0.14510165,0.1624516,0.010349418,0.004569671,0.014822804,0.023899235,0.14196098,-0.030089846,-0.1579494,-0.109034605,-0.007899212,-0.059530877,0.07325305,0.059643164,0.035738535,-0.0021552807,-0.051700972,-0.085795924,-0.012730542,0.0685093,0.084255435,0.025030697,0.1416678,-0.047015306,0.078738935,0.045526918,0.07274464,-0.030869476,0.0908187,0.11221567,0.059998635,0.0024639203,-0.085579254,-0.061889254,-0.10488807,0.053697698,0.04865397,0.07070426,0.14361602,0.15914367,0.13975964,0.17661405,0.12179493,-0.18638358,0.19538379,-0.002783209,0.17837666,0.011814234,-0.047812667,-0.02939823,0.103594884,0.0025063003,0.09931561,0.028930955,0.04180663,-0.007062993,0.13498092,-0.05801178,0.116161995,-0.09959867,0.109380305,0.12948237,0.021656608,0.14277199,-0.040380724,0.0047520758,0.016763885,-0.017253406,0.06685277,0.009054339,0.15319927,-0.12534449,0.09093919,-0.05663679,0.08991992,0.117560185,-0.117298044,-0.003000016,0.06596488,0.040555317,0.17590125,0.046809867}, {0.044885512,-0.038187128,0.043082204,0.13401814,0.0973374,0.008015221,0.032310262,0.029961117,-0.060907047,0.027252313,-0.023681583,-0.059166428,-0.1013116,0.023805175,0.020619027,0.02855445,-0.016604422,0.20919037,0.1971451,0.010136318,0.007331809,0.13424617,0.060651347,-0.08160533,-0.16126741,0.014824964,0.12936568,-0.008049649,-0.008175205,-0.076856256,-0.10278543,-0.12253256,-0.10545867,0.017055454,0.0014305257,0.00084620743,-0.012786364,-0.059297424,-0.119087905,-0.054551885,-0.010824896,0.11840318,0.06620656,-0.049410343,0.04918249,0.058427595,0.21542755,0.11319545,0.12441055,0.03418308,-0.023991711,-0.011986487,0.14920422,-0.03300316,0.0021812823,0.09706713,-0.0496556,-0.08301083,-0.0428212,-0.017369622,-0.11227725,-0.10054221,0.2370436,-0.03575935,-0.06855535,0.020525444,-0.03822037,0.057429574,0.0027598566,-0.20135824,-0.0012376095,0.056572754,0.02479514,0.17867489,-0.032962468,0.12877062,0.01737704,-0.04753939,0.018525066,-0.042668905,0.059813447,-0.014881108,0.05112528,0.03889324,-0.033257514,-0.0969915,0.090660125,0.19937925,0.043279592,-0.04784444,-0.02102379,0.045495704,0.0372329,0.10440505,0.026695838,-0.029303942,-0.024162956,-0.02376362,0.002099011,-0.06865138,0.049183488,0.21270429,0.08284104,-0.044742703,-0.018588468,0.06737723,-0.05468153,0.16401955,-0.09912577,0.094670676,-0.05053991,-0.026951026,-0.061768446,-0.12485755,-0.045384392,0.04472754,-0.030416485,-0.015736261,-0.027859783,0.115663044,0.1682725,-0.07367095,0.15453446,0.1381367,-0.044496834,-0.013758779,0.07300745,-0.03467892,0.0397354,0.19846256,-0.019560385,0.0060723093,0.03340723,-0.04672381,-0.082077436,-0.09212548,-0.0671551,-0.22418168,0.013646749,0.27500123,0.11299766,-0.12345426,0.0061588227,0.0154592255,0.015588268,0.009218321,-0.03894276,0.07448759,-0.018190432,-0.01239903,-0.18436831,0.0041153445,0.06647381,0.22307877,0.12905319,-0.013129303,0.11696041,-0.02663495,-0.044342488,-0.073024124,0.017951783,0.06854613,0.017423034,0.039161876,-0.015792206,0.019612169,0.039137594,-0.005265292,-0.19724084,0.09437683,-0.05474099,-0.036913935,0.035808742,0.04210004,0.06480203,0.227319,0.06532087,-0.022564225,0.0076791253,0.08922719,0.14581253,0.057531122,-0.062507175,-0.053118695,0.08682746,0.039021425,0.036179613,-0.07077269,-0.021574952,0.043200053,-0.0018373149,-0.049037494,-0.06428409,-0.07939531,0.045548674,-0.04634193,0.048086002,-0.11055524,0.08307774,-0.055240188,0.09138469,0.044952493,0.1434892,0.1571183,-0.05187022,-0.025734097,-0.05701221,-0.07008337,-0.07245366,-0.014784956,0.013179595,-0.012310654,0.2708739,0.132064,0.08798574,0.12101312,0.038157888,-0.19275172,0.13345632,0.011726977,0.20132521,0.07242674,-0.119474776,0.028437247,0.122635596,0.0643978,0.05739067,0.09516127,0.0939066,-0.014617289,0.018798605,-0.006728165,0.11340169,-0.23141742,0.116741665,0.00079200737,-0.05398484,0.0496385,0.016049702,0.054790754,0.103574775,-0.109260805,0.043968685,-0.041937448,0.15914908,-0.046030305,0.09658857,-0.047579754,-0.055699002,0.09795641,-0.110858984,-0.058514122,0.18592273,0.052773222,0.17374335,0.020589031}, {-0.03866768,0.06591642,0.07257365,-0.004162392,0.1819353,-0.15456077,0.096909806,-0.024654362,0.013332215,0.011483776,0.027342407,-0.059804488,-0.09892654,-0.018003153,-0.052086953,0.05106747,-0.060936987,0.19650085,0.103198074,0.029686762,0.017424434,0.06316353,0.02746803,-0.047051005,-0.029720288,0.062132336,0.032564327,-0.14416254,0.1272898,-0.22469796,-0.17457911,-0.09797997,-0.06649251,0.02416801,-0.06891152,0.071289636,-0.14405245,0.022960808,-0.14995366,-0.06435961,0.038706705,0.024881208,-0.025132794,0.025320986,0.1623212,0.06291129,0.14285979,0.108892605,0.14258206,0.1459171,-0.1127218,0.07481275,0.11974736,-0.11784506,-0.08901825,-0.024641564,-0.016299566,0.032504585,-0.05320234,0.043545805,-0.01521087,-0.05454096,0.18785436,0.0145392725,0.025353335,0.043985486,-0.08123701,-0.097726375,0.08358562,-0.17805141,0.080995165,0.040728915,-0.10719113,0.21463342,0.11808773,0.028153786,-0.048693918,-0.018841788,-0.035959046,0.008480788,-0.021391843,0.0016961239,0.05625718,0.113175385,0.013690576,-0.015558578,0.04468895,0.120113336,-0.07812608,-0.0066145835,0.027091388,0.082250364,0.009544492,0.12397111,0.020684766,-0.09030211,-0.05758333,0.11853846,-0.03201908,-0.14994207,0.084465005,0.15443161,0.1849311,0.008015611,-0.036724824,-0.06998882,0.0155714005,0.2209251,-0.0029670494,0.106046446,0.08317366,-0.033728436,0.031625375,-0.16999504,-0.03469466,-0.064149596,-0.063027635,-0.09174525,-0.090043314,0.09649749,0.14529839,-0.08696727,0.27134928,0.11946522,0.025442349,-0.09297548,-0.015400297,0.03275303,-0.010473005,0.13889326,-0.104539976,-0.0031857323,-0.019091634,-0.026993852,0.00908302,0.02209292,-0.08335684,-0.05904476,0.11815754,0.19531351,0.08679363,-0.07011786,0.075395234,0.13040245,-0.06639199,0.059041623,-0.014404751,0.09303407,0.14848372,0.034875732,-0.27131698,0.06112656,-0.013130901,0.05938354,0.18579303,-0.0100739375,0.12108497,-0.09887066,-0.09649314,-0.050603002,0.14000663,0.013441953,-0.025425058,-0.028391961,0.057802074,0.1915427,-0.06718952,-0.1247811,-0.10445185,0.04165342,-0.017426472,0.049581338,-0.106711455,-0.03920113,0.045985952,0.1743109,-0.026088675,0.006755326,-0.027056998,0.006956405,0.11252269,0.0015975711,-0.12965114,0.025620732,0.05284723,-0.04155789,0.12670323,0.0037425798,0.054820534,0.11318742,-0.050116956,-0.0596576,-0.017868293,0.10507019,0.14240064,0.013074487,0.037379846,-0.002322846,-0.03189546,-0.0009734006,0.09583574,0.037412062,0.07171214,0.07991013,-0.045546982,-0.048318245,-0.0111387065,-0.18983728,-0.04592029,0.028141424,0.11392436,-0.06558828,0.20714377,-0.009873501,0.13328382,0.10825159,0.008048983,-0.16943632,0.108942695,0.08277098,0.09714548,0.007236054,-0.10017185,-0.023854744,0.06666091,0.11101487,0.050725672,0.048286773,0.14015077,0.06299894,0.031378157,-0.045877606,0.115971714,-0.24299978,0.05826636,0.057578992,-0.010378789,-0.113520004,0.0032213097,0.050488792,-0.044303413,-0.08519405,0.06993561,0.057730116,0.11977819,-0.07799393,-0.020556714,-0.0971322,-0.00068704033,0.036901407,-0.22819558,-0.005805431,0.25463775,0.13652758,0.11857394,-0.0670409}, {0.018096311,-0.06748789,0.0240587,-0.04367157,0.0312379,-0.076708615,0.09579701,0.036675736,-0.0066395663,0.17750098,-0.013642505,-0.09543523,-0.14095694,-0.17411204,0.122512855,-0.057312176,-0.11767307,0.21926378,0.1311458,0.032954246,-0.021460323,0.18259947,-0.020446023,-0.08026003,-0.022725912,-0.08338577,-0.04996579,-0.05284602,0.08931131,-0.18124528,-0.067097224,-0.06809188,0.08336838,0.009314986,-0.060750768,-0.09194695,-0.13230285,0.0777946,-0.10531513,-0.06147604,0.10565842,0.009771224,-0.008565831,0.16071124,0.02220161,0.029156346,0.07635969,-0.002958397,-0.02621805,0.106360555,-0.101490065,-0.024116207,0.17711172,0.034807067,-0.0911591,-0.0017199944,0.03545279,-0.038948074,-0.104047984,-0.03577612,-0.07591308,-0.14376204,0.14001466,-0.06818014,-0.04836104,-0.0119643165,0.079361275,-0.12772027,0.009142427,-0.20047502,0.10643968,0.019382806,-0.14529283,0.043483194,0.08639795,-0.021002272,0.0036001995,-0.08493629,-0.043898832,-0.073225945,0.068940945,0.00027619506,0.016164023,0.1504641,-0.12738197,-0.087715894,0.014239125,0.12994905,-0.18035427,0.07769879,0.033506688,0.14354892,-0.08283962,0.21441437,-0.03159929,-0.093469344,-0.12631306,0.05144934,0.06753323,-0.12586279,0.08385678,0.2965213,0.1351304,-0.11447988,-0.15420768,-0.06658818,-0.06646104,0.21079199,-0.01064124,0.04018785,-0.09772508,0.05247412,-0.054226782,-0.1379379,0.016414015,-0.06077052,-0.09931161,-0.033209767,0.1906718,-0.038732097,0.015560133,0.0824643,0.2632624,0.11290153,-0.010196985,-0.1549745,-0.08313141,-0.087275274,-0.004473085,0.08793522,-0.02837597,-0.0135961035,0.032633524,-0.03294661,0.041178238,0.06734749,0.018900178,-0.04587751,0.2293431,0.11684319,0.059796773,0.07821055,-0.014085923,0.1318304,-0.02796757,0.11244794,0.13443552,0.06447874,0.12599547,-0.06838153,-0.13999125,-0.06924851,-0.004845943,0.10852462,0.13186736,-0.005174432,0.035319738,-0.061744053,-0.089510664,-0.15576719,0.07840949,0.12768435,0.043489486,0.044519693,0.07190196,0.3443753,-0.03295126,-0.1688005,-0.19550423,0.36310077,0.070382856,0.020648295,-0.12152067,0.05094485,-0.027694551,-0.06408098,-0.0062142205,-0.04984628,-0.028233731,-0.01770573,-0.02724639,-0.12326148,-0.07351132,0.09979984,0.03486054,-0.023760526,0.11343531,-0.052544553,-0.011545291,0.0397659,-0.062161498,-0.17397283,0.03430364,0.08500142,0.052646086,-0.11628231,0.018037146,-0.05897574,-0.045286,-0.008347687,0.064204834,0.16544905,0.14268252,0.061930973,-0.039615326,0.008974737,-0.11330802,-0.06985622,0.09855113,0.032461286,0.077106394,-0.07345488,0.20506403,-0.028653571,0.1441806,0.088608794,-0.0494144,-0.106306225,0.039996292,0.07198969,0.07134859,0.16169828,-0.027608512,-0.060857136,-0.13477764,0.12544225,-0.12128614,0.09445278,0.13836223,0.044166118,-0.019674111,-0.07711296,0.057610024,-0.020773005,0.11373548,0.085080504,-0.0498592,-0.11681676,-0.003981384,0.19136813,0.0045633563,-0.122214794,0.29360983,0.021546485,0.11778478,-0.15663467,0.0032383446,-0.14845774,-0.030827269,0.06178576,-0.17537922,-0.06620307,0.3042966,0.045225512,0.17777763,0.012403837}, {-0.061420508,-0.0005035005,-0.11557235,0.11125611,0.10380015,-0.16446248,-0.11975382,0.09498863,-0.06618354,0.19448526,0.047180716,-0.10788642,-0.17430241,-0.17743385,0.2686041,-0.09555688,-0.041552234,0.17158478,0.15106633,-0.020358346,-0.072233595,-0.058742728,-0.13116889,-0.07541099,0.047050487,-0.120186776,0.06701426,-0.19769739,0.040892188,-0.07956175,0.05331161,-0.1209858,0.13475507,0.08122306,-0.030928096,-0.08673904,-0.016159082,0.122710995,-0.2628176,-0.04186289,0.111260705,0.040086944,-0.046042327,0.059173707,0.021034934,-0.09453911,0.15286769,-0.07080574,0.027192853,-0.10638875,-0.03711946,-0.09563068,0.14915062,-0.07825467,-0.054066822,-0.08819335,0.12783667,-0.049792428,-0.021686392,0.096852206,-0.21161966,-0.09156093,0.07890287,-0.06846088,0.07148199,0.10539602,0.14866202,-0.093240745,0.015116473,-0.050562,-0.036507703,0.14393012,-0.041686196,0.053278495,0.104593806,0.03451005,-0.005329692,-0.082731664,0.045503423,-0.0030861243,0.2213911,0.064627394,-0.060129352,0.08588673,-0.11527738,0.02527369,0.038038824,0.20372507,-0.14032401,0.04749903,0.03206521,-0.03594933,0.021017501,0.23768175,-0.13907576,-0.06550672,-0.27682468,0.06484636,0.15506005,-0.079894446,0.12893452,0.29075697,0.15766415,-0.060240693,-0.094872355,0.088185474,0.025282871,0.102837004,-0.0785904,0.09495049,0.048509493,0.19408667,0.02454821,-0.15506104,-0.12826824,-0.23889232,-0.094879135,0.07432452,0.122258596,0.004183124,-0.058016103,0.044269193,0.30380958,0.046369255,-0.08956383,-0.028492566,-0.11403897,-0.06274813,0.1407745,0.2462208,-0.052939218,0.06115878,0.024030397,-0.14923856,-0.06372408,-0.051467422,0.07019361,0.079432115,0.29932976,-0.002911287,0.017803958,0.0019738653,-0.23326659,0.13996863,0.08265211,0.078346215,-0.00045929084,0.22624706,0.052341994,-0.03048311,-0.14067024,-0.045921814,-0.07364232,0.112992905,0.03848248,-0.044475608,-0.081574805,-0.029977055,0.012479924,-0.17029788,0.14948282,0.13300718,-0.025741305,0.06869704,-0.021956507,0.3111344,0.077984914,-0.19549641,-0.15082048,0.46813354,-0.018354544,-0.17677784,-0.0702504,0.01837054,-0.002012031,-0.085015774,-0.10599984,-0.04871247,-0.09985735,0.05861968,-0.11040863,-0.06266003,-0.09296558,-0.071908556,0.17326349,-0.093909025,0.22016947,0.035208765,0.029832691,-0.0467016,-0.07648795,-0.1575961,-0.113296166,-0.0565376,0.028640548,-0.046386927,-0.05703776,-0.1760244,0.0823565,-0.110949576,0.037193768,-0.0031162335,-0.014316706,0.11208919,-0.15870567,-0.07295953,-0.12528995,-0.006196665,0.030169962,0.23019622,0.22993769,-0.06554182,0.007911148,-0.01965565,0.20304579,0.017152203,0.0036219084,-0.06613136,0.0344721,-0.008933953,0.18889181,0.099562645,-0.027587533,-0.10452244,-0.11765148,-0.06298644,-0.13924573,0.12583767,0.14255752,-0.106462106,0.021288957,-0.036888517,-0.02794483,0.019147396,-0.010212563,0.07974225,-0.11556498,0.035192337,-0.06569912,0.08118679,-0.013394393,0.026960148,0.37920278,0.11267439,0.23850442,-0.03976248,0.02342761,-0.10588863,0.014789073,-0.033510294,0.053538658,-0.0039290097,0.21396756,0.06605966,0.26693356,-0.012461614}, {0.08816062,-0.12240884,-0.12258046,-0.051954005,0.22045882,-0.11936774,-0.04727889,0.0026644436,0.09866019,0.12409273,-0.016878942,-0.14864689,-0.10703459,-0.1583885,0.42809865,0.016658263,0.006014331,0.14749406,-0.04728035,-0.024975644,0.02144368,0.053286042,-0.07967552,-0.03306022,0.13896185,0.1903663,0.00024167993,-0.10967276,0.0066773156,-0.10632903,0.033887573,-0.10925573,0.2967883,0.10423125,0.06556845,-0.006802433,0.09228901,-0.013726615,-0.19937119,-0.07508598,-0.047393616,-0.055990003,-0.09259142,0.05658851,0.03713404,-0.01543635,0.029927326,-0.102593474,-0.05040654,-0.080630995,0.03872122,-0.05241242,0.2521656,0.050022338,0.022079974,-0.12814969,0.083475836,-0.06800467,-0.08159245,0.05503509,-0.063914694,-0.10381417,0.1549752,-0.030671999,0.07407109,-0.048802447,0.10909936,-0.1270637,-0.0412027,0.02084497,0.039169695,0.2516901,-0.15296005,0.006353707,0.046603683,0.010293045,-0.090009674,-0.13464348,-0.0630243,-0.1117706,0.1686754,-0.021289427,-0.0409784,-0.21786317,-0.11421427,0.01874426,0.029559154,0.2339932,-0.026429163,0.056741565,0.03052834,0.024030559,-0.035240747,0.2978524,-0.2151924,0.09510054,-0.36582288,-0.10578147,0.06659026,-0.11853121,-0.044817127,0.33810812,0.1561867,0.0481454,-0.024534333,0.095241345,0.03884197,-0.05742791,-0.08706182,0.050700475,0.018128721,0.14767465,-0.07641958,-0.111913234,-0.17125435,-0.28218025,-0.061184827,-0.03976423,0.078835726,-0.0752697,0.016429946,-0.02974009,0.14870791,0.18232554,-0.04163236,-0.15028772,-0.09817942,-0.1491341,0.3126503,0.14176024,-0.10278711,0.103473425,0.0088217985,-0.16844971,-0.048364185,-0.093098804,0.09878989,0.15991774,0.32703954,0.004923613,-0.04269317,0.084715106,-0.15914115,0.12624049,0.11729197,-0.080972336,-0.0055759884,0.25688636,0.07579039,-0.021325044,-0.01899608,-0.03259157,-0.0040834523,0.009810728,-0.050104544,-0.042050526,-0.11079721,-0.110148795,-0.01687956,-0.0762235,-0.029463673,0.16974922,-0.01928264,0.0031682365,0.08772067,0.21603812,-0.021242402,-0.081990145,-0.17229204,0.32925725,-0.030418655,-0.25837624,-0.13787773,0.00297119,0.038129646,-0.050876077,-0.07053157,-0.11342855,-0.18391943,0.054169964,-0.11177108,0.0377773,-0.16978946,-0.040475346,0.13254574,-0.08139323,0.195787,-0.020468723,-0.008019667,0.06374018,-0.01189,-0.12543531,-0.057479937,-0.057164494,-0.051079627,-0.12711035,0.023594318,-0.17259166,0.052372556,-0.24420424,0.044834964,0.035258118,0.010431435,0.05043199,-0.08309079,-0.038486242,0.030416522,0.04520876,-0.14177734,0.37449116,0.27121124,-0.02450484,0.05286061,0.04175959,0.3461136,-0.05344041,0.02602205,-0.060168598,0.15819502,0.055543,0.14825283,0.01621422,-0.036047887,-0.11727204,-0.015820969,-0.14367089,0.009908988,-0.008784393,0.16837163,-0.033657737,0.02206435,0.07539686,-0.043325163,0.08066197,-0.053808376,0.061989922,-0.13961136,0.16258211,-0.07315096,-0.029285599,0.061328437,-0.010868447,0.26483577,0.19194612,0.18124491,-0.10388535,0.11723729,0.03801036,0.19011863,0.041091092,0.35745972,-0.05659969,-0.0016672508,-0.017672114,0.22711544,-0.04272019}, {0.0790296,-0.096197695,-0.027180647,-0.20341668,0.17701432,-0.13314945,0.023415694,-0.11229032,-0.09287327,0.005760827,-0.030700682,0.013409639,0.0933617,-0.11543924,0.2965398,0.058046907,0.1065135,-0.109213725,0.040543843,-0.06261974,-0.007803513,-0.045132175,-0.07177781,0.038609814,0.05697784,0.38480818,0.07757007,-0.13064101,-0.010545798,-0.09477461,0.0685498,0.049864516,0.3717817,0.11966176,-0.045895096,-0.090028524,0.058991283,0.08120756,-0.14363812,-0.0872393,-0.011551472,-0.13055964,-0.12060929,-0.07445785,-0.04994749,0.04921406,-0.03601627,-0.13738883,-0.12675029,0.019556278,0.19450961,-0.0024920115,0.10853564,-0.10951363,-0.06672252,-0.03558486,0.2473738,-0.014786937,-0.23419434,0.029522771,-0.19770709,-0.12964508,0.11592934,-0.060976956,-0.06379866,-0.016230632,0.0879699,-0.0042707217,0.15474977,0.15889229,-0.03892899,0.09316071,-0.023374302,-0.19058558,-0.1584742,0.07461617,0.03482615,-0.08153298,-0.21358654,-0.11114147,0.20911783,0.10998023,-0.032892782,-0.14270842,0.09637273,0.13221596,-0.026490338,0.07680137,-0.16627638,-0.06805909,-0.04700218,0.0055574668,0.022903996,0.18287139,-0.16537054,-0.007183734,-0.31946385,-0.15211783,0.19377387,-0.1819124,0.025820252,0.114407636,0.011276147,-0.043009467,-0.18111365,0.18070212,0.08257459,-0.16717936,-0.19412664,0.06671734,0.18860105,0.08155902,-0.32085383,-0.1468206,-0.16089244,-0.17350522,-0.16105203,-0.07413344,-0.026944498,-0.07062505,-0.18586601,-0.121952794,0.040249035,0.14201944,-0.09786647,-0.29052505,-0.16366321,0.08273275,0.210216,0.0748143,-0.09343774,0.30541265,-0.16014591,-0.1932829,-0.16152637,-0.1748896,0.07923425,0.15691763,0.119645625,-0.13811672,-0.30673385,-0.09543674,0.032518126,0.12258206,0.21307373,-0.07771591,-0.16818383,0.32733482,-0.048156425,-0.14534074,-0.081178546,-0.050048877,-0.03543474,0.02884833,-0.29592294,-0.0034958243,-0.17751849,-0.061578616,0.029505942,-0.122101314,0.030089097,0.036422465,-0.095936425,0.10020894,0.1443682,-0.06407351,-0.09818842,0.09083368,0.0035167637,0.11211499,0.037028223,-0.23258345,-0.040020738,-0.07732258,0.29278833,0.015339972,-0.0024621184,-0.21959436,-0.21027997,-0.09113055,-0.090557106,0.13872194,-0.088761665,-0.14164965,0.07388119,-0.20283157,0.09796985,0.0094928,0.24384099,0.020806594,-0.0011117286,-0.153972,0.022727875,0.054710533,-0.085918166,-0.15317583,0.11766016,-0.24941058,0.096971795,-0.13075167,-0.058872744,-0.102076,-0.115223765,-0.14024648,-0.085033625,-0.19453932,0.10693151,-0.029100785,-0.10359776,0.14482981,0.18579827,-0.044344075,-0.09996658,0.019831225,0.27848843,-0.009539303,0.107615106,-0.17672625,0.092275955,0.18457401,0.15347432,-0.12799695,-0.13637309,-0.26594806,-0.0056011705,-0.18292847,-0.022749012,0.05450411,0.21897042,-0.031883013,0.02883479,-0.007303423,-0.09101415,-0.016689476,-0.1946629,-0.013864563,-0.09169181,0.19527036,0.06448849,-0.059035495,-0.03575791,-0.02946564,0.17616472,0.20481429,0.23038755,-0.015972828,-0.007725597,-0.00818308,0.19044314,-0.06374579,0.34836587,-0.14425914,-0.041711796,-0.11590261,0.09025933,0.06196195}, {0.050617393,0.046451963,0.0073279487,-0.12563336,0.16817106,-0.087253004,0.056022063,-0.065669216,-0.08001597,0.049979582,0.06532908,0.050492167,0.06497752,-0.116796136,0.26777706,0.023360696,-0.053521607,-0.11794488,0.01831125,-0.1552488,-0.021853384,-0.08129513,-0.062588975,0.03566249,-0.04443831,0.25829303,-0.09800394,-0.0531762,-0.27895844,-0.1048936,0.22876374,0.14626364,0.1844557,0.045661304,0.0016491961,0.09384832,0.1014701,0.11794344,0.1335993,-0.10196166,-0.038417935,-0.19651514,-0.23389705,-0.012559989,-0.13524842,0.10177039,-0.061294254,-0.14019747,-0.26026782,-0.07474725,0.257108,-0.030297808,0.20456743,-0.07467446,0.008524908,-0.14927807,0.003284746,0.29154754,-0.07814786,-0.19776355,-0.0025469544,-0.050937027,0.15946619,-0.032899424,-0.084119156,-0.0051915958,-0.09159086,-0.023857245,0.13893607,0.06484024,-0.057210725,-0.14594676,-0.08901676,-0.17417388,-0.18164237,0.0086447885,0.15258728,-0.03040895,-0.15365864,-0.14154103,0.11306528,0.01060183,-0.14197928,-0.08311143,0.16835211,0.32418668,-0.05981133,0.054070685,-0.20299679,-0.19857691,0.07824208,0.03967976,0.121824436,0.07651587,-0.2784312,-0.06456586,-0.30995548,-0.24614097,0.1314603,-0.15302041,0.028394645,0.06848328,-0.016718991,-0.019552538,-0.15776278,0.15419225,-0.0073707947,-0.22259463,-0.14496727,-0.0037480511,0.20942268,0.037041426,-0.23707463,-0.07295287,-0.034440447,-0.1530139,-0.23728049,-0.11462134,0.056171387,-0.14448412,-0.07821709,-0.07329248,0.013503059,0.066104814,0.0766521,-0.25128612,-0.25320667,0.0531463,0.114943966,0.015685916,-0.04629355,0.25684196,-0.17466412,-0.037344757,-0.28737357,-0.037895042,0.12992738,0.09780862,0.10763001,-0.05523676,-0.31918955,-0.089932,0.34360635,-0.08373553,0.077225305,-0.049320392,-0.18642287,0.109139524,-0.2060822,0.0048463023,-0.2080519,-0.07220955,-0.028803514,-0.048581507,-0.34815547,-0.15105261,-0.19818607,-0.036223806,-0.010459609,-0.15103596,0.032874875,0.014990439,-0.016654437,0.11063735,0.20277189,-0.16656327,-0.109715655,0.15823975,0.035758164,-0.053503495,0.19441618,-0.15652385,-0.22248183,-0.013493687,0.42181215,0.056824464,-0.07868134,-0.27315673,-0.18335855,-0.1290472,-0.020905877,0.08680222,-0.046404604,-0.020402018,0.051186807,-0.046596047,-0.0794542,-0.14060414,0.17735183,-0.17906366,-0.11562521,-0.02258627,0.08167444,-0.2085824,0.044685096,-0.06945966,0.15897824,-0.19969176,0.04149213,-0.09943426,-0.029790245,-0.09758288,-0.05198871,-0.10901779,0.12289729,-0.25990388,0.055207193,0.06907808,-0.19769268,-0.027426703,0.086302154,0.013852954,-0.0948222,-0.0073842932,-0.012417717,-0.04487051,0.33854562,-0.08685502,0.011779785,0.10608173,0.11445591,0.028334606,-0.11298438,-0.15863885,-0.059458524,-0.065706186,-0.06789877,-0.035240095,0.14138123,-0.10751071,0.025352273,-0.06925305,0.024895038,-0.07516422,-0.13877802,0.109029196,-0.044883557,0.20045422,0.26686764,-0.11481598,-0.060900196,0.002521989,-0.09354164,-0.0012507174,0.1650288,-0.061043672,0.061640527,0.08063686,0.36582533,0.030245338,0.12816776,-0.109107874,-0.12653048,-0.009631539,0.10988665,0.1220486}, {-0.04822531,0.2634589,-0.032735124,-0.06551836,0.13826837,-0.1363958,-0.080874495,-0.08694913,-0.13050918,0.15511909,-0.079733685,0.062129192,-0.15842289,-0.06376414,0.045417566,-0.017269753,-0.15030785,-0.16714641,0.21789417,-0.19775666,-0.15137567,-0.197627,-0.042395648,-0.104561746,-0.017311146,-0.074624896,-0.019612325,-0.059779834,-0.10920296,0.04794495,0.113363124,0.12884142,0.116277784,-0.019922538,-0.11757757,0.054356795,0.18696977,0.06348479,0.16945654,-0.070643514,0.10803848,0.016621847,-0.24684125,-0.043467052,0.11324244,0.12621833,0.02352512,0.029684052,-0.24275571,-0.097031765,0.21483605,0.026505264,0.005215425,-0.19148488,0.09605434,0.0053532138,0.09256078,0.4237271,-0.13535884,-0.14744262,0.21785142,0.03294103,-0.007495143,-0.012536101,-0.08301098,-0.0062696217,-0.032612305,-0.051512886,0.018518953,0.05149855,-0.099459976,-0.1758433,-0.045338985,-0.25549874,0.011409489,0.113693714,0.1700017,0.06476455,-0.035503693,-0.13020548,-0.07938018,-0.030213382,-0.16954064,-0.09437437,0.0889983,0.3314464,-0.38678262,0.049332988,-0.11368096,-0.14952755,-0.04113778,0.24218722,0.035540286,-0.11048834,-0.19405535,-0.10551111,-0.38782662,-0.21346156,0.22553656,-0.050010774,-0.21552438,0.022825185,0.046692144,-0.055833448,-0.10503351,0.22142738,0.049010914,-0.1001434,-0.1755946,-0.07064995,0.18624605,0.052222293,-0.1108525,-0.14283058,-0.060628522,-0.22334233,-0.2863223,-0.13307907,-0.010077519,-0.07121342,-0.21731837,-0.047929656,-0.005389871,-0.06617558,0.19059008,-0.2888484,-0.33641902,-0.026858542,-0.03775462,0.07784168,0.006933121,0.25194284,-0.19256635,0.027496517,-0.34414864,0.14658904,-0.051934853,-0.14774871,0.0416838,-0.08855886,-0.25273165,-0.06174387,0.38797846,-0.21190237,0.12813915,-0.06793598,-0.13087618,-0.07621709,-0.14962327,0.012125931,-0.0835014,-0.058927156,0.05200412,-0.06177737,-0.44816008,-0.103363276,-0.2712504,0.12218078,-0.052955676,-0.14321253,0.10928506,-0.023292726,-0.05598307,-0.029671952,0.026416115,-0.157188,-0.19358568,0.13101652,0.057116244,0.08748168,0.23472534,-0.017278435,-0.21564563,-0.16517565,0.22887586,0.18418059,-0.0070428415,-0.21370333,-0.12723893,-0.23381554,0.01326544,0.12030013,-0.085886694,-0.13553499,0.09764626,0.01942564,-0.074571654,-0.21090466,-0.094768494,-0.13787436,-0.11708046,0.09358657,0.118160926,-0.2541733,-0.0045088786,-0.030792074,0.23049898,-0.07208218,0.0022370724,-0.019931069,0.04376178,-0.008240488,0.032109838,-0.14236508,0.14339253,-0.15515624,-0.06674276,0.2094423,-0.21321408,-0.22558874,-0.077272445,-0.03603784,-0.13529749,-0.0024865745,-0.1011435,-0.25096446,0.5919047,0.09295022,-0.1055121,-0.050995696,0.15071334,0.13214673,-0.3008863,-0.18089175,-0.08408059,-0.018664533,-0.12036684,-0.11179024,-0.039374325,-0.12518197,0.14170712,-0.0030840454,0.15535721,-0.20224813,-0.15702195,-0.025289787,-0.02785562,0.17062539,0.34137222,-0.1105891,-0.0917044,-0.02090114,-0.3782226,-0.081675835,0.10644028,0.022851998,0.097352415,-0.07702276,0.33854374,-0.101626754,-0.0092153335,-0.0011225085,-0.21666877,0.17642184,0.05044854,0.10637795}, {-0.17584893,0.24612327,0.033013415,-0.05520595,0.05070882,-0.24655862,-0.15349156,-0.2512044,-0.051207904,0.011250793,-0.048101895,-0.115189865,-0.11651639,-0.14293694,0.16961151,-0.07050572,-0.0590625,-0.09660846,0.14355426,-0.03651565,-0.10955723,0.088105924,-0.16648354,-0.11137178,-0.04536638,-0.07923806,-0.04792988,-0.1946001,0.21347268,-0.0061219777,-0.019381262,0.09737398,0.12530807,-0.16401221,-0.0040573305,0.08921854,0.06079253,0.00022784273,0.17488559,-0.17756829,0.13174881,0.08557481,-0.1247621,0.07224998,0.27956226,-0.019903382,0.09844769,0.11504102,-0.1433864,0.10870972,0.25736794,-0.09370956,0.02127114,-0.08565528,0.12133069,0.08928616,0.16366817,0.15806921,-0.08649478,-0.24973609,0.13160379,-0.061591964,-0.07148664,-0.15447068,-0.055386942,-0.0023037782,-0.19275445,-0.13120173,-0.13810867,0.02166083,-0.03757551,-0.1874596,0.008803872,-0.17308144,-0.16895795,-0.20611873,-0.14301223,0.10511255,-0.13017564,-0.09366095,-0.23665951,-0.033597756,-0.14332631,-0.17439762,0.16045758,0.062627934,-0.24069794,0.008586652,0.043547995,-0.23509033,-0.036922824,0.20788603,-0.0654217,-0.031189099,0.027993334,-0.10588193,-0.3044632,-0.038503405,0.101298705,0.09806316,-0.2142555,0.057806138,0.04129153,-0.14363167,-0.10366616,0.2390201,0.031898532,-0.009498471,-0.21652551,-0.037258063,0.21700566,-0.02222555,-0.060956933,-0.17587566,0.1485339,-0.20008539,-0.15956524,-0.1344416,0.03137062,-0.03268632,0.029630985,-0.009157977,-0.23890738,-0.083290845,0.07142754,-0.12946744,-0.29984102,0.08750467,-0.16104527,0.12611449,-0.031546086,0.048108056,-0.31059143,0.20527375,-0.11462972,0.20588899,0.03220098,-0.09250266,-0.044320576,-0.16348559,-0.17321342,0.0064619784,0.3464656,-0.18912779,0.013008663,-0.20000152,-0.065789595,-0.2151543,-0.06381321,0.16928582,-0.0029197764,-0.026888233,-0.015449736,-0.2177988,-0.21077847,-0.117523134,-0.036828842,0.22640903,0.10691592,-0.10547412,-0.029959787,-0.3116257,0.17032357,-0.11284019,0.040916316,-0.05229662,-0.27185187,-0.022324516,-0.05388129,0.10173623,0.13460463,0.21370687,-0.089676596,-0.15989476,0.113636486,0.20202622,0.18926086,-0.19274487,-0.02965976,-0.101174295,0.098172195,-0.14410037,0.0033127062,-0.26831266,-0.0030861627,0.1750997,-0.10577019,-0.23402381,-0.15638652,-0.28111535,-0.036297135,-0.016394975,0.019699708,-0.25704312,0.0030708297,0.27303135,0.10499764,0.10855081,-0.05982436,-0.043872286,-0.17138095,-0.04562794,-0.11968889,-0.16978143,0.30443934,-0.17000541,-0.106773354,0.19204012,-0.16737615,-0.16367139,-0.0596525,-0.01964788,-0.06493386,-0.039228626,-0.11664287,-0.11888366,0.38281566,0.099054284,-0.20678788,-0.060462564,0.22955082,0.021740833,-0.35149285,-0.106059045,0.057190493,0.23860851,-0.08614135,-0.062418543,-0.18992598,-0.20570964,0.17069954,-0.12212302,0.18167455,-0.0062136115,-0.12373823,-0.19516075,0.13534819,-0.044091538,0.19175014,-0.052247334,-0.013290335,-0.06767608,-0.20835271,0.020789737,0.093730286,-0.073905125,-0.07437507,0.0021661732,0.1726343,-0.03435115,0.0064900806,0.08457262,-0.23850997,0.09228682,0.116913706,-0.07461346}, {-0.22377114,0.06788696,-0.08846267,0.03580836,-0.1831121,-0.11400909,-0.03860934,-0.277205,-0.069524005,0.006343106,-0.15962988,-0.12528308,0.001706738,-0.31220883,0.098661155,0.07541809,-0.008576552,-0.062471803,0.1667561,-0.2156622,-0.0076693944,0.046026878,-0.116276994,0.2164724,-0.099113524,-0.040105052,-0.09071745,-0.1289842,0.20796312,-0.0437786,0.017719066,-0.036404036,0.10604766,-0.13098603,-0.0014463995,0.123087816,-0.13106509,0.036551397,0.27314547,-0.2162641,0.09935269,-0.0052666618,-0.20567103,0.019046955,0.25730857,0.065889455,0.011033889,0.25523007,-0.12874623,0.06678778,-0.07855401,-0.027905092,0.09307163,0.17700438,0.13323879,0.13759576,0.04732735,0.101004936,-0.10868555,-0.14562508,-0.23769145,0.0039448515,-0.022217521,-0.1091775,-0.086778924,0.11355846,-0.13440694,-0.04095067,-0.0097231325,-0.03903996,0.11341723,-0.23340867,0.04075681,0.036555033,-0.0903924,-0.28638238,-0.20833479,0.098320805,-0.15815267,0.016905101,-0.23207512,-0.20719983,-0.01563537,-0.22557086,-0.06987677,-0.029265407,0.13904138,0.07237993,0.05816,-0.21140124,-0.13428427,0.08622496,-0.17497823,-0.078814976,0.05314762,-0.1742574,-0.15264598,0.0438334,0.13062216,-0.047184803,-0.3283395,-0.029190302,-0.09664493,-0.14016049,-0.09317747,-0.00030296633,-0.040857594,-0.19084062,-0.23584324,0.036971778,-0.03970261,-0.17283198,0.07262342,-0.085081354,0.18076748,-0.012170556,-0.07487441,-0.091541566,0.012828985,-0.046366926,0.11880509,-0.069668725,-0.16124442,-0.21628276,0.026977276,-0.10614723,-0.26284936,0.21632305,-0.12682758,0.07745368,-0.019371433,0.08296511,-0.3285365,0.04023157,-0.109506615,0.29436803,-0.06251366,-0.10311974,-0.112223566,-0.21374284,-0.093769796,-0.20905067,0.15478036,-0.075731985,-0.0629603,-0.18828931,-0.060155306,-0.2603582,-0.08420564,-0.010499737,0.037837822,-0.062455855,-0.03784372,-0.22240452,-0.16771948,-0.20160545,0.12832408,0.28392148,-0.018338999,-0.16781156,-0.025406,-0.4390142,0.22345474,-0.20960319,-0.02268612,-0.12783927,-0.3740371,0.00575677,-0.03394041,-0.028655153,-0.032175224,0.13347611,-0.13245039,-0.14055777,-0.13458824,-0.009365439,0.030371098,-0.11437147,-0.26880476,-0.084738664,0.17339502,-0.16537397,-0.035345037,-0.1854218,0.08212455,0.3155119,0.03000996,-0.28700098,0.064042956,-0.100408085,-0.13060191,-0.10879254,-0.03402934,-0.041300025,-0.16281916,0.3358755,0.24064574,0.34191573,-0.16131765,-0.08047161,-0.22913864,-0.05537032,-0.1773405,0.008395734,0.2726701,-0.019350674,-0.061861917,0.010342581,-0.1560266,-0.028089644,-0.12167649,-0.033857033,-0.13294305,-0.033556655,-0.12573354,-0.095595084,-0.16705927,0.066161714,-0.1684559,-0.17198731,0.22610247,0.0040379954,-0.14892103,-0.09960707,0.35534838,0.34591228,-0.13539895,0.075499736,-0.33043024,-0.17073804,0.15129553,-0.36563125,0.16060929,-0.030930182,0.038309652,-0.3224098,0.24793857,-0.19836478,0.21452278,-0.099623576,-0.19122446,0.001755207,-0.10171124,-0.11526109,-0.014622481,-0.065410696,-0.06964288,-0.1512773,-0.07029991,0.06759467,-0.06446908,0.056157988,-0.11648671,-0.0028884807,0.019487372,-0.12025456}, {-0.21599628,-0.07425474,0.008712334,0.0049556354,-0.12931336,-0.05558635,0.05349948,-0.3132779,-0.011561246,0.17202519,-0.17771484,-0.06563387,0.05589994,-0.16489348,0.043015957,0.21884932,0.020991212,-0.100301616,0.20384128,-0.21413603,-0.25981632,0.13648029,-0.1640325,0.36795473,0.018036937,-0.0032094242,0.0114687,-0.17144558,0.072543316,0.124996625,-0.09192753,-0.11464188,-0.10527395,0.049828064,-0.0687163,-0.057759143,0.04298067,-0.07114535,0.27406603,-0.17533886,-0.047729634,0.08652566,-0.22197282,0.0075803,0.22453219,0.097217254,0.037632324,0.15436155,-0.010946775,0.05222835,-0.15540923,0.059265,0.23508966,0.10524254,0.27711228,0.067375824,-0.13661991,0.0023678518,-0.09506829,0.006727411,-0.28155556,0.032903355,0.09453398,-0.18290593,-0.007974122,0.1557776,-0.051368196,-0.091847174,0.11163552,-0.004897176,0.08356122,-0.14791974,-0.06933173,0.059523318,-0.08986261,-0.100304924,-0.10315345,-0.036310524,-0.24615794,0.052526195,-0.10154421,-0.116624095,-0.108315445,-0.06551577,-0.21421212,-0.021433203,0.29792717,0.07336287,-0.048212815,-0.24485591,-0.094349004,-0.21048434,-0.24741295,0.07072143,0.059296284,-0.13959295,-0.08996214,0.15340836,0.08922843,-0.06162167,-0.2739625,-0.09666065,-0.1833423,-0.17629088,0.015666464,0.058999907,-0.17445765,-0.14277442,-0.17867878,0.16640063,0.013954919,-0.10451292,0.103930764,-0.15482178,0.23867688,-0.09043621,-0.084813304,-0.12998733,-0.024412137,-0.19483687,-0.01937947,-0.12265967,-0.07047989,-0.24891356,-0.042358298,0.10904195,-0.1663454,0.19672586,-0.07678743,0.05129964,-0.122428335,0.0019864407,-0.19997329,-0.028013417,0.0048986855,0.120329835,-0.09497851,0.063208625,-0.16188422,-0.089539096,-0.012241269,-0.18239117,-0.063315794,-0.13240743,0.02973017,-0.18785298,-0.23393284,-0.12632777,0.14471734,-0.10754058,-0.0006054178,0.0119266175,0.03992953,-0.097961135,0.0050597023,-0.22916779,0.054229673,0.116205335,-0.23167293,-0.25569788,0.04026953,-0.33613664,0.17031434,-0.09605733,-0.020965554,-0.08223756,-0.3441864,0.041424304,-0.13416196,0.041667834,-0.07050854,0.06862527,0.018170474,-0.010729021,-0.23284528,-0.1678998,0.0363134,-0.14839305,-0.37879205,-0.052980103,0.035003163,-0.22106725,-0.075176336,-0.1689876,-0.029167386,0.18455826,0.09493392,-0.010244515,0.18767536,0.40948883,-0.17306106,-0.032553684,-0.16098253,0.37630114,0.025671335,-0.05522469,0.24582458,0.24551283,-0.0035725122,-0.05757193,-0.22990389,-0.20580447,-0.1875053,-0.16734055,0.17422979,-0.061589886,-0.15494329,0.07566126,-0.04139037,0.052776974,-0.18752915,-0.11030987,-0.19436103,-0.056837782,-0.100949444,0.057275236,-0.19535968,-0.03333292,-0.07344953,-0.3213124,-0.013277988,-0.0286387,-0.23560615,-0.10708019,0.11213282,0.20679778,0.01912761,0.092364006,-0.26032907,-0.14266995,0.36822492,-0.27523252,0.13461037,-0.035013113,0.09110284,-0.17036647,0.12364933,-0.090765856,0.1784635,-0.102681644,-0.10753506,-0.04958175,-0.09926313,-0.18113494,0.078216285,-0.08784848,-0.14899638,-0.07822344,0.006230809,0.07956614,-0.032101445,-0.10897213,0.07285655,-0.035429973,0.048574958,-0.4011779}, {-0.3095731,-0.06437813,-0.10804862,0.011879463,-0.19660266,-0.005788143,0.1592113,-0.24255922,-0.030945636,0.2437055,-0.23975256,0.0846492,0.071028784,-0.18429206,0.00541183,0.47602594,0.037460823,-0.091029614,0.17030734,-0.04090744,-0.39861488,0.08783093,-0.097428925,0.3503766,-0.07846707,-0.0891208,-0.008920295,-0.19333369,0.073930986,-0.01921417,0.0196726,0.032961793,-0.12499681,0.115719534,-0.12374717,-0.065612845,0.002267614,-0.10100727,0.04994377,-0.28500336,-0.16602148,0.23753163,-0.04662218,-0.07304276,0.028555786,0.018996377,0.07970866,-0.10840442,-0.0010578561,0.04465972,-0.11978194,0.072521746,0.12182467,0.097729996,0.2975215,0.0926951,-0.18575837,0.0281132,-0.00369369,-0.05816892,-0.14069965,-0.040692456,0.030199194,-0.222042,-0.065082245,-0.0064416993,-0.06654943,-0.010754533,0.104931794,-0.14128187,0.14140105,-0.12812997,-0.092733756,-0.0070625404,-0.086466976,0.11461435,-0.19471999,-0.15397882,-0.22154775,0.17174067,0.1258009,-0.13544524,-0.0534819,0.14846806,-0.15089576,-0.060933243,0.14218912,-0.10819185,-0.034014314,-0.13547938,-0.057665918,-0.4465435,-0.11238973,0.011175875,-0.14621554,0.06777691,-0.04121267,0.20006734,-0.03228722,-0.052269302,-0.123773314,-0.025132477,-0.042662337,-0.04587645,-0.097338334,0.07945644,-0.1290018,-0.08461792,-0.20428215,0.23582591,0.027372368,-0.15449299,-0.045972064,-0.22775371,0.07701842,-0.1146802,-0.194633,-0.13664074,-0.08814813,-0.09543714,-0.09215128,-0.08340991,-0.03182495,-0.22139378,-0.103489004,0.14576662,-0.036894646,-0.08422497,0.08058406,-0.084793575,-0.05554379,0.041894555,-0.07884605,0.044146135,0.009086626,0.047555335,-0.13819039,0.121472135,-0.10839687,-0.07547242,-0.04811052,-0.09398474,-0.0725823,0.030465813,-0.08434215,-0.112489626,-0.32825336,-0.031629924,0.08474413,-0.12676579,-0.0059497547,0.040620875,0.0663053,-0.03894607,-0.020270523,-0.032272913,-0.007879743,-0.033582,-0.24559703,-0.2036655,-0.16127193,-0.34692016,0.05196217,-0.027524821,-0.08216979,-0.087249935,-0.36881053,-0.076185405,-0.052060455,0.033245396,0.028572552,-0.099735655,0.14142776,-0.15167733,-0.17736097,-0.06681909,0.07971441,-0.058281343,-0.41747805,-0.0887727,-0.01710856,-0.2644975,0.017604155,-0.25892705,-0.21254128,-0.0069065,0.05705275,0.27050534,0.08375894,0.43640667,-0.24236424,-0.24080299,-0.17350651,0.5530947,-0.047249045,-0.2971297,0.10406523,0.12682644,0.26214305,-0.0015633685,-0.12792227,-0.08526007,-0.21642163,-0.08065943,0.098496825,-0.15959887,-0.3081447,-0.0036727963,-0.0025159544,0.11113216,0.016512705,-0.12950994,-0.13268787,0.024347847,-0.16252775,-0.002405241,-0.16476282,-0.015976692,-0.1231378,-0.2611941,-0.06723302,0.03046351,-0.1551066,-0.21352527,-0.03655557,0.11348414,0.13855773,-0.01726631,-0.3348967,-0.15011215,0.29839295,-0.27384305,0.13042296,-0.1259764,-0.09067332,-0.21597545,-0.021744538,-0.03251018,0.16477315,-0.21243134,-0.0638551,-0.054834496,-0.085775055,-0.17104472,0.22187647,-0.1364481,-0.10995405,-0.013281466,0.052761167,-0.0006511766,0.013868949,-0.040927902,0.12161979,-0.12364755,-0.074927345,-0.43034986}, {-0.24731,-0.1076257,-0.062440105,-0.05457945,-0.118769184,0.010294893,0.004082089,-0.18369067,-0.1019326,0.09204897,-0.23114038,0.1442756,-0.027078623,-0.059481837,-0.06795575,0.4222542,0.098431416,-0.17651458,0.12397526,-0.03569264,-0.18166365,-0.06430324,-0.07595727,0.046347763,-0.22883362,-0.005343521,-0.07496852,0.054868624,0.0095601175,0.07151824,0.12606269,0.12655324,-0.036303546,0.19527584,-0.1034201,-0.09020771,0.07290097,-0.13333285,0.046934474,-0.21962199,-0.10469642,0.2381449,-0.08860238,0.006235172,-0.20732942,0.026284577,-0.004948251,-0.16627203,-0.12733412,0.013530036,-0.21756448,-0.11477037,0.022802155,-0.040852442,0.19091786,-0.062584706,-0.015381532,-0.034059376,-0.010708716,-0.18683957,-0.07342278,-0.18517217,-0.04557777,-0.13434653,-0.08139266,-0.040645853,0.1637769,-0.064644665,-0.016140789,-0.17345482,0.2938421,0.117895365,-0.040455922,-0.1537771,-0.12211756,0.08372375,-0.20631832,-0.11365452,-0.27381933,0.19667776,0.25098482,-0.18509209,0.019909162,0.13953589,-0.15287788,-0.027214745,-0.11114832,-0.09712612,-0.11385973,-0.23934132,-0.22643529,-0.12163798,0.012754197,-0.124558784,-0.3223984,0.16970193,-0.079816744,0.20831893,-0.13888341,-0.07373478,0.0091136,-0.08688207,0.03266671,-0.1828882,-0.14930436,-0.0076739555,-0.16211364,-0.08557139,-0.12834165,0.18226603,0.17058901,-0.33708498,-0.13496974,-0.16841769,-0.042838056,-0.057881348,-0.106724866,-0.067391194,0.08455429,-0.25007915,-0.012823946,-0.21820024,-0.0060536973,-0.2138069,-0.20536959,0.06218691,-0.008139394,-0.24634117,0.0056667435,-0.031519312,-0.014602981,-0.0066939667,-0.18741341,-0.0316812,-0.0050202976,-0.012204375,-0.07769245,0.19038278,0.003570971,0.05780543,0.05340788,-0.089989886,-0.07788412,0.15680158,-0.17368408,-0.035224985,-0.3012717,0.075833164,-0.15226603,-0.3120314,-0.13043356,-0.0097054215,-0.0501751,0.00985068,0.056729425,0.03165937,-0.11909463,-0.21121651,-0.19094472,-0.14068328,-0.13824108,-0.124645375,-0.10363448,0.0800851,0.070762254,-0.028069312,-0.20076478,-0.118577264,-0.1597617,-0.0071735196,-0.102535434,-0.05550088,0.03692652,-0.093755715,-0.019643813,-0.14049537,0.008110816,-0.14374316,-0.25158775,-0.04101818,-0.13721347,-0.33308697,0.10267198,-0.33698326,-0.19923809,-0.02805723,0.14273414,0.27101177,-0.0649576,0.38839433,-0.28774822,-0.08802913,0.03691248,0.29777962,-0.024161777,-0.20674789,0.2246012,-0.058723323,0.44543096,-0.05956314,0.055719372,-0.07794005,-0.2400988,-0.13479915,-0.032675028,-0.053458616,-0.19961469,-0.17753129,0.05271063,0.11450938,0.1022178,-0.1659771,-0.06917429,0.11993651,-0.15382764,0.0034128749,-0.09165587,-0.0940783,-0.1629674,-0.07216589,-0.12533715,-0.014916974,-0.110664226,-0.07080263,0.035383154,0.07758537,0.0058362596,0.12825349,-0.13399386,-0.12892696,0.119449444,-0.045166854,-0.008590524,-0.043804612,0.03345463,-0.18137418,-0.12448403,0.008436938,0.14328262,-0.28359112,-0.1143081,-0.09400748,-0.0071602245,-0.13956179,0.2151003,-0.0007233446,-0.18023656,-0.07023782,0.032185875,0.03245579,0.13974199,0.09581473,0.01004618,-0.12223288,-0.13988215,-0.27523378}, {-0.024033323,-0.12566982,-0.07561141,-0.08368301,0.14426188,-0.041866615,-0.051687203,-0.056886006,-0.13684429,0.148408,-0.066694744,-0.07131789,-0.18141831,-0.015300048,0.014784332,0.033793215,0.018906876,0.099707864,-0.0034077605,-0.09714403,-0.18461956,-0.09621389,-0.25085458,-0.26137957,-0.13163969,-0.06790734,-0.12582718,-0.031989746,0.06899492,-0.001183447,0.22538692,0.047550533,0.07477544,0.21383622,-0.08678557,-0.02337174,0.10717179,-0.10094651,0.0015471943,-0.21452665,-0.043444227,0.18653345,-0.1326792,-0.026442196,-0.07647442,0.06791512,0.00352589,-0.15827985,0.0006534884,0.03137005,-0.029914128,-0.08390014,-0.06730169,-0.087787956,0.027802944,-0.095990375,0.05103179,-0.0604482,-0.076532304,-0.10459463,0.027398607,-0.21451333,-0.023417478,-0.023752347,-0.0064258603,0.15249465,0.23168778,-0.09466716,-0.1625062,-0.035613775,0.22603363,0.10893986,-0.08210128,-0.0691729,-0.07675715,-0.1815747,-0.18474084,0.005181582,-0.11201424,-0.06551649,0.3026745,-0.18390569,0.056422636,0.032794725,-0.20100228,0.0846783,-0.14610688,-0.16312873,-0.1833972,0.021803519,-0.038177118,0.003080094,0.16737364,0.0026413072,-0.2364543,0.076855615,-0.19563611,0.2369478,-0.15546125,0.0043167886,-0.006879488,-0.13925159,0.094981074,-0.089742914,-0.087540604,0.07710061,0.07970715,-0.029175948,-0.18225643,0.040096793,0.17210919,-0.031152982,-0.19976076,-0.15852545,-0.11378383,-0.10332679,-0.18745136,-0.19370373,0.2413194,-0.4102,0.028836548,-0.21599145,0.031224474,-0.053007193,-0.03595068,0.006244378,0.005578876,-0.15222879,0.065547526,-0.021939427,0.08087741,-0.06644097,-0.030501746,-0.13796839,-0.086145885,-0.096741766,-0.09334902,0.02086747,-0.20873083,0.13503085,0.06076963,-0.039863393,-0.0025184217,0.02750891,-0.14845856,-0.008024195,-0.10559757,0.08448571,-0.12653625,-0.18978448,-0.13869503,-0.111777246,-0.05540782,-0.002442642,0.04096914,0.17027397,-0.12648234,-0.15040137,-0.20169576,-0.06670894,-0.0006587038,-0.12998971,-0.1258739,0.026497725,-0.048254687,0.145851,-0.14524178,-0.10439003,-0.10833218,-0.089539625,-0.11456444,-0.23302543,-0.04824323,0.0363127,0.34380427,-0.13451868,-0.09854504,-0.25651067,-0.1693055,0.0038663887,-0.11201428,-0.3609499,0.09953139,-0.20647883,-0.12525286,-0.11703296,0.20379758,0.21039477,-0.03514989,0.06546372,-0.16182378,-0.020931339,0.053085633,0.19046283,0.09804933,-0.2600476,0.21691129,0.053150766,0.37810645,0.0061582625,0.04792107,-0.024567109,-0.08151021,0.027901512,0.012856047,0.011643317,-0.1435098,-0.16734326,-0.05713662,0.028064584,0.16647096,-0.23406821,-0.13954245,0.16297945,-0.05491686,0.004715985,-0.09906076,-0.2609715,-0.12830625,-0.07277209,0.01602331,0.16894825,-0.17345685,-0.00053570874,-0.039760116,-0.004197562,0.042325243,0.038742423,0.012268263,-0.050339956,-0.011407068,0.2024416,-0.059760578,-0.038227707,-0.029359976,-0.05484258,-0.22737375,-0.084515855,0.07193469,-0.17402299,-0.17692369,-0.248987,-0.06112715,-0.075668156,0.03342479,-0.019612536,-0.2102234,0.026489217,-0.008348056,-0.075693026,0.11123051,-0.02429107,-0.10397894,-0.11992678,-0.21589269,-0.09260223}, {0.11572444,0.03259886,-0.030950049,-0.015299404,0.13569047,0.011757058,-0.14033526,0.06863198,-0.11173547,0.06585893,-0.09085328,0.010533501,-0.14454274,-0.09082805,-0.03991638,-0.116114154,0.12114518,0.05825194,0.031842224,0.0067468314,-0.15432392,0.019074854,-0.14016207,-0.25379127,0.046742275,-0.026331456,-0.050372705,-0.05528418,-0.007292424,-0.051400915,0.12590383,0.15462367,0.04139023,0.013291439,0.019067964,-0.020858567,0.03765292,0.12217794,-0.047621448,-0.1428025,0.048333593,0.25949523,-0.067574136,0.10999228,-0.08637764,0.16980909,0.005659136,-0.07372891,0.10313071,-0.036969528,-0.064256966,-0.23557359,0.010550378,-0.13346194,-0.017766055,-0.0530488,0.036320847,0.07566389,-0.13448098,-0.07747316,0.017387949,-0.27423137,0.0364012,-0.05779507,-0.06550305,0.275875,0.07495638,-0.11126428,0.002088441,0.12446211,-0.04935283,-0.08233512,0.0008282269,0.049905546,0.013684895,-0.1336836,-0.15120815,-0.05906955,-0.04773188,-0.084363304,-0.02894295,-0.08410423,-0.048208866,0.0019658606,-0.1423793,0.0944734,-0.10394266,-0.1081333,-0.18255863,0.045075584,-0.07562844,0.09812082,0.16236155,0.006023838,-0.1086171,0.042503603,-0.13867879,-0.016244497,-0.06082899,-0.009761208,0.0678098,-0.0116552105,-0.05744289,-0.17080356,0.11096744,0.04913871,0.14648095,-0.16211955,-0.07240116,0.09375167,0.18217869,0.25219423,-0.03588527,-0.15764014,-0.06973689,-0.08490458,-0.08665032,-0.019956369,0.18059063,-0.13947678,0.1409906,0.019320585,0.045190625,-0.035456333,-0.025721263,0.039561156,-0.09536732,-0.2159478,0.12875079,-0.014058071,0.038157504,-0.015110238,0.13035727,-0.029818064,-0.16619192,-0.080244236,0.024041157,0.04572417,-0.07483222,0.108132415,-0.017312797,-0.10486028,-0.1340433,-0.06295713,-0.09828145,0.041009367,-0.17398873,-0.12356648,-0.09259328,-0.009500917,-0.22047736,0.03628535,-0.02456517,0.017559728,0.01853506,0.11638535,-0.08255173,-0.009238704,-0.0071870233,-0.07768012,-0.077974156,0.015355217,-0.025359858,0.0028635976,-0.06570609,-0.023846205,-0.045650974,-0.101647615,-0.12612046,-0.09363626,-0.11957844,-0.14441001,-0.015985176,0.025833296,0.26514834,-0.082524404,-0.04062716,-0.1457936,-0.0914621,0.09679744,-0.018030856,-0.18128945,-0.013791341,-0.06788321,-0.019695433,-0.15816784,-0.03360317,0.07277777,-0.1210829,0.1331683,-0.0996679,-0.052304838,0.08878685,0.037173603,-0.03172281,-0.049617592,0.06532585,0.041738287,0.10815193,-0.0034821494,-0.073909596,0.06312222,0.0864958,-0.041979246,-0.10356478,-0.02890064,-0.03433225,-0.13185436,-0.021846654,-0.030279912,0.08876031,-0.20201045,-0.118605815,0.1091136,-0.06799017,-0.02795056,-0.046278734,-0.13847323,-0.068016805,-0.19062981,0.08819725,0.19711262,0.0091448985,0.08625539,-0.035286944,-0.03713324,0.093356475,0.076782726,0.046923578,-0.10927306,0.2426744,0.13356325,-0.19364975,0.031247476,-0.04942617,-0.07264213,-0.11700235,0.006528316,0.020843755,-0.063385405,-0.010449493,-0.2619336,0.038275458,0.005018397,0.14567384,-0.033197578,-0.18251276,-0.02641798,0.101416916,-0.054825936,0.06877377,0.006273107,-0.041277178,-0.12003081,-0.07227897,-0.18798253}, {0.08244426,0.014356214,0.09143301,-0.06481541,0.10784266,0.071978375,0.04784665,-0.022894535,-0.14980918,-0.08127123,-0.042105515,0.020020414,-0.124078736,-0.07371732,-0.031924713,-0.19282864,0.11961347,0.16933265,0.1805711,0.008372025,-0.07661165,0.09381643,-0.20466174,-0.0458203,0.065683424,-0.048893914,-0.039793417,-0.1074973,0.04597388,-0.1249495,0.034219414,0.08527345,0.14341865,-0.022917602,0.046617523,0.026010945,0.03802659,0.17500384,0.002794497,0.016657867,0.04536202,0.20031387,0.03629714,0.29475167,-0.038755838,0.18993245,-0.034918714,-0.026024846,0.13563088,0.03973164,-0.03846444,-0.09221868,-0.06933603,-0.15176044,-0.0124820005,-0.040750686,-0.0063693603,0.041320622,-0.10836178,-0.002444496,-0.018357849,-0.19694325,0.08156035,0.03133139,-0.09460341,0.5129326,-0.06182962,-0.039423916,0.08821666,0.09131029,-0.19514497,-0.16390298,-0.08189263,0.101631224,-0.06314692,-0.11565898,-0.04417889,-0.1317465,-0.0063962224,-0.16493176,-0.06862485,-0.01821017,0.024630697,0.036857415,-0.019160211,0.041585524,-0.023260728,0.017447287,-0.122678965,0.053329445,-0.046399646,0.11194166,-0.05329802,-0.14871238,-0.0062982733,-0.108638085,-0.0652534,-0.08962446,0.23677807,-0.00074489217,0.11325364,0.10804416,0.048132587,0.04474378,0.065744355,-0.015685953,0.04807565,-0.02224707,-0.095592275,-0.0686317,0.11611391,0.3917146,0.0045532137,-0.03231124,0.06614166,-0.060921248,-0.009527389,-0.04757793,0.059209432,-0.03325809,0.10499355,0.04722431,0.038495913,0.04244754,-0.06578366,-0.045597542,-0.13216038,-0.18185464,0.055280797,-0.03413154,0.0831496,-0.028517557,0.15219511,-0.066545494,-0.10620072,0.046806324,0.06814754,0.11840141,-0.0058793826,-0.018475965,-0.016829435,-0.0563332,-0.02682843,0.023575556,0.04154752,0.046265997,-0.079178266,-0.1093444,-0.052556314,0.041783698,-0.26345745,0.1730557,-0.03498983,0.09391258,-8.253681e-05,0.021753386,-0.11100525,0.08076566,-0.009186381,-0.02850161,-0.035221867,-0.0004960494,0.022827873,-0.115022674,-0.03763417,0.05542157,-0.15345913,-0.051529147,-0.08990153,0.08396251,-0.12062531,-0.065325685,-0.064760014,0.021262558,0.26992637,0.0027216673,0.06173079,0.0006336165,-0.07548745,-0.07595046,-0.046171773,0.005635714,-0.041826185,0.17764685,0.030505888,-0.23246458,-0.044279806,0.010946969,-0.052186288,0.038686372,-0.063541315,-0.08846038,0.06273662,-0.06782156,-0.09646658,-0.091555245,-0.045839984,0.0030580375,-0.15209964,-0.018360863,-0.082969874,-0.042711083,0.10473004,-0.12909833,-0.08052035,0.046131253,-0.051156797,-0.1038615,-0.10833479,-0.014523405,0.041009493,-0.0923806,0.005164833,0.027763423,0.16829914,0.050937828,-0.12933898,-0.1778916,-0.059994876,-0.13840555,0.011948811,0.017654656,0.0019348016,0.0014208307,-0.11464402,0.009183042,0.087602675,0.028634707,-0.003289071,-0.20969862,0.35006598,0.05439712,-0.03284081,0.06295118,-0.14382187,-0.06889683,-0.23045903,-0.0808911,0.10496457,-0.109390505,0.020147515,-0.12535441,0.056818083,-0.02888835,0.18124422,0.010762622,-0.025575772,-0.04547115,0.06640781,-0.021137523,-0.03035881,-0.06657053,0.10258524,-0.022516005,0.05228947,-0.113085695}, {0.13259244,-0.033082392,0.052654434,0.021047473,0.051178973,0.08031554,0.06958356,-0.037865274,-0.18192376,-0.032078292,0.007468773,-0.029245237,-0.053531956,-0.06437987,0.058818746,-0.16424473,0.05985437,-0.049863502,0.22675541,-0.086497426,-0.019927392,0.07967555,-0.13380519,0.016339252,0.03579211,0.0379881,0.07604806,-0.19913341,0.061537012,-0.13852927,0.023391588,-0.063452154,0.1003182,-0.12846051,-0.08073828,0.045385115,0.035129797,0.17840943,-0.023398336,-0.020701572,0.030372953,0.0519455,0.010446768,0.07761231,0.027135108,0.08282877,0.07930262,0.09337138,0.1893253,-0.09073323,-0.0394009,-0.013456139,-0.004464715,-0.1138022,-0.052360624,-0.0404466,-0.030184694,0.025759615,0.004103355,-0.0002664932,-0.12171116,0.015167601,0.22310781,-0.009168983,-0.060596123,0.27082855,-0.0013386526,0.060200773,0.14193878,-0.05437684,-0.21541731,-0.08840884,0.018270094,0.028949793,-0.08822305,0.070867874,0.05596424,-0.11940869,-0.07195239,-0.1113697,-0.11691307,-0.019343575,0.03659528,0.104201,-0.11975258,0.05828752,-0.10274792,-0.0043469337,-0.035970367,0.006253841,0.04744601,0.061876237,-0.14744581,0.012851863,0.0538421,-0.19993271,-0.17840344,-0.024860471,0.26369473,-0.032988302,0.061186273,0.008015281,0.039013855,0.041572005,-0.041606393,-0.11186476,0.02039819,-0.047092754,-0.08017197,-0.14825849,0.16704448,0.25074846,0.16285023,-0.053043447,0.062092636,0.005087909,-0.08021157,-0.03427707,0.038821135,0.12104569,0.02481236,0.006694223,0.07082715,-0.10360611,-0.00849835,0.071310915,-0.059751414,-0.06513383,0.0252161,0.14230998,0.049128104,0.07273184,-0.0073599266,0.052719288,-0.07008667,-0.03826502,0.054664403,-0.05145988,0.011309086,-0.017197797,-0.085085355,-0.022589596,-0.022040818,0.03357463,0.07259216,9.8085846e-05,-0.06322473,0.007472392,-0.15258291,6.4198146e-05,-0.19884323,0.14423643,0.014097336,0.14523359,-0.02021892,0.05341954,0.030568333,0.105830275,-0.043814298,-0.034792356,-0.038242817,0.03514084,0.12037166,-0.06083949,-0.12613788,-0.052830584,0.009682459,-0.07785764,-0.026104337,0.034949377,-0.025639776,-0.09236837,-0.008756744,-0.089468054,0.091749944,0.0298984,0.061099194,-0.09166575,-0.0373911,-0.020557296,0.03216422,-0.008368341,-0.18954177,0.027341833,0.066808835,-0.162091,-0.071676105,-0.0279009,-0.040375944,0.07968487,0.020395378,0.004699061,0.022750204,-0.047078285,-0.10859333,-0.10900287,-0.044338375,0.05399751,-0.11019953,-0.09829858,0.045549985,0.015846333,0.035396006,-0.027992757,-0.06000378,0.032456692,-0.017375916,0.07949217,0.03738322,-0.05298333,-0.0059020123,-0.021620916,-0.023037853,-0.004713873,0.10708143,0.01954972,0.07683977,-0.24062458,-0.0031492815,-0.06620004,-0.014761495,0.042307664,0.050554615,0.052715484,-0.12041754,-0.03699335,0.043086153,0.05104203,0.10382929,-0.17223161,0.21956871,0.07242838,0.1419672,-0.09147965,-0.054176208,-0.0631958,-0.11073007,-0.08306832,0.02009179,-0.049945675,0.12644137,-0.03932723,0.11537407,0.0076481765,0.09206948,-0.11497409,0.04368985,-0.08490003,0.0069248336,0.02136163,-0.06664821,-0.07058739,0.1675242,0.065992996,0.057963267,-0.0866791}, {-0.013715269,-0.056143545,0.0024085029,0.010859258,0.08217052,-0.01341095,0.12402527,-0.033128012,-0.0936799,0.03268328,-0.09426327,0.04593284,-0.11932569,-0.014656707,-0.04880353,-0.17301853,-0.04156992,0.08054759,0.21644036,-0.078855,-0.04364065,0.049143083,0.060779803,-0.0610487,-0.13861717,0.022437152,0.23691346,-0.102870844,-0.010043388,-0.09364528,0.014154814,-0.012234495,0.09162938,-0.18807186,-0.03603442,-0.045448214,-0.020293187,0.007070038,-0.13409473,0.030204922,-0.01653385,0.03628858,0.021560848,-0.031621173,0.052187644,-0.064331114,0.108335234,0.14471945,0.13710989,0.10781829,-0.038816065,-0.020980323,0.12747276,-0.11919514,0.02142897,0.063052736,0.0094693545,0.1454426,-0.05340249,-0.016767692,-0.10201466,0.041989144,0.17903103,-0.10770504,-0.14954768,0.043795273,-0.11144824,0.053671088,0.112891324,-0.18677978,-0.18450803,-0.11828534,-0.0044525177,0.060859185,0.02205932,0.14965795,0.13108075,-0.16403478,-0.12221813,-0.088037275,-0.1274452,-0.08685014,-0.00040006672,0.13182813,-0.015145758,0.09748157,-0.05632314,0.18631525,-0.01906197,-0.029985059,-0.056291867,0.07293954,-0.055696703,0.10251719,-0.048123024,-0.07254199,-0.07933061,-0.046362113,0.030539598,-0.041425228,0.051067185,-0.00590039,-0.008083281,0.07476202,-0.0057797437,-0.022940874,0.06377967,-0.024673311,-0.14624019,0.039050184,0.10348249,-0.045165893,0.07931511,-0.07315114,0.09337004,-0.09065357,-0.14462222,0.09164175,-0.07062778,0.02426676,-0.033122808,-0.017082931,0.065669805,0.026950033,-0.016813321,-0.009793843,-0.14744286,-0.086216606,0.025570575,0.20527898,1.5929152e-05,0.011748657,-0.03110491,0.055503603,-0.06662447,0.06989563,0.15900722,-0.20054558,-0.0022566176,-0.004309973,-0.10461948,-0.14071834,0.0690822,-0.054683175,0.09257408,0.115786694,-0.034607835,0.08597844,-0.0816724,0.058349464,-0.19813238,0.08180892,-0.0066113994,0.18166761,-0.10225527,0.03333733,0.124919556,-0.06301486,-0.014145218,-0.056271475,-0.042296413,0.021131895,0.12301678,-0.11770357,0.024280313,-0.072171,0.055659987,-0.12357537,-0.15913834,-0.013686981,-0.069528624,-0.043600537,0.048244845,-0.09371715,-0.03704238,0.17069408,0.0617575,-0.021746634,-0.09109833,0.06845217,-0.07855405,0.112719834,-0.10354052,-0.019817015,-0.07104175,-0.13337517,0.034093156,-0.10068935,-0.04479402,0.11271755,0.06101052,-0.07985586,-0.029060977,0.06473372,-0.09159636,-0.073992394,0.0121601345,-0.06196894,-0.10325514,0.011539596,-0.001751692,0.066951744,0.1498402,-0.015766982,0.10157434,-0.0031515374,-0.07317883,-0.037895318,0.047198728,-0.13572735,0.059519205,0.052914776,0.015884792,0.016738564,0.062370606,-0.02477866,0.02998236,-0.056000207,0.121006116,-0.14279725,0.12536599,0.11093466,0.02379731,-0.09319668,-0.07496907,-0.053775262,0.02881373,0.08411344,0.00072788924,-0.10115708,0.2154689,-0.0615653,0.048260637,-0.111572765,-0.082573555,0.05644826,0.08595514,0.024713228,0.047469214,-0.0050268653,0.14060001,-0.11568167,0.084897175,0.05872966,0.034314346,-0.14248586,0.13468866,-0.07878436,0.02875063,-0.019109532,0.060262196,-0.029720658,0.0795876,0.112598956,0.0017562194,-0.050953418}, {-0.06117904,0.06508661,0.15670326,-0.011745078,0.2515066,0.019106267,0.05352303,-0.08882865,0.022068687,0.048497636,-0.027539307,-0.00977879,0.014246061,0.0296111,0.060244687,-0.072617516,0.061356865,0.0066657723,0.13881044,0.029307682,0.014661785,0.061369658,0.12583627,-0.10202241,-0.204387,0.046994504,0.26420745,-0.120512426,0.053749915,-0.04699718,0.030985208,-0.027345223,-0.02123838,-0.13538858,0.001690267,0.08638904,-0.032610938,0.051455047,0.03972026,0.040189017,-0.039397836,0.042794857,-0.012111769,0.025489561,0.040773094,-0.025503274,0.02022151,0.11035601,0.13241768,0.1366648,-0.0815349,0.028209057,0.19209643,-0.08839189,-0.016652694,-0.01704467,0.0041461466,0.19924644,-0.01873432,0.055728637,-0.09117434,0.039923236,0.11981194,-0.058159813,-0.10284566,0.06948126,0.0017282245,0.01796106,-0.014666789,-0.2238407,-0.08201164,-0.059221193,0.021050448,-0.004329422,-0.11584648,0.13204351,0.051838245,-0.2329345,-0.12991574,-0.06044424,-0.06425114,-0.07546077,-0.048620712,0.0016561897,-0.13802816,-0.031512544,0.04206449,0.15610126,0.08561449,-0.035674702,-0.0876072,0.10621717,0.08917885,0.14280951,0.020934783,-0.15925094,0.052608877,-0.10098856,-0.048206028,0.054369953,0.060891006,-0.03754912,-0.013854585,0.066772,0.07942271,0.008605007,0.021258922,-0.010318454,-0.030157378,0.049193047,-0.07899765,-0.023725187,-0.03160546,0.020698238,0.01433759,0.059750974,-0.10277738,0.04775506,-0.12578222,0.06400439,0.05457473,-0.08965262,-0.020361606,0.024567071,0.030070249,-0.038162492,-0.071398154,-0.042676553,-0.023785964,0.21636763,-0.08198847,0.008386193,0.009896285,-0.007453356,0.06825916,-0.008910528,0.15563613,-0.20754816,0.049319938,0.020847108,0.019603202,-0.15298186,0.06528672,0.06894343,0.16124797,-0.044233393,-0.07602554,0.1057542,-0.08579084,-0.002290164,-0.07070125,-0.0012002152,0.09664602,0.15499835,-0.03608423,0.0028298802,0.16274363,0.00084529485,0.045325622,0.04155837,0.03629577,-0.027208362,0.103361584,-0.06867115,-0.11062367,-0.085422225,0.051315945,-0.07812723,-0.002937,0.015872674,0.044731986,-0.012404152,0.015543167,-0.13041963,0.025519907,0.05453437,0.030477164,-0.090177424,-0.034949556,0.13761723,0.04784982,0.09405016,-0.13577832,0.07000131,-0.03079789,0.004193469,0.10976859,-0.029060556,-0.09154928,0.13199672,0.04693006,0.037164416,0.03931917,0.04010161,-0.023881823,-0.12348003,0.13050833,-0.019462053,-0.052830987,-0.07117938,0.06703878,0.008846804,0.08957495,-0.036201186,-0.05154868,-0.03306273,-0.057163727,-0.013473518,0.028338345,-0.07043287,0.08032947,0.008679285,0.040648594,0.07664088,0.16310236,0.042245746,0.13972689,-0.11950561,0.06709571,-0.07063291,0.21106145,-0.010016088,0.012231593,0.037691627,-0.028734155,0.034401257,0.08227737,0.07428961,0.0754703,-0.04176669,0.104158245,0.031842485,0.16785407,-0.048955325,-0.014168162,0.023523053,0.08316786,-0.050280664,0.051955704,-0.012582345,0.25844094,-0.03346321,-0.029128654,0.052715585,0.009442923,-0.0593354,0.09288003,-0.13558385,0.100457884,0.01853359,0.045012332,0.044141192,0.17126034,0.0737127,0.011938741,-0.070451654}, {0.0575318,0.06957853,0.20085104,0.016274462,0.16789456,0.06509809,0.09442707,0.02855136,-0.03290911,-0.05408973,0.0705596,-0.009786564,-0.011090663,0.029635318,-0.03890729,-0.078629844,0.0655359,0.092187494,0.12127154,-0.003324992,-0.0059672515,0.17949565,0.124669895,0.0067088525,-0.15338646,-0.05511623,0.16635981,0.02094306,-0.021226367,-0.09008831,-0.10209121,-0.03793971,-0.11702617,-0.06972748,-0.0425438,0.022830391,0.011985772,-0.003894289,0.015802458,0.017909199,-0.14047857,0.06333103,0.046873,-0.00043968833,0.1254047,0.039389905,0.070500284,0.15681903,0.008824469,0.07910943,-0.09835669,-0.07724645,0.21720667,-0.091774054,0.05724779,-0.0038550259,0.031309474,0.18120782,-0.12340096,0.043653056,-0.08347523,0.013828626,0.19352095,0.02205599,-0.055385355,-0.06541344,-0.12544309,-0.029999638,-0.016231494,-0.23485255,-0.04187959,0.044593994,0.03235321,0.01222371,-0.087252796,0.108658165,0.08382248,-0.058416262,-0.018624512,0.08552356,-0.025006142,-0.091147035,0.06490527,0.02962973,-0.013592353,-0.03791475,-0.077799514,0.059325702,0.07498539,0.008261814,-0.030902091,0.036761735,0.07600243,0.13029383,0.0008487575,-0.0705119,0.021231327,0.030454595,0.002881118,-0.070892096,0.10961848,-0.053157367,0.033094198,0.07939107,0.08111137,-0.05646694,0.0024249915,-0.09393573,-0.085377835,0.13028152,-0.0643017,-0.12563853,-0.025496636,-0.06345697,-0.0133822225,-0.06946135,-0.006247038,0.015429949,-0.06987684,0.031645562,0.111031465,-0.0011244955,0.043055773,-0.02964489,0.0537233,0.028370721,-0.07470796,0.017425515,0.044397254,0.016336175,-0.07776525,0.12090826,-0.058341626,-0.014743837,-0.0008384748,0.10063811,0.0835078,-0.0716355,0.015498909,0.086195655,0.09595094,-0.11287689,-0.059177022,0.0514671,0.030669918,0.022124557,-0.15256192,-0.057635125,-0.00033976012,0.03476795,-0.15789281,0.0057627936,0.11888765,0.12487783,-0.037046824,-0.023170756,0.09389963,0.049466465,0.029783063,-0.017787158,-0.05231883,0.08713104,0.101590365,0.05400523,-0.07303721,-0.028265845,0.07485213,-0.018633667,-0.037044,-0.06149584,-0.024329692,0.110748656,0.022567365,-0.010179141,-0.039025746,0.032236703,-0.0031151727,0.010125868,0.019277621,0.05521451,0.07611913,0.11234939,-0.13787763,-0.08231706,0.095708095,-0.016523842,0.01737817,0.05167491,0.04527782,0.027119085,-0.04506891,-0.0060448004,-0.005226509,0.023697477,-0.008395974,0.050618067,0.15495954,0.08800519,-0.032244056,-0.020815518,-0.03986666,0.02418758,0.03907457,-0.004780265,-0.0044364724,0.04654521,0.023138259,0.044949066,-0.053033635,0.036888063,0.10100523,0.122068904,0.009836688,0.055242464,0.15569945,0.004990069,0.027697107,-0.090419844,0.056636572,-0.05184278,0.17041235,0.048827946,-0.008842632,0.053474616,0.04053061,0.031631324,0.052578796,0.027331106,0.02071373,-0.00082871947,0.13507886,-0.036036093,0.090523295,-0.069398694,0.0557547,0.1319554,-0.08739223,0.061290126,-0.030408759,-0.0074596186,0.18928745,-0.09998133,0.0755459,0.07795585,0.015869005,-0.118869886,0.045389067,-0.08081309,0.120586514,0.0021898104,-0.029346997,-0.044021983,0.12458829,0.12092642,0.09931767,-0.02427846}, {-0.07310326,0.12257633,0.09932712,-0.017312815,0.20104742,0.113079034,0.06847928,-0.04520176,0.0070624608,-0.041444637,0.034606125,0.024724642,0.062375374,-0.016021943,0.01980969,-0.09126112,0.0563365,0.023632698,0.11317174,0.03302407,-0.037691362,0.12287283,-0.038668625,-0.072576344,-0.12868536,-0.0036468704,0.11571924,-0.0076507274,-0.08367824,0.007954944,-0.035533886,-0.05746768,-0.008984622,-0.095335886,0.07173641,0.10054692,-0.025549121,-0.0963736,-0.03512616,-0.05515222,-0.10141243,-0.016571192,0.11592037,0.06480337,0.16450807,0.00977132,0.15184392,0.028392604,0.051666137,0.111446865,0.03101164,0.024672985,0.13709158,0.08281019,0.039578687,0.0010300522,-0.032762833,0.10190014,-0.09123723,0.09357633,-0.041145843,0.060795575,0.1049463,-0.038737036,-0.1664489,-0.07832885,-0.0039704447,0.09185978,0.09431422,-0.14240211,0.11621769,-0.04426747,0.0014551177,0.11669883,0.027312353,0.10124513,0.06439287,-0.051421136,-0.048289407,0.02850654,0.061020285,-0.003422597,-0.041509226,0.021842448,0.035453685,0.078152165,0.07260942,0.11296805,0.0069414885,-0.113476045,0.038955998,0.042698752,0.043096863,0.0016419902,0.068238564,-0.009732362,-0.04140955,-0.10039348,-0.034163617,-0.032793436,0.19536038,0.016246468,0.09702073,0.0930369,0.0013313844,-0.009040505,0.06272148,-0.011221668,-0.15257773,0.041681573,0.08395349,-0.036991347,-0.0749501,0.029248793,-0.020887008,-0.056658335,-0.08632666,-0.07186213,-0.03628342,0.013007458,0.05178889,-0.10746193,0.055995833,0.004527527,0.06873128,-0.055381566,-0.012329226,-0.063986234,0.039647616,0.0020239404,-0.07806849,0.022568928,-0.07535803,0.09740591,0.095473655,0.004673605,-0.07481116,0.008371152,0.048615746,0.13230087,0.08028613,-0.11337284,0.04789866,0.03535,0.07141169,0.0908118,-0.06617882,0.044371437,-0.11925205,0.11291893,-0.03738558,-0.015545818,0.12944736,0.07575458,-0.10345007,0.0026344627,0.09847916,0.0032049972,-0.051272318,0.04807957,0.026482832,0.02249328,0.04889014,0.08861412,-0.055466678,-0.060477827,0.14525737,-0.019634316,0.0068167155,-0.030941024,0.015949575,0.0063562957,0.0800943,0.031504378,-0.045161575,-0.051224835,0.12706561,-0.112970926,0.039192557,0.035225525,-0.03138698,0.06437482,-0.12561394,-0.091319345,-0.015956054,-0.08149073,0.012305613,0.030138537,-0.05358823,0.08268424,-0.09373015,-0.027539035,-0.0147468075,0.0432324,0.13063161,0.062281772,0.11183967,-0.050451405,0.100123085,0.035403516,0.0131149525,0.09753171,0.095795654,0.05753014,0.013515213,0.093715824,0.0349122,-0.052286062,-0.105564795,0.03530846,0.056753546,0.114680395,0.0705091,0.101335995,0.04755302,-0.0055255108,0.019235449,-0.18419433,0.050996337,-0.041716564,0.16047797,0.109773755,0.020756928,-0.083416365,-0.0091849,0.10123806,0.005435457,0.1131785,-0.014992198,0.010823672,0.11055546,-0.08597804,0.10075499,-0.024735399,0.08354253,0.08818022,-0.03714828,-0.016765548,-0.112548366,0.036274534,-0.05530581,-0.12260561,0.05696583,0.103344806,0.13323033,0.021125047,0.15889983,-0.049531695,0.10003798,0.06663253,-0.04325904,0.071955316,-0.033753734,0.10586959,0.08770103,-0.038444974}, {-0.022537785,0.011492563,0.14951585,0.021650352,0.1705521,-0.011209468,0.068958096,0.04291911,-0.04830262,0.001324267,0.036349732,0.06282168,0.059390966,-0.0023824777,-0.05208536,-0.10128357,0.05563069,0.0022765049,0.12014925,-0.053677905,-0.041128095,0.09917452,-0.043439813,0.011248816,-0.024801103,-0.044265073,-0.008322544,0.00065315556,-0.053952664,0.014309858,-0.121700615,-0.0046671624,-0.106328316,-0.02766742,0.08394022,0.010864545,-0.08184248,-0.093408205,-0.02692938,0.02352061,-0.12047506,0.114345856,0.11585053,0.0006266592,0.086793765,-0.03713022,0.17797159,0.11188759,0.071728215,0.06903867,0.01817801,0.015034076,0.16910927,0.055129968,-0.027242767,-0.012395519,0.047582712,0.13883117,-0.08995942,0.006480908,-0.07775882,0.058848325,0.034712076,-0.072544865,-0.14488575,-0.105557844,-0.016027631,0.119733,0.06760631,-0.119205676,0.074096195,-0.008846532,0.0060602776,0.09230004,0.047461037,0.070601024,0.1410598,-0.14193061,-0.14894265,0.1556181,0.018690458,-0.044006765,-0.055064965,-0.0044649225,-0.002196647,-0.037044287,-0.0021964558,0.057301916,0.08336296,-0.16238175,0.040949404,0.13188915,-0.014061431,0.0954137,0.096685484,-0.10363238,-0.0075791744,0.022028917,-0.09848092,0.0018733749,0.14961271,0.05538479,0.12724768,0.07715241,0.028557656,-0.08884602,-0.018076392,-0.099182084,-0.08136743,-0.0014164456,0.05535189,-0.018263016,-0.04742874,0.055152796,-0.047412496,0.033222534,-0.083968535,-0.08332645,-0.10182577,-0.0027207197,0.0335278,-0.012898159,0.043502096,0.055798896,0.12035614,-0.033090316,-0.031739835,-0.04552316,0.06350705,0.027733156,-0.09461897,0.1310209,0.023665925,-0.01397464,0.0148514705,0.036451112,-0.052932847,-0.058056187,0.046471428,0.08285987,0.021798858,-0.10358816,0.060051937,0.11021856,0.030507578,0.030980475,0.0660203,-0.06908895,-0.006717874,0.04448954,-0.0034639232,0.06911041,0.03947627,0.07005727,0.005510929,0.020632643,0.13046874,0.03450122,-0.06938954,-0.07252917,-0.0011666213,0.08065753,0.10449946,-0.046729326,0.06266649,-0.07864605,0.16551855,-0.038592424,-0.077427655,-0.018604307,-0.05808928,0.11515206,-0.027832586,0.02421774,0.006502139,0.06650123,0.010788817,0.011284646,-0.030203825,0.08484117,0.12950502,0.076847605,-0.16451885,-0.08659678,0.029581018,0.025554253,-0.004422949,0.07533409,-0.042434666,0.15203452,-0.088186845,-0.06069861,-0.04672511,-0.023301847,0.02459369,0.072897576,0.06178784,-0.065618806,0.018424733,0.06155207,-0.011806369,0.060367115,0.09572586,0.06887104,0.048623223,0.12269092,-0.021023544,-0.014026358,-0.117714524,0.06356236,-0.0019148409,0.025512204,0.17072037,0.054692667,0.043384597,0.08708901,0.10707687,-0.17466436,0.04076719,-0.005406839,0.25176716,0.042978838,-0.12422294,-0.08828199,0.040353626,0.0954493,0.08147521,0.056444705,0.078787416,0.060199708,0.11822693,-0.0038318136,0.11140286,-0.13363321,-0.009907903,0.056364585,-0.020838719,0.040667765,-0.008902891,0.0538242,-0.008858519,-0.050299183,0.014864301,0.04859899,0.15100245,-0.03432632,0.09549489,-0.055611394,0.004733235,0.06215841,0.02601366,-0.05783633,0.016244013,0.12828612,0.05270539,0.07856997}, {-0.069290034,0.08592456,0.08908969,0.0069109965,0.14259973,0.10887738,0.06612638,-0.027000047,0.06665868,0.014980949,0.036727883,0.02034456,0.04223172,0.07913456,-0.05253709,0.020177988,0.010780493,0.06657423,0.06314867,0.04182429,0.050815824,0.16159737,-0.043151256,-0.055635247,-0.12203666,-0.00032473172,0.0630072,0.054730557,-0.011932416,-0.023262892,-0.011963437,-0.009714007,-0.10063565,-0.040840723,0.06793802,0.06372671,-0.09952931,-0.059848852,-0.020301014,-0.009009417,-0.07111213,-0.002175892,-0.004594272,-0.0070408327,0.061244924,-0.036033582,0.14542067,0.09263607,0.060536332,0.110498525,-0.04661658,-0.0017572722,0.059750967,0.02923279,0.007390321,0.08338103,-0.045475878,0.18624938,-0.039384983,0.09607791,0.03978226,-0.017255282,0.022947144,-0.025676161,-0.17796181,-0.02983812,-0.0027116225,0.10162492,0.104173936,-0.10913427,0.023954706,-0.06378935,-0.080350436,0.056593128,0.0464348,0.17203505,0.08564116,-0.114260964,-0.13944034,0.070076324,0.0007806136,0.068517,0.01826992,0.076730095,0.02013823,0.01723806,0.07195133,0.090055145,0.056294106,-0.105346486,0.09151336,0.1234579,0.056604937,-0.015966818,-0.022318864,0.011694102,-0.03176609,-0.023686796,-0.03464985,0.03323847,0.18608801,-0.08628986,0.047374263,0.009542902,0.08849954,-0.018182497,0.009950257,-0.0631055,-0.024914369,-0.012800485,0.081612065,0.0030366634,-0.07847331,0.022813205,-0.048806343,0.07145453,0.037774768,0.015524581,-0.09061692,-0.009709657,0.12263437,-0.09074951,0.009573315,0.06609151,0.08593103,-0.06646975,-0.0051495368,-0.08347619,0.053374298,-0.05117333,-0.053054944,0.14973679,-0.039661266,0.09845319,0.05290998,-0.029599182,-0.07493712,-0.08218324,-0.003828592,0.059853226,0.03633983,-0.17224926,0.058387812,0.099473596,0.050156012,0.0727446,-0.057300802,0.02544181,-0.09824748,0.06919164,-0.12084443,0.06948549,0.058552742,0.14575425,-0.11995031,0.0044676694,0.19212617,-0.009105256,-0.035703138,0.016747126,0.04228953,0.06639823,0.10877861,0.026884867,-0.06920028,-0.08340552,0.0138035845,0.062164348,-0.09899979,-0.16347815,0.05086944,0.0424338,0.045355108,-0.11050023,0.038129993,0.022709146,0.13961415,-0.10349277,0.028127922,-0.0077716922,0.020165,0.07364581,-0.095459394,-0.09638197,0.005434528,-0.06779509,-0.023022875,-0.004518181,-0.015698629,0.07107551,-0.029601488,-0.043641936,-0.010258913,-0.029562749,0.09290096,-0.00309885,0.0658424,0.040465467,0.087956466,0.021769056,0.029133845,0.05288533,0.12721889,0.10330801,0.14140674,0.0848845,0.006065004,0.0014595684,-0.13577129,-0.04110789,0.044569265,0.09560786,0.16437936,0.009489993,0.031074906,0.106108196,-0.008280323,-0.15964632,0.06643413,-0.041062716,0.18680355,0.03325686,-0.057875115,0.025052961,-0.034453444,0.03313513,0.10655734,0.050733447,-0.0050504543,0.0015575958,0.022479184,-0.07304118,0.05756298,-0.017693534,0.122913815,0.0022064855,0.002293606,-0.04725028,0.01054728,-0.048992723,-0.0014235432,0.000643486,0.07208704,0.042695593,0.16845474,0.039357003,0.15251252,-0.087480076,0.06824474,0.045727797,0.014722586,-0.0035428975,0.09724742,0.13645111,0.12804754,0.03919382}}
#define W_LSTM_KERNEL_F_WIDTH 28
#define W_LSTM_KERNEL_F_HEIGHT 256