#pragma once
#define W_LSTM_KERNEL_C {{-0.015089612,-0.0115714,0.12824541,0.065624975,0.066814125,-0.07079942,0.07010366,-0.013565918,0.081199,-0.08913579,0.08345236,0.08262861,-0.019076496,0.0014517074,-0.06400252,0.03811598,-0.084697425,-0.10861235,0.13251303,0.08679378,-0.058242414,0.03459487,0.20037271,-0.013810965,0.12047373,-0.13840018,-0.058471285,0.018966246,-0.053774755,0.07681566,0.07579325,-0.006582775,-0.124257736,0.05615932,0.09235053,0.16512357,-0.048414335,-0.04775481,-0.016758852,0.040879555,-0.009845068,0.14818248,-0.060033955,0.03233648,-0.037131667,0.012592291,-0.17992961,0.055964183,0.12075393,0.085882045,-0.03694525,-0.035011843,-0.0144952955,-0.12629575,-0.1349504,-0.07292569,0.041989934,0.12225693,-0.07514682,-0.05356494,0.017220598,0.08282663,-0.019919947,0.07580666,-0.09068322,-0.035870418,0.11884404,-0.04022479,0.03035942,0.03490926,0.012279667,0.018638033,0.048165563,-0.056202132,0.089213476,-0.078269206,-0.10804832,0.061594628,0.05706583,-0.095515296,0.08449736,-0.02766266,-0.0004521006,-0.0112896925,0.07500775,-0.000193487,-0.09763375,0.03002857,0.030905899,0.1276722,0.024981163,-0.0023697747,-0.0969704,0.043681666,0.02271471,0.0052643595,-0.05815317,-0.06581093,-0.023753451,0.0023934382,0.06646668,0.0013379733,0.08107918,-0.13132912,-0.04998283,-0.10302235,0.03077576,0.058594387,-0.09117918,0.0065092347,-0.10518846,0.09714218,0.025275962,0.05934206,0.122263506,0.1382099,-0.007731473,0.047240924,0.01661502,0.16695623,-0.10920815,0.08851545,-0.01207527,0.062422216,0.006394774,0.06015046,0.08552797,0.008866027,-0.01453709,-0.01843616,0.008388682,0.031136893,-0.0330047,0.04249087,0.031922024,-0.10371649,0.007359686,-0.039843757,-0.099469714,0.13286507,0.095500074,-0.05556019,-0.033754032,0.03189074,-0.032546654,-0.02475953,-0.10134138,-0.068098105,-0.032114338,-0.0039394936,-0.07827634,0.11298594,-0.11098108,-0.006557785,-0.0028534152,0.033845574,-0.10513075,0.071160406,0.053983547,0.061997868,0.104968555,-0.09475993,-0.01760457,-0.10932097,-0.07622021,0.02123273,0.11499417,-0.08546868,-0.035439402,-0.051866546,0.047209214,0.03688058,-0.012025558,0.055570237,-0.024760915,-0.06526564,0.035107892,0.025987722,-0.08341429,0.0035310576,0.10734365,0.015258268,-0.054673117,-0.06832462,0.019202393,-0.04682183,-0.003671317,-0.022431156,-0.03970932,0.109760515,-0.17097329,0.057095226,0.02188209,-0.040508952,-0.025017254,-0.07816392,0.19074428,0.080125496,-0.024444327,0.028196542,0.019355942,-0.032657817,0.07821589,-0.07536513,-0.03967765,0.008759919,0.020153435,-0.11038337,0.018021712,0.08193296,0.054806087,0.00025108055,-0.053945147,0.030114137,-0.044989984,-0.057314776,-0.099067464,-0.015588884,-0.06506585,0.022086471,-0.11873785,-0.0071885544,0.03292284,-0.038920097,0.12066985,-0.0718334,-0.032680023,-0.014563453,-0.057253357,-0.06700711,-0.07561415,-0.0645666,-0.01597412,-0.013083234,0.08539934,-0.010645141,0.0073041054,0.0014161989,0.078540854,-0.072336875,0.086526655,0.02139128,0.06592503,0.13693357,-0.01437834,0.08721475,0.026203508,0.052154385,-0.007063926,-0.0503925,-0.002057236,-0.028397592,-0.013699164,0.003093948,0.038806725,0.10767406}, {-0.07889363,0.057307325,0.15048656,-0.060201168,0.013709026,-0.0273164,-0.010566237,0.06089229,0.09387801,-0.044711087,0.1611186,0.0810877,-0.019226842,0.07262976,-0.019233705,0.0007348039,0.013778782,-0.07292886,0.055210818,0.087126024,0.0018902883,0.045388505,0.27557778,0.01493844,0.1254083,-0.06973272,-0.14669897,0.06340768,-0.08536878,0.028262828,0.0077065,0.10069019,-0.073879294,-0.012045354,-0.008784527,0.13878347,-0.079516195,0.015479267,-0.08837839,0.14644445,0.010848877,0.01854748,-0.08587088,-0.042203255,0.014543369,0.014356583,-0.09456832,0.056083757,-0.020441629,-0.0034969698,0.01854856,-0.032561004,0.020124454,-0.09983664,-0.06961025,-0.0090512475,0.039803375,0.09613264,-0.07197603,-0.086300366,-0.09123027,0.062289376,-0.04522444,0.06748058,0.03782794,-0.06416302,0.05544795,-0.0037381623,0.032798637,-0.0240539,0.003139601,-0.005386682,-0.06771504,-0.11766952,0.08039804,-0.1149438,-0.11604023,0.003740095,0.07423649,-0.1321274,-0.045861684,-0.05442233,0.02832598,-0.11049881,-0.009115335,-0.09233807,0.012566813,0.12756938,0.022972386,0.083109066,0.08156638,0.09362584,-0.06984175,-0.022656731,0.043914646,-0.08900992,-0.042023726,-0.017840598,-0.032621317,0.030106716,0.058162536,-0.044028852,0.06753507,-0.13430466,0.013032989,-0.00022990284,0.021514153,-0.005840202,-0.114068456,-0.005036071,-0.13792764,-0.02277784,0.016986417,0.03261784,0.00014801252,0.032475084,0.03444321,0.06776492,-0.06355288,0.24163388,-0.04735921,0.10186736,-0.008090401,0.007390311,-0.011263958,-0.04205923,0.07586934,0.022208847,0.09006649,0.038506906,-0.035044335,-0.036234953,-0.085382685,-0.020851009,0.012627601,-0.03964346,0.064007886,-0.008100913,-0.052926052,0.04539494,0.067999475,-0.009860024,-0.006117506,-0.092403434,0.03497011,-0.024880663,-0.080742374,-0.08549278,0.08511669,-0.07251952,-0.1487887,0.006935433,-0.040243138,-0.00096660975,-0.081475355,0.0544411,-0.1028024,0.0051739,0.0651636,0.064268924,0.05815201,-0.09203291,0.027069557,0.040838104,0.039607342,-0.033192433,0.09963296,-0.10126827,-0.029281616,-0.060677055,0.018149002,-0.059235997,0.07975309,0.114042476,0.04337356,0.03783752,0.03014325,-0.0380799,-0.12551267,0.15236121,-0.013771836,-0.10039245,-0.08132138,-0.0877928,-0.10942181,-0.041628264,0.06999078,-0.005282192,-0.006668508,0.08007344,-0.16169438,0.011223488,0.028356433,-0.08078245,0.06481181,-0.018714668,0.10192673,0.044919267,-0.031219712,0.047237027,0.0025918838,-0.026609704,0.0026980941,0.03582476,-0.093974486,0.030218061,0.043021854,-0.15216771,0.031968035,0.059500936,-0.09000735,0.08587466,-0.16927649,0.029389903,0.052574363,-0.07277371,-0.06879082,0.07589695,-0.114447184,0.024539335,-0.0632655,-0.080007896,0.087251924,-0.0680416,0.014810947,-0.055390205,-0.03526563,-0.078531,-0.064912096,-0.017678391,-0.14192362,0.04661305,-0.076131366,-0.056169692,0.10553857,0.034277793,0.057435215,0.030567806,0.05636361,-0.03253242,0.10284828,0.035555772,0.013673711,0.14981991,0.043810394,-0.002415055,0.09520924,0.0031737997,0.025205187,-0.030586325,0.07755484,-0.018658027,0.08921706,0.045142245,0.12539235,0.11799858}, {-0.09279222,-0.08365466,0.14775124,0.010044321,0.09511795,-0.08896933,0.022916608,0.007607595,0.027808085,0.028233564,0.14698043,0.13962528,0.01204294,0.113664195,-0.12617235,-0.05922323,-0.10004066,-0.07583675,0.086079486,0.016340973,-0.08068703,0.005952811,0.27854767,0.042353287,0.0340987,-0.12217502,-0.089372106,0.02339617,-0.084883556,0.07036938,-0.06741887,0.008693795,-0.024806555,0.07239782,-0.0088446755,0.15438633,0.02063365,-0.06967067,-0.031617958,0.08273848,-0.025012832,0.10076629,-0.042808425,0.029992629,0.016921349,0.0017971536,-0.09630498,-0.016167099,0.045894243,-0.056268543,-0.039612904,-0.0025578144,0.00867257,-0.120990455,-0.13368316,-0.039310195,0.051523227,0.002368342,0.06286927,-0.080433145,-0.100877345,-0.046649914,-0.036766198,0.04621539,-0.08345086,-0.10288638,0.062449086,0.06177501,0.0026158164,0.015113982,-0.12055631,0.04737923,-0.023059152,-0.046268478,-0.04528068,-0.11725846,-0.12917873,-0.04040047,0.12107752,-0.12400962,-0.036618624,-0.110454656,0.050643463,-0.01154937,0.035665028,-0.06688116,-0.07038898,0.06541682,0.089585654,0.026379999,0.017116796,0.012841651,-0.15991612,-0.05461861,0.006867382,-0.050164185,-0.10711856,-0.08247927,-0.019465927,0.062053632,0.086231865,0.023199655,0.0147896465,-0.13598734,0.059366837,-0.0029520714,0.02732247,0.0581634,-0.022070304,-0.03192886,-0.112613365,0.041643057,0.01939744,-0.020787006,0.113831215,0.08188048,0.0106409965,0.04578042,-0.08130108,0.12508988,-0.099369936,0.083506964,-0.028633423,0.054780934,-0.04427227,-0.0208429,0.07301742,0.06646351,-0.025658473,0.07515511,0.028484058,0.079055585,0.016738769,0.0034220875,-0.028975481,-0.05246934,-0.057305183,-0.10653194,0.012875648,0.09251725,0.13671099,-0.040030926,-0.038814463,0.03667476,-0.074619584,0.009728048,-0.004264477,-0.02352097,0.034627825,-0.07269613,-0.1613848,0.07967504,-0.03180442,0.018046701,0.0011642276,-0.0044834362,-0.14431785,-0.027788991,-0.073241726,-0.016858814,0.095219254,0.027421055,0.02626436,0.02850788,-0.0039198194,-0.088752866,0.021740556,-0.05402121,-0.06387213,-0.033247646,-0.046075244,0.0022721356,-0.014595691,0.09529572,4.3623731e-07,0.041982364,-0.028547624,0.011675436,-0.11278741,0.13675672,0.017744726,-0.059287496,0.061426286,-0.08313798,-0.092762105,0.028957535,0.01008911,-0.03388004,-0.09448657,0.03797503,-0.14086993,0.030136485,-0.04072881,-0.029224215,0.018537123,-0.0063758986,0.18593045,0.08136599,-0.0100595895,0.08084419,0.05438074,-0.047327794,-0.0011100988,-0.055803508,-0.0500996,0.00085052167,-0.03430309,-0.10158165,-0.043707244,-0.0043841163,-0.052572623,0.02952282,-0.016217,0.037353944,-0.06691826,0.05266957,0.009498227,-0.05185222,-0.09362218,0.06612078,-0.09724058,-0.05880049,0.010216509,-0.061466813,0.11676044,0.027595848,0.0045397286,0.041411124,-0.090952694,0.04251315,-0.043765087,-0.012505124,-0.11746046,0.0369779,0.1029256,0.09260004,0.005273962,-0.037079033,0.034679864,0.043169934,0.15137835,-0.023573551,0.088659585,0.12544997,-0.01354485,0.05048901,0.17213973,0.08175254,-0.0457195,-0.005514533,0.013634312,-0.036012743,0.0134603735,0.008223294,0.15644649,0.047342345}, {-0.07998738,-0.029665204,0.087780975,0.017068353,-0.025728637,0.033299975,0.05880735,-0.021380568,0.0017408512,0.017524807,0.099269785,0.10636647,0.015633263,0.08339676,-0.10502825,0.011522248,-0.07457263,-0.041491784,0.028549535,-0.031661104,-0.015218433,-0.0048901644,0.20003074,-0.047770318,0.047959715,0.028092733,-0.087193504,0.029803962,-0.034961756,0.0033101568,0.0661109,0.09696306,0.03137665,-0.0014779507,0.047242347,0.052453283,0.044047106,-0.031859994,-0.107137516,0.072744854,0.06314314,0.12413529,0.041215956,-0.011857453,-0.005608733,-0.05667459,-0.14485227,0.065987475,-0.01130704,-0.0048221876,-0.010048043,0.0060598366,0.066453055,-0.139029,-0.06728037,0.01748686,0.06069535,0.030913003,-0.020408964,-0.03676542,0.02047082,-0.06264181,-0.001927678,0.029998748,-0.05332618,-0.04027803,0.035433777,-0.05833527,0.07472041,0.09202923,-0.036144752,0.040075816,0.01561814,-0.012380831,0.034072086,-0.0774108,0.0052124234,0.06586971,0.090666115,-0.019524904,0.012999528,-0.07781653,0.025890885,-0.07084848,0.055778403,0.027622595,-0.05198783,0.050502326,-0.011637389,0.11229086,0.041330885,-0.051932607,-0.10999048,-0.025989026,0.036690023,-0.122694455,0.03697954,-0.015069379,0.03878714,0.0039159227,0.052492544,-0.006443281,-0.05301493,-0.07935682,0.08613201,0.034935914,-0.0031306834,0.021682033,-0.054032374,-0.011264915,-0.023641717,-0.043217875,0.011868436,-0.06635191,0.061038043,0.065944195,-3.650546e-05,-0.030047871,0.061456516,0.20819029,-0.023601597,0.021487292,-0.05177898,0.019087449,-0.0140400315,0.064128965,0.09792759,-0.030484471,-0.013007116,-0.044189304,-0.074428275,0.0677781,0.02393577,-0.0099393595,0.07538757,-0.03236512,-0.007635271,-0.062569626,-0.0518415,0.071144775,0.1040789,-0.08433928,0.036279954,-0.03199062,0.017807724,-0.032171786,-0.11272681,-0.12553172,0.018986976,-0.05889848,-0.08031009,-0.010350498,-0.015527469,-0.010225433,0.05003534,-0.05955464,-0.10701595,0.025827348,-0.058340266,0.067193255,0.035815533,0.053728063,0.07094064,-0.024628289,0.0034723135,-0.04596791,0.1339727,-0.100029364,-0.031546906,0.117244445,-0.026075969,-0.07077687,0.03896506,0.027576761,0.09418838,-0.05792743,0.0025138624,0.005996983,0.010165535,0.12532306,0.049575172,0.0048196716,-0.08227987,0.0042046383,0.04150606,0.076956086,-0.0007105522,-0.036307007,-0.07730336,0.06100632,-0.1245514,-0.032932546,0.029780695,-0.07177939,0.047997907,-0.00551487,0.06541046,-0.031021295,-0.0064492263,0.015612893,0.000600914,-0.027454024,-0.121689126,0.019569214,-0.07010375,0.057952214,0.02972126,-0.11294703,0.08317049,0.10836254,-0.03205826,0.058342174,-0.13122065,0.09545735,0.0046428354,0.07695061,-0.071139485,0.012895249,-0.020465812,0.034072477,-0.15351592,-0.08214162,0.06387433,-0.050472282,0.03904112,-0.021772297,-0.03552471,-0.08184124,-0.012578528,-0.024933623,-0.06842072,0.061638016,-0.0014904649,0.058745816,0.026215047,-0.049924687,0.115913324,-0.031290136,0.07505098,-0.012852662,0.09214382,0.024271779,0.10967106,0.09479524,-0.086886324,0.08360846,-0.004074822,0.098579325,-0.06631016,-0.02536871,-0.008675593,-0.027299998,0.025976239,0.02381761,0.11655274,0.072777525}, {-0.063985124,0.016605262,0.10948641,0.12039056,-0.0006391986,0.027241012,0.0959141,0.122127496,0.052592978,0.078247696,-0.0096040405,-0.055820543,-0.07427486,0.07153306,-0.07046721,0.04371211,-0.049221672,0.11615893,0.05435619,0.010528517,-0.062274564,0.05640044,0.093115635,0.0648246,-0.017390324,0.137698,-0.086359166,0.049537256,-0.09568252,0.013551939,-0.030074883,0.047405645,-0.06596894,-0.032117326,-0.005137289,-0.042262156,0.023790188,-0.022542924,0.034001198,0.016832048,0.08237728,0.0928688,0.0063349805,-0.07136351,-0.0031885777,-0.026585069,-0.1047843,0.05306666,0.056669913,-0.08671843,-0.072417215,0.002326686,0.022770291,-0.086782835,-0.09545835,0.07042571,0.07718189,0.05350797,-0.0719708,-0.11191542,0.05860743,0.060982868,0.04362416,-0.025185117,0.011746424,-0.040239014,-0.0013043485,-0.10602328,-0.008732465,0.011938634,-0.077880055,-0.049834996,-0.11561126,0.07404966,0.077559106,0.03439896,-0.0030344175,-0.026753606,0.024563488,-0.09230495,0.061621226,0.025513144,-0.10974127,0.0028859726,0.05708634,-0.032032616,-0.06511369,0.021060422,0.09004955,0.0498083,-0.020738795,0.015920136,0.012170446,-0.022970738,-0.006396375,-0.06930251,0.05953006,-0.01952251,0.03134712,0.011882101,0.15253885,-0.10458451,-0.10741208,-0.031645548,-0.058255397,0.020325234,-0.04746643,-0.010376382,-0.014141703,-0.023931498,-0.028985847,-0.0065667,0.08118963,0.031151226,0.013186297,0.11710322,0.013543623,0.049735732,0.040872503,0.028223166,-0.008928093,0.09672268,-0.036764853,0.086107604,-0.051026314,0.031436022,0.11617293,0.0057562613,-0.012793498,-0.042709358,-0.09575944,-0.019192474,-0.09276497,0.042630956,0.086284965,-0.06018861,-0.12485501,-0.0483263,-0.08778949,-0.051814403,-0.04142176,0.02593598,0.049448557,0.013553294,0.055049084,-0.063774884,-0.040226538,-0.03963124,-0.03218816,0.004012191,-0.11117435,0.06739788,0.0488717,0.017741187,-0.037502598,-0.047814716,-0.028391458,0.009241386,0.006688147,0.04182281,0.0913384,0.066928215,-0.092648655,-0.022281645,-0.002747677,-0.077473685,0.03377923,-0.031690337,0.023101844,0.026861027,-0.060697645,-0.034471117,-0.06500689,-0.019171763,-0.0076975874,-0.0045512444,0.007820258,-0.056592934,-0.08875975,0.07934227,0.10279477,-0.10116882,0.026736561,0.03533911,-0.05345351,-0.017547071,0.12351028,-0.031336464,0.04619239,0.05408051,0.031886835,-0.097931355,-0.014500513,0.0034902017,0.0011075321,0.07559803,0.08507104,-0.03586971,-0.053971242,0.01577163,0.07685505,-0.0019206258,-0.110445805,-0.095635824,0.01904008,-0.05949322,0.004232641,-0.08905088,0.081423275,0.038772114,-0.052254308,0.022096077,-0.018784892,0.18124999,-0.09068906,0.08054372,-0.053592946,0.07211949,0.102338284,-0.009969366,-0.012408617,0.020905754,0.08020151,-0.051295087,-0.023146408,0.07899343,0.009088839,-0.10836605,-0.0061169886,-0.065785006,-0.09921838,0.076094426,-0.13250081,0.07013044,-0.00053293206,0.07234107,0.0051010917,-0.181052,0.113294065,0.056286912,-0.0028447434,0.025022544,0.090280645,0.11350388,-0.123705946,0.04274401,0.011242683,0.06749381,-0.04980818,-0.019867077,-0.050450098,-0.0519165,0.058288835,-0.042496737,-0.043369334,0.05312115}, {-0.07618924,0.045979414,-0.037016317,0.17254987,0.10839656,-0.048685025,-0.020837607,0.04964646,-0.037272684,-0.01095094,0.07599302,-0.057163283,-0.01496858,-0.072331615,-0.094751984,0.046685386,0.006408104,0.16427627,0.04119913,-0.0419771,-0.041820306,-0.07533877,0.13432181,-0.060699165,0.032378796,0.1745191,0.07950789,0.015664915,0.024949683,-0.047035437,0.07710986,-0.061413653,0.07075246,0.13187653,0.06307234,-0.023070933,0.0027719773,0.007197624,0.08151162,-0.03745861,-0.006760285,-0.042113043,0.06710287,-0.08547332,0.060891565,0.034829084,0.01451441,-0.07142536,0.009264337,-0.04344492,0.030621612,0.07490934,0.054675296,-0.059717637,-0.06089601,0.089507416,-0.0125150755,-0.022072965,0.00941182,-0.065463394,0.07314023,0.0625096,-0.10051086,0.07355261,-0.013852564,-0.10033445,-0.07967337,0.0019961419,0.0697506,0.04111266,-0.035884485,0.024472963,-0.14860523,0.17174006,0.0376397,0.009779469,-0.10356562,0.013004047,0.106675886,-0.028107116,0.11037775,0.011777129,-0.09097865,-0.053072978,0.010744172,0.043457925,-0.117596045,0.08849284,0.060412522,0.027162898,-0.05891966,-0.087405205,0.058655817,0.06943863,0.05128464,0.029540947,-0.00013175233,-0.022816902,0.060576595,0.046808243,0.016000208,-0.24792203,-0.30173147,-0.104467526,0.04264238,0.08431529,-0.025085837,-0.14111593,-0.050018523,-0.04697431,-0.07003418,-0.020961827,0.0055184155,0.035123605,0.031053992,0.08088988,0.06914238,0.092976846,0.15211996,0.07302571,0.16337599,0.08208215,-0.12864825,0.13242073,0.021567037,0.034506768,-0.055847615,-0.03918997,-0.052882608,0.15803058,-0.064094156,0.0044875448,0.014565525,-0.04612841,-0.037620734,-0.05673103,-0.21611625,-0.027327336,-0.25761068,-0.099222384,-0.10356613,-0.07438239,-0.0055391947,-0.05720708,0.16458894,0.019139135,-0.04162236,-0.005237736,0.053041447,-0.008646969,-0.07204845,0.102878205,0.006759206,0.020315826,0.098984614,-0.067682184,-0.0077459505,0.034990568,-0.038027883,0.004820184,0.0874865,0.10522627,-0.13784927,0.0007090873,-0.13615218,-0.23549914,0.0035080013,-0.023451269,0.07863092,0.25003392,-0.086863175,-0.09350389,-0.080294654,-0.023849119,-0.00039904227,-0.193531,-0.096535996,-0.10087381,0.06769842,0.08479458,0.065574005,-0.087199025,0.038906958,0.0079150405,-0.019700106,0.04689186,0.14637187,0.0046601146,0.08005198,0.037117403,0.024745565,-0.016302573,-0.00694275,-0.023113843,0.071186334,-0.033645242,0.006451121,0.0131235095,0.015369609,-0.13400003,0.023725009,-0.074169904,-0.15979518,-0.012898425,0.1691904,-0.032601897,-0.034637906,-0.054617565,0.044265278,-0.07911664,-0.04141725,-0.07749999,0.061257366,0.15145662,-0.1264391,0.016799359,-0.011598563,-0.059971917,0.1671518,0.022142962,-0.05411143,0.053682525,0.13104254,-0.060588293,-0.0587966,-0.0026906438,0.003175586,-0.048864648,-0.06268803,-0.15577796,-0.0567066,0.0056160227,-0.12887052,0.04561339,-0.073391154,-0.062349826,0.0846734,-0.11185489,-0.075090066,0.085504405,-0.032291505,-0.03945811,-0.056747567,-0.02307853,-0.13150194,0.09516587,0.0003689741,-0.114890695,-0.02138214,0.105171725,-0.03287196,-0.055922333,0.21963973,-0.06488059,-0.13425186,0.050136667}, {0.008236509,-0.05735846,-0.03870991,0.07303022,0.10295218,-0.05030933,0.05892042,0.13929828,-0.062967636,-0.010833885,-0.056976937,-0.042769425,-0.043227736,-0.028115025,-0.053133544,0.055706143,0.13672619,0.18614464,0.17215557,-0.22280188,-0.014257208,0.061894625,0.11250283,-0.09408233,0.00904489,0.20372608,0.10477443,0.010183432,-0.06858326,-0.09051276,-0.069033176,-0.10400702,0.029489757,-0.03545997,0.036722843,-0.10145611,0.030512322,0.010803246,0.048248604,-0.04723674,0.102802075,0.015281129,0.19483978,-0.16247872,0.071561836,0.03224517,-0.07839874,-0.034581482,0.065487295,-0.04980151,0.14641851,0.0929609,0.028130922,0.07027228,-0.021724457,0.18247923,0.027922012,0.09320772,-0.035745826,0.085786,-0.0045357347,0.073050074,-0.074561715,-0.05575347,0.09485693,-0.001940531,0.08560418,-0.029971102,-0.09885744,0.05758287,0.06529258,-0.01938659,-0.0036983471,0.19312955,0.012915492,0.013079842,-0.15222013,-0.10527212,0.036546607,0.05854056,0.100445,0.120926745,-0.09903573,0.027082989,0.057768095,0.08354094,-0.014889607,-0.03225552,0.07948682,-0.024667285,-0.042994335,-0.13752715,-0.036661934,0.03245173,0.06506062,-0.011206329,0.17096768,-0.004813446,0.18306227,-0.04481987,0.026725976,-0.30539477,-0.27596426,-0.046165988,0.03024877,0.07114046,0.00425432,-0.24337175,0.10033211,0.06705188,-0.1073429,0.07066582,-0.017109243,0.04722023,-0.056214947,0.006695576,0.039077304,0.05019244,0.020911416,-0.029584648,0.14995642,0.10537514,-0.06961419,0.13475122,0.038823728,-0.03521116,-0.063558295,-0.08944097,-0.021543011,0.111053646,-0.0028230418,0.0044592144,0.02177716,-0.016072249,-0.05183625,-0.13902427,-0.24235208,0.04897228,-0.21387175,-0.14792305,-0.16647021,0.009977168,0.013726904,-0.02603693,0.09239974,0.038212933,-0.03101687,-0.014536372,0.05218503,0.0907626,0.06413169,0.07760511,0.14635412,0.047738925,0.17382264,-0.14199841,-0.04140449,-0.10699272,0.06501058,0.06477919,-0.028107204,0.08022621,-0.01523575,-0.18335591,-0.03869016,-0.20100065,-0.112778194,0.063262306,0.045102473,0.14635593,-0.15577473,-0.0727564,-0.044615913,-0.032924253,0.056417845,-0.20055197,0.04340724,0.000116618954,0.075234585,0.07300264,-0.064932525,0.07694438,0.008782643,-0.0536895,-0.1269124,0.00692332,0.11968971,-0.114487134,0.031351537,0.12787306,0.13373692,0.03020982,0.017877739,-0.14036551,0.040619615,-0.094479665,-0.07985093,-0.03265145,0.013051578,-0.09606024,0.15745965,0.019183343,-0.0986594,-0.13558483,0.14280549,0.041017197,0.04135225,-0.060122944,0.078686446,-0.047722626,-0.033883058,-0.13497776,0.0074296547,0.14167856,-0.017500808,0.08484197,0.03115524,-0.07653941,0.1529969,-0.12720615,0.11120842,0.15712419,-0.028445397,-0.0038560068,-0.02740292,0.051622573,-0.0022301725,-0.06548579,0.00043084804,-0.16474332,-0.079597555,0.021514725,0.03204265,0.051556688,-0.13460366,-0.008022839,-0.06893574,-0.17550583,0.010867067,0.10113278,0.046971466,-0.013229483,-0.07294123,0.025349129,-0.0870639,0.060978185,0.0043434277,-0.181017,-0.08712663,0.16953072,-0.052926965,-0.06993386,0.20316504,-0.08811718,-0.10278425,-0.0067480374}, {-0.09816056,-0.023221597,-0.12898944,0.09532634,-0.009820197,0.039087974,0.034050286,0.043796647,0.049105134,-0.09144577,-0.045079023,-0.0015939763,-0.03547604,-0.010677692,-0.077016756,0.09239743,0.17272812,0.111993365,0.057798598,-0.15754446,0.08625526,0.02102901,0.054743025,-0.057332885,-0.060927022,0.15129597,0.07297755,0.07565978,-0.014253616,-0.048879255,-0.111077204,0.043231167,0.15779026,0.025103092,-0.026880803,-0.12161784,0.016800763,-0.0531738,0.010276697,0.027833292,0.13247055,0.024481548,0.15819284,-0.064479485,-0.010556603,0.06626815,0.0021425318,-0.0088791745,-0.107098706,-0.039147828,0.16846558,0.19022249,-0.112469405,0.020725023,-0.023845397,0.11624201,0.08373395,-0.10296447,-0.02605614,-0.0018223394,0.103764884,0.040131968,-0.06410351,-0.054416023,0.06759714,0.0021285757,-0.06210398,-0.16198657,-0.12130055,0.020647828,0.015346458,0.02636805,-0.16915442,0.1995779,-0.15538743,0.028499542,-0.08154092,0.009189804,0.026510337,0.15945338,0.07104528,0.022110904,-0.025626088,-0.065518275,0.07649245,0.10738133,-0.07239535,-0.106835894,-0.011397245,-0.16585556,-0.0048913183,-0.15920807,-0.050444975,0.041685034,0.043272287,0.06722207,0.18347311,-0.017580489,0.055113424,0.09723993,-0.08891808,-0.23891681,-0.3263467,0.027542016,0.07911076,0.080031425,-0.039298084,-0.31585023,0.0536233,0.03863474,-0.0012361846,0.04470739,-0.02876246,0.01415478,0.045454543,0.070954174,0.07426151,-0.016941741,0.3074614,0.041495338,0.21980746,0.033230864,-0.07322997,0.10794372,0.10868598,0.026538743,-0.07910974,-0.07156114,-0.090623714,0.13706997,0.07753458,-0.0127794165,0.03467848,-0.050990365,0.05620391,0.029030437,-0.13775367,-0.05246727,-0.23065929,-0.12586668,-0.15546337,0.018210167,0.086778045,-0.13199443,0.1782696,0.10661811,0.09811182,0.072781235,0.05677838,0.022290554,0.14414369,0.07462494,0.18466215,0.07094475,0.07982395,-0.122044116,-0.0064589675,-0.09441389,-0.0229442,-0.02301924,0.06415787,0.23960346,-0.08306922,-0.092045024,-0.022648858,-0.20491035,-0.1006402,0.06176667,0.027039206,0.27851453,-0.18769695,-0.033204958,0.0681062,0.029801216,0.056294728,-0.14224067,-0.09646551,0.03692154,0.03792342,-0.020508356,-0.09217097,-0.018516935,0.05238528,0.018684266,-0.100802705,-0.09285533,0.04278661,-0.06705049,0.05719724,0.068320826,0.2601003,-0.059462264,0.07180629,-0.04313168,0.07119162,0.001452269,-0.09892927,-0.039153147,0.088457085,-0.036730267,0.25420427,-0.1463763,-0.1491158,-0.1263669,0.16042773,0.0048166234,-0.0025114033,0.019054707,0.07188501,-0.049607243,0.031145824,-0.13898495,0.20044793,0.02398112,-0.1026106,0.1571,0.047989782,-0.011675736,0.12994644,-0.07420978,0.0735726,0.05989584,-0.013184259,0.03858485,-0.03525464,0.042999156,0.016472228,-0.009765584,0.07000168,-0.13052309,-0.035352316,0.0893862,-0.007151249,-0.059350375,-0.19315179,-0.021349808,-0.08909556,-0.13385898,-0.020510828,0.06292596,0.08422431,0.058860097,-0.13700095,-0.16553798,-0.16997327,0.090588175,-0.023422934,-0.19684671,-0.09733872,0.09107974,0.06138067,-0.07772819,0.13674386,-0.030426802,-0.16624229,-0.021065315}, {-0.13560823,-0.11327068,-0.18760593,0.23823099,-0.09698268,0.05706636,-0.114172764,0.10655473,0.014969187,-0.13918221,-0.101174645,-0.04323233,0.020567378,-0.14631374,-0.11762849,0.09711448,-0.07540415,0.25848225,0.03034472,-0.043374747,0.07079731,0.023668298,0.07805125,-0.00902038,0.027785363,0.12168057,-0.012111486,-0.011722506,0.035045482,0.055187225,0.0082935905,-0.031249313,0.23986009,0.103445046,-0.02900936,-0.09391492,-0.12307535,-0.09268061,0.051344752,-0.070851676,0.17846449,-0.06649941,0.2306588,0.03131631,0.10916552,0.00718087,-0.030453138,0.007356642,-0.24344413,-0.050975822,0.19518669,0.062443428,-0.0044302763,0.12133904,-0.032905318,0.10479736,-0.013141249,-0.1619768,-0.1461713,-0.06813062,0.0702109,0.15200612,0.063293815,-0.053695723,0.15028298,-0.10692558,-0.0130434735,-0.19562785,-0.051693577,0.012973739,0.05659565,0.007110342,-0.029558377,0.22310711,-0.1916023,0.0015166583,0.017927138,0.045481857,0.07318484,0.0406218,-0.055516645,0.028987698,-0.11838342,-0.0058289077,-0.07221949,0.1777795,-0.023576695,-0.050144058,-0.046460994,-0.20176493,-0.033572298,-0.036303308,0.0009889792,0.022305468,0.15919903,0.017127821,0.26831958,0.0917687,0.06281266,0.021061832,-0.036911815,-0.28368056,-0.3218525,-0.012051626,-0.0638234,0.22497292,-0.0020989876,-0.33969417,0.03079903,-0.113946185,0.081869364,0.028740656,-0.15347175,0.04339674,0.0072450107,-0.10347228,-0.065396555,-0.05650681,0.29771084,0.020721877,0.14891729,0.07511653,-0.08212535,0.013941075,0.020123763,0.13797529,0.07246212,-0.14036623,0.07902072,0.11074062,-0.03255462,-0.03779957,-0.137705,0.03145892,0.14016479,-0.108185105,-0.08027287,-0.06087192,-0.17845038,-0.097296335,-0.11947229,-0.07452201,0.0094981585,-0.08062815,0.16550727,0.10674018,0.16325559,0.09066746,-0.04887893,0.13500524,0.10966147,0.010514282,0.11617701,0.008135323,0.056571215,-0.16695958,0.13531327,0.004987987,-0.038548216,-0.006335706,0.009777996,0.26390722,-0.1870899,-0.017693771,-0.042729214,-0.22563502,0.022986617,0.111753814,0.0807611,0.39537346,-0.15120596,0.04322108,0.007227238,-0.047177233,0.20405239,0.014393613,-0.05548625,0.03249032,0.10899465,-0.061840568,0.011873621,-0.0056689046,-0.09861934,0.056727555,-0.08935828,0.06591627,0.12649001,-0.025091443,-0.0036113826,0.06547025,0.34428746,-0.047258433,0.12822236,-0.032508817,0.05676983,-0.13692681,-0.0086676655,-0.16477591,0.13642319,-0.23693207,0.0792199,-0.12426372,-0.17405306,-0.15023966,0.22485998,0.033453424,0.054016892,0.095463656,0.03694975,-0.20118175,-0.07473931,-0.12170654,0.17309798,0.12345394,0.045066178,0.16292067,0.17969762,-0.024590483,0.06618839,-0.061512686,-0.01470834,-0.00976349,-0.061480276,-0.057072356,0.02283164,0.066871084,-0.04740933,-0.051001035,0.12954924,-0.09289481,0.02153001,-0.06347788,0.06376386,-0.20897052,-0.17443363,-0.051967062,-0.15414998,-0.11157448,0.06013062,0.11625855,0.06929828,0.03179806,-0.09517597,-0.19093093,-0.049943045,0.023739105,-0.07101842,-0.06965077,0.11683002,0.23477055,0.20682953,-0.083528,0.23007378,-0.24218696,-0.1507946,0.019717433}, {-0.1412401,-0.08613197,-0.052116875,0.06439042,-0.03358997,0.06332235,-0.0798913,0.048409317,0.07127199,-0.1347566,-0.1864802,-0.0662763,0.1585859,-0.04178333,-0.16209175,0.051024355,-0.11304845,0.20403941,-0.035167284,0.046737783,0.09343579,0.1182105,0.06367237,0.0682382,-0.008930698,0.21779557,-0.059724554,-0.1026814,0.106779896,0.042410415,0.010576245,-0.19908127,0.33189824,0.1192159,-0.08604556,-0.180336,0.017906515,-0.09456031,0.1748942,-0.050274935,0.14616415,-0.1287887,0.21014968,-0.030789025,0.13914041,0.10584413,-0.006512753,0.08333704,-0.20679079,-0.06473232,0.21159019,0.075805224,0.050676204,0.039436232,0.07007244,0.08297214,-0.058722872,-0.15672502,-0.06405509,-0.025769854,0.1433373,0.103786446,0.08112686,-0.09311125,0.23421267,-0.08877859,-0.05805309,-0.18291797,0.013219517,-0.053606536,0.010111986,-0.07248934,-0.05000217,0.14231054,-0.23015663,-0.013306087,0.06072142,-0.16130759,0.007627796,0.020613244,-0.062497098,0.06344716,-0.07497766,-0.02023581,-0.063437276,0.13061123,-0.011044887,-0.12941085,-0.08088744,-0.11842419,-0.0247045,0.018051645,0.027928839,-0.2589557,0.11464741,0.17998303,0.15137437,0.03241315,0.07581674,0.10552455,-0.1295056,-0.21735848,-0.299642,0.09441635,-0.016820073,0.07512181,-0.086409084,-0.3644803,0.056736376,-0.14141007,-0.022595426,-0.14274861,-0.12499169,0.20285918,0.057632502,-0.04148311,0.063827366,-0.020477802,0.16212013,0.1085876,0.19929297,0.01788178,-0.08393426,0.014486097,-0.08677182,0.1543749,0.011096365,-0.14986643,0.048037786,0.06075921,0.017848862,0.15784785,-0.10996006,-0.0010453132,0.20074001,0.04381306,0.1639207,-0.10411621,-0.20748185,0.062202696,-0.12762836,-0.09568887,-0.09123388,-0.19932199,0.09725042,0.1058554,0.18809503,-0.045212783,-0.08506179,0.057973076,0.026177716,0.1237578,0.086756445,-0.07547911,-0.059363466,-0.08816129,0.032014918,-0.07317082,0.11631601,-0.080782786,0.03616806,0.02777262,-0.117352866,0.027490532,0.0094074765,-0.18878107,-0.10275335,0.16548371,0.068695575,0.3770003,-0.034165546,0.03889769,-0.053703792,0.016908126,0.19947577,0.11603303,0.0054974523,-0.065144666,0.08267844,-0.04052044,0.09581006,-0.13949172,0.027443372,-0.009482027,-0.051525604,0.042303953,0.043920103,-0.123305954,-0.1233047,0.09654792,0.22163552,-0.038380582,0.19859552,-0.05786359,-0.04078887,-0.04189115,0.099026866,-0.17747784,0.15511142,-0.22412895,0.13231783,-0.1132938,-0.053561598,-0.11776465,0.04509354,0.037054315,0.13041426,0.07034061,-0.008231222,-0.119246095,-0.0761346,-0.07466812,0.07280235,0.16098994,0.059193153,0.11534137,0.0581448,0.060184266,-0.024639709,0.0063392953,-0.10141849,0.029660624,-0.081808195,-0.08317079,-0.12304352,0.037085816,0.035453554,-0.17885755,0.088434614,-0.20854324,-0.068378784,-0.06899907,0.0024715508,-0.16306843,-0.063380875,-0.064935446,-0.13774773,0.007131181,0.045769036,0.079264775,-0.08302352,-0.021230424,-0.25685203,-0.30921495,-0.077386655,0.03347897,-0.015707834,-0.02602894,0.18455675,0.17145492,0.31706274,-0.18763202,0.07966114,-0.19327204,-0.110586375,-0.0027449678}, {-0.07492627,-0.0742592,-0.07494853,-0.0012064198,-0.12597372,0.093164474,0.08082445,-0.07090273,0.028850954,-0.052898165,-0.13501345,-0.074989684,0.21999331,-0.13016833,-0.08688595,-0.046516232,-0.26975077,0.1979347,-0.11394083,-0.032502897,0.09648046,0.19746013,0.026222635,0.097714655,0.021769496,0.35486647,-0.0654873,-0.29427734,0.24453332,-0.026771937,0.07987627,-0.14110084,0.41621572,0.104659714,-0.1478147,-0.1859179,0.02481432,-0.119568385,0.21678965,-0.012876352,0.21258944,-0.03068605,0.11044158,-0.09884984,0.0062022693,-0.044830374,0.10297187,0.1958053,-0.22568165,-0.0125445165,0.18000272,0.10894187,-0.083838284,0.12675168,0.06777667,-0.020805193,-0.06729981,-0.14574943,0.14296503,-0.07882669,0.1485707,-0.035743922,0.13134469,-0.060781267,0.12363747,-0.0074935197,-0.052399606,-0.22174242,0.2012277,0.00042153423,0.012890154,0.057421103,-0.016391734,0.15346545,-0.10631383,0.045111936,0.16828063,-0.14133865,-0.018163742,0.12252048,0.022287712,0.09243653,-0.11225992,0.043043677,-0.24684544,0.21482676,0.13358533,-0.15763868,0.04838192,0.07588787,-0.08323531,0.093183994,-0.030762887,-0.25402793,0.1148347,0.18124482,-0.047620688,-0.13878441,-0.048011083,0.039116114,-0.23074405,-0.048888005,-0.027338244,0.050681245,0.09445244,0.030044816,-0.06485905,-0.25459734,-0.024427913,-0.174047,0.06843429,-0.075390466,-0.19503832,0.27430475,-0.049154468,-0.2431872,0.010456446,-0.15784547,0.2383797,-0.1160336,0.26392102,0.023343325,0.051155645,-0.07190492,-0.09525819,0.18278661,0.06371074,0.07513506,-0.13471213,-0.20973463,-0.055785827,0.26396453,-0.05154457,0.04653992,0.09498742,0.11630884,0.025381308,-0.024765117,-0.073433466,0.057105884,-0.06426097,-0.026315153,-0.29576704,-0.19877264,0.1334222,0.17092898,0.11589055,-0.10413342,-0.019794723,0.1345749,-0.026518216,0.17239797,0.149029,-0.0084480345,-0.08151411,-0.17560974,0.15683405,0.058009077,0.11580962,-0.013701669,-0.12336313,0.05794295,-0.049681496,0.155925,-0.16953193,0.112402916,-0.099803284,0.16090617,0.15335841,0.15341134,-0.039404992,0.21870972,-0.024246195,-0.0806314,0.12746099,0.32420295,-0.030829992,-0.034551777,0.11829591,-0.07516375,-0.03870762,-0.08136782,-0.16221817,-0.08990795,-0.06740119,-0.075419195,0.097176574,-0.1299806,-0.1932209,0.00945112,0.15128249,-0.04660978,0.13082735,-0.062479615,-0.0008296209,-0.07495268,0.0103196455,-0.25612423,0.061736684,-0.38002434,0.16472232,-0.1456807,-0.022070684,-0.13850202,-0.12427314,-0.06078864,0.09244373,0.09079947,0.062673114,-0.12206045,-0.19682267,-0.075842924,-0.033829615,0.085841015,0.17720246,0.22672631,-0.006907379,0.0016826564,-0.14805657,0.2035449,0.00032606348,-0.05498544,0.016392102,-0.009115191,0.068321995,-0.16012874,0.017324353,-0.13388911,-0.03804634,-0.1663544,0.011176993,-0.05773596,-0.2483451,-0.10191353,-0.14076252,-0.03928672,-0.141199,0.1347129,0.12480508,0.11624254,-0.027578114,-0.13615696,-0.43010178,-0.38138354,0.102623664,0.18086685,0.031499535,0.088119745,0.107096545,0.24112791,0.33301696,-0.068706356,0.13897717,-0.051941924,-0.09158539,-0.1616761}, {-0.068835974,0.17616384,0.15976721,-0.024052843,-0.16335826,0.10292624,0.016163401,-0.07460106,0.039392807,0.16459943,-0.15079275,-0.024916468,0.14353341,-0.08944834,-0.07163319,-0.06791419,-0.22484806,0.21759915,-0.17800811,-0.09756012,0.06858254,0.23877126,-0.013358427,0.029562747,0.05869231,0.18428256,-0.109651856,-0.2436814,0.28231966,0.118710496,0.055063028,-0.22375077,0.2480617,0.13699777,-0.22865549,-0.06369338,-0.074552186,-0.18706016,0.21025836,-0.042553086,0.17389697,-0.111140825,-0.07768616,-0.06714249,-0.013006293,0.028910382,0.1112625,0.16514234,-0.15761828,-0.062438525,0.083424285,0.07742374,-0.24426097,-0.096264645,-0.028098166,0.007623572,-0.08958127,-0.28322068,0.100760065,0.0014135021,0.079450525,-0.11425235,0.21773955,0.11102459,0.11311553,-0.014626041,0.13196735,-0.22551815,0.21891099,-0.16187723,-0.076558225,0.02380919,-0.074729845,0.04027113,0.085827,0.105011575,0.32199094,-0.12370536,-0.10745139,0.02913598,-0.17078818,0.010774857,0.03116988,-0.14815505,-0.27665845,-0.12283378,0.25805512,-0.20085427,-0.03847073,0.12966193,-0.12509856,0.14659171,-0.051825456,-0.16134183,0.013867704,0.14755455,-0.22460938,-0.23797216,-0.08218125,-0.002666072,-0.24681872,0.24025655,0.015790844,0.10411816,0.081342034,0.012155484,-0.012609244,0.08566415,-0.103332564,-0.2474697,-0.11428219,-0.04289022,-0.06916317,0.30787563,0.07263582,-0.19953078,-0.090559326,-0.10450294,0.22414362,-0.052586954,0.21307652,-0.14449802,-0.0802976,0.01298901,-0.010835004,0.08158558,-0.2370809,0.25692248,-0.22227992,-0.28846958,-0.15699486,0.31477565,-0.119831756,0.23488165,0.046215083,0.28100458,-0.0012537215,0.23021887,0.11995809,0.15426415,0.20283008,-0.075324915,-0.3909042,-0.13418347,0.25033745,0.13640797,0.13950984,-0.13442391,-0.056798976,-0.014432271,0.048435085,0.07775123,-0.10230201,0.1130488,-0.14491756,-0.20019352,0.07819634,-0.0029885175,0.08976934,-0.12901457,-0.175522,-0.15757611,-0.082272746,0.21064667,-0.1417197,0.2502394,-0.15816458,0.09486759,0.18377852,-0.076446354,0.06962007,0.3496821,-0.032542378,0.04802588,0.1714038,0.3665816,-0.05393555,0.1594314,0.14677781,0.0033547303,-0.19262412,-0.08319479,-0.1635305,-0.060917497,0.07571493,-0.16744833,0.020740746,-0.002244871,-0.36354986,-0.082165144,0.18353945,-0.080769695,0.09951657,0.118106976,-0.06387424,0.17144741,-0.104102165,-0.2798107,0.04700773,-0.44628534,0.12083015,-0.11296474,-0.019043611,-0.26593077,-0.063817315,0.12211186,0.24719837,0.02685832,-0.116046526,-0.24210592,-0.20273866,-0.14538838,-0.03568046,-0.012091405,0.2160504,0.31917626,-0.21402691,0.01837129,-0.14288548,0.1301117,-0.07745398,0.09485943,0.10697578,-0.056195155,-0.05727014,-0.2420071,0.084431306,0.05194304,-0.17285135,-0.10220642,0.06867583,-0.05268556,-0.29642716,-0.07225779,-0.14496541,-0.18678902,-0.1678748,0.17600234,0.072967075,0.26832038,-0.095589444,-0.05813092,-0.32279637,-0.15304391,0.18230824,0.15270385,0.21325025,0.10162258,0.19162431,0.23121771,0.23695193,0.12511088,0.19753589,0.13416755,-0.06247625,-0.120751195}, {-0.11070635,0.23793739,0.22386582,-0.10981333,-0.2744925,0.22664924,-0.22776826,-0.1138746,-0.042755313,0.09252023,0.066587836,0.082068115,-0.14563914,-0.074500784,-0.025547983,-0.036952205,-0.25210097,0.03538995,-0.29864442,-0.09098177,0.103590265,0.28882957,0.114404,0.1284226,0.007890282,-0.061773527,-0.20870413,-0.13205275,0.37044933,0.014568867,0.04239594,-0.23520127,-0.0035148563,0.0017461026,-0.11182667,0.038763348,-0.099021725,-0.14839719,0.22636718,-0.093494914,-0.011964962,-0.097791396,-0.1571838,-0.07452024,0.027446805,0.16105305,0.24767919,-0.022583734,-0.05506604,-0.061364662,-0.07701464,-0.054094475,-0.2758446,0.043333266,-0.11614069,0.12261306,0.053221513,-0.24516355,-0.0138378,0.13968182,-0.06435315,-0.016788326,0.16937403,0.2639792,0.11823582,-0.054739863,0.113233745,-0.11928277,-0.030925123,-0.10989039,-0.021125792,0.057485264,0.009111682,-0.03778836,0.032370787,0.089004196,0.30665872,-0.10246698,-0.11424997,-0.0076599903,0.018722517,0.027632099,0.073325425,-0.18654491,-0.2762875,-0.3879243,0.38415056,-0.24063,-0.14531817,0.0220674,-0.08016827,0.28201187,-0.14683028,-0.108947456,-0.21240726,0.087242395,-0.1084164,-0.23366971,-0.068942204,-0.10464726,-0.24556306,0.20490234,-0.04921756,0.15782033,0.047856603,0.010795095,-0.0895388,0.12197063,-0.07483368,-0.18838094,-0.16241294,-0.024368677,0.116629,0.1679967,-0.047217667,-0.19893129,-0.08415897,-0.06981436,0.09580435,-0.07076605,0.056868866,-0.07329092,-0.29001933,-0.08881919,0.07565499,0.09479325,-0.23781773,0.31190223,-0.12947765,-0.29802442,-0.17766584,0.09834382,0.059358526,0.36478552,0.04066307,0.323054,0.12239653,0.1309172,0.030022021,0.13102399,0.13113342,0.053006425,-0.25623402,-0.073055305,0.124776825,0.19898394,0.022599692,0.022225613,0.03747237,-0.1214663,0.110002704,0.033838112,-0.11483355,0.033949934,-0.17545326,-0.036553476,0.19508801,-0.06366997,0.0053668837,-0.187013,-0.35826573,-0.26980346,0.083137386,0.19352269,-0.09240732,0.2555045,-0.09728383,0.025448259,0.27673337,-0.12916581,0.04159526,0.37059292,-0.1372207,-0.01927091,0.053785525,0.28211343,-0.15814099,0.24791013,0.18775558,-0.08303866,-0.17014502,0.04122196,-0.239137,0.026201425,0.19063646,-0.047316324,-0.32431668,0.18337022,-0.3123981,-0.31379494,0.24416439,-0.040327232,-0.060994714,0.08759545,-0.18409695,0.29123634,-0.2209862,-0.35028604,-0.05785809,-0.3583712,-0.06422066,-0.2022922,0.04907857,-0.13367084,0.020561533,-0.032373518,0.2743141,-0.057728067,0.09475194,-0.09708161,-0.11384379,-0.21362244,0.056362245,-0.033926614,0.18759426,0.29381502,-0.30941832,-0.055051513,-0.10824656,0.05764603,0.02254858,0.21019629,-0.032579564,0.005432334,-0.10500401,-0.250829,-0.047613412,0.22773527,-0.13456494,-0.038550057,0.22689524,-0.0365093,-0.101695,-0.083782345,-0.21925189,-0.22764014,-0.13373135,0.28180695,0.035733175,0.2051085,0.019822717,0.12217757,-0.16059512,0.024933383,0.35274324,0.19226244,0.172418,-0.08713877,0.17751586,0.10214475,0.017021744,0.2314835,0.13639352,0.10412402,0.093558334,-0.12348978}, {-0.084198184,-0.14489748,0.12035935,-0.15695778,-0.26445624,0.11347501,-0.4353542,-0.057597592,-0.009079908,-0.062066454,0.12154321,0.08905414,-0.24593636,0.026268827,0.07978916,-0.16684121,0.008213107,0.024441335,-0.28113806,-0.028835302,-0.051224563,0.20236199,-0.033427995,0.12720509,0.118118726,-0.114281185,-0.16290455,0.009996519,0.0686488,-0.17200385,0.05440903,-0.24409895,0.069650866,-0.058026258,0.1052447,0.20554309,-0.030290678,-0.2271857,0.18545684,-0.046372168,0.03962334,-0.21872541,-0.1529156,-0.1640512,-0.009736293,0.07518989,0.18027651,-0.3117868,0.0038761513,-0.09767265,-0.30296463,0.041595764,-0.08661606,-0.036356907,-0.06951427,0.16357188,0.17410658,0.086195126,0.0068023875,0.32250297,-0.053504486,0.029823173,0.08650258,0.08076708,0.08085293,-0.12309828,-0.03452073,-0.13654077,-0.30163708,0.27607375,0.13213037,0.011817269,-0.026813503,-0.1917687,0.19656625,0.021696093,0.17811702,0.16516548,-0.17163026,0.17217258,-0.11103049,-0.053074356,0.14885128,0.20340498,0.2268551,-0.34391755,0.23199762,-0.24568857,-0.02633082,-0.072683886,0.0069673727,0.16568927,-0.097330146,0.2166604,-0.34637904,0.09352889,-0.0046880315,-0.16749388,0.050445702,-0.11176413,-0.20024325,0.15359268,0.07600765,0.28649366,-0.13244624,-0.05770494,-0.20756605,0.11539246,0.089572996,0.10432374,-0.11087751,0.05832051,0.108422816,0.2681314,0.0905181,-0.054651912,-0.038158093,-0.027960835,0.102369376,-0.14349328,0.021330316,-0.09993658,-0.32877427,-0.101160355,0.0006921783,-0.08148059,-0.33087885,-0.018062513,-0.15800337,-0.103774294,-0.08282694,-0.25483003,-0.05255168,0.38111332,-0.053045943,0.1770327,0.036491267,0.1573449,-0.093835846,-0.011767639,0.03148577,-0.019431468,0.1328547,-0.077993706,0.16512017,0.12737612,-0.13812192,0.24208802,0.117643006,-0.18562503,0.2653666,0.026017923,-0.24820234,0.085861005,-0.07536389,0.08616692,0.24586909,0.12551637,-0.17676628,-0.08175162,-0.24821563,-0.24962802,0.0383997,0.04512076,0.0071453797,0.12677,-0.3068266,-0.0055809333,0.1368267,-0.15954497,-0.011516065,0.1781493,-0.15674588,0.021357358,0.05367539,0.057802744,-0.13537411,0.24650629,0.1741239,-0.13352206,-0.0821838,0.11383862,-0.044622857,-0.07402703,-0.0041821105,0.0022284575,-0.4059604,0.28493968,-0.05247749,-0.3119275,0.13848053,0.097732544,-0.17629972,0.095123515,-0.3187278,-0.031536303,-0.10460284,-0.14196979,-0.10285469,-0.29270652,0.10352033,-0.024110468,0.12957083,-0.14408608,0.1799972,0.058477387,0.3328582,-0.20204324,-0.06313337,0.0005753609,-0.0968901,-0.12907366,0.066522166,-0.22906463,0.065424405,0.29059348,-0.1859925,0.08874015,-0.005687343,-0.14135318,0.014984961,0.067389645,-0.02058944,-0.091680735,0.22213887,-0.10620943,-0.018139131,0.37541875,0.31944516,0.20364149,0.31149957,-0.13896705,-0.13517982,-0.17941222,-0.18482584,0.105658606,0.14158365,0.25929838,-0.13257256,0.2208074,-0.057793844,0.10387643,0.13565847,0.17015532,0.38317442,0.14699075,0.11074675,0.061909325,-0.07966265,0.2328229,-0.0904201,0.16255741,-0.08764291,-0.159488,-0.11506084,-0.13317642}, {0.07691575,-0.37093768,-0.16051568,-0.015534608,-0.018768653,-0.046427283,-0.29950547,-0.12270338,0.11717701,0.023521984,-0.022401044,0.025639776,-0.3126131,0.034718595,0.25631657,-0.1992104,0.028591989,0.1205112,-0.059468348,0.07938797,-0.022608107,0.1028894,0.09515644,-0.027552137,-0.028156046,-0.18900001,-0.15265118,-0.12067363,-0.017638752,-0.081206426,0.04600733,-0.056748364,0.035065692,-0.058482163,0.012332449,-0.0079572955,0.15701167,-0.18537822,0.022012167,0.067465775,-0.10206796,-0.12206056,0.0139550995,-0.08638796,0.17245863,-0.090409584,0.01011542,-0.35567796,-0.055993047,-0.049582735,-0.30909526,0.27905574,-0.012191583,-0.0019882105,0.12328227,0.03774056,0.098503806,0.19392376,0.105954684,0.28251928,-0.0027414497,-0.16131547,0.07499265,0.07388154,0.0019872356,-0.067950524,-0.24319789,-0.053921018,-0.44835734,0.2290499,0.07147362,0.07032864,0.14262855,-0.18885353,0.09833069,-0.06574492,0.1196963,0.1095143,-0.32965782,0.27170947,-0.2565043,-0.06055964,-0.018505527,0.4825821,0.20075098,-0.014901487,-0.29376686,-0.07078557,0.19389276,-0.0027695466,0.05146705,-0.17113982,0.25105968,0.19921331,-0.07410444,0.08545762,0.1837441,-0.09739635,0.15602787,0.008716558,0.074810766,0.11680874,0.028418154,0.25863364,-0.20681347,-0.17096052,-0.18521892,-0.017863644,0.2536866,0.08512443,-0.16476354,0.023274627,-0.02418028,0.049816858,0.073391944,0.11482219,-0.09616615,-0.004532886,0.082740106,-0.1517935,-0.08593237,-0.13188376,-0.04047931,-0.077735,-0.18949355,0.03376149,-0.3022981,-0.13227645,-0.10096529,0.07369075,-0.073727034,-0.3525729,0.042443182,0.15490589,-0.028352987,0.14253338,0.0769645,0.09200007,-0.13765104,0.048176933,0.21720342,-0.11404842,0.23182297,-0.04084521,0.013935785,-0.00539571,-0.0035314953,0.108234495,-0.041668214,-0.13884948,0.17921814,-0.10448177,-0.16310138,-0.07126663,0.013494786,-0.06798171,0.17562678,0.31420267,-0.13861595,-0.1320614,-0.11720855,0.0458905,0.08508901,-0.2073954,0.066068776,0.102588594,-0.28243825,-0.030361915,-0.047332775,-0.1137473,-0.25216848,-0.13703333,-0.030556533,-0.045136563,-0.13042241,0.135765,0.036148738,0.031823613,0.082102284,-0.045304134,-0.01912853,0.24566366,-0.07579053,-0.23221123,-0.054194678,0.15241143,-0.17881806,0.16508439,0.36518905,-0.17442557,0.024422731,0.24134488,-0.1767173,0.051757522,-0.30498898,-0.15224889,-0.08302004,0.07267787,-0.19844702,-0.14671938,-0.04407111,-0.00861088,-0.09304218,-0.10783016,0.10021315,0.1342412,-0.014130371,-0.2820115,-0.07459794,-0.100055896,-0.018949432,-0.11196314,0.021562146,-0.18946503,0.009216876,0.17116956,0.08302729,0.14363043,0.1269168,-0.15791714,-0.048839502,-0.13763314,-0.19403328,-0.09697408,0.37470224,0.25532594,0.043052025,0.40019453,0.39374524,0.26954335,0.26939073,-0.30249324,-0.26494706,-0.33274367,-0.10189616,0.10256926,0.08692929,0.077913746,-0.12234046,0.16558206,0.20925151,-0.006749175,0.18743514,0.021038814,-0.002111771,0.06560114,-0.009065419,-0.07083659,-0.26692447,0.2791094,-0.0777246,0.07377443,-0.12209254,-0.31971478,-0.13200472,-0.14681438}, {0.20791903,-0.17861846,-0.12807713,-0.12693985,0.16030915,-0.15136245,0.053791627,-0.20997222,0.109475136,-0.055931926,-0.054041285,-0.12505695,-0.09701826,-0.06263364,0.23458391,0.0012974092,0.081382774,0.031027222,-0.10813235,0.1461504,0.12487408,-0.02801588,0.11281997,-0.2331613,-0.19271576,-0.019233119,-0.047025766,-0.15872455,0.021140767,0.00684482,-0.12329218,0.22415411,0.052105173,0.073803544,-0.10392042,-0.27846584,0.25536776,0.03399207,-0.23916185,0.12884802,0.029480807,-0.04457788,0.12490423,-0.2241507,0.27545196,-0.11026649,-0.05989431,0.17488064,0.09348037,0.05781517,-0.04344204,0.2897115,0.059561837,0.106473275,0.20994303,0.010933614,-0.28296915,0.29872826,0.28244993,0.107320406,0.2573433,-0.21153344,0.14189132,-0.15858087,-0.043560825,-0.09886222,-0.17829788,0.010984374,-0.16794154,-0.061754074,0.21778476,-0.080589965,0.13375966,0.043105382,0.051378816,0.18627617,0.065267146,0.070348985,-0.27645594,0.2478434,-0.23603687,-0.116029695,0.045146763,0.38874602,0.00078528986,0.22942191,-0.3646221,0.028820805,0.16626193,0.13392729,0.06884509,-0.13985132,0.45253673,0.23684186,-0.062145814,0.08878396,0.026461337,0.009785615,0.21640314,0.16671978,0.15665121,0.07508552,0.068804026,0.2869659,-0.106670804,-0.14702144,0.008521539,0.03826045,0.34142303,-0.024454499,-0.027812622,0.14113528,-0.21828301,0.0119954,0.16560616,0.117503665,0.031841096,-0.095819704,0.024375124,-0.020296553,-0.22851264,-0.14134826,0.16962677,-0.12715785,-0.020227322,0.25761217,-0.23631014,-0.13418742,0.15631948,-0.026699815,-0.10799885,-0.1714647,0.026902828,-0.01951192,-0.03380352,0.00999023,0.07013213,0.11665358,-0.03488767,-0.05854515,0.26208603,-0.11641952,0.1828627,0.020500604,0.13107929,-0.09483806,-0.113704726,-0.03397795,-0.1246839,-0.073431455,0.098021865,-0.26528898,0.02392062,-0.08885003,0.10941636,-0.007923101,-0.014988757,0.34106144,0.08564944,-0.24122602,-0.06814885,0.11031106,0.0101562,-0.26105836,0.00011282014,0.11674521,-0.25787592,-0.013614265,-0.18459292,0.008620198,-0.36364412,-0.2159826,0.2750825,-0.17873783,-0.25598568,0.19665913,-0.0034873867,-0.011984739,0.23121548,-0.10906035,0.12954424,0.2350645,-0.2110215,-0.08857246,0.08494146,0.086589456,-0.1477223,-0.014456956,0.37205392,-0.21254796,0.04191976,0.3344342,0.031064445,-0.10151052,-0.16977476,-0.14977324,-0.054350987,0.13642615,-0.2007012,-0.036138885,0.0491061,0.108094074,-0.007771978,-0.20337309,0.07527209,0.007005858,-0.0028359352,-0.31524944,0.06142673,-0.017759321,0.18389983,-0.0798537,0.2015674,-0.031458534,0.011718471,0.058358807,0.30899945,-0.040869676,-0.034707956,-0.075612985,0.116723195,-0.209698,-0.2997214,-0.15528522,0.22079839,0.32794932,0.09934552,0.23117268,0.3574596,0.26234666,0.012564378,-0.42710155,-0.2086872,-0.20516431,0.108398266,0.13686201,0.07452253,0.03166941,-0.039944895,0.013130237,0.24542634,-0.10122134,0.058376826,-0.09746952,-0.18771116,0.13682665,0.035137508,0.023179542,-0.21932355,0.1964203,-0.0659923,-0.046072792,-0.051249098,-0.15471233,-0.18557945,-0.15195766}, {0.30731443,0.21258298,-0.07575304,-0.11377128,0.13326614,-0.24092023,0.25457186,-0.055717286,0.114181705,-0.0057636434,-0.050473668,-0.18657899,-0.04957328,0.06538566,0.13104323,0.32680044,0.038737766,-0.1251232,-0.033089295,0.07136264,0.077322885,0.13779974,0.0039256196,-0.40631476,-0.06847059,-0.14731348,-0.14274482,-0.06318219,0.2690859,0.224585,0.011924511,0.30268943,0.07826757,0.18762034,-0.14857721,-0.18703125,0.10838392,0.116930135,-0.12966968,0.0672818,-0.10748587,-0.115257815,0.071788706,-0.24924304,0.19481584,-0.014685718,0.056805737,0.27268285,0.037777446,0.25558174,-0.037846245,0.16841282,-0.13734517,0.13528012,0.3058416,0.0820628,-0.4404854,0.1270995,0.2986769,0.2351449,0.2452944,-0.2245501,-0.091284074,-0.1385151,-0.11595704,-0.24972288,-0.12752986,0.07225689,0.01682986,-0.20070995,0.18518864,0.0026897106,0.20529646,0.02967202,0.008517294,0.19950914,0.054095943,-0.006765938,-0.14279932,0.23505925,-0.022919431,0.012913371,0.12573469,0.14356178,-0.15731123,0.10200638,-0.10739998,0.09965395,0.19447392,0.17139941,0.061974782,0.098836645,0.45188308,0.12499978,-0.009988376,-0.030435648,-0.045686692,0.17101154,0.19349968,0.12070481,0.074024506,0.11916015,0.09030894,0.043352656,-0.047106117,0.09391587,0.040667504,0.107497565,0.24451642,-0.2204759,0.08302584,0.07779304,-0.10701698,-0.05161555,0.022267198,0.10688655,0.09378018,-0.01136775,-0.052270643,0.032196578,-0.1391956,-0.16790932,0.12670712,-0.0657558,0.09648461,0.13416919,-0.09211765,-0.03318232,0.030528646,-0.062192567,-0.003937169,-0.018263664,-0.0019778418,-0.08480425,-0.004922881,0.09862346,0.05709143,0.18284486,0.08110254,-0.14677003,0.114981115,-0.024188692,0.17154232,0.1820251,0.026890077,-0.11179727,0.024806248,-0.101642765,-0.13873988,-0.07957496,0.021617321,-0.24467452,-0.12042141,-0.11065871,0.07947883,-0.0053654066,-0.03657786,0.14824887,0.18583766,-0.25143906,-0.088048406,0.16833489,0.02409768,-0.063571535,-0.06811113,-0.03167187,-0.099811114,-0.046010356,-0.1835884,0.004762478,-0.17524943,-0.12531765,0.29076165,-0.19948083,-0.23247923,0.108079515,-0.0009804373,0.002535242,0.26739845,-0.17676009,-0.033512697,0.16086175,-0.1427702,-0.04321524,0.28819773,-0.22319062,0.033897016,-0.2387236,0.07104467,-0.1788371,0.044953376,0.1762063,0.19725142,-0.09281306,-0.19479465,-0.09687408,-0.107845746,0.08317079,0.1579444,-0.025973052,-0.020107398,0.1959244,0.049016397,-0.063025326,-0.036208928,0.104677245,0.21142545,-0.35375658,0.08095692,0.031497587,0.24752173,-0.24698009,0.149728,-0.114959955,-0.05939207,-0.08240603,0.17713562,-0.16492315,-0.08770053,0.03452182,0.07332441,-0.19414301,-0.18734719,-0.09617187,-0.053100888,0.17776166,0.17042273,0.05561486,0.17925923,0.18888251,-0.0131443385,-0.33052322,-0.16530263,0.13025132,0.111393146,-0.01661393,-0.11086556,0.059704755,-0.10263376,-0.04231853,0.10920195,-0.029262466,0.044371396,-0.016728526,-0.07106501,0.009336158,0.0005768571,-0.14452498,0.0072510443,0.16918671,-0.050560635,0.19968127,-0.13422045,-0.04877996,-0.13983822,-0.23730369}, {0.21091466,0.18815032,-0.021630587,-0.03309997,0.12312671,-0.13316137,0.2011815,-0.09807617,0.04875614,-0.17541134,-0.09995705,-0.056123406,-0.0634544,0.050254922,0.022865448,0.27894968,-0.002836156,-0.108944565,-0.13231367,-0.040887997,0.06715619,0.07172614,0.031748414,-0.31894833,-0.18291716,-0.07477919,-0.1323173,-0.09410639,0.13742693,0.34458825,-0.01618966,0.17633407,0.019267289,0.17955442,-0.23107333,-0.029000394,0.054713015,0.17464004,0.021999164,-0.006140288,-0.14346537,-0.09834633,0.027854336,-0.30006045,-0.13236864,0.01097024,0.09077951,0.1493324,0.0943059,0.22074819,-0.08870001,0.1515827,-0.038729556,0.30621624,0.3251365,-0.022675728,-0.3560462,-0.055480234,0.16188529,0.11804592,0.057720434,-0.24236172,-0.08384014,-0.11592946,-0.06826574,-0.15179896,-0.14417998,0.039990406,-0.10793551,-0.11742036,0.35063738,-0.1448835,0.15114146,0.057978876,0.06595216,0.3588826,0.1096122,0.11454447,-0.116464786,0.31426635,0.29658234,-0.024641307,0.13772546,0.018785182,-0.09567224,0.11348096,-0.009057284,0.068513125,0.070075415,0.024427716,0.0132193,0.13034941,0.10609389,0.016116286,-0.19975497,-0.068175554,-0.05670008,0.12283557,0.2062486,0.09893937,-0.06424647,-0.0072686747,0.11901078,0.1293418,-0.052107736,0.11174375,0.00778457,0.02135191,0.11166122,-0.023971519,0.1580284,0.16095094,-0.06379143,-0.16468482,-0.16842856,0.052225664,-0.04784946,-0.09210658,0.013878692,0.17548893,-0.12405215,-0.13379034,0.16208051,-0.18314111,0.18167105,-0.024608536,-0.01047912,0.024401018,0.024611168,0.0340606,-0.032492835,0.120047905,0.011202858,-0.10620889,-0.03142509,0.17189205,0.16628404,0.18036836,0.038320377,-0.038022175,0.13981663,0.02073963,0.10133191,0.286124,0.06733572,-0.114938416,-0.03775932,-0.16630025,-0.11228517,0.04804753,-0.0253495,-0.17781109,-0.112163275,-0.13451995,-0.009942709,0.11914086,-0.10348202,-0.07403895,0.18156962,-0.07264371,-0.08315903,0.14168377,0.14838696,-0.17706187,-0.16019821,-0.04190826,-0.004804627,-0.106287725,-0.15704289,0.011369232,-0.0761559,0.0619838,0.19865257,-0.1694421,-0.06335254,0.07432633,-0.056925446,0.16472231,0.24478965,-0.17958425,-0.056994237,0.096542396,-0.2994438,0.21953048,0.29926908,-0.30891275,0.0018528634,-0.048566595,0.1445682,-0.15043133,0.066976614,0.19909483,0.13886695,-0.084388606,0.014824862,0.19270767,-0.027369184,0.06053908,0.2833608,0.015089012,0.0023638662,0.15284486,0.19169624,-0.009254083,-0.1224305,-0.019011471,0.08408824,-0.17820583,0.24682193,0.0689623,0.28335553,-0.20190886,0.2695015,-0.1865205,-0.16505122,-0.1126315,0.05351719,-0.13012463,-0.089218706,0.025701394,0.24208926,-0.21401398,-0.2827357,0.029162293,-0.09708956,-0.063017584,0.10114486,0.014475618,0.14081495,0.25509512,0.12544326,-0.112294614,-0.05421735,0.21569817,-0.007971005,-0.13578366,-0.11589619,0.052464493,-0.03942956,-0.0029017671,-0.019868199,-0.04908931,0.029322172,-0.08584487,-0.18596798,-0.18319525,-0.07177811,-0.062484205,0.1025036,0.2370129,0.043538164,0.23310632,-0.0951908,-0.109139666,-0.07244318,-0.13559191}, {0.19593,0.13861921,-0.107845046,-0.02392931,0.030969448,-0.11269219,-0.06277222,-0.22835803,-0.087357424,-0.06786814,-0.045632232,-0.067575365,-0.045611527,-0.031569462,0.028354056,0.15750383,-0.062973,-0.11510123,-0.08577959,0.07038919,0.044569068,0.056592762,0.073645286,-0.0056289923,-0.0041599087,-0.020461258,-0.020430153,-0.10674913,0.0984295,0.27676058,-0.020434085,0.0027009547,0.07532371,0.17595556,-0.049638033,-0.031388942,-0.02618757,0.19768715,-0.014519261,-0.1316659,-0.13432516,-0.04542125,0.14383301,-0.21909277,-0.24587178,0.13880429,0.06348689,-0.0383316,0.08768584,0.15205802,-0.07499358,0.18571791,-0.045443423,0.24692105,0.115089074,-0.117783524,-0.25082442,0.0045006326,0.1537695,0.102230944,-0.04394644,-0.12355973,-0.13475743,-0.042842526,-0.08010507,0.17792162,-0.06481944,0.0077124927,-0.109304555,0.11189346,0.38016337,-0.13518393,-0.043178957,0.06699271,-0.020501357,0.1491179,-0.02302693,0.059133824,-0.025987087,0.27898553,0.2448894,-0.07859864,0.083674625,0.017849771,-0.12524438,0.01194217,0.09385658,0.038973503,0.039252777,-0.171224,0.006015842,0.13126,0.0032553785,0.018843573,-0.20067118,-0.0490781,0.032938793,0.11564768,0.106805034,-0.022883395,0.018806027,-0.036698557,0.10033877,0.09264098,-0.16107349,-0.021632135,0.035300054,0.052807566,0.02676293,-0.10087415,0.23213848,0.15833366,0.03373958,-0.046116367,-0.069292225,0.052553304,-0.057397287,-0.14399837,0.13640961,0.123512685,-0.04578323,-0.16515177,-0.021525102,-0.19104442,0.19391064,-0.027233373,0.05144261,0.10329647,0.033511534,-0.011794031,-0.087102644,0.074034065,0.13271828,-0.12890883,-0.09847425,0.043928992,0.17420547,0.03018503,0.05275173,-0.045597598,0.0661721,-0.037918504,0.07978726,0.28391445,0.09697649,-0.0968192,-0.05422762,-0.0448439,0.04159925,-0.06508867,0.029600997,-0.23774542,-0.11093735,-0.0864863,0.0051950156,0.18046023,-0.056772918,-0.14767818,0.13983887,-0.11205907,-0.058060642,-0.038862057,-0.101097666,-0.06291482,-0.09170949,0.07800407,0.038081113,-0.098420635,-0.15700419,0.09757791,0.09883564,0.07981715,0.0718988,-0.01637382,0.03658496,0.09032757,-0.047597915,0.079761006,0.18626375,-0.22805172,-0.036727767,-0.09523466,-0.147514,0.14295344,0.288383,-0.2607361,0.04028926,-0.01908508,0.07635499,0.004551778,-0.0014994626,-0.029051173,-0.0825799,-0.10562694,0.01425114,0.20020285,-0.046359476,-0.0034927703,0.31213242,-0.0586738,-0.07542565,0.012236657,0.036628876,0.03371613,-0.0010682511,-0.17139214,0.14015284,-0.07316337,0.16260451,0.14392303,0.25830847,-0.014790611,0.09224606,-0.032644477,-0.0036966428,-0.06374045,0.04775652,-0.1619886,-0.048472818,0.045226533,0.20472392,-0.23254226,-0.20399438,-0.08457558,-0.14792839,-0.020383118,0.02741602,0.02694814,-0.053167205,0.18650734,0.23502137,0.065310664,-0.003890775,0.24736056,-0.04589947,-0.025686823,-0.030806044,-0.058436386,0.06763322,0.044036508,0.04196944,-0.07459929,0.08115885,-0.06936625,-0.08979532,-0.19073728,-0.037337814,-0.025708405,0.17803605,0.19229236,0.015999287,0.007684047,-0.16907364,-0.13974567,0.080320336,-0.08906262}, {-0.011025498,0.06391545,-0.16173495,0.05650695,0.06622247,-0.17505261,-0.076045476,-0.1305515,-0.033207327,-0.05371633,-0.08434516,0.070543356,-0.10656353,0.06909069,0.12825118,0.0075795706,-0.10167003,-0.090692766,0.010774494,0.022103658,0.07273813,-0.087119445,0.20961277,0.14988065,-0.13067552,0.08785344,0.11136155,-0.09711871,0.11987593,0.04955799,-0.030658165,0.10448069,-0.009515534,0.06431937,-0.10939641,-0.07093147,-0.059122402,0.1548642,-0.069109,-0.2173177,-0.08238707,-0.040625576,0.013611222,-0.14496931,-0.14007244,0.26598117,0.06257993,-0.022805043,0.06567581,0.17134441,-0.13320154,-0.13700852,-0.08430637,0.2171582,0.045699146,-0.06380732,-0.09368141,-0.13226396,0.12269149,-0.025992548,-0.12851073,0.05105283,-0.20285912,0.062680714,0.0369029,0.34419832,-0.12793538,0.06680783,-0.044508327,-0.020709535,0.27479017,-0.26027283,0.046925116,0.012498819,-0.03698111,-0.05664083,-0.0026518402,0.060967147,-0.057652608,0.2358853,0.20341071,0.03574254,0.056059845,0.15102354,-0.06365331,0.07701382,0.024091175,-0.004472475,-0.02709506,-0.09238681,0.11591178,0.1616772,-0.10424284,-0.076242566,-0.1318677,0.024764784,0.11596312,0.0061645065,0.00822112,-0.08244901,0.051149428,0.085087776,-0.054457363,0.13640143,0.027019113,0.043627676,0.12707017,0.13998017,-0.106693074,0.04009608,0.27590773,-0.029991174,-0.027508078,-0.0424226,-0.19513635,0.006098991,-0.10472197,-0.053248696,0.12933028,0.10485401,-0.14339823,-0.21910703,0.038555786,-0.084225036,0.101282164,-0.12540989,-0.03077563,0.15554631,0.02592795,0.014226951,-0.17678706,0.1602567,0.01608772,-0.14691426,-0.12486849,0.030481944,0.0807253,0.014663048,0.0017750778,-0.24318115,0.05404225,-0.0026701535,0.021050699,0.12603924,-0.053120125,-0.08332694,-0.04397129,0.036652986,0.0683413,0.102864325,0.15146308,-0.10890716,-0.0077547766,-0.05224992,-0.07271883,0.17092937,0.106658116,-0.041164,0.11352241,-0.14303702,-0.15460433,0.09521125,-0.10212337,-0.021524733,0.03192992,0.11221978,-0.03963728,-0.05906603,-0.13455638,-0.023778504,0.10188377,0.052192256,0.09815021,0.054450933,0.10083266,0.027117621,-0.032766618,0.005426776,0.07660287,-0.16402057,0.09655123,-0.11338367,-0.106323965,0.15394497,0.16407637,-0.24871963,-0.15585838,-0.08163378,0.06654108,-0.09982645,0.03685704,-0.093649216,0.0067339814,0.056535613,0.06902187,0.06557265,-0.08957088,-0.016333317,0.22864965,-0.06891774,-0.06556406,0.038377013,0.12732354,0.0031318897,0.13685985,-0.26114565,0.031477924,0.07694541,-0.039700326,0.18836026,0.19903117,0.05482456,-0.03243524,-0.037596554,-0.032661725,-0.038643204,-0.0024911114,-0.015138699,-0.029733373,-0.020431256,0.2670554,-0.18196988,-0.13971205,-0.13667014,-0.2215111,0.001419849,0.021974273,0.024088869,-0.08297605,0.12434948,0.16272286,0.18321623,0.05968205,0.1903935,-0.0013479748,0.003286571,-0.0433618,-0.09826022,0.16828936,-0.13601378,0.040788632,0.05851402,0.13730355,-0.07764711,-0.09540279,-0.18717977,-0.15973106,0.06915439,0.0952671,0.14465782,0.041719798,0.050042816,-0.19344391,-0.051160503,0.071871035,-0.019673605}, {-0.017523682,-0.025276354,-0.14460707,0.0074864416,-0.047518566,-0.1422157,-0.11734018,-0.05172467,-0.047121998,-0.16609183,0.027423797,0.008943717,0.039343473,0.0505446,0.21748586,-0.10978798,-0.02056398,-0.12078326,-0.005450596,-0.047054294,0.100153156,-0.2279382,0.18307784,0.15207705,-0.12633473,-0.003901251,0.23733518,-0.044926167,-0.006707587,-0.046066962,0.06830189,0.049807515,-0.0019664592,0.0328808,-0.0929916,0.06366674,-0.016595062,0.08289576,-0.071030386,-0.25778526,-0.086815685,0.013800293,0.021386055,0.034756258,-0.1627515,0.1902534,0.14289048,-0.059782088,0.106708355,0.045019884,-0.0376874,-0.047508895,-0.06456783,0.10660463,0.10505197,0.050064906,-0.064873144,-0.036348615,0.020127784,-0.09404046,-0.1394974,-0.07601846,0.0707088,0.08609361,0.03175024,0.32597855,-0.0785136,0.06151928,0.025949774,-0.0062314915,0.0909135,-0.057334237,-0.10396513,0.0006027535,0.03842958,-0.1121094,-0.030614607,0.12398264,-0.045922108,0.22656733,0.17257507,-0.024040958,-0.010863669,0.07094657,0.015590097,0.10617247,0.062961966,-0.0616506,0.04174703,-0.16000381,0.03282409,0.08516062,-0.005558436,-0.114652865,-0.043368995,0.08672294,0.036197606,-0.055819023,-0.25209534,-0.0611842,0.03563901,0.029896753,0.036566656,0.14259504,-0.07102739,0.0851695,0.10754356,0.024013732,-0.0254946,-0.007361141,0.19629979,-0.16187415,0.118028566,-0.09961771,-0.2142174,-0.081993066,-0.1405867,0.030278537,0.1361881,0.028036984,-0.13396183,-0.074983425,-0.10421538,-0.1925037,-0.00908016,-0.10671576,0.012119114,0.12050251,0.081727095,-0.10700692,-0.23182277,0.016312385,0.043990124,-0.07135743,-0.121332794,0.007173965,0.034583274,0.15903573,-0.08249889,-0.10400767,0.087770306,-0.097680494,-0.03736964,0.17359757,-0.26853913,-0.027239244,-0.08514855,-0.08113222,0.13614048,0.120434694,0.104336046,-0.19703236,-0.062240858,-0.06771258,0.08086312,0.09732648,0.1787233,-0.07753776,0.028558625,0.039169688,-0.12926285,0.008982109,-0.0036738636,0.090069994,-0.013897349,-0.020216458,0.09530522,-0.018696824,-0.14283545,0.056337867,0.1313565,-0.043295316,0.041812904,0.040192477,-0.09049617,0.121901855,0.053688154,-0.06940949,-0.04549576,-0.10829581,0.054318037,-0.17270689,-0.039749414,0.041625537,0.084970504,-0.00778467,-0.1111196,0.017017975,-0.03935207,-0.08149238,0.025085371,-0.05364179,0.04587765,0.15347214,-0.02014105,0.13810025,-0.14533627,0.07159736,0.11462196,0.12716618,0.0025890598,0.10900925,0.034179304,0.056679964,0.054709356,-0.30962405,-0.08748113,0.12533723,-0.023114279,0.057886988,0.0603854,0.07975338,0.047062546,-0.043695852,-0.057705082,0.007797432,-0.0410421,-0.062001366,-0.051053956,0.015355951,0.19509566,-0.074570276,-0.11584624,-0.07358482,-0.17733729,-0.0992463,-0.10462233,0.07691842,-0.0907549,0.061169494,0.15190041,0.09851764,0.070817724,0.0944055,0.056262188,-0.032194264,0.119960025,-0.05536492,0.20514385,-0.21636125,-0.070599124,-0.07049147,0.058134392,0.06887777,0.00089769287,-0.18983458,-0.23835142,0.019259818,-0.031350177,0.1484941,-0.021198329,0.017819699,-0.19873266,0.037509028,0.031569153,-0.025691928}, {-0.022307944,-0.09743924,-0.07870352,-0.07948902,-0.008299003,-0.16758348,-0.13289851,-0.056436602,-0.03983939,-0.18796045,0.0020335587,-0.0031238133,0.050801773,0.074734695,0.06949301,-0.09643169,0.05136882,-0.08369462,-0.0055704876,-0.048474777,0.11181643,-0.25876662,-0.05117179,0.05788034,-0.13124752,0.0026383183,0.23649545,-0.037400994,-0.07186687,-0.07222943,0.07034166,-0.007911794,-0.01785594,0.008352385,-0.0733816,-0.033309113,0.039760612,0.14071487,-0.02212122,-0.14514662,-0.0524012,0.07289664,0.098569974,-0.025200339,-0.123615816,0.1641528,0.164566,-0.1393945,0.03964277,0.14350834,-0.085561015,-0.094329014,-0.09806927,0.030491676,0.07532478,0.09301746,0.012294895,-0.016852386,0.082425915,-0.10277868,-0.13422501,-0.05203822,0.11906224,-0.018206196,-0.054998126,0.27745387,-0.10198079,0.08542979,-0.06268337,-0.059197087,-0.04329625,0.0006659967,-0.04015062,-0.082467526,-0.10254975,-0.002724613,-0.08547269,-0.047009673,0.031337146,0.073397405,0.089158654,0.041052796,-0.082897075,0.18065663,-0.028978968,0.13096987,-0.07834879,-0.094963424,-0.009746954,0.006404637,0.089816876,0.010710813,0.056302246,-0.078806944,0.020571016,0.09097138,0.00010112957,0.07053151,-0.2849633,0.03494956,-0.07817652,-0.054965075,0.06333307,0.06008187,-0.06557832,0.09473433,0.01065352,0.030878536,-0.10913893,-0.00788519,0.19712758,-0.17193863,0.06080595,-0.05631444,-0.10499254,-0.007847895,-0.15669087,-0.0356505,0.17259687,-0.015709745,-0.14489584,-0.10684666,-0.24789421,-0.05726308,0.04312051,-0.11621015,-0.019165607,0.10949068,0.03122868,-0.011689391,-0.06036019,-0.08660596,0.15695657,-0.08769322,-0.1096956,0.09369719,0.059237577,0.14144683,-0.08378912,-0.083947204,0.07104665,-0.06104398,0.010675505,0.11089269,-0.24648824,-0.059589524,-0.041678786,-0.098016955,0.024884831,0.13445237,0.067610204,-0.07299654,0.033929102,-0.059661336,0.009370395,0.16714427,0.104825586,0.07239474,0.055094685,0.04014619,-0.14404333,0.046782978,0.0755156,-0.053692505,0.067512825,-0.03268933,0.10313735,-0.07834436,-0.12560894,0.09703161,-0.02124245,-0.042866558,0.059602734,0.04399136,-0.06370844,0.05826684,0.06997486,-0.07745698,-0.14011796,0.039236385,-0.056379113,-0.14777842,0.08322638,0.12867475,0.08926227,0.053341627,-0.11719424,-0.017925559,-0.059949365,-0.04996659,0.09370868,-0.027417822,-0.054039437,0.14091013,0.0065861926,0.012568747,-0.07787762,0.12409971,0.0212617,0.005364038,-0.059456527,0.19479121,0.04761357,-0.04296823,-0.014286757,-0.07273789,-0.11039354,0.030895233,-0.14809187,-0.0027774547,-0.013217832,0.06203923,-0.09382489,-0.062222198,-0.0021307964,-0.060707755,-0.0030679314,0.023644246,-0.14188923,0.06781849,0.06378659,0.06345582,-0.04654849,-0.038974874,-0.04239219,-0.04549047,-0.054984327,-0.014525559,-0.104675956,0.029499112,-0.0053186333,0.1281312,-0.039027113,0.10575177,0.080629446,-0.05556058,0.035956196,-0.055451248,0.079868644,-0.15495087,-0.0900577,0.016112402,0.11356651,0.04991643,0.007313299,-0.14331052,-0.16685364,-0.04007556,-0.03932587,0.009610214,0.03823037,0.07592695,-0.1384523,0.04156272,-0.03753193,-0.07697291}, {-0.08078596,0.035443842,-0.007549355,-0.058327008,-0.09816921,-0.08708249,-0.06407493,-0.020184325,0.072339185,-0.04263368,-0.052891485,-0.12312089,0.073602386,-0.09273609,0.113052785,-0.06418697,0.0068140426,-0.12617224,-0.049939234,0.033889677,-0.009727175,-0.24094817,-0.066824496,0.055802863,-0.10280026,-0.03876431,0.2516662,-0.013277504,-0.08685933,-0.09939139,0.08293168,-0.026751993,-0.04961677,0.14667292,-0.1456649,-0.0081066815,-0.09632728,0.15712246,-0.08873026,-0.0122841075,-0.10900229,-0.096457586,-0.023405103,-0.0033898037,-0.093624465,0.032882746,0.22382833,-0.075241834,0.082410805,0.079298414,-0.12095624,-0.018150086,-0.10872594,0.079800196,0.010497725,0.08238887,0.028071111,-0.057117254,-0.04765298,0.041269645,-0.1512879,-0.03852838,0.077483594,-0.107053936,0.031416625,0.27214152,-0.036768954,0.04561903,0.010192126,-0.13644692,-0.08472692,0.11556866,-0.12932459,-0.0073734373,0.004426255,0.027227266,-0.072457016,0.013450154,0.05720583,0.0322623,0.05284114,-0.1015908,0.036599725,0.021297257,-0.092226304,0.05215909,-0.09107649,-0.05295926,-0.12625206,-0.0077369935,-0.01446126,0.0321971,0.16516104,-0.102639414,-0.01753332,-0.055743683,-0.03702089,0.061873335,-0.33248135,-0.016585404,-0.07281643,0.06468101,0.07964785,0.019444063,0.040678814,-0.086789034,-0.005241463,-0.089357376,0.011924114,-0.13719353,0.1830021,-0.10193652,-0.025941275,-0.032837886,-0.07013897,0.05781738,-0.005506143,0.01158623,0.07339549,-0.025442222,-0.049512252,-0.04632171,-0.06915771,-0.123634614,0.10722426,-0.13583851,-0.046718683,0.16201341,-0.007368328,-0.1301856,-0.111777365,-0.03596001,0.11143988,-0.051033486,-0.06217996,0.099488445,0.028268784,0.21667503,0.024395512,-0.06630729,0.049229726,-0.025034908,-0.01283373,0.07459086,-0.17562751,0.043045968,0.030006647,-0.13741982,0.05237246,-0.022339502,0.04395799,-0.08557307,0.0012589059,0.004905132,-0.023049677,-0.042462207,0.10245527,-0.02398367,-0.07826535,0.057433445,-0.18702182,-0.018157177,0.16585962,0.0983913,-0.018955685,-0.018591747,0.07945365,-0.05100884,-0.14431874,0.08341012,0.09969279,-0.12904349,-0.0069015143,0.00024895545,0.002342437,0.15906823,0.08033453,-0.09640979,-0.05059601,0.029952422,0.049896665,-0.07253024,0.03745084,0.0911652,0.11399032,0.059370574,-0.1297145,-0.029260041,-0.05563543,-0.08669292,0.10481699,-0.094469324,-0.026344718,0.07625082,-0.04345908,-0.022978047,-0.17705761,0.12329384,-0.091984145,0.024906173,0.016342262,0.16879262,0.04262705,-0.016529327,-0.10345758,0.019985199,-0.130401,-0.009832143,0.0028306262,0.011247245,0.056897793,0.07397773,-0.077718474,-0.045100227,0.08998433,0.023049107,-0.10885757,0.088029414,0.010546347,-0.006781259,-0.007156588,0.118058786,0.007736828,0.08545146,-0.063502856,0.06988765,-0.08497318,0.003518884,-0.12181533,0.004490343,0.0014118591,0.06943462,0.024332127,0.14321883,0.04026202,-0.038574312,0.18426725,-0.029374015,-0.016053835,-0.06255692,-0.1392795,-0.034178954,0.083596796,-0.036587037,-0.014424064,-0.15044425,-0.15145555,0.09561661,0.014023925,0.09042232,-0.009471955,0.085318446,-0.1155979,0.018762045,-0.10942336,0.00024357761}, {0.07339414,0.0028270732,-0.056587424,-0.036485285,-0.15345979,0.013726162,-0.023544502,0.006151798,0.005522891,-0.044981495,-0.082676835,-0.014899171,0.08263148,0.024233652,0.08760022,-0.049884208,-0.024939451,-0.11300211,-0.040503256,0.02494147,0.07646437,-0.18320538,-0.12196805,0.04927822,-0.032838438,-0.03559497,0.30636325,0.04698061,-0.109552,-0.036767736,0.052670415,-0.028520126,-0.024355927,0.028434651,-0.079248495,-0.08305098,-0.07934685,0.028315883,-0.14623207,0.050066076,-0.11054645,-0.02552649,-0.06822893,-0.033106633,-0.09421325,0.019662378,0.09435842,-0.14540388,0.0051206755,0.026296338,-0.13184792,-0.046941377,-0.09143168,-0.038786236,0.06708704,-0.010476946,0.09959052,0.08011449,0.013626026,-0.0922851,-0.0011206082,0.043427628,0.034498267,-0.10857649,-0.01712839,0.22823086,0.12304155,0.04296427,0.11411162,-0.0069753816,-0.12178588,0.14018083,-0.0611369,-0.01695921,-0.07286485,-0.06650345,-0.07251895,-0.074790604,0.0847931,0.038153037,0.06392579,-0.00850344,0.07329369,-0.028858218,-0.0172428,-0.024577428,-0.17801178,-0.10963854,-0.14003973,-0.0031152917,0.046636775,0.06616765,0.082251675,-0.17250974,-0.052648526,0.006720726,0.062464528,0.03984808,-0.14105122,0.0025152636,0.03300401,-0.055106115,0.09519848,0.0100818565,-0.00084620644,0.008447976,0.032104574,-0.04630012,-0.12059226,-0.110210456,0.041541874,-0.11887236,0.10987636,-0.04329584,-0.0003251273,-0.03625188,0.023915883,-0.01706733,0.022588525,0.024876393,-0.1111186,0.10436693,-0.10580715,-0.12452546,-0.07389473,-0.120047055,-0.01144015,0.12850404,-0.11234186,-0.0056565404,-0.031431284,0.054763444,0.062234838,-0.14396155,-0.1286961,-0.036243156,0.15455867,0.16945562,0.14462678,-0.088643655,0.04469124,0.05531561,-0.04369248,-0.07213627,-0.17778552,-0.020558054,0.09643182,-0.114795655,-0.009702766,-0.048200253,0.049585722,-0.025492199,0.06929667,-0.06415737,-0.13017008,-0.05180955,-0.003038368,0.08383402,-0.04128295,0.06644542,-0.1017463,0.034630887,0.05698278,0.10605062,0.032775067,-0.008071615,0.025804214,-0.00032114462,0.044646274,-0.011020058,0.100515805,-0.12992087,-0.0004854168,0.08301745,0.1417665,0.18031998,0.02842766,-0.1019604,-0.027846226,-0.010069096,0.1230012,-0.00729556,-0.017075595,0.090931304,0.062219143,0.2262038,-0.08655951,0.03798564,-0.108558096,0.01916871,0.059910823,-0.06482396,-0.073206455,0.11561797,-0.067502744,0.021779241,-0.084513456,0.025102464,-0.14374535,0.10460439,-0.08403528,0.0451025,0.06920137,-0.14266631,-0.08660242,0.15818699,-0.08469796,-0.061354324,-0.10018818,0.041197225,0.060369678,0.08928151,-0.10041733,-0.041418716,-0.010237228,-0.062311362,-0.060683463,0.014830707,0.013242702,0.14862281,-0.0621781,0.04641445,0.005515735,0.09237758,0.062354174,0.13011377,-0.18464094,-0.02746396,-0.077543706,0.03158581,0.086648956,0.15435539,0.023494558,0.15353855,0.17684463,-0.03824235,0.16327232,-0.046614803,0.019829279,-0.14565833,-0.14817306,-0.0048557487,0.017005103,0.09240646,0.07902351,-0.050693292,-0.10555809,0.0845297,0.0029822057,0.034629397,-0.0821758,0.102605134,-0.073460475,0.109273866,0.014773063,0.047955755}, {0.09752039,0.062608115,0.0066531524,-0.017412521,0.01815279,0.009928229,-0.06836859,0.08739453,0.050860237,-0.15252998,0.05346129,-0.02706533,0.04361465,-0.10275759,-0.038566962,0.029186035,0.06963773,-0.019861331,-0.09249901,0.08829808,-0.050065216,-0.0701167,0.008622007,0.078766346,0.009438496,-0.040025156,0.21622443,-0.0098265875,-0.15593728,0.04501614,0.06945361,0.03281396,-0.07507402,0.034365986,-0.034348574,0.06771245,-0.075406596,-0.046369206,-0.12145248,0.10123805,-0.08416133,0.003627612,0.052407455,-0.07932537,0.024654182,0.008296794,-0.074439324,-0.023417098,-0.044723265,-0.0024152617,-0.058231726,-0.068822205,-0.08420305,-0.030867498,-0.11488147,0.05970959,0.07514772,0.0026434101,-0.074005775,-0.078059815,-0.056222208,0.05217189,-0.030997766,-0.039310016,0.059099544,0.07770488,0.1110508,0.05451552,0.09665556,-0.074427046,-0.060772922,0.02651284,-0.12929046,-0.10323328,-0.050568216,-0.01042472,-0.060558196,0.06352025,0.051555328,-0.016861364,0.03344373,-0.0033628736,-0.0014078289,0.061913986,-0.03206236,-0.061797325,-0.021078397,-0.068078965,-0.0140380245,0.099179484,-0.017371671,-0.052095003,-0.0340184,-0.15378657,-0.011172259,-0.024521412,0.012198146,-0.078594394,-0.09291946,-0.05864214,0.02557076,-0.061451018,0.08488219,-0.04346592,0.048149686,-0.09169582,0.07799457,0.018813645,-0.114704534,-0.10925008,-0.05925397,-0.11947214,0.09774004,-0.07031119,-0.0401448,0.0022761722,0.041680977,0.12456721,-0.053856287,0.1519003,0.024232484,0.0004490679,-0.029137393,-0.08310708,-0.025846343,-0.033659864,0.07595382,0.15782969,-0.108854264,0.07680917,0.046177384,-0.03434608,0.068597466,0.005376732,-0.099751584,-0.08681556,0.028219013,-0.0021566849,-0.00509845,-0.07392749,-0.0018021662,-0.025351373,0.02067155,0.05248826,-0.18364854,0.056921367,-0.012369137,-0.12226315,-0.030729914,-0.032315325,-0.036627688,0.026213486,0.042396538,-0.004199387,-0.09246316,0.033463348,-0.001977053,0.0051100687,0.059826132,0.010583666,-0.022797817,-0.07968244,0.15078983,0.099428475,-0.012946272,-0.058100697,0.1176765,-0.10597485,-0.00997505,-0.049718488,0.026548859,-0.07962048,0.026922973,0.05064077,0.18029703,0.10379535,0.08146372,-0.044963133,-0.07913318,0.0036252632,0.04673654,-0.06632456,0.027484603,-0.05194828,-0.020422373,0.16809626,0.04519792,-0.008095101,-0.008622811,0.025507402,0.031280924,-0.029010596,-0.024476612,0.100221656,0.06593551,0.029661195,-0.060757212,0.16038112,-0.08608298,0.12383193,-0.061693806,0.04697221,0.003681423,-0.12278274,-0.0039930907,0.14095624,-0.041266132,-0.06270136,0.06277476,0.046667043,0.022458633,0.15265939,-0.053428587,0.019786412,0.09233571,0.002697221,0.010197047,0.032214053,-0.02413334,0.1407893,-0.07689333,0.10703691,0.081141695,-0.035630323,-0.044956505,0.12778927,-0.13960248,0.002696034,-0.030848552,-0.042450808,-0.055882785,-0.007762001,-0.01654863,0.11791985,0.14527579,-0.011406138,0.102143556,-0.061839074,-0.08801543,-0.09516992,-0.092855744,-0.033900097,0.018465212,0.053290688,-0.03350349,0.00092367077,-0.035872556,0.06831177,-0.07256155,0.03622096,-0.045343954,0.0112432195,-0.10526415,0.0149075715,0.017674288,0.110021755}, {0.07664072,0.0061252075,0.17428872,-0.0032236462,-0.049418874,0.01137889,-0.028410725,-0.04222246,0.09819594,-0.037019715,0.022364782,0.0050027324,-0.035731513,0.014461685,-0.12322803,0.05252575,-0.05761506,-0.011562692,-0.029105566,-0.011533427,-0.002842414,-0.02139486,0.14355202,-0.043645266,0.029587898,-0.13325968,0.025674244,0.011656001,-0.1305748,0.09170228,-0.0009638355,0.11570151,-0.040436715,0.06114448,0.08271873,0.0914215,-0.031032732,-0.02572964,-0.04093893,0.13788253,-0.043313153,0.07307707,-0.07530941,-0.06276081,0.064719655,-0.08134603,-0.013989576,0.0052170577,0.017351283,0.007333808,-0.102294415,-0.102958016,-0.053391583,-0.0031834736,-0.068047345,0.048204556,-0.02862352,-0.013845379,0.017063659,-0.07394748,-0.07419445,0.00716815,0.025643086,0.009662632,-0.039289173,-0.09424981,0.07111416,0.08187781,0.110492,0.012794058,-0.123949185,0.01303381,-0.0693495,-0.089347325,0.064714655,-0.057311323,-0.023618251,0.0148780085,0.107697316,-0.09751175,-0.00064596126,-0.02812371,-0.027516983,0.0034762437,0.055473544,-0.10032473,-0.050539352,0.11212077,-0.044082627,0.13348842,0.022344042,-0.030878384,0.017803837,0.02122113,0.071470976,-0.04647258,-0.012483232,-0.106246054,0.055049576,0.03667696,0.09241567,-0.011863724,-0.0052817604,-0.06563032,0.09706316,-0.12750056,-0.03308319,0.07336763,-0.07178306,-0.049277313,-0.08031035,0.00029076368,0.023646917,0.0067157075,-0.0036779814,-0.0037218044,0.03920205,-0.004461248,-0.06811483,0.09588574,-0.07849011,0.10719404,-0.016366525,0.008447346,-0.05736475,-0.10330514,0.103707835,0.07768518,-0.03046397,0.03365537,0.021634495,0.03854242,0.0006263687,0.033385254,0.08656248,-0.067616895,-0.012164987,0.00653239,-0.016368223,0.01980362,0.07096345,-0.022943366,0.023806961,-0.08034813,-0.08139894,0.059328903,-0.096137956,-0.06792601,0.084013395,-0.089836985,-0.099595435,0.10676823,-0.009990705,-0.0135921985,-0.09840149,-0.017402373,-0.10771318,0.043661013,-0.021304497,0.13002694,0.09608002,-0.11401525,0.029238071,0.03916432,0.007643539,0.005137021,0.089632764,-0.04471696,0.05101433,-0.071220726,-0.059594136,-0.053097077,0.07462592,0.0124066435,0.08854562,-0.02955481,-0.049223762,-0.06762474,-0.12184169,0.013980537,0.04312565,-0.073928624,0.007246286,-0.04252999,-0.08262178,0.03253273,0.086928815,0.07202437,0.006284896,0.08247815,-0.13747111,0.05520103,-0.05327726,-0.0935755,0.06732388,-0.06314146,0.017207362,0.1371981,-0.08636615,0.07064728,0.02356077,-0.002841559,-0.054973915,-0.108804375,-0.002749126,0.007953215,-0.06824272,-0.0043699183,-0.07416471,-0.02685633,-0.05390348,0.13040757,-0.09388306,0.088007934,0.098835655,-0.009853472,0.01421119,0.088023454,-0.08014115,-0.0017791011,-0.09664388,-0.024248928,0.08621374,-0.0031710672,0.044087283,0.07144577,-0.09528069,-0.06566172,0.074965574,-0.011389178,-0.029657355,0.006321877,-0.037610665,0.053967487,0.012504092,0.01709465,0.14050563,0.06870273,0.070441864,-0.023162972,0.07458134,-0.012878058,-0.050286807,0.06412655,0.037595723,0.08222842,0.0527656,0.08840459,-0.06583034,-0.016547315,-0.06437108,0.008158975,-0.021247363,0.06869286,0.082202606,0.02295183}, {-0.072439484,-0.0048030126,0.10973687,-0.048714556,0.06273797,-0.0050371755,0.0008918501,0.035966787,0.025499104,0.0013263695,0.08761295,0.15983875,-0.07744556,0.008381145,-0.056621823,0.022188451,-0.04002495,-0.107255496,0.03543062,-0.0063886684,0.024034604,0.08689075,0.16513367,-0.03251101,0.01990685,-0.15781596,-0.097254366,0.06662559,-0.04549967,0.09975324,0.04860862,0.053609714,-0.10782639,-0.025162948,0.049814466,0.08965318,0.03642622,-0.05297091,-0.06525146,0.01265415,0.009000642,0.094930634,-0.047461912,-0.0497655,-0.02392319,0.032896437,-0.10323953,-0.03356916,-0.011154543,0.033757728,-0.004889548,-0.0011295502,0.063425355,-0.04403136,-0.09297061,-0.02892392,0.035497554,0.13439392,0.0098892795,-0.13425261,0.017909108,0.0702,0.061130296,0.037532352,0.033313625,0.014902755,0.096187845,0.07536949,0.008176796,0.026049785,-0.09386883,-0.009967552,-0.0007836819,-0.10656319,-0.005106697,-0.072575875,-0.006815756,-0.0014900218,0.008933374,-0.06739996,-0.028146613,-0.09688036,0.031099254,-0.09020097,0.045220394,-0.12168739,-0.029359475,0.15183131,0.017269887,0.012707788,0.047797754,-0.024558268,-0.15230732,-0.09526661,-0.036158513,0.033310134,-0.100421846,-0.029386425,-0.009759235,0.06577287,0.010081315,0.06864756,0.05824057,-0.0911072,0.034022912,-0.103795774,-0.030482184,0.103072844,0.019150628,-0.07584833,-0.10725716,0.03911895,0.08795803,0.010967302,0.12813658,0.103072815,-0.041227907,0.072154604,-0.04137303,0.21964973,0.0077817924,0.11653676,0.020638304,0.08207109,0.014560614,-0.035322703,0.11852255,-0.037029464,-0.027037008,-0.04277184,0.019046634,0.06654681,0.00338825,0.041148897,0.086849034,-0.11870132,0.0036040104,-0.015806584,-0.025459608,0.12192816,0.037670672,0.018226258,-0.025421543,-0.00673224,-0.04781685,-0.09730308,0.016490325,-0.063677624,-0.0043908097,0.012949692,-0.082289465,0.075655736,-0.10468503,-0.03162582,-0.03191019,0.04602647,-0.1668872,-0.00049429643,-0.037689436,0.0638527,0.016916525,-0.10881974,-0.0065984935,0.037557814,-0.07332565,-0.005536414,0.008589431,-0.13316809,-0.05902543,-0.023852065,0.053385988,0.0031762868,-0.035070695,0.0015248288,0.0011487365,0.0026371703,0.04617746,0.036666896,-0.109441966,0.11469399,0.045956213,-0.011322406,0.01744808,-0.031513155,-0.021194553,0.005543329,0.055889647,0.042709295,-0.0118594635,0.0723102,-0.054983933,-0.06466681,-0.05692254,-0.099884585,0.09953317,0.007824685,0.19146217,-0.012024563,-0.15389925,0.045840833,0.014379681,-0.0762209,-0.034011744,-0.010937001,-0.061473887,0.1215942,-0.06680992,-0.047926027,-0.053900283,0.020142414,0.022750244,0.04886101,-0.014116297,0.092570074,0.04640115,-0.004517828,-0.10696552,0.043488853,0.020887543,0.06484497,-0.15323354,-0.041368242,0.047679264,-0.09824275,0.058845777,0.057316076,-0.0017182084,-0.046352215,0.016864756,-0.038946558,-0.10018667,-0.0672406,-0.030658932,-0.05656931,0.040608108,-0.009247514,0.05158547,0.001521063,0.066864885,0.009143408,0.04744442,-0.012683326,0.068733595,0.12000232,-0.016029382,0.04917061,0.12583579,0.075522214,0.05722723,-0.029615847,0.017594093,-0.055422377,0.0069705406,0.036750313,0.049594346,0.050907623}, {0.039071668,0.05680999,0.1443485,0.0024327796,-0.029374702,-0.07347472,0.03070853,0.01621313,0.058089085,-0.017628567,0.12094407,0.13131663,-0.05919847,0.11798175,-0.0139954155,-0.0149520645,-0.11995713,-0.10886874,0.0165444,0.09856547,-0.042290933,0.08508765,0.2921788,0.04164019,-0.009882728,-0.15698312,-0.11457284,0.030778363,-0.018088054,-0.027142165,-0.02053724,0.050479982,-0.04421717,-0.024547897,0.06272957,0.09212786,-0.052595656,-0.044224236,-0.035258953,0.110857956,0.044302043,0.037753798,-0.09700446,-0.0030640438,-0.0022773487,-0.009250045,-0.18072934,0.062216405,0.034536283,-0.014930201,-0.02704123,-0.06790851,-0.033048898,-0.0085470565,-0.121336006,-0.049562372,-0.0014764717,0.021518653,-0.077639535,0.007989317,-0.028158557,0.031346753,0.045907192,-0.04744757,-0.03619365,-0.072608195,0.078118004,0.09209192,-0.021037608,0.054697443,-0.06822433,0.022996787,0.06236538,-0.117316656,0.06469964,-0.07633203,-0.10563829,0.047332644,0.07632529,-0.068421766,-0.027996486,-0.021881463,-0.06681951,-0.011035477,0.06839295,0.0059357127,-0.082357876,0.13818811,0.06683463,0.05149341,0.026350126,0.033982225,-0.10612477,-0.00501932,0.0007107532,-0.08884279,-0.031313267,-0.061241385,-0.024680782,-0.01341744,0.072844006,0.060052715,0.055966403,-0.1009199,0.07055185,-0.07272491,-0.09429012,0.030107481,-0.06960368,0.035847243,-0.08460919,0.07034974,0.09631737,0.0976785,0.11463556,0.046950974,0.04692464,0.10031002,0.057169292,0.19828714,-0.08057615,-0.01954005,-0.006563096,-0.013606323,0.009372744,-0.039283425,0.13008825,0.0023043773,0.060586877,0.014921651,0.006614995,0.039450545,-0.023966158,0.046570636,0.02421639,-0.03541033,-0.03289735,-0.10654621,-0.05843909,0.14875819,0.13454781,0.012329671,0.053265896,0.017015804,-0.058700304,-0.026666662,-0.053551096,-0.009183839,0.09799556,0.047248505,-0.12370914,0.11003405,-0.09038495,-0.02532635,-0.055829056,-0.049795456,-0.10953009,-0.0696832,0.020136433,0.016547374,0.10642358,-0.07711532,-0.0063474365,-0.01584536,-0.047387365,-0.08052799,0.0023489771,-0.050718058,-0.070054844,0.020148085,0.026676286,0.009108451,-0.025112415,0.031546574,-0.023951614,0.06608206,0.08084573,-0.056880876,-0.12289978,0.058504917,-0.01596298,-0.0600304,0.06639912,0.015198694,-0.06092973,0.014337356,0.06993932,0.025818245,-0.1019942,0.10615044,-0.023067344,-0.05486473,-0.039841402,-0.029046642,0.022173619,-0.029590845,0.18284172,0.11124154,-0.13103813,-0.036334142,-0.01630094,-0.034405228,-0.061759826,-0.046913985,-0.12179151,-0.018864306,-0.09185747,-0.09460595,-0.04530457,0.10631029,-0.044207092,-0.0056634955,-0.032475058,0.028003996,0.05020914,-0.005147768,0.02687753,0.06913252,0.016425066,0.10557853,-0.031515937,0.038012873,0.12267911,0.014959384,0.0882252,0.0073586716,-0.038047206,-0.0089852335,-0.049677115,0.00064808945,-0.023713602,-0.0176726,-0.10917139,-0.0053042173,0.022358812,0.08840833,0.11266361,-0.09827124,0.18149413,-0.026892351,0.13839617,0.07630123,0.05873318,0.038467012,0.055422094,-0.0057411287,0.10846996,0.004903307,0.021442985,-0.07079633,0.05842125,-0.057666305,0.10084829,0.004652394,0.033215158,0.06847056}}
#define W_LSTM_KERNEL_C_WIDTH 28
#define W_LSTM_KERNEL_C_HEIGHT 256