#pragma once
#define W_LSTM_RECURRENT_KERNEL_C {{-0.12818797,0.1954956,0.035703655,-0.041123703,-0.09748493,-0.09167552,-0.0071974895,0.102929324,0.09921623,0.14445662,-0.07871045,0.0025828513,0.007349965,-0.16032198,0.018070731,-0.27564377,-0.20457925,-0.12209606,-0.08441148,0.06786027,-0.018320486,-0.01718433,-0.00042475684,0.13216998,0.090869404,0.107348636,0.12495876,-0.026288465,0.08379626,-0.23831698,-0.029418461,0.11125148,-0.095712155,-0.23664564,-0.0065394947,0.041038584,0.13999014,0.21759702,0.12894051,-0.16979417,-0.18302344,0.07708619,0.014834836,0.049856395,-0.21686623,0.036499288,-0.13973092,-0.016327228,-0.030939644,0.093621284,0.06924399,-0.11685647,-0.028245986,-0.019863095,-0.2362526,-0.073696226,-0.12926504,-0.066892184,0.14528519,-0.031201633,0.084409446,0.18788867,0.028849693,-0.22781971,0.11423494,0.07785631,0.09901777,-0.0034356578,0.05115669,-0.04046447,0.1353857,-0.005123655,0.15265979,-0.1455728,-0.14687157,0.06746222,-0.028962817,0.11292017,0.12896828,-0.06311346,-0.17220195,-0.1563959,0.0019217716,-0.25632775,-0.09685037,-0.06018718,0.020546963,-0.15623598,-0.28695416,0.109248705,0.28609645,0.0787314,0.067062415,0.111917526,-0.097343065,0.06043002,-0.02439773,0.10370955,-0.015160146,-0.15460251,0.19397844,0.11226837,0.029821662,0.1443691,-0.23617396,0.10519561,0.1546302,-0.0408022,-0.091347076,0.16811855,0.1403561,0.11827109,0.085622236,-0.05724055,-0.07208438,0.01728999,-0.016373498,-0.09318762,0.025070718,-0.042309087,-0.19158693,-0.10267647,0.09693577,0.13746008,-0.07730719,0.02581498,-0.16684924,-0.08859315,0.13530082,0.08769436,0.009647216,0.10206715,0.1413859,-0.14083603,0.07330128,-0.13121428,-0.1532968,-0.05573401,0.08121692,0.106180936,0.1302563,0.047529835,-0.12063561,-0.0045511513,0.037666626,-0.15697564,0.098583154,0.11427171,-0.02859609,-0.12697373,0.012101292,-0.16701072,0.23197854,0.15277492,0.08908295,0.09761245,0.05016156,-0.13199434,0.19531982,0.0117674,0.046509232,0.18159963,-0.04499695,0.04641204,0.036168236,-0.025965156,0.14741765,0.020359522,-0.043270428,-0.056714904,0.11622817,-0.009003761,-0.18224162,0.015743311,-0.09294144,-0.08699139,-0.10094441,-0.0541822,-0.039774336,0.19489446,0.041838925,-0.08319407,-0.039592367,0.00079348567,-0.060408805,0.026036335,0.045749355,0.130088,-0.042158972,0.18902464,0.24018262,-0.2704232,0.18683338,-0.09634444,0.2948016,0.062516585,0.15823506,0.07441749,-0.10911227,-0.089423254,0.014805488,0.18854947,0.018306425,-0.01730263,-0.065978974,0.11030521,0.0097523285,0.19152556,-0.12411497,0.13947497,0.17202999,0.12136546,0.016338551,0.16368647,-0.31874698,-0.12702757,0.18761177,0.029591115,0.1329393,-0.15219021,0.05051424,-0.051391575,-0.08040209,0.16889751,-0.14613223,-0.09217394,-0.07675437,-0.12032303,-0.020077229,-0.092240624,0.010618539,-0.103889264,0.012773779,-0.075145766,0.0984721,0.047270175,0.08915587,-0.22888282,0.10232158,-0.048709437,0.043952696,0.19941162,0.20710666,-0.027458565,-0.2099231,-0.041029245,-0.06467273,0.14185175,-0.12535685,0.0076423134,-0.13328455,-0.13497293,-0.059765343,0.17919266,0.21345267,-0.15377258}, {0.12039921,-0.040357135,-0.044248354,-0.041627042,0.010206503,0.025788719,-0.16250002,-0.061608784,0.025118222,0.12255321,-0.014945131,-0.06448515,0.09516285,-0.21071394,0.031714004,0.028724996,-0.011323271,0.103220716,0.0015525294,-0.08792096,0.03446574,0.036568068,0.0059810886,-0.004679474,0.0916734,0.21111192,0.034796834,0.114582725,0.26821062,-0.008363428,-0.019402986,-0.10341313,-0.034088504,0.027711662,-0.0067544333,-0.029179092,-0.0043283375,0.16056107,0.15693831,0.085041314,-0.13390435,0.00887625,-0.11175801,0.04672861,-0.048321042,-0.1674743,0.17550921,-0.023442332,0.047079835,0.030239623,0.23593292,0.046446294,0.0053099827,0.078351885,0.010457541,-0.16695857,-0.0031670076,-0.16425745,-0.243261,0.0870869,0.22324805,-0.16261648,-0.0059768297,0.11906595,0.13336122,-0.08343659,-0.04112431,-0.11262084,0.043324973,-0.12019869,-0.020631965,0.118568935,0.05434673,0.0496981,0.14359237,0.24004447,0.09390688,-0.15651284,0.0075954353,-0.0389052,0.07105213,-0.10960769,-0.074364096,-0.039951157,-0.24384367,-0.023264026,0.10253705,-0.20573068,-0.012828284,0.047055487,-0.018042712,-0.03887768,-0.0018017162,-0.04032841,-0.021693148,0.10180904,-0.11253929,-0.030080076,0.014400401,-0.17249162,-0.041173212,0.288284,-0.015422341,0.030284913,-0.07277634,0.1819955,0.2513366,-0.026937163,-0.11674841,0.116010875,-0.094521254,-0.07785167,-0.05713662,0.01725825,-0.105257876,-0.30144307,0.101639055,-0.035444237,-0.057305366,-0.04184023,-0.09302103,-0.07057823,0.037869364,0.09202515,0.022712044,0.105703965,0.12604235,0.14328484,0.01659443,0.019854238,0.03176847,0.0019184166,-0.07047452,-0.021108799,0.21703045,0.053353585,0.023488386,0.048306223,0.10826804,-0.0397458,-0.064859435,9.348804e-05,-0.0008242926,0.17473906,-0.017806392,-0.08338969,0.08266402,0.063503854,0.04803805,0.102837525,0.11740763,0.030703023,-0.06267262,-0.10754523,0.10307839,0.05280941,0.11943484,0.0014424922,0.09848466,-0.25607073,-0.13664003,0.091075994,0.12364478,-0.017081652,0.08869804,0.16083494,-0.0011338321,0.1793751,-0.0795993,-0.013285455,0.0928508,0.12196029,0.10391368,-0.18616924,0.12706463,0.087779135,0.049197484,0.05075385,0.029671032,0.042460334,-0.17983027,0.19778723,0.01878981,-0.0148281995,-0.026487624,-0.03599132,-0.08330124,-0.12226452,-0.045488954,0.013027444,0.034494147,0.048650216,0.15199034,0.10602288,0.00022070998,0.2164408,0.05734341,-0.1814516,-0.05321642,0.10901725,0.12736446,0.0810443,0.068363965,-0.18683936,-0.07354924,0.052866846,0.112906076,0.05569142,-0.103784546,-0.010683313,-0.01928441,0.016212402,0.09961194,-0.018414268,0.0024296567,0.020917986,0.007727889,-0.21625271,-0.05952821,-0.046641257,-0.10621171,0.030925205,0.012036393,0.0043618605,0.08252447,-0.09937285,-0.121426284,-0.038352918,-0.024890022,-0.18560095,0.12979312,-0.008143401,-0.02056727,-0.075157344,-0.07375494,-0.18785055,-0.15457149,-0.0075945733,-0.022174181,0.016026065,-0.010610977,-0.12320913,-0.17608346,-0.06595315,-0.047266923,-0.098419875,0.16319293,0.09577482,0.013908279,-0.047316547,0.11519343,0.12038595,0.016326675,0.09227222,-0.064022124,-0.15689883}, {-0.05969914,0.019537598,-0.22989343,0.14256881,0.07309258,-0.124643594,-0.087877356,0.07246622,0.12816527,0.12673306,0.079085365,-0.054986417,0.0026438027,0.1378515,-0.1274026,-0.0032832655,0.2551634,-0.09831418,0.05485827,-0.06596034,-0.22832716,-0.027740013,0.05986052,-0.028913539,-0.00047716362,-0.1210061,-0.06730834,0.25506586,-0.07188413,0.10635293,0.04100733,0.05026267,-0.032732237,-0.17089559,0.056700528,0.09298026,-0.08801294,-0.0843199,-0.13531807,0.11497882,-0.04395822,0.07163186,-0.27263826,0.10282554,0.051529724,-0.2166784,-0.09017866,-0.022148026,-0.017407527,0.1183347,-0.017028952,0.012765579,0.069057144,-0.04203633,-0.048583403,0.052926075,0.0063363616,-0.03178738,-0.108001806,-0.13313258,-0.025366746,-0.06274094,-0.12233129,0.19206648,0.09754392,-0.08289774,0.049811088,0.07096468,0.15411541,0.016883982,-0.0720961,0.18591717,-0.11609447,0.082196616,0.20296748,0.08180471,-0.061223026,-0.14266162,-0.038566012,-0.114338785,-0.10237525,0.03351966,0.07510282,-0.18716608,-0.034845155,-0.21251363,0.12720956,-0.07508262,0.0023740735,0.08186529,-0.042090237,-0.06797579,-0.11274306,0.05147045,0.13655354,-0.112597056,-0.04641814,-0.32185254,-0.16515835,-0.12526873,0.13991418,0.15002504,0.15810478,-0.08718039,0.0934594,-0.12420387,-0.06717005,0.2670535,0.035615295,-0.13262513,-0.07163926,-0.07596979,0.15629971,0.115687884,0.20873299,0.01472077,0.16899647,0.19308119,-0.21309751,0.0321001,-0.045444362,0.06189177,0.09303918,0.017419307,-0.028575806,-0.094254054,0.057961572,-0.059913635,-0.104652256,-0.18211398,0.043126557,0.03963034,-0.020758897,0.14190401,-0.010461279,0.079708226,0.13793617,-0.1932,0.27881223,0.13846199,-0.15205963,0.13889763,0.12895253,-0.011991366,-0.10176249,-0.027493507,0.095241055,-0.11418454,-0.16126607,0.07295472,-0.05843593,0.14450343,-0.090649165,-0.12689395,-0.0028727152,0.07297844,-0.006925154,0.093617894,0.030223127,-0.1600319,0.017072221,-0.1740191,-0.014416716,0.09557897,-0.0595522,0.31546867,0.14816226,-0.14181897,0.07684526,-0.15660702,-0.07131048,0.04679633,0.12211299,-0.09913297,-0.014453219,0.0469891,0.08084956,0.06325717,-0.22365889,0.16404498,-0.11414951,0.106354445,-0.009520832,-0.16667336,0.06878554,-0.038714625,-0.039080977,0.043967184,-0.026529266,0.076255605,-0.16052175,0.042077787,-0.0073446375,0.000954551,0.014447142,-0.18954976,0.012598181,0.009839487,0.011041731,0.1439709,-0.14051427,-0.13564642,0.21240163,-0.049934357,-0.028355561,0.018807499,-0.022282202,-0.08867641,0.003921153,-0.055753507,-0.17653033,0.076638155,0.16529632,0.04616395,0.12076336,-0.026542017,-0.18792017,-0.34726715,-0.09254198,-0.006597169,-0.12708464,-0.112567455,0.18701424,-0.118963316,0.13710953,-0.08251604,-0.036071867,-0.063251905,-0.2526987,-0.040038746,-0.17961204,-0.007876861,-0.028323578,-0.10973996,-0.024146616,-0.0421505,-0.04348407,0.09339971,-0.009688431,0.029742267,0.013142344,-0.19860952,-0.10009186,0.1654535,-0.07800079,0.15528789,-0.011137799,-0.041931592,0.06095658,-0.2008173,-0.07441257,-0.030504571,0.054567285,0.08737752,0.100129575,0.13679065}, {-0.11306898,-0.13937613,0.024909455,0.02358331,-0.0020803986,-0.009482804,-0.10560914,-0.0903771,-0.005187297,0.036405183,-0.12852241,-0.021712774,-0.0054570623,-0.085420206,0.08099515,0.30667335,-0.00052248174,0.04113023,-0.07246404,0.2134887,-0.2040755,0.01361602,-0.038574666,-0.069296956,-0.016465275,-0.122886874,0.0829677,0.09332202,0.121058814,-0.00291437,-0.007686081,-0.12920137,-0.02957805,0.16547355,0.07676856,-0.06460724,-0.20558107,-0.21538137,0.067733236,-0.058176458,0.13583212,-0.10863252,0.09012951,0.043520655,0.11970042,0.10569888,0.1443953,-0.036085296,-0.025570998,-0.14096908,-0.030607328,0.09526795,-0.22716957,0.14116776,0.102008946,-0.06138729,0.13037077,-0.0030289725,0.026073473,0.21025115,-0.08859651,0.102659136,0.13246049,0.038668614,0.16068414,0.1478495,0.058644745,-0.035309277,-0.13627164,-0.0016092958,0.20443696,-0.12087026,-0.23426057,-0.022939652,0.102790035,0.03128872,-0.022017334,-0.14314991,0.14776869,0.1919503,0.057553764,0.22596873,-0.028710363,0.118240625,0.015794529,-0.029040873,-0.051348414,-0.039759796,0.21846542,-0.08791907,0.1318627,-0.19439052,-0.036325715,0.109512605,-0.10420529,-0.108069226,0.022415543,0.13913894,0.06935973,0.06769652,-0.15163141,-0.09151876,-0.023444531,0.21004562,-0.083561644,0.10913515,0.07331259,0.068574004,-0.056419093,0.02391708,-0.04008606,-0.093667716,0.026038509,0.029323373,0.13192804,0.046948303,-0.16459155,0.14698032,0.20158401,-0.065491945,0.05121317,0.16313052,-0.18728244,-0.0384933,0.122378066,0.015900783,0.0075209397,-0.042592514,-0.1598518,-0.014376376,-0.17929924,-0.109759934,0.114731334,0.08175139,-0.103034474,0.017998353,0.054194864,0.03823298,-0.14034508,-0.15322453,0.089900926,-0.18015942,0.021092461,0.012602239,0.051246785,0.052546795,-0.05942992,-0.011196128,0.0061828163,-0.18665105,0.012749208,0.16176704,-0.03942576,0.09297836,0.22199161,-0.19803785,0.05059651,-0.013863048,-0.13328467,0.060589965,-0.079630315,-0.18817379,-0.050337218,0.082265265,0.05671641,0.044142447,-0.0882843,0.077232815,0.19065243,0.122464724,0.014915862,0.06773831,0.047946896,-0.1241122,0.08743658,0.12440705,-0.10537108,-0.13897055,0.060804747,-0.13229027,0.20698877,0.0026628592,-0.06546143,0.12337268,0.019559026,0.009685351,-0.113408625,-0.014393998,-0.05862412,-0.14334013,0.052307304,-0.08049484,-0.10233782,-0.14874408,-0.23340519,-0.07047854,-0.08980922,0.051379807,0.09578001,-0.014321568,-0.15996423,-0.075991444,-0.009907415,-0.125143,0.09334458,-0.16370837,0.13984227,0.12787949,-0.104859486,0.22386186,0.1373249,-0.122941576,0.034100246,-0.048580565,0.11789921,0.06414118,-0.06437671,0.12626901,-0.0062087816,-0.026852481,-0.1252083,-0.10681304,-0.013333421,0.018500874,0.00975174,0.022286247,-0.01118428,0.15509863,0.0296545,0.10488563,0.1580122,0.052501332,-0.15932569,0.038834084,-0.042314712,-0.05556446,0.11130209,0.07818671,0.10150325,0.26276502,-0.021087293,-0.13634585,0.0053841937,0.214533,0.08602087,-0.00095124915,0.014743311,0.040578388,0.019735904,0.061598413,0.013700968,-0.1760692,0.086499624,-0.14926863,-0.06398664,0.09728245}, {0.041742787,0.06226739,-0.04235215,0.14098062,-0.33697852,-0.117042355,-0.09464889,-0.037393853,0.084423766,0.13536747,0.08927334,0.16898037,0.09041459,0.020957379,0.126193,-0.06424232,-0.07027309,0.03507233,-0.003941871,0.17502864,-0.04338684,-0.08928867,-0.10272092,-0.030790519,0.106562585,-0.013791878,0.01096972,0.07120201,0.06392213,-0.13491963,-0.12894075,0.19070569,0.00434634,-0.018024562,-0.01805559,0.1430847,0.07436677,0.029050224,-0.00510815,0.025186192,0.19152556,-0.028417427,0.04430533,0.0078324,0.09952508,-0.19729929,-0.08754959,-0.07838206,-0.03302992,0.092517525,-0.047240425,0.07795042,0.085481256,-0.08536698,0.0034373878,0.040588357,-0.22254194,0.07980575,-0.13226677,0.20106925,0.16230081,-0.06328336,-0.19789036,0.031389054,0.13325585,-0.044056103,-0.029865064,-0.034602523,-0.0622188,-0.14876676,-0.023917437,-0.14217484,0.14657396,-0.22181642,0.12302822,-0.019222287,-0.13837507,-0.13364469,0.13801153,-0.026978897,0.03205771,0.06087908,-0.014252322,-0.09959541,0.08513452,0.094370335,-0.16518208,-0.07039895,0.099743254,-0.054553654,0.06136618,-0.1622153,-0.015698615,0.08085089,0.0032789211,-0.22306696,0.092202656,0.27710226,0.13854954,0.015456979,-0.062426988,0.07703886,-0.11981606,-0.13980609,-0.08441541,-0.05408979,0.15134376,-0.045177046,0.16087393,0.2847536,-0.0010091667,0.11337199,0.00044087094,-0.13447171,0.10229771,0.18538561,0.08571253,0.18597573,-0.12731606,-0.022962619,0.0076925647,0.009724614,0.054781858,0.23015764,-0.058718573,0.042315695,0.14735688,-0.054936685,0.24622786,0.27613953,0.33209285,-0.018949535,-0.16854087,-0.042440657,-0.046180945,-0.121589005,0.04674905,0.016360076,0.041164026,0.16341798,0.04137702,-0.19924404,-0.047141876,0.06710222,0.08210159,-0.21186815,-0.029015971,0.09635945,0.012558182,-0.13275924,-0.0147836935,-0.045307506,0.15044238,0.016180988,0.19413434,-0.009742607,-0.008419916,0.17199923,0.05469552,-0.05299332,0.105738275,0.019040067,-0.09162393,-0.17759688,0.008825059,-0.106673494,0.017685084,-0.03125474,-0.07810139,-0.034575664,-0.07291336,-0.20409775,0.15762407,-0.08817573,-0.10367411,-0.24601617,-0.021769634,-0.20307118,-0.01630464,0.23220232,0.18881485,0.05730383,0.12963653,-0.03861233,-0.027341973,-0.094183415,-0.13959867,-0.087334014,0.22781257,-0.059671037,-0.11641723,-0.020144586,-0.0071813026,0.20117669,-0.105215244,-0.060101394,0.021717006,0.10942325,-0.08494494,0.12604922,0.12967393,0.04032312,-0.23875587,0.19750395,-0.0189157,0.23221213,-0.044228636,-0.0331838,-0.0497168,0.029250424,0.07866882,0.104864486,0.07006556,0.17067786,-0.09159115,-0.10667554,0.09183757,-0.029555842,0.22972055,-0.26159048,0.027112147,0.14129314,0.16927585,0.057083827,0.09724134,0.23975977,-0.07988759,-0.12803578,0.14030983,-0.13491556,0.1319468,-0.07068975,-0.054651406,-0.08017534,0.2753483,0.19872701,-0.029007275,-0.16510978,-0.02885599,-0.0028668528,0.14721926,-0.23443514,0.12154413,0.1151829,-0.13795908,0.03891014,-0.08099725,-0.17547597,-0.15328282,-0.03754132,0.02020032,-0.047588255,-0.040063486,-0.041705992,0.010564619,-0.051507056}, {0.03996251,0.04367528,-0.006266376,0.13172212,0.06626006,-0.040207125,0.046003673,-0.06801169,0.097860076,-0.15255369,-0.02408579,-0.0030461473,-9.165942e-06,-0.14797366,-0.07759643,0.08547796,-0.08471105,-0.08806912,-0.22291425,-0.025396349,-0.14188099,-0.047010444,-0.12442167,-0.10779162,-0.16414036,-0.096211314,-0.0320443,0.08254958,-0.05782629,-0.010201613,-0.006379261,0.021249209,-0.20098147,0.18136555,-0.019937627,-0.007721814,0.038369633,-0.12665373,0.10950293,-0.1229571,0.06305068,-0.032617882,0.07275303,0.023347436,-0.07926942,0.0032796655,0.05452064,0.09652955,-0.017878704,0.17728908,0.15902136,-0.13544634,-0.01614981,0.030639952,0.07702737,-0.09553742,0.16112067,0.19756027,0.02567174,0.032761164,0.053175133,0.068747,-0.119176984,0.1278652,0.13573074,-0.06546267,0.039107047,-0.14841777,0.009317893,-0.18135405,0.15154962,-0.26113686,-0.036302682,-0.04117568,0.15964822,0.13249132,-0.10768226,-0.09811076,0.079381704,0.013140253,0.07479734,0.14896438,0.06665624,-0.10629,-0.0754661,-0.039247163,0.0049057472,0.024220455,-0.010522738,0.027795088,0.08131801,-0.17523043,0.06751813,0.09825043,-0.0850434,-0.057701055,0.052206658,0.0139980065,-0.080112,-0.08955532,-0.022240885,0.13554168,0.05870038,0.10215966,0.08294013,0.17047693,0.16633531,0.032454565,0.0005006464,0.01690304,0.050601132,-0.031478312,0.118822746,0.022528864,0.14633816,-0.14650752,-0.006371894,0.057851534,-0.0027808321,0.08327419,-0.09413253,0.18676949,0.05020036,0.00765012,0.08935938,-0.21500707,0.043489333,-0.0081639625,-0.05099766,0.045892652,0.002797465,0.05486086,0.28137586,0.025280733,0.029640365,-0.07471968,0.05860536,0.19697472,0.14474377,-0.11292342,-0.024896609,-0.12624769,0.10202063,0.24884996,0.0168671,-0.075414866,-0.06265117,-0.08677716,-0.18426207,0.027776374,-0.05026194,-0.07706245,0.04574714,-0.10054122,0.25854602,-0.16870438,-0.0566809,-0.14134862,0.073786,-0.055001806,0.02486757,0.09350309,0.006687128,-0.09064728,-0.011683204,0.06954617,-0.09309314,0.1820187,0.08471511,-0.11112214,-0.20005006,0.113095514,-0.12934376,0.08762235,0.14326277,0.028803159,-0.18914662,0.037226196,-0.03505497,0.07740977,-0.042300526,0.013981662,0.081551254,-0.08729976,0.08954545,0.16293316,0.014566467,0.10766398,-0.14634027,-0.005645116,0.03356898,-0.08847159,0.0064080926,-0.18928358,0.098180406,-0.01658494,-0.091008484,3.5536912e-05,0.10537094,0.010054221,-0.1302832,-0.019668305,0.05460901,0.0730961,0.05175832,-0.08181443,0.0024787714,0.14059725,-0.19734634,0.20664477,0.31309947,-0.10560138,0.15369412,-0.12982982,-0.11188035,-0.01526838,0.14752413,-0.09120922,-0.009036018,-0.035013694,0.06710321,-0.0074656294,-0.012039442,-0.05292382,-0.00065877184,-0.124611,-0.09729989,-0.10996202,0.023321012,-0.14939451,0.06582604,-0.027315417,0.18357846,-0.012180679,-0.006984107,-0.05302928,0.042694468,-0.08082182,-0.030234568,-0.004885716,0.19871534,-0.078198865,-0.07578603,0.036487248,0.0033973353,0.012445797,-0.09776074,-0.07130409,-0.06656489,0.04368862,-0.030169297,-0.01720644,-0.097361274,-0.106634825,-0.101864964,0.055270396}, {0.06971911,0.049459316,0.13452575,0.020844385,0.015673226,-0.12049806,-0.07412143,-0.080176234,-0.22175623,-0.136379,-0.035461254,-0.06677191,0.20664072,-0.1978951,-0.119057134,0.10035909,-0.08640464,0.20769252,-0.062177405,-0.010978434,0.0499412,0.1480575,-0.2267834,-0.1861876,0.022207273,0.16370405,-0.0479273,0.0767998,0.097807765,-0.058803234,-0.064741634,0.029944675,0.34559026,0.22114003,-0.13967708,-0.04408781,-0.19656873,-0.06590716,0.014946016,0.15154417,0.106555186,-0.18694629,0.19578925,-0.053953458,0.025973361,-0.15661058,0.13270064,0.106499664,-0.07938786,0.10828561,-0.08938715,0.013001202,0.03063573,0.06452785,-0.057656206,0.12831067,-0.11958576,-0.05511331,0.11292598,-0.009020205,0.044649124,-0.053624168,-0.09832831,0.040859908,-0.05294862,-0.04900282,-0.044774044,-0.009786665,0.17598175,-0.28890392,-0.064735316,-0.11441245,-0.009851734,0.100795865,-0.14886792,0.15758406,-0.04176415,0.1176861,0.059507463,-0.12542933,0.123225115,0.21267238,-0.14233866,-0.06614928,0.07863628,-0.0025840714,-0.031233838,0.06634882,0.008438397,0.025372647,0.03243431,0.12519132,0.18248214,-0.10243618,0.15122616,-0.13780755,-0.07729257,0.21525647,0.12207072,0.02368671,-0.12911695,-0.017049696,-0.127009,-0.013324018,0.07713612,-0.014453693,0.09611529,-0.052997336,-0.20291929,-0.11964117,-0.041144907,0.057982728,-0.09984374,0.15112574,0.012426364,0.08772258,0.03480515,0.022131559,-0.049306184,-0.09498497,0.14616847,0.10515279,0.13890982,-0.061628103,-0.066807576,0.10028991,0.16909707,-0.06343511,-0.09518345,0.008574065,0.135706,0.14679259,-0.15327802,0.043182664,-0.029761,-0.04947685,-0.022562299,0.016946077,-0.050858986,-0.10733603,-0.17593396,-0.2155514,-0.08368149,0.028599594,0.17218341,0.075884864,0.1147603,-0.078253314,-0.34122196,-0.16251284,-0.21601023,0.2106719,0.11574106,0.09872901,-0.038594183,0.03399572,0.018004563,0.07293185,-0.09430584,0.09560604,-0.057798542,-0.05883238,-0.08644112,-0.13608283,-0.003323878,-0.06357903,0.11370587,0.07419052,-0.005336288,0.0849646,0.020344192,-0.087190785,0.1431036,-0.044393685,0.05148512,-0.04133141,-0.01143689,-0.26015395,-0.124544375,-0.10925277,0.20732945,0.113308385,-0.025953215,-0.21804444,0.05065783,-0.09522471,-0.018778624,-0.18590333,-0.12544943,-0.08878206,-0.032104637,0.039989073,-0.036722243,0.20850563,-0.0964123,-0.26215756,-0.12669502,-0.10714802,0.0848501,-0.008794195,-0.14189906,-0.16373238,-0.12011292,0.026755111,0.06780908,0.026923025,0.120963745,-0.04816272,0.16362257,-0.04265487,-0.047810193,0.06040013,0.0730194,0.10358178,0.05515738,0.054622084,0.13409911,0.1587608,-0.040350888,0.0014023676,-0.0020720074,0.11735918,0.036147162,0.08454566,-0.045243155,0.08553601,-0.1057895,-0.20802893,-0.033879537,0.022724047,-0.08272687,0.09014866,-0.20883197,0.041985385,0.21864052,-0.06764268,-0.061757598,-0.08947988,-0.14218564,-0.061489794,-0.06991569,-0.012828132,-0.22961687,-0.21081771,-0.082022026,-0.020475082,0.06803677,-0.2299647,0.055430967,-0.09877999,0.23104413,-0.105200045,0.22115248,-0.003897162,-0.12352318,-0.07003993}, {0.032598235,0.08273108,0.0133484835,0.098703146,-0.06357471,0.24643311,0.06093653,-0.05525304,0.066546015,0.1214411,-0.008194241,-0.0994201,0.108911954,-0.15149312,-0.0054400787,0.09824214,0.13825254,0.11425778,-0.16612685,0.06528137,-0.20706561,0.12892324,0.03695063,-0.015892683,0.039956115,0.08259459,0.0045849546,0.009829512,0.0047707977,-0.095974356,0.02899524,0.022391398,0.105845734,0.085667424,-0.01915394,-0.14414373,-0.008133024,-0.025481155,0.19630523,-0.041849837,-0.04105594,-0.26661026,0.10973048,0.036843218,-0.23038353,0.03718814,0.076584004,0.11089361,-0.01969477,-0.1705415,0.10796846,-0.109424196,-0.08509438,-0.24179481,0.021577328,-0.14899449,0.08279909,-0.08351525,-0.13368268,0.033555046,-0.114911474,0.20464839,0.01772825,0.09673081,0.017217088,-0.00063195545,0.004458121,-0.13078523,0.07834052,0.056479275,-0.106603816,-0.011097816,-0.102029644,0.21137363,0.101409525,0.123660214,0.063154235,0.07208782,-0.049793724,0.13525334,0.09121217,0.0036199961,-0.045525156,0.017205069,0.09565952,-0.15265034,-0.020768,-0.09811078,0.10990958,-0.040748358,-0.015108998,-0.03136787,0.13375828,0.0015459164,0.15738419,-0.11921696,-0.043805998,0.11172026,0.0062070196,0.13680851,0.051504847,0.062078744,0.13087678,0.02201189,0.087201774,0.052102927,0.02217831,-0.10734608,0.15072617,0.006227944,0.027845228,-0.07629922,0.13794227,0.1830331,0.09144299,-0.050139785,0.20980786,0.013538368,0.085216016,-0.029260749,0.10634482,0.16967715,-0.031744003,-0.06103579,0.064401686,0.0949373,0.16908962,-0.07809818,-0.18884997,-0.042637482,-0.10024155,-0.088096835,-0.16593245,-0.088420816,0.073788635,-0.15598908,-0.07281077,-0.121790886,-0.012363598,-0.16089387,-0.11482598,-0.025345169,-0.018737499,-0.07872464,-0.1347638,0.055184208,0.084637165,0.009180941,-0.11873981,-0.070420355,-0.052014913,0.0073646517,-0.014542031,-0.01700299,-0.064228475,0.15251604,0.1390029,-0.14918204,0.0535172,0.026405888,0.11032044,-0.094273746,-0.27365422,0.090438254,0.18993755,-0.05697686,0.11704066,0.27478173,0.14895448,0.011437507,-0.014853187,0.048197433,-0.027115826,0.15205544,0.04876616,-0.065395944,-0.12325014,-0.24012874,-0.13450898,-0.12863426,0.13630435,0.005078065,-0.10720765,-0.15336686,0.06262473,0.1579624,0.112682775,0.054570336,0.07243401,-0.073254704,-0.033826537,0.049785495,0.014606326,-0.07577651,0.028821887,0.1576788,-0.12643635,0.01907823,0.026350085,0.062095627,-0.17408922,-0.11510241,0.005517673,0.074124634,0.20119458,-0.027746348,0.16385804,0.2330577,0.15328638,-0.009725271,0.087409995,-0.029526878,0.1663531,-0.11703681,0.14375365,0.11450201,0.04430461,0.17258085,0.015348611,-0.14228788,-0.060828324,0.121015385,0.11872551,-0.12546684,0.043531664,-0.05137546,-0.030281173,-0.24758409,-0.12263978,-0.15794468,0.07751199,-0.041601107,0.19118862,-0.033931132,0.052104723,-0.07468133,0.23791629,0.03800423,0.12630183,-0.0033027586,-0.01233271,0.005102396,-0.033936154,-0.09968506,0.013928483,-0.16352887,-0.15580742,0.13494459,0.19160354,-0.07741365,0.03154184,-0.22215815,0.054786503,0.1344066,-0.15166458,0.036956504}, {-0.1542914,-0.13335139,-0.0017874865,0.04287931,0.051007755,-0.13556315,0.079367556,-0.21780846,-0.08632085,0.055693973,0.017957509,-0.020095006,-0.14823653,0.041338246,-0.15995258,0.20192543,0.07884372,0.094174534,0.14627087,0.102917396,-0.060394082,0.22333358,-0.07408626,5.8659374e-05,0.16392554,-0.0742289,-0.10862751,0.19448502,-0.120660745,0.15046947,0.12972827,0.18005037,0.17341854,-0.05055572,0.13126628,0.15779369,0.04826309,0.050613128,-0.18720783,-0.014973058,-0.06102237,0.0382634,0.08271462,0.31480837,0.16866185,-0.09890427,-0.102833204,-0.08943879,0.020715386,-0.101031065,-0.043387346,0.13279352,0.023057876,-0.08103927,-0.16379733,-0.011325646,0.1427071,-0.025298096,0.016221778,-0.11617172,-0.03942275,0.078380905,0.09719835,-0.042506367,0.018989092,-0.051999357,0.052477125,-0.105956435,-0.0052211606,-0.063469954,-0.17468096,0.051869098,-0.22211309,-0.026980942,0.16710137,-0.030244896,0.016008308,7.915523e-05,0.11457121,0.10429604,-0.14913699,0.05447695,0.25910422,-0.097721756,0.04970681,0.004124636,0.11987752,0.009988073,0.10943163,-0.104659915,-0.1429408,0.0055132173,-0.0898015,-0.060329594,0.18936604,-0.20776245,0.024139242,0.07279596,-0.048270475,0.30474693,-0.10117009,0.030471906,0.072808325,-0.122899964,0.18466836,-0.10588597,-0.25735837,0.04020536,0.20113845,-0.15891938,-0.19688942,-0.053789895,0.051069036,-0.0677569,0.004633428,-0.06897552,0.045163445,0.22609876,-0.14269534,0.038564723,0.11883908,0.14542885,0.14382605,-0.013140644,-0.0685251,-0.06104478,-0.0899711,-0.114515826,0.027202405,-0.03954929,-0.09686622,-0.07707771,-0.016622037,-0.00094354793,0.07507979,-0.20958972,0.06273557,-0.25582218,0.06708569,-0.0494197,0.124131136,0.08683938,0.11272594,-0.06137514,-0.10286789,0.11176871,0.16262567,0.055894442,-0.12809947,-0.094218954,-0.2685033,0.17470019,-0.018089622,0.014696893,-0.03552133,-0.2618838,-0.110024765,0.17646883,-0.36557004,-0.03617511,-0.064486966,-0.08571866,-0.05382744,0.21172906,0.035905343,0.09534793,-0.024376197,-0.18089512,-0.017413175,-0.11185402,-0.002178429,-0.19362639,0.21020088,-0.09374881,-0.11535021,0.07561237,0.046223298,0.1542903,-0.13885084,0.19608858,0.08628396,0.075286195,-0.20335731,-0.13609885,-0.18633741,-0.062742636,0.046316147,-0.00066463335,-0.005616497,0.0039873994,-0.32685938,-0.015348993,0.019481957,0.08179095,-0.1382359,-0.2565148,-0.046230458,-0.06070239,-0.08797265,0.046907097,0.060787816,-0.084472574,-0.21387833,-0.040368296,-0.10535056,0.14524157,-0.08523615,-0.15162612,0.26741847,-0.05344707,-0.11554596,0.05740295,-0.0820903,0.2144426,0.073733695,-0.009153649,-0.11227684,-0.086783566,0.135815,-0.008893031,-0.31042,0.042270605,0.19893484,-0.055687223,-0.060042985,0.10163932,-0.013066184,-0.047195826,-0.12093297,-0.054661654,-0.18805118,0.03051825,-0.17888276,-0.08421088,0.059813097,0.007390247,-0.2018614,0.04680142,0.063192405,-0.030503524,-0.043060824,-0.1506261,0.079830885,0.19798176,-0.050559267,0.20221336,0.15327474,-0.092504725,0.008446364,-0.13726349,-0.104755245,-0.022659257,0.14882371,-0.037617285,-0.08156279,0.12431723}, {-0.01770413,0.14080888,-0.048093542,0.14888819,-0.07384688,0.14631817,0.009464013,-0.07363792,0.07011173,-0.05178348,-0.12949955,-0.09892415,0.25640285,-0.16864221,0.09547145,0.0911547,0.07530734,0.15972209,-0.06460382,0.15747121,0.08986198,-0.053901713,-0.06571239,-0.11502729,0.050664082,0.114025325,-0.037261885,0.042401873,0.17994411,0.066092245,-0.039512735,-0.11965883,0.06973421,0.03703772,-0.015026082,-0.14779507,0.027643494,-0.16470712,0.084336504,-0.04834592,-0.08710778,-0.04808,0.1567015,0.14196964,-0.12498994,0.1582295,0.100870125,0.098287426,-0.016977414,-0.04452885,0.03739528,-0.1838652,-0.10686665,0.021833848,0.16741486,-0.1075208,-0.13225405,-0.19184439,-0.023433933,0.14460762,0.043868408,-0.11111597,0.04242782,-0.025680535,-0.023960518,0.26469618,0.053554248,-0.012335741,0.12679587,-0.11603494,0.16182669,0.018938772,-0.11001561,0.10225647,0.12948136,0.22363646,0.1133012,-0.023741502,0.15900806,0.05129921,-0.09422421,0.085934736,-0.024067355,-0.16132316,-0.07523727,0.0064622597,0.13295469,-0.012140463,0.0929425,-0.14595868,-0.07960603,0.088460945,-0.072913475,0.07116031,-0.04792755,-0.06746333,-0.09415915,0.14037155,-0.16969082,0.062658876,-0.16305402,0.112481,-0.082668155,0.09536505,0.10561615,0.027433567,0.07876952,0.050411224,-0.149111,0.07510144,0.15338692,-0.03926011,-0.034362182,0.058059804,0.17835993,-0.032971837,-0.24650593,0.0250843,-0.018452542,-0.10676183,0.10698155,0.023502821,0.07005338,0.025203615,0.15583512,-0.09670959,0.077467844,0.0060902135,-0.06302774,0.04498065,0.04667979,0.043981522,0.14927427,-0.1346381,-0.20524733,0.09703724,-0.04839722,-0.040019665,0.02537383,-0.07121836,0.0661963,0.07003303,-0.07075222,0.10362302,0.13110135,0.11308381,0.020431064,-0.111111194,-0.1606646,0.033124637,-0.15316404,0.20771281,0.06253503,0.0363211,-0.0032677478,0.08330905,0.027892975,-0.11216599,-0.07003718,-0.04242414,0.012968587,-0.0066671297,-0.0035520105,-0.023966867,0.027587961,0.15762345,-0.20498943,0.10810759,0.14814922,-0.031797487,0.10503954,-0.010746157,0.05861787,-0.10928916,0.03531168,0.1212048,0.03521637,0.12995741,0.11567083,-0.13469118,0.05130731,0.07552834,0.015804345,-0.048256923,0.05891109,0.036991373,-0.1079859,-0.072524115,0.0054608122,-0.06951958,0.10671529,-0.16456056,-0.053542297,-0.14598063,-0.13539018,-0.007334028,-0.020201053,0.040478382,0.119128585,-0.1295822,-0.17125244,-0.012700682,-0.03709316,0.007133985,0.08251211,-0.29353908,0.09612169,0.14936435,-0.18470365,0.15733388,0.06433978,-0.10042491,0.13250527,-0.0056410814,0.044530176,-0.06914943,-0.03239944,-0.08426737,-0.021650298,0.10739816,0.055355195,-0.023910126,-0.04445912,0.041815624,-0.059079453,-0.1407582,0.03562211,-0.10975803,-0.03403517,-0.041720536,0.06989096,0.013600047,0.037663136,0.015166727,-0.021082997,0.03765075,-0.08310093,-0.016275663,0.03654061,0.012396599,-0.08629562,0.107714586,-0.11792385,-0.14073284,-0.08582681,-0.1277272,0.001858968,0.028024673,0.21179189,0.0070818495,0.002134177,-0.11605158,-0.08346115,0.026183596,-0.08191414,0.014573616}, {0.020562764,0.10353754,-0.063013054,0.03996151,-0.14325963,0.09213443,0.005675699,0.25465328,-0.119419694,0.052850623,-0.021357236,0.024573067,-0.054340776,-0.011565311,0.053256083,0.032218862,-0.0068694586,-0.18340017,-0.12285237,-0.06699227,-0.08191389,0.08059022,0.12828,-0.02206738,0.15738504,0.13323146,-0.13333508,0.19199924,0.048261352,-0.13733156,0.055283643,0.046830684,-0.06782748,0.04962802,0.023421425,-0.031682555,0.08672468,0.04523004,-0.06357995,0.1029784,-0.0581228,-0.16678175,-0.056659143,-0.08384405,-0.17631412,-0.080098934,0.04391524,0.08748569,-0.09288696,0.059261847,0.011617753,-0.20481662,0.049680702,-0.1770884,-0.011474837,-0.1886582,-0.12609456,-0.107784614,-0.11993883,0.022751926,-0.2007126,0.12602465,-0.057224754,0.18755282,-0.19227229,-0.21501532,0.015011277,0.1649156,0.027097946,0.16396967,0.017081568,0.033513382,0.10175687,0.03673446,0.043665696,0.019476078,0.09053683,0.19903067,-0.20947409,0.15508628,0.04777716,0.07307263,0.12088961,-0.0400302,0.12060232,-0.20644403,1.7634327e-05,-0.24547102,-0.092516914,0.00011641326,0.060173225,0.07152898,0.03180423,-0.03622139,0.08539105,-0.13322681,-0.07941459,0.018909236,-0.028239407,-0.0830577,-0.05455624,0.11354303,0.06551226,0.12002965,-0.085667394,-0.108328834,-0.018187795,0.005083126,0.20631884,-0.028954513,0.016016943,0.018587561,-0.056073844,0.07625811,-0.05804983,0.00063547125,0.29316822,-0.15730898,-0.053525813,0.039183535,0.14664814,0.20207609,-0.061493244,-0.09617565,0.10889248,0.14643063,0.11507535,0.0067037917,0.14989235,-0.099076614,-0.11637566,-0.050271537,-0.18336321,-0.009973268,0.20458387,-0.17590685,0.01417676,0.048252057,0.10650861,0.16310641,-0.19423217,0.15303679,-0.031431675,-0.11494159,-0.031358767,-0.20972577,0.12878974,0.17462021,-0.12509838,-0.019871704,-0.013562093,-0.101842016,-0.066887796,-0.009281217,-0.17427556,0.2382208,0.024640663,-0.075461105,-0.052431673,-0.0036095274,0.12733799,-0.069907054,-0.08931801,-0.014117234,0.15824778,-0.11615825,0.26959237,0.038731884,0.029289432,-0.07990517,0.027522378,-0.094290406,-0.0016565828,0.16696115,0.000109447465,-0.05899676,-0.24746133,-0.019139778,-0.31266603,0.08311749,-0.103336126,-0.018899046,-0.054098245,-0.13318685,0.13596492,0.04437396,0.04221223,0.015886338,0.011039844,-0.09443668,0.049716987,-0.09032015,-0.17530787,-0.03360291,0.099379435,0.030939247,-0.14066993,-0.029282676,0.042502474,0.07835629,-0.00054783374,-0.023681901,0.17497237,0.08371325,0.29772636,0.06671849,0.18045251,0.07999404,0.022858037,-0.29411572,-0.065353364,0.055020317,-0.0062323445,0.14113276,-0.015906492,0.016364668,0.0730886,-0.03518371,0.054077256,-0.17850484,0.03032386,0.0056757648,0.13366696,0.04227182,0.025035927,0.04365964,-0.0046549644,-0.09682915,-0.12360725,-0.018169738,0.1424248,0.00062431063,-0.019509694,0.03295383,-0.05093193,-0.13244812,0.008033321,0.0063041956,0.071933776,-0.05123708,-0.061257385,0.114244305,-0.10012363,-0.04262165,0.079073556,0.05302484,-0.25061107,-0.10613063,0.032842934,-0.039359394,-0.14596705,-0.13328615,-0.08791422,0.06774301,0.0017770778,0.118273154}, {-0.026950449,0.09017038,0.093436114,0.11638267,0.031029316,0.17740366,-0.09160017,0.15336186,0.042836387,0.10456551,0.21489227,-0.08208924,-0.015114897,0.058130786,0.18389714,0.032556865,-0.09430988,-0.21390039,-0.0090801865,0.058966067,-0.014306857,0.07722854,0.19724049,0.018242013,0.109073944,-0.13086139,-0.06627294,0.034382917,-0.04421545,0.089586936,-0.015313433,0.12974398,-0.24449396,-0.051005185,0.04541256,0.122910544,0.12513746,-0.06421292,-0.11535492,-0.003814994,-0.031011948,0.002513981,-0.20414443,0.019451817,-0.054253567,0.032257218,-0.046231873,-0.056016404,-0.049911216,0.16697922,0.14573096,-0.004834326,0.009762609,-0.074414074,0.011442746,-0.0049461685,-0.015674599,0.07486598,0.04019399,0.084583655,-0.05495279,0.015640976,-0.1174525,0.16618234,0.08800802,-0.13929428,0.04571823,0.20888263,-0.11934749,-0.0523801,0.0139787365,-0.12367894,0.093969315,-0.2249395,0.04741269,0.086051285,0.041874364,-0.03923782,-0.091559574,-0.1576798,-0.09563805,-0.0026781124,0.17755309,-0.19747078,0.08569413,-0.04864929,-0.097459316,0.028028268,-0.03899279,-0.0072643203,0.07417494,-0.076316044,-0.026920471,0.07591676,-0.090558544,-0.0148366885,-0.049623776,-0.03262725,0.029763779,-0.140588,0.13661183,0.18223402,0.13423954,-0.025282001,-0.023593893,-0.1260351,-0.026986834,0.0920183,0.054203536,0.15149955,0.082723565,-0.039119825,0.03727543,0.044224534,0.21259454,0.14210148,0.29083565,-0.14653842,-0.1002862,-0.055254005,-0.096917085,0.1707972,-0.004103213,0.01648484,-0.057473484,-0.113185614,-0.030875508,-0.035305776,0.014534785,0.043619934,0.09868385,0.050636277,0.025964042,-0.019058289,0.11421423,-0.096810855,0.18627833,-0.040469557,0.15788893,0.149619,0.08473891,0.02770313,0.13862777,-0.14542083,-0.1280012,-0.29227135,0.077330135,0.14963676,0.0082816165,-0.17227255,0.10952078,-0.24709095,-0.17584284,-0.055163894,0.054800056,0.14411624,-0.063836485,-0.05303772,0.13467485,-0.09535988,0.22716068,0.03002826,-0.18664292,-0.049164835,-0.034930333,0.16750573,0.11534982,-0.09583734,0.0538787,-0.17277579,-0.06498533,-0.07597287,-0.076387085,0.19097525,-0.07884073,-0.063268945,-0.05343702,0.008133013,-0.14362319,0.16062595,-0.13955942,0.03787061,-0.00580882,-0.094604895,0.068356305,-0.029803593,0.009818249,0.05109189,-0.0021053753,0.05894806,-0.03489543,-0.15339288,-0.10406163,-0.011951864,0.010533722,-0.047083776,0.0738756,0.07388018,0.005131725,0.09732353,0.13376401,0.06627999,0.10811199,0.055101287,-0.029436138,0.0326909,0.082054704,-0.0068758586,-0.0821348,-0.10243698,0.11077485,0.010781047,0.14767495,0.096902534,-0.122611314,-0.07714296,0.058822073,-0.07228053,-0.036951248,-0.16751097,0.0039880057,-0.034216717,0.115814775,-0.10080126,0.039040055,0.0673416,0.007008525,-0.091623835,-0.03217677,-0.048443407,0.02142759,-0.039549228,-0.010181806,-0.07138498,-0.01916575,0.11944738,0.16219261,-0.009542945,0.006034803,-0.056226864,0.23685691,0.0076396875,0.09011756,0.11458269,-0.10241106,0.15728663,0.009599602,-0.03568428,0.004270681,-0.021731967,-0.12858802,-0.06296815,-0.086801834,-0.028495694,0.053395845,0.14885998}, {0.010695631,0.0048818206,-0.017714044,-0.06616492,-0.079379834,0.16581653,-0.17643793,-0.1913762,-0.21719782,-0.1399678,-0.07210369,0.1662191,-0.16557837,0.029236745,0.09841788,-0.015646491,-0.040372696,0.022050628,-0.11595199,0.007305816,0.15327322,-0.13489413,-0.0019174642,-0.0115030985,-0.06704374,-0.013330347,0.10269641,-0.091797546,0.21524051,-0.061622303,-0.055159125,-0.19287236,0.048118714,0.14195266,-0.25730333,0.056961637,-0.051910546,-0.21297167,0.067644306,0.010936694,0.06013644,0.047203057,0.03768277,-0.115868025,-0.007685156,-0.0021024696,0.0633756,-0.06799658,0.061830774,-0.03706728,0.0744437,0.19190633,-0.1483901,0.11887175,-0.026558435,0.17625493,-0.05230224,0.0017637989,-0.038742013,0.04585595,0.022992417,0.034436107,0.082881466,-0.089532286,0.10188431,-0.02331494,-0.117660426,-0.13902728,0.0056490693,-0.23008418,0.056725003,-0.0101398695,-0.031295083,-0.062028937,0.00846264,-0.038903285,-0.11607868,-0.19306166,0.14104526,-0.04852686,0.1033542,-0.014576859,-0.10788366,0.04450138,-0.1133848,0.1502813,0.0638103,0.053271778,-0.25326884,-0.010275963,-0.02117559,0.06966151,0.09430865,0.020422937,-0.21219616,0.08966906,0.14603855,0.072794884,-0.09930029,-0.053143162,0.009616615,-0.07446672,-0.070098504,0.004887393,0.024655648,-0.01174178,0.16942075,-0.010267646,-0.2803158,-0.019333638,-0.025894882,-0.0500639,0.09253893,0.030783862,-0.009353342,-0.06621486,-0.096583545,0.04378468,0.13275939,-0.015043449,-0.045445703,-0.023483574,-0.05564346,-0.037923247,-0.040230148,-0.17140213,0.017046185,0.09430687,-0.08166206,0.031443764,0.20435962,-0.11133886,0.0719143,0.11658353,0.05176542,0.12741011,-0.0435067,0.2536479,-0.06514586,-0.08476988,0.22724655,-0.17047754,-0.09588128,0.07571798,0.18406118,0.04180757,-0.16502978,-0.14975463,0.13563716,-0.031086814,0.21231985,0.0845408,0.122258775,-0.048787627,0.07596869,-0.112171605,0.025311006,0.13948935,0.22573273,0.0088996105,-0.17117095,0.12247746,-0.006334855,-0.1626147,-0.084010996,0.07860693,-0.03210725,0.12814543,0.069732696,0.112232216,0.11701287,0.122536644,0.07739987,-0.030733109,-0.00039593034,0.045626093,0.103813015,-0.07498926,-0.008016167,0.024333876,0.101287276,0.005936544,0.10639553,-0.0034654248,0.07051848,0.11552319,-0.0839337,-0.113160364,0.07200127,-0.08444285,0.07680562,0.09414886,-0.07976145,0.19396424,-0.03880345,0.008133897,-0.1868192,-0.046783287,0.05602392,-0.1527985,0.03316582,-0.04193214,-0.105292745,-0.19973272,-0.047324978,0.054982744,-0.0750276,0.12507857,-0.07851735,-0.006873241,0.07298044,0.03718183,-0.03760112,-0.1497785,-0.0205325,0.12503465,-0.015020359,0.06322879,-0.0936092,0.021900572,0.11632995,0.049123716,-0.0420248,0.087148815,-0.16088489,-0.01513883,0.015671764,0.072129264,0.074643105,-0.08117689,0.07800759,-0.041744124,-0.04878065,-0.019119078,-0.030881466,0.09774285,-0.004397286,0.11861885,-0.22554117,0.05163521,0.14791818,0.00029876025,0.043075312,0.11591302,0.009465175,-0.1158267,0.1105041,-0.013395071,0.023677215,0.18983683,0.18819612,0.13920276,0.009213765,0.0038910315,0.007724198,-0.07508034}, {-0.0322026,0.100077204,-0.0031551798,0.05999453,-0.14303201,0.025632171,0.080444165,0.063701965,0.0026741612,0.11270266,0.016335554,0.01603798,0.023775227,-0.1726476,0.008935,-0.09200447,-0.047569983,-0.009226089,0.05442969,-0.07948991,-0.081407554,0.1593968,-0.028206851,0.19771384,0.08329027,0.13770565,-0.16278858,0.07207491,-0.05900905,0.056500092,-0.004819511,0.14605427,-0.039235048,-0.18052429,0.034298107,-0.09670531,0.07257745,0.16114163,-0.11428034,-0.07000826,0.03147905,-0.17891571,-0.01996658,0.07020123,-0.07042297,-0.16195594,-0.012735852,0.02299248,0.008474034,0.09193735,-0.11832114,-0.088622026,0.03403741,-0.06853045,-0.014448892,-0.16420393,-0.06540532,0.006041348,-0.13371256,-0.064323284,-0.07416871,0.07164545,-0.113098465,0.11368419,-0.07236584,-0.122276634,0.029458933,0.17623422,-0.12251958,0.07730566,-0.024779286,-0.024872847,0.028174672,0.09403671,-0.07891065,0.04879473,0.06448149,0.059289597,-0.20164911,-0.022168493,-0.23420951,-0.006225152,0.031008285,0.018401984,0.065692544,-0.056417584,0.008762036,-0.06610018,-0.10572662,-0.047552306,0.08672705,0.17302759,0.07203278,-0.012239869,0.06313199,-0.09852674,-0.12647226,0.08774689,0.088953406,-0.07520601,0.032700446,0.065503635,0.13926153,-0.06754334,-0.13906841,-0.0359575,0.0033840737,-0.050004,0.15183747,-0.00063427316,-0.08539492,0.10803531,-0.0647003,0.09692651,-0.05811068,0.19449227,0.28451613,-0.10164117,-0.02730853,-0.08331378,0.05535857,0.04171734,0.11942173,-0.03266421,0.11746911,0.18663104,0.028265232,-0.18652941,0.14875326,-0.050114073,-0.08712364,-0.07579294,-0.1554128,-0.05112005,0.14687006,-0.15686701,0.16870712,-0.16639319,-0.0021760527,0.15374784,-0.14228886,0.020845797,-0.01251973,-0.018145617,0.030404238,-0.2622335,0.09967718,0.025243426,-0.07300434,-0.156324,-0.14610016,-0.12863521,-0.22486554,-0.071913265,0.014886531,0.17642002,-0.031766005,-0.13364245,0.050076578,0.025058974,0.20195377,0.025854204,-0.062354606,-0.07182024,-0.010480376,-0.048746113,0.18115947,-0.076771736,0.123681605,-0.020575672,-0.12706071,-0.19126502,0.040945794,-0.020108435,-0.20795543,-0.105116434,-0.12065786,-0.1302977,-0.12537868,0.032334574,-0.17800485,-0.1188201,-0.13275196,0.051727664,-0.023688486,-0.047684394,0.02140943,0.060661625,0.057539344,0.081458405,0.013417415,-0.16462351,-0.12248745,0.012199536,0.104212314,-0.12448139,-0.0019345017,0.15016632,-0.053944726,0.035945423,-0.02051643,-0.058010258,0.1439694,0.11952867,0.16281664,0.13096319,-0.025593955,-0.006495862,0.17988224,-0.13724108,0.067892864,0.15726396,0.14509612,0.08005034,-0.17954311,-0.025901875,0.15828222,-0.010130895,-0.002197734,-0.21783707,-0.005130895,-0.04471728,-0.028445357,-0.18115523,0.028172975,0.15742822,0.073404856,-0.18521583,-0.0014976336,-0.00012496376,0.052303407,0.075802766,0.028654037,-0.10877139,0.13262537,-0.104218796,-0.10076951,-0.12438612,0.03370101,-0.16022441,0.12854338,0.05948468,-0.11397155,-0.14271986,-0.058937937,0.04546873,-0.27518398,-0.06402472,0.028663179,-0.12070998,-0.19992913,-0.20231067,-0.033867557,0.137224,0.07468539,0.05038961}, {-0.01833788,-0.01889177,0.106116205,-0.08671779,-0.025400551,-0.009326677,0.067258134,0.039529953,0.02297013,-0.10907722,-0.023818286,0.08145889,0.05681302,0.04736356,0.07509154,-0.076440595,-0.019708255,0.015059851,0.103657365,-0.10873164,0.1895503,-0.14912315,0.040487964,0.0798767,-0.075298235,-0.04793503,0.16169679,-0.014841137,-0.00526727,-0.16138369,-0.13733031,0.018343542,0.02066803,0.073266774,-0.11916044,0.0074120522,0.07084541,0.041566744,0.018985936,-0.16645773,-0.15847419,-0.07928229,0.08916827,0.017821448,-0.04494838,-0.023966633,0.046357602,0.0049229916,-0.11661796,0.11672006,-0.0693241,-0.08454439,-0.13582563,0.15985166,-0.068716176,0.04477854,-0.015318232,-0.058809716,0.07767529,0.018421486,-0.017801305,-0.08220213,-0.1646701,-0.010755379,0.0068771173,0.23307425,-0.09392588,0.049760263,0.12782519,0.034959376,0.06482164,0.052380107,-0.012293349,-0.094524704,-0.020076424,0.062245898,0.1321654,-0.027083261,0.02384598,0.035012554,0.04687722,-0.16106857,-0.09674722,0.06157559,-0.05409784,0.15873936,-0.0452549,0.08934379,0.010294131,0.1877886,-0.064457834,0.098302215,-0.052306827,-0.12572859,-0.03304901,0.181987,0.1464326,0.16716014,0.09559347,-0.016150873,0.019873913,-0.06909422,-0.08261182,0.024072148,0.050919373,-0.0009569115,0.039557327,0.054880176,0.044062097,-0.02341607,0.08777033,0.07837965,-0.056634106,0.010932807,-0.1333929,-0.0818142,0.0919868,-0.013838547,0.18130004,0.12813602,-0.026137242,-0.011650815,-0.15086539,0.08690868,-0.0280437,-0.063511215,0.22708811,0.12673865,0.004241536,0.1537743,-0.0071046827,-0.016770417,-0.017412411,0.04107926,0.04243294,0.09149594,-0.0040918346,0.04229143,-0.15555583,0.13049598,0.066424005,-0.060837816,0.049811803,0.049622767,0.00039968506,-0.067305,0.019407144,0.0070413346,-0.096326075,0.008576739,0.17160068,-0.092431255,0.04995832,-0.014932208,0.016419316,0.30646408,0.11478176,-0.028455276,0.14036004,-0.114765845,-0.009613479,-0.029903963,0.053554013,0.049482666,-0.0756051,-0.020994894,0.10136379,-0.016908348,-0.090107374,0.09421342,0.14561263,-0.059569694,-0.008366307,0.03648867,0.03885201,-0.13581087,-0.0057256194,-0.026277738,-0.08189659,-0.0402635,0.11327993,-0.012244817,-0.011414214,0.14212519,-0.13691899,-0.07128049,-0.099709965,-0.04123225,0.030454453,0.091237,-0.09180907,0.09341609,-0.08086051,0.21048851,-0.045642562,0.08407496,0.09835275,0.039979115,0.091274954,0.118459,-0.21398629,0.24279837,-0.085786246,-0.11640293,-0.08831228,0.005367254,-0.009385809,0.034715906,0.06611584,0.115715355,-0.06318605,0.22248152,-0.0898772,-0.13274981,0.026810043,-0.02582191,-0.13629204,0.2743617,0.03788246,0.02870122,0.10732158,-0.021305963,0.019921005,-0.09506362,-0.1545294,-0.07912724,-0.03937469,0.03613371,-0.008743067,0.11824323,-0.030168366,0.16559537,-0.057937328,0.13100371,0.27254757,0.24985765,-0.01873993,0.07303895,-0.068506956,-0.036950998,-0.04329408,0.018095793,-0.0755487,-0.040628407,0.00078451313,-0.20223087,-0.022194332,0.17614476,-0.022616211,0.05901291,0.050090957,-0.023698675,-0.06614862,0.01796302,0.095885076,-0.07789518}, {0.10506305,-0.01805038,0.060530163,-0.06932869,-0.12680075,0.010919912,-0.03430213,-0.15055239,-0.12831706,-0.08555123,0.03224097,0.06435395,-0.07677452,-0.05935195,0.089004114,-0.079014786,-0.079344794,0.034561627,0.10485298,0.19340207,-0.10997503,-0.0060452987,-0.16001141,-0.001977988,-0.0960084,-0.040443864,0.046206724,-0.017467279,-0.028077038,0.21128778,-0.045462515,-0.031213295,0.00942806,0.005232134,0.08399325,0.06511526,0.040579382,-0.0058418224,-0.18034044,-0.0056699007,0.13333666,0.035555944,-0.086393945,0.047724545,0.30884948,-0.124355115,-0.077482104,-0.19300668,-0.07602259,-0.085405774,-0.13571212,0.285929,-0.13162193,0.07729394,-0.04619879,0.031203324,-0.016912056,-0.029597184,0.07032931,0.04273121,0.11184161,0.007282497,0.01096867,-0.027874937,0.08634115,-0.022537136,-0.013885032,0.13694006,-0.07180457,-0.013903278,-0.016879348,0.06317562,-0.12062904,0.013683079,0.056961134,-0.12482843,0.13009042,0.050550453,-0.0062419763,-0.10756962,-0.027490497,-0.022516657,0.027358422,0.14910333,0.02186238,-0.00074098486,-0.14621264,0.046273507,0.092556424,-0.15436189,0.1424097,-0.061736878,-0.050309844,-0.008258876,0.06387764,-0.016209356,0.019455092,0.039735988,0.19462469,0.23028779,-0.10556944,-0.03339341,0.027536908,-0.16476788,-0.0070607606,-0.25754097,-0.092428885,-0.15274137,-0.028863762,-0.09213134,-0.18656513,0.22240673,-0.06505769,-0.0029242535,-0.02593128,0.21065827,-0.1437383,0.0566829,0.032826792,-0.04428585,0.069471814,0.011600616,-0.052157793,-0.047879208,-0.28171274,0.15144786,-0.11595295,0.12868315,-0.005325049,0.024309346,-0.0022510744,0.07383592,-0.010417391,0.035784002,0.035180423,0.086284705,0.009875006,0.17490658,-0.1926076,0.0018110132,0.003140196,-0.15695816,-0.025861545,-0.050911818,-0.011239596,0.024611853,-0.06752547,-0.017708607,0.1632437,-0.07326853,0.08412029,0.09107037,-0.23682676,0.026154568,-0.2634501,-0.07161875,0.05575645,0.19558291,-0.3440545,-0.01247786,-0.09857617,-0.0644556,0.08698316,0.086018115,-0.08921127,-0.02504687,-0.047607597,-0.09558577,-0.08095825,0.13241069,0.06910359,-0.19023807,0.14783508,-0.21090282,-0.105710715,0.031345926,0.12362893,0.032574028,0.05614116,-0.034213047,0.11745284,-0.1055721,0.03520333,0.20211045,-0.13425711,0.04345209,-0.114739105,-0.167968,0.02572666,-0.10466668,-0.09794791,0.17050192,-0.02424371,0.19897896,-0.118854515,-0.15005729,-0.03312242,0.0036130373,-0.12781796,0.05082258,0.057613786,0.034440544,0.093938224,-0.2356038,-0.009526977,0.14193378,0.05130225,-0.10743386,0.07849793,-0.19194753,-0.18747965,0.026865346,-0.03498014,-0.21357232,0.10245974,-0.101949126,-0.070307724,0.089151345,-0.044914432,0.24102564,-0.2891428,-0.16018519,-0.0969492,-0.025492065,-0.046140514,0.25428724,0.038181577,0.18404637,0.022067493,0.23227496,0.07252312,-0.004358357,-0.24895197,-0.08949975,0.07271271,0.006107174,-0.036421902,0.2494002,-0.121521994,-0.0147706,-0.17610711,-0.1364387,0.0181986,-0.06615515,0.0540559,0.10814493,-0.08768359,-0.17141384,0.093621336,-0.012130106,-0.035255235,0.02622573,0.23338154,0.14927565,-0.046247654,0.11410457}, {0.08068817,0.008897869,-0.21826297,-0.099926025,0.04326744,0.035564747,0.018229682,-0.082319416,-0.08937732,-0.0672439,0.021994777,-0.022090808,0.1373049,0.033791035,-0.07341011,-0.0763086,-0.13493274,0.1682396,0.09502404,-0.20726402,0.14893575,-0.16153306,-0.16345853,0.068263166,0.15481439,0.16997881,0.08607243,-0.07756189,0.009952778,-0.1818398,0.056956418,0.051963307,0.18172379,-0.03219688,0.021612113,0.0022543392,0.10987646,0.031052206,-0.13355641,-0.09700661,0.028393436,0.011511659,0.1685421,-0.11741316,0.005876818,-0.1044665,-0.023937685,0.00022000907,0.052394435,-0.03760567,0.018158218,0.017594533,0.22239156,-0.07623755,0.053274296,0.12700272,0.03676156,-0.01283209,-0.023763621,-0.021331254,-0.08422324,-0.020098912,0.010600466,0.005236719,-0.17128617,-0.12854986,-0.025088632,-0.04361189,-0.012093274,0.06607899,-0.073904395,-0.0088728415,-0.06475405,0.22074175,-0.17927551,0.1338605,-0.03454351,0.0011395751,0.008790073,0.15040253,0.122295745,-0.05770609,-0.077454485,0.27294067,-0.1810941,-0.07299609,0.17863743,-0.08548211,0.12832618,-0.14661855,-0.016596997,-0.22240184,0.13012956,-0.12386595,0.113370866,-0.024851002,0.08973747,-0.050073344,0.00034497507,-0.061076205,-0.26530418,-0.18365923,-0.19343175,0.15443997,0.17991532,-0.048102334,-0.011379006,-0.24085762,0.09762511,-0.008482847,0.02501098,0.1183883,-0.07819162,-0.1838757,-0.12338841,-0.029722327,-0.2668594,0.03234319,0.014501268,-0.02897735,0.14744735,-0.17970255,0.1097459,0.08675473,0.11961594,0.031128835,-0.08825658,-0.06335345,-0.023187868,0.115622096,0.023174305,-0.19122219,0.04321833,0.062204886,-0.13639896,0.027823234,-0.1004784,-0.021962523,-0.07285741,-0.1654522,-0.22511783,0.2665172,-0.07952717,0.003549498,0.0019706734,0.20332113,-0.025473902,0.11599703,-0.037291083,0.089863904,-0.22466668,0.052981902,0.24862704,0.15705994,-0.2244908,-0.2914741,0.077585645,0.06942369,-0.076257266,0.028580848,-0.08844186,0.22766949,-0.08063701,-0.12529702,0.07288493,-0.26941037,-0.02435143,-0.0172046,0.042583186,0.09669151,0.0690667,-0.06972222,-0.02250845,-0.03315874,-0.04157535,-0.06927683,-0.026705557,0.09662093,0.122477904,0.053450055,0.11738215,0.10088761,-0.05114249,0.13305923,0.08757736,-0.04805565,-0.059963778,0.019844515,0.059855558,-0.13793573,-0.0028528236,-0.008300429,-0.13962744,0.08266723,0.18733807,-0.14252366,-0.060733803,-0.10829217,-0.0050637685,-0.0743832,0.16674416,-0.066494435,-0.25325474,-0.06133679,0.06638968,0.05946608,-0.12887482,0.031048128,-0.00012522946,-0.14545792,0.0036833035,0.036811933,-0.05426826,0.044533916,-0.036502916,-0.11290627,0.20733857,-0.16095378,0.034176674,0.13029368,0.22461042,0.06588423,-0.07389918,0.06438506,-0.09599297,-0.09270413,-0.055465423,0.085950546,0.19623594,0.049603064,0.11670177,-0.06582196,0.100819446,0.16648689,-0.082342125,-0.17034785,-0.12188624,0.01613799,-0.029165257,-0.051922992,-0.025392734,-0.033253457,-0.15328795,-0.16297475,-0.06529421,0.06987512,-0.05671577,-0.104683295,0.06521391,0.00022983906,0.09318584,0.0075935433,-0.10217354,0.07218408,-0.13682783,-0.11564474}, {-0.012546183,-0.425621,0.12623839,0.05150427,-0.038251743,0.05395744,-0.08915046,-0.25698593,-0.025060058,-0.19804958,-0.08176242,0.26685604,0.03417216,0.19297165,-0.012555093,0.06353137,-0.016991325,-0.039839752,0.07534135,0.040247217,-0.028972382,0.04450101,-0.19852051,0.066200785,-0.101182476,-0.10290098,-0.08253536,-0.25043288,0.051031798,0.15379049,-0.061292913,-0.21030216,0.29241392,0.20514442,-0.106381185,0.08711784,-0.15545821,-0.2644339,-0.08789026,0.05273038,0.3211461,0.08622524,0.09898523,-0.11135339,0.089826554,0.017260157,-0.03781779,-0.07846752,0.12606265,-0.123049505,-0.033024345,0.20053715,-0.11980153,0.1299034,-0.11682247,0.059706874,0.06003559,0.097204626,0.14136554,-0.06479546,0.019526595,-0.16542861,0.101790845,-0.15213177,0.18455483,0.0055010314,-0.028368236,-0.04032911,0.11511498,-0.033248357,-0.13644476,-0.027887842,-0.08243266,0.12898669,0.01690634,-0.2873992,-0.02558634,-0.33084002,0.06968626,-0.17647758,0.020408126,0.04003906,-0.011946046,0.089651555,-0.15033238,-0.04561987,0.087675154,0.12899558,0.082653254,-0.23145853,-0.17660837,-0.0006975156,-0.066234365,-0.20574532,0.010872694,0.050968368,0.08274759,0.0017870916,-0.038469166,0.028314903,0.004282164,-0.43524465,-0.1765881,-0.080633834,0.26537582,-0.21585572,-0.11596774,-0.183719,-0.10330681,-0.2289115,-0.11213389,0.21440327,-0.03912768,-0.059358977,0.23339903,-0.04115055,-0.14894544,0.09981535,0.34540302,-0.12579848,0.15132344,-0.03709196,-0.21158065,-0.040926974,-0.23887198,-0.0011572792,-0.007970123,0.1476446,-0.24846518,0.020748666,-0.035208855,0.040213443,-0.0046871286,0.06965864,-0.03584972,0.021436166,-0.015862213,0.04344343,-0.25832897,-0.1075703,0.1466762,-0.13885859,-0.028741922,-0.23528133,0.05962533,0.3491662,-0.3776381,-0.1057955,0.049022567,-0.07972024,-0.029626034,0.30677032,0.1325784,0.0029341483,-0.05442904,-0.3620792,0.022174312,0.22126792,-0.01699821,0.08926842,-0.25617006,0.11207157,-0.026844474,-0.0032532192,-0.22674653,-0.25100207,-0.21774368,0.05315279,0.17522857,0.34531352,-0.086885095,-0.07246866,0.14393263,-0.11289592,-0.002209387,0.025965393,0.2834907,-0.0036980354,0.1082933,-0.050552502,0.047210254,0.12169869,0.0887677,0.06480197,-0.06239061,0.12513043,0.021958668,0.073665656,0.048230782,0.008306558,0.050594684,0.1022789,0.017225925,0.064748116,-0.06726965,-0.27947325,-0.13825782,-0.1501611,-0.059601363,-0.25807142,0.28691134,-0.20044032,-0.23908941,-0.073479265,-0.0210155,0.15993309,-0.21946476,0.02776556,0.007045309,-0.036357157,-0.20365386,0.26008448,-0.096427895,-0.12959233,0.12723692,0.047019493,-0.24453218,0.13735177,-0.105563134,0.31905675,-0.0018210565,0.18671109,0.0039032197,0.20925158,-0.0047881473,0.085074656,0.11590047,0.13174647,0.19366159,-0.091255054,-0.149271,-0.028560348,0.0073900875,-0.045445938,-0.13323307,0.091650225,-0.11583446,0.18049437,-0.1815009,-0.13176343,0.091725774,-0.19059029,0.025708018,0.0497054,0.06701979,0.22721961,0.25147864,-0.29059088,0.06391505,0.04855654,0.2513277,0.07941341,0.21206832,-0.056603376,-0.032401673,-0.11224586}, {0.04293946,-0.021548385,-0.042978622,0.14201586,0.049858157,0.19467287,0.040394966,0.12779798,-0.1421155,-0.11730679,0.25608614,0.0074578836,0.15702751,-0.03497163,0.104255505,-0.076208,-0.2348077,-0.20213461,-0.077705495,-0.30659184,-0.010458323,-0.02270418,0.030933015,0.063684046,0.00086341426,0.16387798,-0.12403567,0.052076783,-0.026747132,0.002143028,-0.16077165,0.059232842,-0.05115935,-0.09934951,0.005650389,0.1397525,-0.07906213,0.015251967,-0.023904342,0.038147002,0.015037639,0.022969378,-0.15774685,-0.18311818,-0.009756491,-0.0012159741,0.005740062,-0.021583589,-0.22138605,0.19311005,0.09803763,0.08155584,0.23791184,-0.04736387,0.118669495,0.07659415,-0.07928201,-0.007058756,-0.06129479,-0.01470382,0.024084045,-0.1143911,-0.20288928,0.16987115,-0.063178495,-0.18338457,-0.039640926,0.08236575,0.0022007322,-0.17167366,0.089832485,-0.09046742,0.10365697,-0.144838,0.02466137,-0.08902602,-0.046477217,-0.05141628,-0.02690341,-0.072087646,0.018848961,0.023989731,-0.042272896,-0.04090064,0.087373726,-0.019750323,-0.10023957,0.028253557,0.09443035,0.04649871,0.30233565,-0.17270781,0.14713886,-0.012348815,-0.12945576,-0.0005622908,-0.0135891335,0.14349759,-0.010620733,-0.1051998,0.06580246,-0.06763416,-0.0037425116,0.0015882363,-0.09026493,-0.06772856,0.1200059,-0.020635152,-0.050676126,0.2225096,-0.07370546,-0.023918891,-0.10447205,-0.039211128,-0.015460819,0.21975219,0.19040768,-0.06363491,0.12837696,-0.06942868,-0.16296652,0.07375098,0.08352542,0.1399767,-0.0119338315,0.09329648,-0.016023492,-0.10415758,0.059621695,0.1502416,0.18263508,0.034170862,-0.13457538,-0.25889963,-0.033556767,-0.17396404,-0.1373845,0.012899744,-0.052708287,-0.11429649,-0.27051878,0.080687396,0.022054147,-0.014909402,-0.047976714,-0.31286803,0.08189919,-0.029409952,0.008844657,0.040858634,-0.09420315,-0.06703034,0.015805282,0.13497949,0.19065243,0.0011385711,-0.098766744,-0.008393378,0.07755879,-0.13013907,0.07142334,-0.08315233,-0.13861515,-0.21901377,-0.032668218,-0.12362653,0.17573057,0.057974692,-0.053732798,-0.002873287,-0.11657837,-0.042782757,-0.14776072,-0.02001071,-0.099301614,-0.09358085,0.055414308,-0.11244839,-0.19396229,0.013634211,-0.058733385,0.11257535,0.13779989,-0.21669225,0.018327536,-0.032547507,-0.08866401,0.089514256,0.16588756,0.0907799,0.15714753,0.054626428,-0.026666384,0.08425412,-0.06501347,-0.016877113,-0.027718872,-0.051320087,-0.04690149,0.03744381,0.118431404,-0.13617279,-0.08562456,0.09635658,0.08711316,0.028427057,-0.07864568,0.017159063,-0.08807616,-0.056681663,0.025148846,0.042843632,0.07647717,0.1631345,-0.12365061,-0.14111474,0.12203755,-0.029044498,0.01502622,-0.22925666,0.18204819,0.07546611,0.10400287,0.115043014,-0.18889707,0.040541332,-0.048106186,-0.050554916,0.015301057,0.0025620793,0.04872989,0.19413176,0.12002133,-0.018380761,-0.004203253,0.022097366,0.01314697,-0.19251563,-0.06481321,-0.101117805,0.074137226,-0.14003669,0.016903648,0.17237382,-0.05476295,-0.102619246,-0.11187556,-0.08863642,-0.10779701,-0.083944924,-0.0034290554,-0.11686013,-0.06099904,-0.01299343,-0.024921352,0.17951365}, {0.00355954,0.20091777,0.047713123,-0.13407014,-0.005493867,-0.18452062,0.030425144,-0.003246553,-0.17976391,0.056668688,-0.030012142,-0.18777068,0.09371374,0.101778604,-0.08780384,-0.19226186,0.15580848,-0.12718756,0.04657003,-0.14918436,0.0778566,0.026035096,-0.14784302,-0.0057878466,0.0968241,0.14126779,-0.056031916,-0.059783034,0.054745093,-0.04531356,0.122555286,-0.001917755,0.086823925,0.020396333,0.07425453,-0.029587226,-0.2447353,-0.25695187,0.083180696,0.09312516,-0.15831946,-0.007670881,-0.0019359435,-0.033631373,0.104522265,0.11682083,0.1607457,-0.07075475,-0.03402406,-0.05139009,0.018062936,0.32973173,-0.20822825,0.131966,-0.02432737,0.10644908,-0.2602465,-0.09247949,0.012873596,0.13284534,0.12841134,-0.10120773,0.12868205,0.032335907,-0.072047,0.101744846,-0.13591155,-0.003925663,0.13935648,-0.17812805,0.05877142,0.21117374,-0.13125323,0.08665447,-0.13708252,-0.027115412,0.14261831,0.097553216,-0.10091478,-0.10037675,-0.11628216,0.11313847,-0.31505373,0.059560567,0.06133366,0.14705774,-0.05504584,0.01851655,0.11888707,0.025107594,0.037119903,0.25537932,0.0068055834,-0.023691215,-0.021694774,-0.11842301,-0.18400362,-0.16150944,-0.014326186,0.081961386,-0.019950546,-0.13404778,-0.071426645,0.008616732,0.0895289,0.08182884,0.00975314,0.06358039,-0.31338078,-0.02202936,0.003981464,-0.10596811,-0.023369117,0.04283987,0.025218133,0.12029991,-0.019654036,0.020037875,0.01051979,-0.073012024,0.04181558,-0.02457334,0.04627813,0.038411546,-0.14055704,0.053884175,0.092897475,0.06786103,0.045451242,0.01410553,0.04844786,0.20729016,-0.036737613,-0.10325578,-0.24174489,0.37865302,-0.15237409,0.08845039,-0.07067288,-0.10540705,-0.007110737,-0.09506793,-0.086680114,-0.06397966,-0.01000143,0.15318438,-0.028901547,-0.082096584,-0.09060469,-0.066850774,0.009873989,0.09971972,-0.2049282,0.0046159914,-0.12244423,-0.055159677,-0.08574561,0.14956768,0.077054776,0.23562452,-0.11143371,-0.07773802,0.13891333,-0.039054826,-0.02147453,0.09080582,-0.09995169,-0.020596134,-0.061513636,0.0037606396,0.21116869,0.08452442,-0.107582286,-0.15272675,0.111173674,0.1207548,0.13052624,0.023250243,0.22062153,-0.14279382,-0.0764764,-0.16499521,0.15533423,0.049337655,-0.19496925,-0.10844585,0.06340546,0.020216549,0.021513622,0.015188917,-0.091979794,0.00027446516,0.19498165,0.1379071,-0.22039963,0.08721193,0.10505403,-0.023610432,0.066167966,-0.116289504,-0.07651576,-0.06384068,-0.041904446,-0.099744916,0.042520702,-0.26111358,0.16768382,0.006790364,0.0010708335,-0.036446996,-0.06681384,-0.19721626,-0.023775898,-0.01858395,0.022377476,0.1621456,-0.24151966,0.06642603,-0.24186787,0.11726598,-0.0509455,-0.22599632,-0.20269847,0.2259753,-0.16704705,-0.09054382,0.00036443662,0.177664,0.12950002,0.18758222,-0.23988476,-0.07237452,-0.05130637,0.05468342,-0.0617749,0.08714473,0.031844284,-0.041620746,-0.0512669,0.15525013,-0.05172794,0.09322341,-0.11684913,-0.004745743,0.01195639,0.079614826,0.2819113,0.14525917,0.10001623,-0.100608796,0.25348374,0.16432613,0.17075412,-0.017654391,0.01683339,0.03576567}, {-0.03531373,0.0048746685,0.08448603,-0.057132263,0.022775436,-0.03789644,-0.019883985,0.07302603,0.061946843,-0.13950737,0.08690578,0.084555194,-0.16509789,0.056417193,0.026133107,-0.063198686,-0.07318595,0.010166199,0.033418708,-0.12816082,-0.12137864,0.08044929,0.122776546,0.20915313,0.046668272,-0.060651973,0.084727645,-0.00082280906,-0.10871298,-0.1635441,-0.009650158,-0.061346397,-0.107654296,0.08634442,-0.04942082,0.017110571,-0.022436759,0.16080378,0.053846285,-0.00060660474,0.030337863,0.09428012,-0.19418614,-0.05944321,0.058846854,0.0019485595,-0.069783464,0.021505898,-0.009769117,-0.059152637,0.036011584,-0.008920115,0.023099484,-0.050509967,-0.27164704,0.05843443,-0.12365582,0.09094698,-0.17089227,-0.09402971,-0.015440243,-0.04145594,-0.03981229,0.02201944,-0.16030385,-0.038964983,-0.068140075,0.1164375,-0.16309808,-0.09574292,-0.09728612,0.057860915,0.34392115,-0.22928081,-0.16467571,-0.14183336,-0.104367785,0.052220527,-0.05307207,0.060109157,0.032020908,-0.10893443,-0.1921563,0.13274404,0.06767147,0.10936713,-0.019926546,0.015900102,-0.25170183,0.040413205,-0.001087678,0.022090545,0.042130545,-0.09311149,-0.063780315,0.07845131,0.09154963,0.03188684,0.052243013,-0.17682016,0.13116829,-0.04752749,-0.11663626,0.012057359,-0.22050297,0.07188012,0.20947991,-0.008931746,-0.070009954,0.0003127253,-0.1607198,0.17346212,-0.110457696,-0.14753437,-0.16204938,0.09213296,0.17109331,-0.120504975,0.030565271,0.17522684,-0.055032533,0.028524334,-0.105199054,0.26537937,0.02479887,0.0795455,0.08460808,0.14964342,0.1909942,0.07358882,0.16126432,0.03244549,-0.11834674,0.04433094,0.09356629,-0.09409874,-0.025861854,0.0242342,0.12491144,0.216981,0.11243782,0.07492092,0.015175198,0.031207265,-0.016723648,-0.25401673,-0.09143673,-0.011256275,0.039724756,0.031187968,0.05267606,-0.120059974,0.030687608,-0.022916606,0.035875488,0.1511039,-0.053679653,0.041802086,0.15442944,0.22032775,0.13800533,0.1952929,0.15509683,-0.18194392,-0.052498233,-0.052190956,0.15176436,0.06125837,-0.12174234,-0.04145456,0.008291241,-0.06097273,0.18754764,-0.03559516,-0.0704124,-0.13522428,-0.064785525,-0.110807866,-0.041333254,0.16390029,-0.07514007,-0.09606876,-0.07255007,0.094553374,-0.015272317,0.054652896,0.020117529,-0.14454637,-0.05147026,0.00051372516,-0.034637574,-0.0435324,0.01349935,0.3048351,0.08274146,0.10787285,0.13987137,-0.011914556,0.032830775,0.05286833,0.09607229,-0.017120576,-0.014331402,0.16256128,-0.17767543,0.21920606,-0.012294484,-0.056745406,0.0014631455,0.010545947,-0.06278091,0.069913484,0.019255185,-0.06949796,-0.21242857,0.051524457,0.0032792282,0.059509397,0.003815462,0.05644718,-0.013926163,0.0073764366,-0.03231738,0.013230934,0.013894659,0.09178585,0.17550145,0.04813719,0.19300206,-0.020685924,0.041006997,-0.057001308,0.05129713,0.0072375163,0.02523572,0.1109791,-0.03277065,0.0110352775,0.05199182,-0.024219647,0.16944873,0.03369231,0.048896648,-0.022985786,0.083684236,-0.17841703,-0.04635904,-0.048965666,-0.08916578,-0.019810278,-0.012004028,-0.091138825,-0.11759358,-0.07320307,0.14650485,-0.0769795}, {0.15782677,-0.0073961923,0.01832171,0.2018063,0.1142722,0.10942165,0.021361772,0.015835365,0.12985146,0.22563386,-0.057302807,0.14355536,0.11167261,-0.0923834,-0.013620349,0.21868733,0.121156015,-0.14017642,-0.07018956,-0.073253304,0.06279749,-0.1552198,-0.058973793,-0.07975752,0.0046694996,-0.13282265,0.043934107,0.027974274,0.15963195,0.04590989,0.17341104,0.05071287,-0.017681634,0.022254288,-0.056282353,0.019017534,-0.05438135,-0.020839915,-0.11063482,-0.16446017,0.0030957079,0.084671564,0.14978595,-0.038423724,0.14436036,0.07334456,-0.08622079,0.1516228,0.14782311,-0.09962975,-0.031601273,0.062270142,-0.090822995,-0.07674853,0.0036719742,-0.026002778,0.038885295,0.06650092,0.072051644,-0.05052212,-0.07841208,0.083457604,0.0036930707,-0.19394846,0.07753616,-0.1609954,0.2720276,-0.064214125,-0.003401751,0.03229765,0.035123754,-0.13170955,0.025103318,0.070480846,-0.00801673,0.0730049,-0.15085231,-0.0110383,0.01896715,-0.08540523,-0.09272707,-0.13218595,0.027825184,-0.31324077,0.12830351,0.013552136,-0.0035546236,-0.010254852,-0.026724638,0.19978863,-0.12418719,-0.08486908,0.033638097,-0.073631294,0.02492073,-0.037937917,0.0535575,-0.09797913,-0.014382376,0.01639099,0.068580434,0.1790656,0.12553665,-0.08103511,-0.03575438,-0.030217014,0.026045289,0.10551191,0.16356952,-0.12291503,-0.07229598,0.11663502,-0.24756554,-0.038284823,0.28819072,-0.09704775,-0.03517504,-0.049850516,0.011323607,-0.047641218,-0.0009137802,-0.017631268,-0.11378925,-0.013893027,-0.15023993,0.017655302,-0.16551994,-0.12233844,-0.09329405,-0.15244585,0.046505,0.0981584,0.12707855,-0.1026387,-0.075573996,-0.088683136,-0.08271375,-0.13078251,0.13532121,0.07918381,-0.0069844075,0.09560321,0.056400757,0.1029798,-0.017804299,-0.016559603,0.050143562,-0.1389555,0.12971382,0.12856,0.010281887,-0.03495115,0.1539808,-0.029498821,0.13036817,-0.030764684,-0.04024295,-0.0036245706,0.008116546,0.044767965,0.07302007,-0.0039604306,-0.013959833,-0.004768535,0.046399027,0.14840859,-0.08711756,-0.085373715,0.060493726,0.09803129,0.013326477,-0.07879373,0.01879954,0.0599652,-0.06121635,0.2015005,-0.10156256,0.033312645,-0.013450644,0.05447112,0.15394336,-0.11626832,-0.062464744,-0.033813152,0.08142749,0.13068756,0.0777761,-0.09242575,0.007332927,0.058832377,0.021261126,-0.15022089,0.045438047,-0.10165992,0.04060544,-0.23928818,-0.14247234,0.07103217,0.025394965,0.024263527,0.16587724,-0.0034594692,0.0067836153,-0.058815584,-0.018482706,0.08366075,-0.13211094,-0.10613257,-0.14431047,0.15841775,0.15393226,0.039062403,-0.033180155,-0.051830173,-0.06294626,0.06264222,-0.1287029,-0.18026496,-0.07156381,0.09274727,-0.034923933,0.107458234,0.0146195255,0.029751437,0.16341457,0.11699326,0.14133526,-0.15414746,-0.06370034,-0.063851416,-0.09393866,-0.07884661,0.07087898,-0.11222139,-0.19875994,-0.2070913,-0.11344376,0.09703088,-0.08137222,0.01773852,0.057694376,0.03060487,-0.015076259,0.012968847,-0.09351724,0.13697712,-0.00807168,-0.04482767,0.10028574,0.07266754,-0.027156457,-0.086616285,0.033192787,-0.077401295,-0.005325626,0.14436644}, {-0.021464331,0.032608747,0.10060122,-0.0695923,-0.06154051,0.0058416566,0.18169278,-0.14346957,0.091623574,0.22106826,0.061792642,-0.032797165,0.09408434,0.08331004,0.11336338,-0.021484023,-0.021800319,-0.13845949,0.06906147,0.02238515,-0.11495547,0.14001058,0.14422141,-0.075589366,0.11359208,-0.14165492,-0.18883452,-0.00169009,0.10870944,0.1802039,0.02069467,0.19171165,0.0068625356,-0.14779742,0.16586551,0.080893636,0.12305113,0.019589754,-0.08831473,0.12958965,-0.09034846,0.08076461,-0.15300876,0.09328544,0.07963535,-0.044863317,-0.1268042,0.03107947,0.0040584686,0.045899257,-0.15327252,0.00595699,0.04172153,-0.20855552,-0.023177328,-0.20144045,-0.0007760844,0.10444713,0.03133287,0.057563215,0.03189913,-0.060328484,0.0029026272,0.03802624,-0.2350227,-0.17760128,0.08373935,0.08111672,-0.004392707,0.0712416,-0.0850191,0.09884503,0.18601136,-0.06122783,0.14498118,-0.0035237928,0.0486286,0.093683615,-0.05242468,-0.13009596,-0.20647082,-0.06772989,0.1249095,-0.28862405,0.099603325,0.08869897,0.120149925,0.01884724,0.19487552,0.032002132,0.008480092,0.09010662,-0.13583627,0.20041361,-0.0032245498,-0.20134804,-0.21216735,0.10257754,0.050899886,0.038775347,0.007836548,0.2077065,0.13348618,-0.13568164,0.028651766,-0.19623911,-0.18611369,0.16568017,-0.046306826,0.15721141,-0.12511846,0.09420587,-0.010928662,0.023475919,0.10202109,0.10077619,-0.070870124,-0.009037283,-0.17546515,-0.010365737,0.13668658,0.01172743,-0.04610119,0.16290657,-0.09006727,0.15871467,0.0929617,-0.30564398,0.07692273,0.007231085,0.051428143,0.14402348,-0.04662761,-0.009436636,0.109956704,-0.07204586,0.094900884,-0.23792274,0.043877162,0.26847196,0.076539986,0.18444012,-0.009760877,-0.120708816,-0.010532642,-0.13040659,0.083869755,0.15615046,-0.048973665,0.08316915,-0.19435525,0.015912678,-0.24533233,-0.020745266,-0.03282527,0.14091659,-0.12650077,0.03238246,0.20313843,-0.029654266,0.044945884,-0.21770677,-0.030326473,-0.017920159,0.12674336,0.17092064,-0.011972318,-0.0718745,-0.23799235,-0.26186937,0.09295645,0.10933827,0.09751032,-0.044224557,-0.14342813,-0.14939302,0.049580146,0.14494884,0.020459212,0.05772997,-0.020621462,0.049260702,-0.029176142,-0.02523291,-0.17660396,-0.04847537,0.01881618,0.06394565,0.1266885,0.059990764,-0.19575775,-0.017381808,0.017551139,-0.18058687,-0.06774569,-0.18794091,0.18640737,0.041577905,-0.032063197,0.058397368,-0.073087975,0.01387926,-0.0008318014,0.12995642,-0.11044583,-0.047591414,0.07013162,0.042731892,0.08489762,-0.051806152,-0.13731408,-0.1080634,-0.036406867,-0.07889608,-0.014131589,-0.022060825,-0.0017695369,-0.16736846,-0.03334789,-0.19601889,-0.00904325,-0.056547586,-0.042794153,-0.08128602,0.053251065,-0.014426483,0.1287029,-0.08664006,-0.10943652,-0.024153873,-0.15261807,0.036133755,-0.2313764,-0.12396904,-0.032520138,0.1478398,-0.23477988,0.051153634,-0.0045737247,0.009580135,0.14545825,0.0201824,-0.04620314,-0.044102978,0.07133834,0.18582372,0.17884693,0.1858765,-0.04587879,-0.1915227,-0.029080799,-0.019315412,0.14065258,0.03815984,0.040340766,0.004214927}, {-0.029948184,-0.06583113,0.09115533,0.11538234,0.05280834,0.080597125,0.024111036,0.072697096,0.09030478,0.14422846,-0.014020422,0.024967618,-0.1672233,0.0021608628,-0.094272256,-0.06857156,0.018798746,-0.1744373,-0.022028947,0.13962004,-0.16682673,0.1023571,0.17788252,0.0069379453,0.17757481,0.06816854,0.041511375,0.18883865,-0.019072047,-0.019697279,0.05538702,-0.091521814,-0.26667002,-0.11468165,0.26108134,0.09155653,-0.051129535,0.0116623705,0.036531676,-0.056909285,0.08698881,0.08813051,-0.18498889,0.13519639,-0.12015243,0.27416617,-0.2285157,-0.061603807,0.037497897,-0.06769607,0.045303617,-0.15056619,0.10254971,-0.16139367,-0.067887425,-0.2275056,-0.0067406856,0.06085159,-0.09819987,-0.07188878,0.20373414,0.14304611,0.15684663,0.2198182,0.112190396,0.018787252,0.1732661,0.055911377,-0.13396879,0.011957343,-0.057570145,-0.08750527,-0.025732102,-0.07113083,-0.01196829,-0.045887202,0.037119336,-0.028784692,-0.0928275,0.07810869,0.0559182,-0.13648759,0.02863608,-0.056909986,-0.044513486,-0.110805474,0.023555592,-0.19320343,-0.0043241107,0.11200251,0.17837217,-0.012798992,-0.12036669,0.18716171,-0.119675,0.21394537,-0.07987869,-0.07274377,-0.05063981,0.013069321,0.25829566,-0.011501183,-0.039190423,0.21087623,-0.14975029,0.029570501,0.14605248,-0.030586824,0.11109731,0.1716766,-0.18289399,-0.046321042,0.036295883,-0.089991905,-0.035753105,0.040849615,-0.0099960035,-0.12396084,-0.17222801,0.034842514,-0.1687536,0.09247259,0.023122173,0.13562314,0.10997219,-0.018179785,-0.0034691717,-0.13313363,0.08311441,-0.088425085,-0.072597474,0.051946916,0.18872915,0.049822237,-0.081060715,-0.13471074,-0.013318515,-0.22572088,0.028440969,0.07437002,-0.027402736,0.20895883,-0.015970487,-0.009786017,-0.11340319,-0.28149858,0.12107523,0.021997657,0.09687721,0.027993625,-0.06740973,-0.019271474,-0.07854274,0.1472216,0.13011225,0.16885051,-0.129192,-0.22292481,0.090514645,-0.08738821,0.117184155,-0.025351714,0.048079416,-0.16344163,0.10118008,0.027452974,0.031405162,-0.08985364,0.08929193,-0.14185476,-0.1338403,0.09028637,-0.19271858,0.054022975,-0.13090675,-0.098836355,-0.13986324,0.10194126,0.11471291,0.20543219,-0.11461932,-0.029356394,-0.21664137,-0.12074228,-0.20096667,-0.0003521514,0.2175999,0.18721054,-0.18636124,0.15671743,0.032989975,-0.2175956,0.19618869,-0.15910245,0.068852834,0.069897726,0.31762943,0.006500766,-0.16076086,0.100152954,0.08614581,-0.05689637,0.09706882,0.1615183,0.11023409,-0.14612067,0.13704127,0.11000837,-0.07137949,0.034219112,-0.025435016,-0.103133716,0.10985535,0.08227805,-0.2417206,-0.16032876,0.15617916,-0.09030906,0.05943639,-0.1714154,0.0022077619,-0.13623823,-0.1582102,0.09024053,0.14129798,-0.12970774,0.02921266,0.010479104,0.02861811,-0.18739907,0.0011659893,-0.01758972,0.15526806,-0.1025758,-0.1759908,0.0015841172,0.09412234,-0.12722923,0.3191455,-0.08211672,0.10312705,0.06393057,0.0065498627,0.000657113,-0.0041649565,0.14896178,-0.14397289,0.06988422,-0.24121714,-0.14335948,-0.13242912,-0.11463302,-0.040096916,0.0103804795,0.15333824,0.06993049}, {-0.10382616,-0.026645726,0.08161122,0.022090914,-0.031488143,0.063833825,0.024365097,-0.0712876,-0.041392107,-0.020433215,0.047271308,-0.059678648,0.020903982,0.0073568244,-0.029707257,0.07555575,0.025407579,0.034015294,-0.07100697,0.016837386,0.36471844,-0.024366908,-0.07643158,-0.07073904,0.16495556,0.014242721,-0.081633404,-0.03031956,-0.017964453,-0.013906972,0.15392664,0.04656112,-0.038718753,0.012461428,-0.09124095,-0.06886275,0.124660626,-0.07855008,0.027511152,0.28912345,0.13511217,-0.09190891,-0.13931935,0.02231126,0.054524787,0.143366,0.18449421,-0.09803524,0.04082233,-0.021582188,0.035839878,0.004566682,-0.008942969,0.04246105,0.06369983,-0.11574678,0.017326314,-0.079820655,0.09293011,0.13409142,0.008637219,0.025743483,0.09787732,0.15343048,-0.1303315,0.007467308,0.009611989,0.07280823,0.008538933,-0.00059372303,-0.0070287115,0.052842274,0.007716711,-0.16563061,-0.062206287,-0.007373734,0.1203104,0.14634225,0.014565722,0.17956255,0.049665682,0.06545414,0.11903301,0.2072856,0.031026218,-0.071774065,0.049635693,-0.12215258,-0.006371179,-0.14007866,-0.059825268,-0.048031203,0.03962677,-0.07692412,0.13057636,-0.24197924,-0.14855444,-0.17620938,-0.07869908,-0.1495509,-0.18198584,0.013027351,0.057466112,-0.022754222,0.19171411,0.10358633,-0.0033463694,-0.00886969,-0.11346662,-0.13477975,-0.0050689084,-0.20891196,-0.3286403,-0.1688792,-0.12804128,-0.07071122,-0.11625609,-0.07360027,-0.06668617,-0.10876431,0.026354736,0.14840789,-0.05860282,0.12773019,-0.053124223,-0.24048263,-0.11318971,0.17150214,0.069865145,-0.08876523,-0.02466906,-0.060513385,-0.008070869,0.1500993,-0.16633564,0.07639196,0.11203931,-0.06392749,-0.032052867,0.0050709294,-0.053030685,0.24272291,-0.14257067,-0.14510712,-0.052279968,0.07694795,0.021698093,0.09108267,-0.09153185,0.19788569,-0.13384083,0.08451526,-0.11953568,-0.17494847,-0.09320384,-0.010287114,0.23174645,-0.03543597,-0.040159434,0.13571365,0.046626247,-0.032624442,0.2250112,-0.047496762,0.14062484,-0.089503296,-0.15352805,0.17144476,0.091743484,-0.119107746,0.07470282,-0.031581134,-0.03352956,0.2348611,0.17969099,0.028198358,0.053485114,0.07432616,0.07815098,-0.07369738,-0.29372895,0.054432496,0.005190038,-0.0016523366,0.028800892,-0.055797305,-0.16197893,0.000697438,-0.033588655,-0.06273999,-0.10233027,-0.020483825,-0.18878114,0.060136613,-0.19107014,-0.0071688243,-0.12730405,-0.16531238,0.060626607,0.09831558,0.058872014,-0.23509547,0.12750113,0.10479433,0.013425823,0.008677595,-0.13663004,-0.1686005,-0.049227834,-0.1683286,-0.15665065,-0.048277784,-0.05149144,0.031295355,0.01672677,0.07193,-0.09452999,-0.10647694,-0.088186085,0.16459492,0.07224527,-0.04914548,0.09356912,0.17485891,-0.07994351,0.032484137,0.38670698,0.10541219,0.1423794,0.030312354,-0.07431453,0.01512229,0.09447942,-0.04485756,-0.2724902,0.05847492,-0.18250224,-0.009498941,-0.1701337,-0.016410546,0.0063257115,0.073297,-0.0054582222,-0.07319785,0.032502484,-0.06500417,0.06357956,-0.14602111,0.028702172,-0.026389372,-0.14622204,0.032299202,-0.13761742,-0.07445942,-0.114186555,-0.028314939}, {0.0195543,-0.061931573,-0.056133866,0.028165136,0.3085753,0.13769685,-0.23369384,-0.038561165,-0.04689252,-0.03961561,-0.09805478,0.24028717,1.5394719e-05,-0.025829917,0.053089283,0.046251036,-0.29605374,0.04474592,0.13455848,-0.21600266,-0.059625257,-0.08108822,-0.020365277,0.02813109,0.081252396,0.024926677,0.010800231,-0.11954501,0.07102434,0.0199863,-0.09730065,-0.24919227,0.030452618,0.13464886,-0.023194905,-0.14542332,-0.09734581,-0.016483102,0.14397746,-0.0031909214,0.3722191,-0.0744557,0.09479863,-0.06026904,-0.042097367,0.17202364,0.08075121,-0.061479315,0.10670609,0.102186695,0.3378064,-0.089232214,0.097086355,-0.063329525,-0.06317237,-0.101466164,-0.12325374,0.037561003,-0.07548598,-0.041729234,0.07050349,-0.03466518,-0.110724986,0.22545715,0.20825261,0.0015618638,0.059538722,-0.070599854,0.006658992,-0.17634584,0.0017031225,-0.11541963,0.13891514,-0.080027856,0.04548473,-0.11435999,-0.22231837,-0.36709037,-0.03926661,-0.044949345,0.060602996,0.10785034,-0.033051454,0.08448994,-0.123886384,-0.09275164,-0.019223087,0.041730437,-0.12649876,-0.10282549,0.013222616,-0.14784335,-0.09490577,-0.034468286,-0.12391188,0.22384275,0.018100794,0.12653476,0.032407522,-0.24705628,0.050516292,-0.2835021,-0.21109901,-0.23786515,0.02963168,-0.0076948395,0.3622491,-0.35402524,0.16275112,0.15946984,-0.002974371,0.017954012,-0.1048591,0.061919626,0.05941344,-0.07363582,0.10291142,-0.14715458,0.09751839,0.08829735,-0.094761245,0.09206463,-0.075684436,0.15008342,0.058009684,0.063781485,-0.15534964,-0.013340286,-0.02246993,0.10176132,0.1540282,0.104930505,0.0058643078,0.054516908,-0.082271904,-0.075531214,-0.0077584796,0.15923458,-0.25360858,-0.0011167012,-0.09296001,-0.13139026,-0.13261189,-0.011069564,0.07838095,-0.14011219,-0.15925159,-0.09885819,0.20062889,0.14690469,-0.0627764,0.08556528,0.092730485,0.018740404,0.22425796,0.1617026,-0.008847449,-0.090819374,0.15573713,-0.13092555,-0.109101124,0.30907574,-0.06843537,-0.24676909,-0.22722544,-0.14107825,0.024040755,0.23418428,0.22711433,0.21217774,-0.18510585,0.14297447,-0.1070922,0.08772283,-0.091272675,-0.07965428,-0.18170638,0.015518641,0.06944814,0.23446307,-0.024667975,0.005769855,0.08248942,-0.05337203,-0.054401174,0.1061472,0.13672689,0.031165924,-0.06686369,-0.025896495,0.17814286,-0.012465467,0.15577863,0.0731011,-0.00062008755,0.0020728495,-0.053351045,-0.13660285,0.018091546,0.033373807,0.26651344,-0.09275218,0.07140102,0.15658262,0.03930842,0.08443445,-0.06959424,0.09212777,-0.12850343,0.039882876,0.08411649,-0.045809068,-0.0075545427,-0.0039898665,-0.22701411,-0.090692006,0.06772843,0.0070605464,0.08414065,-0.18932636,0.08813673,0.25713995,0.060373493,-0.035547126,0.0938254,-0.009877151,0.017602017,-0.041635104,0.07784257,-0.23524538,0.0783681,-0.048090823,0.01355535,-0.089747906,-0.14070077,-0.055377085,0.15702975,-0.1257472,0.047626123,-0.1751049,0.26018393,-0.10890808,0.0011431968,-0.026297403,-0.14175354,-0.018673226,-0.01772332,-0.13846345,-0.22755939,-0.0742697,0.075835854,0.09075019,-0.0072027016,0.0029041811,-0.017106751,-0.18694323}, {-0.1779072,0.05105258,-0.003907407,-0.12960348,-0.06689141,-0.21726969,-0.12802106,0.049220223,0.066785716,-0.14547239,-0.087803215,-0.1553024,-0.21666056,-0.09200695,-0.2162675,-0.09150748,0.017070467,0.09330791,0.09787546,0.099213354,-0.037690774,-0.107485585,-0.049591165,0.24871594,0.22066878,0.093187675,-0.10919845,0.0021539591,-0.15270026,-0.13778181,-0.02850264,-0.12702289,0.21808067,0.12016606,0.06880676,0.07551764,-0.21720065,0.22689146,0.018632988,0.20136483,0.021402923,-0.0345854,-0.09207122,0.08248879,0.005133362,0.043058738,0.03332722,-0.11258206,-0.13939445,0.028810555,0.015139212,-0.05345193,0.035200726,0.15558746,-0.079283945,-0.058796898,0.00088504324,0.097742595,-0.16888665,-0.05887396,0.17775983,0.08150146,-0.018167045,0.08948096,0.059783153,0.13550821,-0.14551385,0.06289814,-0.098053224,-0.042330455,-0.09781122,0.10678902,-0.17542866,0.0308072,-0.07235144,0.0058223554,0.030937558,-0.033827774,0.089280516,0.19168831,0.08724789,0.05534213,-0.20636673,0.34605727,-0.1531229,-0.07429479,0.010792552,0.029584812,-0.05728622,-0.18868667,0.09609655,0.06320374,-0.035605606,-0.017780645,0.09290549,0.060400542,-0.16767444,0.07519485,-0.07085238,0.0069279363,0.048153844,-0.21138456,0.10554038,0.03385013,-0.0574811,-0.067144096,0.092619,-0.07643609,-0.013097076,-0.09130784,-0.056219496,-0.20862265,0.14742133,-0.034484845,-0.19612463,-0.01876317,-0.02494868,-0.030022165,0.084460415,-0.06594661,0.04189034,0.17730808,0.040614422,0.08672472,0.17794508,-0.068957575,-0.0815402,0.087128185,-0.16128963,0.022827137,-0.05399842,-0.1092445,-0.035681464,-0.0350403,-0.036889505,0.07003764,-0.052273482,-0.00694045,-0.24950626,-0.12069392,-0.001402991,-0.14147888,-0.12442661,-0.001662676,-0.09167522,-0.048141886,-0.124263294,0.23122193,-0.058624696,-0.1576201,-0.13045901,0.054401275,0.013273749,0.10967747,-0.09897206,-3.2814205e-06,0.07058988,0.011019442,-0.07412172,-0.05880344,-0.16204624,-0.015918678,0.09501705,0.06284576,-0.07249094,-0.21509159,-0.013174629,0.08195743,-0.024848444,0.12488449,-0.12544693,-0.05126115,0.08638318,-0.16507024,0.15910098,-0.11526778,0.05148595,-0.18730642,0.0024969084,-0.040639345,0.035751812,-0.021458069,0.02497169,0.06425589,-0.26122314,-0.09956896,-0.13781433,-0.1012081,0.014271673,0.005904824,-0.06161231,0.122458786,-0.0013428411,0.12692666,-0.1497177,0.15324418,0.13801263,0.044052474,-0.0038511069,-0.05588478,0.002240148,-0.08705042,-0.052919284,0.09668444,0.18150726,-0.15505482,0.06311394,0.075502604,0.04961068,0.029598186,-0.13070416,0.063772276,0.00015527123,0.013174468,0.09173663,0.04976518,0.07876348,0.050521206,0.1776303,-0.11762287,-0.1533628,-0.06755311,-0.0011614411,0.119215965,-0.16686864,-0.013923515,-0.25087342,0.19350854,0.005290315,0.027117303,0.027362002,0.058948763,-0.04110028,-0.012445329,0.12444758,0.12541053,0.17620589,-0.15564556,0.05836251,-0.0798177,-0.047918975,0.007946848,0.044320285,-0.064817525,0.1265756,-0.19593091,0.015174821,0.043164466,-0.15006363,-0.017801613,0.096276954,-0.021402841,0.0905945,0.06392482,0.0022463324,-0.16529597}, {0.046439175,0.1012958,-0.0831586,-0.07053878,-0.16492042,0.045204204,-0.048617676,-0.13875926,-0.047528423,-0.09365301,-0.0762659,-0.21590875,-0.018189715,-0.13184008,0.04124952,-0.010577626,0.05038601,0.039270226,-0.076596335,-0.0037993041,0.014011378,-0.13060123,-0.021167116,-0.12560399,-0.016894324,0.06192096,-0.008459907,-0.20378968,0.044356108,0.06955231,0.06608381,-0.09803785,0.11157034,0.10600926,-0.09913001,-0.07291038,-0.07176571,-0.05520015,0.1383887,-0.015674923,-0.043750197,-0.03524304,0.18708616,-0.1602203,-0.014824108,0.045011636,0.19545059,0.059517667,-0.058990672,-0.06978959,0.099967256,0.036847256,-0.115972035,-0.03400345,0.15083249,0.14130645,0.017912885,-0.111784436,0.09181304,0.21289362,0.08249244,-0.023188906,-0.020665985,0.019914653,-0.044227634,0.111935414,-0.09462281,-0.12555738,0.028957399,-0.095861904,0.12392411,0.022718638,-0.17694208,0.08124876,0.016400734,0.09586141,0.06966698,-0.056149926,0.20249562,0.09467026,0.019801907,0.13854645,-0.112687334,-0.011349166,-0.06885992,0.036404975,-0.08622222,-0.032786567,0.27485555,0.0071208794,0.01920883,-0.15855014,0.10944474,0.07578303,-0.050673876,0.08765791,0.024776846,-0.10281099,-0.03561512,0.079820834,-0.12356589,-0.105642624,-0.040250704,0.19688343,0.078742646,0.05664288,-0.06406707,-0.10145496,-0.18534914,0.08266651,0.036799196,0.04668012,0.09978152,0.042627957,0.11630871,-0.081404805,-0.22052732,0.16474944,-0.007973171,-0.12665345,-0.035862435,0.13208352,-0.016612517,-0.21944088,0.094233684,-0.16406904,0.046391983,0.035252977,-0.11118692,0.037336424,-0.070055425,0.011942332,0.028290126,-0.040386915,-0.06285983,0.21468955,-0.050658822,0.14853396,-0.11264812,-0.17586613,-0.08364349,-0.022950662,0.03850484,0.054085262,0.07642123,0.02975138,-0.015578837,0.004424553,-0.039599366,0.047731806,0.0070243445,0.1247137,0.04220487,-0.049135532,-0.010491464,-0.18201944,0.06670298,-0.017472425,-0.07989513,0.16054094,-0.21702337,-0.05296183,-0.034599453,0.021320457,0.12662025,-0.0023651365,-0.21215765,0.12827405,0.06512143,0.16907206,0.03271516,0.082630135,-0.079210624,-0.09372784,0.12718324,0.029951435,0.07161587,0.065251835,0.2599678,-0.122068286,0.101108834,0.1733911,0.13237418,0.03192511,0.05942215,0.14694034,-0.1645805,0.13872908,0.006131646,-0.108752705,0.009915215,0.04214472,0.0003293708,-0.05622388,-0.081188254,0.06211541,-0.07862789,0.19127952,-0.042875774,-0.15652904,-0.014895458,0.07504647,-0.11661124,-0.12461931,0.118991606,-0.08437551,0.10900421,0.070392415,-0.062135454,0.054670695,0.019994777,-0.22019537,0.0029498383,-0.102331564,0.14161675,0.11427788,0.10396174,0.06871001,-0.05060196,0.026836282,-0.011100019,-0.094718195,-0.17185079,0.047442496,0.0069783623,-0.030027188,-0.18207008,0.18834504,0.09689682,0.04708339,0.1392429,-0.12041926,-0.055398926,0.113782965,-0.030132407,-0.018695971,-0.01756775,0.19299698,-0.12723456,0.16520289,-0.18106928,0.13738343,0.05484371,-0.045840826,0.042310596,0.074622706,0.15786438,0.07380861,0.10046817,-0.06394708,0.12387491,0.06247838,0.015721943,0.053371865,-0.15242328,-0.05143419}, {0.15505265,-0.07977247,0.19292925,-0.015273647,0.07103274,-0.23039983,-0.12151427,-0.17191699,0.008364133,0.20430633,0.04048511,0.18077776,0.016172452,0.07084101,-0.0078619355,0.15601118,0.07451234,0.003136852,0.09918135,-0.02188433,0.07356121,0.10266957,-0.12742198,0.049902916,0.23964094,-0.08986193,0.019440666,-0.027121773,-0.03506801,0.12550287,0.243726,0.07169643,-0.12932885,-0.20643961,0.15951413,0.039558392,0.017859668,-0.011383605,-0.14815195,-0.079404,-0.022416828,0.34608367,0.039835237,0.025149561,0.20662771,0.06848877,-0.09041065,-0.070541285,0.22569786,-0.2534084,-0.14669685,0.19541472,-0.096028306,0.08701683,-0.12369121,-0.06345949,0.028318206,0.19257534,0.13856137,0.029547146,-0.024655456,0.020316478,0.18317203,-0.31664073,-0.002450775,0.079993725,0.19109002,-0.17420805,-0.13276547,0.30637842,-0.078001976,-0.02800085,-0.05747069,-0.07794337,-0.037430953,-0.2227014,-0.16208635,0.010192532,0.019214017,-0.05121304,-0.19768023,-0.31605223,0.051807404,0.15503311,0.023076026,0.059213456,0.23404719,-0.023182726,0.07024255,0.025572605,-0.086500525,-0.0071253753,-0.047212217,-0.046863373,-0.009612912,-0.10708564,0.07177416,-0.1999848,-0.08941565,0.12726411,0.10824255,-0.008965675,0.06901267,0.0053441953,0.039054345,-0.11701005,0.033527665,-0.08571288,0.076566756,-0.07598353,-0.14271326,0.09623446,-0.042679302,-0.046416122,-0.07236842,-0.18813357,-0.16056418,-0.03291885,0.020892547,-0.09622636,-0.07040896,-0.21294941,-0.24739178,0.003378715,-0.12219169,-0.17060356,-0.31274286,0.07691498,0.07654418,-0.09606538,-0.05596159,-0.017430738,0.12023868,0.06026671,-0.081463195,-0.049662564,-0.015095236,-0.18914723,0.00045987696,0.12453638,0.04868513,0.11227391,0.13110772,-0.02797363,0.00669829,0.27596843,-0.16328952,0.011875628,0.18535972,0.07537585,-0.25579962,0.04022809,0.09918931,0.028975641,0.029497892,-0.075074196,0.011400506,0.06625104,-0.12594874,-0.121310145,-0.14550133,0.09088452,0.19004723,0.123442076,0.037764076,-0.09378183,-0.22446434,-0.2326119,-0.21168219,0.07177206,0.10551937,-0.06003451,0.23043282,0.010574662,-0.18644914,0.091162145,0.076161385,0.024708724,-0.013797367,0.09577494,0.23859341,-0.01972967,-0.24792217,0.27275294,-0.007148398,-0.06042169,0.00743083,-0.110365115,0.04835047,0.2099853,-0.05806374,0.09814408,0.02588562,-0.12418357,0.040176164,-0.09855103,0.07650888,-0.16903386,-0.18674798,-0.074130856,0.011094938,0.15116653,0.0661839,-0.09381483,-0.17420988,0.05589413,-0.07900168,-0.1124396,-0.01066433,0.2472624,-0.023754347,0.09870271,-0.24299175,-0.11390861,-0.07363429,-0.0033257357,-0.14721538,-0.21845496,-0.022242213,-0.013665825,-0.19475946,-0.014678852,0.11081291,0.068773635,0.12922938,-0.024237493,0.32569516,0.07350475,-0.035214256,0.13518606,-0.01084884,0.013177018,0.117357045,-0.0038676334,-0.35455826,-0.021899339,-0.19149446,0.07288914,0.13925053,-0.03965837,-0.037213862,-0.08799629,0.1852253,0.09102655,-0.04473774,0.014153117,0.03983618,-0.04403599,-0.20409468,0.17600568,0.006630696,0.101451755,0.10727343,-0.0632094,0.18164465,-0.08150026}, {-0.006749239,0.13328154,-0.024013465,-0.10256592,0.03873939,-0.13219984,0.04737947,-0.020021923,0.0665272,-0.087833546,0.045986008,-0.04123408,0.08352945,-0.0034961605,0.06379061,-0.02655273,-0.067145936,-0.27241853,0.18741006,0.14068824,-0.060465794,0.06403852,-0.02890085,-0.03324526,0.00054509967,0.038573515,-0.011857891,-0.019564053,-0.0034661943,0.009194211,0.00995856,0.13429366,-0.12959246,-0.21617319,-0.122624725,0.09988783,0.24729384,0.039329734,0.028753046,0.14453505,-0.07210388,-0.030374534,-0.0141512705,-0.039430223,0.045249987,-0.05672747,-0.09043728,-0.0027781771,0.074754775,0.15517898,-0.056653388,0.14123449,-0.045996718,-0.066136844,0.088785276,0.0059526097,-0.118611485,0.022973372,-0.015788998,0.0067771096,0.04720114,0.0010284085,-0.099143706,0.036741886,-0.07999035,-0.08497471,0.05329783,0.12472264,0.20875576,0.085971035,-0.15163448,0.06268582,-0.056029785,-0.019745186,0.13739587,-0.05855175,-0.03739959,0.024109455,-0.09932795,-0.023912178,-0.116176434,-0.021652535,0.23901394,-0.09615786,-0.08863419,0.1475864,-0.107448414,0.11735493,0.056846227,-0.034883223,-0.047538172,0.09446217,0.021343255,-0.091374055,0.082031414,-0.0732417,-0.0896579,0.037380528,0.13284126,0.071454115,0.004936911,0.24797533,0.09689839,-0.07341384,0.12817559,-0.04251065,-0.06637169,0.16063614,-0.07894717,-0.060201913,0.15516178,0.09294202,-0.1950751,-0.00197792,-0.006644983,0.1213267,-0.007887963,-0.027516237,-0.09891624,0.059180573,-0.114463985,-0.04252984,0.02807413,-0.05596062,-0.23598465,0.024424978,-0.08106482,0.01642383,0.1589776,0.096458696,0.06995103,0.031201934,-0.066316016,-0.11249976,-0.020190079,0.025818862,0.07196388,-0.18097803,0.13915154,0.14795776,-0.14724588,0.027834486,0.10616185,-0.027224172,-0.14376922,-0.01416542,0.17871137,-0.056950275,0.17680293,-0.069369644,-0.07321278,-0.14156987,-0.12626716,-0.14174949,-0.13790408,0.026994597,-0.015065434,0.1495095,-0.054534182,3.233613e-07,-0.0047246977,0.03267352,0.06638025,0.11350024,0.021116627,0.018034229,-0.12841304,-0.0031085284,-0.124511085,-0.14516564,0.10234859,-0.062230702,-0.0065141846,0.1109497,0.008510757,0.056626137,0.065346755,0.13977185,-0.007551062,0.017993998,-0.002450146,-0.11395796,0.050289217,0.08774239,-0.033371564,-0.18965839,0.08982864,-0.20208047,0.033347275,0.12989286,-0.09685647,0.087646514,0.00736357,0.03721355,-0.012603685,-0.030079702,0.08330221,0.16585597,-0.107900016,0.13708496,-0.06862122,0.016595483,0.24234383,-0.09812218,-0.11839484,0.058044318,-0.06860704,-0.064010344,0.024221385,-0.07537933,0.018969981,0.068365075,-0.07716286,0.10741176,0.008768382,-0.14445034,-0.054947045,-0.04037056,-0.09471569,0.01931733,-0.11021604,-0.107798755,0.04262159,-0.05298222,-0.00042799494,0.1039146,0.09647213,-0.06148448,-0.13444686,0.17589091,-0.06511632,-0.057234105,-0.1638899,-0.01259511,-0.16392343,0.08973871,-0.12076001,0.014937823,-0.1156907,-0.15912312,-0.02630569,0.11521275,0.21015595,0.015594931,-0.23266083,0.10582234,0.04102794,-0.010801853,0.041145366,-0.093548894,-0.07202908,0.16972807,-0.040808164,0.002382419,0.011205779,0.12108327}, {0.07696612,0.056695536,-0.08700078,-0.022696745,0.0145787075,0.011766553,0.05245754,0.0673711,0.030495986,0.010895235,0.03354505,0.04077782,0.11499684,0.03669653,-0.1085359,0.012982402,0.09575155,0.18004803,0.096507885,-0.000405784,0.0059446148,-0.014438104,-0.12030322,0.099415325,-0.007067227,0.14304252,0.11916015,-0.012225386,-0.040985253,-0.19149734,0.14616351,0.07246171,0.1744125,0.011956652,0.101407,0.08263255,0.013337579,-0.14307955,-0.056666125,0.054762848,0.013156876,0.3471448,0.080031864,0.042660907,0.073072225,0.15552744,-0.062307414,0.089685895,0.05613488,-0.09262496,-0.12166852,0.09371353,0.04774899,-0.15779962,-0.1193584,0.035721727,-0.00063985906,-0.08478727,0.15701866,-0.04274088,-0.07771922,0.11486521,0.091250114,-0.20021597,-0.08186357,0.023501944,0.11826779,-0.006360692,-0.024842286,-0.11170939,-0.08326326,-0.14135996,-0.1129888,0.13905682,-0.2067184,-0.02312636,-0.106124684,0.12474445,0.04608273,0.17787385,0.16233328,-0.012368392,-0.22841854,-0.099703714,0.028524943,-0.04828369,0.18095379,0.036966756,-0.036504082,-0.11203223,-0.090071194,-0.03700068,0.07424132,-0.068009034,0.05570604,-0.09823881,0.09369369,-0.07660988,-0.029369235,0.10165833,0.03907204,-0.065349184,-0.08209521,-0.057163097,0.10847253,0.06974725,0.1041927,0.0030064117,-0.06960756,-0.087011114,-0.13687415,-0.064556,-0.12075651,-0.18664336,0.052890137,-0.03561018,-0.31321725,0.050636087,0.045154348,0.10865572,0.0118926875,-0.020304509,-0.042721096,-0.0015434528,-0.049219843,0.046617698,-0.122066334,-0.024971964,-0.16983056,-0.06267902,-0.0120886965,0.0951794,0.16405345,-0.11625868,-0.16816492,-0.1819336,-0.16457349,-0.15358865,0.080199756,-0.18856329,0.06772417,0.026860202,-0.0498727,-0.10901597,-0.24344711,0.1702487,-0.074403875,-0.119433455,0.14885391,-0.09442794,-0.13612701,0.07758467,0.23370667,0.012761906,0.005759004,-0.054293815,-0.017599136,0.11232966,-0.15081012,0.2957708,-0.0057306173,0.15022328,0.114123724,0.038319755,0.027923802,-0.10295225,0.11781983,0.06403842,0.03454244,0.1344599,-0.04244095,0.019147392,-0.044978317,0.005318634,-0.011036856,0.11053653,-0.019790502,0.0005921521,-0.004343967,0.15074822,-0.016876632,-0.08670783,-0.106224604,0.08737951,-0.0028057464,0.06387551,-0.0011798831,0.14391576,-0.05090238,0.15815103,0.11992268,-0.18356313,0.06329954,-0.08709308,0.0779527,-0.025972355,0.1063024,0.06817714,0.078458704,-0.06777955,0.24821198,-0.06547211,-0.16216461,0.044880643,0.09704195,0.2011064,-0.18228672,-0.1573184,0.08546465,-0.060118433,-0.081554696,0.100742556,-0.010945096,0.1063477,-0.17392297,0.13632531,-0.13983418,-0.029103175,0.16832736,0.26976493,-0.098731935,0.09849774,-0.12094913,0.26225966,0.033579014,-0.008287828,-0.13193697,-0.07669337,-0.096751675,-0.19644116,-0.08064512,0.04686133,0.10220787,-0.010845481,0.045559246,-0.27202585,0.094372325,-0.09436582,0.109961614,-0.09641634,-0.12049615,0.055152338,-0.012815482,0.014134226,0.023503646,0.068400614,-0.042804826,-0.05460208,-0.07838205,-0.025741195,0.041750357,-0.15925281,0.14856303,0.005548789,0.01242587,0.00998461}, {-0.08249385,0.01945633,-0.04342418,0.07112924,0.04922414,0.024691194,0.15955405,0.20795977,-0.24051893,0.18193024,-0.0062001045,-0.09965459,0.081151605,-0.14156304,-0.07171587,0.09784706,-0.0794338,0.14420171,-0.06531569,-0.04963432,0.023830915,0.1469073,0.07052472,0.08250918,0.040236063,0.23332086,0.04132392,0.075916834,0.049762353,-0.124535054,0.093629144,0.0132915545,-0.0076070842,0.06515581,0.059943076,-0.10233227,0.06566201,-0.025197363,0.16757604,0.105317846,0.07200187,-0.06319955,0.12349282,0.19645268,-0.08708444,-0.002751076,0.08457147,0.04927457,-0.08651337,-0.16922328,-0.0752333,0.026072314,-0.037762146,-0.090149984,-0.11154274,-0.177567,-0.0584858,-0.20626415,0.16582543,-0.012228056,-0.06956016,0.31730947,0.028991995,-0.23284931,-0.19684568,0.038224906,-0.1513617,-0.00566591,0.115362644,0.081519686,-0.11414125,-0.23924904,-0.029260453,-0.036464196,-0.22165799,-0.054985628,0.04834912,0.2382265,0.050042927,0.06953678,-0.09365608,0.12731975,-0.09691726,-0.025032107,0.27268434,-0.05842417,-0.050960187,0.03445086,-0.12822649,-0.20561597,-0.14352104,0.15088938,-0.073639534,-0.074757025,0.20669515,-0.3509811,0.012583632,0.1562309,-0.07210487,0.031906668,-0.14864448,0.05416863,-0.1136042,-0.04437918,0.06378617,0.09984712,-0.014955171,-0.058476415,-0.12613247,-0.024180435,0.07950819,-0.07301479,-0.12708181,-0.07269116,-0.07121678,-0.0065662833,-0.11869641,-0.072363645,0.017690431,0.021263573,0.18499108,0.13694632,-0.101061486,-0.030676626,0.00844145,0.049279235,0.12356279,-0.06850618,0.041088123,0.07512724,-0.03657787,-0.029709248,-5.3158812e-05,-0.15505858,-0.12853049,-0.17693941,0.011878088,-0.23869391,-0.064073004,0.021253493,-0.10903519,0.0036388827,-0.20804402,-0.14805074,0.014490016,0.06534431,0.12377292,0.026881993,-0.1551966,0.02801503,-0.12806712,0.05859822,0.08729631,0.054494113,-0.12304212,0.0571976,0.22969547,-0.05124562,-0.12864378,0.25072715,0.10321323,-0.045955893,-0.19819061,0.09029801,0.17304367,-0.026936427,0.021366073,0.121462956,-0.07462331,0.07032725,0.12357152,-0.06479031,0.053016346,0.10427121,0.11178244,0.061054707,-0.09360824,-0.22688599,-0.010595717,-0.14658785,0.04227232,-0.15387881,0.11155015,-0.054096237,-0.04269032,0.035051133,0.04518703,-0.09410573,0.0015560344,-0.10051508,-0.012974867,0.013649975,0.0015189913,0.02484832,-0.024949348,-0.20372197,0.053457074,-0.07501427,0.19015414,0.020137658,-0.017187301,-0.086092085,-0.1442365,0.019613462,0.030283384,-0.003989427,0.006590118,0.015435855,0.22913186,-0.05945467,-0.103874885,-0.09033809,-0.032157507,0.13600956,-0.014936428,0.21760458,-0.00037466947,0.098612756,0.0022670298,0.05661463,-0.09444768,0.011718675,0.014443444,0.11055479,-0.19184148,0.05021235,-0.0961294,-0.06262511,-0.08727187,-0.0087292,-0.0016776613,0.14700484,-0.06927343,0.02129793,0.06531229,-0.09844768,-0.033501677,-0.060858104,0.121442065,-0.13772708,-0.093527816,0.11601908,-0.033031184,0.03167456,-0.07913509,0.007802923,0.009317569,-0.03756509,0.10304081,0.022762565,0.17697042,-0.13571449,0.18989788,0.0506224,0.04859131,0.041280907}, {0.1657836,-0.07134811,0.04760961,0.027219191,0.09740647,0.14971228,-0.22824833,-0.06576322,-0.19751827,-0.14256698,-0.061253175,0.21765779,0.11325855,0.21529725,0.10836327,-0.14515512,-0.09768221,0.016251678,0.2572775,-0.09998233,0.045979045,0.035654057,-0.10133949,0.08511804,-0.052819647,-0.0014928619,-0.06435648,-0.31136692,-0.08015633,-0.07181536,-0.1914675,-0.14453307,0.057157345,0.08016306,-0.112528674,0.09085621,-0.24491465,-0.039051205,-0.00065768417,-0.07409539,0.13332647,0.17698665,0.0052040913,-0.21637508,-0.09829272,0.10402517,-0.05172417,0.02458494,0.3437112,0.0031063394,0.15272059,0.1545576,0.013991728,0.17726442,-0.090699166,0.21214066,-0.12334187,-0.05634579,0.06696635,-0.12169626,0.056495633,-0.12535511,-0.03720936,-0.09448179,0.15052976,0.121013284,0.005813032,-0.14947146,0.12659591,-0.20266022,0.054850116,0.016216934,0.14491212,0.103190966,-0.04744791,-0.18312751,-0.1659327,-0.32056287,0.058726247,-0.17960641,0.00954688,-0.10648845,-0.14018977,0.050294682,-0.16137233,0.014146466,-0.0750031,0.19194914,-0.009999965,-0.023038784,-0.14727709,0.11997281,-0.06779282,-0.15887281,-0.07090705,0.20276926,-0.030030346,-0.10234214,0.016262425,-0.17061083,0.06747605,-0.44043675,-0.22500774,-0.2980816,0.30630484,-0.021170933,0.08863248,-0.30471313,-0.058852684,-0.046172496,0.034349546,0.18812725,-0.08324481,0.001310106,0.1473783,0.06382978,0.058882665,-0.019667298,0.28857562,0.030004574,-0.14907445,-0.007076517,-0.102935895,-0.028560307,-0.20255533,0.09452711,-0.17452958,0.12413001,-0.113643736,0.15960018,0.19668838,0.16482618,0.049095273,-0.115044445,-0.031014562,0.05771282,-0.06296554,0.04864659,-0.17994401,-0.020644426,0.04466922,-0.19678341,-0.1075578,-0.12459209,0.011700599,0.23461393,-0.34785104,-0.15125647,0.059295267,0.11126734,-0.03219215,0.06272369,0.18941967,0.019635769,0.08988265,0.021139154,-0.039009903,0.057398878,0.20062928,-0.08637154,-0.23228489,0.18779351,0.015243354,-0.07098292,-0.54679143,-0.2562864,0.016031949,0.12762883,0.11087011,0.32683295,-0.008570212,0.06818032,-0.15776074,-0.036722697,0.011507967,-0.027558262,0.22073025,-0.011035321,0.018240059,0.011698275,-0.0038103852,-0.09875255,0.053417936,-0.05147165,-0.009437123,-0.0208586,0.11013448,0.089800544,-0.078339994,0.11118235,0.197572,-0.018467192,0.13403986,-0.00055384886,0.07508748,0.008587021,0.05545919,-0.037447892,-0.13061686,-0.16260248,0.101237856,0.027880756,-0.09560345,-0.07590897,-0.12738666,0.11982113,-0.3029465,0.01590147,-0.0031554375,0.08139831,0.07297969,0.22060022,-0.14282826,-0.09837576,-0.1266531,-0.07103016,-0.20726849,0.1396584,-0.1873954,-0.004219665,-0.0044993837,0.1403071,