#pragma once
#define W_LSTM_RECURRENT_KERNEL_F {{0.08277806,0.03408928,0.029213341,-0.15126564,-0.21033582,-0.09114841,-0.08641144,0.049562283,0.10624389,0.06258433,0.051081207,-0.12421002,0.011536183,-0.09202969,0.17315276,-0.11493177,0.24250902,-0.12916733,-0.099224664,-0.094313845,0.07289588,0.04357648,0.10633662,0.3436548,0.06977043,-0.0046964753,0.09261311,-0.09388709,-0.09900098,0.004925283,-0.06074416,0.12148277,0.10453312,-0.1304441,0.106600285,-0.055579584,0.13687536,-0.15962645,-0.103436224,-0.23552881,-0.14696184,0.07052652,-0.101535834,0.09409249,0.07766889,-0.034339663,-0.0043773637,0.14518242,-0.15426223,-0.12529577,-0.07571992,-0.104919374,-0.0016251336,-0.02430424,0.28845066,0.040163103,-0.04249834,-0.06325867,0.08667511,-0.09323458,-0.18246488,0.035506662,0.009235625,0.0041194856,-0.12164578,0.04956822,-0.16390117,-0.18053228,-0.09329716,-0.0047470396,0.13969111,-0.15825485,-0.022481529,-0.10735581,-0.06596498,0.035167273,0.037245277,-0.044727325,-0.056044973,0.16797762,-0.22559538,-0.07172508,0.04291279,0.042004377,-0.21492879,0.058769118,0.020413574,-0.09175859,-0.24080743,0.10521953,-0.06655652,0.07534684,-0.023585591,0.1494683,0.029803604,0.15055744,-0.07050125,-0.02541675,-0.07404321,-0.016044728,-0.13306136,-0.017254755,-0.2966795,0.029006712,-0.0383885,-0.036384128,-0.07033066,0.01479865,-0.012545623,0.14561662,0.055684127,-0.10218844,0.22744797,0.011507449,0.033372577,-0.099832475,0.17455572,0.09517458,0.004229177,-0.022419503,-0.018622931,-0.18895192,-0.009583201,0.08808052,-0.07727966,0.09056634,0.07040996,0.19886369,-0.04114487,-0.045542143,0.1306611,-0.0139811095,0.07847345,0.057946935,0.05483303,0.052555107,-0.018321592,0.018709853,-0.011605056,-0.068623714,0.044352617,-0.06102139,0.07442097,0.020938931,-0.26352054,-0.16291764,0.10555457,0.094526745,0.11387721,-0.034827027,0.03821309,0.1327675,0.053741124,-0.016281107,0.0048332484,-0.12401084,0.028179197,0.17952044,-0.043775395,0.0031586557,0.24507155,-0.0986646,0.06275144,0.004745967,-0.06129943,-0.18769093,-0.09885308,-0.04928592,-0.19970523,-0.07845005,0.100414716,-0.103408605,0.054849003,0.17856666,-0.10066749,0.020458749,0.0974712,-0.14051819,-0.030854976,0.016023224,0.0011839648,0.12787078,0.20405601,0.11475166,0.035210837,0.097892545,-0.21632287,-0.061027247,0.09808649,0.042148687,-0.1169528,0.14837538,0.097220056,-0.06388554,-0.031342667,0.12830432,0.018034566,-6.490442e-05,-0.12520397,-0.1702165,-0.11839921,0.08140082,0.038457993,-0.11340347,0.06695247,-0.011562663,0.043225177,0.049486984,-0.02787295,0.12490193,0.097698435,-0.045525387,0.08142973,-0.084724754,-0.00082116516,-0.02335002,0.10404071,0.26084805,0.15546836,-0.02441202,0.09704395,-0.2446898,-0.009221971,0.006565065,-0.17613804,-0.013719189,0.014192112,0.040689625,-0.22493613,0.009194256,0.043937963,0.064611994,-0.12525153,0.015254916,-0.18315656,-0.07381805,0.0061087306,0.07330938,0.13705885,0.074571975,0.044146504,-0.20982186,-0.009379637,0.036067575,0.18510213,-0.14481983,-0.18474488,0.14024384,-0.019125687,0.025198644,0.14138101,0.05510609,0.10633758,-0.02675377,0.18108295,-0.14696696}, {-0.002897367,1.4814965e-05,0.07611519,0.0077395304,-0.03725297,0.049822766,0.09554322,0.13252485,-0.010943431,0.09300197,-0.07097955,-0.0061937165,0.042513885,0.0565646,0.112064674,-0.12853004,-0.071932495,-0.16137815,0.045970045,-0.010401534,0.040330406,0.008617357,0.10010076,0.100274086,-0.053071488,0.23922253,-0.048490945,-0.074693255,-0.014692185,-0.16038047,-0.19105683,0.24514666,-0.11521396,0.14336292,-0.012031174,-0.015691286,0.095274635,0.11681026,0.03545149,0.07371864,-0.2345997,-0.16677608,0.0024839393,0.16222566,-0.1269707,-0.02290533,0.05701499,-0.05985988,-0.06269324,0.013539639,-0.06233016,-0.049889587,-0.08119537,0.12662947,0.079281755,-0.22254092,-0.08565194,0.16167986,-0.04919121,0.18136574,0.020533351,0.1156401,0.112543635,0.005118771,0.032913245,0.017214617,-0.23506059,-0.09663538,0.2181858,-0.0020316388,0.10023771,-0.13115028,0.008664447,-0.015582144,0.009242176,-0.024164785,0.062713966,-0.1758054,-0.087679505,0.15916212,0.31108692,0.05033159,0.056758367,0.12077025,-0.16376573,0.16736336,0.022331635,0.113077685,-0.10051496,-0.11075411,-0.16660897,-0.20519027,0.2313397,-0.012208136,-0.09785012,0.06745098,-0.14053401,-0.096771754,0.0662067,0.021890074,0.030982422,0.04063304,-0.027409445,0.032887686,-0.02428676,-0.0072235926,-0.088173375,-0.03553174,0.05106541,0.06144241,0.20245945,-0.029001268,0.11544545,-0.048948295,-0.089559585,0.14685558,-0.097014,-0.035970956,0.12582222,-0.08216258,0.051716473,-0.13589221,-0.072780885,-0.09597007,0.079400934,0.04112535,-0.054009385,-0.08122645,0.12139574,-0.12851736,0.015670717,0.061693106,-0.15813929,0.078467526,0.034766786,0.039841577,-0.10657355,0.17525218,-0.016275007,-0.005216855,-0.021897608,0.03560996,0.1037912,0.100401945,-0.16787328,-0.04718237,-0.08496463,-0.01786133,0.06265586,0.031189824,0.04058872,0.06578958,0.10308452,0.027734786,-0.2577498,-0.06632259,0.0055442164,-0.08714897,0.008006163,0.023198964,0.11665257,-0.09267762,-0.085392185,0.10815592,0.20307237,-0.101659805,0.14476317,0.006751777,0.15385865,-0.007385257,-0.07362195,-0.103835426,0.1412677,0.2656467,0.17577277,-0.059383404,0.023317488,-0.1336665,-0.071261145,0.006157976,-0.07428416,-0.020986127,0.038869094,-0.15317106,-0.021621808,-0.22322787,0.00025047123,0.16109501,0.23897338,0.015899763,-0.138386,0.12332363,0.03368623,-0.10129947,-0.12620547,-0.08920387,0.028894315,-0.22661944,0.17621268,0.09178152,-0.012034679,0.0488054,-0.17231868,-0.03253247,-0.043487478,-0.02278915,-0.15553205,0.054008976,0.13030933,-0.085907996,0.04968246,-0.11940168,-0.008552082,-0.08494604,-0.07955088,0.01159348,0.06146758,-0.0008648689,-0.094428696,0.032024886,-0.16181014,0.03991682,-0.07248086,0.004183485,-0.06529774,0.009852119,0.07535854,0.11647173,0.2643559,0.035166193,-0.06045419,0.038231224,0.010860632,0.056716006,-0.07824653,0.20575783,0.05765933,-0.07871781,-0.13848147,-0.123287745,0.101459175,-0.20306727,0.15903997,0.1268557,0.060608085,-0.09137395,-0.0063329176,0.055223953,-0.048256185,-0.034804005,0.08612575,0.02705137,0.025812993,-0.11319044,-0.0992219,-0.099088}, {-0.13255475,0.15541597,-0.039860945,0.08770573,0.00038290652,0.054622322,0.06167095,0.069310755,-0.08313105,-0.096036926,-0.12081287,0.18166834,0.02034364,0.22171919,-0.023266867,0.046542164,0.11657369,0.03673278,-0.13852648,-0.04782478,-0.18358448,0.0014916598,-0.00702211,-0.1636145,-0.096053764,0.07947631,0.05253076,0.18499202,-0.034381848,0.22188455,-0.1661502,0.083215155,0.029779676,0.058071192,-0.07997616,-0.027890977,0.048726328,-0.05146573,0.09395478,0.1871094,-0.13853759,-0.11826289,0.08016912,-0.2064909,0.021455133,-0.03203191,-0.031222114,0.1355299,0.007285161,0.03967434,0.16092418,0.18930596,0.118628435,0.21901861,0.07261064,-0.15533301,0.14406426,0.18615685,0.07208304,0.0965444,0.235486,0.071310684,0.002620376,0.08699545,0.036612697,0.052208867,0.05866409,0.03101857,-0.011854898,0.1049049,0.059311345,0.12207173,-0.022977369,-0.22842702,-0.15083069,0.30614513,7.447423e-05,0.0040279217,0.00023290017,-0.17245291,0.048511885,0.17497857,0.0676369,-0.061364975,0.23345399,0.030572036,-0.16952707,0.17428723,0.27005053,0.0009362751,0.2470887,-0.08045046,-0.02877123,-0.23065561,-0.046433974,0.03616655,0.07046679,-0.05199682,0.014163155,0.22312006,0.07169119,-0.050899062,-0.025445152,0.11861843,-0.0902427,0.0025828274,0.14572974,0.11555474,0.063943334,-0.12063916,0.11355659,-0.019994276,-0.17777354,-0.10491608,0.1371808,-0.04466684,-0.06380674,-0.3427954,0.029769646,-0.09737685,-0.14440745,-0.04734703,-0.06485023,-0.07847701,0.16495931,-0.11991911,-0.024780054,-0.06969744,-0.016024413,-0.05641763,-0.020607205,0.30140802,0.06788422,0.14931151,-0.120256394,-0.01684341,0.082894176,-0.045171842,-0.05522316,0.036126476,0.00019375706,-0.16028327,0.12968628,0.1686039,-0.106295824,-0.035552792,0.013168987,0.122346774,0.027666304,-0.09323524,0.14263934,-0.09163527,-0.048506193,-0.014847011,-0.35795698,0.08568602,0.0679341,-0.008957522,0.15425427,0.09017088,-0.15670894,-0.07627568,-0.17716593,-0.05479235,0.20527165,-0.044276875,0.073769726,0.28345057,0.1371282,-0.059813105,0.09156741,0.037625216,-0.040490612,-0.2142431,-0.108918756,-0.0020891384,-0.041930042,0.07073415,0.0026769196,0.08480487,-0.016804658,0.14055255,-0.0044803624,-0.26408336,-0.14927761,0.21064436,0.014127769,-0.014069164,0.11951345,-0.008840073,-0.04817299,0.16615258,0.053715866,-0.1376735,-0.115386024,0.056095604,-0.06453484,-0.12504223,0.19809833,-0.016332366,0.12682977,-0.2341098,0.102408566,0.07108277,-0.034510635,0.10304842,-0.16842712,0.18520771,0.124841824,-0.15666589,0.1313571,0.15350242,0.057270933,0.16117789,-0.1680049,0.050679184,0.045766428,-0.08129021,-0.25069085,-0.027852634,-0.10350738,-0.06730444,-0.25453967,0.036195,0.07530848,-0.038197696,-0.10197223,-0.079094045,-0.061263565,0.16480877,-0.14907429,0.046393916,0.09411917,0.020733539,-0.02023362,0.16408516,0.024060724,-0.029399447,0.09696215,-0.044076774,0.05389882,-0.0064352923,-0.17756374,-0.007900975,-0.08968678,0.345519,-0.039860584,0.2650442,0.06744563,-0.05486048,0.045190204,-0.06256351,-0.035317432,0.068542674,0.12049181,0.043501433}, {0.03513428,-0.053021844,0.00685233,0.10401669,0.0841551,-0.066693775,-0.00908112,-0.0037951856,-0.15798339,0.034072503,-0.08590615,0.14439137,-0.08309833,0.09885151,0.088676825,-0.09743102,-0.16528685,-0.15617703,0.0043527577,-0.047196265,0.048671633,-0.035409566,-0.002471847,-0.20900263,-0.14481877,-0.0011489255,-0.028934106,0.140082,0.23487093,-0.15829071,-0.039609887,-0.31273022,-0.2578893,0.10006176,0.04758953,-0.13818938,-0.13028196,-0.07393323,-0.05348265,0.12054956,-0.22514755,0.036326222,-0.0030853918,0.17889303,0.06753148,-0.2104423,-0.18576686,-0.099584594,0.13549256,0.09551728,0.08463152,0.09438308,0.013951553,0.06624223,-0.24434307,-0.08561221,0.19931807,0.088719755,-0.07296148,0.059145045,0.138878,-0.03930595,0.004674948,-0.026969401,-0.24382964,0.033229183,-0.056896623,0.08543893,0.04274288,-0.06687579,-0.091838405,-0.0912618,-0.08726295,-0.03138825,-0.008483375,0.0032457863,0.112672925,-0.26191035,-0.00069586746,0.09311288,0.006744946,0.035356123,-0.10171483,0.011020483,0.08874838,-0.063114606,0.15068762,-0.029090028,-0.054503467,0.1531781,-0.06334837,0.073185235,-0.002114138,-0.0848222,-0.18283828,0.0013982253,0.12036967,0.050495863,-0.17749923,-0.064154856,-0.12692276,0.11302543,0.17945942,-0.14256135,-0.17281866,-0.13518232,-0.07855306,0.062441207,-0.02195994,-0.080659054,-0.16020204,0.04055769,0.045814704,-0.114406474,-0.03314423,0.13927294,-0.016719794,0.27189532,0.13267949,0.065773144,-0.00080444507,0.19030356,0.019301068,-0.03076653,0.083539724,0.054649744,0.17722122,-0.13330196,-0.07027676,0.107306056,-0.09160215,0.015799185,0.09141326,-0.11345043,0.12805946,-0.065986685,-0.058862448,-0.099197276,-0.05446687,-0.04561049,-0.05777338,-0.12173075,-0.1159047,-0.1567947,0.10288462,-0.1278155,0.04984099,-0.05129115,-0.120585725,-0.032499846,-0.11229027,-0.18863647,-0.09499808,-0.017374583,0.03247515,-0.0068912883,0.065556034,0.06826475,0.051087707,0.025152162,-0.115557946,-0.0090695005,-0.0045897956,0.07344735,-0.09350878,0.2352512,0.12871584,-0.013856064,-0.29859695,-0.0189836,0.045811903,-0.012803614,0.027451165,-0.024564527,0.1256356,-0.21176888,-0.06966127,0.040423725,0.084306866,-0.052301913,-0.12529778,0.057082508,-0.1261209,-0.090511665,0.024121806,-0.0036576919,0.062321827,-0.16068205,-0.107477814,-0.1250954,0.12528,0.088313155,-0.14852704,-0.20190272,0.08913804,-0.1487685,-0.14241529,-0.05597821,0.048645966,0.066409566,0.068755455,-0.07157491,-0.22657554,0.04459751,-0.022945087,-0.039237514,0.25804386,0.0049175844,-0.01992004,0.09823631,-0.10230057,0.22275235,0.060120985,0.029221553,-0.08665365,0.043499984,0.073641375,-0.11062519,0.05807629,-0.05880302,-0.20674837,0.027133347,0.072181426,-0.03207773,0.018371414,-0.020930344,0.25271794,0.02079441,0.075743414,-0.10282353,-0.034181796,-0.062649034,0.06859893,-0.2541494,0.18114175,-0.121784374,0.082974754,0.043109912,-0.04286467,0.16436645,0.017842386,0.15427195,0.08068773,0.06873027,-0.0009167555,0.024380779,-0.020520829,-0.016866298,-0.08032942,-0.06047004,-0.11731744,-0.067258924,-0.09329337,0.17861356,0.011926699,0.072744794}, {-0.059832618,0.10313961,0.32577944,0.06131214,-0.116573565,-0.0021326304,0.074756965,0.0032587594,-0.08235009,0.08003111,0.13923883,0.025611864,-0.04616048,0.082800925,0.095965825,0.0066551003,0.32098687,0.077851415,-0.034204893,-0.09798322,-0.15060267,0.08277882,0.00976652,-0.05618584,0.037745427,0.15938571,-0.1186533,0.103555895,-0.11472186,0.025859876,0.1895194,-0.017395766,0.18772225,0.1289933,0.10493308,0.022022517,-0.18466932,-0.09826411,-0.09388377,0.021966012,0.013840359,-0.047493372,0.16967233,-0.0061976267,0.19469719,0.10910269,0.025302786,-0.025210194,0.04254453,-0.04934808,-0.11235254,0.10184599,-0.14639103,0.17664663,0.02097897,-0.030882498,-0.118266195,0.14889629,0.19861822,0.20311068,-0.07559202,-0.003366143,-0.046403516,0.26417315,-0.054402284,0.0623443,0.050196234,-0.18518391,0.20360455,0.11798748,0.16530448,0.14846523,-0.04980063,0.4160966,0.32192183,0.028319206,-0.061900713,0.02450021,-0.020076327,0.0015883503,-0.03808129,0.102709316,-0.035839032,0.08279406,-0.3124622,0.026483474,0.08674446,-0.088711284,0.15397246,-0.028277643,-0.13870698,0.14930758,-0.046554305,0.13623577,-0.2740358,0.013223221,-0.09389228,0.14055453,-0.04236698,0.24469048,-0.2187959,-0.12265508,-0.031727277,0.05241983,-0.17822602,0.15554988,-0.08709944,0.22926073,0.2844851,0.3343363,0.0841246,-0.09413635,0.21477795,0.030938104,0.040951498,0.029136078,0.07880557,0.16789897,0.20643638,0.021150777,0.019227412,-0.09807419,-0.010287258,-0.10131158,-0.11345845,0.16107133,0.077285886,0.016416438,-0.010570177,-0.052409872,0.050450876,0.07892339,-0.008453313,0.077752754,0.01651464,0.106902756,-0.056113366,0.110312216,-0.15820938,0.16802144,0.42415166,-0.09535994,0.19801699,-0.18773387,-0.11966118,0.17274258,0.04063794,-0.017646145,0.0505166,-0.002554438,-0.076121636,-0.03153323,0.18164052,0.32901308,0.3564599,0.28033465,-0.032134853,0.06856328,0.14304322,-0.14546263,-0.1294167,-0.052151073,0.023766883,-0.03374705,0.10006919,0.034214936,-0.0071210675,-0.0035006125,-0.036121722,-0.01882949,-0.147756,0.12363562,-0.1118058,0.1913554,-0.16953918,-0.19198188,0.19016376,0.22121216,-0.029189805,0.045937285,-0.03226134,-0.03436862,0.14735208,-0.059031073,-0.21057443,-0.12754679,0.06585394,-0.051252253,0.026117053,0.22779566,-0.16959837,-0.11419567,-0.105591305,0.30386746,0.12368157,-0.11403795,0.17218289,0.21969779,-0.027552275,0.031931918,-0.01470297,0.027606213,0.110478655,-0.05790892,-0.0006430722,0.121149376,-0.08166431,0.087623976,0.1362341,0.23110045,-0.1483117,-0.038439516,0.16421029,0.18192017,-0.122064635,-0.08589793,-0.12419519,0.096523315,-0.12765501,0.3112297,0.0035197954,0.017551307,0.011913651,-0.08111119,0.08171856,-0.035716835,0.04679694,0.08244793,0.13099478,0.034706827,-0.12521325,-0.0064308173,0.016544476,0.014602505,0.011001769,-0.03052782,-0.21249875,-0.19864163,0.026391113,0.050068647,0.016677814,0.14715677,0.21795394,0.30710742,0.092828915,0.035364494,0.018182127,0.1864162,-0.1333822,0.09929826,0.09181054,-0.04235227,0.13276014,-0.0910921,-0.046010874,-0.02130373}, {-0.009827541,0.18977174,0.06780425,0.045376115,0.17134747,-0.09915274,-0.031951014,-0.015735824,0.0389726,0.10934149,-0.009534617,0.033597596,-0.0015485544,0.059718855,0.12017687,-0.10797516,-0.07396001,0.0005714909,-0.035370853,-0.13086115,0.12543708,-0.0072064265,0.081288666,-0.04698456,-0.12086199,-0.17754665,0.110400595,0.03485785,0.07242805,-0.012263693,-0.12634592,-0.013871927,-0.011498897,-0.0750711,0.012594957,0.02162259,-0.13334663,-0.042978715,-0.13788049,0.045317277,-0.22845438,-0.1214858,-0.012471745,0.08397706,-0.102821566,-0.019403214,-0.07610751,0.20858005,-0.08985421,0.0572535,-0.018799383,-0.1595793,-0.013714013,0.094466135,0.13387403,-0.002010133,0.16804792,0.055168953,0.045308378,0.12258555,0.05536322,0.11441871,-0.012471616,0.08295472,-0.0712782,-0.13392374,-0.026581967,-0.18122531,0.06815468,0.1537957,-0.029752515,-0.047415372,-0.1393547,-0.019101039,-0.1345782,0.07748488,0.04234728,-0.13928694,-0.051238045,-0.16522092,0.087815434,-0.12476231,-0.004401349,-0.037249885,0.13357796,0.11632128,0.17034073,-0.003908176,-0.1274176,0.077463865,-0.048739098,-0.0728821,0.037055425,-0.018534828,0.0029354894,-0.09717423,-0.0056202225,-0.09271523,-0.056432612,-0.13997352,-0.115145475,-0.12997128,-0.025752993,-0.035113346,-0.12620945,-0.06738753,0.2296236,-0.0765657,-0.02131272,0.002724697,-0.064924024,0.056950547,0.03349944,-0.2705639,-0.03882738,0.07297203,-0.23968534,-0.009214801,-0.11199524,0.01601725,0.07431802,-0.11582214,-0.09161205,0.04981271,0.13403171,-0.04624477,-0.18911117,0.02726804,0.01793727,0.009758849,-0.06480849,0.1539683,0.067835,0.1501591,-0.14462346,-0.08021966,0.09045338,0.13250275,-0.07425621,-0.022129744,0.04946488,-0.21217258,0.013521273,0.17721589,-0.15065639,0.01617607,-0.13535987,0.07697183,0.051921174,-0.13657156,-0.099443585,-0.07976871,-0.16700064,-0.19086102,-0.06717462,-0.05873566,0.0014558927,0.14851165,0.1246807,0.0065474417,-0.1734043,-0.016508473,-0.29476234,-0.009979807,-0.22659054,-0.1401815,0.007457816,-0.1269562,-0.014269041,-0.125114,-0.17222956,-0.039852094,-0.14969061,-0.0715715,0.014436719,-0.011081682,-0.10842532,0.10546185,0.0034864785,0.007851114,-0.02094963,0.021174202,0.10365924,-0.13497423,0.011126593,0.022439834,0.026976073,-0.05837479,0.2048799,-0.043919187,-0.09454179,0.13377471,0.04127303,0.26795655,-0.032350074,0.073410645,0.013313922,-0.09089094,0.061080523,0.11847148,-0.031065607,-0.030925095,-0.10277896,-0.15791924,-0.08443083,0.018991102,0.081646495,-0.049917992,0.036673296,-0.019211888,-0.0029943092,0.07162339,-0.1922012,0.029220745,-0.13656707,-0.066901326,0.07188131,-0.22555433,0.06845199,-0.19282097,-0.17846699,-0.14689927,-0.118805744,0.016678737,0.11840941,-0.10081865,-0.008068231,-0.07422118,-0.069728374,-0.04079352,0.07358461,0.05967269,-0.12966189,-0.09272377,-0.15301687,0.06698655,-0.036278535,0.20576258,0.032256976,0.07237903,0.030276125,-0.059272457,0.04276559,0.13887608,-0.027646616,0.09221113,-0.03023755,-0.20907125,0.04703799,-0.05653474,-0.049287952,0.0015947553,-0.2077499,-0.07904114,-0.07998326,0.08111123}, {-0.15367804,0.02697961,-0.027289702,-0.051387537,0.0323194,0.13056663,-0.18980362,0.047765765,0.018860664,-0.051188298,0.065260075,0.07977071,0.0457704,-0.023728827,-0.2423348,-0.075217605,0.015836403,-0.14986096,0.17811736,0.19580188,-0.019003067,-0.16984974,0.28116927,0.11887559,-0.1422364,0.18569903,-0.14399739,0.020236012,-0.07966091,-0.061786305,-0.09795061,0.16954039,0.11043984,-0.13186245,-0.037342727,-0.014190244,0.11337857,-0.31550938,0.11740346,-0.13869523,-0.19866097,0.23489425,0.05332472,-0.19361763,0.032224014,0.041717064,-0.0053473064,-0.034773014,0.09508211,-0.20017543,-0.08546641,-0.077425204,-0.19950375,0.16750015,0.10713657,0.08713292,-0.23227602,0.0073942025,0.20950015,0.23982568,0.036562167,-0.092490666,-0.09609128,0.039071515,-0.1558549,0.08408561,-0.048783608,0.052622404,0.059496786,-0.025975654,-0.008361268,-0.14112046,0.03136683,-0.06432523,0.0140544595,0.24271286,0.13710181,-0.113825336,0.08252083,0.054990154,-0.02206314,-0.17331131,0.036953658,0.09108718,-0.05012113,0.021354456,0.07035778,-0.18753,0.089067414,-0.043161813,0.02599299,0.10922132,-0.07587892,0.08254967,-0.09807748,-0.022920232,0.0506246,0.06439879,-0.022334335,-0.100647636,0.07901482,0.03162669,-0.07152264,0.16404898,-0.0071303193,-0.047580432,-0.094691105,-0.021298949,-0.058638662,0.13237646,0.025809415,-0.15762644,-0.056509167,0.09563454,-0.25232667,-0.04589144,0.13735013,0.18270452,-0.09393075,0.10898221,0.020856993,-0.09020896,0.16209882,0.047964785,-0.1793868,0.099693865,0.02061665,0.008080549,-0.18238553,-0.21663731,-0.18111025,-0.036574636,0.0644172,-0.027117126,0.11981872,0.013004105,0.034636736,0.05019447,0.024607101,-0.00047493348,0.052271582,-0.12366313,-0.028525272,0.2906431,0.025122408,0.036815427,0.07564444,0.2538033,0.041741014,-0.1346441,-0.020509705,-0.019587373,0.04108608,0.10686512,0.1106088,-0.18227835,0.092531085,-0.0141785825,-0.27720824,0.026104107,0.002514121,0.1173238,-0.04837022,0.018371044,0.104560256,-0.023210859,0.07648721,0.0505025,0.13468035,0.016663004,0.12402992,0.077814065,0.07082869,0.13496242,-0.06329007,-0.0802908,0.029621925,-0.0700582,0.07958048,0.249083,0.07707961,0.031905368,-0.048464466,0.18486688,-0.1312626,-0.1257073,-0.013722483,0.054998886,0.11196213,0.38684142,-0.018659618,-0.1330402,-0.01766624,0.043645132,0.027253466,-0.20828363,-0.09047456,-0.03689471,-0.01058609,0.036016177,-0.07914858,0.009576287,0.08182608,-0.020752463,-0.08170442,-0.007612547,0.0056942916,-0.05099706,-0.20375252,0.16267776,-0.022171864,0.1360431,0.08202388,0.106544435,0.118832625,-0.037344705,-0.06696185,0.060192768,0.05644721,-0.062436614,0.116386734,0.091143884,0.10262357,-0.009084429,-0.17169292,0.07202289,-0.08908032,-0.048534267,0.08330506,0.07669607,-0.056660287,-0.086848415,-0.023924237,0.09666182,0.068698406,-0.0569658,-0.0928779,0.2843499,0.12992527,0.14714934,-0.006721029,-0.073451325,0.06886487,0.07440042,0.095868245,0.05128796,-0.015678473,-0.17489952,0.060670428,-0.18176761,0.15492514,0.07477134,0.08524851,0.024781523,0.08905962,0.015353768}, {-0.15590508,-0.1132083,0.007933813,0.03949052,0.20938995,0.044263903,0.006946695,0.09426998,-0.027626518,-0.009101657,-0.15611956,-0.041751016,0.124892905,0.03664828,0.02326707,-0.0034189217,-0.08010085,0.0027434097,-0.038425166,0.20488384,0.20585074,0.050717477,-0.06392821,0.059031732,0.24895042,-0.044003155,0.021527644,-0.0053809485,-0.07013935,0.002402593,-0.08574282,0.033341546,-0.119661964,-0.20317955,0.04423938,-0.070467375,0.17842701,-0.023266513,0.27900153,-0.010475309,-0.038685024,0.17014956,0.10255488,-0.013631348,-0.033940583,-0.05505195,0.21543628,0.17339504,0.025950056,0.030413982,-0.116635524,-0.014577408,-0.030297188,-0.148402,0.063646816,-0.00845528,-0.2390026,0.12066336,-0.0056298613,0.18750426,-0.009508158,0.015506147,0.01410825,-0.085264154,-0.1260718,-0.14862996,-0.16976574,0.006203482,0.15581532,-0.048016574,-0.055749394,-0.016215019,0.036285087,0.16626532,0.049375493,0.055141192,0.07262479,-0.09415912,0.21574092,0.12223028,-0.18234634,-0.10179051,0.034426607,0.064384915,0.0039231405,0.0013963562,0.28284118,-0.08595594,-0.19880384,0.09576004,0.1992307,0.022574099,-0.13927306,0.33745787,0.13128926,-0.033197474,0.03613963,0.1059825,-0.0127719,-0.0009820493,0.20673113,0.016550422,0.04810178,-0.03774435,0.22692448,-0.071204744,-0.13274951,0.15349369,0.22031702,-0.072475545,0.049851324,-0.15403628,-0.031595904,0.04453746,0.18037303,0.32448703,0.25738204,0.035755962,-0.07660099,0.097872764,0.067577094,0.09536741,0.09779806,0.14156826,-0.0132301785,-0.056244068,-0.21971832,0.12388959,-0.055587802,0.058040474,0.07284885,-0.03989263,0.21186149,0.05089757,-0.009777094,0.09237011,0.23706189,-0.2504388,0.12397048,-0.024211096,-0.0058050053,0.13106707,-0.08820351,0.0036006763,0.13112591,0.270934,0.076359935,0.22019368,0.28091612,-0.10861647,0.13890538,0.14812228,0.011232825,0.016262474,0.218265,0.030674135,0.22476614,-0.0124969,-0.057190333,0.13362215,0.2667279,0.19263785,0.13166459,0.068332955,0.16388787,0.12712444,0.07858541,0.17718428,0.08503312,-0.09708359,-0.00049054297,0.03090338,0.04194423,0.030453892,-0.14586824,-0.028953135,-0.1823834,-0.05053378,0.12077668,-0.14371528,-0.0009238066,0.086034946,0.05561618,0.17388213,-0.038852695,-0.0485436,-0.12556869,0.031155473,-0.1542521,-0.040000454,0.027006788,0.10087144,-0.021265259,-0.023944505,0.049863942,0.061038792,0.056253858,-0.031513937,-0.06412132,-0.074087895,0.06490524,0.035813536,-0.00090034585,0.077202536,0.051790997,-0.018272476,-0.119689345,0.040409565,-0.14150177,-0.033643447,0.037114177,0.217835,0.2795189,0.008394964,0.30740067,0.14254765,0.18860395,-0.04436999,0.13151443,0.17482963,0.12488848,-0.0032857247,0.07509884,0.15804102,0.06537404,0.084420614,0.22106925,0.11563395,0.06230192,0.21544795,0.0026657009,0.033454504,0.042129554,-0.015064946,0.052788213,0.1588162,0.11080571,0.32320464,-0.14976744,0.027892657,0.017736435,-0.0024419865,0.16700444,-0.024232628,0.1946079,-0.13439828,0.05750852,-0.06615863,0.18600334,-0.08742323,-0.051804695,0.112985685,0.030954074,-0.0011286257,0.17650333,-0.059991322}, {-0.25682512,-0.06769645,-0.11818847,0.14968039,-0.1016988,0.08232035,-0.008512945,0.14260593,-0.11069394,-0.10461248,0.14610372,0.072696894,-0.06922018,0.08534694,-0.14518768,0.020201873,-0.012678857,0.12743197,-0.091527,-0.111796245,-0.18383132,-0.03492409,0.0024201048,0.019673293,-0.21395366,0.20137998,0.052860454,-0.017783137,0.1354084,0.15742177,-0.054901432,-0.24752523,-0.13852745,0.07556757,-0.13183226,0.2204733,-0.10842253,-0.15934415,-0.09629208,0.24974094,0.120462894,-0.0784491,0.13971706,-0.09594808,-0.0648361,0.4107912,0.016867416,0.03137136,-0.07264432,0.1259252,-0.059487112,0.063615985,-0.020208044,-0.039102495,-0.014070472,0.06282528,0.03852814,-0.018916594,-0.07359615,0.06899494,0.024360072,-0.037187416,-0.024451463,-0.06717036,0.0324611,0.01816714,0.23419735,-0.11693743,-0.0121964505,0.047576297,-0.041756727,0.19149542,-0.1318682,0.1332205,-0.033226077,-0.089728564,-0.055283714,-0.113555565,0.064513765,-0.0058349273,0.05082564,-0.008930717,0.01840151,0.08544148,0.0980891,-0.06366468,-0.1409817,-0.05623506,0.1362096,-0.1438806,0.0882092,0.13991551,-0.11523277,-0.19465429,0.056747887,0.014251434,-0.010927858,-0.012823126,0.03264889,-0.05686842,-0.0149700185,0.015193096,0.055432554,0.00015332844,-0.041733578,-0.05309988,-0.06530307,0.030469153,0.010916258,-0.19171561,-0.1980014,-0.08310558,-0.102474555,-0.23839614,-0.06747669,-0.14129274,-0.08766221,-0.013584685,0.06760201,-0.19825403,-0.21622509,-0.051138245,0.04413863,-0.17843735,-0.11765755,-0.23382965,0.0051542586,0.022028837,-0.15342256,-0.028431276,-0.40113965,0.10656563,0.08712583,0.0278963,0.027382245,0.036926497,0.14509693,-0.042593643,-0.0935034,0.004209701,0.032780588,-0.08194967,0.15390724,-0.1172131,0.038656067,0.08664386,0.0216406,0.1882086,0.040573753,0.112100154,-0.04216766,0.029387197,-0.0050919345,0.0064714276,0.08043816,-0.022960821,0.14830646,-0.09236389,-0.037865106,0.13878982,0.06197565,-0.081176735,0.036568895,-0.14737199,-0.058936313,0.23455639,0.22488043,0.002137553,0.0596709,0.0750184,-0.09214402,0.1873032,-0.0036330356,-0.10937735,0.0017160084,-0.22013745,0.026004486,0.22268802,0.1898932,0.20397876,-8.528042e-05,0.05240522,-0.25616106,-0.07563548,-0.1546138,0.11902858,-0.14771548,0.23415616,-0.16203032,0.16891709,0.036343638,0.26898485,-0.14109081,0.13584967,-0.0061431727,-0.00951592,-0.055051267,0.0064196624,0.22822556,-0.0251526,-0.025298957,-0.20146336,0.12990987,0.040369384,0.16727716,-0.0072801863,-0.1482594,0.08538769,0.026179133,0.024858676,-0.13175902,0.1124328,0.038841646,0.22019227,-0.11243778,0.03372395,-0.12969263,-0.14266081,-0.19792797,0.025975594,-0.00029630627,0.06970483,0.008549667,-0.10315618,0.039007746,0.0293211,-0.1570972,0.17162806,0.13243368,-0.043598518,-0.02609854,-0.084666714,-0.05291366,0.097004816,0.22220753,-0.011494616,-0.06356844,-0.11016442,0.0022894656,0.043601103,0.107827164,0.024202004,-0.22788733,0.011534511,-0.11528312,0.19204822,0.025424395,0.112606004,0.0017235496,3.2177595e-05,0.07095151,0.02571621,-0.103039905,0.23450692,0.01443185,0.11217651}, {-0.16712245,0.29962876,0.10139529,-0.11781202,-0.063200206,0.1415483,-0.17480882,0.13204679,-0.13461521,-0.19966586,-0.029447727,0.021865074,-0.059327524,0.007234453,0.053431917,-0.026699267,0.108064905,-0.11207917,0.09024618,0.048756067,-0.103209026,-0.14273402,0.04677158,-0.04353918,-0.16030437,0.13054243,0.0030502495,-0.029028257,0.19735602,-0.17250392,-0.1338438,-0.04745748,0.03292502,-0.02387561,-0.08520042,0.18595104,0.18738994,-0.08039728,-0.045089774,0.13460033,-0.27916992,0.09471632,-0.053240623,-0.017852189,-0.005626334,0.20806389,-0.11792655,0.062122267,-0.16516252,-0.071558625,0.046184264,-0.05755713,-0.018387346,0.13834706,0.1837795,-0.25288707,0.09920104,0.070126906,0.014489945,-0.024020245,0.13264349,0.021574877,-0.12149891,-0.05006171,-0.12500823,0.068441845,-0.037566315,0.12599187,0.15867372,-0.06172339,0.09275853,0.047710966,-0.10683011,0.14042859,-0.100341424,0.15400985,0.03884179,-0.24823987,0.06394539,0.009689534,-0.10469486,-0.0031716,0.07384297,-0.034740686,0.13293435,0.016045917,0.19168815,0.080516,-0.09972997,0.17656918,0.09830535,0.011008792,0.06808797,-0.05667109,-0.1949321,-0.09649196,-0.14563738,0.0030237692,0.033280194,-0.20468782,-0.11371877,0.012052886,0.014507026,0.0047472166,0.075997576,-0.061150886,-0.02386856,0.09724044,0.12128313,-0.018552147,0.102135316,-0.06308539,-0.07188819,0.058747906,-0.13099885,0.08965902,-0.03641188,0.09962196,-0.109706014,0.05586478,-0.005839684,-0.0431965,-0.03772328,-0.09348459,0.0011004201,0.009794788,-0.038440604,-0.04811527,-0.07484842,-0.099994496,-0.0741454,0.113480285,-0.13425644,-0.024179518,-0.20163287,-0.04936176,-0.016575746,-0.03251278,0.0377822,-0.1559596,0.13580829,-0.11832264,-0.10675808,0.1577757,-0.13222797,0.0715885,0.14566393,0.036294848,-0.19004984,0.10601445,-0.05150078,0.004228987,-0.004411123,0.019477317,-0.1452198,-0.1371925,-0.018480089,0.11803171,-0.06486405,-0.003254458,0.05190582,0.008606047,0.19652247,-0.08490651,-0.029288536,-0.09021283,-0.09462226,0.06252505,0.10577196,-0.13468564,0.1620291,0.09854115,0.105939515,-0.025857817,-0.054756183,-0.0047027655,-0.050989527,0.17285201,0.029798588,0.04954161,0.06690059,-0.046955,-0.2276341,-0.116634704,-0.056662615,-0.13693061,-0.011759109,0.21203932,-0.017296195,0.0038198938,-0.18626583,-0.016750084,0.043736774,-0.13185303,-0.039345954,0.06962718,-0.23765315,-0.20571202,0.07598508,-0.09176542,-0.09240249,-0.11652195,0.13985014,-0.104608096,-0.08982859,-0.112583354,0.17364319,0.05620254,0.064396665,-0.1685548,0.07455811,-0.020790057,-0.055814486,-0.026220577,-0.102204986,0.0011382976,0.07750902,-0.07195059,0.013985507,-0.102084614,0.079158865,-0.08179865,0.075564,-0.118321605,0.07642954,-0.017978806,0.1580099,-0.22380024,0.0937903,-0.043712147,0.061668064,0.1219359,-0.0927521,-0.021674447,0.042947713,-0.09945877,0.034751922,0.0746935,-0.07618867,0.116234526,-0.0600387,-0.08595037,0.12515223,0.09473712,-0.027332418,0.19081913,-0.010469219,-0.04708141,-0.0018407232,-0.21342771,0.16197796,-0.1050588,-0.00050827203,-0.12647465,0.040834114,0.042617135}, {0.07929615,-0.13814779,0.123050086,-0.006378806,0.09348223,-0.007902406,-0.17006762,0.2018678,0.07153367,-0.21038358,-0.18554881,-0.027434086,0.18582614,0.11792877,-0.06582732,0.23982856,-0.122972466,0.0010924928,-0.010742909,0.10307162,-0.0009806636,-0.004570838,-0.09798988,-0.004906884,0.12369762,-0.124783814,0.1083895,-0.123014085,0.022923652,0.10268506,-0.11075698,0.12403156,-0.11512219,-0.072832294,-0.10711646,-0.047921516,0.06104811,0.027087988,0.24318582,0.05099521,0.008531917,0.08013549,0.11429397,-0.16097814,0.10675897,0.1015172,0.16502833,0.071514286,0.10463748,0.049860474,-0.058082376,0.27551818,-0.02825436,-0.060036045,-0.028426314,0.07654622,-0.17604618,0.10235581,0.018105173,-0.0542855,0.2596523,0.11522281,0.085054085,-0.15294376,-0.06755471,-0.046369467,-0.059140027,0.09977953,-0.064416915,-0.0085248025,-0.04810229,0.18701622,0.19967027,-0.07816539,0.0030498274,0.053386997,0.069345124,0.10147797,0.0067858873,0.04750157,-0.10748879,0.10177045,-0.036109608,-0.010824804,-0.0075036264,0.01926692,0.1231601,-0.07348894,-0.032390673,0.16057774,0.22135802,0.105188034,-0.06599126,-0.04396193,-0.052410174,-0.011339398,0.013888072,-0.09038779,-0.067709565,0.0035929533,0.056578815,-0.07153288,0.1480076,0.27488908,0.2575276,0.106082365,0.11093574,0.14106894,0.089872,-0.1109085,0.11121067,0.08159578,-0.09825952,0.106930755,0.032406233,0.06418634,0.04921836,-0.16888973,0.031581547,-0.022189977,0.091285676,0.09332634,-0.017123336,-0.10051783,0.11024139,-0.1727893,-0.11865224,-0.12855235,0.035386737,-0.030206818,-0.09985663,0.006579317,0.15099809,0.25598872,-0.15515426,0.09317672,0.0077055776,-0.22987959,0.16329204,-0.036119364,0.108027525,0.10248757,0.06807647,0.14023851,0.16324031,0.0039080554,0.09371704,0.25763214,0.11723453,-0.16153167,0.15739931,0.1106283,0.2465558,0.0026353714,0.15183711,0.07500799,0.1627805,-0.016731666,-0.1375987,0.11179669,0.017914511,0.34734133,-0.044108693,0.024144847,0.12794323,0.011348087,-0.0022856249,0.17059821,0.10518024,-0.120451994,0.024863673,0.10936632,0.04648228,0.08508579,0.074749455,0.09614959,-0.15107203,0.13106918,0.035569042,-0.24434069,0.35191083,-0.024806809,-0.0399715,0.07788411,-0.1031471,0.15692724,-0.1767449,0.063066356,-0.15619163,-0.051823113,-0.07282296,-0.036076393,0.21410933,-0.14292824,-0.046342406,0.07914596,0.013339618,-0.13898928,0.21782163,0.124224104,0.07369244,0.015689183,0.16078512,0.091263376,0.08396216,0.059873223,-0.13347928,0.17802885,-0.05955264,-0.020739047,0.07176099,-0.06494726,0.035406016,0.055308383,0.1161846,-0.04767517,0.060044196,-0.028424196,0.10316424,-0.019451639,0.13001856,-0.029348226,0.008273505,0.048263155,0.055319786,0.12175415,-0.052710135,0.07636597,-0.05038326,0.24898079,-0.055094384,0.16330734,0.39474753,-0.122242585,-0.08421332,-0.08693897,0.009215518,0.21719235,-0.0141443545,-0.31595084,-0.16311817,0.083096996,-0.052796997,-0.08608682,-0.0114795575,0.07282416,0.1556127,0.12702015,0.024677929,0.01647221,-0.12559839,0.05633589,0.12539247,0.1265053,0.043339603,-0.08526048}, {-0.061351977,0.059374806,0.14317544,-0.05276748,0.04053518,0.011921877,0.11764977,-0.04860644,0.06343477,0.15201169,0.03957623,-0.15541878,-0.004499972,0.09673823,0.094458185,0.048987247,0.046393894,-0.032331064,-0.06502991,0.029862346,-0.019624753,0.040916074,-0.048466515,-0.0587625,0.26217207,-0.12766348,0.12612334,-0.018620564,-0.075126424,0.053034138,0.0006061766,-0.041273024,0.12743622,0.0637002,0.07442352,-0.024639057,-0.03650124,0.20225736,-0.023192102,-0.091569245,0.1486959,0.07645929,-0.08831256,-0.08529604,0.048427097,0.0074034217,-0.082572624,-0.06397105,0.026529236,-0.050966196,-0.04829263,0.14253412,-0.026135126,0.14598341,0.04443708,0.047795575,0.028654067,0.07841291,-0.032208476,-0.016077615,0.22536471,0.0023521131,0.0069651776,0.16249317,0.06362916,0.23331514,0.05094179,-0.013040006,-0.076389566,0.15631339,0.12653407,0.098626226,0.0029836083,-0.14966151,-0.12468195,0.0814281,0.05366423,0.15277034,-0.051503975,-0.15499444,0.06753604,0.054908976,-0.01391028,-0.08581473,-0.067170255,-0.13807046,-0.03504837,-0.031130278,-0.02202292,0.22745076,0.18088311,0.103712395,0.042797353,-0.036347814,-0.13129893,-0.032389577,0.019807631,0.054171428,0.08587539,0.10767203,-0.062359747,0.06782333,0.10772076,-0.04173928,-0.03724034,-0.044275332,0.16983885,0.10915602,0.1179289,0.0020304976,0.06446162,0.034571994,0.0050848257,0.016400602,0.24935104,0.0450088,0.014735603,-0.18683128,0.04108143,0.058309816,0.05660676,0.0026809769,-0.14953011,-0.08173533,-0.030603329,-0.060892493,-0.019714504,-0.16930597,0.051824447,2.9360792e-05,0.010198393,0.10622641,0.17501815,0.13713083,-0.04703767,0.10406047,0.19370256,-0.07983699,0.14914383,-0.15336806,0.017472979,0.09612613,0.022534136,0.17009017,0.10900051,0.034531597,-0.2007493,0.08184353,0.10335705,-0.056666806,0.21997303,0.014437858,0.07505906,0.020090394,0.049242854,0.040289715,0.043776836,0.1529761,0.07002961,0.22064915,-0.07505872,0.05960051,-0.034426227,-0.1425302,0.009312493,0.025644619,0.09175325,-0.006071617,-0.10212917,0.09130283,0.14481752,0.18370539,-0.023724122,0.028131956,-0.08598923,-0.118794344,-0.00034755064,0.20418707,0.08253722,-0.03204384,-0.046481665,0.041904084,0.1603532,-0.08707226,-0.12579359,0.2154056,-0.06022182,0.00067247514,-0.037878953,-0.04838151,-0.03823377,0.07298717,0.2730451,0.11028229,0.2015383,-0.059259966,0.06956407,0.008020255,0.0018172273,0.16743378,0.05623617,-0.02514384,0.010122502,-0.165597,0.13682543,-0.008808521,0.074686974,0.14949888,0.15889913,0.2960875,0.08440855,-0.037564635,0.19443783,0.043772295,-0.013432968,-0.0231557,0.11147845,0.043786548,0.0038046686,0.13261145,0.14458817,-0.07390427,-0.11552785,0.06419537,0.14695042,0.07248997,0.04941779,0.00016973175,-0.0075326464,0.07019398,-0.12669712,0.40581948,0.09315967,-0.006670855,-0.13430807,0.0027982513,-0.085754685,0.019714316,0.09251331,-0.025506463,-0.06564858,0.14789581,0.014331877,-0.035355918,-0.024020564,0.1058909,0.15304548,0.081599146,-0.013518193,-0.1389193,0.11236446,-0.01951683,0.10305597,-0.034700755,0.05267911,0.12340716}, {0.068340175,0.051439118,0.074585296,-0.175913,-0.18104754,-0.13542217,0.025974236,-0.04122104,0.00025910023,0.12917022,-0.046263054,-0.015415357,-0.03726843,0.004420159,-0.061621316,-0.19337396,0.07795341,0.015269784,0.11875276,0.019222522,0.095766656,0.07024106,0.23256351,-0.07503363,0.028895672,0.08002813,0.104404956,-0.04752098,-0.17338239,-0.023523167,-0.0669795,0.038187362,0.069319084,0.057587996,0.18577757,-0.07474745,0.0036067264,-0.09415767,0.08689926,0.053271282,0.023174347,-0.09382043,0.0043634707,0.022652203,-0.0048947316,0.067265525,-0.1443579,-0.18783796,-0.0584388,0.0020522105,0.067993745,0.0052396376,-0.08690785,0.15325129,-0.067035906,-0.010424708,0.17726651,-0.07294076,-0.03970174,0.04439502,-0.19225097,0.06861692,-0.19696267,0.055246525,0.01683507,-0.016793484,0.057039462,-0.023029681,0.09576364,0.15257962,-0.053746037,0.057478298,-0.11282762,-0.11521256,-0.019319674,-0.024129031,-0.13062462,-0.009900714,-0.07140415,0.10161027,-0.066068314,0.02875192,0.020812405,0.030088255,0.09080914,-0.07764757,0.00047806918,0.17395855,-0.060633387,0.021805137,-0.20504163,-0.2087469,0.06347943,0.013541195,0.018082503,0.020922476,-0.110675775,0.063996956,-0.117767535,-0.12143979,-0.004681132,-0.14499512,-0.0980448,0.09289537,-0.14290735,-0.0678458,0.022259263,-0.0562159,-0.2005495,0.12260973,0.039646108,0.16212015,0.07700612,0.07430475,-0.1386474,0.17780948,-0.06033791,0.03665387,-0.13542964,0.14083081,-0.10636805,-0.11409638,-0.0110533815,0.057220597,0.005571846,0.005220544,0.09947201,0.009262324,0.16137503,-0.12205952,0.08602349,0.07399536,-0.09515452,-0.10331237,0.00019709133,-0.03443581,-0.18412845,0.12970367,-0.27500102,0.13335362,-0.013676889,-0.034393236,-0.047463726,0.034241777,-0.24863583,-0.085545465,-0.021637922,-0.069478646,0.0057193325,0.007899251,-0.17259316,0.11832967,-0.09290429,0.030846234,-0.092768654,-0.032446496,-0.22737929,0.065536134,-0.0016337539,-0.19694084,0.021440485,-0.009178118,-0.17366971,-0.043683298,-0.05309521,0.048812564,-0.10492194,-0.05325763,0.053380083,0.032902703,0.09592321,-0.2155996,-0.05799444,0.07244686,0.074421965,-0.046099875,0.15894628,-0.09384175,-0.087407224,0.12259569,-0.15307519,-0.03926401,-0.10107219,0.0431143,0.030986238,-0.3946002,0.10707105,0.13501999,0.20938055,0.1905872,0.045568157,-0.0030580156,0.07015156,0.01984247,-0.1364244,0.0072470764,-0.09570143,-0.04157149,0.05791205,-0.10085488,-0.0375963,-0.07103288,-0.19846982,-0.04761704,-0.10566608,0.059338633,0.04826165,-0.114046484,-0.04417619,0.03538776,-0.048997696,-0.02136876,-0.031319402,0.035133123,0.094054654,-0.050661076,-0.12484321,0.05937818,0.0746616,0.029765483,0.019397153,-0.025721917,0.10730144,-0.060651377,-0.07465898,-0.18363905,0.11520191,0.0030799608,-0.093785696,-0.09208731,-0.03351434,-0.188298,-0.19978543,0.22454785,-0.09889888,-0.09940848,-0.12087313,0.01124446,-0.031862717,0.16087852,-0.072954796,0.009927477,0.009539377,0.05907307,0.02898152,-0.079483636,-0.048658174,-0.106633045,-0.059580907,-0.10495708,0.098166205,-0.16571511,-0.1900053,-0.14030248,0.065537855,-0.15375066}, {-0.14123292,-0.02878328,0.09778224,-0.00992744,-0.010176585,0.1593391,-0.04812966,-0.015501638,-0.012990487,-0.0136480555,-0.15423954,-0.052966595,0.008646346,-0.0013331196,-0.062725626,0.0354164,-0.0005948807,0.0025037902,-0.08712896,0.041317966,-0.12657727,-0.15063588,0.0031649559,-0.008459266,0.08349384,-0.08262965,0.0938349,-0.22503859,-0.067829624,0.03850423,-0.01139168,0.20572934,-0.031234492,0.0910199,-0.110270396,-0.12531498,-0.05007287,-0.00032489662,0.004310905,-0.042691994,0.044076886,-0.010878239,-0.006209057,-0.01987355,-0.10689726,-0.13256517,-0.027293492,0.063858844,0.12914714,-0.13149954,-0.12872249,-0.18055293,0.047636446,0.009217253,0.08542903,0.07916907,-0.34644064,-0.05967774,0.024323115,0.1215996,-0.028972136,-0.033475574,0.12537383,0.07195737,0.0020115653,0.103505895,0.050473835,-0.12925155,-0.22788435,0.019190444,0.121040605,0.17213558,-0.11032244,-0.14026703,-0.20798114,0.075980425,-0.3177399,0.031018065,0.12864462,-0.055728894,0.059221152,0.2728819,0.05714542,0.09048492,-0.17881629,-0.06680085,-0.025525767,-0.12741758,-0.08133083,0.0031938248,0.0044167065,-0.010255382,0.051710863,0.038774226,-0.042513184,0.1857089,-0.111109875,-0.13234551,-0.020185322,0.08117272,-0.1910925,0.031347957,0.011213377,0.1734839,0.116075374,0.09390965,-0.04730274,-0.16909267,-0.053936116,-0.050771493,0.011845767,-0.19968863,-0.08598075,0.082119256,0.133417,-0.14327526,0.2566247,-0.08265677,-0.058457058,0.013677586,-0.0969315,-0.042592913,0.14545612,-0.14241284,-0.02639123,-0.0015351999,-0.25096074,-0.05690477,0.015169125,-0.086661145,0.024788925,-0.1443649,0.11342758,-0.027119078,0.09657879,0.058414605,-0.035330728,0.00031051162,0.056831468,-0.144306,-0.049656432,0.09370573,0.02749096,0.065399066,0.0859475,-0.078932166,-0.030582707,-0.05363677,-0.07461575,0.056828305,0.25952557,0.056006227,0.040587228,-0.09899329,-0.08670355,0.014818497,0.0023621696,-0.024635823,0.023001984,0.055124797,0.1421904,-0.14366335,0.0059735943,-0.0350978,0.11038462,-0.2459104,-0.01217663,0.13997239,0.02863807,-0.2448274,0.016482126,0.088128455,0.070949346,-0.11473389,-0.088819444,-0.0544715,0.028043719,0.0007954132,-0.02855425,0.03711416,0.055592872,-0.030284433,-0.021959508,0.17525814,-0.119023144,0.11867454,0.03101122,-0.010121245,0.06070495,0.04996202,-0.11668786,-0.05244986,-0.041767806,-0.12605427,0.23004082,0.0095065525,0.072945274,-0.014029747,0.081828184,-0.05994719,0.017624285,0.18279336,-0.016954288,-0.076862015,-0.0070905895,-0.12983404,-0.1842066,0.069127716,0.029195828,0.13063629,0.042038925,-0.067735985,0.12222788,0.1326458,-0.13979597,-0.076807864,-0.15201326,-0.14568643,-0.06162364,0.0047338437,0.19138019,0.19309749,-0.06863335,0.060840677,0.15396076,0.041584834,-0.03289098,0.0766962,-0.056485876,0.12885815,0.005533216,0.012136307,0.03617181,-0.17121288,-0.10098727,-0.07673835,-0.036121845,-0.044414364,0.08946503,-0.10386731,-0.09941544,-0.04335971,-0.08712685,0.034358982,-0.10472801,-7.3113246e-05,0.14646766,0.17485142,0.034782715,0.09844187,-0.068450786,0.08447257,0.10168165,0.007137332,-0.0495915,0.020551672}, {0.01927865,0.19107902,0.19518545,-0.010398939,0.031408347,0.001788427,-0.019005798,-0.018983973,0.028380016,0.052252304,0.066611454,-0.031246116,0.05661649,0.004151181,-0.1348079,-0.16149944,0.21578766,0.07516956,-0.06267733,0.11718805,0.0092371125,-0.0034390097,0.060438056,-0.17104219,0.27795428,0.17898436,-0.03735405,-0.03753509,-0.021678556,-0.072823495,0.38039902,0.17817566,0.026108295,-0.17891055,0.16820851,0.07370398,0.06672534,0.09191725,0.13638468,0.10713752,-0.14856869,-0.02189172,0.015838314,0.12877648,-0.02070251,-0.1508991,-0.030539943,0.0028425667,0.046046443,-0.058827266,0.08165356,-0.09887419,0.0051620617,0.058850646,-0.19201837,0.15263106,-0.03378098,-0.004957209,0.039463285,-0.09678676,-0.057998016,0.17954767,-0.040028512,-0.012956068,-0.12519522,0.13572036,-0.0071696006,-0.007973124,0.0765412,0.124801554,-0.056637995,0.009853727,-0.1636246,0.07070821,0.045357645,-0.044568304,-0.059990842,-0.09538691,-0.11676046,-0.10395392,-0.17271307,0.07577584,0.14110497,0.13664769,-0.06502831,0.047368668,-0.002855901,-0.12818348,-0.055633757,-0.074018456,0.002933713,-0.13068675,0.21174617,0.016863802,0.0009798243,0.16852745,-0.07358665,-0.11460149,-0.075408444,0.30091223,-0.060749155,0.10260452,-0.012648024,0.08094881,0.19066834,-0.17862077,-0.057416216,0.08280243,-0.053630915,0.15353757,-0.06547983,-0.016187565,0.031191723,0.075916395,0.17522462,-0.0062849876,0.062240504,0.103002764,0.020264043,-0.07716301,0.04366677,-0.04833827,0.09750317,0.077240236,0.023890303,0.10271122,-0.0937111,-0.004237444,-0.019411888,0.08910285,0.0053219837,0.097916506,-0.11567067,0.05079033,-0.0643107,0.12526725,0.013536048,0.04829017,0.10599725,-0.0062863408,-0.026459081,-0.043908212,-0.028598037,-0.041431352,-0.02690227,0.14282304,0.019027663,-0.2000451,-0.12653871,0.24654928,0.15172268,0.05843889,0.09510619,-0.03932107,0.010611549,-0.24991962,0.05555784,0.30967396,0.047779717,0.14929439,0.0682943,-0.08699882,0.099492066,0.16716383,-0.04295449,-0.016664814,-0.11926965,0.031627078,-0.16712403,0.06755291,0.12067802,-0.017088344,-0.011357428,-0.12215543,0.061955918,0.12387214,0.050116815,-0.06517402,0.079601705,-0.0053642774,-0.010320989,0.109432355,0.08882403,0.19538124,0.06841095,-0.08663741,-0.121044815,-0.018460514,-0.008269077,0.00028026145,-0.0106975,-0.07445984,-0.13456377,-0.08719387,-0.048338857,0.042017177,0.034922004,0.047545154,-0.024687344,-0.023511823,-0.03150478,0.004457809,-0.0029922489,-0.08413182,0.09147576,0.15849862,0.017745765,0.012357919,0.21200944,0.0018668107,-0.13847011,0.033761118,0.03198226,0.2002866,-0.11399357,0.09709246,0.007934298,0.05892833,0.030784648,-0.13100117,0.1199049,0.04331416,-0.07687754,0.033916686,0.03681594,-0.14399607,0.046666082,0.10692824,-0.108979374,-0.20418848,0.17329822,0.15962298,-0.01760114,-0.0021313042,-0.23504566,-0.005672214,-0.2898589,0.05761666,-0.023234582,-0.0058838422,-0.028123781,0.02015338,0.026906071,-0.093692206,0.043262437,0.078864686,0.10898041,0.12484248,-0.2792405,-0.019552127,0.144014,0.064311,0.0008693979,0.05196035,0.1219036,0.05935676}, {-0.06336762,-0.122004025,-0.030593095,-0.027895426,-0.010083109,-0.025637427,0.14957163,-0.03378034,-0.40538138,-0.071300566,0.052278325,0.08160948,-0.00048522023,0.23640017,0.12146374,0.04741718,-0.07509439,-0.093023755,-0.122708246,0.17650345,-0.24529637,-0.11536916,-0.056405906,0.1795061,0.13967776,-0.0044789533,0.10742389,-0.023912106,0.09359626,0.07408652,-0.04124624,0.0011960629,0.001006287,0.12986265,0.022942636,-0.20936511,0.09697877,-0.23289321,0.12041376,-0.07042408,-0.021746427,0.058722496,-0.074745625,0.05483089,0.06238527,-0.0060714628,-0.05952856,-0.2332961,0.061563376,-0.07493681,-0.013750931,0.06507291,-0.04090395,-0.026331173,-0.1315998,0.041974884,0.050607856,-0.041602194,-0.21824406,-0.005681732,-0.055408657,-0.19941507,-0.13242131,-0.11406236,0.1682855,-0.039011654,0.24958138,0.2742075,-0.083811186,-0.003815197,0.10051738,-0.10868312,-0.020074988,-0.045468576,-0.12572163,0.10725346,-0.008872478,-0.027231986,0.0039550057,0.05541345,0.20467986,0.1274587,0.12356066,-0.002018671,-0.059654593,-0.024409901,-0.11895134,0.029027913,-0.06864767,-0.009024187,-0.14838375,-0.09435731,-0.019310338,-0.22137049,-0.15279102,0.058379926,0.088309675,0.056026094,0.0045061335,-0.010042178,-0.057160955,0.062862135,-0.024611998,-0.08108778,0.04783168,-0.07188788,-0.16312361,-0.05234724,0.065298945,-0.26088795,-0.033937536,-0.2862871,-0.05982662,0.12471299,-0.17172393,0.07583296,-0.024996469,-0.10557197,-0.002579703,-0.11827841,-0.17150667,0.14159067,-0.089679234,-0.0685753,-0.1266785,0.22901797,0.033243727,-0.048595395,-0.21385194,0.11922688,0.049878933,-0.2664529,0.04131277,-0.033318046,0.15471672,0.19230132,0.0022491608,0.05591481,0.06673917,0.08268133,-0.21393932,0.31818217,0.015030305,-0.09127363,0.033282973,-0.21986853,0.060103368,-0.117074504,-0.012738834,0.036080994,-0.03507018,-0.029140329,0.11276794,0.07449847,0.071902424,-0.033204265,-0.12801336,-0.09056915,-0.07157397,0.12784752,-0.17676537,-0.00050710514,0.1293489,-0.19873515,0.06937858,0.114540085,-0.015094824,0.0346932,-0.055707533,0.084518634,0.103357606,-0.060231082,0.19701257,-0.18544745,0.15266521,0.11915038,-0.08754417,0.08284037,0.13340597,0.029036772,0.09034539,-0.11598071,0.13166845,-0.06340233,-0.015217481,-0.11730255,-0.105213955,0.08905574,0.07429296,0.018482378,0.118511185,-0.03861795,-0.25880244,0.042746022,0.22849673,0.053628337,-0.14846535,0.17327574,0.08358436,-0.007605958,0.18513545,0.15838727,-0.0017917904,-0.09818283,-0.14867246,-0.103866465,0.082875334,-0.05618257,0.04055542,0.12364362,0.011159388,-0.12204443,0.04012239,-0.045162328,-0.19650924,-0.036447603,-0.22600256,0.19727229,-0.032157127,0.060824446,-0.0022335711,0.17286685,0.044295695,-0.033775944,-0.14363715,-0.0874914,0.09970596,0.009350713,-0.0013905306,0.023236189,-0.06128306,-0.1437487,-0.057071228,-0.1366945,0.17104226,-0.1515628,-0.020350562,-0.13817586,0.12470805,0.19039793,-0.109746315,0.044277612,-0.2401932,0.09150853,-0.10326857,-0.10949386,-0.056847975,0.14378396,-0.10103886,0.042241216,-0.06501764,-0.12471722,-0.124926426,0.08191877,0.17504366,-0.07721549}, {-0.035389222,-0.04430959,-0.14622955,0.007323064,-0.121579945,-0.10889543,-0.08623215,-0.038161855,0.002737585,-0.12514181,-0.0003249187,0.011562997,-0.007621844,0.16218607,-0.1334901,-0.010721979,-0.027567165,0.15679063,0.06574206,0.024763456,0.01270612,0.07607268,-0.057118185,0.04858484,-0.16003577,0.11061478,-0.0361236,-0.1365289,0.031160235,-0.18185863,-0.031346545,-0.013692106,0.04143711,-0.05715695,-0.21694912,0.028137561,-0.09466776,-0.0495705,-0.0038477115,0.12399987,-0.0031345754,0.07269209,0.02791415,-0.05161878,0.012319744,-0.04001905,-0.037488308,0.08123772,0.06630519,0.1559199,-0.002430228,0.08479165,-0.03888746,-0.113268465,-0.028365254,0.09215932,-0.06924087,-0.25659028,-0.057949487,0.0125226285,-0.2065941,-0.038388286,0.055047806,0.06650219,-0.0990143,0.030158924,0.0472379,-0.036224496,-0.0651288,-0.11038088,0.08476506,0.047605027,0.07808277,0.24436046,0.016455632,-0.11193211,0.026628563,0.0639883,0.08899215,0.12921704,-0.080899805,-0.03834984,-0.034106832,0.04866332,0.25302762,-0.044640712,0.061786946,0.17910396,-0.005064788,0.014995656,-0.024051145,-0.0026324845,-0.07599525,0.19727762,-0.14013344,-0.16682047,0.055667546,0.027657768,-0.020469705,-0.10985715,-0.17216997,0.021163033,0.07958723,0.0015194243,0.1351589,0.10688241,0.042299557,0.08587662,0.022241117,-0.0031128302,-0.17453825,-0.05242604,0.027528241,0.16063726,-0.13075347,0.003945992,0.06288908,0.20953593,-0.0073897345,0.068467386,0.06611426,-0.048440553,0.06426974,0.07144309,-0.06158673,0.18076527,-0.075151235,-0.0040548546,-0.10952074,0.0059330044,-0.16628245,-0.14770274,-0.073494576,-0.077044636,0.15047999,0.07086822,8.9413035e-05,0.032503273,-0.051440913,0.12618867,0.13675635,0.089856796,-0.08990133,0.10249016,-0.026990537,0.10764827,0.116287485,0.05847889,-0.0056352615,0.09485996,-0.16906159,-0.054501638,0.23740219,0.08310618,0.0041393503,0.05038566,0.038803026,0.04743389,-0.14763767,-0.07374759,0.1778163,0.21369353,-0.009060461,-0.018593004,-0.11657045,0.10577633,-0.21020581,-0.08866555,0.098387234,0.02933055,0.08518863,-0.051227164,-0.121696554,0.040592432,-0.16978385,0.061112788,0.020181673,0.018722028,-0.102865055,0.13236037,0.21690416,-0.13868499,-0.1942278,0.30629605,0.024617562,-0.08555005,0.120931044,0.17047994,-0.080257356,-0.016379807,0.09686426,-0.050342694,-0.09982839,0.1612219,-0.059420176,-0.10047857,-0.13586448,-0.017975593,-0.22386973,0.06612803,0.102915496,-0.1236084,0.17051561,0.17920646,-0.10125745,0.056042753,0.18919712,0.12049487,-0.041592445,0.029978639,0.08438988,-0.10453855,0.06112953,0.057009667,0.029355781,0.062393762,-0.216726,-0.097588696,0.022983031,0.036041263,-0.14527291,0.049984436,0.03388903,-0.090660535,0.118207,-0.14554088,0.035920825,0.070941664,0.10767213,-0.15654531,0.09424639,-0.067091055,-0.023236161,0.12334185,0.019913577,-0.07597959,0.1798546,-0.019001657,-0.15931746,0.11991522,-0.05901551,-0.17161283,0.08888245,0.015663555,-0.13401684,-0.056863625,-0.12703484,0.11906309,0.033976633,0.019111838,-0.047300953,0.08891014,-0.14182507,-0.027941816,-0.0767667,-0.030383918}, {-0.09461631,0.1285734,-0.20871249,-0.16853201,-0.025271848,-0.15742932,0.147941,-0.15971483,-0.3083983,-0.101885095,0.046075597,0.08682627,0.07889256,-0.20606594,0.064054646,-0.053800996,0.044788852,-0.026210688,0.064425826,0.0011790607,-0.1788594,0.08963159,0.038996585,0.019027896,0.10714937,-0.094625175,-0.14277455,0.084331214,0.10351658,-0.2664394,0.1586815,-0.07158586,-0.122152075,0.14163981,-0.0060082264,0.1316424,-0.2800368,0.0074293134,0.04150652,-0.023326945,-0.018336652,-0.005819485,-0.16026084,-0.14273466,-0.15723342,-0.061278176,-0.19154699,0.053758938,0.02752117,0.014938728,0.09486842,-0.04874646,0.07567839,-0.020688292,-0.1933787,0.12997682,0.099024646,-0.25708732,0.013583403,0.28111103,-0.18258242,-0.22269207,-0.14804748,0.1651192,0.17890011,-0.08013032,0.0010450402,-0.017464595,0.07586255,0.05042391,0.019871192,0.028136905,0.025132097,0.085826784,-0.19315302,-0.030367576,-0.12528335,-0.028444605,-0.102229886,-0.15433231,0.16179214,0.039053433,-0.11730364,-0.15298042,0.08016575,-0.008605977,0.022347813,0.27069297,-0.024893414,-0.101355836,-0.055797737,0.016600369,-0.10930178,0.025296682,-0.004076306,-0.09449468,0.07527593,0.16189963,-0.004112465,-0.29772168,0.01851422,0.19431418,-0.053528376,-0.24852498,-0.16988279,-0.24481939,0.10190761,-0.035375148,-0.10435707,-0.06396613,-0.32958025,-0.006683694,-0.29471236,0.030504199,-0.14300188,0.0021234904,-0.14258873,0.069003925,-0.07160701,0.0015495073,-0.0947305,0.10117581,0.06316424,0.17369212,0.0060523255,-0.19224028,0.18659405,-0.08733761,-0.052154496,0.24176416,-0.10064761,0.0027537022,-0.05846278,-0.33012062,-0.045798626,-0.106427915,-0.08198671,0.07521172,-0.0312549,-0.19286835,-0.081465274,0.17384343,0.008314061,0.20185493,0.07011774,-0.12791967,0.031745944,0.036902085,0.018978866,0.15148672,-0.10170044,0.07097251,-0.0946546,-0.0012768974,-0.092309974,0.021774717,-0.2180014,-0.05258318,-0.02663367,-0.0042931223,-0.14263631,0.07188231,-0.11558961,0.07309319,0.020894442,0.0647216,0.1444386,-0.12242776,-0.1183491,0.014402317,0.12580147,-0.10704711,-0.16255876,-0.12533708,0.12779117,0.014681062,-0.12455014,-0.011854028,-0.06861018,0.22393018,-0.103223875,-0.02192323,0.035517566,-0.02907864,0.055816535,-0.06760189,0.05146205,-0.058246866,0.114716016,-0.04514733,0.037795026,-0.10116595,-0.21866739,0.11447699,0.101920255,-0.10441775,-0.1934121,0.1994521,-0.050597865,-0.032475933,-0.020362908,-0.047521517,-0.087255724,0.0071800817,-0.12923527,0.083920605,0.19144985,-0.044249535,-0.034318764,0.09499304,0.035013244,0.18620256,0.15390414,-0.09223553,0.117896885,0.1950255,-0.03430896,0.071209975,0.16003153,0.23165591,0.07056011,0.09363328,0.0015633405,-0.18094523,0.020935556,-0.047493726,0.04816507,-0.081338346,0.26565525,0.082449734,-0.052260634,-0.15335773,-0.22132733,-0.066704005,0.21494561,0.0119781215,-0.025390057,0.039591204,-0.084845215,0.39521277,-0.0031456372,0.16340077,0.055883996,-0.11264491,-0.22430435,0.056170106,0.03558821,-0.10037643,-0.12888005,-0.060186666,-0.0011088349,0.03409578,-0.22240934,0.025347125,0.1473385,0.0721005}, {-0.042095006,0.098879196,0.076757416,-0.074544884,0.0154820345,0.02003583,0.12528117,-0.05612534,0.17088911,0.17381103,-0.12261817,-0.09773505,-0.07834118,0.08631723,0.18028979,0.09736389,0.080214635,0.081456296,-0.00073562906,0.036992624,-0.079108655,0.0088135,0.1383709,0.062875435,-0.043364454,0.019708283,0.088249564,-0.07862893,-0.19272363,-0.18579331,0.10460266,0.14321375,-0.07169942,-0.12268463,-0.018089574,0.023918383,0.025334338,0.15674531,-0.13844767,-0.31214598,0.0033122473,-0.0157845,0.11623469,-0.048087373,0.23168814,-0.17631353,0.1839854,0.002913975,0.11730984,0.12714978,-0.12051108,0.032048024,-0.0620613,0.20043457,0.04073635,0.0046544303,-0.16580386,0.19300127,0.2481793,0.15532044,-0.023747629,0.12255057,0.034071695,0.22003038,-0.10090999,0.3797337,0.10343271,0.12807344,0.090112135,-0.1682199,0.21214017,0.0034772668,-0.3634625,0.1709659,0.0041430164,0.17494644,0.27377385,0.087126784,-0.074211605,-0.16459225,-0.09234325,-0.041380968,-0.06609785,-0.026702479,-0.09846244,-0.022427639,0.24883553,-0.08868687,0.099538885,-0.08763832,0.059231795,0.17272063,-0.12218403,0.15036058,0.028201696,-0.064806685,-0.13681056,0.050991606,-0.013310118,0.12253434,0.044542827,0.041078445,0.050117757,-0.14047255,-0.07312206,0.19159481,-0.023120085,0.17254555,0.075993806,0.00054293993,0.120957695,0.02756923,0.2485153,0.13999835,0.24134125,0.19981821,0.09229559,-0.042223103,0.13281175,-0.0061811614,0.07301769,-0.2095526,0.017491236,-0.18965311,-0.120111965,-0.10604405,-0.029789204,-0.19936648,0.1411695,0.0134202475,-0.029091649,0.05748784,0.2453362,0.032282803,0.07189928,0.2310599,0.022527453,0.021411594,0.087503165,0.10483969,0.22369923,0.006193837,-0.06980745,0.27663165,-0.039826438,0.16003326,-0.0132168075,0.16129804,0.11871755,-0.112083435,0.021381797,0.092600204,0.13723908,0.0916047,0.1299894,-0.16933343,0.0032955129,0.15378658,0.03051373,-0.04882944,0.029970808,0.26866385,-0.030469362,-0.03482441,-0.012846174,0.0729174,0.09335264,-0.16382396,-0.06274098,0.01579799,0.123302445,0.0086781,0.119486354,0.076551214,-0.091652974,0.086902805,0.07659152,0.027168792,0.15851513,0.025217198,0.1169984,0.11489305,0.29100686,0.022025421,-0.1535848,-0.0031521246,0.021838501,-0.14608629,0.09085579,0.028615443,-0.0834816,-0.24825111,0.10581367,0.38637716,0.1371956,0.008743576,-0.012396665,0.0003817287,-0.071888186,0.13084412,0.011673388,0.24898751,0.060016863,-0.18529361,-0.0011060375,0.13107134,-0.22590946,0.10036725,-0.081507936,0.41309884,0.09151566,0.07297574,0.22780387,0.0087346835,-0.00840879,-0.13426231,0.1495302,0.073100545,0.1634927,0.10043159,0.15104412,-0.12492085,-0.08181371,-0.07034523,0.05069735,0.04124377,-0.065639354,0.12460788,-0.0327194,0.0324643,-0.054891717,0.12148014,0.04232526,0.015989719,0.01824071,0.056868304,-0.101738445,0.06020504,0.11631706,-0.14672811,0.028290164,0.04407336,0.2287239,-0.06276809,0.16280045,0.12600434,0.11723058,-0.21077028,0.079060376,-0.12876906,0.09955949,-0.11685671,0.12638636,0.04039692,0.06291358,-0.009762955}, {0.038430274,-0.15737545,0.030280469,0.0046506627,-0.043689284,-0.14658722,-0.07463785,-0.00026610843,0.085548006,-0.17831269,-0.033073895,-0.13683687,-0.061024062,0.0039158175,-0.017211795,0.08490095,-0.059129264,0.098692514,0.03762046,-0.105179645,0.051897567,0.07595415,0.08458959,0.072791845,-0.039874814,0.0185321,-0.04828569,0.109906435,0.19982861,0.032914832,-0.04020605,-0.05307665,0.08733625,0.12575322,-0.0028180294,-0.0075741536,0.20677727,-0.06822919,0.0572174,-0.0022931572,-0.008372257,-0.17977898,0.11783997,0.19285531,0.20519179,-0.1345632,0.10732133,0.087607265,0.24068533,-0.3489797,-0.057051495,0.033858817,0.0016865875,-0.14104241,0.13593288,-0.29599816,-0.020396553,-0.14895481,-0.19309513,-0.13700622,-0.09285814,-0.22417983,-0.20882913,-0.40047857,-0.07042108,0.09214908,-0.09061369,0.35912478,-0.18566571,-0.30336642,-0.103487775,0.028124515,0.11792466,0.013615523,-0.0029288433,0.1609092,0.10390958,0.02779138,-0.04765788,0.13409482,0.104702935,-0.027209343,-0.066885635,0.05806045,0.07018844,0.12881865,-0.029871408,0.06898207,-0.16693427,0.085925035,-0.15952441,0.11827749,-0.034731355,-0.07302668,0.12203619,0.078970246,-0.14657512,-0.1319429,0.06228503,-0.22411254,0.016348692,0.07099281,0.100868516,-0.18935615,-0.038970057,-0.073543586,-0.25827268,0.14279889,0.031819634,-0.115872584,0.14204934,-0.0017600581,-0.055214107,-0.09571774,-0.05826073,0.28794813,-0.07366781,-0.015911568,0.08506945,0.0413358,0.102953,-0.014107387,-0.116276994,-0.08017426,-0.063278995,0.03109655,0.18832922,0.15923929,0.042177927,0.11292469,0.079482175,-0.17891613,-0.1467398,0.056757674,-0.025684953,-0.1342536,-0.12899,-0.14323281,-0.12908918,0.01687028,-0.06033913,0.07031958,-0.12164754,-0.10489117,0.13077761,0.121763,0.0802022,-0.20476364,-0.005424115,0.047249205,0.10899352,0.20893835,0.15723833,-0.1412148,-0.22249593,-0.044222686,-0.12822941,-0.070075095,-0.071362264,-0.16193426,0.07955853,-0.17415388,0.27829462,-0.090473935,-0.1337412,0.22879249,0.055964388,0.03798789,-0.13996264,0.20078886,0.20321643,0.08638678,0.057726566,0.0052802437,0.11758697,-0.032982722,0.023050392,0.04195332,-0.055611778,-0.07920711,0.003526596,-0.09723682,0.01135016,0.085787095,0.14406618,-0.0424457,0.006506886,0.14905474,-0.0706067,0.061050866,0.021801807,-0.13242833,0.044978846,-0.14483634,-0.06640244,0.16410287,0.12808244,0.12312637,-0.07096734,0.009616023,-0.28423864,0.13149962,-0.07755954,0.059513308,0.027530212,-0.22030437,-0.04874369,-0.0043113725,-0.029793998,0.05432273,0.014269028,0.062067755,-0.10714357,0.006164491,-0.048026863,-0.05070737,0.20420216,0.0023146537,-0.012695957,-0.08646967,-0.018814215,-0.049737476,-0.02919712,-0.1526171,0.08952721,0.0743016,0.07695908,-0.13502964,-0.07876463,-0.2848439,-0.120356,-0.07147151,0.0073805456,0.083053224,-0.00074589904,-0.058025137,0.15116793,-0.13534273,-0.02998775,-0.040059634,0.0051498255,-0.10392388,0.1346814,0.05196894,0.16917247,0.012708025,-0.0939474,-0.0633193,0.022918843,-0.02825473,0.0055556227,0.05807653,0.09871244,-0.07116559,0.059998527,0.059129026}, {0.13159193,0.026218023,0.16299449,-0.14081424,-0.27177188,-0.0042392826,0.10409891,-0.17195271,-0.016397124,0.0031610613,-0.096043706,-0.038812347,-0.11184194,-0.10813612,-0.065059125,-0.016691627,0.1547806,0.094130434,-0.04064076,-0.06391484,0.08074433,-0.102673076,-0.20483544,0.018889844,0.1393825,-0.008021981,-0.1322896,-0.14545071,-0.16907784,0.22380501,0.26076153,0.17927381,0.2489994,-0.065966375,0.03628301,-0.15373738,0.04347877,0.07888945,0.18424736,-0.09488055,0.23018315,-0.06945818,-0.12903625,0.12823908,-0.11606332,0.14824678,-0.13155884,-0.13325477,0.04617352,-0.021942694,-0.07094577,0.011570685,-0.011815626,-0.0085356375,0.10164325,0.13497505,-0.03426619,-0.004118947,0.093105696,-0.00092680485,-0.17199513,-0.015092969,0.07580226,0.16052084,0.112415746,0.19068362,0.115253136,-0.19347176,0.0023480852,0.055932757,0.040208213,0.07484793,0.037674308,-0.1398785,0.08266755,-0.016820455,-0.08858944,0.1425003,0.0030373812,-0.17034052,0.05272507,0.23092388,0.099848345,0.13731268,-0.16039157,0.106905036,-0.17744336,-0.042703994,0.06474878,-0.10149539,0.030602949,0.047341406,0.19390085,-0.007795135,-0.26750416,0.080081776,-0.0023657123,0.0657343,0.0019422276,0.15431607,-0.05818351,0.0062681665,-0.24317698,0.032399688,-0.1483314,0.09150623,-0.0644195,0.043552328,-0.043858204,0.29134163,0.105147116,-0.031167787,0.13193995,0.084079996,-0.02203503,-0.1633618,0.16875198,0.056490604,0.006181912,-0.21166334,0.12239698,-0.049058158,-0.11066209,0.2512706,0.0689698,-0.010130837,0.12961954,-0.1511483,0.07803085,0.09331263,0.10809627,-0.047073033,-0.0790611,0.18239564,-0.1329822,-0.002783424,0.032629237,-0.029565686,-0.053119533,-0.061897773,0.04024878,0.017708309,0.08936152,0.03617758,0.0942799,-0.11182635,0.06773451,-0.14222871,-0.050984874,-0.027887184,0.079764195,-0.06820593,-0.08116909,0.078872606,0.059016187,-0.020765293,0.016196098,0.24071886,0.14293014,-0.11787825,0.073289886,-0.058468457,-0.15995735,0.19087279,0.0040994417,-0.109981835,-0.21880084,-0.1034452,-0.035686195,0.040328965,0.06669009,-0.10308912,0.057778742,0.09261299,0.022941504,-0.08580501,0.07885107,-0.030869586,-0.20110133,0.0649101,-0.08559033,0.0041194325,0.15900579,0.25939068,0.15972045,-0.08011401,0.19426538,-0.18445171,0.18292367,0.11099549,0.03702163,-0.090644814,0.05775094,0.031774834,-0.17878571,-0.044655602,0.14052485,0.12839812,-0.097134896,-0.042996347,0.046231978,0.15465267,0.019073488,0.094971806,-0.017966429,0.1733129,0.09102968,0.10952312,0.014005496,0.20302497,-0.08314914,-0.0012970068,-0.0698459,0.114046514,0.11274087,0.11839425,-0.05497461,0.08662733,0.023405436,0.012436562,0.06268947,0.21414246,0.18579721,0.08214964,-0.1561816,0.012152112,-0.25810602,0.13687083,0.04359409,0.008218245,0.0019918256,0.04387483,-0.07460421,0.24524036,0.044659376,-0.076261416,-0.19322069,0.050790906,0.15374425,0.068610154,-0.0006946674,-0.024009949,0.112738594,-0.007799529,0.054854635,0.039020743,0.12353246,0.04734739,0.003215975,0.07637283,0.063462794,0.045716226,0.11560962,-0.08637921,-0.061263423,-0.046804998}, {-0.23704198,0.052518874,-0.020939484,-0.11147949,-0.051570956,0.030884698,-0.17563242,0.015983976,-0.010546799,-0.14879145,0.07758416,-0.052311517,-0.12078457,0.036291357,-0.085285,0.19453876,0.030768385,-0.096429676,0.02975854,-0.008277518,-0.11518511,-0.1394271,-0.044486754,-0.075015225,-0.07355066,-0.28100166,-0.0852679,0.18530753,0.039701715,0.04707734,-0.20901,-0.20604174,-0.043998644,0.099226594,-0.08644728,0.010721003,-0.069798894,-0.18093903,-0.04536562,0.081093416,0.036621537,-0.08265158,0.041232117,-0.09902341,0.1634347,0.17737755,-0.2080941,0.00025852397,-0.40874064,0.11915607,0.118173055,0.111870505,0.13255416,0.06775284,0.0832581,0.028819386,-0.039008178,0.077760324,-0.07505368,-0.042169012,-0.061708927,-0.08602155,0.043265954,-0.14844291,0.15207845,-0.022795087,0.15368366,-0.023194132,-0.12679577,-0.1586983,0.06348462,0.11428283,0.06807278,-0.33087328,-0.095297545,0.036298633,-0.14170323,0.10037018,-0.07780446,-0.022785028,0.054805547,-0.14291257,0.020764273,-0.14222674,0.08982833,-0.089381516,0.0012150038,0.119446,0.00031199973,-0.16277045,0.025962725,-0.12809967,0.092157915,0.048962384,-0.165291,-0.080043316,0.08464028,0.15120497,-0.13068002,0.075426094,-0.07042646,-0.20739076,-0.051864244,0.07890128,0.07321449,0.066455126,0.063385405,-0.07260241,0.07600691,0.08433694,-0.15906799,-0.20571253,-0.33489746,-0.0023865409,-0.13402572,0.059154857,0.026902147,-0.15054213,-0.17613542,-0.16094057,-0.19167076,-0.05076603,-0.0699908,-0.018511653,0.13652228,-0.017644407,-0.010183095,-0.10069739,-0.1715904,0.012692748,-0.117949724,0.21506181,-0.049604762,-0.087401316,-0.017637009,-0.13675046,-0.06768292,-0.053025488,-0.15270819,-0.21443531,0.115511134,-0.016453683,0.0071837343,0.24554545,-0.054327656,-0.22553478,-0.14831804,0.09143965,-0.06461725,0.042084046,-0.08047922,-0.11089783,-0.006535648,0.02848097,-0.016883302,-0.16205452,-0.11083686,0.122260325,-0.06481725,0.15342136,-0.075135775,0.08799227,-0.12377737,0.09355071,0.02126982,-0.13427694,0.027341489,0.082881235,0.17334107,-0.17558694,0.026021007,-0.048204765,-0.02406293,0.09122187,0.016083928,-0.03712758,0.168947,0.057087343,-0.051588964,0.07818549,0.07799695,0.04949501,-0.040132977,-0.30387828,-0.23023207,0.18532862,0.028288282,0.13428935,0.010534312,0.004163498,-0.015344857,0.006072119,0.04349744,0.0017855775,-0.009617705,-0.11173199,-0.029696127,0.046565704,0.26670888,0.03457118,-0.1011223,-0.21778338,0.0144565515,0.19719225,0.041910186,-0.08465724,-0.021462483,0.20008096,0.02981426,-0.052143306,0.12379398,0.009151291,-0.13709898,-0.04705346,-0.20233585,0.10302205,0.039921656,0.105408594,-0.07526282,-0.0022766807,0.057337582,0.037360843,-0.07512568,0.02199912,0.06564111,0.0039271223,-0.0527807,-0.25817707,-0.046126872,0.01233832,0.08775482,0.040570457,0.13299994,0.053938616,-0.00664811,0.0070814393,-0.10068252,0.08793766,-0.072231375,-0.008089611,-0.00728881,-0.07320456,-0.25283787,-0.120955095,0.0032395418,0.08129163,-0.049034916,-0.04919081,0.031481266,0.044871155,-0.022805078,-0.06596711,-0.18622859,-0.103967056,-0.08724078,-0.040205207}, {-0.06824451,0.11865955,0.025189016,0.070609026,0.16224372,0.22277012,0.0036336135,0.06862425,-0.08921018,-0.11097141,0.13956565,0.033792697,0.10016602,-0.05611154,-0.047875833,0.14846781,0.008677942,0.0434959,0.031909466,-0.058087986,-0.122108236,-0.1344684,-0.1392204,-0.024373144,0.02803535,-0.008170578,-0.14885895,-0.004664287,0.07381794,0.033684436,0.04168248,-0.039046124,0.039878547,-0.022127654,-0.08539122,0.22639912,-0.04834634,-0.21492532,0.05213965,0.07669695,-0.07843513,-0.013819452,-0.06879211,-0.010706082,0.14232361,0.010885583,-0.06882072,0.06253088,-0.0036767826,0.012040737,0.108674355,0.08352029,0.06778445,0.23468114,0.13606912,-0.18712305,-0.10926482,-0.022130538,-0.066183396,0.038740605,0.06612638,-0.11713288,-0.005330683,-0.14685187,0.16283022,0.10911513,0.17305335,-0.041331995,0.035926282,-0.0033734336,0.24973178,0.12769514,-0.10126713,-0.043883692,-0.101740025,-0.0072105927,0.039584953,-0.023685347,0.0201618,-0.03485334,0.069670655,0.16347086,0.006583322,-0.15775946,-0.06315996,0.09720301,-0.01645169,-0.05215215,-0.121263996,0.030636294,0.11858916,0.039836686,-0.029008918,-0.18111058,0.031492263,0.23300101,0.03068042,-0.0680687,-0.0035593181,-0.012878116,0.00925559,-0.08703486,0.0050589717,0.2585508,0.1314749,0.03783772,0.07343234,-0.03620024,-0.055498883,-0.026156394,0.069111295,-0.15432185,-0.118129246,0.066374764,-0.0037906484,-0.07459241,0.035607133,0.082419045,0.22344063,-0.10504902,0.06769968,-0.11660296,0.027136363,-0.2345148,-0.0449459,0.06442681,-0.083341956,-0.09470112,-0.18761894,0.027584279,-0.032419395,0.034417007,-0.024398612,0.20614497,0.12871265,0.04101299,-0.0046628644,-0.14885789,0.03366979,-0.14926003,-0.031446606,-0.23293811,0.007234922,0.1122552,0.02217207,-0.07667392,0.1651711,-0.094364464,-0.08828458,0.053379323,0.102739684,-0.12229162,0.05008782,0.04065453,-0.04036912,-0.06865961,0.096458144,-0.0297501,-0.2133616,0.081653066,-0.045275234,-0.07218948,0.049492978,-0.06064711,0.054900806,-0.055798296,0.053616088,0.31348065,0.06968554,-0.022814296,-0.08513822,0.15893506,0.13705733,-0.09429007,-0.0557457,-0.102061085,-0.022889193,0.109583214,-0.008045088,0.08238255,0.23967935,0.021896753,0.02137214,-0.04512036,-0.2423878,0.034520485,0.07053265,0.14605315,0.06057054,-0.0077165584,0.07914458,-0.04041485,-0.13255338,0.07676496,0.17427489,-0.14134604,-0.070013374,-0.100710005,0.10359461,-0.008884631,-0.11364127,-0.04428787,0.11144577,0.031565048,-0.07761991,-0.029177438,-0.054084577,-0.08735631,-0.035443675,0.14436607,0.15005185,0.0996545,0.03343795,0.16089831,-0.2430583,0.05007654,-0.03074614,-0.01074997,-0.031396415,0.0032997197,0.08380412,0.066576295,-0.15866248,-0.052641198,0.21151489,0.10766988,-0.1288398,0.010094401,0.023117539,0.0019636077,0.066316366,-0.036599025,-0.004997112,0.0746551,-0.064482026,-0.089296006,-0.15514639,-0.05489362,-0.005722953,-0.06191848,-0.16974375,-0.06516554,-0.13048367,0.10284074,-0.045910615,0.38310063,0.01717771,-0.037618335,0.09264527,0.064000934,0.1823425,0.052175913,-0.09101312,0.028670957,-0.12934566,0.017752139}, {-0.022825234,-0.10277275,-0.20592153,-0.13465707,-0.0011383416,0.08801071,-0.14997563,0.08824958,-0.04296047,-0.07211329,-0.09081466,-0.01058173,0.013333903,-0.03629239,0.16530018,0.12231278,-0.08144908,-0.0916088,-0.13445559,-0.035350278,-0.021361327,0.1442445,-0.2183656,-0.053737573,-0.02205616,-0.0864365,0.04889586,-0.06318867,-0.071760304,-0.18601629,-0.03580476,-0.07216773,-0.040105205,-0.055581097,-0.18575194,0.019373776,0.08422739,0.2943377,-0.1472835,-0.010268506,0.022481607,0.10813714,-0.20312709,-0.027261617,-0.11190226,0.0061700675,0.05010226,0.066269696,0.06841616,-0.024230985,0.05543133,-0.05137715,0.04483387,-0.07664927,0.11115645,-0.22195372,-0.013367239,0.011220131,-0.07187471,0.0038030504,-0.20231594,0.020458926,0.06832577,-0.06733796,-0.035262104,0.12350085,-0.0013140058,0.115863584,-0.09436452,-0.018428156,0.08884955,-0.029189594,-0.07453645,-0.06773707,-0.061520122,-0.052288543,0.1926502,0.17293857,-0.010914247,-0.16841741,0.05317701,0.18047264,0.08067023,-0.08049858,-0.04232618,-0.07301611,-0.07825542,-0.097995095,0.01671329,0.10721987,0.03488553,-0.049579635,-0.07018616,-0.03738589,-0.105950035,-0.13252929,-0.059365686,-0.060421612,0.018754227,0.12517911,0.1387823,0.10715064,0.07999821,-0.13347833,-0.12501325,-0.0151543915,-0.008516313,0.020840377,0.083878964,-0.07564414,0.069130905,0.1690561,0.00037320968,-0.0045194845,0.1086703,-0.06572566,0.018977216,-0.16440944,0.061215624,-0.09501848,0.067404196,0.054332674,-0.059298426,-0.14878994,0.10702906,-0.07411118,-0.002804166,-0.08282438,0.049197022,-0.012797623,0.025436357,-0.051602878,0.09085103,0.13986321,-0.12566571,-0.20754151,0.12199687,-0.17627315,0.017033694,-0.07473098,0.013581873,-0.1821628,0.11849195,-0.017578306,0.22022647,-0.091421954,-0.056084365,-0.13747633,-0.0053643486,0.00083948416,0.1311738,-0.012310838,0.1275799,-0.04836616,-0.03787123,0.20801783,0.060201894,-0.11266252,0.08208892,0.059614643,-0.075088985,-0.023559842,-0.009387716,-0.09803718,0.01591871,-0.086076304,0.124708466,0.011920189,0.008247394,-0.045498125,0.037010655,0.1182303,-0.036472626,0.05457146,0.20338845,-0.12126315,-0.107732885,0.07620053,-0.011669029,-9.162235e-06,0.031373978,0.06901749,0.1011638,0.022166857,-0.036536865,0.044063322,0.043004356,0.015140848,-0.11983166,-0.13958463,-0.19642946,-0.0039029394,0.14091541,-0.17086013,-0.07262167,0.015502043,-0.0785869,-0.08288717,0.15254888,-0.056448296,-0.07494093,0.09446927,0.17208093,-0.089415245,-0.00087231665,0.12826766,0.06378179,0.08065607,-0.04070122,-0.06913541,-0.0047636935,-0.027360976,0.037184164,-0.09040692,-0.2103116,-0.081740856,-0.08018824,-0.11060052,0.019451624,-0.055373486,-0.017521465,-0.11217169,-0.057450492,-0.03763428,0.1336909,0.0416169,-0.052274376,-0.03940941,-0.0028973133,0.029209668,-0.14302567,0.1302748,0.030002575,0.13874145,0.00073596014,-0.08957141,0.027677028,0.13726567,-0.16915368,-0.027932111,0.10039005,-0.038755298,0.12685287,-0.10780403,-0.068475984,0.23227085,-0.1296126,-0.115941055,0.054614652,-0.117731124,0.00520799,-0.124190584,0.1199446,-0.024248123,-0.067557596,0.059455108}, {0.122023545,0.06061414,0.13863748,0.028774839,-0.020117369,0.105428696,0.011224039,-0.022968732,-0.032448184,-0.08655762,0.11640846,-0.108226396,-0.012397151,-0.09736515,-0.12839337,0.10821502,0.09058221,0.09912785,-0.0039953464,0.14776334,0.19210596,0.019201059,-0.025287535,-0.051325932,0.13818562,0.15533316,0.00072454114,-0.027722823,-0.18630908,0.10441805,0.01756035,-0.057795327,0.15063366,0.0858751,-0.014206609,0.1383813,0.059399858,-0.021019837,0.19994542,0.094300166,-0.06977395,-0.04334765,-0.13509259,-0.012813691,-0.012988294,0.26384273,0.08841345,-0.20566042,0.29987574,-0.058664434,-0.009940937,0.041554842,-0.016732477,0.13607113,-0.12053998,0.07258102,0.024367671,0.22496206,-0.0059561417,-0.13200611,0.057360776,0.057272404,-0.027904872,0.115412176,0.17476621,0.09785105,0.12778074,0.078438126,-0.07211241,0.09352258,-0.07104331,0.07066302,0.112259045,-0.122487046,0.26631433,-0.042435925,0.3242415,0.15448959,0.019840023,-0.1601137,0.09632581,0.010916294,0.12293633,0.29089895,-0.04918719,0.06842481,-0.16823137,0.15455808,0.045828816,0.016293779,0.21043053,0.13942587,0.071711235,0.10563291,-0.085792124,0.21683635,0.1275467,0.118313,0.08688835,-0.23383425,0.12694468,0.16244508,0.08632581,0.14715254,-0.09950937,0.22191036,0.3998061,0.053321153,-0.017073624,0.09832197,-0.0025326451,0.1120471,0.27506873,0.037405062,-0.066195734,-0.047913108,0.043253608,0.13674128,0.057568837,0.21666263,0.1423945,-0.060280263,-0.17503415,-0.040278945,0.037365664,-0.086417705,-0.051496897,-0.14392199,0.11565606,0.049962338,0.08459791,0.11912293,-0.06359387,0.24409556,-0.067788795,-0.015146939,0.0023437454,0.13467103,0.12871455,0.052595854,0.025856337,0.006230898,0.101376176,0.14354038,0.06474349,0.034238547,0.15316132,0.01326564,-0.1244089,0.025983619,0.12291074,-0.19829467,0.19726288,0.11493875,0.055025328,0.07853441,-0.0015769292,0.06255244,-0.08616121,0.14836898,0.06050536,0.13977301,-0.07097602,0.068616495,0.21236339,0.16516152,-0.015543193,-0.2055816,0.121264406,0.040605698,-0.0065607848,0.18713872,0.17591101,0.029421601,0.08142508,0.031547587,0.04640203,0.10300164,-0.07344307,0.23380598,-0.017230518,0.0055186804,-0.06753709,0.035681404,0.10141613,0.10924673,0.22149812,0.1307365,0.068118125,0.09082946,0.12147894,0.10592525,0.18320675,0.05324492,-0.1553654,0.05715715,0.040982008,0.052091323,0.04119987,0.15803905,0.20380838,0.15502007,0.10635304,-0.0023763736,-0.14269155,0.08128684,-0.038091086,0.08533537,-0.056051616,0.09165377,0.13001586,-0.15018252,-0.013112324,-0.18060283,0.30164963,0.04934644,0.019716902,0.052465044,0.14397985,0.06875348,-2.2727181e-06,0.08599367,0.073267564,-0.10598092,0.14821054,0.19725001,0.04400489,-0.11530106,-0.0009790834,0.07200876,-0.10419468,0.29992625,0.08425825,0.14612548,0.07277975,0.02276586,-0.09722675,0.22968443,0.17668061,0.08535531,0.10525594,0.22694038,0.1431783,0.05784817,0.21286802,-0.023434043,0.09233282,-0.08728743,0.18784326,0.14240576,-0.00079028524,0.17619404,0.13850519,-0.042556837,-0.24069399,-0.08534436}, {0.025502568,-0.033424556,0.07784627,-0.30040056,0.014840286,-0.2687257,0.18350074,-0.11227312,0.06183376,0.15958117,-0.0033362794,-0.046587043,-0.1273424,-0.2714548,0.23845865,-0.04413886,0.079143144,-0.1434506,0.012135941,0.024993476,0.010619695,0.1501109,-0.03765712,-0.14726284,0.118622676,0.028006375,-0.005254329,-0.08609327,-0.15772052,-0.0751553,0.098821566,-0.050960563,-0.15855613,0.3095546,0.21212278,0.0388803,-0.1527651,0.29380122,-0.12295543,-0.09451327,-0.03629935,-0.095460065,0.10166485,0.15170811,-0.015769996,-0.10667541,0.0024599577,-0.091403745,0.006986972,0.06339587,-0.0008922372,-0.023798425,-0.024714403,0.24112,-0.011867202,0.15029101,0.021960745,-0.046808444,0.05963952,0.10819186,-0.1680332,0.114965245,0.15233384,0.3136352,0.052280165,0.0688796,-0.03487965,-0.16866063,0.04083213,0.20778304,0.10926065,0.08262727,-0.07364509,0.035446133,-0.09924772,0.042205345,-0.08723335,0.20314284,-0.14726736,-0.05820241,0.09409958,0.013102823,-0.25750107,-0.1357757,0.099634945,0.025956687,-0.00016682246,0.122400954,-0.16619311,-0.15852346,-0.0975807,-0.12541154,-0.10700559,0.07884048,-0.2605457,-0.007873996,0.0632031,0.17421953,0.000644555,0.03936868,-0.09396535,-0.19995084,-0.28116468,-0.16685094,-0.24117026,0.06938362,0.14449464,-0.09379067,0.14255115,0.18817213,-0.07187926,-0.004121325,0.16042134,0.033995867,-0.07741802,0.068772085,-0.14879908,0.119696066,-0.06078007,-0.119338386,-0.11770876,-0.1791311,0.1689953,0.20237055,0.050377525,-0.1792019,0.07393076,-0.0030366231,-0.017248759,0.1416343,0.15260032,0.17602015,0.14412025,-0.27448902,-0.1759195,-0.25920194,0.07096891,0.24124202,-0.01681422,-0.08879111,-0.05391854,-0.033602763,0.113018006,-0.008848677,-0.06011589,-0.08976498,0.02810174,-0.012258087,-0.002289498,-0.16900374,0.04442919,-0.05222812,-0.079583324,0.12264632,-0.00015971082,0.032087833,-0.03754285,-0.011534861,0.25448847,-0.17237437,-0.06193902,0.02498393,-0.29953715,-0.18570574,0.12927793,0.022263974,-0.010549478,-0.22424808,-0.15869954,-0.15824394,-0.06400686,-0.114695504,-0.033819318,0.21515234,0.15019456,0.07374513,0.110757925,-0.027421145,-0.15801698,-0.08397875,-0.26769367,-0.015898637,0.32406718,-0.1379584,-0.0034734947,-0.10422086,0.05888854,-0.17960459,-0.052196335,0.2162069,-0.09636802,-0.085342914,0.10157828,0.083248734,-0.046497468,-0.058495983,0.030934995,0.052963123,-0.0712526,0.1999292,0.14055932,0.13084838,-0.050876673,0.044593982,-0.0016361845,0.045790292,0.24712256,0.0036606728,0.05010898,0.18708856,-0.0030582156,0.170234,0.05336806,-0.053493213,0.022994466,-0.045476906,-0.034058314,-0.046111923,0.3139201,0.24860807,-0.02326968,-0.12262719,-0.12849148,-0.023591744,-0.08204449,0.031505257,0.05887049,-0.21836044,0.12973386,-0.022974508,-0.110131346,0.06803393,-0.08960592,-0.150601,0.05196148,0.067053474,0.047847908,0.093105614,0.0072284252,0.2988139,-0.021419363,-0.00076175074,0.13089558,0.0017492007,0.17091236,0.026663128,-0.034144767,0.08401652,-0.0757198,-0.096709035,0.06043108,-0.20224547,0.08023904,0.04604849,0.06428346,-0.094488434}, {0.0919774,-0.1254633,0.01484111,-0.08814461,0.08625213,-0.17773254,-0.099200614,0.15696359,-0.021926217,-0.009985205,-0.051523466,-0.088919856,-0.10842191,-0.08453225,0.055903345,-0.21758738,0.078154,0.081909895,0.0073405285,-0.06778573,0.119778275,0.17255335,0.06321526,0.006359722,-0.04197657,0.29720342,0.038618036,-0.124382444,-0.03262113,-0.1480027,0.11796564,0.09462564,-0.029768497,-0.004258775,0.11361111,-0.20666073,0.047165282,0.0304049,0.032873314,-0.28268027,-0.06165068,-0.010071728,-0.100827105,0.1466611,-0.12106277,-0.14590709,0.21221621,0.16236688,0.11819134,-0.19910003,-0.056412596,-0.10986323,-0.006749397,-0.26046026,0.009437826,-0.15730835,-0.16824792,-0.030930648,-0.09871318,0.1064366,-0.08981215,0.12838995,0.1540377,-0.049713567,-0.10955961,-0.028150568,-0.23218101,0.09475376,0.015531508,-0.12962975,-0.030788388,-0.13537186,0.082679115,0.06652873,0.13189396,-0.21230465,0.05683297,-0.05005652,0.05774182,0.08459824,-0.121476434,-0.044347018,-0.0066383053,0.04196819,0.027061211,-0.058825735,-0.07842591,-0.16094811,-0.07370435,0.22383362,-0.04835868,0.13275442,-0.07202194,0.13734572,-0.055607453,-0.026631676,-0.10712062,-0.18945421,0.1362137,0.06631778,0.047337316,0.1257934,-0.031836104,-0.11393903,-0.031561654,-0.06306519,-0.116626,-0.039895315,0.058522236,-0.108069606,-0.051554747,0.20676282,0.14920452,-0.07613194,-0.039074168,-0.024607375,0.014088938,-0.03651727,-0.05800998,0.14269097,0.19064629,0.052603338,-0.0021829442,-0.00986536,-0.10434129,-0.032645736,-0.09109838,0.10288399,0.11617663,-0.010488069,-0.019380147,-0.12050419,-0.016622564,-0.03191555,-0.10708253,-0.054897293,0.15087965,0.06817806,-0.09676107,0.19814943,-0.15388757,-0.13045532,0.094152406,-0.28247023,0.01940159,-0.026996963,0.08526641,-0.016194442,-0.019788371,-0.06460511,-0.05333934,-0.008520605,0.027766123,-0.09906866,-0.013993516,0.13994305,0.022112189,-0.059999593,0.19751696,-0.19692159,0.073274784,-0.06684733,0.061840925,-0.10614157,-0.008089938,0.11507724,0.056255084,0.041663766,-0.10069435,0.03498236,-0.05953688,0.10454273,-0.14999051,-0.09474621,0.10271082,-0.048672214,-0.0046690954,-0.17829683,-0.022104913,-0.023318507,-0.08744997,0.04462727,-0.03497961,0.28923917,0.18251939,-0.14458472,-0.13475308,-0.20192203,-0.17865251,0.10270192,0.022654543,-0.07175681,0.013372213,-0.08821488,0.005434974,0.06826157,0.0010370787,0.013857637,-0.2945722,-0.0016547298,-0.09759689,0.2636375,-0.07220382,-0.002450044,0.009751579,-0.043566447,-0.06071308,0.02544289,-0.010199838,-0.09599048,-0.30074313,0.1253169,0.012244681,-0.018632213,0.23647991,-0.105773136,0.0036161176,-0.12470808,-0.016728649,0.066373944,-0.119514644,-0.21429884,0.22883579,0.0070811794,-0.025136042,-0.030820211,0.12333101,0.05121056,0.07616126,-0.16042492,-0.0760269,0.019236581,-0.06556975,0.03070875,-0.051807083,-0.035437938,0.27573815,-0.13204724,0.03428755,-0.0888852,-0.04088792,0.115050524,0.10830634,-0.14761408,-0.07526908,-0.13790268,-0.1683206,0.059421808,-0.03991452,0.019602833,-0.037532896,0.17031136,0.28575343,0.05626311,0.020354873,-0.11367402}, {-0.04193233,-0.033573586,0.027223606,-0.0072406586,0.16136853,-0.08190389,0.034697346,0.16794328,0.032075185,0.067219414,-0.053390708,0.123449944,0.07870928,0.053640626,0.062884934,-0.0049377442,-0.23164918,0.029582862,0.16964798,0.0066862083,0.08943256,0.0017665664,0.15238942,0.026966596,-0.2553398,0.13989761,0.0027071286,-0.07246502,0.18369605,-0.024603568,-0.057189062,-0.13778314,-0.18967298,-0.08458236,0.010852546,0.002475244,0.106239535,0.009588398,-0.116190694,-0.06752227,-0.058044095,0.012700919,0.04627254,-0.038444508,0.016556863,-0.1664053,-0.04319497,0.06733021,0.11101755,0.18105473,0.022789462,-0.09679853,-0.09967001,0.03273129,0.18923503,-0.11535821,0.039810047,0.18040851,0.030025203,0.14066471,0.041408557,0.022915222,0.002058356,-0.04827182,-0.053462405,0.05035998,-0.14158678,0.15797813,0.011992873,-0.11292723,-0.07557833,-0.15614341,-0.06208221,0.068733506,0.09854431,0.01245417,0.15054996,-0.09213511,0.009399048,0.17362441,-0.07291239,-0.15355495,-0.019757668,0.085149415,0.08696284,-0.083187245,0.041618843,0.123326525,-0.043615256,-0.019825995,0.18814449,0.08909929,0.0067897364,0.03970534,0.121311456,-0.29212332,0.07626419,0.012748042,-0.08000811,-0.16858111,0.05186446,0.077679895,0.15739676,-0.059061784,0.08582525,-0.0042182533,-0.03319012,0.19750926,0.0036306796,0.08153248,-0.10535434,-0.062244356,0.1314983,0.05271148,-0.02469638,0.09627401,-0.055374663,0.066870175,-0.034884617,0.098083414,-0.0027275106,-0.12274996,0.06785812,-0.0070141936,-0.15982057,0.12691757,0.038406707,0.110711165,0.0049220095,0.23005049,-0.049544595,-0.08465284,-0.1663326,-0.13311669,0.13157183,-0.0066941082,0.05053418,-0.06652526,0.08982463,0.08569696,0.0023716264,-0.0036911918,-0.116510786,-0.00496347,0.056541663,0.13777018,0.16922945,-0.02221929,-0.05200987,0.073298685,-0.1518171,0.05569438,0.012737031,0.04009529,-0.095694475,0.036602195,0.008899343,-0.15853561,-0.08256336,-0.07851453,-0.20081908,0.037392475,0.058556017,0.15340716,-0.13318327,0.1742673,0.07650411,-0.08932549,0.03655664,0.046430793,0.021846356,-0.09273118,0.047231212,0.15073921,-0.024465479,0.11026344,0.0253445,0.06072459,0.20605426,0.007643842,-0.045938455,0.06801132,0.029108362,-0.017930213,-0.035345502,-0.048172113,-0.06758028,0.06298805,0.038533982,-0.02668333,0.051622275,-0.13858746,-0.07411367,0.06405239,-0.042456537,0.006800476,0.02246267,-0.12125466,-0.04299756,0.022678155,-0.036632307,-0.10402115,-0.10033488,-0.062075306,-0.036437675,-0.05279167,0.16604063,-0.041733205,0.058336336,-0.014146378,-0.087096095,0.036087643,0.08550739,-0.07359906,0.26511756,-0.0020320993,-0.118212126,-0.022136696,0.12447419,-0.03435637,-0.103753254,0.010163775,0.1122725,-0.043225173,0.1632005,0.026872903,0.20843965,-0.10546334,0.056972425,-0.009792956,0.18989663,-0.13595973,-0.044836126,-0.04560938,0.08098471,-0.08475256,0.23885283,0.021787746,-0.09089014,0.17155555,0.038370512,-0.18292543,0.17540394,0.17996858,-0.1212173,-0.15725647,-0.01784848,-0.33591586,0.15737465,-0.20082855,0.003066822,0.010658445,-0.113992855,0.007311603,0.018171776,0.056120466}, {-0.0073051564,0.016725643,-0.20955195,0.03552365,-0.06994634,-0.14774211,-0.10631111,0.05911505,-0.21739972,-0.04459329,0.098972246,0.057056967,0.0049992152,-0.12515172,0.041079573,0.16639301,-0.02275301,-0.17771246,-0.052426584,-0.1112523,0.028252702,-0.20906115,-0.029609462,-0.10133317,-0.12876025,-0.007917903,-0.19166858,-0.013280743,0.06045773,0.033740144,0.023555031,-0.10287134,-0.0130159985,0.25373575,-0.103207245,0.029432517,-0.0915636,-0.2065973,-0.045368776,0.062436324,0.084524885,-0.068633065,-0.029712474,-0.07024776,0.13273159,0.02972316,-0.12734349,-0.10957979,-0.24924164,0.10755932,0.06774318,0.069092706,-0.10998679,-0.06496525,-0.16867256,-0.06767937,0.100931704,-0.18528485,8.792101e-05,-0.23592159,-0.10803493,-0.13857107,0.07357386,-0.13267587,0.4052092,-0.1294206,0.008216596,0.00058794924,-0.04476555,0.12929995,-0.074646465,0.057835627,0.06653483,-0.14356963,0.0011135704,-0.037861373,-0.034239545,-0.027441137,0.0014952703,0.063498795,0.08176401,0.078336895,-0.06450118,-0.25597465,-0.06876325,0.037003674,-0.11474097,0.14474684,0.10215506,-0.16141741,0.029720183,-0.1688479,-0.037689086,-0.12481737,-0.15370898,0.16620713,0.10435082,-0.0065269466,-0.046470165,0.16152953,-0.1498802,0.03549976,-0.03265085,0.12776567,-0.011931336,-0.13608944,0.14519566,-0.13269107,-0.03046508,0.1674164,-0.08702803,-0.02344397,-0.259793,-0.07284809,-0.24449044,-0.11326082,0.0031797735,0.11241597,-0.100684926,-0.16847743,-0.092800744,-0.05606165,0.0072457995,0.08949508,-0.049203124,-0.05943007,-0.0045373864,0.01357017,-0.10178503,0.002838219,-0.13661915,0.13719304,0.0750283,0.041255053,0.07577085,-0.18974638,-0.012438081,0.14169806,-0.14601225,-0.14133851,-0.10819092,0.20661433,-0.027467275,-0.02874392,-0.11248454,-0.083565585,0.071251675,-0.09353184,-0.10352848,0.064154215,-0.04748351,-0.20842041,-0.033712424,0.010865372,0.032873336,0.008603063,-0.26162654,0.13534173,-0.013923729,0.058712058,-0.079219006,0.14451563,-0.2991032,0.1847542,0.10642845,-0.0710903,-0.0058096885,-0.09762963,-0.042908635,-0.084629625,-0.034534115,-0.10992749,-0.00021551589,-0.060722455,0.073287144,-0.04615528,-0.059010398,-0.12867482,-0.027457252,-0.12531607,0.06110189,-0.09085525,-0.26571995,-0.1351421,0.02561129,-0.15491045,0.033175226,0.021180259,0.04521709,-0.030803535,0.13091704,0.067641996,-0.06720387,0.073271036,-0.049142692,-0.119022265,-0.015579369,0.030878168,-0.108249314,-0.064802974,-0.13249856,-0.28011644,-0.043180436,0.1565961,0.04883054,-0.10800328,-0.0058331783,0.018434588,0.17146933,0.050911427,0.100667566,-0.10174312,-0.2241887,0.0051466147,-0.060111105,0.11920337,-0.12597406,0.13373211,-0.015950665,-0.13542625,-0.0732668,-0.02596743,-0.050137453,0.06809704,-0.20114033,0.015916765,-0.1312721,-0.11689877,0.040711544,0.041629452,-0.05295378,-0.08447699,-0.055248726,-0.0893685,0.007806125,-0.011641987,-0.13898365,0.15567581,-0.071188286,0.15972126,-0.1128034,0.028522613,-0.09608103,-0.088389486,0.09674045,-0.08695831,0.06857395,0.37740085,-0.22136995,0.09410261,-0.14831376,-0.13053022,-0.031377397,-0.020880623,0.006362067,-0.3072372}, {0.029472372,-0.22073515,-0.042299535,0.17865363,-0.118097074,-0.08741884,0.15372837,0.08186257,0.00794439,-0.08732179,0.065921046,0.092942156,0.15437217,0.059141077,-0.023634603,0.13553832,-0.017649459,-0.059488405,-0.10061685,-0.009231809,-0.093269445,-0.14242181,0.037556224,0.11179664,-0.08811949,-0.051742442,0.010267889,0.08797781,-0.2163304,0.19872475,0.037099946,0.174114,0.1019465,0.033933915,0.09075826,-0.048497457,0.2189973,0.0478015,-0.01450641,0.014986573,0.22038297,-0.051929507,0.11731527,0.017870702,0.0880888,0.15403333,0.15685827,-0.14107744,-0.04874839,-0.11810068,-0.013633619,-0.004712051,0.07283935,-0.019626342,0.05472801,0.0659546,-0.013803421,0.09580025,-0.02337344,-0.1684041,-0.10113337,-0.08653417,0.0086804945,-0.21557043,0.2764517,-0.06070442,0.21091604,0.13769266,-0.10576125,0.068093374,0.17470771,0.04924893,0.008124058,-0.16514876,-0.02941604,-0.04002178,-0.15938245,0.036686767,0.061176397,-0.07975293,0.015306887,0.10594492,0.058139175,-0.021482876,0.08086318,-0.062289868,0.011940393,-0.17050605,-0.07066648,0.016729694,0.0934571,-0.06429099,-0.008387013,-0.23920454,-0.037996672,0.20019607,-0.07253027,0.0508682,-0.13706194,0.09655284,-0.00612989,-0.134543,-0.043417957,0.040914673,0.05334331,0.048621558,-0.20010184,-0.047857367,-0.05602308,-0.10628276,0.07997414,-0.13702758,-0.10755398,0.10393678,-0.13901725,0.0012674384,0.15910193,-0.14642283,0.15593413,-0.096871756,-0.16512148,-0.06289484,-0.15494744,-0.2929233,-0.16833074,0.056797355,0.009235727,0.09649841,0.019591352,-0.01653855,0.25558463,-0.10363976,0.0915869,0.12859388,0.13825096,0.23403113,0.12035811,0.029916096,-0.17753506,0.05057776,0.13564995,0.21934395,-0.079994775,-0.17242424,0.13326879,-0.041021235,0.07002646,0.04824052,-0.11489997,0.050528195,0.121505626,0.07482592,0.079075806,-0.019099459,0.07848108,0.060350128,-0.0035212822,-0.07012691,-0.04450767,0.023025014,0.08323264,-0.038797222,-0.0045179673,-0.18254533,0.14403264,-0.008994599,0.24967209,0.08515291,0.022633323,-0.028669912,-0.14195874,0.070417024,0.095249064,-0.1403554,-0.16593802,-0.075580165,-0.12657315,0.025278222,-0.027624477,-0.008108211,0.035088193,-0.19255397,0.23437032,-0.03343139,-0.07051469,0.06826571,-0.05245799,0.046274047,-0.15650491,0.055857066,-0.0073287725,0.061317418,0.022366997,0.23073772,0.10868775,0.023286127,0.10824938,0.077385835,0.02893243,0.09478666,-0.0044003814,0.22741467,0.07830632,-0.13049008,0.03621907,-0.22600225,-0.13999984,-0.014101358,0.07215602,0.030286044,0.057478976,-0.123942025,-0.056148924,-0.061030127,-0.24972545,-0.14386977,-0.14138779,0.13229902,-0.119598545,0.113413036,0.066054806,0.20257002,0.089590065,-0.07876614,-0.11402575,0.01067278,-0.16411757,0.1525003,0.066551894,0.15154968,-0.043618962,-0.07259238,0.12845479,-0.10609735,-0.089668676,0.03924262,-0.13129872,-0.18728028,0.0444538,-0.042697318,-0.04810688,-0.0120470915,-0.115757376,0.19520928,0.00053194346,0.0041052797,-0.037261575,0.2250504,0.058577813,0.23156974,0.043946397,0.17334397,0.17559573,-0.16070664,-0.1578882,0.02376752}, {0.03216137,0.0375273,0.064819425,-0.111678936,-0.052472536,0.037896942,-0.28596458,0.16450529,0.103309646,-0.12006472,0.20712902,-0.020295927,-0.17763644,-0.05715245,-0.23670547,-0.095333256,0.11447061,0.059517268,-0.0078069363,0.016519437,0.1293765,-0.1648927,-0.008807231,0.078134894,-0.1081815,0.031675845,0.019247433,0.10268181,0.034624975,-0.16874456,-0.09421283,-0.08096434,0.20779675,-0.14700474,-0.12724507,0.16204049,0.059015896,-0.18516353,0.07909208,0.0096943695,-0.082314655,0.0720281,-0.08075218,-0.054455176,0.11817884,0.2525607,-0.04042622,0.0075172298,-0.12259548,-0.08910393,-0.08545446,0.20360312,0.07846048,-0.12204848,-0.07082756,-0.090005904,0.013586409,-0.012411284,0.077573396,-0.17227222,-0.06426227,-0.13079813,-0.050553285,0.15962753,-0.09925595,0.018425213,-0.21712835,0.116124734,-0.1076527,-0.10665494,-0.027126133,0.0085922675,0.16263002,-0.08152698,0.15862654,-0.045079242,0.13027507,-0.03438994,-0.088577524,-0.0024600676,-0.12900439,-0.2305274,-0.0335448,0.09658842,0.0992753,0.18451177,0.10923757,0.023366075,0.16939412,-0.112123996,-0.04319138,0.17523344,-0.13761798,0.11882489,-0.19610474,-0.18254426,0.086781524,0.10058847,-0.15008028,-0.0959975,0.056131937,-0.11038079,0.012448872,-0.06799672,0.032181676,-0.020415856,-0.014029056,0.015602628,-0.105786055,0.05237755,-0.10538418,-0.07597587,0.028525861,0.12236864,-0.11662866,0.12239107,0.27713907,-0.026212955,-0.08581659,-0.1592427,-0.08276115,-0.26077253,-0.09355783,0.061805822,0.15043399,-0.09686394,-0.048600785,0.054422222,-0.120720394,-0.22510411,0.031864386,-0.05911089,-0.047411073,-0.095547125,-0.011132211,-0.092668965,-0.004961816,-0.067439705,-0.15082885,-0.082354486,0.10895236,-0.12337762,-0.08386011,-0.0007155547,0.10447553,0.08781647,0.11823256,-0.0028199335,-0.11621054,0.029746724,-0.22476205,-0.057480987,-0.009636612,0.00076155714,-0.09224975,-0.015981812,0.004982884,0.059408087,-0.19249314,-0.25205338,0.021338152,0.14539367,0.021951098,-0.17238507,-0.20754221,-0.10563027,0.072315365,-0.051604323,0.0788595,-0.13610566,0.08600755,0.10187481,0.059016366,-0.018533774,-0.09970434,-0.15686586,0.1069239,-0.21298152,0.09458517,-0.082980946,0.08653901,0.09667246,-0.22825643,0.17702952,-0.010695025,0.040863458,-0.11894379,-0.02416058,0.015678726,-0.026966566,0.056139722,-0.20776585,0.08258241,-0.009119837,-0.0910858,-0.040151373,0.00096850574,0.043924984,-0.047383044,-0.085687466,0.0068150163,-0.31646615,0.15519871,0.06122238,0.058173705,-0.08433305,0.102723554,-0.008045639,-0.24289668,-0.10130889,0.1237232,0.13602126,-0.071480595,-0.21252227,0.072765306,0.073542945,0.09222202,-0.07773697,-0.068453245,-0.093977235,-0.17901589,0.01089053,0.13670595,-0.21156935,0.05645455,-0.07528353,-0.010089208,-0.20030145,0.030891428,-0.19970052,0.11110518,-0.20679955,0.08273343,0.17339802,0.08811706,-0.1254743,0.07978563,0.10099419,-0.05573888,0.05768951,-0.087392434,-0.25637984,0.03258392,0.055313006,0.12325372,-0.11285204,-0.05108959,-0.29726088,0.107366845,-0.027179997,0.070302464,0.04388761,-0.084312215,-0.011508991,0.002996309,0.04545411}, {0.064274274,-0.05046252,0.12419252,0.0058228234,0.13804507,-0.01586598,-0.104675986,0.16138925,-0.08454498,0.008281096,0.18721029,-0.110633805,0.14462389,-0.08849412,-0.22731552,-0.06774366,0.05912487,0.027730307,0.18032981,0.13542165,0.18178345,-0.11301887,-0.08772936,0.1638119,0.16855301,0.15267268,-0.18890859,-0.10225561,-0.13446973,0.098635495,-0.010144791,0.093013026,0.036386482,-0.14404605,-0.052222796,0.10214315,0.108929105,-0.21624504,0.21084198,-0.05662663,0.06477147,0.33294505,0.0788029,-0.09236948,0.07011087,0.05424067,0.09023338,-0.10647289,0.03575532,-0.11466908,0.22432478,0.11268863,-0.07249306,-0.040403333,0.10209588,0.13301457,-0.22018623,0.13687657,0.17780559,0.0069969865,-0.08374002,-0.17825763,-0.07026846,0.003826342,0.070094295,0.06744888,0.027457189,0.12813625,0.091716185,-0.07059507,-0.0021649934,0.017513214,0.2923988,-0.09990728,0.1474081,0.10965973,0.088014424,0.06260142,0.24862707,0.18077019,-0.17629702,-0.10381796,0.0053790133,0.22318673,-0.06758358,0.12604329,0.057188135,-0.096104614,-0.12879217,0.15551244,0.0490235,0.13398428,-0.050560847,0.17070365,0.021085849,0.20469916,0.010892468,0.14921406,-0.11652645,-0.14925109,-0.013709393,0.10932939,0.08189549,0.1364589,0.18714923,0.09727846,-0.010904941,0.2798752,0.10116404,0.07348372,-0.008811378,0.019880416,0.103078544,0.10714892,-0.06632032,-0.040944114,0.22818233,0.2610669,-0.2361799,0.1490145,-0.071185686,-0.119184345,0.020316375,0.20232803,0.09412732,0.09800833,-0.12723604,-0.13371478,-0.12042392,-0.08712988,0.04922,-0.11120034,-0.017408807,-0.13943256,-0.13121177,-0.06377736,-0.039483555,-0.1970811,0.098320596,-0.0017285275,-0.021297101,0.044861667,-0.05275056,0.18984933,0.097405694,-0.03617962,0.19928637,0.04421835,0.01834583,0.11755871,0.033626348,0.039299253,-0.0016015508,0.05964567,0.100230664,-0.02395105,-0.011870606,0.15584739,-0.29093057,0.002303746,0.20047902,0.20057403,0.063534394,0.041383523,0.0225605,-0.09073368,0.0059782024,0.1973849,0.15391153,0.11063053,0.056361366,0.12027302,0.16281016,0.11210875,-0.090989776,0.026098058,0.03274293,-0.19943301,0.25115204,0.022985851,0.26220512,-0.030317074,-0.15950923,0.15474616,0.22831197,0.18343227,0.024567742,-0.0128449835,0.0887037,0.043076262,0.10956987,0.06707479,-0.1000651,-0.0054183905,0.11921635,-0.12293704,0.02446319,0.024139926,-0.0031958257,0.00095703657,-0.07341492,-0.1241198,0.056193486,0.10456146,-0.13185236,-0.037054878,0.117335714,0.06257366,-0.17088053,0.06110623,0.0768983,0.22037502,0.083181314,-0.14639105,0.29239473,-0.036416724,0.18179412,0.06374221,0.05984872,-0.06766727,0.1018928,0.104346484,0.227667,-0.0028086882,-0.045482226,0.09182124,-0.07968314,-0.012328011,0.1508987,-0.029068766,0.17504112,-0.08160642,0.2144081,0.21620668,0.06465098,-0.10385597,0.10588923,0.096389435,0.0954548,0.046990417,-0.10984955,0.16612048,0.09799929,0.08734028,0.18455853,-0.028346948,-0.06995503,-0.169811,0.026883636,-0.16115065,0.05887152,0.09919503,0.08812855,0.16371505,0.033822346,-0.11919969}, {0.20134756,-0.0807706,0.013140371,-0.16975954,-0.15410715,-0.33684918,-0.03291667,-0.19384216,0.108182065,-0.036284994,-0.14329836,0.05965101,-0.12736513,-0.11403846,0.2120448,-0.100914955,0.2391761,-0.1840972,-0.17089257,-0.09853555,-0.0604392,0.07868813,0.013347118,-0.11100591,-0.0017231808,-0.14532581,-0.008245993,0.061940767,0.0032047813,-0.25244266,0.32453698,-0.04139286,-0.06064004,0.16814291,0.23056412,-0.11263598,-0.17957884,-0.01176836,-0.019153785,-0.1144776,-0.00399817,-0.096969865,-0.103377074,0.10332185,-0.14275245,-0.13707837,-0.09087695,0.02424897,-0.043450825,-0.2716932,0.025885703,-0.08500501,0.07294522,0.11135265,0.0054706526,-0.029163387,0.23019573,-0.042255763,0.05430701,-0.07355202,-0.04977176,0.04932092,-0.0117524015,0.1805207,-5.3438183e-05,0.0010518471,0.01845985,-0.0020786778,0.091488734,0.031021679,-0.033108205,-0.05362102,-0.18596816,0.015995536,-0.17452087,-0.013467542,-0.30256346,-0.13721354,-0.12498413,-0.16339345,0.25710356,0.07531873,-0.09577578,-0.23536646,-0.046624407,-0.036857814,0.04435123,0.06665198,-0.07520354,-0.16485952,-0.09794816,-0.15468052,0.16432647,0.08197794,-0.09160783,-0.07679424,-0.08111282,-0.027112894,0.06560341,0.03180925,-0.109203584,0.09042031,-0.10426352,-0.19198246,-0.1490565,-0.15758957,-0.020922871,-0.20192017,-0.018464185,-0.06654546,-0.16411951,0.07306997,0.0018526834,0.12259107,-0.0032546953,-0.025541801,-0.09073137,-0.25759658,-0.041323435,-0.122479506,-0.19722612,0.048541967,0.108264,0.08156844,-0.22036572,-0.38662532,0.17509745,0.028346201,-0.01673907,0.073643096,0.08416578,0.16947575,-0.043329537,-0.4577327,-0.16813266,-0.07642742,0.006347827,0.2598413,-0.0016623741,0.02601237,-0.15894344,-0.018046383,-0.052005906,-0.057400253,-0.0028337261,0.01983422,-0.09961523,0.06890421,-0.16540974,-0.034088414,0.021263076,0.12997113,-0.20009778,-0.011569834,-0.07486597,0.020777235,-0.18671794,-0.098718874,0.32089284,-0.1842209,-0.23027039,-0.09418535,0.0043933108,0.05103082,-0.008679567,-0.1329588,0.07502842,-0.21155414,-0.32530957,0.054908305,0.08005178,-0.17890075,-0.23987469,-0.28502852,0.06513547,-0.079561055,0.020571021,-0.1527255,-0.17016257,0.056287587,-0.401473,-0.053282734,0.20182638,-0.12522003,0.25187048,-0.20719728,-0.20955925,-0.15002672,0.12289009,0.18501492,-0.016097771,-0.25526038,-0.07306412,0.105092496,-0.07622492,0.08642139,0.13468201,0.112076215,-0.055383574,0.053755093,-0.013889544,0.16358647,-0.1072391,-0.18352653,0.062413886,0.08779795,0.029129744,-0.05250011,0.12566364,0.2012898,-0.055860024,0.06075968,-0.028335148,-0.023621734,0.037914086,-0.067143746,-0.11101132,0.087710276,0.026958684,0.21863347,-0.030429587,-0.027559778,-0.10857489,-0.0003719162,-0.14164488,-0.1440691,0.024006668,-0.11634344,0.059098583,