#pragma once
#define W_LSTM_KERNEL_O {{-0.06896263,0.1621676,0.060570586,0.042181414,-0.063911244,0.09386794,0.026457852,0.07174424,0.008663044,0.17995082,0.056463525,0.00031427853,0.16147658,0.04782498,0.093730204,0.024947071,-0.09781453,-0.04851738,-0.1092756,-0.0069432794,0.21930732,0.06938356,0.02899921,0.045406424,0.0914038,0.07181639,0.018711671,-0.0054764585,-0.0116762,0.13433358,0.073398106,0.08790135,0.017732803,0.019350527,0.019043045,0.08109685,0.06781694,-0.006111682,0.03826596,0.0063365647,0.020964073,0.018733898,0.11881247,-0.019466858,0.1345896,0.11264678,0.09638861,0.11742358,0.050108943,-0.071929,0.0028025848,-0.04455459,0.10516639,0.029632293,0.010208766,-0.01942103,0.00455983,0.16701463,0.14884456,0.06469897,0.049238715,0.02015733,0.066838935,0.051146127,0.105844654,0.005620251,0.16864896,0.012048746,0.08151407,0.023495518,0.07904192,0.07187231,0.19536193,0.034404784,-0.029474199,0.080415376,0.113521844,0.05797607,0.1007993,-0.06243116,-0.017844202,0.13254529,0.026224185,-0.10871411,0.0752263,0.1350023,-0.019466784,-0.010640091,0.041034006,0.12751228,0.12526073,0.11292863,-0.10218578,0.06500609,0.08871159,0.12888342,-0.039485507,0.13234986,-0.08191543,0.01635968,0.022691183,-0.061550774,0.04741054,-0.03186713,0.046825387,0.023772934,0.096218124,0.062635966,0.034424327,0.05402222,0.09322702,-0.017011795,0.10951338,-0.01946815,0.03966143,0.16796272,0.12575045,-0.027096383,0.10093402,0.03578976,0.0020933102,0.072737515,0.052270852,0.01135169,0.09282877,0.015878888,0.12640144,0.0876728,0.025862258,0.062366527,0.03031609,0.1340748,0.10377564,-0.033887856,0.14984049,-0.0102473,0.030750152,0.008304921,0.07444837,0.0147327185,0.13128734,0.09356298,-0.122279115,-0.0036207694,-0.041284654,0.007036479,0.12498687,0.06082618,0.02910867,0.18841675,0.08665785,0.008572823,0.14078774,0.01922429,0.051828165,0.20834123,0.0801831,0.056922916,0.12060438,0.051045693,-0.043876052,0.09519222,0.10949929,0.019233212,0.117660955,0.07238525,-0.024944022,0.041180078,0.14637715,-0.030120984,0.08908661,0.043336395,0.10291379,0.04763986,-0.04238654,0.071141936,0.060471673,0.15101926,0.036506634,0.14063248,0.054319516,0.08811818,-0.030436363,0.10317154,-0.16155571,0.0819227,-0.0027682283,0.12044845,0.105517015,-0.028399142,0.062963255,0.026077263,0.046579022,0.04901541,0.06697792,0.07531123,-0.1921537,0.049056802,0.03537727,-0.11105977,0.10774351,-0.030189905,-0.004540572,0.038258404,0.05064975,0.029829219,-0.17112906,-0.0015773457,0.06431389,0.06242524,0.108886644,0.020071853,-0.022265155,0.14803346,0.15693802,-0.011964102,0.032061387,0.1950113,0.14877355,0.12959546,-0.037757114,0.07132643,-0.04266062,0.10359872,0.13207911,0.10493922,0.20043074,-0.014660622,-0.02730206,0.09373153,-0.08476807,-0.009106079,0.058050115,0.09466164,0.22642742,0.045216598,0.040959965,0.12860014,0.09258446,-0.10251051,0.10380365,0.12621124,-0.05737785,-0.049539525,0.037937794,0.034313582,0.02302089,0.16042346,-0.07882633,0.072156936,0.09758899,0.07791585,0.03445617,0.03496525,0.0937251,0.042313155}, {0.02646814,0.15801811,0.06663471,0.033006724,-0.07502141,0.08283179,-0.028329672,0.06725447,0.07629936,0.16965042,0.037715584,0.066080384,0.077320084,0.12749682,0.076904275,0.016314086,-0.040625803,-0.052309558,-0.057129808,-0.013007944,0.11271997,0.05097256,0.07184762,0.012578543,0.16419558,0.011596093,-0.04288677,-0.0049017756,-0.041006796,0.030987639,-0.006877864,-0.006394355,-0.0077905245,0.0644525,0.0561356,0.051966023,0.14993083,0.12383099,0.062983856,0.10884986,0.001081309,0.052400075,0.12278941,-0.14762773,0.091230735,0.04497969,0.039607525,0.07716479,0.05680198,0.047411084,0.036676187,-0.035549976,0.017833326,0.058443367,0.08665689,0.08269971,0.043993372,0.17881961,0.17057346,0.064100616,0.15886974,0.08330151,0.11409317,0.124887034,0.111413814,-0.07316494,0.13604324,0.082670175,0.100162596,0.03300277,0.029176759,0.01856388,0.10818668,-0.040703576,0.011437719,-0.011731025,0.027400259,0.06239818,0.027840937,-0.10568171,0.011834092,0.039362956,0.12657918,-0.12225737,0.17737283,0.009039303,0.0265128,-0.124614604,0.1306472,0.12960784,0.054897126,0.096061274,-0.08072672,0.036192823,0.060287744,0.17095084,0.009362817,0.09822003,-0.051462423,0.10956221,0.06200475,-0.05551284,-0.02345482,0.039346766,0.07540979,0.110009626,-0.036487974,0.007426063,0.06357854,0.10437387,0.14975986,0.09772534,0.052086692,0.09037002,0.087903306,0.14689651,0.060366064,0.08513012,0.047892727,0.0720906,0.1178381,0.0026801205,0.04173283,0.006317614,0.03866898,0.007399144,0.035023794,0.042930853,0.09883514,0.056124046,0.06314455,0.14806905,0.06490966,0.0030024026,0.08008409,0.010061219,0.06517768,0.03313678,0.0036540017,0.113973014,0.055545922,0.06598018,-0.036971264,0.06057837,0.0035843295,0.049855683,0.11202443,0.109735996,0.076511756,0.086873546,0.10755505,0.12673321,0.06520612,0.13965838,-0.022178028,0.15503274,0.01610396,-0.016978608,0.068304025,0.10746989,0.0068126717,0.10324906,0.11618963,0.007778257,0.09675159,0.079005264,0.032139033,0.11337904,0.028229188,0.0058191624,0.03923552,-0.0218451,0.057677433,0.04155063,0.012174758,0.08504173,0.012201003,0.06400217,-0.010439261,0.064604774,0.14905885,0.067968346,0.013968489,0.1040461,-0.18776764,0.1381234,0.010038455,0.13305312,0.113672934,-0.12121495,0.010531298,0.05091432,0.18636364,-0.023284154,0.124193914,0.054872915,-0.11293504,0.07145707,0.052998077,-0.044142604,0.035596978,0.016572887,0.06610413,0.103930704,0.06834798,0.14403518,-0.23448561,0.10876884,-0.03287865,0.076309636,0.044527683,-0.04264884,-0.017588012,0.023739472,0.14478227,-0.080678195,-0.07168569,0.14634027,0.12412842,0.056480154,0.0010855212,0.16533186,0.012891134,0.09773291,0.16520941,0.026347049,0.22864419,-0.040923417,-0.0319367,0.08407035,-0.07226763,0.10238926,0.059947755,0.10923737,0.119511,0.06414857,0.09720553,0.07034397,0.041027274,-0.076431006,0.077197194,0.10386678,-0.13347045,-0.0849491,0.116723955,0.11898702,0.076847665,0.056779336,-0.0787449,-0.018290395,0.1192338,0.10477481,-0.03367776,0.07946594,0.08975956,0.079986535}, {-0.06574403,0.099114776,0.043808177,0.15673287,-0.047975432,0.15260291,-0.048656072,0.084967434,0.0036796685,0.12250152,0.013796192,0.12033687,0.16123675,0.07510129,0.035159517,0.023213375,-0.05117226,-0.03385213,-0.13192634,0.09931642,0.20871513,0.05111127,0.12764043,-0.0098754205,0.12326393,-0.01596563,-0.018598774,-0.06585722,-0.08914908,0.05239598,0.06794806,0.047426954,-0.0009602379,0.027033174,0.08410551,0.07638411,0.15091257,0.08749047,0.033301648,0.012782105,0.15091757,0.02903852,0.04628579,-0.1316662,-0.006928835,0.05506809,0.045090035,0.07625375,0.053673234,0.056469064,0.06985842,0.004826293,0.034583837,0.07669198,0.026193997,-0.01780198,-0.05386688,0.07000098,0.1224846,0.062660106,0.15435387,0.048048083,0.020476637,0.12664981,0.16255772,-0.003372456,0.08528658,0.07492326,0.11180252,0.021142052,-0.03366206,-0.010272088,0.09337922,0.028436301,0.02823229,0.058026753,0.12392654,0.11815752,0.048689336,-0.061447185,0.0057707904,0.036428962,0.15655077,-0.10037776,0.15356392,0.137165,0.034925703,-0.13464087,0.027659241,0.14154632,0.051719237,0.12950867,-0.040081955,0.019434351,0.124845915,0.10483464,-0.0076166373,0.1656197,-0.0934208,0.031360872,0.033776082,-0.03343089,0.07764217,-0.036610328,0.11800767,-0.0021940395,0.006638678,0.07061594,0.03714391,0.09149924,0.057039864,0.054781474,0.08530544,-0.0033819464,0.07285071,0.1072702,0.06873868,0.0065715523,0.016929733,0.05557699,0.038781803,0.009700717,0.138437,-0.07510839,0.04560319,-0.006930528,0.040316958,0.05058226,0.06455318,-0.040751822,0.026238957,0.1348374,0.09699228,-0.04570533,0.1198542,0.06682826,0.08879029,0.0058788285,0.041781344,0.026226474,0.13939242,0.09472925,-0.06567228,0.008215561,-0.04892022,0.07100881,0.08729194,0.0255875,0.11002358,0.13196217,0.058061156,0.010863292,0.15817618,0.049106315,-0.034119435,0.08918076,0.044335004,0.07450836,0.1451372,0.06579518,-0.11678991,-0.002092995,0.1621361,0.039097186,0.10659992,0.029596778,0.09472743,0.08808601,0.13726619,0.04148811,0.037711326,0.109390974,0.09082164,0.14271559,-0.0007434677,0.13020834,0.08042046,0.15287055,0.08065286,0.09964425,0.1092463,0.07500845,0.0898712,0.1219966,-0.09712968,0.1191456,-0.02312667,0.1374012,0.07364685,0.031906065,0.049889036,0.0018786632,0.1615774,-0.04181754,0.060344204,0.048651233,-0.08284148,-0.023894811,0.04270976,-0.079620734,0.1274667,0.055013277,0.028858205,0.12402784,0.17429538,0.023193091,-0.19140801,-0.016296806,0.0568213,-0.026787002,0.05144278,0.063342646,-0.010432461,0.10426864,0.054929007,0.050654862,0.01499075,0.09603536,0.13527575,0.062008716,-0.06001343,0.09243181,-0.0049449746,0.07164046,0.19414102,0.052352186,0.21284026,-0.06765527,-0.0061622206,0.099738866,-0.15835364,-0.013082777,-0.04259203,0.035288155,0.16881374,0.17593287,0.13142104,0.033040866,0.1386766,-0.110270835,0.04444169,0.11733114,-0.19345671,-0.047565214,0.025127575,0.109175324,0.008055988,0.07036979,0.024003386,-0.019402696,-0.012185191,0.14388557,0.05841492,0.10473574,0.10948171,0.07399928}, {-0.022305582,0.087638594,0.06331401,0.16574417,-0.091204464,0.036447313,0.029507905,0.015198368,0.055821195,0.09198519,0.053099588,0.079107545,0.112631544,0.11455424,0.046336554,0.08300329,0.011766261,-0.0758658,-0.043430336,0.0083855195,0.12526457,0.1069245,0.009418795,0.037076768,0.09107222,-0.022518696,-0.02658189,0.0020252946,-0.0075389384,0.08372721,0.047172848,0.08291087,0.041222982,0.086462826,0.037384104,-0.06301513,0.1910835,-0.02181651,0.09608089,0.013986759,0.08708033,0.11989054,0.08366828,-0.12258897,-0.010246646,0.13074297,0.06958251,-0.012715024,0.0051209726,0.013021069,-0.009785589,-0.017853975,0.04516448,0.12145369,-0.06364428,0.13980679,0.071168914,0.10558262,0.058063246,-0.04860729,0.061084237,0.04988351,0.116913885,0.14650002,0.15693168,-0.047058616,0.16273732,0.032775737,-0.02146724,-0.03215384,0.08195624,0.031481896,0.1672377,0.0064012525,-0.02213385,0.09635753,0.101607315,0.14914851,0.13792081,-0.08804031,-0.031059222,0.11782235,0.034903392,-0.023091665,0.17247315,0.03423693,-0.08168671,-0.092474006,-0.0020301049,0.018491173,0.0625913,0.16289245,-0.13053477,0.11283559,0.054872874,0.17164032,0.003683857,0.1416762,-0.061951898,0.07652969,0.016773479,0.08261396,0.028048022,-0.05033268,0.09172213,0.046561252,0.1111164,-0.041847665,0.025698956,0.1289331,0.05790271,0.14275493,0.03606751,0.116798,0.0416217,0.10818883,0.13548389,0.006601838,-0.013639455,0.042430956,0.013054472,0.037299976,0.14162369,-0.123610236,0.122430764,0.0011996749,0.1291436,0.1030088,0.0992766,-0.0022312365,0.103957936,0.12474628,0.11763423,-0.0409338,-0.0023842673,0.065758035,0.0144125195,0.0767249,0.037309617,0.08944906,0.09104581,0.073124066,-0.12244209,-0.07620421,-0.019749038,0.010810493,0.060679577,0.026431631,0.105851494,0.10998221,0.07556378,0.053159807,0.13202637,0.058730062,0.0074406033,0.07849968,0.10328813,0.07923539,0.022326611,0.024844622,-0.012949805,0.07103134,0.1499901,0.06148423,0.0883889,0.10219626,0.09178205,0.032122385,0.094732486,0.05695331,0.08465839,-0.0037614305,0.010629664,0.08659032,-0.030679869,0.17171408,0.07654904,0.13717318,-0.018753795,0.12277599,0.033750497,-0.029731167,-0.031724118,0.01483631,-0.21048036,0.12690659,0.012880013,0.109250136,0.08906792,0.008301658,-0.021676118,0.02710326,0.06685818,0.04136685,0.08030759,0.037627563,-0.11295323,0.028870538,-0.01917134,-0.05372035,0.13084255,0.0258713,0.10259936,0.034149725,0.1731763,0.068900846,-0.26955703,0.09946619,0.050576672,0.021741338,0.0009717505,0.02387146,-0.02935563,0.16563411,0.075267136,0.054227933,0.0022646112,0.10835887,0.08018023,0.15673329,-0.017566558,0.17365243,0.059177127,0.013754504,0.13256958,0.10374326,0.12344244,-0.121914,-0.0920248,0.085284956,-0.106317714,0.08394614,0.02928327,0.099515654,0.20730922,0.13604456,0.03202729,0.0924304,0.13908803,0.030520702,0.06902784,-0.025851421,-0.20691377,-0.080199085,0.123881474,0.07158312,-0.013512184,0.03886352,-0.049652245,-0.03407585,-0.028273853,0.10670773,-0.029073766,0.0604712,0.13283046,0.07040852}, {-0.07061666,0.069792114,0.040192813,0.15757775,-0.1649111,0.11718556,0.049060225,0.101939894,0.10106321,0.12427064,-0.019125568,0.09621183,0.05133885,0.15180682,0.0003506466,0.16119704,0.059673373,-0.0001832599,-0.14219202,0.1266137,0.11468951,0.11473834,0.15426718,0.11517936,0.13489904,-0.018049307,0.015159296,0.043239173,-0.002349391,0.106437154,0.16103926,-0.023902543,-0.08369837,0.0077754506,-0.0034186225,0.016517816,0.027473645,-0.045382667,0.03551378,0.017444858,0.16238996,0.055450786,0.0687613,0.0077305515,0.0073338095,0.04936077,0.087832175,0.004025504,-0.04987525,-0.0017247667,0.005647838,-0.028951675,-0.019218711,0.13944954,0.033404637,0.023333207,-0.036016434,0.03488622,0.14015064,-0.06815403,0.11744012,0.070182785,0.16920269,0.14187388,0.04050191,-0.077934556,0.10512324,0.02366326,0.0031701303,-0.0070477356,-0.04606357,0.03351405,0.21648611,0.047297962,0.07655685,0.08003341,-0.0050712456,0.17413408,0.058807626,-0.04308163,0.0003557572,0.16210003,0.0943598,-0.023090668,0.04899759,0.063585535,0.028734053,-0.17137459,0.098055765,0.12830344,0.09924155,0.13485612,-0.14289477,0.03977983,0.095665455,0.06621644,0.0880759,0.18761222,-0.032578114,0.14429602,0.092465,-0.037285183,-0.007845812,0.056983646,0.15122068,0.033843968,-0.002714462,0.037338976,-0.012024307,0.17784725,0.07686934,0.015073163,0.054702837,0.17511606,0.16337708,0.09052852,0.055862825,0.14057313,0.10265037,0.022353964,0.053998068,0.06781801,0.15290917,-0.016772367,0.09750252,0.060387313,0.075755775,0.090736754,0.15163122,0.13291103,0.038207524,0.20473067,0.22174701,-0.031994987,0.08675139,0.06061578,-0.0044238702,0.052507844,0.11447954,0.09105682,0.15859942,0.049302816,-0.13305889,-0.10004404,-0.023205478,-0.006808686,-0.009288387,-0.029802756,0.08336952,0.20385692,0.07933923,0.17406093,0.027539479,0.115046084,0.101179406,0.17348507,0.007927725,0.042810347,0.11799436,0.01251763,-0.100137115,0.08597684,0.12314333,0.06271607,0.036336828,-0.02474877,0.05984251,-0.00302069,0.049943987,0.037948262,-0.022777861,-0.0070276307,0.09105859,0.11902709,0.037470557,0.101466,0.059024498,0.07124,0.094513625,0.03127404,0.014736664,-0.014657575,-0.043678068,0.1051103,-0.11217287,0.09537486,-0.06742552,-0.018387899,0.06206508,7.811699e-05,0.0065096454,0.10137159,0.077972755,-0.08203947,0.11262819,0.12970106,-0.1795498,0.084311,0.015048727,-0.061451085,-0.009716599,0.053722877,-0.0123277595,0.17742619,0.03388392,0.02069014,-0.23478067,0.07659206,-0.013782108,-0.008327615,-0.0077010025,0.061031852,-0.010902589,0.08131562,0.10624697,0.060379367,0.009037901,0.10233676,0.12793976,0.070416704,-0.046729542,0.092412785,-0.06227864,0.1482524,0.11007551,0.04095686,0.26802152,-0.042638905,-0.0047178837,0.05606288,-0.15666002,0.11531722,-0.017320149,0.09078029,0.19036445,0.06734649,0.043402817,0.16015476,0.027245743,-0.07409313,0.11420999,0.025191728,-0.17103794,-0.1714319,0.0538344,-0.0054439683,0.029003873,0.05510883,-0.19377112,0.034501377,0.047331106,0.08935358,-0.048727196,0.10803833,0.072340555,0.0456895}, {-0.0166322,0.16762829,0.011610119,0.17769322,-0.21599917,0.006118122,-0.10647242,0.043664966,0.117589,0.21498173,-0.003888324,0.08696015,0.012940081,0.15675095,0.0023423778,0.15994121,0.09303604,-0.023820769,-0.064914085,0.12268562,0.10796712,0.16745615,0.18452634,0.08160925,0.042871,0.017107544,0.14459088,-0.017133592,0.016032802,0.15398796,0.09218123,0.07031113,-0.1334142,-0.06349263,0.010954614,0.052312374,0.018222958,0.03965711,0.01560705,0.02581677,0.17624475,-0.046405878,-0.012916909,-0.011353286,-0.004606648,0.07374347,-0.023888772,-0.006431321,0.08127944,-0.09704765,0.036157705,0.027476247,0.037159067,0.08269107,-0.11476577,0.100482576,-0.012868841,-0.16298084,0.09507185,0.03537558,0.13462962,0.05232381,0.14242856,0.06565936,0.11572345,-0.10563716,0.22227055,0.061437406,-0.09338999,-0.07491145,0.07112491,0.10157022,0.18715124,0.02340754,-0.07339666,0.033965494,-0.05101327,0.1492153,0.04189091,-0.17979607,-0.04204321,0.17027251,0.02776896,-0.007019797,0.16215856,0.048015017,-0.00930888,-0.09785041,0.05125744,0.05483802,0.1589934,0.11787119,-0.06123201,0.037799977,0.12406201,0.13738453,-0.022508083,0.083719544,-0.008943604,0.063406944,0.064538784,-0.03851846,-0.010251884,0.03291337,0.06346734,-0.037418015,-0.019854868,0.03932047,0.01631492,0.17193682,0.08792906,0.16078867,0.015387575,0.07075428,0.0793124,0.17170015,0.05254758,0.018972326,0.11815609,0.19079195,-0.031200368,0.04662372,0.25875446,0.050011907,-0.000861472,0.07507939,0.09657751,0.08425518,0.0078410255,0.15737925,0.07982195,0.02662375,0.20323238,-0.11523168,-0.01652313,0.06978338,0.07160309,-0.016115963,0.125878,0.07644076,0.23399523,0.049209952,-0.10115966,-0.06905382,0.10370563,0.07735968,0.017182117,-0.002411829,0.07356698,0.10499507,0.08918014,0.10984536,0.096313566,-0.019341234,0.01584734,0.1498938,-0.00074993493,-0.08055372,0.05675415,-1.1472715e-05,0.029080326,0.016001595,-0.004070738,0.056970887,-0.036130086,-0.014916639,0.14344113,-0.00090455456,0.05785084,-0.054126274,0.02810197,0.085334815,0.009587314,0.034100056,0.08857196,0.21075512,0.025698878,0.08296921,-0.01619996,0.06430623,0.046904434,0.05226546,-0.03682058,0.021177396,-0.13626467,0.061455395,0.07455202,-0.015098513,0.027066864,-0.016722465,0.019021071,0.14573881,0.01411426,-0.068323255,0.02639659,0.120814525,-0.09236995,0.09620729,-0.04740195,0.059527628,0.07426738,-0.07364414,0.029248461,0.12833278,0.04676076,0.08965572,-0.15034619,0.07646753,0.047339156,-0.059793614,0.014030677,-0.025966292,0.030928433,0.13542737,0.08896677,0.07162619,0.03833269,0.07877703,0.19324972,-0.043293666,0.018722821,0.031189503,-0.01651822,0.029537609,0.1664833,-0.015360653,0.19761738,-0.041282117,0.04370989,0.16634248,-0.07702743,-0.06043446,0.044121906,0.018426199,0.1253553,0.12559593,0.12167982,0.11280796,-0.012587867,-0.08004846,0.16647999,-0.015542684,-0.1809819,-0.108107395,0.12856968,-0.03373286,-0.021183923,0.08024196,-0.22239281,0.007578132,0.035665326,0.17881294,-0.008630533,0.044216167,0.01507915,0.051036436}, {0.03619973,0.08467243,0.055722903,0.086279966,-0.14127123,0.036556363,-0.033634964,0.16344158,0.0759681,0.12026729,-0.01367161,-0.047402583,-0.0055741165,0.056753613,-0.0017287071,-0.01521845,0.14246428,0.036141593,-0.1489398,0.090234675,-0.008361547,0.015020073,0.0854925,0.09394726,0.032114245,0.073259175,0.11088888,-0.04709816,0.12348055,0.1082004,-0.007422223,0.089313455,-0.07676796,0.025386304,0.08935181,0.047559615,0.0021919953,-0.03745029,0.08055452,0.12789097,0.0808576,-0.028890578,-0.08387205,0.005506221,-0.03352586,-0.000225037,0.010276826,0.026517725,0.14525484,0.03962184,-0.009567296,0.0091646435,0.201437,0.066439904,-0.0713444,-0.0028296346,-0.11118697,-0.14420497,0.11271836,-0.022399208,0.039877012,0.115797006,0.101383366,-0.03854895,0.12414295,-0.09993087,0.13536792,-0.013715931,-0.0022378503,-0.0145264305,0.054090276,0.06666672,0.13632774,0.09918814,-0.010462696,0.09988414,-0.14441277,0.2140502,-0.06335633,-0.14551023,-0.047921184,0.03744256,0.11090359,0.11488712,0.10954808,-0.066887386,-0.05420691,-0.12752515,0.003231432,0.05104853,0.113857344,0.12379025,-0.14672032,0.08568115,0.115051605,0.12967704,0.1313887,0.040213883,0.052158,0.11876168,0.12338982,-0.00186274,0.04608956,-0.034263663,-0.037096076,-0.08199755,-0.033649113,0.17013228,0.03798942,0.10475816,0.06829236,0.10357923,-0.002328059,0.13645351,0.022724465,0.16702318,0.13703679,0.040394407,0.0961736,0.117992416,0.018082524,0.04429351,0.2489662,0.05937241,0.07516546,0.047520224,0.072488725,0.0780879,0.13597487,0.06378133,0.013194007,0.10236901,0.061734773,-0.10263298,-0.028698737,-0.03582802,0.036788188,-0.026771743,0.120093174,0.10518706,0.32922277,0.065500975,-0.1103686,-0.07535349,-0.013864275,0.062948346,0.10458029,0.14859998,0.04857016,0.05709949,0.019814067,0.028986894,0.044836912,0.0122616235,0.038992837,0.18499008,-0.08684611,-0.0771186,0.039666668,0.119337276,0.058194797,0.08313014,-0.013191405,-0.04624259,0.08862636,0.11712742,0.094628684,0.10654102,0.024505772,-0.015058857,0.011225429,0.0030820877,-0.036900304,-8.7266766e-05,0.06703069,0.18234661,0.056606937,0.064852394,-0.05483252,0.14785208,0.10379533,0.037205957,-0.04907136,0.11495668,-0.14855115,-0.00856447,0.008782572,-0.030767664,-0.006416756,0.025029354,0.048622184,0.089267336,0.018896101,-0.07618035,0.117403865,0.034417566,-0.040398028,0.05843382,-0.036665767,0.097675934,-0.011070152,-0.060911257,0.10516288,0.119561605,0.0032495002,0.088323586,0.017596234,0.071704276,0.105336055,-0.042855293,-0.011478619,0.08424941,0.15062207,0.118625134,0.10285039,0.027867753,-0.101363175,0.025570001,0.21672727,-0.06745263,-0.006385326,0.043682773,0.10228427,-0.021150887,0.09503541,-0.0003829696,0.1768557,-0.06457034,0.043364815,0.044298008,-0.12195403,0.04463651,-0.031666998,0.039265614,0.105866775,0.11502229,0.21270809,0.0042388835,0.12958016,0.04316383,0.09273731,0.031101374,-0.21202251,-0.2073786,0.03728426,-0.06532681,-0.009921941,0.13550863,-0.06580548,0.056088727,-0.109308034,0.0441204,0.043164063,0.025971947,0.053142678,0.0053145504}, {-0.020508917,0.036900546,0.028091053,0.1264448,-0.182692,-0.017177038,-0.1836939,0.09163667,0.13404587,0.1039148,0.00637742,-0.18491368,0.04697831,0.11412753,0.07898253,0.0636816,0.1144543,-0.00014651344,-0.0871151,-0.04154416,0.11154984,-0.006260801,0.14073244,-0.033544432,0.0748495,-0.05137932,-0.0027295516,0.12294757,0.12923221,0.1056028,0.06318092,0.074962206,-0.013075465,0.052435093,0.098617814,-0.09438975,-0.04274485,0.024451667,0.073782675,0.122970104,0.15351716,-0.021410553,-0.008556382,0.18804616,-0.056814764,0.052979324,-0.030405546,-0.056529317,0.06885682,0.035309695,-0.067611136,0.067319185,0.22506423,0.14251415,-0.08586434,0.03425325,0.020691428,-0.1148727,0.15632676,-0.06346725,0.0815794,-0.010257839,0.12118452,-0.013531523,0.106184006,0.010033497,0.07262612,-0.0038755422,0.07063139,0.05030378,0.17051266,0.17107712,0.02388994,-0.03220989,0.05556565,0.03988199,-0.18694028,0.066010155,0.01007394,-0.07199958,-0.06569032,0.0031067,0.044291645,0.17093629,0.072339825,-0.037121005,0.07043443,0.030430451,-0.049309097,0.066758305,-0.01564511,0.06778275,-0.16369805,0.08952018,0.14923643,0.1452119,0.030392502,0.0823217,0.18053536,0.037195697,0.13902631,0.15392087,-0.0022978357,-0.09968655,0.0022506686,0.04238351,-0.025524478,0.25644013,0.0047380803,0.18794696,0.047636453,0.029437646,0.06934623,0.14729427,-0.008829051,0.10829992,0.17205091,0.08075099,0.28167674,0.10644272,-0.10492224,0.052316196,0.27226457,-0.020747155,0.098566234,0.06052655,-0.03374401,0.05864675,0.060546912,0.07424928,0.05111814,0.009899598,0.09505809,-0.20722881,-0.039316334,-0.025495319,0.002626659,0.11758584,0.13114175,0.019051695,0.2869804,-0.03356744,-0.046851367,0.11906017,0.0018671529,0.07599252,0.0988671,0.12602381,0.058338683,-0.09087957,0.087579556,-0.0035977338,0.07083292,0.061870854,-0.020625355,0.044729803,0.026762666,-0.07955335,-0.03300404,0.067472465,0.055883136,0.093651615,-0.043490823,0.010916486,0.053973407,0.10396152,-0.061836418,0.044928636,0.021452567,0.15384978,0.04198482,-0.0347748,0.024087846,0.08872942,0.015270177,0.031923592,0.066563435,-0.058737554,-0.008612337,0.01829777,0.0446024,-0.059750043,-0.05524614,0.13783276,-0.084216855,0.013956544,0.008965889,-0.0084281815,0.07752901,-0.042100795,0.003827625,0.13229193,0.051687527,0.03929766,0.07253202,0.03237152,-0.02253739,0.043611348,-0.12800772,0.17441201,-0.0599165,0.044563506,0.13103957,0.162388,0.081648245,-0.055344053,-0.21153745,0.04435719,0.16592978,0.04130434,0.023563318,0.037587047,0.090432554,0.24436466,-0.057758577,0.039051466,-0.020516114,0.040491328,0.16996078,-0.09943957,-0.016014801,-0.029551843,0.032086994,-0.03046851,0.013365639,-0.039272904,0.15277039,-0.12251988,-0.02547866,0.0028335,-0.0645958,0.065211326,-0.011392797,-0.019005189,0.04981353,0.14391069,0.1905945,0.058481984,0.1487339,-0.015762363,-0.06640536,0.0243063,-0.29033974,-0.14947943,-0.012294587,-0.050950583,0.01981725,-0.023018895,-0.13585575,0.087722756,-0.09040017,0.009117146,0.06673984,0.1442271,0.14522626,-0.032265536}, {0.016791465,-0.08051982,-0.0065105828,0.17170145,-0.1917809,0.0714109,-0.13672923,0.039748516,0.08960731,0.21193378,0.037007622,-0.08787056,0.04622687,0.12170295,0.1098242,-0.0278914,0.11055171,0.10355995,0.039630413,0.020425383,0.0047986675,-0.029731218,0.22100481,-0.049636345,0.09137047,0.029062878,-0.034861006,-0.06785943,0.108989246,-0.035091016,0.07645626,0.063036375,0.05821602,0.07238943,0.22024296,0.0323656,0.0076241754,0.02502254,-0.03396946,0.16381024,0.23604701,0.010335772,0.052256465,0.05192368,-0.038615476,0.03505579,-0.02763752,-0.09284897,0.10325727,-0.1283965,-0.027199095,-0.008689786,0.24652483,0.16280308,0.0004885873,0.044374563,0.039718192,-0.19479428,0.11547044,0.0015559436,-0.12137255,0.111731045,0.0457268,-0.061691213,0.011740054,0.16871631,0.17481858,-0.041506693,0.05900393,0.10635356,0.30503663,0.12252286,0.14667846,-0.011842919,0.14672832,0.049688112,-0.12973057,-0.006747222,0.03458473,-0.15403482,0.0652604,0.05388641,0.16304456,0.06858152,0.06404644,-0.12598328,-0.04397325,0.01695101,-0.0049483464,0.15823328,0.059315138,0.069977865,-0.19438691,-0.09138072,0.19791545,0.06372913,0.11047605,0.12982091,0.23412974,0.05065085,0.02307173,0.12590219,0.030582942,0.0121499915,-0.060289294,0.1224051,-0.08397369,0.35655373,-0.049003262,0.0030634557,0.0946869,0.20682432,0.02215573,0.08836105,-0.07496175,0.03344827,0.14822844,0.06750659,0.2954284,0.116999574,-0.1303247,0.08641027,0.1417347,-0.037969496,0.038318466,-0.036845755,0.061345555,0.09098728,0.23989728,0.08503009,0.048794765,-0.14052568,0.07962897,-0.28187573,0.025561003,-0.14713967,0.16421796,0.05770125,0.07292111,0.12850568,0.22752137,0.06822358,0.015362315,0.10983017,0.09379536,0.086496994,0.08479128,0.0037359167,0.11676007,-0.15021066,0.14436601,0.08939728,0.14560682,0.10736233,0.09212829,0.12561093,-0.067721695,-0.0015504797,-0.087177835,0.0039324192,0.041768536,0.12802188,-0.011538139,-0.0039552515,0.015441774,0.2547944,-0.01187472,0.08691888,-0.07532778,0.30219233,0.028289013,-0.030521372,-0.06784631,0.044946387,0.0507751,-0.09062022,0.070630655,0.015555141,0.03310442,0.108778335,-0.0030416457,0.08052577,0.0065719886,0.0627496,-0.089378245,0.056614332,-0.09325947,-0.055240743,0.0006090371,-0.013473613,0.036892533,0.16403972,-0.10344881,-0.0051140883,0.06494251,-0.0042606094,-0.08079221,-0.018008169,0.00792192,0.0363643,-0.032072168,-0.01094152,0.17854846,0.15993895,0.00631232,0.0016625926,-0.1322701,0.10791388,0.17225847,0.06214447,0.19294018,0.085355714,0.0142299505,0.083132625,0.033692382,0.024367118,-0.049326885,0.033117577,0.056915898,-0.021536468,0.032192152,0.059017435,0.16358484,0.12737526,0.069445275,-0.0939747,0.015485173,-0.12144835,0.0067561283,0.027884662,-0.081829004,-0.012317951,0.015174426,0.12081733,-0.10470691,0.071451746,0.06279057,0.0474729,0.123289205,0.112131305,-0.051094696,0.02060042,-0.08276781,-0.06721407,0.0805045,-0.022606619,0.018265156,0.015827099,-0.09133045,0.086997144,0.023076618,-0.063291974,0.19854003,0.16029647,0.19103986,-0.024596654}, {0.0012705767,-0.06205823,0.04864301,0.14208314,0.022605615,0.0045725717,-0.039548006,0.04688562,-0.0005391355,0.15863521,0.051976133,-0.0020929698,0.15630393,0.09827305,0.26762754,-0.050534494,-0.0018525863,-0.07238982,0.024005765,-0.0137642175,0.12946014,0.062200464,0.1644229,0.116419785,0.16797063,0.052036166,-0.062089197,0.019045599,0.14366856,-0.0145235015,0.09823559,0.050814796,0.23937003,0.14317349,0.114537574,0.068735115,0.13822928,0.05003041,0.029434383,0.10586763,0.22945459,0.023702526,0.26743647,0.07349096,-0.07738768,-0.03392865,-0.031170756,-0.08255465,0.1411673,-0.10944626,-0.040530972,0.054434557,0.17371595,0.14694618,0.16311714,-0.100548506,0.031090718,-0.1820642,0.14747204,0.1501116,-0.11045818,0.109169155,0.117099084,-0.03446168,0.014458891,0.21510766,0.14409369,-0.061288,-0.04210704,0.16379906,0.38019878,0.2705098,0.17140943,0.035212416,0.2881432,0.10976911,-0.08517152,-0.019494196,0.07117729,-0.1522292,0.09324503,0.103114106,0.23951116,-0.012916598,0.062821224,0.07100094,0.08638625,0.18107568,0.013537606,0.1501179,0.027688436,-0.0063839126,-0.20934932,0.03096296,0.10048364,0.16053055,0.04041005,0.1575695,0.16676733,0.12713039,-0.044929028,0.18630636,0.028128117,0.06991157,-0.07534574,0.105749674,0.048674013,0.28843257,-0.1827964,-0.0025507289,0.07786477,0.22795689,-0.041946173,0.043765932,-0.038978763,-0.036252353,0.0046244953,0.12101058,0.34281147,0.19794609,-0.080778144,0.17778711,0.06919931,0.08497385,-0.06400688,0.052186,-0.030114094,-0.011882313,0.23767333,0.13656642,-0.047883544,-0.10875334,0.03629934,-0.25944206,0.04832526,-0.06261924,0.16024393,0.08187087,0.18683526,-0.037180193,0.10571388,0.10807368,0.108814694,0.13886684,0.05440678,0.077414975,0.122649364,0.3045507,0.067544565,-0.20733668,0.17384642,0.19554058,0.073709555,0.12341894,0.068818994,0.083460815,-0.2051472,0.15377171,-0.12194806,-0.003776264,0.07248208,0.15381621,-0.0381817,-0.001647505,0.09115995,0.2784305,-0.026772007,0.07854512,0.014788797,0.3111153,0.022475468,-0.16638681,-0.029099822,0.091326274,-0.03423981,-0.10255413,0.013814016,0.15096582,0.024010658,0.20226732,0.030284444,0.1274808,0.12737346,3.463203e-05,0.005816811,-0.10274144,-0.21846966,-0.05136961,-0.04261356,-0.08059299,0.14171405,0.05936569,-0.016634833,-0.16853093,0.03619919,-0.10217399,0.008912085,-0.14534947,-0.005814959,0.028299253,0.0005984263,0.066837385,0.16630529,0.08780749,-0.06307109,-0.07203072,-0.09179037,0.1575385,0.12300512,0.035643265,0.19507541,0.032045864,0.048071973,0.15924649,-0.008300132,-0.015810102,-0.03685865,-0.08558987,-0.019930568,-0.043221377,0.11699171,0.09917583,0.050395966,0.050432336,0.022172216,-0.23729023,0.14157872,0.028983418,-0.047939613,0.061575066,-0.04135447,0.11930685,-0.06259884,0.122438766,-0.163426,0.11604215,0.06238934,0.050393913,0.086249836,0.1552715,-0.04173421,-0.027383948,0.009990692,0.08576255,0.08478457,0.00256688,0.0320439,-0.0006087391,-0.048298076,0.027860811,0.06137435,-0.033822928,0.025206238,0.19584681,0.20742793,-0.034556143}, {0.03241457,-0.06418253,-0.039249275,0.0850739,0.011553867,0.025737857,0.13210006,-0.007714749,-0.008105094,0.2018697,0.20448937,-0.0013349394,0.30153796,0.16417496,0.25494543,-0.05210372,-0.014315354,-0.08435993,0.09369216,0.059987567,0.15555082,0.16905192,0.15995938,0.27118316,0.2216378,0.3228656,0.018128162,0.10469799,-0.01844095,-0.023896983,0.14775094,0.17559838,0.2979209,0.09188737,0.06358594,0.004013642,0.14823782,0.083891734,0.07274658,0.07415261,0.17933474,0.023695039,0.18178652,-0.03332464,-0.031754658,0.05560863,-0.0391539,-0.041862104,0.14527938,-0.12644216,-0.15735175,-0.034027915,0.21132106,-0.06268967,0.19492723,0.010190898,0.10880697,-0.23132914,0.060074046,0.12150791,-0.1247059,0.0415838,0.15568306,0.08664576,-0.018083682,0.12198489,0.0838634,-0.07423687,0.08430646,0.26902226,0.3228668,0.12282172,0.12989524,-0.10115535,0.24176951,0.14432049,-0.12499159,-0.16036527,-0.029825281,-0.028009878,0.14988428,0.1578723,0.19296825,-0.04690787,-2.3652283e-05,0.055269983,0.102666266,0.18948689,0.009026531,0.004333073,-0.019353552,0.03415907,-0.17687379,-0.033705734,-0.03189625,0.1469744,0.031623665,-0.08048627,0.024243928,-0.007606327,0.07740749,0.11841706,-0.070097126,0.13051072,0.00490812,0.11061498,-0.040684957,0.33180997,-0.15057155,0.016183047,0.14681432,0.17600197,0.036399193,0.09119639,-0.005344257,-0.09531477,-0.031711165,0.17477822,0.2815731,0.26970214,-0.23988983,0.023856632,0.19643188,-0.053649716,-0.15703614,0.06459699,-0.024079997,0.10549479,0.14043564,0.09773418,-0.12333932,-0.121055715,0.014187256,-0.14156134,0.096785165,-0.13201219,0.07986423,0.18955582,0.29763573,0.018262614,-0.04281069,0.06527629,0.26827398,0.04908628,0.077994496,0.059304383,0.19015439,0.33185446,0.14559238,-0.08351547,0.0027098884,0.23308796,0.09811079,0.13975196,0.053593136,0.056246612,-0.17509928,0.059085242,-0.02980327,0.07478792,0.15611988,0.17675984,-0.15209337,0.027648453,0.08197715,0.13810456,0.16174176,0.14977995,0.12844007,0.34608576,0.04852909,-0.17235723,-0.007976722,0.12175881,0.1502358,-0.031714026,0.105099306,0.13962813,-0.057286363,0.1481563,0.0063288677,0.20915954,0.112707764,0.0038731957,-0.022420703,-0.112349465,-0.11930889,0.0506837,0.075090595,-0.018761005,0.15779328,0.0064092265,-0.07848994,-0.094686285,0.07538284,-0.078412496,-0.008524929,-0.029495874,0.07228169,0.13884042,-0.044218406,-0.05320555,0.18846269,0.07783732,-0.1747751,-0.0674563,-0.13463739,0.16436218,0.10400651,-0.035597138,0.1798825,0.105165295,-0.0049859243,0.123124294,0.17920364,0.050032865,0.006861712,-0.10422636,0.006963449,0.0772414,0.12100571,-0.053762548,0.10692993,-0.014979077,-0.03425215,-0.25586456,0.012146063,0.046679527,0.10216751,-0.011243829,0.08602584,0.15309247,-0.06239083,0.09781415,-0.19356346,0.008677937,0.09157761,0.11683832,0.06958906,0.16738304,-0.082173124,0.056455158,-0.01496272,0.23967782,0.06420507,0.010536817,0.048485015,0.08212328,-0.017222686,0.051626164,0.21928822,-0.12166748,-0.026985561,0.19440825,0.26422292,0.06752933}, {0.014872233,0.0026129573,0.048981242,0.12871918,0.06322309,0.10368275,0.27741638,0.053032774,-0.012598149,0.2162434,0.11781242,0.15974614,0.2632107,0.1280354,0.25037214,-0.052845497,-0.078220926,-0.052589066,0.05938378,0.054584302,0.050529342,0.16697949,0.162772,0.21641612,0.114635825,0.32527426,0.016159046,0.104797505,-0.04378754,0.029052036,0.17393239,0.26556844,0.36139238,-0.011446143,-0.0078094676,-0.032202,0.22381644,0.011999395,0.21835695,0.09226757,0.18229476,-0.050551135,0.17653796,-0.100029305,-0.060808267,0.14854039,-0.12259368,-0.013829879,0.04828008,-0.049245115,-0.056786187,-0.001721421,0.32068047,-0.02418731,0.23341057,-0.023052016,0.08176302,0.07496951,0.12934427,0.098035306,0.057010856,0.067173034,0.10761842,0.0924206,0.061382554,0.109570436,0.07630897,-0.11935969,0.23700002,0.21942483,0.21373302,0.1153883,0.09677863,0.035089158,0.19123285,0.08915173,0.09874853,-0.0445882,-0.025727823,-0.115349375,0.113197505,0.023121456,0.26739323,0.10292807,0.056221474,0.05350628,0.018080104,0.16226874,-0.006175475,0.10651118,-0.068786904,0.11040626,-0.14967543,0.036521394,-0.14074402,0.09900255,0.01507249,-0.17527334,0.13526437,-0.02073083,-0.021055777,0.02414026,0.042882696,0.16336581,0.017387535,0.071073346,-0.019924289,0.22778665,0.057581857,0.020127121,0.2302062,0.19581541,0.10429528,0.17245045,0.07824915,-0.067441985,0.036630202,0.081767894,0.26802275,0.25936362,-0.20938492,-0.030167926,0.1448228,0.00967215,0.040490117,0.0572973,-0.12419099,0.32025182,0.07948958,0.11544488,-0.017182892,0.21176805,-0.0002183993,0.11126214,0.044880696,-0.00057293376,0.06625207,0.20226936,0.21108446,0.09760735,-0.1117655,0.03285018,0.26789355,-0.061496485,0.065930076,0.009732972,0.045493197,0.36235777,0.15452112,0.02495433,0.016065937,0.15375182,0.07287751,0.16993204,0.111119136,0.010824164,-0.07589328,0.14549349,-0.08603858,0.037090383,0.07315494,0.11702277,-0.032455843,0.18583988,0.064773455,0.20138656,0.07902316,0.12940478,0.084852844,0.35097435,0.290701,-0.11399194,-0.03479727,0.13930677,0.25589532,0.16333237,0.033221886,0.019293867,0.11631441,0.12602861,-0.038967047,0.16018268,0.19458896,0.038638584,0.041336294,-0.15814285,-0.02493257,-0.113730915,0.20172465,0.05821568,0.085918166,0.072004154,0.08448593,-0.1505285,0.027818268,-0.062740676,-0.13879648,0.10453128,0.2286057,0.11831882,-0.031009315,0.1331186,0.0996952,-0.018613147,-0.08223236,-0.11678364,0.073945776,0.20692481,0.07009476,0.11735148,0.20933998,0.069982864,0.0076448205,-0.030911773,0.046532806,0.10419856,0.121769495,-0.017824316,0.020269739,0.12813044,0.161624,0.12683965,0.06557036,-0.053504497,0.012559177,-0.24000567,-0.1461379,0.00028923727,0.11799039,0.0766246,0.051243033,0.13230501,0.10691854,0.17371164,-0.18483818,0.024614519,-0.07538015,0.04871814,0.1802909,0.12114754,-0.09481912,-0.05235034,-0.066170566,0.2668205,0.18800049,-0.008456014,0.22241415,0.094890445,0.27598968,0.15150286,0.16259664,-0.044434022,-0.06008762,0.07763195,0.3261141,0.04879772}, {-0.0021445472,0.2393666,0.15737383,0.027009858,0.14267951,-0.00963394,0.19019811,0.092258886,-0.024335489,0.17655997,0.032752164,0.12638439,0.12331313,0.048553355,-0.053538263,-0.16222903,-0.258439,-0.0957974,0.12263702,0.059841134,0.05045531,0.07194939,0.04737168,0.10624042,0.07026436,0.25326595,0.049426615,0.06383226,0.07607065,-0.0029588914,0.11355036,0.2112407,0.29272768,-0.013804908,0.10506901,0.12699805,0.1424129,-0.02528463,0.13322647,-0.04251297,0.026649449,0.0160845,0.14718373,-0.10244036,-0.012369439,-0.04275565,0.12889005,0.032983325,-0.015308593,-0.024899738,0.25253057,0.07915287,0.2768712,0.008326008,0.22515546,-0.05937278,0.26296294,0.12958401,0.043941393,0.18223764,0.11481171,0.041688126,0.08254515,0.023751775,0.017776256,0.1733986,0.028094897,0.012571419,0.08759885,0.18966801,0.092955865,0.039377227,0.064507656,0.0878441,0.14797905,0.23171178,0.1837815,0.0221015,-0.07681522,-0.100882545,0.036417745,-0.00987129,0.005252038,-0.030700322,0.09407032,0.095709525,-0.186511,0.17909408,0.014855096,0.10804889,-0.0048927176,0.49342477,-0.053955782,0.11536163,-0.1705917,0.070904166,-0.052194566,-0.109355204,0.25395277,0.04210223,-0.030383853,0.0061695054,0.26738623,0.06058168,-0.0168693,0.057179954,-0.14438814,0.20603506,-0.03425701,-0.048916966,0.19958696,0.21972105,0.08190544,0.040395405,0.0034450204,0.02224313,0.040190298,0.1373867,0.06964434,0.10525495,-0.13821596,-0.04371628,0.065344535,-0.030492457,0.1312955,-0.0291338,0.0025886353,0.24287799,0.021050958,0.06668993,-0.021928633,0.37035513,0.023716722,0.052813273,-0.095953345,0.16420609,-0.008670172,0.039232578,0.22799224,0.03080484,-0.045250665,-0.095131636,0.18588234,-0.13945267,0.044340458,0.12451585,-0.017361531,0.20790286,0.2231107,-0.04611799,0.06451152,0.10019082,0.08563893,-0.021887448,0.03085328,0.004614432,-0.07585911,0.20854354,0.029867046,0.04817628,0.09315617,0.17484593,0.06991605,0.009216612,0.006716738,0.13080716,0.046041623,0.09197099,0.09787851,0.3537958,0.3121794,0.004691724,-0.05683059,0.042591117,0.18414266,0.1797494,0.054999653,-0.13251902,0.11847479,-0.01521237,0.054538656,0.18309909,0.08077061,-0.009499683,0.035306066,-0.028861577,0.01284638,-0.24156691,0.16209498,-0.009875525,0.055635944,0.20432891,0.08958558,-0.26327035,0.03904457,0.039453935,0.022258248,0.28006878,0.09390367,0.13988341,0.015640263,0.099356994,0.18508713,-0.047520824,0.09646866,0.00085708225,-0.017937412,0.24155211,-0.01908375,0.067877054,0.07115947,0.094414175,0.14444989,-0.10234853,0.11810694,0.0694185,0.36087075,0.037852604,-0.069113396,0.011393365,0.068391114,0.20245035,0.13521264,0.10330804,0.047270894,-0.011408974,-0.32808244,0.053131755,0.17017181,0.009844678,0.040609352,0.034484997,0.3368693,0.03567716,-0.050382372,-0.038363907,-0.0046111024,-0.103592776,0.094222695,0.11452641,0.07010052,-0.02837042,-0.23463865,0.25602484,0.20175584,-0.023571396,0.0936162,0.065865435,0.35312647,0.018331748,0.31694454,-0.06278537,-0.04368991,0.16590093,0.1489076,-0.02202119}, {-0.031682946,0.27591822,0.09777455,0.037059754,0.023436595,-0.042501047,0.1488295,0.1927982,0.07754707,0.05817522,0.07280806,-0.04787847,0.18019028,-0.058440227,-0.006885503,-0.09296683,-0.13479151,-0.0396742,0.08384691,0.05256119,0.012523109,0.15714964,-0.06070128,0.11436994,0.051371567,0.11295488,0.046884075,-0.1496872,0.2693256,-0.029667556,-0.0374301,0.168174,0.16996,-0.07012795,0.24935041,0.1750689,0.04937097,-0.11412421,0.18600808,-0.008335167,0.053493246,0.16694741,0.059126943,0.020791996,0.28759772,0.036704894,0.24309896,0.2885148,-0.08601904,0.1535779,0.254,-0.019723479,0.18432024,0.1130392,0.23658091,0.02090485,0.2810055,0.16642472,0.06070495,-0.00019614592,0.34133822,0.027383128,0.037025515,-0.04438876,0.12944208,0.102540486,-0.08048973,0.086659364,-0.045803044,0.08265979,0.21509495,0.022640297,-0.025952213,0.15324117,0.20651983,0.04259143,0.08408097,0.118144184,0.068341,-0.06841883,-0.18455614,-0.08120042,-0.08029734,-0.025461806,0.18487845,0.28987122,-0.1186562,0.059741624,0.0993556,-0.1201978,0.0007841068,0.44717756,-0.10075356,0.01489422,-0.0059887585,0.08845511,-0.114434786,-0.011776876,0.24148533,0.13558002,-0.15578169,0.08955565,0.11565781,-0.01131791,0.020324256,0.16745484,-0.0136735,0.055375308,0.047981773,0.08197758,0.22505082,0.11844394,0.2781883,0.17745276,0.05632956,0.06747889,0.12348903,0.18628816,0.040473577,0.16198672,0.054418135,0.01170898,0.013887385,-0.051376913,0.018382141,0.11009006,-0.07073641,0.27824214,0.034116592,0.25251538,-0.04716738,0.2901794,0.0021960603,0.028567942,-0.14000307,0.20324409,0.14178571,0.11410019,0.06396675,-0.10892352,0.17906423,-0.03377694,0.18093047,-0.10615362,0.22744785,0.117400564,0.14053665,0.17177358,0.15712866,0.23310317,0.0947484,0.03183243,0.231018,-0.17298265,0.1894785,0.06782196,0.08391198,0.14224519,0.041108094,0.081517115,0.010644673,0.16306975,0.059189923,-0.004697384,0.15011218,0.12658402,-0.104517855,0.13250427,-0.025786232,0.18210724,0.24154156,0.1865434,0.013746547,0.24091105,-0.03284491,0.11794963,0.30243272,-0.14857173,0.17021805,0.120043315,0.17054924,0.19161217,0.06281665,0.014786942,0.05258201,-0.0072566643,0.16088504,-0.26036856,0.14905466,-0.11853879,0.102719516,-0.018661693,0.05641201,-0.16005635,-0.04392762,0.17158327,0.23389779,0.37697282,0.11390606,0.12562037,-0.037466403,0.12834659,0.06637025,0.015645755,0.18255147,-0.10346595,-0.1264187,0.20475279,-0.07039127,0.19380517,0.101037234,0.26872674,0.11208374,-0.08935236,0.16638008,0.11048998,0.28658703,0.17773782,-0.04412235,-0.001614476,0.34006685,0.1509603,0.048016805,-0.017441617,0.10394588,-0.004548291,-0.23398878,0.03936615,0.13791147,0.12080082,0.17531204,-0.023494588,0.36137375,0.087998584,0.05378535,0.03329033,0.12638502,-0.124165654,0.20131437,0.18206953,0.07346158,0.16446292,-0.16423737,0.37111956,0.15851787,0.06911382,0.09057898,-0.011167207,0.4029357,0.04688819,0.23096502,-0.02017935,-0.065613195,0.14894915,0.07592724,-0.006494007}, {-0.108960785,0.038713433,0.039056893,-0.12758172,-0.14391777,0.042104498,0.008088424,0.15251961,0.14252964,-0.03935774,0.07840325,-0.010828025,0.11988365,-0.22094141,0.070893005,0.17028436,-0.0129430555,-0.018012013,0.22533765,-0.0151578095,0.14196752,0.2172362,-0.16752781,0.23732659,-0.071703404,0.15499732,0.051838502,-0.16894677,0.35134524,0.027537286,-0.018006671,0.30483413,0.07237904,-0.0633467,0.15073663,0.28084353,-0.014696782,-0.16052186,0.16629145,0.023545371,-0.056424126,0.08535093,-0.06155599,0.0948227,0.24189134,0.039994154,0.2473874,0.31929103,-0.10315327,0.19252132,0.14470167,-0.022511384,0.03395347,0.21603389,0.0731007,0.045920204,0.1953139,0.2552873,0.00053120416,0.032615066,0.13958699,-0.017819652,0.14794162,-0.013177208,0.08640144,0.08539896,-0.024508648,-0.006046331,0.12893216,-0.013602386,0.17613798,0.1380798,0.0098371245,0.24696863,0.18355846,0.047864318,0.088886514,-0.047870282,0.14688697,0.018268002,-0.06717545,-0.078570604,0.023423977,-0.104320936,0.09386044,0.48298925,0.19612412,0.11040091,0.06491537,0.025377518,0.013559292,0.32778937,-0.14494663,-0.018844724,0.075866334,0.00814352,0.044964854,0.24075317,0.19895345,0.16041617,0.0023454498,-0.09265152,-0.010971982,0.024486894,0.040779185,0.2946939,0.10166719,-0.05863571,0.20308559,0.14725399,0.20503281,0.06683843,0.42098296,0.12133506,0.17555241,-0.059759058,0.17827761,0.21724631,0.0091540115,0.052480977,0.20327005,0.00763659,0.016460547,0.00017153264,0.05605875,-0.05509352,-0.07652903,0.1962422,0.14618245,0.25781837,0.021699753,0.28407466,-0.060204677,0.013512493,-0.002322959,0.32395643,0.14761494,0.21146865,0.051352948,-0.14955276,0.13123468,0.013671055,0.18209608,0.07631148,0.17954367,-0.01999729,0.16736007,0.062353987,0.18407132,0.18533085,0.10403118,-0.09220506,0.20746128,-0.083466336,0.34899125,-0.002912089,0.23921463,0.1522048,-0.008538905,0.040027693,0.09905269,-0.0048845094,0.1584388,-0.011784103,0.023689637,0.09223659,-0.13217753,0.07385825,-0.0409364,0.11329916,0.19293481,0.11063737,0.19622272,0.18690844,-0.08794353,-0.025296815,0.25142646,-0.05018965,0.04724071,-0.016895965,0.28274047,0.112764075,0.12810905,-0.025674803,0.15666698,0.13844676,0.17007022,-0.06215603,0.10542168,0.17068946,0.05735498,0.0025635946,0.097069,0.15246932,0.058238097,0.16713792,0.21143258,0.17711365,-0.112826414,0.011848928,-0.05834818,0.03814714,0.03602569,0.09372442,0.0746654,-0.055252977,-0.079183854,0.112010404,-0.19713546,0.23417163,0.05774791,0.12647697,-0.063996285,-0.01365403,0.10031137,0.00785958,0.012258197,0.15790719,0.045047965,0.0052474877,0.2957278,0.04827353,0.03418038,0.0056226845,0.34568322,0.12507188,-0.07232935,0.11560167,0.06892915,-0.064394034,0.21898423,-0.105688564,0.34785688,0.09925551,0.1805761,0.11621683,0.20293409,-0.10160304,0.097405285,0.18362029,0.04068864,0.25996563,-0.15846561,0.18544193,0.2371086,0.09829883,0.010340784,-0.08780984,0.44440192,-0.082859084,0.15681916,-0.11014244,0.029852804,0.092277035,0.047706045,-0.16636069}, {-0.09188885,0.044907484,0.14952682,-0.08031659,0.014550086,0.13720046,0.11009738,0.0144478725,0.15552565,0.099111766,0.1907122,0.04504105,-0.067382775,-0.20549037,0.01962976,0.24403039,0.05265623,0.10451835,0.52557874,0.0004443553,0.058253948,0.2867744,-0.19969255,0.19578212,0.02960893,0.039773043,0.01910397,-0.0476031,0.24036771,-0.078805365,0.051323958,0.14015733,0.1354424,-0.014345257,0.06651954,0.27283117,0.009125003,-0.027458072,0.33319724,0.006246293,-0.06992353,0.17896858,0.084079236,0.18500964,0.2537743,0.16609886,0.16484776,0.25465202,-0.054545864,0.14999454,-0.038425483,0.011554535,0.073256485,0.23910269,0.17939074,0.0706509,-0.11993569,0.3047866,0.120108746,0.13960333,0.048696913,0.020070406,0.05279456,-0.09684285,0.07673162,0.14289962,0.08409783,-0.037217304,0.3090891,0.08320053,0.23626871,0.18579964,-0.08210304,0.27683505,0.10384482,0.036593292,0.2090567,0.00600047,0.07662413,0.14915846,0.05696397,-0.017495317,0.087591775,0.085401,-0.04177285,0.41387126,0.23650804,0.11391175,0.03735553,0.025297312,-0.001085147,-0.21050586,-0.046048302,0.07898867,0.23377806,0.037102554,0.03093508,0.18108256,0.06198424,0.01363601,0.1061641,-0.10732428,-0.09017252,0.13910575,0.18597513,0.30162936,0.24661776,-0.12050032,0.08308103,0.077922255,0.11944261,-0.07453871,0.32875478,0.077612355,0.21049505,0.033675954,0.20244677,0.15782484,0.12137302,-0.001346049,0.15857413,-0.07604883,0.13150926,0.0044821254,0.07200493,0.14577004,0.0050693536,-0.09972624,0.041207954,0.12211237,-0.036483057,0.18870375,0.06765228,0.16586241,0.12548785,0.17178236,0.08438657,0.3320972,0.05443601,0.018345062,-0.022372799,0.008955687,0.20899205,0.22385813,0.010624534,0.2217052,0.23326813,0.044233344,0.26796398,0.1227415,0.20833461,-0.12188317,0.15975794,-0.06904718,0.2526396,-0.056948908,0.22850585,-0.027568623,0.0997008,0.013131734,-0.11301829,-0.013683102,0.07125776,0.020863555,0.10397397,0.09553003,-0.015337847,0.119525164,0.09825395,-0.054192033,0.1903247,0.12035693,0.26284093,0.15945171,0.02412961,-0.03440927,0.20711449,0.09142767,-0.01253714,-0.011920691,0.17853284,-0.036851093,0.25361162,0.06982405,0.06494064,0.14183488,0.13653927,0.20511957,0.097918734,0.3564928,0.04739472,-0.022104934,0.2135442,0.31210244,0.02347907,-0.045996536,0.12733468,0.16619098,0.04740691,0.0246,-0.06310969,-0.075940184,-0.047817405,0.07288768,0.030851426,-0.014901272,-0.12439302,0.15899247,-0.011200108,0.19108954,0.20481192,0.16671316,-0.08466497,-0.05978205,0.16130322,0.0044645225,0.020129617,0.120858215,0.12740606,-0.024501162,0.19350931,0.04967763,0.002314981,-0.058981694,0.22314563,0.13703603,0.1663956,0.08100721,-0.07685187,0.04764406,0.5895562,0.07201773,0.3448702,0.03225956,0.13007742,0.0674942,0.20130248,0.02568061,0.09478188,0.09832166,-0.06690012,0.20448396,-0.2570959,0.033042643,0.37775168,0.08286065,0.008330365,0.019587973,0.21461423,0.014018022,0.092516944,-0.10759406,0.25765827,0.036131427,-0.056276996,-0.14715265}, {-0.036471143,0.12088847,0.11162947,-0.07169839,-0.0068062944,0.16316733,0.17435423,-0.005117443,0.18629941,0.044624954,0.012336105,0.063222446,0.025859209,-0.1829072,-0.059223045,0.2917538,0.01684545,0.15322666,0.3408846,-0.12297735,-0.15100245,0.044477604,-0.06631243,-0.035868492,0.059282366,-0.025640702,-0.030531352,-0.12301926,0.1619288,-0.06873034,-0.04143503,0.15509215,0.020440275,0.16977216,-0.057687033,0.06085251,0.10591291,0.06364633,0.23878115,-0.012058613,-0.08726988,0.15442821,0.14327031,0.046543136,-0.00056106475,-0.007826327,0.17957874,0.12841794,-0.051311605,0.091300845,-0.07348958,-0.024713716,-0.0561173,0.069527924,0.05792364,0.042793583,-0.14893717,0.34849778,0.09077463,-0.06689562,0.026415493,0.0404403,0.099517845,-0.015551515,0.07315473,-0.044896152,0.07404369,-0.052402455,0.3746374,0.09438666,0.09185672,0.19863008,-0.09488048,0.14950444,-0.0645805,0.123726055,0.36828196,-0.037947834,0.20939824,0.042481642,0.08927025,-0.11511696,0.12949005,0.31079403,0.058012128,0.060793873,0.15046696,0.05531915,-0.035189614,-0.04194977,0.012392323,-0.2021032,-0.09716946,0.09272837,0.06332617,-0.037680373,0.17412491,0.02347586,-0.02121864,0.0395071,0.17057167,-0.015731324,-0.033752717,0.23761661,0.15897483,0.095347,0.16597387,-0.10799245,0.027370777,0.13486129,0.08621164,-0.050815247,0.27894658,0.01652718,0.05787738,-0.010403433,0.034136735,0.0585898,0.009952321,0.008713183,0.10486787,-0.12188535,0.076065175,-0.05493209,0.18185379,0.05286423,0.041364975,-0.13552745,0.010901877,-0.10383302,0.048391,0.11523899,0.11205699,0.07165275,-0.029405698,0.1702055,0.020942055,0.3005182,0.08146897,0.03362876,-0.053660784,0.054468304,0.023865083,0.19042276,-0.063067496,0.11843868,0.004374509,0.06965007,0.29285508,0.014803543,0.02092727,-0.008367559,0.053008124,0.015103117,0.22453117,0.13727905,0.24974498,-0.0022198316,0.052357964,0.016884595,-0.4045514,0.037903942,-0.25907546,0.09608791,0.16427653,0.15303166,0.05885105,-0.041650802,0.1647474,0.14739466,0.04421366,0.019686483,0.33137864,0.07306723,0.024333894,-0.0012101633,0.13456008,0.14485678,-0.022563213,0.027282791,-0.009285638,-0.066407256,0.26354757,0.053108968,-0.038289383,0.14435923,0.123720355,0.31675592,0.056696545,0.2832557,-0.01360493,0.037351567,0.23440287,0.3500165,-0.007350385,-0.03805643,0.046924546,0.117323555,0.1346237,0.089119814,0.110702686,0.048295356,-0.048219487,0.0016981824,-0.08561764,-0.19680597,-0.18306726,0.013843231,0.011021328,0.28127298,0.1604833,0.018484417,-0.085794486,-0.015891168,0.2035696,0.07586481,-0.09387479,0.21395038,0.1430003,-0.030311577,0.099559516,0.0234134,0.11543148,-0.029906277,-0.027314464,0.14322557,0.15525101,0.133882,0.018414186,0.12156706,0.5220937,0.005884547,0.3183636,0.025245314,0.0067916643,0.1636338,0.014385757,0.12617965,0.15447421,0.07108065,-0.010251216,0.18950433,-0.18944226,0.014662864,0.29216626,0.12498448,0.043552928,0.043364912,0.09326823,0.16289936,0.11235559,-0.10285961,0.111028,0.119862445,-0.05044369,-0.22027451}, {-0.024860708,0.08867792,0.23776099,-0.0743882,-0.044275627,-0.00024747697,0.052015528,-0.018477127,0.18374133,-0.045721527,-0.0671162,0.0007134231,0.011139773,-0.09304849,-0.04854049,0.15333784,0.08493553,0.13931444,0.21833009,-0.1061043,-0.14039353,-0.17508171,0.11639276,-0.2288508,0.061951764,0.0032597801,-0.047757003,-0.027664695,0.06137648,0.021068886,0.08629864,0.21135993,0.034171477,0.28580636,0.072527625,0.008687069,0.17252968,0.19938383,0.14980003,0.038889308,0.060686193,0.22206049,0.08974413,0.10695459,0.06339662,0.13288966,0.1777781,-0.07488131,-0.062408213,0.19306226,-0.09690213,0.011024769,-0.057080664,-0.101415746,0.016220946,0.12947476,0.06275294,0.12505846,0.047800705,0.030059094,0.05844189,0.09931916,0.14122716,-0.011427955,0.06976898,-0.123122886,0.023646446,-0.055609927,0.08288567,0.014990924,0.25373536,0.14011355,-0.110719316,-0.031685445,0.102148905,0.08532972,0.12349309,-0.07372704,0.0958821,0.031789828,0.24888727,-0.005424652,0.15016043,0.24249865,-0.030235812,0.11188769,-0.061342314,-0.123571664,0.0283423,0.03663722,-0.00061654835,-0.16987845,0.0908887,-0.019976396,-0.0056059617,0.07463119,0.18197455,0.01587117,-0.054432616,0.06893999,0.15491256,-0.11798741,0.061254296,0.078950666,0.01768494,0.20209776,0.12542908,0.13574408,-0.039151505,0.16006283,0.115232,-0.00041050676,0.13293813,0.060540196,0.07371156,-0.031409804,0.010565187,0.202425,0.038973257,-0.08431368,-0.07809871,0.0077834427,0.045709226,-0.0073317685,0.031272743,0.08047272,0.027481541,-0.058805473,0.060061272,-0.031516373,0.113872096,0.034141034,0.045633756,0.12759838,0.04653337,-0.027969336,0.17139365,0.22642748,0.053011388,0.15088403,-0.048302516,0.0055984533,0.096454404,0.19519451,-0.18729472,0.111388385,0.05021394,0.28443608,0.00093055074,-0.2646088,-0.07233238,-0.014589598,-0.086633086,0.040471453,0.2015462,0.11186759,0.19283035,-0.010159757,0.038290635,0.11114263,-0.25749376,0.045757834,-0.32607117,0.06512381,0.10347448,0.08738097,0.14703132,-0.042089358,0.057538945,0.11877655,0.037313625,0.09074618,0.21430211,0.018414894,0.100477144,0.04225269,0.0452122,0.03207288,0.12544994,0.017516086,0.054463822,-0.07737532,0.24796455,-0.0052728583,-0.030594325,0.1558298,0.27642396,0.20092088,0.10004097,0.21490322,0.020075157,0.012483434,0.3530242,0.15712431,0.10862374,0.0017422416,0.1974047,0.057360142,0.14652002,0.13049068,0.18237966,0.05104169,0.05125613,-0.024380103,-0.106391795,-0.18857656,-0.22803944,-0.020553222,-0.043324687,0.35081813,0.12839441,0.105532534,-0.023740334,0.075532615,0.12743422,0.025455695,-0.030325446,0.080439866,0.21838664,0.019551365,-0.07870698,0.04123083,0.21849336,0.051359273,-0.111824565,0.1668718,0.08784399,0.036794234,0.08178005,0.15565525,0.24734595,0.15362744,0.21363582,-0.030539665,-0.0493994,0.23144472,-0.05841425,0.21107073,0.13247555,0.04963953,-0.061584037,0.10621039,-0.105519556,-0.04084784,0.1855017,0.09069877,0.013757711,-0.0047546406,0.078863,0.064866036,0.146348,0.05845292,-0.0010356667,0.012368219,-0.006236851,-0.13720672}, {0.20417728,-0.051891666,0.10324283,0.091459475,0.044291258,0.0031418933,-0.34424663,0.0237301,0.14539565,0.14849637,0.059089266,-0.05712265,0.11122488,0.011180577,0.093881175,0.23208396,0.020204745,0.00824587,0.014714824,-0.03377822,-0.08767074,-0.24796271,0.0074697784,-0.20576385,0.10209804,0.047384854,-0.054110195,-0.0011819104,-0.07159239,0.22119293,0.101547286,0.051943306,0.12669426,0.14959335,0.10708519,0.009360665,0.06582548,0.17979722,0.082398824,0.10095053,0.07887034,0.1794437,-0.030219296,0.0920941,0.06823351,0.31579706,0.12843618,-0.03331932,0.06247036,0.11073479,0.06857686,0.10566521,-0.053960714,-0.09038479,-0.04435701,0.020476496,-0.0471955,0.11016619,0.09065471,-0.05668144,0.124222994,0.04758338,0.035227977,0.02149059,-0.0015197133,0.21393885,0.11558532,-0.014566601,-0.17505218,0.09554118,0.13340427,0.17214438,0.029476082,-0.14594218,0.119788274,-0.18970565,0.12397712,0.05819073,0.117894605,0.05432937,0.2141435,0.04925867,0.23191696,0.04972108,-0.10463917,-0.030133856,-0.09159482,-0.18101367,-0.058357622,0.076869324,0.037177157,-0.0630599,0.15133564,-0.030679697,0.12037042,0.031713128,0.023183255,0.15900645,0.0056246417,0.10170148,0.18681407,-0.026335038,0.13400437,0.09280896,0.13670927,0.14967147,0.09550624,0.11837619,-0.043812808,0.07329865,0.18098791,0.2021757,0.1524696,-0.10682333,0.037465014,0.0191794,0.08913741,-0.02675498,0.2472702,0.05348924,-0.005237651,-0.13856198,0.15714355,0.02015595,0.08123427,0.10374942,0.029835168,-0.05789506,0.030591397,-0.017292667,0.14893591,0.14146113,0.07264707,0.020353563,0.073580034,0.062044807,0.049233913,0.1483391,0.029987287,0.23295142,0.13051087,0.114456035,-0.00783755,0.043511502,-0.13400364,-0.030912053,-0.021590514,0.22785686,0.0095374,-0.022944916,-0.04064025,-0.011913295,0.034111626,-0.033927836,0.109292194,0.04590012,-0.0005212599,0.18944721,-0.0060252105,0.08709837,-0.26105294,0.16619428,-0.23224923,0.030816529,0.037289847,-0.0014573012,0.07113528,0.030741118,0.05458866,-0.028982488,0.107236676,0.008802032,0.10045535,0.16575776,0.13747092,0.022420982,0.0035287607,0.098914735,0.14660612,0.20686013,-0.0059041344,-0.026580911,0.2769854,0.023578627,0.100955136,0.076439716,0.15634699,0.1613252,0.18205753,0.26643232,0.08795474,0.0403278,0.42230064,0.032896094,0.054171387,0.03014685,0.35769188,0.09694157,0.09739727,0.021451475,0.109938286,0.04567183,0.16875306,-0.03254625,0.051689934,0.040775582,-0.25466248,0.07502568,0.010071826,0.2339931,0.09246527,0.017394895,0.11777955,0.14201552,0.025267858,-0.091440074,0.048705768,0.031498432,0.21609908,-0.006351102,0.016530221,0.16213101,0.105733454,0.0739425,-0.13945867,0.112918615,0.024555568,-0.03941573,0.113523595,0.14774905,0.076860726,0.13808015,0.06339488,0.10906905,-0.028159587,0.10635821,-0.1330387,0.2072424,0.09419785,-0.1263786,-0.025978338,0.02284244,-0.12473362,0.08274391,-0.10623186,0.19964445,0.0809319,0.22172084,0.09657182,0.0007240554,0.044616632,0.10091859,-0.025599848,0.10842705,-0.044265408,0.10431591}, {0.1557283,-0.015836896,0.041837238,-0.020973513,0.049883552,-0.119097665,-0.29853883,-0.11384035,0.09556798,0.1378832,0.057807572,-0.038494363,0.17936443,0.050298918,0.059892416,0.11867926,0.11567541,0.045339536,0.0013029256,0.09791962,-0.01966672,-0.039911635,0.19454418,-0.048580512,0.12879974,0.09061339,-0.010175671,0.07846513,0.053848624,0.17236045,0.17964186,0.02186695,0.06695007,0.14395197,-0.042432845,-0.020603897,0.10946045,0.21314998,0.06918265,0.13349938,0.057631202,0.100738876,-0.05094588,0.17787859,-0.04840456,0.25127456,0.0880491,0.011702334,0.055868275,0.14393313,-0.020036943,0.039949175,-0.0299867,-0.071894325,0.12797442,-0.04485768,-0.003376561,0.09098114,0.056834996,-0.13422078,0.0795938,0.01798818,0.19138151,-0.096188776,-0.014515099,0.37012362,0.046654962,-0.017938048,-0.04562476,0.084397316,-0.11102499,-0.1276303,-0.0330865,0.03243083,0.106643535,0.036623716,0.14646858,0.069276474,0.043786943,0.052607104,0.08295582,0.17253457,0.26998708,-0.16894497,-0.030241357,-0.07327467,-0.14193244,-0.10940133,-0.051753875,0.025777169,0.104489036,-0.06423356,-0.0089221625,-0.038106825,0.091959745,0.16391979,-0.005448538,0.0673949,0.03952704,0.070232354,0.14127012,-0.057490077,0.13082357,0.08911401,0.16444807,0.10748126,0.1042065,0.11886104,0.03788306,0.13422216,0.021351267,0.27737945,0.15548897,-0.10764067,0.054231994,-0.035044704,0.058190346,0.02915119,0.19823527,0.15744853,0.033505537,-0.041802242,0.15298207,0.041083314,0.06288659,0.07630654,-0.046447113,-0.040268786,0.12764637,-0.115208976,0.19463982,0.02285587,0.2713481,-0.14614381,-0.042939745,-0.024953052,0.20061813,0.08719182,0.056048006,0.2735507,-0.029659977,0.08261798,-0.097918436,-0.172841,0.007123313,-0.004818893,0.057827204,0.058732912,0.077887684,0.090194896,0.085614204,0.05922835,0.014177604,0.0374654,0.028976697,0.09056537,0.07271777,0.23141573,0.00016617929,0.08996453,-0.31436726,0.090193905,-0.20092107,0.13780752,0.009622762,0.027032396,-0.008077636,0.030764647,-0.059737884,0.1003852,0.041720495,-0.016300676,0.1356326,0.15359613,0.017870136,0.21771023,0.051293023,0.08724157,0.12237583,0.21662658,0.0844356,-0.0035399357,0.15960751,0.10608615,0.029321881,0.029991392,-0.0056428015,-0.012443164,0.1664256,0.04402469,0.040225826,0.115511976,0.19739182,-0.025784502,0.037022527,0.15781218,0.042497437,0.04988835,-0.0449428,0.041988436,-0.061951358,0.023611674,0.12540118,0.027785923,-0.09843623,-0.043428227,-0.20095173,0.06283966,0.086136304,0.09036401,-0.0792235,0.07268548,0.060240917,-0.023963692,0.059297126,-0.01337499,0.0672254,-0.06373668,0.046555374,-0.11752282,0.072446726,0.045986257,0.13628535,0.05233927,-0.129774,0.1086599,0.10657065,-0.054632768,0.050810073,0.0869084,0.15792383,0.18531097,0.014183626,0.055084478,-0.09619826,0.08347972,-0.10305904,0.18157901,0.29946163,-0.022558488,-0.0046386225,0.070460655,-0.20259176,0.023271311,-0.07279301,0.09145084,0.079496525,0.19648224,0.06125517,0.043216433,0.050621208,0.15429784,0.11321327,-0.014978299,0.090200126,-0.047544625}, {-0.05157919,0.10564507,0.031319156,0.08612563,-0.03132867,-0.007720573,-0.21165672,-0.025003297,0.07742913,-0.027188828,0.0047994894,0.058941945,0.11549583,0.064426914,-0.0053790803,-0.055059317,0.046965554,-0.036851734,-0.029172985,0.029766409,0.10375414,0.14369725,0.16278005,0.1278093,0.18555161,0.004324788,0.1448514,0.092055365,-0.11112079,0.15882182,0.31928638,0.09669193,0.16724396,0.08764161,-0.07994044,-0.0074702348,0.08577797,0.14450212,-0.1221979,0.07420076,0.04848223,0.09434616,-0.034542006,0.051341902,0.030162571,0.22604927,0.057242263,0.09494342,0.073390596,0.045942813,0.14095357,-0.010126459,-0.015642453,-0.115867235,0.06485367,0.06794313,0.016985785,0.018108055,-0.0066128136,-0.12826955,-0.00069560634,0.13304581,0.19103695,0.0056178737,-0.0032981804,0.42204607,0.03682767,-0.07951142,0.09432468,0.13021226,-0.18105926,-0.14699334,0.14281254,0.07416686,0.033166144,-0.03953857,0.13749072,0.09264103,0.14294901,-0.14419352,-0.047578294,0.102358505,0.09908461,-0.057681184,0.027734196,-0.054122824,-0.055550918,-0.016635343,-0.03513964,0.04530732,0.034326598,0.051403966,-0.13266802,-0.013485082,0.09187272,0.13970196,-0.07216614,-0.015392384,0.22014375,0.12410078,0.0293208,0.019696124,-0.03835293,0.11190059,0.19887727,0.021446088,-0.020109344,-0.05355009,-0.028094383,0.08028425,-0.008325481,0.418702,0.010546774,0.025902268,0.045899853,-0.011567917,0.04817955,0.036849365,0.11914705,0.2975754,-0.054516014,-0.046730954,0.12559819,-0.1054537,0.14210027,0.18107964,-0.056386985,0.052634936,0.14935476,-0.07449899,0.10261921,-0.013174534,0.24581195,-0.07209851,-0.050676595,0.07473471,0.23215498,0.02044214,-0.010799085,0.078029595,0.11729073,0.043938763,-0.19843616,-0.06471305,0.1082415,0.06687115,0.03651466,-0.0045513744,0.0929279,0.14916939,0.039058805,0.1069654,-0.03290042,0.053930964,-0.09469928,0.121536955,0.1427322,0.15603526,-0.082010955,0.16495964,-0.16940965,0.02126399,-0.077227,0.06203171,-0.07558189,-0.0164548,0.020590778,-0.029756134,-0.098764524,0.040115293,0.043856107,0.03223692,0.09397454,0.030188985,-0.03365644,0.12149034,0.09096444,0.116696596,0.12335879,0.03634177,0.045295745,0.0025390813,0.094304256,0.15505983,-0.027144084,-0.121102266,-0.03294458,-0.056147587,0.09645979,0.004221137,0.08246275,0.13316816,0.024831057,-0.08399075,-0.06451853,0.08256946,-0.07186077,0.044308644,-0.13463558,-0.044054665,-0.11489805,0.07288591,0.13871422,-0.02831721,-0.03552244,-0.025398893,-0.034926426,-0.0092469705,0.1223214,-0.05959875,-0.11775529,-0.03736296,0.061214935,0.023960229,0.11863857,0.032259915,0.008463422,-0.058424186,0.0863106,-0.053631723,-0.08112442,0.057310157,0.16094097,0.069154084,-0.16806485,0.039094903,0.0631346,-0.17897373,-0.01686007,-0.04383552,0.15355231,0.11510987,-0.02375389,0.078041345,-0.109102026,0.10373661,-0.07089346,0.22144675,0.217201,0.029245552,0.03465473,0.065531604,-0.046898626,-0.015079095,0.016615313,0.06105959,0.009972252,0.1623715,-0.07487465,0.0320209,0.09004195,0.10629474,0.116894886,-0.054189663,0.037772745,0.060343217}, {-0.04704016,0.03390597,0.057154436,0.094334,-0.09378041,0.043889374,-0.18886435,0.08503492,0.14505368,0.04273571,0.061751027,0.029346565,0.0804994,0.070549786,-0.074108995,-0.04922436,0.0016460773,-0.070984796,-0.026926422,-0.043572176,0.1322552,0.20332874,0.19264263,0.11558226,0.17780338,0.09006175,0.11320433,0.10463245,-0.079341866,0.05653871,0.26314864,0.19912069,0.18126372,0.041504957,-0.023554942,-0.08512818,0.12898448,0.20610751,-0.030054975,0.03807283,0.1607759,0.1278534,-0.01242565,0.0729736,0.0956117,0.11560551,0.10741039,0.041378178,0.058493316,0.033669647,-0.045269627,0.07917078,0.06812008,-0.013217172,0.010996932,0.05718276,0.16284409,0.08028847,0.10384167,-0.12842804,-0.05811756,0.13399938,0.17645761,0.033642158,0.078928724,0.08020914,0.12837479,-0.003878175,0.06769182,0.16781521,-0.08764007,-0.17849638,0.1481459,0.0014224154,-0.03122427,0.04081275,0.121283084,0.07052639,0.02862301,-0.091253825,-0.08952116,-0.07216881,0.07715567,-0.026728617,0.0732953,0.039996892,-0.102482766,-0.022745764,0.0033602277,0.14608444,0.1953461,0.08650145,-0.26338953,-0.028423917,0.022103293,0.08045535,-0.032989796,0.09443573,0.19824055,0.10742756,0.06130163,0.1008995,-0.0069121197,-0.035071004,0.11230062,0.03578728,0.10199279,-0.027971834,0.08083599,0.048515547,-0.037352327,0.21873108,0.12860331,-0.04406014,0.062285777,0.005974209,0.029001692,0.1379621,0.1142057,0.2863633,0.03490975,-0.085750565,0.029139616,-0.10316577,0.03785017,0.062457595,-0.00026976876,0.053827036,0.24602847,-0.054538846,0.14734197,0.027749008,0.13872275,-0.16654581,-0.0014808241,0.03408457,0.21427009,0.057873957,0.103531964,0.1243487,0.19968642,0.112083636,-0.1185268,0.013149271,0.13386396,0.077754125,0.06759961,0.0087018,0.13532986,0.006766853,0.05543833,0.10919965,-0.05730939,0.17367823,0.040709678,0.02173006,0.15703973,0.13002829,-0.033141717,0.036758076,-0.104319885,-0.058448594,0.09981491,0.07809001,-0.027093567,-0.008599434,-0.009491156,-0.019935444,0.035579953,0.10103091,0.06942859,0.0359256,0.06621529,0.11166822,-0.08457408,0.14487578,0.041884303,0.14790598,-0.021149762,-0.010048644,0.07703199,0.09366221,0.12731704,0.00064876553,-0.055730555,-0.042235315,-0.03989065,-0.09474847,0.08092531,-0.07388826,0.04332692,0.09758533,-0.030804703,-0.009461473,0.12306865,0.0031306506,-0.10102695,0.04114626,-0.07269809,0.064804494,0.027968643,-0.006497993,0.08347548,-0.048854794,0.14875212,0.08243448,-0.056794558,0.08554346,0.06803315,-0.11150529,0.0121907685,-0.0078059635,0.08377518,0.06765557,0.11346994,-0.047224373,0.00033238844,0.0257063,0.13039225,-0.12444013,-0.06654445,-0.0061546955,0.143629,0.085869744,-0.014179399,0.057231665,0.07813398,0.0042211064,-0.042947333,-0.056697812,0.11201113,0.15181369,0.10257937,0.046435136,0.004992555,0.03076196,-0.14057244,0.06386746,0.22133143,0.005443424,0.105357885,0.11972569,-0.15304083,0.035111092,-0.049498945,0.0541778,0.02742547,0.1590743,-0.06244155,-0.030984288,0.08356694,0.11433717,0.102635466,0.047684245,0.11963526,0.07861406}, {-0.17996539,0.041649558,0.13717517,0.09131893,0.020002916,0.11018626,-0.116955906,0.0076096226,0.09310902,0.18649843,0.12035912,0.11124627,0.051453713,0.08728925,-0.076293275,0.058686133,0.04980475,0.05902303,0.055854935,0.05871762,0.14726418,0.16387428,0.3119154,0.13040689,0.07786775,0.009278279,0.16721117,0.028707594,-0.08726536,0.1469706,0.24662605,0.06496153,0.091157526,-0.04440805,0.025179023,0.0376351,0.17518046,0.07812392,0.020248825,0.009435684,0.14050703,0.088647835,0.02681151,-0.11211131,0.043454725,0.03917709,0.13168348,0.17179549,0.101465404,0.11207682,-0.018067233,0.075358815,0.13102521,0.09009848,0.057511963,0.0932844,0.13603762,0.1368864,0.08828896,-0.06558531,0.07759856,0.18714155,0.22603735,-0.063044906,0.11442849,-0.08193213,0.10651957,0.07236408,-0.007211533,0.012466654,-0.054312155,-0.056290675,0.16529796,-0.013106437,0.045422655,0.06739223,-0.005609366,-0.017053349,-0.0064151846,-0.056757838,-0.082546905,-0.067732275,0.1464671,0.018117426,0.123949364,-0.031973816,-0.06808678,0.121693,0.11152315,0.09366187,0.1485701,0.020524494,-0.21162309,-0.058849145,-0.007234642,0.13314837,-0.029944077,0.07510309,0.108972766,0.12053129,-0.022695884,0.0010652879,-0.0707603,0.02211071,0.14455868,0.090008184,-0.00032619643,0.019095242,-0.053301636,-0.019563066,-0.0025109504,0.008955178,0.023607738,0.0042437837,0.09596133,-0.016002132,0.07618595,0.02300648,0.12007538,0.19331776,-0.031432647,-0.014361928,-0.05194842,-0.062060863,0.022861818,0.12614599,0.018808082,0.11995729,0.13075757,0.03006411,0.05027591,0.0896738,0.1369777,-0.09639762,-0.030724948,-0.060085855,0.1765032,0.076276004,0.13452306,0.1850233,0.1501058,0.13225916,-0.060890406,0.00976642,0.037562884,0.03529636,0.04610449,0.11079622,0.041131288,0.062484376,-0.00772597,-0.00013996843,-0.0016965433,0.2130865,0.017981594,0.043028906,0.15634015,0.11491543,0.001134076,0.011884415,-0.035070203,-0.07474449,0.12355548,0.023579901,-0.0013347855,0.042877965,0.0006133747,0.03177767,-0.014045465,0.017073119,0.0017671833,0.10726312,0.028756857,0.15432799,-0.018225664,0.22003692,0.061746947,0.08157678,0.040609606,0.051265575,0.10074153,0.013923793,0.19861774,0.10862103,-0.12083542,0.09692278,0.051577546,0.014423599,0.0081493445,0.017421506,0.052423026,0.08482865,0.0045208833,0.06910036,0.0262054,0.1024616,-0.23485395,0.014031709,-0.020188803,-0.009219711,0.011867576,0.12021481,0.1481127,-0.08316588,0.15231746,0.005594634,-0.18758564,0.12850109,0.08867332,-0.123432055,0.04905609,-0.06715219,-0.0017740831,0.037913162,0.07550162,0.05341203,0.01470122,0.113984376,0.13175999,0.0029000668,-0.049626682,0.16218998,0.074517205,0.06625709,0.03637285,0.056033894,0.14790294,-0.097155765,-0.15116721,0.11016177,0.06718323,0.086670436,0.0704944,-0.009978204,0.060018342,0.033478364,-0.019526066,0.08502922,0.14295074,-0.071347944,0.2007125,-0.017318033,-0.15417501,-0.06628972,-0.12046721,-0.048607863,0.03101939,0.13044849,-0.08420023,-0.03254389,0.15651937,0.077950574,0.064944796,0.12634924,0.055600658,0.01905338}, {-0.16847986,0.1147602,0.14240791,0.08220746,0.060963668,0.04103201,-0.07625448,0.020487364,0.08434377,0.22003976,0.08617815,0.10926284,0.050974037,0.065549724,-0.082873285,0.08552319,-0.023839343,-0.084720194,-0.03565871,0.0045479196,0.1728932,0.063135885,0.36769533,0.0060280934,0.06463887,0.12093326,0.17714635,-0.02343472,-0.11012821,0.07130771,0.11067109,-0.013451891,-0.014152124,0.04427796,-0.055610735,-0.028226256,0.17320159,0.027556889,-0.028766384,0.024870804,0.14806545,0.03755026,0.08213374,-0.20727049,0.020858936,0.03774502,0.15020183,0.15819089,0.030250274,0.10519596,0.0053736167,0.0058039464,0.118374094,0.12510026,0.042311274,0.09088423,0.034146354,0.1249272,0.036714483,-0.071202144,-0.019763166,0.15530583,0.12577605,0.10078501,0.13827242,-0.1673585,0.20323929,-0.008895875,-0.0035489344,-0.036940187,-0.047555495,0.06829584,0.080055505,0.034220442,0.05832679,0.13307546,0.046262626,0.10039143,0.0255506,0.04560812,-0.09380428,0.07672564,0.13089795,0.057081304,0.030606175,0.020957991,-0.0666938,0.07142966,0.05693207,0.0864901,0.048758764,0.105272934,-0.13532571,0.019327067,0.044405647,0.026718965,0.096860915,0.119627625,0.072493814,0.04494995,-0.026121791,0.011072292,0.028958986,0.047264293,0.19735838,-0.019236509,0.112163134,0.042770907,-0.042854257,0.08339932,0.025237758,-0.0697697,-0.010565955,-0.036739748,0.063166,0.00041726755,0.043638725,0.022980534,-0.0141314035,0.19378743,-0.03337417,-0.09615428,-0.0047967993,-0.09346935,0.037170753,0.11663288,-0.050855335,0.17691302,0.070119545,0.110515215,0.048748184,0.039133113,0.09061731,-0.039881244,0.08024657,0.060263764,0.1959557,0.0987189,0.08787821,0.10038054,0.2172521,0.18011421,-0.15240029,0.06923269,0.10108415,-0.04185374,0.09693454,0.08258821,0.04296962,0.13724668,0.11465582,0.04861534,0.107750885,0.16470361,-0.08353397,0.020446721,0.1349695,0.025472753,0.00261678,0.12320969,-0.107940316,0.06799375,0.18874753,0.078711055,-0.07134041,0.18249175,0.12832586,0.05046894,0.010125916,0.11760967,1.8016057e-05,0.10272998,0.11673349,0.09413904,-0.117722794,0.04424488,0.055191956,0.07191244,-0.00840893,0.110792935,0.08424735,-0.0015290107,0.019324943,0.059634708,-0.11797059,0.2246236,0.056545928,-0.002853683,0.11671732,-0.06954636,0.006060575,0.057110317,0.10057556,-0.041943844,0.15159696,-0.007607755,-0.11268643,0.019523881,0.08641158,-0.06656154,0.0919483,0.033542484,0.030795468,0.020924145,0.054938547,-0.0025629934,-0.22485898,0.13289715,0.11949782,-0.04628634,0.036061868,0.059988815,-0.08316601,0.13332692,0.05998415,-0.00865552,0.040259324,0.06673822,0.059840508,0.04625116,-0.061715543,0.12321948,0.009126049,0.040758763,0.08445268,0.14015879,0.093211986,0.015430862,-0.03139862,0.0944309,-0.085888654,0.13258837,0.122775726,0.025784718,0.15430245,0.12364297,0.00095207914,0.05870528,0.046928912,-0.11076377,0.09184701,-0.004145092,-0.12096357,-0.096181594,-0.1493689,0.061614744,0.06036694,0.08017193,-0.041300055,-0.06031954,0.14207853,0.050800994,-0.003234193,0.13423239,-0.023422116,0.048503563}, {-0.03749564,0.1758796,0.13599427,0.046486095,-0.08844166,0.04927088,-0.054837164,0.070236094,0.10511471,0.12216224,0.11703322,0.04774535,0.11007352,0.13117479,-0.026052356,0.04924314,-0.0100450395,-0.12435913,0.02327491,0.032658532,0.1310203,0.13105829,0.31786528,0.080202065,0.110854946,0.10203634,0.06630799,0.027450446,-0.124473,0.044639517,0.20808668,-0.01385361,-0.037044942,0.015868794,-0.01808887,0.06462826,0.08952957,0.110524066,0.08207295,0.03364744,-0.014035894,0.087569796,0.10171917,-0.06362034,0.015394726,0.08275972,0.19598943,0.100638784,0.05861339,0.11614425,0.041801922,0.05406215,0.106237695,0.058160298,0.040324893,-0.0009271344,0.07280612,0.11234678,0.013141845,0.051633336,0.049958736,0.17204054,0.09856579,0.098754846,0.15806873,-0.14697471,0.17272179,0.06739937,0.035628922,-0.038661513,-0.03405714,0.0637055,0.10783437,0.0057692835,0.010321348,0.011773075,0.09118549,0.12210359,0.11562952,0.016859023,-0.019950587,0.041914705,0.1423284,-0.043859463,0.12272231,0.00013931113,-0.10822923,-0.06334604,0.1009158,0.099187724,0.14362636,0.1045594,-0.0895301,0.084653966,-0.002055147,0.08663164,-0.028860506,0.16765043,0.040402472,0.061264638,0.0479934,0.023558017,0.040416487,0.0029841126,0.15604727,0.013150801,-0.042049132,-0.007844262,0.04012774,0.11859617,0.08663077,-0.052831613,0.06942157,0.06620676,0.11263689,0.09616348,0.14573646,-0.013914708,0.08899463,0.08192107,0.02719602,-0.032809228,0.111322656,-0.078495935,0.036869332,0.02630919,0.107382044,0.042877328,0.06404294,0.08254168,0.10022544,0.050509874,0.14399603,0.025781417,0.16329293,0.007304258,0.15942271,0.13572007,0.1323861,0.087942615,0.08893416,0.14206289,-0.10301754,0.05702629,0.025602637,0.05820279,0.10229743,0.061795354,0.00032674766,0.103347495,0.14681855,0.09638583,0.14063035,0.14641462,-0.012037885,0.17333229,0.0800169,0.08887337,0.09067032,0.07011063,-0.11425017,0.019199658,0.11883276,0.09604044,0.091323465,0.12456026,-0.009904767,0.024110742,0.082042135,0.033084515,0.1142664,0.007450766,0.08868131,0.08006743,0.016230902,0.06427136,0.019941332,0.06961212,0.004657646,0.14299951,0.0022553839,0.07065559,0.042875305,0.10527905,-0.10055445,0.13964047,-0.0512266,0.02526034,0.1180706,0.036636025,0.092620514,0.054052968,0.13167563,0.044004723,0.20529354,0.013049711,-0.11433248,0.05105802,0.07801143,-0.018796565,0.0801045,-0.034332182,0.11930215,0.038340364,0.042758845,0.03106268,-0.13034926,-0.06008321,0.07285532,0.028456412,0.08058754,0.076399624,-0.05665082,0.09084485,0.17791134,0.020984093,-0.03485197,0.04878046,0.12971045,0.105924554,0.05211566,0.10518296,0.07760502,0.092039265,0.12433451,0.18230136,0.1264701,-0.09995628,-0.032173757,0.14533931,-0.10340957,0.09337897,0.04313697,-0.018397355,0.15195702,0.1984936,-0.02743557,0.10895911,0.054324705,0.028496053,0.083718866,0.13305368,-0.11704233,-0.045852527,-0.012547827,-0.0040916842,0.07449788,0.1157873,-0.014213726,0.07716107,0.06712138,0.036911115,0.1252854,0.064814314,0.039169345,0.078389704}, {-0.10261394,0.1965063,0.06278712,0.08798467,-0.01878728,0.09995747,0.050702702,0.06507975,0.025280958,0.18845937,0.03689228,0.12075484,0.14273182,0.1506898,0.09784333,0.13935572,-0.019810693,-0.088385135,-0.0194794,0.048822396,0.20130457,-0.010784697,0.118724786,0.0630335,0.18101539,-0.009241903,0.0274143,0.011102723,-0.003235479,0.102203354,0.08906664,0.058532376,0.07237852,0.07150072,-0.0009494461,0.08391486,0.15440777,0.12638268,0.07880232,0.055279784,0.021841181,0.010972053,-0.0057873307,-0.06092404,0.02269461,0.17957577,0.089968964,0.060174692,0.036548305,-0.0061980644,0.049944937,0.012712659,0.014128018,0.105802394,0.019942533,0.055291645,0.07196542,0.10015761,0.047823884,-0.011094361,0.113983735,0.048769552,0.06402944,0.16197073,0.0747815,-0.025152814,0.13160059,0.08627247,-0.0050732815,0.06085974,0.087438166,0.07323013,0.202277,0.06112599,0.09465903,-0.037462443,0.01341249,0.079117015,0.07652855,-0.046462722,0.016302297,0.036879484,0.057852782,0.03279356,0.13571458,0.0653757,-0.055113737,0.016884774,0.11579707,0.12937717,0.1512792,0.17509042,0.00071675266,0.023184624,0.076267235,0.12384642,0.017046543,0.20879611,-0.034648895,0.10031607,0.06262701,0.047149464,0.06324486,0.020999368,0.09943189,0.06693732,0.03877257,-0.053218525,-0.023170864,0.044846747,0.15533625,0.07923095,0.07185549,0.0046697855,0.14038506,0.06625304,0.14782558,0.115965076,0.03467696,0.035827775,0.0537843,0.06924234,0.030217854,0.039079588,0.0674929,0.11656327,0.11613263,0.1609034,0.09660023,0.061305724,0.027919525,0.056270495,0.09646267,0.032709777,0.16424888,0.030742537,0.0381241,0.045008674,0.13947885,0.04002373,0.06780384,0.03375578,-0.12013729,0.008244926,-0.013467137,0.09436748,0.09579474,0.019631995,0.04137211,0.13354208,0.16666764,0.1147246,0.08859683,0.08728908,0.028410243,0.123051174,0.13502249,0.015713077,0.15384027,0.009165316,-0.059372913,0.104081735,0.17521273,0.10536875,0.0122520495,0.0051745246,-0.008279261,0.13081554,0.007612826,0.070914194,0.111401446,0.109300494,-0.009135342,0.038548496,0.012645928,0.03721226,0.014803983,0.06681438,0.08237794,0.025269598,0.096073754,-0.035907622,0.09389519,0.07269788,-0.21178469,0.116893955,0.050822567,0.1296824,0.037108336,-0.008741164,-0.009281971,0.124633834,0.1198751,-0.015666073,0.10402323,0.092734545,-0.13226072,0.0120757455,0.055226535,-0.083726,0.14079727,0.051703412,0.023444692,0.021106549,0.08504934,0.009421552,-0.21677342,0.10631777,0.07686837,0.002113191,0.09295024,-0.072524585,-0.0325115,0.17861992,0.044964354,0.058399938,-0.091411754,0.20790222,0.028398395,0.06104052,0.005780641,0.047617007,0.03369307,0.10041291,0.0968158,0.044930886,0.2510704,-0.03536828,-0.010560793,0.088602774,-0.09463591,0.08090108,-0.015648296,0.1166671,0.11153398,0.1839229,0.07973592,0.13725673,0.11743112,-0.003784177,0.15485409,0.12385582,-0.1357313,-0.03738614,0.08511564,0.11776712,0.074512556,0.14454284,-0.053530272,0.012981442,0.10353791,0.16700746,0.073306076,0.011945981,0.09878736,-0.008396632}, {-0.009375219,0.14124891,0.0008595351,0.11722464,-0.04971693,0.09471193,-0.05312109,0.012106883,-0.0037003914,0.19917071,0.011182792,0.042972226,0.069385655,0.10434262,0.067697525,0.024670364,-0.04244947,-0.016626187,-0.009954,0.09902961,0.23621152,0.05376451,0.11421777,0.1288767,0.12401236,0.029501196,0.04358905,0.004001103,-0.043634646,0.101447925,0.03378349,0.065667346,0.06537537,0.11347532,-0.025803646,0.0078121494,0.12696989,-0.01837159,0.11847125,0.109454796,0.02278137,0.08290657,0.0556334,-0.12420915,0.066803664,0.09936472,0.06178599,0.10618646,0.043562103,-0.0054627983,0.035036314,0.008724501,0.035943143,0.04598974,0.030172123,0.08948989,-0.050115366,0.11139796,0.06479,0.020605074,0.14121251,0.04202648,0.004220342,0.0899897,0.16467966,-0.05700446,0.05209602,0.059879307,0.11003585,0.07198637,0.012641643,0.05855987,0.16380385,0.07371033,-0.013404828,0.0986153,0.06864104,0.14676112,0.04211826,0.010091168,-0.023196127,0.115042575,0.119729325,-0.089143455,0.10839247,0.13334432,0.009585315,0.0035287663,0.016146306,0.067242555,0.08059694,0.07313502,-0.103244536,0.08962992,0.090210944,0.07294466,-0.034157276,0.21532747,0.0021982612,-0.000413282,0.12051575,0.029052146,0.05700977,0.0019991007,0.10824376,-0.012982124,0.10245186,0.027096098,0.053339012,0.10180364,0.19467402,0.07549002,0.00054118596,0.058697574,0.14749938,0.1228226,0.024093866,0.03849467,0.0320868,0.044781476,0.10182897,-0.028765993,0.11203242,0.014591526,0.038683154,0.040830936,0.07372945,0.101159744,0.047947053,0.041057065,0.0027654679,0.061579913,0.19433571,0.06692841,0.13123709,-0.025119472,0.1108043,0.061789397,0.056030612,0.1347743,0.10330919,0.057987653,-0.1522021,0.02174127,0.01079484,0.034159888,0.10013485,0.036012027,0.037344307,0.21986733,0.06674163,0.11417099,0.1575244,0.0035191092,-0.0013816238,0.17231463,0.046720304,0.036507588,0.14693294,0.11346392,-0.015695244,-0.0018924279,0.054779682,0.08038396,0.025107795,0.11616398,0.08982855,0.13919751,0.12599912,0.010783274,0.014831482,0.069146685,0.12117286,0.14458549,0.0022774443,-0.007141378,0.12354366,0.1599447,-0.012369286,0.06271369,0.0752826,0.0049005514,0.06715836,0.095117554,-0.2158497,0.09898475,0.017715521,0.11054748,0.1047466,-0.10777024,0.06253021,0.048085626,0.084545046,0.04134492,0.04074436,0.16088313,-0.1322785,0.050945483,0.0051347655,-0.04619221,0.14895286,-0.025278205,0.06547888,0.084922686,0.112010635,0.091277085,-0.2620361,0.04651635,-0.02739154,-0.016173508,-0.013668117,-0.0038827593,-0.055510256,0.14508721,0.03440752,0.010748246,-0.07887903,0.1305075,0.096879005,0.07323627,-0.0030832507,0.1811667,0.025027478,0.13522236,0.08597338,0.0644875,0.22529255,-0.09904779,-0.09455809,0.10955887,-0.10421958,0.06619634,-0.059136137,0.078585155,0.1238482,0.1515166,0.0133314,0.081429966,0.12624092,-0.103036046,0.12396441,0.11245028,-0.046364933,-0.06815237,0.007989492,0.06783565,-0.037751686,0.11254841,0.012360364,0.049377613,-0.02504287,0.04108971,-0.017700344,0.07095653,0.08735867,-0.012129317}, {0.036728673,0.18336272,-0.02194738,0.12213794,-0.14177409,0.10434025,-0.051821087,0.004787978,0.0025510145,0.18669467,0.0030950613,-0.012322562,0.14308964,0.07333853,0.094055064,0.15682156,-0.12404381,-0.0741956,-0.058195937,-0.028439596,0.12403628,0.029880838,0.062180955,0.042134486,0.092482306,-0.035020787,-0.0534263,-0.0053800317,-0.071144655,0.1381884,0.092526786,0.04539147,0.041313082,0.10804813,0.09284549,0.093786836,0.17603332,0.0962138,0.16344121,0.10054412,0.05748187,0.11375381,0.04725539,-0.08818912,0.087904796,0.1710089,0.03560868,0.074769795,0.06931903,0.07029915,0.13014308,0.0503056,0.006996409,0.06326509,0.038300466,-0.019549798,-0.054703016,0.1678144,0.107714996,-0.007463614,0.1569638,0.110462576,0.014778383,0.13367262,0.15406153,-0.042324983,0.09807195,0.15304638,0.03501579,0.063127026,0.08819188,-0.0077664624,0.10702552,0.0030369211,-0.036059313,0.09677603,0.037959304,0.07576031,0.07032199,-0.0749671,-0.019563079,0.080884114,0.08968754,-0.0095743835,0.17507559,0.10938301,0.03587719,-0.08193699,0.05179255,0.08577134,0.07996468,0.176648,-0.06418357,-0.014324686,0.072667964,0.17437921,-0.003258155,0.10993499,-0.033528164,0.10608382,0.1535194,-0.029449612,0.049699202,-0.030383453,0.14518197,0.047162008,0.06944372,-0.04471773,0.023892704,-0.006195886,0.119994424,0.0060971277,0.1181484,-0.017696628,0.041496113,0.026226118,0.14246966,-0.0039198115,-0.00935645,0.06521462,0.06356355,0.09657413,0.1615891,-0.11465941,0.14671808,0.10327281,0.16670908,0.028422706,0.12344643,0.06286608,0.1090123,0.10646788,0.09750538,-0.017473474,0.16090493,-0.025654914,0.07036879,-0.015486901,0.04750661,0.07347923,0.004624454,0.12664002,-0.14048812,-0.0011038091,0.003218445,0.002637817,0.005495768,-0.019724432,0.027307672,0.10585877,0.09872838,0.11469921,0.112280235,0.1298048,0.0014861809,0.15024748,0.03151375,0.069603905,0.13059328,0.028816573,0.0136608705,0.11586781,0.120355785,0.088911876,0.020427492,0.084056064,-0.0065367334,0.090050966,0.0823128,-0.030269025,0.029498696,0.054066103,0.12964877,0.12337862,0.07821801,0.11091436,0.038135067,0.10767684,0.037122507,0.11701512,0.041569367,-0.0116573665,-0.044780076,0.009925298,-0.109716736,0.12516984,0.015708257,0.05779409,0.07998858,-0.026363388,-0.06459747,0.064986296,0.122199275,0.050992616,0.18048558,0.086835384,-0.1344165,0.012215979,-0.027254986,-0.06437541,0.019920383,-0.050631996,0.09003485,0.1472244,0.16855581,0.07653377,-0.23810454,-0.010142208,0.048465177,0.08360363,0.013785355,0.032358367,-0.06361785,0.1456922,0.043631554,-0.008277452,0.0009111365,0.070959926,0.15233567,-0.004859985,0.023434142,0.15467758,-0.0027233236,0.085672766,0.069450244,0.10902297,0.17916694,-0.0785828,-0.11940183,0.14187248,-0.117635906,0.056985475,-0.053693328,0.02101404,0.16294248,0.082860045,-0.011343165,0.020721702,0.017117266,-0.101955816,0.03494568,0.0113595035,-0.06879151,-0.024293676,0.07770652,0.052603457,-0.0142583195,0.1177739,-0.11403941,-0.035009395,0.076041035,0.06603612,0.024727676,0.10507448,0.031998027,0.03748584}}
#define W_LSTM_KERNEL_O_WIDTH 28
#define W_LSTM_KERNEL_O_HEIGHT 256